1 0.00497939128956662 -0.0028998690714198 0.00123713191176974 -0.00613299451285646 0.00368474563598017 0.00833907545437081 -0.000133584725348603 -0.0014155406947077 0.00748984383763111 -0.00173277536529363 0 -0.00175826395806088 -0.00260934738090177 -0.00265584577844417 -0.00202730496641598 0.00390297360827519 0 0 6.16895707067831e-05 0.00435887480742629 0.00395502119701773 -0.00119685104303451 0.00206168773420635 0.00156089466847462 0.00517683670807749 0.00355095761150781 -0.00213025971595055 -0.000987109075304356 0.00835133508253861 0.00351940046415682 0.00430486769266993 0.00362787300085107 0.00137253617390443 0.0055140418897769 0.00461906233709421 2.44861985113344e-05 0.00179826453970844 -0.00141274861305253 -0.000618238643469186 -0.00101798689949548 0.00200591245152544 0.000235051845825498 -0.000992349833705849 0.000925700331539674 0.00262989438544772 0.00103538782214416 0.000842594887107217 0.000103914849846013 0.00128734617183166 -0.00118402567562526 -0.00114784888663275 -0.00188750539993716 0.000131070510776777 0.00132570203108654 -0.00253104210661608 0.000553126959300661 -0.000494132627562413 0.00118605873270957 -0.00287899893296877 -0.000546646580765992 -0.000257073895921178 0.0062119346744237 0.00215320666145419 0.00688643935839318 0.00549820726498799 0.00309670120359977 0.00438742812254753 0.00110341424656115 0.00675607345885096 -0.00127867250293197 -0.00248583760472231 0.000705250029016104 0.0033285522906162 0.00886130689696402 0.00430934665529237 0.00361690682968331 0.00753191276773284 0.0036213010700955 0.00525490332532157 0.00824493368050912 0.0045428135220026 0.00115374020470841 0.00407977487768261 0.00490944002569457 0.00231773522355221 -0.003285859962317 -0.0020364005992647 0.00333784583375367 0.000998021068931178 0.00477125641413536 0.000474520848511878 -0.00102697563976351 0.000845355941294445 -0.00182549000748172 -0.000884415862766605 -0.00842427944263903 -0.00435766555766324 -0.00378949154206882 -0.00592320451766366 0.00353618253439475 0.00261534245571713 0.00576008141492414 0.0027925777452624 0.00182891332610837 -0.00361963958870192 -0.00351769947469939 0.00124455596861686 0.00232206976240422 0.00125084505516331 0.000553123143343267 -0.000817785699735947 0.000732972042968858 0.0073364397176153 0.0101468543757145 0.00716770611288556 -0.000391290065378353 0 0.0023244154167846 0.000223298674560025 0.00831405473727866 0.00148125557683095 0.00475226403286752 0.00328957600451369 0.00133823496473562 0.000607269408357569 0.000983117708670987 -0.000335837558466123 0.00174149105136072 0.00067533322609652 -0.00114025713998994 -0.00217274889793285 0.000153905851439392 -0.00269771796408813 -0.00612742767444754 -0.000923452349250728 -0.00163432778553312 0.000422178029436992 -0.00332308212325611 0.00317432846148839 -0.00347280013393848 -0.000439968451132835 0.00263343122321236 0.000495421447979128 0.00141432420788559 0.00642935791446874 0.00597077029985437 0.00723644958732352 0.00742396058273832 0.00399242999979655 0.00764544111741867 0.000979453279631953 0.0070470623824988 -0.00132073184631706 -0.000204592931663786 -0.000155599223418115 0.000699733119968636 -0.00145734321840959 -6.76053116165858e-05 0.000933276805208557 -0.00100555771792349 -0.00143520439904012 0.00450228043869862 -0.00452078079536535 -0.00299270231595802 -0.0103891819123311 -0.00488366596800002 0.0048546792181343 -0.00373522434232208 -0.00512282412677053 0.00417939884789614 0.000990887228914083 0 -0.00366228850577685 -0.00507329018348993 -0.00668658420524485 -0.00526442094166879 0 -0.00522071021503861 0.00199130415451577 -0.00497719026501795 -0.00116718530645531 -0.00243813249423869 -0.000966505727689568 0.000415054854006621 0 -0.00250731597117953 -0.00159016625963571 0.00148406810278018 0.00519023145045466 0.00337325673265713 -0.000462581514609005 0.00344330440643918 0.000117633739008888 0.000836157958292749 -0.00183137474309461 0.00138639506697736 -0.000959534029909663 -0.0071833624369652 -0.000940368332193145 0.00292341396822372 0.00227651238753748 -0.00264897450697754 0.00522717937355211 -0.00137245925293257 0.00406137820424856 0.00277598765968849 -0.00123371032773291 0.00448142947027612 0.00147289292655633 -0.0065055053873391 -0.00370153697656593 -0.00228925862149983 0.00468080509017192 0.00186837231667188 0.00430441704507287 0.00330931217378067 0.00671340612909332 0.000582213086164993 -0.00128301496173597 -0.000310390482078779 0.0016440365181456 -0.00196188294585462 0.00206755393928095 0.00110541963934102 -0.000849257205348981 0.00395992422103149 0.00379736922312124 0.000795745845001426 -0.00249496674635138 -0.00262514635826407 -0.00234064391050455 -0.00052123208887472 -0.00264483830697422 -0.00618573048840713 -0.00266319091227731 0.00563428435263225 -0.00687473092746302 -0.000260658363309407 -0.00221030282385453 0.00111126936447293 0.000555932616511444 -0.000648486327970294 -0.00574233200331347 -0.00131685914151 -0.00109550050788869 0.00118825409865777 0.00130983384411879 -0.000966079554786515 -0.00190686461056931 -0.00474334001018508 -0.00904564645416711 -0.00536619991859654 0.00261960569477791 0.00372780685806827 0.000114223447553174 -0.00220673133637928 -0.00800952217944736 -0.000589926353261516 -0.00307940118042116 -0.00208722792544742 -0.00499839960538319 -0.00819520828044689 -0.00262860163056386 -0.00571327278798818 -0.0058165934310806 -0.00298905410156905 -0.00173030665179206 -0.0023219882943724 -0.00341317035465805 -0.0062097232241343 -0.00472990183395151 -0.00474952367268918 -0.00245442299000817 -0.00441009172965887 -0.00105386171834972 0.00271700294930189 0.00450948866658355 0.00121831596577202 0.00214603884857436 -0.00229109248954702 -0.00383213054512582 -0.00228490784918185 0.00294283874349309 -0.00710078885157163 -0.00354976142662558 -0.00301997523850151 -0.00381332633313041 0.00028626000901564 -0.00202243350374583 0.000884044181277135 -0.000278522731190105 -0.00404396320871197 0.000583646453754943 -0.00220206289471363 0.00269647645539161 -0.00414402029653513 -0.00805728628270802 -0.00794413844237051 0.000232499701642078 0.00490582694405935 -0.00397185442226853 -0.000788070664300604 -0.00541514852230725 -0.00668424468503266 -0.00226210110134178 -0.00650158406076806 -0.00346361294417349 -0.00719160007430855 0.00352140924907722 -0.00213090212583141 0.00123168534797305 -0.00291370295079457 0 -0.00341022832824817 6.39844180171726e-05 -0.00396049211757907 -0.000373602440775912 0.00263033692685019 0.00738414694266606 -0.000788679508804028 -0.0014902598007883 -0.00516533726694489 -0.000413928120776717 -0.00111005622197314 -0.0032977364836198 -0.000998401417101146 -9.6911313750692e-05 -0.00127589955264184 -0.00369602090046976 -0.00591319557078755 0.00344498467088369 0.00595984452449623
0.00497939128956662 1 -0.00621191117704803 -0.00324298460136193 0.00161710549894806 0.00162393458861236 0.00424491847332934 0.00425022085787324 0.00604599576534773 -0.00618952141232661 -0.00562773243062162 0 0.000490271229250622 0.007461062010107 0.00431729683601723 0.00459915717877059 0.00274894563971289 0 0 0.00865077797769157 0.00230911325145015 -0.0037517660574473 -0.00408751455435849 0.000960952405151707 -0.000517126682210308 -0.000951835591793756 -0.00622941172202211 -0.00288645608049148 0.00100641330909427 0.00622095462496721 -0.00157616351003749 -0.00187436262042223 -0.00451499461410204 -0.00738027948845695 -0.00166742499264595 -0.000476534973383118 -0.00156556511371646 -0.006674469141265 -0.0056558821074983 -0.00812131523788372 -0.00921609331797609 -0.00538615007606061 -0.00348271002926171 0.00296439379843641 -0.00824554974007365 -0.0030754641634956 -0.00446082845053139 -0.00227444095658723 -0.000980046071938786 0.00121942611893257 -0.00609140311735 -0.00220807476393126 -0.00511059466291711 -0.00547663913142963 -0.00156336418308383 -0.0081599148885159 -0.00332284772747515 -0.00682416364879112 -0.00313838152421613 -0.00576223338682379 -0.00148300511885592 -0.00529621958072591 -0.000493412290476786 0.00183233076998994 -0.00310131602054966 -0.00886278415294662 -0.00766141871946887 -0.0099106864268043 -0.00258940943205943 -0.00485727101005229 -0.0087296790079706 -0.00978795208137702 0.00159444961346683 0.00252723552277708 -0.0010296218404351 -0.00457186528251421 -0.00811548305130212 0.00434646541112784 0.00617867847858678 0.00143784646653353 -0.00507436983661801 -0.000561153349322938 -0.00219751575964498 0.00242973368677415 0.00237023574074337 0.00570751292922766 0.00632471499060247 0.00548637328614357 -0.000804201795525229 0.00342336252427621 0.0023320059053186 0.00935874823496972 0.00377434067980687 0.00272526042243117 0.000719572373911638 0.00258244475036829 0.00501828929711994 0.000940012283590807 -0.00176734185532309 0.00298835030593437 -0.00428444163928791 -0.00698532252974871 -0.00119403845146571 -0.00583016635587397 -0.00353227188104103 -0.00405571289343435 -0.00714111442722046 -0.00340906842867406 -0.00116053858212127 0.00827150783656326 -0.00899244437007715 -0.00382513298344234 -0.00042323241671068 0.00828621941498472 0.00771108833269764 0.0114128501516374 0.00758777672439575 0 0.0108428186051818 0.00984544443112463 0.00789501430369736 0.0126954361961783 0.00589668884473486 0.00520884413833968 0.00127228070842329 0.000362347456738905 0.00134993595075517 0.00090134186326435 0.00327668237181301 0.00825968469992284 0.00365784356657351 0.00145286432886837 0.00902456264849497 0.00119134048455653 0.00347751922681818 0.000182000611916414 0.00389392113317564 0.00100408725788707 -0.0029439310900002 0.000780157806925981 -0.00290762901365136 0.00463486881673412 0.004558483614589 0.00630353418491268 0.00142706931920471 0.00289378916189374 0.00117112297266603 0.0091735594277348 0.00408290850582959 -0.00126856608314404 0.00538295904720965 0.00511061465412597 0.00424582543681021 0.00585594299718494 0.00395541158424204 0.000715124912643219 -0.00385623024106915 -0.00444880992492299 -0.0030608753882533 -0.0124129435185232 -0.00399731491286747 0.00524895560072134 0.00172316311548676 -0.00797311378616596 -0.00245126925823881 0.00272127660201587 -0.0031263660704 -6.59693179229833e-05 0.00403680224028018 0.00705482926970882 -0.00700793140486463 -0.00753985503200476 0 0.00793198783121363 0.00590982669695984 0.00844409012907889 -7.84955134118288e-05 0 -0.000522159691405755 0.00351508124087732 -0.00544830181178867 -0.000993738135952547 -0.00355359309727412 0.00167183889773507 -0.00544655987019009 0 -0.00364067661682755 -0.00413850772018144 0.00832786155790902 -0.000683939392119973 -0.00373909978491877 -0.00283999240303252 -0.000988807495457624 -0.00206271772053884 -0.000686270931724975 -0.0082733440666112 -0.00672718819759793 -0.00918131189777657 -0.00462148437823595 0.0029056959558837 -0.000151841942431055 -0.00113463625974707 -0.00439390552013507 0.000389714253059808 0.000452895743155496 -0.00185443883099953 0.00406672017359816 -0.00087888587377021 -0.000270494605247112 -3.49006517393701e-05 -0.00195788312149708 -0.00730899344233048 -0.00698692952650419 0.00218148314556407 -0.00170008027648749 -0.00136746683139147 -0.000996931567989368 -0.00164439940573474 -0.00103475745397954 0.00117142352382538 -7.62060539212136e-05 -0.00175666043497756 -0.00602530028097236 -0.00536514361212897 0.000843387632373086 -0.0078220168455042 -0.00766706586239969 -0.00473034547411414 -0.00370942110932882 -0.00298128152237945 -0.00801421458247159 -0.0105935894339666 -0.00771882032871406 -0.0115550883758328 -0.00776038694544608 -0.00345132546311852 -0.00266879298113277 -0.00930770792094055 -0.00867993192730244 0.00554586565199926 0.00394727565575492 -0.00155755033592918 -0.00471778962566236 -0.00778099432807138 -0.000738528817936791 -0.00675124621262453 -0.00131238732312692 0.00389408998877743 -9.40932645591225e-05 0.00288663220237031 0.00476134818501353 0.00984624711601385 0.00360564054456411 0.00308694065672791 -0.00130695908453395 0.00333986163367257 0.00625859512755541 0.00486970077912998 0.00330475265161648 0.000250090246163175 0.00254532999579957 0.000182560262643956 0.00593025367282806 -0.00121831332345976 -0.00135338699454997 0.00548915442841906 -0.000100182520902382 -0.00574042843601433 -0.00859742715431839 -0.00553553843332473 -0.00754335574074076 -0.00275036647230218 -0.00300828605564976 -0.00749405179234458 -0.00544430719190625 -0.0065690884481771 0.00728548376398401 0.0118701666664193 0.00357196656171418 -0.000503660957191597 0.0100536572613461 -0.00628515682124329 0.00272763298755838 0.00325046319410679 0.00559379021912697 0.00629169403363726 0.00875223042012665 0.000404032839249553 0.00453898987327555 -0.00274672378365367 0.000664374077783685 -0.00637111707003223 0.00295510087682065 0.00423480636472361 0.00530562859645786 0.00334297094953108 -0.00111993958964255 0.00372886117061228 -0.00278904243291798 -0.00653458381856193 0.00295083616378421 0.00951677690974147 0.000272430541273938 0.00610240971080208 0.00568076087442732 0.00222709607014702 0.00693747277033242 0.000605759687930485 -0.000756745867437053 0.000220288721490772 -0.00143497115685123 0.00130989256165813 0.00338827871799028 0 0.00202554356324923 -0.00172054190861878 0.00205309065868066 -0.000982812509545186 0.00736645320360982 0.00208917587322716 -0.00143438433739199 -0.000400348520370289 -0.00705390446163109 -0.00146572675962827 -0.00501784952292621 -0.00198641997318591 -0.00436473560417107 -0.00402071408028855 -0.00568866075186726 -0.0101596742764866 -0.0124062419839436 -0.00803046967897673 -0.0073718192121491
-0.0028998690714198 -0.00621191117704803 1 -0.0070946984310488 -0.000893028043251049 -0.00756071408028818 0.00146775904248637 0.00269773340586747 0.00574504730874741 -0.00283778221780371 0.00109603659791165 0 0.00138799431480353 0.00668837305138595 -0.000201813916789133 -0.000370569550342164 -0.00157952630956135 0 0 0.0033107719160051 0.00128204341060401 -0.00456439098119242 -0.000726762306396177 -0.000229978560148497 -0.00442116879773316 -0.00422290335523784 -0.00497235491681228 -0.00147027918503199 -0.0048064995532047 0.00149802752557062 -0.00345556742719211 -0.00137056528434397 -0.00254358802509899 -0.00560667813218016 -0.00195539715425223 -0.000755404356732577 -0.00184070448609684 0.0012893802066997 0.000241224349235483 -0.00480474912674112 -0.00442646568469915 -0.00407464182162334 -0.00543384872945478 -0.0030031012551359 0.00308331092568556 -0.000848569339847887 0.00214216530273719 -0.00330971751755164 -0.00501703643877943 -0.00578517388458287 -0.000704219316771283 -0.00243222292742937 -0.00174292236349398 -0.000642924554752806 0.00114897810729485 -0.00132846489966309 -0.00402196385117764 0.00173084862064993 0.00287852263600305 -0.00687637990486424 -0.0112463898392586 -0.0114867313552395 -0.00683600225187074 -0.00217726444454187 -0.00308860988618863 -0.00833260227572921 -0.00442882189718665 -0.00735867719675456 -0.00444278587599143 -0.00623857921336004 -0.0066136459842349 -0.00761952378351054 -0.00196199272418901 0.0085096349696316 -0.00338732198638153 0.000778804439145025 -0.00161257773445216 0.00568278884837057 0.00348286285217394 -0.001322899760949 -0.00402264460363143 -0.00659581938623719 -0.0012974191647447 -0.00232110526505395 0.000708118671980581 0.00195353877543637 0.00542345196258336 0.00848001879007572 0.0138004466026345 0.000249119144325173 -0.00761107506811033 -0.00645396984810633 0.0121135453172551 0.00296137281059187 0.00300545977056108 0.00818566174093961 0.00194807446212606 -0.00104791745233765 -0.00643893366515576 0.00183033172939069 -0.00340739194950152 -0.00181504353634737 -0.00500963505421192 -0.00558852012056759 -0.00150265054667978 -0.0040449760661018 -0.000839895601011394 -0.00405029277018294 0.000249278012930282 0.00256389537478952 -0.00184314489692439 -0.00399066285981579 -0.00332649841137327 0.00444998542527131 -0.00125094184461254 0.00151348665771403 0.00363853791013903 0 0.00621873612877403 0.00437641155392791 0.00116485390820624 0.000382691192358985 -0.00514979713796473 0.00609535389560177 0.00826092655072803 -0.00569974944016666 -0.00404807139450529 0.00395316225440056 0.00460339879470126 0.00740902345361942 0.00992634724490792 0.0028060734868803 0.00276143944437858 0.00480671375999817 0.00277149025158051 0.00152484752401307 -0.00257318506572846 -0.000435681854540479 0.000239031130151053 -0.000836348482290076 0.00513683500208388 0.0063935293878093 0.0106300674652206 0.00067046340766542 -0.00493360887916562 -0.00614482590608335 -0.00263873813916779 0.00572734819904314 0.00199143445140571 -0.00369957434624212 -9.04715083236537e-06 0.00260799613381019 -0.00220734598077441 -0.0011626674876802 -0.00228986260791845 -0.00424749320347837 -0.00777892645511694 -0.00676369124465742 -0.00509437047589846 -0.00463594927715497 -0.0113449731064974 0.00380004455593162 -0.00474932540109342 0.00135925456742723 -0.00619066837539207 0.00258977144976991 0.002974516778682 0.00749702056576284 0.00421068826975596 0.00849281123177479 -0.00271569935850091 0.0011240076645641 0 0.00770081490242411 0.000196482169605213 0.00540901754749091 0.00393509109089497 0 -0.000253644764263567 0.00250131235423071 -0.00148376049285769 0.00166125421472467 0.00145819371118809 0.00638892579619378 -0.000372978435677729 0 -0.00200302709340218 -0.00101041118278114 0.000943547484587664 -0.000457893437337351 -0.0010209398074731 -0.00132501693729077 -0.003754902246139 0.00308497485813014 0.00157358835348178 0.00116465433660674 0.00236290571508492 -0.00230247622780352 -0.000642933464172911 0.00265815914256669 0.00682416635853529 -9.00790721428726e-05 -0.00126921290206347 -0.0018389556447717 -0.000366229394981531 -0.0018657709346117 -0.00218127899018293 -0.00333208277980495 -0.00023634735307412 0.00493544780908874 -0.000603249529962815 -0.00147092668524678 0.00196468861987479 -0.000826624033868639 0.00262474663586634 0.00721721155476314 0.00617904835273313 0.00657854976564369 0.00181655338247076 -0.00114137984991336 -0.000414047322598732 -0.00524102351030324 0.000932396794269528 0.00177415093091377 -0.00185991161638192 -0.00732283958418436 -0.000520459845007828 -0.00684634598515906 -0.00736540681850372 -0.00638093319448597 -0.0082680281840333 -0.0064359845735538 -0.00654801085716609 -0.003434872806112 -0.00590260621827394 0.0120564385510464 -0.00401212886240136 0.00166257315322157 -0.00163734721929911 0.00812739551839049 0.000668497243650223 -0.00174737892327333 -0.000277302284578037 -0.00177125666452091 0.00135905346961492 -0.0011848630314859 0.00159046029428975 0.00442146973646605 0.00340449425164497 0.0059160921797115 0.00777919983290128 0.0072028191055637 0.00982283567353968 0.00867703346682258 0.00287466212058849 -0.00180350803327895 0.00234226247640982 0.00974244658815625 0.00453945590069905 0.00285724624394337 0.00712683055336751 0.00017180535473106 0.00138194281231057 -0.00162003407194659 0.00350457441364387 0.00994955564575737 -0.00540527983893108 0.000971928065149803 0.00424327895453349 0.00570541395545475 -0.00213339421670144 -0.00406461684091662 0.00160902833956043 0.000261751095851954 0.0034369740445155 -0.00202557971455398 0.00175215242573176 0.00358869970021571 0.00529509827230907 0.00464798894607079 0.000822189733124731 0.00176531660901963 -0.000567598809872402 0.00170153842670626 0.00134387382779192 -0.00318636380769189 0.00365310428908626 0.00458925354928332 0.00372254827240901 -0.000614881372676232 0.00392299426952025 0.00241871893156371 0.0051215917952844 0.00636807985746971 0.00656717630981964 0.0043156931923849 0.0046118385128751 0.0095738074164456 -0.000404015046245063 0.00136174836123302 0.000837473001707219 0.00509063716583598 0.00157162751502918 0.00712262897481765 0.00812565169471593 0.00368171099155072 -0.00174239469363845 0.00123410618733764 0.00330473108049008 -0.00120298723962867 0.00271600864416764 0.0054177868284886 0.00577864038436218 0 -0.00276414234785905 0.00143078221183643 -0.000208344161602067 0.00130451804979297 0.00525784271551427 0.00509820788829987 -0.00311347136368009 0.000597574812507611 -0.00513181730710447 -0.00127772396101886 -0.00344462331138824 0.00262194502361915 0.000431065585354613 -0.00397320706598146 0.000731260807461878 0.000384224988288764 -0.00604788511697134 -0.00360740675418729 -0.00340181359179296
0.00123713191176974 -0.00324298460136193 -0.0070946984310488 1 0.00162217366676534 0.00253738737498367 9.8618334401453e-05 0.0031295346957717 0.00216407564271666 -0.00042421518441293 0.00197575381974112 0 0.00215027174627342 0.00209727028422378 0.00634938958958961 0.00406313200623045 -0.00160403419398233 0 0 0.00116284325045993 -0.00396278263120478 -0.00837706747833484 -0.00253919161326924 3.11647189704515e-05 0.00142997934093045 -0.00694938084346688 -0.00592988715014147 -0.00424283665393008 -0.00109710077705081 -0.000867989199041168 -0.004978083135436 -0.006621750817981 -0.0032831055293929 -0.00841657339374535 -0.00486822477201178 -0.00625085403562617 -0.00997450456868917 -0.00608135202823635 -0.00886011083706875 -0.00484810224551019 -0.00476065049756037 0.00057453165504627 -0.000334224215237619 0.00420965752873431 -0.00663395225297326 -0.00686314018050204 -0.00989993121857787 -0.00641540286909667 -0.00467880313368975 -0.00282178323156295 0.000851293403230866 0.00449764482189072 -0.00513410516791037 -0.00485090626942614 -0.00222974373683396 -0.00354096964121506 -0.00243917806980021 -0.00530751074589415 -0.00511764253470828 0.00628835589919043 0.00466261400047553 0.00817380397075771 0.00354868438357231 0.00258058214273576 -7.03871603646191e-05 0.00436355770011548 0.0020696012324 0.0071702621934333 0.000553478225793489 -0.00110687466502691 -0.000359580342066897 -0.00621313527954026 0.00153650222398465 0.00624632228342474 -0.00113144027512913 -0.00648230820271757 0.00113957577769629 0.00325003951905338 0.00161320104784822 -0.00443895795537666 -0.00620679937239045 -0.00763094052316247 -0.00527722022223189 -0.00455521115986944 -1.511920917291e-05 0.00119300695812547 0.00335637144661926 0.00325812045937052 -0.00198852178535266 0.00590934030025592 -0.00282802295842527 0.000271067148385623 0.000970952323903632 0.0038210058127156 0.00372551009652978 0.00127481915136215 0.00497093385670442 -0.000791016187026486 0.0039557828783222 0.00558455552862333 -0.00543405116996007 -0.00282639282439822 -0.00138529408896283 -0.000287450535850795 0.000389786208429681 -0.00157947598904631 0.000758283306612143 -0.00168378139075202 0.00431407608252648 0.00556002560218101 -0.00783011390019358 0.00123564441280224 0.00926060032509475 -0.00469286291069616 -0.00332081809759689 0.00288164387174722 0.000796633979422899 0 -5.1389524163124e-05 -0.00124452469251275 0.00336393925981761 0.00451455367416565 -0.000754066897168934 0.00568256435225234 0.00086142701960561 0.00959676594817412 0.00327393305387422 0.00198317302701831 0.00417420595045892 0.00381767918782673 0.000632062001223771 0.0032945044636668 0.00628220858887372 0.000866869825458783 0.0039344177704079 0.0042275312944257 0.00148356918141555 0.00216957232100718 0.00279836066651165 0.00170821964780692 -0.00246527501512111 0.00131657234583197 0.00388847522927582 -0.00779404454830098 0.001605136278681 0.000164139359745013 -0.00265231096251953 -0.00376032151412908 -0.00360094603243616 -0.00153224242040984 -0.00412026520880382 -0.00244477975558193 -0.00532458648841782 -0.00225244372918186 -0.000696527763709663 0.00536325713098871 0.00134473558439519 -0.000933220627752733 -0.00102114226564155 -0.00198956221102065 0.00611300128408584 -0.000489025793243328 -0.000495845249427856 -0.00610652934905404 -7.2601794184775e-05 0.00260121310615153 0.00495935736974192 0.00103926318653905 0.00124187080229239 0.00377515779507331 -0.00306620559552559 -0.00283704478337326 0 -0.000396555859076573 0.00145684403906206 0.00441790127416249 0.000869697576377258 0 -0.00188683924878361 -0.00419822990004779 -0.00317013994181606 0.00251644246186511 -0.00275481548918469 -0.000197667833705229 -0.00897321913355855 0 -0.00386493030537987 -0.00515538896118357 -0.00159504907895464 -0.0013771224458594 -0.00546262950722212 -0.00114879749061419 -0.00405276739908724 -0.010388282669476 -0.00982486304988554 -0.00671973211549379 -0.00791012158134151 -0.000544532696227622 0.0060484466704843 0.00659887847106158 -0.00515171666073738 -0.00255664793962039 0.00143677241577993 -0.0047362555741203 -0.00383109782964407 -0.00464035846875083 -0.00407053116101243 0.000455003920338677 -0.000717067684345068 0.00115370931447728 0.000212877150580257 -0.00367125371338989 0.000473872057615654 -0.0018752027894685 -0.00328006660595121 -0.00453737050095409 -0.000138166529253955 -0.00872056980964504 0.00228665892166684 0.00436162927389413 0.00544588749028412 0.00550040138998497 -0.000991804522832438 0.00158483535162369 0.00437806608553713 0.00546110943233485 -0.000486337916953807 0.00288148844907339 0.00058306504744721 0.00321075906988105 0.00211448067420664 0.00603508264927654 0.00156119475370671 -0.00410823376695201 -0.00291296441593982 6.67018740109525e-05 -0.00138846923067264 -0.00635774107240406 0.000386546135635303 -0.00220360049811922 -0.00552686255382032 -0.000255440973658381 -0.00215236912454907 -0.00268752498329337 -0.00582977636180124 -0.00729073791797258 -0.000234251893479818 -0.00267209322154372 -0.00545749715792378 0.000499794909629809 0.00424486740370086 0.00407876389122092 0.00485005696007927 -5.91505711384231e-05 -0.00145740334583132 -0.000346118555016844 0.00239897803792955 0.0012046739844332 0.00526793606453366 0.00213158913321907 0.0021386427858275 0.00385528559930638 0.00124579183474164 0.00425778577094213 0.00813873828942178 0.00308483564562392 0.00465286809845281 -0.00629428315557189 -0.0024282816831802 -0.0012058843018158 -0.00351965173905679 0.00142995772170798 0.00142172020737158 -0.00717970880178097 0.0040773114259527 0.0032371399928434 0.000280133661889731 -0.00289050792964023 -0.000802898448835505 -0.00372459736259371 -0.00124633476192687 -0.00129191624943441 -0.00232287125512538 -0.00205281049330819 0.0015516643069658 -0.00786428588258356 -0.0038322254916211 -0.00344373511881401 0.0050685033532797 0.00458570582803663 0.00707545632045223 0.00344970555382288 -0.00185592905918843 0.000711845270425007 0.000136262548944812 0.00180883516336671 -0.00165309065087847 -0.0022102386977278 -0.00126355163365363 0.000213257173646671 0.0039501412565258 0.00534745968156698 0.0011182466017521 0.00581392698008 -0.00450463380643565 0.00710806849903252 -0.00156318809548679 -0.000581623713367624 -0.00394639135580893 0.00448227095074302 0.00587233878745846 0.000519633276209966 -0.000511171139263282 0 -0.000929719850559604 0.0007222625216592 -0.00688776069024363 -0.00437104804806269 -0.000738395921242876 -0.000207741878131514 -0.00443775789555279 -0.00099621068748905 -0.00133765742137918 0.00330623476605602 -0.000711020777016006 0.00646490103131409 0.00520167396452067 0.00135698024110499 0.00262902158049217 -0.00455009116495312 0.00659957063491342 0.00248607297574364 0.00299014021982597
-0.00613299451285646 0.00161710549894806 -0.000893028043251049 0.00162217366676534 1 -0.00358978956002153 0.0044135212754931 -0.00286673930639059 -0.00176136081138604 0.00285974144296658 0.0017167164256509 0 -0.00179834152125479 -0.00335282502632647 -0.00200787726364965 -0.00191733083176943 -0.0039175151600277 0 0 -0.0059945283774092 0.000599707786981299 0.000720962376303051 0.00329002821586557 -0.00186257586512564 0.00116604534452358 0.000287935243299671 0.000886793820398951 -0.0017314445275427 -0.00136991207371481 -0.00240029626381804 0.00167576107164202 0.00139609314400249 -0.000480925527087587 4.75534821642614e-05 0.0022742954857648 -0.0010601267684926 -0.00213657811347434 -0.00125505718813483 -0.000999852925619633 0.00307903714073219 -0.000175956251938793 -0.00038479764698965 0.00204407422960807 0.000697325843920574 -0.00260583082860478 0.000234181111471561 -0.00065395608828711 -0.000660922662202687 0.00176688689020193 -7.75548077924993e-05 -0.00085822757521647 -0.00188878408567962 -0.00164659131569656 -0.00403890986951552 -0.00164115700376426 0.00226418793748104 -0.000300867162095458 -0.00199591007080312 -0.00336656345842639 -0.00832226453866497 -0.00469651985135609 -0.00816861568665554 0.000168418139629347 0.00143739108138096 0.00265431856409501 -0.00684020859972321 -0.00216375369440284 -0.00315002021820057 0.00657098389074726 0.00191100787261948 0.0032193294409771 0.00111527884362894 -0.00276962026914355 -0.00412874977616649 0.00237814881368777 0.00601420631752747 -0.00320776737612198 -0.00153220454543053 0.000557825700537267 0.00180779427882901 0.000461001509465821 0.000625143201421228 -0.000725651956132177 0.00408735778104324 0.000899841395166251 -0.00421572095420989 -0.00209936288879411 -0.00631516230949634 -0.00332556979779995 -0.00358578615317496 -0.000135882944412594 -0.000749663980525772 -0.00447586883269648 -0.00715793022425092 -0.00735174229098008 -0.00397957828874268 0.000568122997707219 0.00209221588217706 -0.00486432253697431 -0.0047416329146272 0.000411347952001815 -0.00277008132841018 0.00650504547673849 0.00386200831127956 -0.00132152505249159 0.00653761684286595 0.0012342907284986 0.0038420972778932 -0.00122463809321741 0.000647245479236603 0.00461987524267751 0.000388159130108778 0.00226935401129095 0.00369006588541525 0.000940093524166356 0.00155582788124326 -0.00325985881111169 0 0.00570287938125009 0.00480499369899225 -0.000429579142449704 -0.00142325580870363 -0.00677722138822717 -0.00665843662590716 -0.00758628275656381 -0.00513187524726129 -0.00285737547853426 -0.00541679681183458 -0.0050588986470365 -0.00421756967044216 -0.00440981639694854 -0.00564284159918545 -0.000663409268483839 0.00141817335874885 -0.00447646977915573 -0.00231447848661471 -0.003217516811432 -0.00130948972075663 -0.00249564842639438 -0.00193608867477702 -0.00021335382123 -0.00605788741776115 -0.0013459083548152 0.00359158817868334 -0.000328150590222573 0.0070080863839583 0.00326365217330436 0.00150006504156805 0.00848876488093244 -0.000876975961665406 -0.000712493990898143 -0.00193746658358026 0.00192633951253674 -0.000223092329794881 0.00296355174545936 -0.00234332960555446 0.00219523807878812 0.00451589913874354 0.00016542677486118 -9.85855038307944e-05 -0.0061008504548984 0.00194699002498866 0.00380702612634156 0.00131232575301136 0.000885749946790919 -0.00245796705569955 -0.000456340762968691 0.00157035675836164 -0.00168342083849279 -0.0065738632153226 0.00470543586001946 -0.0026365016461192 0 0.00280138933667652 -0.00344118471466263 -0.00244171852864832 -0.000202088165891809 0 -0.00189083896542774 0.00349069123390231 0.00478030639320102 -0.000297961707618257 0.000208707305391024 -0.00167510403257964 0.00316826523870455 0 0.00590642044504584 -0.00157232353581907 0.000177598107922598 0.00378985040004657 0.000837741158030819 0.00511716652806827 0.00109313125752989 0.00299098175911041 0.00454862844609293 0.00700572770482855 0.00128009812211861 0.00327700755569934 -0.000284083321566854 -0.00366110938611754 0.00484350598707292 0.0027065790716041 0.00132422385574609 0.00336045445466786 0.00671772387995651 0.00339883129161332 0.00534474146901908 0.0028316615847401 0.00398160706374164 0.00416313034768144 -2.78862121138497e-05 -0.00185798927713813 0.000649535224039489 0.00655375958222353 0.00670578655614344 0.00585851242265145 0.00599591312336467 0.00193638046326656 -0.000600350735656058 -0.00372672105536899 -0.00398644237402874 -0.00265218316682837 0.00746828535857058 0.0044992790533734 -0.00043361746113671 -0.00401724497889666 -0.00440666967607692 0.00178849082013566 -0.00249978762954434 -0.000495677862747601 0.000349090856963806 -0.0065466813391184 0.000456621181622865 0.00200897107134685 -0.00174441395502042 -0.00232935251686553 0.00443703646603517 0.00329286038556689 0.00191480029975682 0.00345205403509979 0.00476916846728291 0.00286888389194313 0.00393620873584702 0.00129361103815656 0.00264515096407651 0.00481706682696705 -0.000566035764047721 0.00936008458644576 0.00717284619826501 0.00504234392658452 -0.00106204051622702 -0.000207580893909426 -0.00774695956560489 0.000745619731300494 0.00170772295926038 -0.00456689247496063 -0.00448564106825778 -0.00229416766048633 -0.00668846949328157 -0.000625333007817421 -0.00337949433992811 0.00163381118096544 -0.000819952221753872 -0.00512002375476554 -0.00882934616248045 -0.00909958037244579 -0.00807337603978185 0.00139301598127678 0.00107838626397446 0.00204466261196953 0.0114737229307012 0.00043416967322391 0.00107847579829115 0.0100550853639599 0.0030699468516968 7.56826674463372e-05 0.00152291459494927 0.000738878459739557 -0.00323735656479534 -0.00124887500603048 0.00471002135430527 -0.00524901653518311 0.000987787638337662 0.00334935566637267 -0.00291189192617753 -0.000145395885450036 0.00349434000462947 8.20358567291854e-05 -0.00237921513974769 -0.00494564083280655 -0.00724584556267772 -0.00153119238817499 -0.00202584791521562 -0.00212767903890516 -0.0020543219838268 -0.00345986720386045 -0.000633295405806114 -0.0013391542770926 0.00113938231933127 0.003474481242668 -0.00322348848667162 -0.00246353078139473 0.00222280534117855 -0.0043464905532896 0.00247491184013163 -0.00417281033985434 -0.000982979886674641 -0.00144265898154339 3.62811253257616e-05 -0.00263693175793311 -0.00330117452687634 -5.67233322667835e-05 -0.00342629995345524 0 -0.00116817288038906 -0.00562544635410866 0.00118766229228617 0.00190256875351214 -0.0011007459295722 -0.00245520390871455 -0.000627797735050426 0.00118110045428078 0.00163849731192545 -0.000243074409761392 -0.00136368883708909 3.83459356204312e-05 0.00241088484790088 0.00368667915195258 0.00106862322912369 -0.00164479845236516 -0.00857856625782258 -0.00556324778503333 -0.00448169644246092
0.00368474563598017 0.00162393458861236 -0.00756071408028818 0.00253738737498367 -0.00358978956002153 1 -0.00782897972002095 -0.00354189632484241 -0.00458191795910647 0.00260350077323659 -0.0042963710694085 0 0.00276339222648456 -0.00194270653098542 -0.000516886139803133 -0.00684674421777219 -0.00546749712175709 0 0 -0.00694254188070621 0.0048341517196779 -0.000605648055269545 0.00046715253762281 0.000548134573663253 -0.00184042157836531 0.00499585524020976 -0.000270430253352822 -0.00118786178513228 -0.00125467357953574 0.00334312186225818 0.00138108219204258 0.00214782137973178 -0.00139246524523623 -0.000716110644814226 -0.00171644518468528 0.00178176309871246 0.00475605358706961 0.00334557314006977 -0.0020107368973097 -0.00528481267990037 0.0024770834465356 0.00168184209372597 -0.00210117521106114 -0.00519035661286086 0.00135901180780486 0.00141303687018125 0.00277201776455403 -6.52023630553657e-05 -0.00300477173599097 -0.00177989308060958 0.00182477958724994 0.00185373743773966 -0.00511975535783581 -0.00151209459914665 -0.000336357989200974 -0.000699893257924668 -0.00406179347893012 -0.000487084253899732 0.00122531124855671 0.00929459820960475 0.00855039047077837 0.00751108010168823 0.00442229758007514 0.00515391858969334 0.000670068791039338 0.00772341798108876 0.00973783804139614 0.00979044702620548 0.00293854434670254 0.00505148945130246 0.00404254934518504 0.00335602563078222 0.000903835352712803 -0.0051278502748423 -0.00462963573006101 -0.00396286554779434 -0.00224569715881771 -0.00796815944226009 -0.00966856816336255 -0.00273794315503636 -0.000511910751519053 -0.0035544843259209 0.000118902666309422 -0.00447825393509324 -0.00684938483802272 -0.00999520288802971 -0.000932523883622219 -0.00255584392150395 0.00788728897919848 0.00159904591366034 0.00174020986999689 -0.00309906881399933 0.00350943419453491 -0.000579502129475905 -0.00262865043655506 0.000252630679110916 -0.00258157566073511 0.00122623566987043 0.00469189323437963 0.000827075528865742 -0.00241774274087566 -0.000586423695743089 0.00486068059057535 0.00133778739772717 0.00310079294919797 -0.00354663776932343 -0.000351741207310828 -0.00577103820147393 -0.00808928977086424 -0.00938987947502737 -2.42314119919903e-06 -0.00655750531062609 -0.002655318864904 -0.00817183254833804 -0.00630685208757309 -0.00138347564482131 0.00158705881106338 0 -0.0110281191261868 -0.00747852304904264 -0.000450907869582292 -0.00213912571855809 -0.00575239347016175 -0.000141116430713576 -0.00434692248800617 0.00581491569909759 0.0100980396025736 0.0066219115230249 0.0041519597315513 -0.000885698342776798 -0.0013027209126862 0.00375081996562141 -0.0016961345367373 0.00023217411736018 -0.00279188427532478 -0.000131278813590078 -0.00156124708809776 0.00141925188708296 0.00499685632956626 0.00547212498231912 0.00193600415655645 0.00276932551432537 7.43268254580769e-05 0.00254576586038259 -0.000415954145252349 -0.0028262290807289 -0.004330936028494 -0.00784844186656912 -0.00578241010274028 0.00304941822684594 -0.00441612725238154 0.00119763538426558 -0.00507709887622006 -0.00197787737380969 -0.00756597550787954 4.18835361431256e-05 -0.00340849865415375 -0.00231351695331321 0.00768382399217242 0.00304769643165539 0.00883804425841506 0.00248727789973852 -0.00058837806573515 -0.00345279850759666 -0.00159845197347424 -0.00515082446642177 -0.00332949055951128 -0.00492116276101772 -0.0067998590738378 0.00153953761272744 -0.00259229652587513 0.00538333255125197 0 -0.00370386951862015 -0.00492526046650647 -0.00874050887073644 -0.00584262563231816 0 -0.00237682835913668 0.00248576932350011 0.00134342826879637 0.000673160943150943 0.00334000330488393 0.00328418384872181 -0.000676682362005548 0 0.000741823236102001 -0.00241135916812407 -0.00197578599015842 -0.000176301524366175 0.000270247348671243 -0.00180376128030563 -0.00220437317300195 -0.000346220647594863 0.000525220381460086 0.000989324216648041 -0.000294402785455119 0.000272268289117982 -0.00220129405917731 -0.000484570710657834 -0.0019057210885185 0.00092384371422629 0.00212193744056898 0.00131503266501528 -0.00261121966411127 -0.0010974755203003 0.000507161990439577 -0.00168681904492032 -0.00152978824232905 0.000567678366550189 -0.00568279029986482 -0.00481447737370831 -0.0017605190339737 -0.00293597406319775 -0.00262844802446673 -0.00175523212181157 -0.00416525628609543 -0.000228907394703561 0.002755534089797 0.00552368339656473 0.00941048327648549 0.00618544288811376 0.000237931868803197 -0.00354695820007148 0.00681939744015917 0.0129820608261901 0.00485591581873984 0.0111815670382849 0.0121951723474407 0.00952853725509492 0.0116661487664917 0.0123063513673942 0.00557591262095133 0.00452629673938172 0.000200701276992444 -0.0117711422685861 -0.00199598594239742 -0.00625247785466027 -0.00350674163572428 -0.00916171171590018 -0.0104153966809619 -0.00670646401724943 -0.00351088197151772 -0.00572826739206432 -0.00231892851588973 0.000180242387011525 -0.00235819858764549 -0.00128868692409209 -0.00444692326812889 -0.00718701624466173 -0.00133074865934184 -0.00517484829069511 0.000611041051125411 0.00097825419469699 -6.10760535395619e-05 -0.00419220836296536 -0.000641957351672817 -0.00359254320701482 0.00466374200838781 -0.0028599601596089 -0.00254534315801313 -0.000826425980821213 -0.00266370353615222 0.00846506672638355 0.00618518067446758 -0.0018318922250798 0.00680717289983828 -0.00315074395917159 -0.00435542775567713 -0.0019001599801023 -0.00485145753344718 -0.00958082866894294 -0.0114032580218334 -0.00262028121512079 -0.00808851762558988 -0.00532033392341182 -0.00926360241172736 -0.00327859065922486 0.000436386279841267 -0.00159177583007808 -0.00508427998682087 0.00110239097480299 -0.00592488331483934 -0.00314681320396014 -0.007240438606117 -0.00262122468817891 -0.00203797877818999 -0.00537650190818405 0.00251268965092909 0.0109055041717602 0.00540747632041935 0.00653396804085598 -0.00434105858060037 -0.0023612066035926 -0.00195336340970325 -0.0025737261293291 -0.000349446144807656 -0.00322057800851868 0.00172895000686717 0.00415918200456955 0.00642807950029377 0.000474744277250338 -0.00120568329854231 -0.00259129929749885 0.000122027445254783 0.00330006893735162 -0.00396473531701703 0.000735964948346362 -0.00242452356140174 0.00165281423254165 -0.000528881823089365 -0.004023731591397 -0.00655227466696853 0 -0.00432219294158919 0.00292250296420668 -0.00766851387795639 -0.00814669369690232 -0.00808263355237962 -0.0046122343129512 -0.00504960668657259 -0.000747369030029233 0.000791967785765428 0.00234428210493959 0.00189481104099095 -0.000312656269567722 -0.00393517272653886 0.00160228280881208 0.00253741080307071 0.00630921633000058 0.0115088086585408 0.0117726682620838 0.0141317316459779
0.00833907545437081 0.00424491847332934 0.00146775904248637 9.8618334401453e-05 0.0044135212754931 -0.00782897972002095 1 0.00389233238237332 -0.00461080817434864 0.00203368445656545 -0.00585273568445565 0 0.00449794938977714 0.00751087380154834 0.000989334672017249 0.00353994379844213 -0.000994496650972905 0 0 0.00587031239899229 0.0106552082465829 0.00590558210496979 0.00658123419142565 0.00253019439432801 -0.00037134842506211 0.00171935970985895 0.00040268613186904 -0.00414771191953092 -0.0051530370928155 0.00768679036064976 0.00579424283423434 0.00840531828374038 0.00766782537788113 0.00956589340767874 0.0069397802538217 0.0103854513058124 0.00966318963781184 0.00533032570039412 0.002452539707923 -0.00311091021720721 0.0103012263708325 0.000611823759550162 0.00350971553216442 0.00363025471193529 0.00649713363633393 0.00582213877717697 0.00690459385230232 0.00537036458982666 0.00731502134256137 0.00474629431460766 0.00627785192005058 0.00287990374924188 0.00269907673260397 -6.24202237322258e-05 0.00298841290036195 0.00569969502633235 0.00401530820541267 0.00531973985094389 0.00251592340780007 -0.00529610592399996 -0.0121076515737951 -0.0077893247614725 -0.00168519068542206 0.00327834332900838 0.00616602199226759 -0.000197302519297123 0.000589968484900662 -0.00138735669383185 0.00247036644115777 0.00310098982076028 -0.00150614402210415 -0.00702918104979789 -0.0105252341402432 -0.00112295650219021 -0.00152450048356884 -0.00100658140077558 0.00229962629150355 -0.00213660386235272 -0.00164997234834677 -0.00420625399045362 -0.000965989935274213 -0.000803024836931066 -0.00147440493086899 -0.00618035014572715 6.24413408862076e-05 -0.00457769198710623 0.00573511816397256 0.0039712950320143 0.00684101788014764 0.00359780762403233 0.00455221826675103 2.09024243919859e-05 0.00370064333218035 -0.00364955431303365 0.0010817875279884 0.00292531931284329 0.000293031426387483 0.00013804241216134 0.00102603029115055 -0.00455822150473801 0.00123504564079242 -0.000829688845084005 -0.00221293134683464 -0.000876266637361064 -0.000339629055152853 5.37168052479128e-05 0.00192987965421503 0.00685522267653907 -0.00203923389432281 0.00633288415066554 0.00118432205004521 -0.00631435096119146 -0.00341453342930855 -0.00104055985146411 -0.000116082655500395 -0.0018051936637601 -0.000773353135703887 0 -0.000223521211291467 0.00583289057503166 0.00131262580732484 0.00246502785341232 -0.00559620069594662 0.000438341755464072 -0.00668097714303003 -0.0114259040253317 -0.0079951937205169 -0.0139251772720757 -0.0139190203420559 -0.00287573842436781 0.000833296967552609 -0.000753700220422372 -0.00747898260312553 -0.00805087544790572 -0.0103465281175495 -0.00373455404327307 0.0018699556723791 0.00236197501875601 0.00136619645890404 -0.00489236707753566 0.000850756171581887 -0.00112326672137404 -0.000329104248438805 0.00323426609429629 0.00249438693047211 0.00449413719829911 0.0023295772044638 -0.00650121781531453 -0.00205230671328973 -0.00304429211838736 -0.0075766902726706 -0.00216747506128966 0.000274973188763101 0.00664256075683428 0.00434645567512566 0.0051752273550065 0.00937413638023814 0.00308038280499652 -0.0100593206565096 -0.00394109034004437 -0.000107554267182171 0.00492038776824653 0.00635031125451181 0.00211519272480037 -0.00053206062598453 0.00294360070841725 0.00171003624733327 0.00194279776046114 0.000416588501850032 -0.00667853126776347 0.00676720169679317 -0.00805462404905052 0 0.00116835158340633 -0.00356425608046753 -0.000440985903855354 0.00129520426111034 0 -0.00156938030377688 0.00784157172475734 0.00442543178857338 0.00635485906157506 -0.00110893197966006 -0.000575759170331391 0.00535461878212108 0 0.00615943079449526 0.00346777617732673 0.00575399649735735 0.00491377467354338 0.00947406072765569 0.00497733498720932 0.00745477323257991 0.00785242809011947 0.0110600448855032 0.00909532037605923 0.00585817119481632 0.00251419129535699 0.00552115985130549 0.00194743427645778 0.0122100713453937 0.00715723517204323 0.00864333235284218 0.00472069222152009 0.00895896039053779 0.00592716326992706 0.0090569701873316 0.00501315636467551 0.00269857146901691 0.00675392592530028 -0.00163070112826931 0.00206291732343012 0.00252972512874993 0.0010485026507052 0.00365156010012783 0.0100786003152694 0.0036307675267378 0.00777164147547073 -0.00583067730226206 -0.00639534615211304 -0.00698950834155658 -0.00649519565200542 -0.000943623053731913 0.00616669131181249 -0.0054590097020956 -0.0028169558885627 -0.00228733187527703 -0.00645501179053929 -0.00620208897734691 0.00075543193038025 -0.00637146825300527 -0.00171762906714148 0.000167742078580939 -0.000892486234002868 -0.00413522639207516 -0.000570052110905426 -0.00243213599086256 0.00337831288743497 0.00497948162904138 0.000954773496902535 -0.00084520220569119 -0.0056647321171545 -0.00485864573505674 0.00349332377154109 0.00129202506746808 0.00542822356202414 0.000820324069859307 0.00266317934605045 0.00278537278904999 -0.000138827046217076 0.00289742869514182 0.00136813574807802 0.00148010611295365 0.00528778830323331 -0.000720387142306096 -0.00213379683358243 0.00264607338791528 0.000486943663692955 -0.00583389974428948 0.00177711044913747 0.0022309352990504 0.00502853419731169 -0.0019681446068424 -0.00421046847625941 -0.00257408064605099 -0.00974797554370746 -0.00462896862980696 0.00227892729286176 0.00189767178778999 -0.000742461584595631 0.00277370984241719 -0.00101425611651986 0.00215129521428532 0.0059286953182112 -0.000583076866223487 0.00343241435831884 -0.000399228249435795 -0.00652233342577252 -0.000866025788575908 -0.0018806480099718 -0.00104410052113288 -0.0042700110801809 -0.000751906574677904 -0.00174924868261298 -0.00406049489079377 -0.00411275984463908 -0.00455881233261014 -0.00290516901527785 -0.0135851941409117 -0.00492165673626191 -0.00604364360040998 -0.00661518523572392 -0.00172457500998011 -0.000323824854924462 -0.00459335985310884 0.000765112043805748 -0.00499120266787049 -0.00146258637932641 -0.00327646925566443 -0.00981712342187217 -0.0103277960499834 -0.00873485841516584 -0.00812027426524799 -0.00404518821795471 0.00195408130067711 -0.00548714006696626 -0.00113948610422724 -0.00215916277013855 -0.00381286670774084 -0.00170598292346944 -0.000168390597413099 -0.00488823923738475 0.00180521347334204 0 0.00286848441269445 0.00253207815543826 -0.00105214282260693 -0.000622210891353054 -0.0043264069377526 -0.00677390641682978 -0.00189123257104446 -0.00437628877310806 0.00302493447571529 0.00476809623315186 0.00368790455072419 0.00418244706088365 -0.000442252965166424 0.00332970454781232 -0.00198032505157005 0.000341572711038084 -0.00477741202609789 -0.00655592319748976 -0.00168683661214411
-0.000133584725348603 0.00425022085787324 0.00269773340586747 0.0031295346957717 -0.00286673930639059 -0.00354189632484241 0.00389233238237332 1 -0.007359881031207 0.00244149728731741 -0.00167558047740292 0 -0.00307768713227083 0.00230420831640171 0.00153715743636248 0.00190726933279088 0.00393105018207175 0 0 -0.000909887813575119 0.00519081017210338 0.00732485366443583 0.00263194358260228 -6.00942765719273e-05 0.00615691528096263 0.00456447879020453 0.00858268640482104 0.00861606977049848 0.00694166725522642 0.00236269107631377 0.00275645445392495 0.00319472659176281 0.00127912439619879 0.0071724713161795 0.00472762491127797 0.00400529588849648 0.00575234231711189 -0.000232697103371575 0.00583956691201546 0.00402873352671682 0.000522574580488156 -0.00357122368280251 0.00348601988465974 0.00307937303651435 -0.00147594243301547 0.00179224480272692 0.00487177936921232 0.00629771158896257 0.00776644683464784 0.00393082559632218 -0.00400038228373637 -0.00430782329229967 0.0028156181323413 0.00244907210931346 -0.00222572248057863 0.00191150557558242 0.00587602959622053 0.000338400170153752 -7.68517149904724e-05 -0.00988350129623043 -0.00435268231917011 -0.00718449924788299 -0.00411414593879235 0.00236655303835991 0.00270254140849528 -0.00626560877207963 -0.00629213008939579 -0.00346517250253722 -0.00017094026350305 0.00185164481077893 0.00419271155706538 0.00559555955249407 -0.00227421594749368 -0.00996991385546535 0.00294240190624022 0.00793315150393872 -0.000119290670270137 -0.00100220388144833 -0.003003376521074 0.00460273226361236 0.00286208413577356 0.00193069121332985 0.00543233222671908 0.0029437639949931 -0.00405241337923866 -0.000651816229561013 0.00117569507153087 -0.010177451702667 -0.00346554361200782 -0.00153329616496704 0.00212121917829066 0.00183709606688612 -0.00271734653285134 -0.00594786395238687 -0.0107551718901562 -0.00782272999868301 -0.00472254245896679 0.00028019620443299 -0.00410832573035369 -0.0110676612367376 0.0019640581630001 0.000950391436290129 0.000748558150833465 0.00258637988882377 0.00206492182232988 0.00186995723298431 -0.000678844946726589 0.00380491610771263 -0.00357969859781227 -0.00255074470341782 0.00655260674000329 -0.000103956580701751 -0.00358680256201835 0.00325496661593056 0.00277414601249867 -0.00271210339013057 0.00111374360455061 0 -0.00318690010128338 -0.00251411545702721 0.000600250762204683 -0.00121558154835243 -0.00124842020766534 -0.00475956609261218 -0.00289083233163363 -0.00479152186830284 -0.00508443805050233 -0.00804770591315327 -0.00757125765949142 -0.00423276809080005 -0.0065800037380012 -0.00916778036977401 -0.0106313807567259 -0.00119281224035252 -0.0110784014559861 -0.00741108829126851 -0.000470181025808296 0.004045303551711 -0.00887159897501527 -0.00369331830337648 -0.00059506028562493 -0.00428176686675495 -0.00460722725767735 0.00236593759854425 -0.000199469780237664 0.0051483608217184 0.00783039130481135 0.00160923084794639 0.0102054138944083 0.00342615387406925 0.00204434671718112 0.00507223590288442 0.00944860234024904 0.00299575358205282 0.00531554051003131 0.00231451086135581 -0.000719168449399811 0.000161656665095344 0.000483523405795007 0.00223145445154995 -0.00609602780894449 0.00139461270870912 0.00576994915105094 0.00441824469199568 6.5800289404364e-05 -0.00554575789099404 -0.00456526396350017 -0.00852148357106007 -0.00323931751548059 -0.016071684370131 0.00364408039967276 -0.00706857917020918 0 0.00254623039552088 0.000376570272838294 -0.00222736945936577 6.49275176165129e-05 0 -0.00100913041145376 0.00612537748761971 0.00557470627450357 -0.000281775820754727 0.00199618630053449 0.00274322471860115 0.00556059978498279 0 0.0070757322072873 0.00423331870463263 0.0015462511742602 0.00581658775909238 0.00786461782347454 0.00395324953606432 0.00515982695246592 0.00819434407264183 0.00922066895817341 0.00873150309751461 0.0058058127419748 0.00387803794800656 -0.00335194573793649 -0.000430006792825725 0.0035099439270128 0.00237585556772589 0.00362084543537551 0.00796927031606049 0.00514822680027884 0.00677998585959641 0.00556505580840136 0.00199685281528522 0.0080068263993774 0.00014054973694201 -0.00555076853575362 0.00107606574548375 -0.000381524481170785 0.0105648847231527 0.00907577092456629 0.00590688071297531 0.00445238195247111 0.00640627863231858 -0.00428736632985552 -0.00482796667078865 -0.0062584822755825 -0.00848916519749472 0.00411327419995311 0.00351157324282621 -0.00557670256751026 -0.00572247402132058 -0.00570880961966103 -0.00215413197952781 -0.00437733337243588 -0.00703428783552342 -0.00335422575597209 -0.00567652199031057 -0.00407525125332948 0.00571321773202699 0.00187595232908309 -0.00677953830984584 -0.00225926128824914 0.00502205109239769 0.00309959953997523 -0.00356908900436877 -0.00532960637471367 -0.00534343215402393 0.00485502571344263 -0.00222265978043494 0.00167851661634335 0.00501459095069204 -0.00692300342633403 0.000830823568987365 0.00529040866417728 -0.00199430117270968 -0.00362980921864027 -0.00261947498716055 -0.0114393113146936 -0.00228335838603528 0.00131278136183881 0.00366314681887081 -0.00162797062237022 -0.0104878421981891 -0.0109236172316686 -0.00663388518264088 -0.00929879210170912 -0.00219695477493525 -0.00435198637458172 -0.00902594502013055 -0.0137359341239049 -0.0115752275838047 -0.0100154974627997 0.00334109181712166 0.000890221527703717 0.00336172078505476 0.00509145932618118 0.00366366682939031 -0.00523977246848902 0.0055712767859618 -0.00697496695244175 -0.00658340681843995 -0.000939662292332422 -0.00134307279755612 -0.00135582093312673 -0.00133554584913742 -0.00441785384314471 -0.000334259607215 -0.00772649151104341 0.00101552421765081 -0.00105093378607682 0.0020721607626409 -0.00140822529609758 0.00323920910194232 -0.00732072517470775 -0.00842478475093994 -0.00741103619039148 -0.00308304804585643 -0.00467833248570345 -0.00560149898317197 -0.00448057708983641 -0.00609411130847226 -0.00316096704706379 -0.00713158855125489 -0.00833653864779578 -0.000252999507410578 -0.00604071613210116 -0.00994178620641644 -0.00227773679582342 -0.00967718043882584 -0.00560077111285297 -0.0115005668369671 -2.273377967262e-05 -0.00180445325087256 -0.00143779818980381 -0.000406527272737756 -0.00652677247022463 -0.00472805403066375 -0.00388247690414151 0 -2.36378871927484e-05 -0.00351360817729563 0.000984447924078301 0.00858818128256753 -0.00366337405770105 -0.00187609506187601 0.000442028554863579 0.00232474658760528 0.00365288143962778 -0.00536037546700057 -0.00264695460844468 0.000292461889066441 -0.000993136368968961 0.000182687575066295 -0.00301956075249405 0.00389097044659414 -0.00774705209543205 -0.00574392506759732 -0.00968313348681278
-0.0014155406947077 0.00604599576534773 0.00574504730874741 0.00216407564271666 -0.00176136081138604 -0.00458191795910647 -0.00461080817434864 -0.007359881031207 1 0.00866236860918285 -0.00932384616605593 0 -0.00212903690211239 -0.00430700800719515 -0.00712496063463941 -0.00854586707013628 -0.00933669969473031 0 0 -0.00572539530408993 0.00579359594740658 0.00749172133327661 0.00972575693545273 0.000553520961662547 -0.00108321043574205 0.00417881611470489 0.00597561644532186 -0.00142334694545122 0.000978874207507051 0.00063462774669575 0.00601773499014293 0.0058941419330076 -0.000815069570533715 0.00957351666579945 0.00577981273540526 0.00673012449906617 0.00767382527946468 0.0064480425514956 0.00669900222170379 0.00904578899917821 0.0100527856114999 0.0086655566966623 0.0100067238119203 -0.00504176800656985 0.00782653359137268 0.00309135299695361 0.00762017360726716 0.00445126292629866 0.00667052436292388 0.00206178611898446 0.0104883106751219 0.00741206097668341 0.00407934560328255 0.00548816337731847 0.00571747030649743 0.00810955123504109 0.000964729563779994 0.00347351659151844 0.00384964465171334 0.00227988814162585 0.00129020271760365 -0.00398305911646536 0.00406851217086618 0.00563827974451109 0.00237275378010311 -0.00128755800759744 0.00194673469037641 0.00103955637193158 -0.00144822378005394 0.0105573617296649 0.00928120507944701 0.00588040962587734 -0.00431047260423351 -0.0101552702383107 -0.00408799866928701 0.00344187932686923 0.00468985766569162 -0.00863782847329696 -0.00862569103357391 -0.00388066112325251 0.00858683156708255 0.00309068268095802 0.00110643698006441 -0.00152329192667154 -0.00486100162180278 -0.00576637595101891 -6.31993397701814e-05 0.00366699489854711 0.000453532310943162 -0.00671572619052275 0.00164829443312509 -0.00261396229509586 -0.0014209093441544 -0.000174097283541798 0.00454032297302823 0.000789110059226685 -0.00517814237265096 -0.00196068403479034 0.00323460009455234 0.00574897522236738 0.005345300564977 0.00474375301225493 0.00945622572248368 0.00749873507643296 0.00603310007314805 0.00521453964013732 0.0034011934063674 0.00372046736340184 -0.00295467123467599 -0.00663688212785118 0.00870973368005159 0.000588620725567798 -0.00312957687827867 -0.0157913418068559 -0.00952727633178029 -0.0104931717406873 -0.00559778414691226 0 -0.00769232377443876 -0.00443238891754233 -0.00856789489229931 -0.0072123858690608 -0.00333294593281873 -0.0100002543045026 -0.00662118929373535 -0.00400986464921521 -0.00133471202539973 -0.0068454929820008 -0.00871213308855124 -0.0042793468619795 -0.00272990430634914 0.00111612389835605 -0.00275956996727212 -0.00213434710540366 -0.00635695504517235 8.30170383290015e-05 -0.00837727366134201 -0.00506386586432644 0.00862003480897377 0.0029788763671423 -0.000791579248654055 -0.0101531902554086 -0.00505867235505197 0.000243521714974624 -0.000366177306692623 -0.00425140809013774 -0.00513158922686624 -0.0138188955778012 -0.00591052241570652 -0.00493465111493816 -0.00666844418359405 -0.00403331167681934 -0.00228621137955836 -0.00507666730575146 0.000661449838447902 0.000435357195054532 0.00598555434424637 0.00188995142670128 -0.00330303496454825 0.00189258119350629 0.000163359810030721 -0.00174858053431317 0.00150534394235773 0.00830606577301627 0.00468778828858193 -0.00624218352545154 0.00545779990844597 -0.00294905276676246 -0.00981658079179247 0.00201896402435229 0.00601312548672111 -0.0049609198680185 0 -0.00715538455525848 -0.011437014356786 -0.0134075008963265 -0.00952172255947974 0 -0.0064826989420418 0.00270355553422502 0.00906281797370474 0.0020194218645039 0.000440802696396156 -0.002250602378509 0.00683745029312709 0 0.00557929110016792 0.00204291171122657 -0.00470339263171484 0.00429130930819699 0.00465002474493026 0.00642568374304319 0.00289082765018139 0.00502940911245698 0.00492479101493624 0.0121946821770223 0.00851502730489623 0.0049479934300404 0.00397820387375218 0.000874461539235054 0.00877638836670614 0.00510443951711485 0.00840030797585765 0.00328346203615442 0.0067168243722729 0.0053088627016176 0.00372083412721486 0.00579979185143981 -0.000510310040341573 0.00224764107322858 0.00281596047236999 0.00642886905232576 0.00649912239620065 0.0001298079259936 0.00748136718799187 0.00663578264281666 0.00288966671155953 0.00643369891089722 4.85761854796482e-07 -0.000641925953101224 -0.00159709091847393 -0.00270157691730376 0.00719335136576551 0.00236173115625778 -0.00182580031692554 0.0018211170993894 -0.00210614268665991 0.00389084141174275 0.00288667327284615 -0.000367591143468942 0.00114271171636472 -0.00232572889286296 0.00090668701867467 0.00998246763356353 0.00289621735705864 -0.0054856298069948 -0.00132167185661924 0.0108768984531558 0.00761222218476139 -0.00365800688027015 -0.00563708305264184 -0.00619156724733372 -0.000904319197713033 0.00710411986406963 0.00389335573373391 0.00872139667298184 -0.00420649722997109 0.00255715504308704 0.00117835651568522 -0.00164476352652362 -0.00237443303592445 -0.00147089389416184 0.000861732414081327 -0.0049331197466204 -0.00612012961120996 -0.0120052396002953 -0.00149564657463085 -0.000345851182229307 -0.000844654986613346 0.00223894026367617 0.000113017510778174 -0.000770468140915712 -0.000933293103139013 3.88195006376045e-05 0.00324094607196418 -0.000781695064603385 -0.00207383951024029 0.00875700005001034 0.0066761261262103 0.0041893922627711 0.00869222868575004 -0.000438337795563483 -0.000368015495403437 0.0120628686252655 -3.97178820171432e-05 0.0018025933680523 -0.0108394337938933 -0.0110847169794148 -0.00660493854028473 -0.00820410419396608 -0.00156685780269382 -0.00031714736170934 -0.00112064735566575 -0.0051669742124273 0.000254097051738789 -0.00151029103833304 -0.0077423966792251 -0.00566114954829987 -0.00437129741236114 0.000111678930632771 -0.00438351056659545 -0.00523560823864839 -0.00708361726714977 -0.00596154838311723 -0.00334734370464657 -0.00276811413437111 -0.00038037140522021 -0.00390605406740892 0.00601580828817685 0.00106572165992314 -0.00479147678582602 -0.00255117140280975 9.16925778106251e-05 -0.00826107890952744 0.00287695982063195 -0.00371390085980646 -0.00894031453980375 -0.00628610804041783 -0.000744427164183303 -0.00606329759915086 -0.00516559876319331 -0.00138297332891911 -0.0121223572279683 0 -0.000492487220383463 -0.00417135231304598 0.001259286394855 -0.00311907591506566 -0.0124103927300667 -0.00711068890316108 -0.00292562570800997 -0.00752744723117584 0.00181558768288095 0.000174472810931279 0.00284349919555639 0.00144842811178992 0.00303879687413593 0.00226868764805937 0.00109097519495794 0.00161177851924921 -0.000164836894583217 -0.00151070017417449 0.0016543363445235
0.00748984383763111 -0.00618952141232661 -0.00283778221780371 -0.00042421518441293 0.00285974144296658 0.00260350077323659 0.00203368445656545 0.00244149728731741 0.00866236860918285 1 0.00394932204899893 0 0.00610940822322804 0.0116613828758106 0.00129662010237592 0.00615069007983951 0.0042917454159946 0 0 0.00616402991239178 -0.000965594546711443 0.00185201264477447 -0.00501357518732404 0.00189966882097609 -0.00240976974055495 0.00385128703571514 -8.16066706903612e-05 0.00145957956766727 0.00393137777645549 0.00164958818693513 0.000671926627579024 0.00414138513368513 0.00206967073058274 -0.00280958114832678 0.00260417331308404 0.00366308069194757 0.00422625957545708 0.00160723126075021 0.00229312260869167 -0.00436101452477206 -0.00586435044715527 -0.00698491356094015 -0.00405354171819064 0.00081260025801903 -0.00115841237616476 0.00220998796938368 -0.000331836321766117 -0.00111889943490706 -0.000484476568133108 -0.00573577463126046 -0.00858547778261967 -0.00491361060035815 -0.00123985375384433 -0.00390243958395106 -0.00921469765787954 -0.00970486088693391 -0.005915566977131 -0.00258043301103372 0.00388733149157077 -0.00347486546638687 -0.00337940204738151 -0.00434084659251481 -0.00640645474311899 -0.0010342024989092 0.00135394882359577 0.000286298230857572 -0.00372675944755021 -0.00400106910876906 0.00248493739397243 0.00101051751763922 -0.0023096484934917 -0.000752419238428271 0.00300444256710108 0.00398154118732121 0.00028363924825381 0.000381836140033684 0.00109623948104813 0.00329803679298417 0.00337947401937703 0.00268938513068763 -0.00396498205899888 0.00141771677503618 -4.08890971978384e-05 0.00546371673522405 0.00219514587517842 -0.000541471668046717 0.00426177728634788 0.00503437559054859 -0.00218152257096721 0.00227546847894604 -0.00127955058460391 0.00668410564162399 0.00353332281072855 0.00671075243048116 0.00451656850854286 0.0014752636217877 0.00222275059761269 -0.000267175066143216 -0.00264471558764903 0.0016710720927802 0.000993276368064901 -0.000887768085319621 -0.00935674622860816 -0.00643654179688634 -0.00722341607124091 -0.0029472263429177 -0.00144406643694628 -0.00461474366218377 0.00260074670882774 0.00231313269473993 -0.00195309337898945 -0.00144081688652645 0.000364975447150966 0.0057644782334069 0.00246098598811985 0.0083607333628795 0.00186000435775059 0 0.00712328822811536 0.00315454447706422 0.000313835734524628 0.00248102721782895 0.00515119497826256 0.00557734329421848 0.00661139106183488 0.000732787501217479 0.000549117165635188 0.0036640575340493 0.00563023770408732 0.00759587516939587 0.00281489835265301 -0.00127990307362571 0.004698787805829 -0.000232621659050211 0.00205254027183955 0.000237634088016695 0.00247028771550158 -0.000740797151339895 -0.000367581895238749 -0.0105334246353436 -0.0016222058641605 0.0105322413659942 0.00182693477073603 0.010038902367815 -0.00355030100875393 0.000917128117702015 0.000965682351487002 0.00775657968054594 0.00529735958385247 0.001005562683568 0.00622944400169271 0.00710501033764697 0.000191922292811659 0.00614738680768496 0.00141594340322703 0.00183033094465122 -0.00664895710774947 -0.00449951520409418 -0.00116143985975849 -0.00431242836231269 -0.00419388075673364 0.0025370483884319 -0.00288415873699866 -0.00597920315247971 -0.00347147991948939 0.00293855279110368 -0.00408176247354952 -0.00330385480167872 0.00475885058205269 0.00665563037769327 -0.000896533137225238 -0.000687031766627249 0 0.00906244779334313 0.0037382521296971 0.00818140254745167 -0.00251815125488191 0 0.00285906456437739 0.000521689024223196 -0.00250749078645313 -0.00220252344654297 0.00101158183443301 0.00120490376837587 0.000444603856098016 0 -0.00286879887134031 0.00110119802661858 0.00524946497519346 0.00162411528659298 0.00312099673279642 -0.00317212826681874 0.00152135898620477 0.00311830733720534 0.0038969734399882 -0.00575231359109612 0.00162625062578146 -0.00502863114030484 -0.00531418440462291 -0.00131881740433131 -0.002698561738351 -0.00104882034890149 -0.00287974405728029 0.00167814055833155 -0.00319096676635261 0.000311189137892421 -0.000837638066115469 -0.00248953082166547 -0.00508662856947293 -0.00542645795882955 -0.0016027360885112 -0.00423073436989204 -0.00681743672120404 -0.000544863468619852 -0.00368435275020794 -0.00122047665111999 -0.00138463187284061 -0.00106553655957702 -0.0044895403551022 0.00241472083955176 8.70344555033979e-05 0.000404022006493825 -0.0106248539194151 -0.00554692552689329 0.0019099916100807 -0.00330350092664431 -0.00201668342295649 -0.00550742413903525 -0.00153991655998088 -0.00217251758328314 -0.00201706090842638 -0.00950345170413436 -0.00200597567702326 -0.00572331138307299 -0.0018186647008878 -0.000719898639618404 -0.00429985156506983 -0.00458283332545111 -0.00300556015637743 0.00102999140628466 0.00120219496130481 -0.00549340280925347 -0.00186039749586193 -0.00362426225786547 -0.00195595858020069 -0.00436391044836753 6.08077459866784e-05 0.00135066783464065 0.000916659770385252 -0.000926778114145843 0.00150956509940281 0.00680586555179591 0.00253346992914294 0.00321091575944175 -0.000642983958117004 0.000919998577898177 0.00182874050016124 0.00294120276719421 0.0067475584052992 0.0034838572402149 0.00354923216551529 -0.00235302150029217 -0.00120626778677592 -0.00441252165375662 -0.00426303814024626 0.00463502621344544 0.000204280654642881 0.000311147268219374 -0.00390788203373072 -0.00569748664361745 -0.00476251537128784 -0.00219098037301635 -0.000793003468640468 -0.00320943977624278 -0.00632822296998845 -0.00772680885338743 0.00198622840793092 0.00811775245147542 0.00435003396922137 0.00349934918207083 0.00132386784272839 0.00193155646817405 0.000240031100217037 0.00290145036232568 0.00774930995233142 0.0067091360158756 0.00577463878345222 0.00393847497911866 0.00925137497255183 -0.000300544516739567 0.00264283020401883 1.23883386836316e-05 0.0060336854746673 0.00143477722512298 0.003649412171228 0.0010202986477212 7.3985426629812e-05 -0.00027589534475124 -0.00797279543289076 -0.00148090036451256 0.000217193472478593 0.0112680687549131 -4.76316963749186e-05 0.00453262400248075 -0.000741581409754877 -0.00347382808480541 0.00485554027898301 -0.00243524180551248 -0.00384078852515369 -0.00384602341696484 -0.00296037592454361 -0.000426415741656951 0.00243256871279356 0 0.00184324860533248 -0.00150662909122516 0.0016306539681642 -0.00238611510564046 0.00456333577244935 0.00176517161538438 -0.000685887463391232 -0.00105364751222283 -0.00519514512845937 -0.00427286719250913 -0.00265618880164868 -0.00754099259149269 -0.00393340448407398 -0.00427354936549579 -0.000254172096403401 -0.0041167773757065 -0.00672260464741133 -0.00456618330220866 -0.00465609311411027
-0.00173277536529363 -0.00562773243062162 0.00109603659791165 0.00197575381974112 0.0017167164256509 -0.0042963710694085 -0.00585273568445565 -0.00167558047740292 -0.00932384616605593 0.00394932204899893 1 0 -0.00341869187930422 0.00341743294697166 0.00122127764447064 -0.00188251804608467 0.000454330858493924 0 0 -0.000854588838626949 0.000712158862867041 0.00195704505005256 0.00207493270998231 0.000579254831954232 -0.00213021045144539 -0.000737356801018279 0.00246455105261481 -0.00172744191587765 0.0045032495028905 -0.00193052313686024 0.00405273164379846 0.00465181080407464 0.000372208659367627 0.00275061110512075 -0.000118463392457914 0.00533884197488458 0.00359657288500801 0.000381293460905511 0.00392216165521224 -0.00168584226926877 -0.00436600048274831 -0.00173078762532864 -0.00272712130788836 -0.00495287904869097 -0.00148883279760858 0.00469580655324059 -0.00325718315869211 0.000207818900209398 -0.00213812170589184 -0.00472799866245261 -0.00753661392583064 -0.00644687598869918 0.00385808045164614 5.5904655177799e-05 -0.00655644438562311 -0.00533224265325878 -0.00257199190529809 -0.00399887503694508 0.00156155487989626 0.000952030875396731 -0.00204732685233296 -0.00253411201762861 -0.00722724129073073 0.000961838902914947 0.00243750133323815 0.00637591601544355 0.00309970969290908 0.00728942076347214 0.00457250778471036 0.00437586088185122 0.000469328010316221 -0.000467716295192298 -0.000599413872366253 -0.00245845217602329 -0.000166305094749943 0.00517283537229195 0.00185812877968962 -0.00399592458389542 -0.0040644462082347 0.00329737168637422 0.00486147400674789 0.0063218582521833 0.00566500526521999 0.00227379522710868 0.000256645068689856 -0.00342490447804056 -0.0034324924469855 -0.00249478266933572 0.00354099192110364 0.0012204703113618 -0.0028351572937038 -0.00149245484951774 -0.00129980531424741 -0.00425191257879658 -0.00060155041256586 -0.00332340160962263 -0.000544699869247421 -0.00289129305810157 -0.000208497401665161 -0.00488798850241526 0.00511785124966204 -0.00436298841946408 -0.00615208754273546 -0.00389763799079843 -0.00816735888386658 -0.0074762529111632 0.00162726842014556 -0.00700011677371236 -0.00394961593026442 -0.00587787075838005 0.00364476029885159 -0.00495115847133895 -0.00510181191170448 -0.00371177158729856 -0.00598330966313419 0.000625150200490082 0.00315827080608395 0 0.000242097678530753 -0.000958971495608339 -0.00150985281648223 -0.000995489652217639 0.00366549693255349 0.000808783090132842 -0.00120530147595934 -0.00313514719290195 -0.000926079262432719 -0.00238511022477279 -0.00207882834050977 0.00164614887901861 -0.00103704164500304 0.00167735237549688 -0.00761211677968439 -0.00110444512255306 -0.00440312573839498 0.000978009761369939 -0.000530108911834522 -0.00337326652166112 0.00056970075848176 0.00158563021853165 0.00137461421323435 0.00452821968011344 0.00315649545841807 0.0042117861172165 -0.00440130067223501 -0.00467756806967472 -0.00774718637520119 -0.00620079230907516 -0.0079310036679729 0.00162703177708922 -0.0046781968438188 0.00318756878905387 -0.00476617466358838 0.00170495267565168 -0.00983026884403879 -0.00453604153172958 -0.0089078923581145 -0.00424209739055118 0.00655493692622807 -0.00233349276055879 0.00559634138117478 0.000175099297054552 -0.0020097847920122 0.00476172200825152 0.00109021272914499 0.00216299897060235 -0.00232801870663497 -0.00359718271071976 0.00191771529439227 0.000217553480221135 0.00409119048120682 -0.00336576864552953 0 0.00321079250489579 -0.00071817715281969 4.41089629614993e-05 -0.00258421728570326 0 0.0042160933858486 0.00159743026824352 0.00219122665184365 -0.000351426136251055 0.00721301057563747 0.00548796655578959 0.000677296949336046 0 7.42175693700631e-05 0.00246778619093936 -0.0024175196111779 0.00658452401096282 0.00586241301711106 0.000844386873975995 -0.00249756115281593 0.00345437844064786 0.000912141934166428 0.00225470404830063 0.00768587721146134 0.00358322796945075 -0.00236992004286962 -0.00189530568603736 0.00527942020339238 0.00912484327790531 0.000228988125596526 0.0105185431340236 -0.0023123717966523 0.00625705299017671 0.00129259017477444 -0.0017855813304129 -0.00102145901879782 -0.00642201682866118 -0.00613404459881513 0.00418038426487 -0.000481034152877247 0.00304605181148683 -0.00030935259245805 0.00365736880603948 0.00195647631712505 0.0050300975024826 -0.00573182052419015 -0.00297711795575341 0.000489655391671847 -0.00317389216066046 -0.00716339793445535 0.0032830252878298 -0.000740800972950044 0.00630943525287828 0.00169788339318134 0.00622205872195684 0.00716777675932226 0.00421232440857251 4.8238021513287e-05 0.00417431160298241 0.00155172895303266 0.00353018016945112 0.00373476367802384 -0.000580275149368584 0.00154475186441951 0.0026024784793301 0.00204851219091642 -0.00412264160748072 -0.00187165419322347 0.00213442997238012 0.00960126246750594 0.00753085779649 0.00548309681873089 0.00269627367684447 0.00326271504640097 0.00204915399727779 0.00539728384698278 -0.00553265484552181 -0.00549921252993901 -0.00331911816163645 0.00340404841570416 0.00039669503613851 0.00161939096008846 -0.00237416725338343 -0.00028097402379623 0.00352278498289225 0.00201048927677863 0.0046193710186859 -0.00192832967231886 -0.00460656041353192 0.00251731597543042 0.000420510522233538 0.000162987797394542 -0.00072777814358387 0.00218300875136443 0.0064113686857207 0.00635317707304863 -0.00215662126634224 -0.00563955814408362 -0.00530129611993257 -0.00247882047731852 0.00209365750315368 -0.00354374425115926 0.00109496291806302 -0.00573126487317307 -0.00263265829781211 0.00641482918325578 0.00378133232592226 0.00449225084501755 0.00357580283546015 -0.000286866590572688 -0.00156671998665226 -0.00241735702773037 0.00267460844489544 8.12125404417327e-05 -0.000574309669240711 -0.00392478687733771 0.000783897764179769 -0.00220248727440005 -0.00164316514745066 0.000235334233551904 -0.00110685249760622 -0.00217539701074858 0.0037972947667218 0.0078724398297312 0.00506625658221751 0.00585649198676719 -0.0025940276922434 -0.00584250962720603 -0.00153356537713799 0.00154026659891573 0.00183503284182486 0.00507067860071441 0.00292155143202581 0.00224739398482792 0.00124895498075342 0.004451219844641 -0.00256322842546783 -0.00135322401928119 -0.000281027328503142 0.00186097900820008 0 0.00398660616089201 0.00150863294184453 0.000941746560449381 -0.00313708202733394 -0.00210357763180597 -0.0026532092683998 0.00168906514438126 0.00244581521208107 0.000932619795663454 -0.00329742785987274 0.00135784410352785 0.00311570618237207 -0.0070909242151151 -0.000399301641778124 0.00337166537940367 0.00309663063773752 0.0020851085121178 0.00419149270573785 0.00186214775725601
0 0 0 0 0 0 0 0 0 0 0 1 0 0 0 0 0 0 0 0 0 0 0 0 0 0 0 0 0 0 0 0 0 0 0 0 0 0 0 0 0 0 0 0 0 0 0 0 0 0 0 0 0 0 0 0 0 0 0 0 0 0 0 0 0 0 0 0 0 0 0 0 0 0 0 0 0 0 0 0 0 0 0 0 0 0 0 0 0 0 0 0 0 0 0 0 0 0 0 0 0 0 0 0 0 0 0 0 0 0 0 0 0 0 0 0 0 0 0 0 0 0 0 0 0 0 0 0 0 0 0 0 0 0 0 0 0 0 0 0 0 0 0 0 0 0 0 0 0 0 0 0 0 0 0 0 0 0 0 0 0 0 0 0 0 0 0 0 0 0 0 0 0 0 0 0 0 0 0 0 0 0 0 0 0 0 0 0 0 0 0 0 0 0 0 0 0 0 0 0 0 0 0 0 0 0 0 0 0 0 0 0 0 0 0 0 0 0 0 0 0 0 0 0 0 0 0 0 0 0 0 0 0 0 0 0 0 0 0 0 0 0 0 0 0 0 0 0 0 0 0 0 0 0 0 0 0 0 0 0 0 0 0 0 0 0 0 0 0 0 0 0 0 0 0 0 0 0 0 0 0 0 0 0 0 0 0 0 0 0 0 0 0 0 0 0 0 0 0 0 0 0 0 0 0 0 0 0 0 0 0 0 0 0 0 0 0 0 0 0 0 0 0 0 0 0 0 0 0 0 0 0 0
-0.00175826395806088 0.000490271229250622 0.00138799431480353 0.00215027174627342 -0.00179834152125479 0.00276339222648456 0.00449794938977714 -0.00307768713227083 -0.00212903690211239 0.00610940822322804 -0.00341869187930422 0 1 0.00108988317142292 -0.00246439935229199 -0.00525257018476508 0.00113925538522136 0 0 -0.00393723001340503 0.00337743320368332 0.00330766983297479 8.94907596184359e-05 -0.00184452146362595 -0.000725074384498335 0.00522497284997328 0.00238291495579994 0.000729875795525352 -0.000554276203279237 0.00424931201363197 0.000946223889978147 0.00315238419166697 -0.0016272002859122 0.00229524978973142 0.000987432752612758 0.000728853680815737 -0.00076789089795402 0.00423045695799388 0.00257257947508248 0.00154928576133749 -0.00276900009677585 0.00257687843379942 0.00273011350426185 -0.00146368487850443 0.00421074837096126 0.00277899515275838 0.00192118451090537 0.00386801705008893 0.00212107200276072 0.00091310484155989 -0.00310588804999825 -0.00421202542885396 0.00176414039776487 0.00434614124219165 -0.000920613033172284 -0.00357769264914362 0.000458554713989991 0.00131784344080269 0.00520928267957541 -0.00174066149079173 0.000897228084225596 -0.00182703792875901 0.00311408386451064 0.00342531906418934 0.00186765869339713 0.00176201528682895 0.00509294299161534 0.00257209146054526 0.00259175411682983 0.00701058719598451 0.000315103448634659 0.000487521473628858 0.00291585624659237 -0.00410617456612585 0.00724173414186787 0.00489516256405057 0.00417452009179328 0.00196816609723156 0.00106048815735056 0.00266779922960293 0.00420981143663178 -0.000548428174716867 -0.00294191985080253 0.00492168158994978 0.00414773484645632 0.00220864846941044 -0.00394519655264538 -0.00685318883679234 0.00309337176599746 -0.00153134657173062 0.00367120385770709 0.00173921062458933 -0.00141901567790118 -0.00130736088457643 -0.00585066945025072 -0.00754706644340054 -0.0020510323478917 -0.00570050928037095 -0.00423081151226863 -0.0065611884788114 0.00537015990346977 0.00558167309114766 0.00729203615744211 0.00608361169732498 0.00171300852142046 -0.00211996703849601 -0.000202908524629081 0.000736415895313862 0.000859563121493197 -0.00193503173524612 0.00781993707785413 -0.00525791353240463 -0.00487654305068861 0.00482930104153506 0.00681334194979974 0.00258699186759493 -0.0021592289286318 0 -0.00117344932350765 -0.00512369677840114 0.00519845297551515 -0.00683685852177596 -0.00142785942564819 -0.00488668395933174 -0.00119385906287687 0.000613548116472516 -0.000231891394674213 -0.00146673271396977 0.00364132185941733 -0.00208367461840754 -0.00437922707092301 -0.00763524626750157 -0.00485478631062097 -0.000796067578667702 -0.00613285141639934 -0.00148195011954676 0.00118226484356634 -0.00234087095173422 -0.00490067813264923 -0.00435239081060311 -0.00482515190356476 -0.00235196320205517 -0.00161661471208949 -0.000109260834021521 -0.00134256910398038 0.00525602802506405 0.00464006280529222 0.00503346818710473 0.00531149632003853 0.00430565385436518 0.00385740367157619 0.00187546711538641 0.00523706469700743 -0.00254768575403421 -0.00143854796020462 0.000896579362216735 0.00091001546681986 -0.00211198001208169 0.001774705979848 0.0031165660566459 -0.00387426415282288 0.00125194070073322 0.00178913790158538 0.000613822012339523 0.000886033025044419 -0.00357049090286071 -0.00271085842645763 -0.000607674681751584 -0.00267830870260217 -0.00652786666115025 0.00498626771362106 0.00340363690505837 0 0.00549737740871922 -0.00110078508663674 -0.00343190289693135 -0.00540759381774255 0 -0.0050819320310728 0.00327794374087847 0.000375820083365889 0.00262098413269289 -0.00293405050108707 -0.000728658259340241 0.0016783983131547 0 -0.00120841277038225 -0.0026393064664838 0.00217172155546089 0.00225165603394033 0.00277398801959612 0.00319107672147697 0.00171503492477248 0.00233552848941045 0.00183096322833132 0.000399144388144152 0.00530988791376352 0.00276606681665555 -0.00459385113893632 -0.0009000357618908 0.00555163046959022 0.00297156494598741 0.00107865708759158 0.00484587818964531 0.00112424555495935 0.00565215426473957 0.00284965940831168 0.0029981374636762 0.00459558353321794 0.00180441894552718 -0.00461710655491618 -0.000163920960359809 -0.00262174260494034 0.0089141725601817 0.00275010919820812 0.00597453102416878 0.00396589189924814 0.00805151916589339 0.00264710983759738 0.0026226936763341 0.00448348388462727 3.02883620032487e-05 0.00355173042903511 0.00304622494492673 0.000438529442233951 -0.000984880635904886 0.00459111626474193 0.00564125246222114 0.00269313229170137 0.000710975804315998 0.000828159933962832 -0.00402434950619597 0.00244557067527771 0.000545871675554582 -0.00523848259628387 -0.00260163040881081 0.00682149784666078 -0.00167553680338526 0.00435888107604733 0.000785939661229572 0.000381599492839203 0.00031223900789194 -0.000233740373317189 -0.00282336510295044 -0.00105369671135654 0.000388994923198918 -0.00303418759503272 -0.000109440945465755 0.00240837109715726 -0.0040686573153784 -0.00357268886549906 -0.00379900254267205 -0.00674847665377258 0.00609475447574712 0.00164389419830199 -0.00551381677675027 0.0019018594640356 -0.00436407206730298 -0.000797882577797602 -0.00508444594294183 -0.00580162522563578 -0.00852792525535763 -0.00490617035857383 -0.00438110406044669 -0.00911866303085557 -0.00482453012284543 -0.0013095278739411 0.00157692962015764 0.00567795821377978 0.0012665325252849 0.000536360388177795 -0.00130367830788067 -0.00544855446091376 0.00179016747481432 -0.00545382130108562 -0.00424129322309369 0.00370817133773498 0.00396523078613972 0.000974189732033993 -0.00030122107924762 -0.00265511110596384 -0.000763449912562029 -0.00928706501066966 0.00182878178197216 -0.00450273285897752 -0.00513091409234326 -0.00141644452314798 -0.00131883868820549 0.00101410519440856 -0.00188219108877052 0.00173603098800343 0.000693591565059592 -0.00309023978612461 -0.00116706943955633 -0.00113268015650534 -0.00272856093281299 -0.00479375989366072 -0.00441081263726196 -0.004103267159256 0.00827485427353858 0.0047198091804439 -0.00337787057315326 -0.000766078606401329 -0.00808493365931036 -0.00644429272032345 -0.00254823197413154 -0.00138765456114407 -0.00590515357502437 -0.00253061828539164 0.00460355495190683 -0.00233244775756704 0.00203637322938012 -0.00340460762407511 0 -0.00177829189470453 -0.00436676031819847 0.000311255371898627 0.00320454745552031 0.00364276295673592 0.00216023985619559 0.000379184832257278 0.00211237354808477 -0.000905065693878265 -0.00141518485703461 -0.00124929126095996 -0.00228579673201824 -0.000161659080880899 -6.99708178642581e-05 0.00242210378370059 0.00140139823825141 -0.00381285879930475 0.000625988067626014 0.00170374686449853
-0.00260934738090177 0.007461062010107 0.00668837305138595 0.00209727028422378 -0.00335282502632647 -0.00194270653098542 0.00751087380154834 0.00230420831640171 -0.00430700800719515 0.0116613828758106 0.00341743294697166 0 0.00108988317142292 1 0.000951686285748841 0.00259257428025204 0.00435914920132256 0 0 0.000535585436638166 0.00433177757672851 0.00817638894230455 0.00165896712432944 -0.000309878061833916 0.0012509089391356 0.0054662275944092 0.00757262912288089 0.00193400200821 0.000660545197689787 0.00685556997115011 0.00506654833667488 0.00745164195849694 0.0045400603734826 0.0072131187256722 0.00846971370969333 0.00574634756505257 0.00465549241759296 0.00235592381236045 0.0071861237485562 0.00235501297504896 -0.00517129176403327 -0.00379576842169544 0.00392387629210621 -0.00539054330551417 0.00217878646730324 0.00466642745946925 0.00244536082888828 0.00514568364452656 -0.000449707893433248 0.00360965424421156 -0.00240391497952492 -0.00347450889438001 0.00711241326996712 0.00673972982045935 -0.00291084691348464 -0.00344696523771847 0.00429637932826916 0.0029117567402716 0.00329387114010919 -0.00126601780635577 0.00298562565147098 -0.00224667764728883 0.000372305004568651 0.00106397229874705 0.00773987942604706 0.00443221693371646 0.00404804864843039 0.00522425585482163 0.0037278850229095 0.00759791873663314 0.00210117453732279 0.00305073488009803 0.00190109511022444 -0.00322733447539455 0.00383499334978237 0.00670671246539459 0.00916332944660033 0.003154118547214 -0.00100509551018691 0.00441006583786357 0.0105501818543404 0.00273535516414915 0.00173666730978227 0.00402578081120554 0.000990841412344963 0.00360743888025964 -0.00142890864592368 -0.00932119979189547 -0.00335111671920634 0.000100142557097514 0.0063385234449321 6.78550836021186e-05 -0.00325305859447267 -0.0015479170274092 -0.00757015956087741 -0.00716665901707405 -0.00194336800452797 -0.00331672813552149 -0.00123488610158511 -0.00704887558673793 0.00854676548619282 0.00758020507656375 0.0058329681215567 0.00657400900853226 0.00366484711819126 -0.00449716659941898 -0.00497542318767748 -0.00157579289760596 -0.00327377930057486 -0.00261249726916815 0.00802155365012496 -0.00240125501061616 -0.00566922028572187 0.00450627565833171 0.00521559245177055 0.000376440914733066 -0.00081633554370957 0 -0.00197666442098192 -0.00476794268488479 0.00253962802574047 -0.00177051890383014 0.00141696268457433 -0.002391579251851 -0.0012342399098696 -0.00136003971826924 -0.00647323176003641 -0.00455164644459512 -0.00282505930595902 0.00127739670982401 0.00060652818974955 -0.00292636269713198 -0.00962581499149369 -0.00360671453614563 -0.00505071095104479 6.47921975837359e-05 0.0011258879699365 0.0032703612492279 -0.00731932100794043 -0.00105749584634783 -0.0023881370032586 -0.00166720795526493 0.000474797718464179 -0.00199623944244891 -0.00221637609161338 0.000673278232445406 0.00301369539681154 0.00659012703283888 0.00732502007401264 0.00118925016335719 0.00616320573210715 0.00132869346647134 0.00474225831136294 -0.00390100986984885 -0.00451893656685931 0.00216749548431452 -0.000657940646966522 -0.00220443628271391 -0.00187963354424187 0.00414001874196029 -0.00298197058551061 -0.0047831900047681 0.00881988737960825 0.0052999873979635 0.000576952171608591 -0.00843686697760971 -0.00508523621956325 -0.00310784850791724 -0.00103836217876943 -0.0119603541542699 0.00770532778681483 0.00138250981764308 0 0.00129593434221698 0.00155230459390354 0.00110252422918239 -0.00142292106209339 0 -0.00462515525218744 0.00325138573730188 0.0026829106965783 0.000715609587568056 -0.00406138545637801 -0.00399185558533394 0.00311266836428394 0 -0.00255789583432374 -0.00145813098117147 0.00573117509218545 0.00645573399805634 0.00699640484855344 0.00254948203755637 0.00833617603589977 0.00443003177057254 0.00441349035939155 0.00496387060125837 0.0083277411600964 0.00306961228957476 -0.00888158694721023 -0.00477561964302556 0.00141998282093144 0.00301571574752113 -0.000822270232820103 0.00512418038931862 -0.00195752897884458 0.00572035891517556 0.00195792423031325 0.00185494072088365 0.00483974173027173 -0.000905884415293102 -0.00610072989922152 0.00579144804462891 -0.0034470129653853 0.0106148321451137 0.00331590078610522 0.00224274768874256 0.0028191476607938 0.00703720179050268 -0.00357841265330705 -0.00460760364379449 0.000307909985683691 -0.00104332600728143 0.00168226229300457 0.00355540676060837 -0.00626189574521271 -0.00484381791568642 0.00197841168093341 0.00492951392833457 -0.00111564661954677 -0.00288237710741629 -0.00454305021721449 -0.0078992437978808 0.000964761709802402 -0.00121553786335127 -0.000562872187379357 -0.00669250442310552 0.00119901046733552 -0.000950406113531324 0.00703890042532365 -0.00326262374453851 -0.00178472963192924 -0.00342468036859172 -0.00372897589020714 0.00167236400333973 0.00111665213196359 0.00219405268934253 -0.00217489699317743 -0.00495712620111021 -0.000995042037404793 -0.0020658609476645 -0.00347934120522378 -0.00566786371709548 -0.0108282646963824 -0.00101430958838075 0.00106882818821903 -0.000814209729306901 -0.00332053081024104 -0.00815441209493394 -0.00739168404550154 -0.00558115123143505 -0.00400589662895736 -0.00323612755142018 -0.00653147265943698 -0.00472772734827971 -0.0104999367131806 -0.00672687763975594 -0.00281578659859616 0.00687914963356023 0.00788557010476682 -0.00284140498375495 -0.00463406915597714 -0.00406118816289637 -0.00977332425723131 -0.000413757740239826 -0.00820152722471188 -0.007931362201357 0.00213233562044779 0.00196267327457032 -0.00509666336877285 -0.00524859503300178 -0.00645274184019208 -0.00197951336627493 -0.00867966679145373 0.000809738538047482 -0.00816477324071941 -0.00984564670079615 -0.00820181888027747 -0.00363281920301528 -0.00670050803020683 -0.00613414387211906 -0.0019321140305446 -0.00373985692543783 -0.00317603383850713 -0.000493225477565564 -0.00304740928482243 -0.00598823009290022 -0.000490665645530581 -0.00499067262670001 -0.00618098850866454 0.0019760846751308 0.003755627981898 -0.0080337615446371 -0.000981962341483618 -0.00949772282191019 -0.00740691847162032 -0.00580477103539792 -0.000492074416774725 9.90143488025372e-06 -0.00258790522974445 0.0033080127218477 0.0003387953550888 -0.00143278085279663 -0.00303088613064424 0 -0.00657564989784549 -0.00936612357482043 -0.00722292902272372 -0.00250730965462943 0.00115049882957001 0.00117544810358527 -0.000690873613687721 -0.00210010449798613 -0.0054869503124471 -0.00549297046349327 -0.00311724208694163 -0.00662260225874515 -0.00376852329430392 -0.00507005269156007 -0.000725070086800479 7.76296979087819e-05 -0.00518045286716262 -0.00347967255846761 -0.00150210434394805
-0.00265584577844417 0.00431729683601723 -0.000201813916789133 0.00634938958958961 -0.00200787726364965 -0.000516886139803133 0.000989334672017249 0.00153715743636248 -0.00712496063463941 0.00129662010237592 0.00122127764447064 0 -0.00246439935229199 0.000951686285748841 1 0.000404897835787159 0.00479342924727976 0 0 -0.00579616153305105 0.00116086292043364 0.00551923693331078 0.00696002930671442 7.88172935035163e-05 0.000899960124339095 0.000274501377736642 0.00349378438414302 0.00421057221829293 0.00393776091617361 -0.00145516514297571 0.00497284704563377 0.00589470945594568 0.00109172416715126 0.0034688092916765 0.0043608686198275 0.00393966798716758 0.00536154610043 0.00389042939677691 0.00334132565181394 0.00608063108606111 0.00379927765870777 -0.00337849135716603 -0.000312220185083743 0.00179334060691544 0.00345472235617006 0.00386775165199497 0.00334583866550059 0.00067748546663637 0.00740765816641668 0.00151298429807479 -0.00269408040063188 -0.00482417963093253 -0.000408628478022977 0.00217980081735758 -0.00221826291435986 0.00266503841701826 0.0036939870515788 0.00306257384623024 0.00290735400794205 -0.00571999849139336 -0.00354686028948009 -0.00291845236158507 -0.00155208528434185 -0.00209766738726868 -0.000666521775773197 -0.0032641917784965 -0.00458560667384548 -0.0002718457961614 0.00282690123065917 0.00346987611135331 0.00242363325820214 0.00231284200269214 0.00079600785818526 -0.00792270566602295 0.00265165968630407 0.00405547730572735 -0.00121111336462277 -0.00510927361980703 -0.00775250568881629 -0.000198411315459643 -0.0018276276301073 -0.000122154925118601 -0.000128973116542919 0.00163548358371194 -0.00180944778227713 0.000320013783911078 -0.00356013313980959 -0.00859424088747902 -0.00503991384877065 -0.00235188960859446 -0.000257483357809634 -0.000679087519074496 -0.00512885747032669 -0.00409944269097797 -0.00839830869790241 -0.00731952044635923 -0.00283538384837972 0.00270459550680623 -0.00527809501145583 -0.00878116978605316 0.00171205796151271 0.00153786914844568 0.00394369011111137 0.00312934028294342 -0.000578983706852124 0.00327122819794389 0.00450625294870309 -0.00143711067256255 -0.0048098765744025 -0.00333387550128705 0.00529985365109401 -0.000680085524908001 -0.000802363241079449 0.000550492337691127 -0.00133193191414164 -0.00341817737476213 -0.00368784610914817 0 -0.00152425358495752 -0.00655618603514383 -0.00407660824577961 -0.00754620845331107 -0.0078288942588235 -0.0097828102588923 -0.00901311878454315 0.000528337105808757 0.00146369783913118 -0.00130498003350708 -0.00179326342766757 -0.000594778717181564 -0.0049203689757751 -0.00965218882755307 -0.00870675460896695 0.00338861939574866 -0.00236346277849124 -0.00288358513596139 0.00286632824022892 0.00237589451554603 -0.00702306431575837 -0.00338355370815346 -0.00493566979045379 -0.00549777943913218 -7.12076363272465e-05 0.00109982749306555 -0.00429544878112764 0.00337758435831572 0.0066655343507253 0.000324050487917605 0.00221634711581882 0.00267969591194919 0.00257149254837264 -1.57598564663331e-05 -0.000877978801102025 -0.00190723084979494 -0.000215237669326174 0.000218015158882023 0.00113166522952339 0.0021094353555711 0.00176767343084008 0.00320521862809462 -0.0010055446177325 0.00110442192656781 0.00394121819196302 0.00342415622861299 0.00666520706136474 0.000845171708439649 -0.00367833580175159 -0.00217172547639741 0.00312723669832383 -0.0140120710370084 0.0030024702503416 -0.000625655355367225 0 0.00229636247529853 0.00808869843208752 -0.000815809703245725 0.00499105399840997 0 1.50610387824266e-05 0.00158274642052328 0.00382203794052573 -0.000598046871231002 -7.3567939224892e-05 -0.0016795697092273 0.00447776855008847 0 0.00737651669075039 0.000799740826165983 0.000565314797649643 0.00537853223407842 0.00500500383948143 0.00627511926522279 0.00531647567476149 0.00300654623030967 0.00152548468016725 0.00771497911710999 0.00497659611893206 0.0083917818078374 0.000256978409236404 -3.62950048411997e-05 0.00180998924749469 0.00290298084683597 0.00751378303183193 0.00770913626732207 0.00627654455704908 0.00691418593127745 0.00454320999591927 0.00255157535211093 0.00333769297275028 0.000382923024500262 -0.00256346550907905 0.000872164401753184 0.00266725176181096 0.00540200219493922 0.0059965026340963 0.00295555028458399 0.00180663361498533 0.000656405278736087 -0.00380263101555446 -0.00479988518316388 -0.00218487531029478 -0.000738569116886644 0.00318027044596287 0.000868095305036658 -0.00359875532300342 0.000179149829134711 7.66739971102237e-05 0.00156888446227484 -1.91112115829232e-05 -0.00417818545446066 0.00142417938373917 -0.00308980372204662 -0.00158459357747983 0.00101732809877597 0.00379402981752803 -0.0015444158849571 0.00265838558017512 0.00275722527556424 0.00149240109698913 -0.00578435601589516 -0.00395128726196902 -0.000623817074986618 -0.000168071447302525 -0.00237343021907262 -0.00096306762557319 -0.000360602108833584 -0.00377660894008917 -0.00200972578453566 0.00189031566468017 -0.00197729112189157 -0.00368069594037384 -0.00344923133643705 -0.00932393417701863 -0.00150555779135118 0.00257351447854914 0.00185611731707621 -0.00115806975558975 -0.00430225547697172 -0.00773562266286098 -0.0126202235664321 -0.0114981529147369 -0.000708764287725443 0.000302892800929916 -0.0073364208271491 -0.0119827075737017 -0.00915275957759841 -0.00609711316192152 0.00322632320849469 -0.000747590519058496 0.00257296431121189 0.00614510124980159 0.00147039977116214 -0.00440236420090146 0.00764712610605281 -0.0013636061265892 -0.00212236342111333 -0.00224171655616844 -0.00160374106944656 -0.000747485146545626 -0.00214978205458216 -0.00826705760097334 -0.00253603098534359 -0.00694098349878968 -0.00162987859012481 -0.00633966468597973 -0.00259823663656651 -0.00402088902317526 0.00269607469579698 -0.00242721877005632 0.00174574639714046 0.00168878082074485 0.00169650180972335 0.00159038673619683 -0.00165212460586122 -0.00249741879048373 -0.00341090566862178 0.000948801568845049 -0.0026388110845959 -0.004262324128639 0.00648063847182842 -0.00174485711939716 -0.00742233512257215 0.00168499149250388 -0.00538753609799102 -0.00245083449191161 -0.00896105346416071 0.00328317843013399 0.0021147952813868 -0.000680725482718252 0.00392169217823839 -0.000906006555753627 -0.000353286437974465 0.000475787661553481 0 0.000922397094324959 -0.00419209013182735 -3.99088031165009e-05 0.00340700657471585 -0.00122429011935713 -0.00151189970898381 0.00273667534592334 0.00412801662215153 0.00313370191445752 -0.00338263803004664 0.00017339393145075 0.000758811224243665 0.000969831528440936 0.00152423553583239 0.00194502460723903 0.00258442069754701 -0.00415267658241395 0.00146674417147516 -0.00119160478398339
