1 -0.00814298099433218 0.00267945160018669 0.00887395416816092 -0.00465285650414761 6.57821335426576e-05 0.00576648908164715 -0.00914181275892091 -0.00776936372535431 -0.00073185359645796 -0.00341814405468363 0 -0.00662611205323172 -0.00323041960931388 -0.0112667283497988 -0.00562394843754137 -0.00927609814463382 0 0 -0.0100115209381621 -0.000562498030511194 0.00270234990987365 0.00527843145811307 0.00822311211733976 0.00881194760572191 -0.000458288104847269 0.0076822455751379 0.00308609641302704 0.00648357699227692 -0.00528432176983881 -0.00580164947547047 -0.004897212002741 -0.0052659539605157 0.00586619083250495 -0.00580308230381386 -0.00390741433978505 -0.00247859248160425 -0.000211430385791289 0.00510186249679604 0.00318476760620057 0.00612973029083655 0.00550373233757273 0.00828822881862716 0.00912532408453602 -0.000844998338457573 -0.00248638466579805 -0.000349752017441783 0.00343504391410978 0.00754470206052492 -0.00276622638706691 -0.00720083318512677 -0.00593389879112305 0.000540359445636781 -0.00223701168642713 -0.00224831865415972 -0.00581683159193967 -0.006303129776018 -0.00159227872409 0.000906010414713385 -0.00215948397796441 -0.00179411425167646 -2.52467332814817e-06 -0.00307023646041314 -0.00508655359415832 -0.00489108544682343 7.58462832208725e-05 -0.00362674671309829 -0.00568450841047501 -5.94777535768121e-05 2.10125459214376e-05 -0.00223584655576145 -0.00300308920169786 0.00611843582189529 -0.00337822912755742 0.00566666286680632 0.00217970103705808 0.00369723504008088 0.00212770696185866 0.00273807013745734 0.00523900629294623 0.0026321515347341 -0.00138413880648314 0.00361959786740881 0.0048920901686857 0.00341447184026132 0.00271214072158901 -0.00551602515743934 -0.00682533778468357 -0.000171769982010592 -0.0031462454498574 -0.00943450048030694 -0.00364885052933898 -0.00328215447060537 -0.00404893820125557 -0.00480012396268865 -0.00604951811408425 -0.00539498879637902 -0.00261592509687327 -0.000616076945146805 -0.003000514975106 0.0014231848259159 -0.0034213192637223 -0.00335327894166601 -0.00408359878847152 -0.00215538690405892 -0.00102138216845141 0.000695957832450318 -0.00131046705620573 -0.00171252031140328 0.000365534291918867 -0.00299301215244504 0.00382740371649871 0.00264072536847208 0.00236110421462439 0.000697825476829004 -0.000145089606679047 0.00292126398802544 0 -0.00190726451922107 0.001685396508213 -0.00236863907754379 0.00107904168682574 0.00388773933597263 0.000737536741516637 0.00295394330416696 0.00375276061688196 0.00397426039230263 0.00369483036586741 0.00289609321501909 -0.00376112601795053 -0.00736932654023132 -0.00126497892468848 -0.00749489919256572 -0.00247414450064947 -0.00255504524261919 -0.00918104914828773 -0.00491265067589349 -0.00473928575711802 -0.00425376887652597 0.00035266896829137 -0.00527000786410709 0.000288659780200712 -0.00652374976193436 0.000989004859981007 0.00652586176608377 0.00726214796656888 0.00642690806367692 0.00204015647318525 0.000163815543300203 0.00907693867054468 0.00641027337607658 0.00765442646943403 0.00241300962569636 0.00424635302756394 -0.00106951369352631 0.00830730592421586 0.00448924988214575 0.00146034431013891 0.00413801055257122 -0.00177285814318523 0.00092797644909922 0.00550003363530003 -0.00439781083907273 0.00204488960445746 0.008963786207266 -0.00171530791841864 -0.00357306157106144 0.00480678603416839 -0.00405413627844843 -0.00169813978688864 0.000881999309042358 0.000948262145642718 0 -0.00169224278032828 -0.00333807205657556 -0.0013458475292535 -0.00321942114735227 0 -0.00163925354073979 -0.0021631413471051 0.00550736548489397 0.0110876883793548 0.00751657551440769 0.0067152799676714 0.00186018577568955 0 0.0063926668068332 0.0065274486643116 -0.00364157648099468 -0.00589202775009352 -0.00361271826705681 0.00806157090807192 -0.00528588995647881 -0.000659377452940767 -0.0036345439698614 0.00384006146363513 -0.000699138073449081 0.00055008003591078 0.0042973476260209 0.00757197795360504 -0.000106954071223909 -0.0027603182365985 -0.00319605817656248 -0.0060811955079432 -0.003531852900923 -0.00213780545346 0.00336985016089259 0.00351648076471488 -0.00560786801233713 -0.00310459374359934 -0.00153488906383365 0.00161157995473526 -0.00206255147363243 -0.00528252143246269 -0.00312979984867538 -0.00270231999722852 -0.00488284661322836 -0.000367478350642738 0.00536712313514954 0.00508838497669373 0.0031915752000118 0.000546325017737328 -0.00228119709192929 -0.00447883307143516 0.00103406052618839 -0.00271345560654212 -0.000102266281143409 0.00402721127655924 0.00391928674969814 0.00475150010635785 0.00166175949491823 0.00113528361835968 -0.00287155156682347 -0.00519096535353348 0.00329507262315144 0.000921650597920824 0.00895350691712216 0.00506481268450449 0.00947096589283366 0.00323211396341155 -0.000227087005110819 0.00690881262465993 0.00622843461323688 0.00486375848409726 -0.0042672541763693 -0.00241591818231717 0.000387564202093119 0.00247281513462393 0.00889046048860185 0.00198518107079534 -0.00809437296827668 -0.00151426559343964 -0.00637539804427491 -0.000898148063634615 -0.00377339523349324 -0.000940351958416511 -0.00812412508348116 0.003532835703937 0.00388109312979643 -0.00373654384431498 -0.00252331726275919 -0.00391599070415424 -1.36424839851898e-05 0.00260596771897701 0.000771269327719441 -0.00144811438461438 0.00642577711880833 0.00122094454864299 0.00511471710417128 2.76532158418049e-05 0.0052372858344867 -0.0040882220948347 -0.00133771748023372 0.00567237075366295 0.00507166091652798 0.00527288674590166 0.00137879534658452 0.00277777758085345 0.0069056367146929 0.00184690987586974 0.000574824062717831 -0.0018088044237505 -0.000858685616632083 -0.000202579889152385 0.00306869433716662 0.00698105270926438 0.00323273220181844 -0.0018428186815515 -0.00402996366416795 0.0018407806954838 0.00311022983061087 0.00124825642791167 0.000718546143721824 -0.00407304258758604 0.00371652569865651 0.00207934283376181 0.00319993560711747 -0.00129932965543804 -0.00273609590319082 1.26045575842714e-05 0.0072096282592729 -0.00229337272458927 -0.00126922591163917 0.00357721448657895 0.00582928247124259 -0.00041668094457739 -0.00109638802670752 0.00143463763671961 -0.00253567632575061 -0.00146589451474115 -0.00345469196035623 -0.00096087686275153 -0.00155152701117119 0 0.00939742755244139 0.00775525816938019 0.00462411898924791 0.00546857104566133 0.0062556727220142 0.00154657651892226 0.00705991670385716 0.0103283461945044 0.00882514620613254 0.0059470653742885 0.0106437324064157 0.00558587249812781 0.00392127528138894 0.00722771362571505 -0.00499484171096894 0.00170736126396995 -0.000456234934663655 0.000975571699980689 0.00418733162004961
-0.00814298099433218 1 0.00117890392015941 0.00301747719372953 -0.00053474707899043 0.00132079533784495 -0.0026688326223206 -0.00123366567352175 -0.00114563425856779 0.000271181331602223 -0.000568402056684271 0 -0.00460527771513773 -0.00933167350755453 -0.00153566457286137 0.0027816140402996 0.000756187188857357 0 0 0.00188517653589852 -0.000363788551022403 0.00222142080992197 0.00644096861776361 0.00210675135649302 0.00633624773474145 -0.00154585651096459 0.00495690990504138 -0.000210154184469223 0.00589528312379811 -0.00258641332354841 0.00161906421579833 0.00186731475206262 -0.00274115980801579 -0.000927873282523892 0.000652340445554484 -8.46419168187074e-05 0.00215114672244506 0.00512019248182606 -0.00120318654485557 -0.00292173951032588 -0.00263932000521854 0.00198851382411873 0.00256557470241865 0.00134054555651819 0.00177957907952268 0.00454842942562169 0.00136681401696844 0.000873960284205915 0.00135225746540806 0.0010311609873848 0.00305838325217453 0.00302848839504835 0.00169933015663187 0.00263754326074566 0.00417476644646611 0.00448103375857936 0.00335108066044831 0.00689160128965452 0.00210644194789644 -0.00484275034501583 -0.000179664092814592 -0.00512995375667553 0.00483355852288896 0.00347597390965058 -0.00206490781119309 -0.000438183368360623 0.00453150430822017 0.00296816632128564 -0.00734446759936331 0.00296776704508184 0.00492396852516931 0.00237489628054985 0.00440724857529616 -0.00407611125538791 -0.00421976988977987 0.00385278507909679 0.0016457398776516 0.000446470022333837 -0.00129216908761808 -0.000141302872705739 0.00700197957507029 0.00632985741859177 0.00815706550565365 0.00128982333045798 0.0017859177075661 -0.00626553770445731 -0.00201673442704686 -0.00312284981550541 -0.00825932546561284 -0.00460100150023666 0.00259891476350597 -0.00307170901465271 -0.00912386943779675 0.00070246801319477 -0.000808592499925906 -0.00531421584092157 -0.00227971669999407 0.00139979173526902 0.00131883466611335 -0.000699670906827059 0.00539239930170736 0.0044359738472068 0.00360215196303542 0.00420872105584006 0.00606335977762593 0.00329595182948766 0.00502900039620753 0.00250093473146002 0.000994685107150344 -0.00383632818868461 0.00704294935521837 0.00201742489395947 0.00355398487404163 -0.00307002170691132 -0.00258361974942482 -0.00254305647601448 -0.000156503766449759 0 -0.00296983815090056 -0.00275271016921983 0.00233914705754464 -0.00516742444017465 -0.00464196919603557 -0.00466414139679548 -0.00559571088001922 0.000543434902628205 -0.00056003528524714 -0.000383628669359157 5.85069737561908e-05 5.04775227203683e-05 0.00292731260552629 0.00757773378730689 0.0023373376251193 -0.00037789347437297 0.00136192604296273 -0.0028778570249932 0.00263886759232882 0.00219449637984801 0.0012270577144981 -0.00263919967281809 1.44299155401149e-05 -0.00485123386227804 0.000845348454911452 -0.0028382288984228 0.00688236800366959 0.00685358316185488 0.00787677002802215 -0.00407661911561916 0.000610245013800766 0.00600534125108694 -0.00144306443218843 0.00132634178880081 0.000229547764692391 0.00362342884812449 0.00357857804209776 0.000187252825018889 0.00661256688174143 0.00515286526426084 -0.000218735551600071 0.00182424495372219 -0.00086400864434331 -0.00605893321397169 0.00123893018997952 0.00475612704075646 0.0073643463761704 0.00274536424734772 0.00710343684086214 -0.0029313544836465 0.00137580957183037 0.00059844573049715 0.00205167688081592 0.00448560446731169 0 -0.00756407532971337 0.000504518823992231 -0.00179094970989257 0.0029552329345234 0 -0.00276399212449772 0.00233656275334019 0.000678980386028248 0.00261738893429528 0.000796720868128592 0.00279401180467621 0.00510663150304842 0 0.00656146442260858 0.00345972250045548 0.00549534019749851 0.00228564710450578 0.00266102476505477 0.00347560365981104 0.00598083712338377 -0.00118020646995057 0.00524058702835267 0.00312496919365301 0.00846441168531383 0.00703672024519516 0.00561647735735243 0.00271854135963892 0.0079259371361593 0.00187676284560162 0.00351962607958676 -0.000243557085014275 0.00459943245101488 0.0010894047846945 0.00127166362360846 0.00476798166354822 0.00245853848451423 0.00207202798223908 0.00317506845446391 0.00393712780423894 0.00465632248067184 0.00281329898093149 0.00631183788256298 0.00672963201390291 0.00645438245374266 0.00767570656961245 0.00466339252911312 -0.00171212155748778 0.000159406493458848 -0.000273863548196744 0.00569070545397774 0.00369129003993856 -0.00106780732542835 0.000356305866840042 0.00285903674721414 -0.00676067254477135 -0.00784583736544602 -0.00236351235654142 -0.00619908957612023 -0.000600724296230288 -0.0047930863520332 0.00487241641497006 -0.00150144799300177 0.00237020886474524 -0.00506361056663782 0.00618772578417141 0.00132503780404559 -0.00450528909821322 0.00161957604289202 -0.00050083338531479 0.00068722602837175 -0.000834714517534345 0.00730592075128513 0.00583949537854233 0.00216464250587691 0.00391085784306627 0.00448783664260637 -0.00151141651542661 0.00666727362120346 0.000613641701076709 -0.00283183155207095 -0.00674140684574513 0.000297599179334105 0.00314681904184882 0.000959313921823822 0.00321670830680181 0.0022640724946316 -0.00120876801028026 0.00218444272810545 0.00403564588320094 -7.73458251723652e-05 0.0020527683575187 0.000502074030250943 0.00326506585878731 -0.00558790000982238 0.00286773591473994 0.000897600639067178 0.00374138877317644 0.00161331229072159 0.00410971494914172 -0.00551868714167619 0.00250092431107285 0.00353982102231878 0.00250746198121936 -0.00137534964411838 -0.00159819436738477 -0.000630607167854278 0.00292950182806147 -0.000606570062119069 -0.00107466930190254 0.000606152857237951 0.00168400862052443 -0.00353234343367263 -0.00301355912502755 -0.00473630957243669 -0.000717600729977424 0.00380590562019755 0.0015775868481072 -0.000280013189011665 0.00635081077815182 0.000981138053140344 0.00057816731626242 -0.00280921618038233 -0.000356936466431259 0.00489007646389466 0.00265634060268294 -0.00192971043110096 0.00544941056204713 0.00522992477420935 -0.00135614001603656 0.00727960239255333 -0.00868041377260028 0.00250182580047577 -0.00710504022998928 0.00326975262988708 0.00590407424908999 0.00181855505814326 0.00324770174348365 -0.00178207322349977 0.00553676013415715 -0.00555891137695344 0 0.00270803964809174 0.00462444552539593 0.00817491724561496 0.00437046290601119 -0.0025571663463291 -0.00574145413670342 0.0021405699136215 0.0069953016248817 0.00569584490848746 0.0056129908331757 0.00823449993982298 0.00905182318767611 0.00778583614914627 0.00579039099814256 0.00148585176719674 0.000921088773842434 0.00208764891959275 0.00374637280270374 -0.000478983797609054
0.00267945160018669 0.00117890392015941 1 0.000160825897824565 0.0111426703926668 -0.00207847304152255 -5.5122917655947e-05 0.00530812823338519 -0.00114293344226183 -0.00680436707936826 -0.00208445826557201 0 -0.00205629154642617 0.00447467347531758 0.00675569387160185 -0.00222883724684501 -0.000836929108487441 0 0 0.00126230020128289 0.000905956153911365 0.00419017803459575 -0.00451540984818498 -0.00167947227251156 -0.00726269994153184 0.000181627764417873 0.00162032011202995 0.00141234268595432 -0.00890152244958041 -0.00235226642347253 0.00034093158894527 -0.00329147832170685 -0.000220202008713287 -0.00401300155930054 -0.00563105257586813 -0.00286170108751245 1.46215186985039e-05 0.00273275952575166 -0.00164294149362986 0.00492074898332145 0.00290263015400222 -0.00152485836843825 0.000133082526767488 -0.00070462180829524 0.00259062866154274 0.00040696518490491 0.00383095966539763 -0.000104792941847658 0.00324228236579184 0.00591072053046443 0.00759760070452083 0.00957641442594668 -0.00111812086125236 0.00219848477220429 0.00655643070029036 0.00461332130819976 0.00543541281443926 0.00146066599142037 0.00147735871008506 -0.00618812196293376 -0.00554238314192748 -0.00632895245907721 0.00328891006900721 -0.000673023767393433 -0.00640763201405028 -0.00624208215474287 -0.00364969586069133 -0.00580941210250601 -0.009241357461072 -0.00051530606032511 -0.00502182032298984 -0.00650795817436727 -0.00805328187244672 0.00243191118392499 0.000938834483766581 -0.00585547275714982 -0.00498902672884595 0.00578590889679461 0.00684198471147925 -0.00996290599150105 -0.00685520368466575 -0.00521015714934182 -0.00121104286924601 -0.00308868272528124 -0.000250491833777779 0.00060135309295614 0.00898883189531007 0.0115767902910304 -0.00077109537739531 0.00630094325095442 0.00103219848194064 0.000339863152363312 0.00666118434299243 0.00583338378535915 0.00734108440970628 0.00770420095844237 0.0114243568608056 0.00481083273282121 0.0010816849594486 0.00634880081423588 -0.00333731068239842 -0.00637071882462403 -0.00259532832111328 -0.00394038852825969 -6.34274080370551e-05 0.000949915054702687 0.00359935489088416 0.00713294074726736 0.00409683174103347 0.0023264532162044 -0.00520110239343045 0.00361303143986874 0.00269955912548832 0.00147685579436622 -0.00371661928684592 -0.00649862318440572 -0.00751163100366737 0 0.00484289217576555 -0.00504725545624267 -0.00339754965472862 -0.000272023684533725 -0.0015639198854642 0.0051865388370637 -0.00494489786389002 -0.00675850994843194 -0.00685319038346481 0.000876704665774596 -0.00266584170426721 0.00416150078726906 0.00138307072227645 0.00506788483955905 0.000275679589555247 -0.00110573107054798 -0.00464806922899112 0.00550386385525349 0.00913093188006141 0.00695762688124868 0.0108886360487297 0.00155981549289637 0.00553651749910076 0.00578219335657501 0.000344139743865221 0.00306438550256238 -0.00381697545805611 -0.00226589678133444 -0.0037658599395567 -0.00354704017340947 -0.00346501481349783 -0.0044372738185587 -0.00463874759319323 -0.00855894873184294 -0.00131603122681665 0.0030932292186224 0.0051045723185069 0.000519448569492455 0.00240418119386092 -0.00194946729242912 -0.00931493805280522 -0.00823151874291131 -0.0064268946903086 0.00386502931011119 -0.00142347153918439 -0.00382300650881735 -0.00541358176221902 0.00942938805306581 0.00514570376304571 -0.00159529195161519 0.0106154997910985 0.00223982493292991 -0.00581505770939716 0.000602477389687442 0 0.0032257921926574 0.00765507544621076 0.00497373205059475 0.00982624810673307 0 0.00156754381703943 0.00213746673982153 -0.0017126947635293 -0.000762377329930583 -0.00349288899078645 -0.00558331875995078 0.000199708628793811 0 0.00198250934623185 -0.00258834756070345 0.00194333654007158 -0.00359880223209545 -0.00255944113742711 -0.00356715215983093 -0.00304699752113953 0.00159872594380802 -7.22260140639685e-05 -0.00420487033764293 -0.000711827520331062 0.000190762009059097 -0.00193911115034583 -0.00337619742100142 -0.000387258369725735 -0.00075155282030655 0.00662364894663172 -0.00355460701833697 0.00399179513933416 -0.000192676148756883 0.00187854409278895 -0.00139324791879273 0.00806150947075502 0.00400631478100994 0.00597672724488076 -0.00243786443963144 0.00503670823244837 0.00635802868531513 0.00303044320766681 2.50658844067792e-05 0.00187147406896077 -0.00234832877723197 -0.000671116275559991 -0.00208900648516171 -0.006219580197462 -0.000993568700534696 0.000314126328098093 -0.00509122389358206 -0.00571557295860051 -0.00661215662474923 -0.00447125144978131 -0.00604800139094809 -0.00393687162185455 -0.00345928412309054 -0.00420246025247775 -0.0061431452328946 -0.00793431059977909 0.000256870529279837 -0.000931080444195798 0.0077147326696116 0.00204016050450908 -0.00122312127012971 -0.00200140794314063 0.00123039331288929 0.00697283571837744 -0.00552016225132409 -0.00734480143608765 -0.000913977325683172 -0.0019619956202448 -0.00400572664910355 -0.00239711000774804 -0.00467407290721786 -0.00475319370798133 0.00306406276307654 0.0103300149825443 0.011773023555913 0.00395249089730756 0.00901620775672544 0.00590454361153399 0.00818149403165142 0.0081319577767826 0.00412275724857584 0.00364340437275113 0.00987874540283232 0.00881807430028387 0.00972452708590207 0.00793931336077078 0.00310166532858309 0.00678242899017129 0.00340665661054984 0.00276592891279636 -0.00178694817485961 -0.000319173781702818 0.00143428989433143 -0.00245780740635391 0.0040489812694637 0.00960015187466575 -0.00309570215679151 0.00179813313203972 0.00233863974667902 -0.00853973064385967 -0.00407731542158069 -0.00739788536629738 -0.00566157146129103 0.000281147737363563 -0.00516485163316494 0.00509045886229032 -0.00303069386331704 -0.0011778653200952 -0.00605164691766992 -9.50642514620302e-05 -0.00533895253191295 0.00390326222022721 -0.00465363715781735 -0.00201467948395515 -0.00923954397138998 0.00841125618980954 0.0040674490679857 0.00487868119042172 -7.06068330826749e-05 -0.00188748289922387 0.0109153690128699 0.0101563447365622 -0.00480467701054021 -0.00516074352474021 0.000968468720590744 -0.00480325363215231 0.00344692690033323 0.00130512659237671 0.000254632652067698 0.012673307253189 0.00869693994334894 0.00271004960636558 0.0127186501334917 0.0130973279269276 -0.00476788823326478 0.00877002552711552 0 -0.000593595444620049 0.00143816531727215 -0.00342392979622816 -0.00289562533210073 -0.00389707085737726 -0.00139293724788896 -0.00269286968679227 -0.00709936019783036 -0.0052386814757752 0.000632724877241259 -0.00309054708853403 -0.000991950436831251 -0.00380738772226684 -0.00164508970889201 0.000333161114479309 -0.00919005560304912 -0.0065793309338444 -0.00499404399287267 -0.00414754053975679
0.00887395416816092 0.00301747719372953 0.000160825897824565 1 0.00360664647025741 -0.000129779187458816 -0.000307978859775549 0.0005388554818122 -0.00287687057246216 0.0032065665796404 -0.00403465181121946 0 0.00999017059266654 0.00449420246020223 0.00243544439588797 0.00570972137751007 0.000269621381532428 0 0 -0.0013582859158509 0.00619461652820054 0.00247378914393878 0.00318602420999857 0.000938740069475223 0.00242565006724657 0.00146405041058516 0.00249087710628832 0.000221974318545551 0.000676844896721908 0.00255410964981449 0.000361088635038084 0.00485288736696709 0.000793267399767158 0.00712014187003073 0.000397415327332514 0.00256924499271946 0.00205554954549498 0.00165569378898281 0.00444633200715076 0.00317364009675539 0.00201750832029523 0.0030043824412634 0.00281013921810777 0.00156306286158534 0.00456246198512006 0.00595428319688664 0.00446148495995948 0.00267434442637088 0.000771404916165428 0.00537144641979825 0.0028371266732248 0.00344411511728795 9.45204067859218e-05 0.00255192049075624 0.00193557609448448 0.0015946938738859 0.00389212551673191 -0.000546499393695455 -0.000480018397790906 -0.00143285052835693 0.0048112350703008 -0.000486555402957675 0.00186803148664973 0.00413333475399023 0.00358539426650005 -0.000420218986881873 0.0030342379850423 -0.00021012336661197 0.00405702944793693 0.00401736275025332 -0.00311953805900997 -0.00787178665290206 -0.00531863061279652 -0.00325902653365217 -0.0023973407834382 -0.00652220385661558 0.0019508611239746 -0.00446498064125529 -0.00461555412055556 -0.00773712206874341 -0.000912377308268198 -0.0100974846101701 -0.00364595596927708 -0.00252732921519224 -0.00453902152032526 -0.00750720927819539 0.00560033728896509 0.001148608585024 0.0105670961513621 0.00633783171465569 0.00333872374049648 0.00624261395686694 0.0076077401022934 0.000207128454631016 0.00206319286390114 -0.00343830202025645 0.0027673269259114 -0.000561571021031224 0.00218449839733514 -0.000947953850645619 0.000836645231556764 -3.2983441327531e-05 0.00242552505656271 0.00604140325484014 0.00290542329581758 -0.000331368759837358 0.00308268410486357 -0.000380013143837492 -0.000418595285907033 -0.00202699132469885 -0.00246747475219952 0.00365219470924621 -0.00233510786207959 -0.00803356926159867 -0.00191239609028907 -0.00236709840840669 -0.00643574393188008 0 -0.0034831956683784 -0.00507450141165003 -0.00685197569128521 -0.00158872757000106 -0.00108494583470614 -0.00235168182191326 -0.00153409646066125 -0.00294908466692202 0.000573667340612297 -0.00350266098147443 -0.00501295254835731 0.00333951397758653 0.000236389859232056 0.00145335058241173 -0.00351216124249446 -0.00825684277301226 -0.00732482767183566 0.000636158538487764 0.00350595864681983 0.00127104297072161 -0.00287095335172151 -0.00157398456945276 0.00480877627544729 -0.00102120765721723 0.00100024317674692 0.00160362409319628 0.00351055388950647 0.000454059325930149 -0.00313930228987852 -0.00142227701897215 -0.00259058527103744 -0.000200033519574249 0.00296451199093089 -0.00525580306459472 0.00523410877637719 0.0011850627087656 -0.00229658666500131 0.00481888273560983 -0.00112259309189122 -0.00075452360170144 -0.00198848362343408 -0.00521206718107833 -0.00138267787210202 0.0131827288487431 0.000209666459633199 0.00192136669769416 0.00205506522256286 0.00724473600234967 0.00192334859944109 0.00229024761297374 0.00414698455221659 -0.00139962566948655 -0.000465870808429644 -0.00801628345212656 0 0.00717345163557824 0.00495366868456408 0.00334387676330334 0.0101190348161227 0 -0.000137676336320392 0.00159134930691644 0.00100369757522179 0.000660004363926256 -0.000100938696929113 -0.00453334891106795 -0.000890727482512325 0 0.00161564841909837 0.000989826639907734 0.00530817814907852 -0.000161540628138401 0.00185327167511407 0.00264824881027476 -0.000229785374686942 0.00205149175018077 0.000766577221150131 0.00603073753436754 -0.00131473684801864 0.00181742342048869 -0.00040749579594741 0.00457497143291113 -0.00185807131781866 0.0018011068242567 -0.00144212455703491 -0.00143916561488176 -0.00241612532781623 -0.000126350829692215 0.0022552311867281 -0.00200491345201194 0.00191292807945061 0.00180678245626845 0.00520149915120985 0.00132936482289736 0.000258874490181993 0.000509790251574691 0.000473483810359241 -0.00399034838303175 -0.000158133159099745 -0.00276764186023478 0.00408206456072432 0.00478891569198667 0.00144754587846961 -0.00201074188285509 0.00511780632633251 0.00175632513357329 -0.000741370546653134 0.00156598973987688 0.00410037255943088 0.00287134153641061 -0.000289310862690628 0.00641420459498914 0.00079372156306361 0.000237199574452505 0.00115906835949508 -0.00151582148534386 -0.00803828966488873 -0.00470587232894696 -0.000146689279056284 -0.0031869524095398 0.0046356093518396 -0.00164990482942124 -0.00552953559389469 -0.00438452354473251 -0.00601836601422322 0.00239290042186375 -0.00756162977425728 -0.00692126373341297 -0.0057563085870896 -0.0101961054997937 -0.00730895767813255 -0.00479281171865868 0.0015616706444987 0.007218115527825 0.00130263659921158 0.00742802750999874 0.00329360592381222 0.00441211403988274 0.00520894768090744 0.00813594094210004 0.00742239193431395 -0.00161424190432097 0.00105382948697818 0.00369362865033322 0.00571705504572534 -0.00164185591865094 0.00491726752029778 0.000766916124392593 0.00312645251355814 -0.000309818522343871 0.00779366962365144 0.00426625389780113 0.00270138021350738 -0.00367057346841963 -0.00236173650827775 -0.0029287314491984 0.000339182558608323 0.00255763501695199 -0.00671301258079918 -0.00164866528358996 -0.00626473392241782 -0.00705606625199336 -0.00528721399243802 -0.00649069167004428 -0.00696573792536068 -0.00845080132697318 -0.00579572467089839 -0.00390331837678652 -0.0019795996855841 -0.00401916551421622 -0.00704146734097777 -0.00202793444300656 -0.0041394483533289 -0.00717263888872482 0.00717580639074425 0.0011018663986224 0.00796609439696805 0.00518944186159649 -0.00102068774088522 0.00669954794012906 0.00737302315408859 -0.00800334581618491 -0.00556179309101228 -0.00112873146490238 -0.00979772530612295 0.000454093153055029 0.0084075920194863 -0.000857642146328575 0.00675015992722504 0.0085208416449982 0.00206462343671935 0.00337716230158872 0.0047681088667718 0.00224019953776551 0.000566338964607932 0 0.000982554398001234 0.00244221526917415 -0.00336361559040482 -0.00395128999619163 -0.000735117850854171 -0.00310570871706356 0.00150803960693908 -0.00149392213419366 0.00317438913920288 0.00415937772559473 0.00144708309947398 0.00201383456432734 0.0029675826223098 0.00248032358847377 0.00317244204413482 -0.00454058873297204 -0.000280811560824264 -0.000817927601274336 0.00248841344028634
-0.00465285650414761 -0.00053474707899043 0.0111426703926668 0.00360664647025741 1 0.00270719064141161 0.00605693320053341 -0.000796426234228148 -0.00392394078346983 0.0044577935779119 -0.00226212384613502 0 -0.00848906964538655 -0.00809504269700182 -0.00917135120894563 -0.00950994996224942 -0.00454286489005908 0 0 -0.00581624584812743 0.00420747926541451 0.0110013421082523 0.00329454347413042 0.00179657087374341 0.0041448273912432 -0.00135669335626736 0.00743100088086392 0.0064444847349803 0.00407615569087211 -0.00126732098246164 0.0021725241789552 0.00438358049703859 0.00268039014607847 0.00790600513950774 -0.000175317547954876 0.00153584100603631 0.00641905511164732 0.00814913587659987 0.00337243137342843 0.000791016117276538 0.00289060149421254 0.00201866487515408 0.00227324888693891 -0.000379762676764851 0.00771934304112508 0.00641587779295916 0.00637225657149108 0.00240532717716223 0.0070400679049686 0.00270048982147821 0.00219875448116931 0.00700958596383131 0.00954949163244639 0.0105086094032417 0.00828698776664784 0.00461466638349591 0.00326012453409154 0.0055301839645438 0.00808750231365311 -0.00807480783484801 -0.00913444681627051 -0.00762105263277861 0.00707329094265547 0.00204627899082308 0.0016186562589927 0.00211716379327914 -0.00120816778881954 -0.000511356325492365 -0.00585727805507655 0.00971435570170262 0.00840153740306135 0.0032335868228447 -0.000146401354269234 0.00176311839895394 0.00506547961582692 0.0155733870465666 0.0142846324321543 0.00688048757819906 0.0072985882663547 0.000148978678003304 0.00925655555090192 0.00333356830416254 0.00695333315609153 0.00933012357501407 0.00660764289809318 0.00487486359993215 -0.00418827003248086 0.00177803324696866 -0.00719666319618822 -0.000442387083172865 -0.00384410619956999 -0.0058182187162165 -0.00458261886323976 0.00362021342975433 0.00310921291375161 0.00155655948522679 -0.00243961512912848 -0.000782084241493543 -0.00409212003542235 0.000498457654306659 0.012371680894492 0.0071203693561701 0.00768979811359133 0.00712046693637941 0.0106874006333957 0.00845468849556213 0.00231030797505874 0.00311739983966833 0.0044450770791435 0.00748833083606862 0.0125431475116491 0.0101673207418604 0.00406424248845633 0.000138276383998015 -0.0012249438096079 -0.0060060276370376 -0.00570038638764912 0 0.00151607788534155 -0.000569614865403238 0.00151734704696647 -0.00126527049147259 -0.00361533413058996 -0.00431610990467217 -0.006949167845062 -0.00427727102520377 -0.00757285418896868 -0.00657542074658279 -0.00560446727603035 -0.00387529143701238 2.26205869441182e-05 0.00043742371374132 -0.000987321537951049 -0.0022392211340411 -0.00432466939210785 -0.00216115361360097 -0.00370712438797044 0.000966979109306091 0.00299384475786606 -0.00113919212867851 -0.00116991272194663 -0.000431226856815703 -0.00573966634763532 -0.00433102812438267 0.00385209196170862 0.00934653030040471 0.00938591447995945 -0.00376837523764917 0.00224534765692038 0.00303011907400723 -0.00109477626389428 -0.001182594001675 0.00491802690273116 0.00361250985101214 0.00732894049455313 0.00272255591295794 0.00770998904254968 0.00591241025992207 -0.00384919905481079 0.00273239428551924 -0.00792991488846145 -0.0026369012624464 0.000272426263674877 0.00701874503540405 0.00493758405028266 -0.000833589466513646 0.00752164850076538 0.000191431872584683 0.000199065518809798 0.000440931193603955 0.00921431076615084 0.00339679278729329 0 -0.00386740848517318 -0.00231006010734565 -0.00302552687033854 -0.00204197810703959 0 -0.00596655144215329 0.00440968932543309 0.00628311268869685 0.00537297466024709 -1.20348314624915e-05 -0.00200753805620179 0.00877577421085848 0 0.00641625078056549 0.00509746740066219 -0.00207322163423345 0.00050116993345426 0.0038304845581847 0.00615448483375733 0.000925283707610913 0.0087663634413311 0.00942410303157573 0.00538137537755361 0.00723715086525403 0.00699476982239272 0.00489171500620282 -0.00120620878097085 0.0098472739600819 0.00583842377337902 0.00650113413811774 0.00332948339357255 0.00917480539311486 0.00459060423435378 0.00476193247719057 0.00566597396618524 0.00625664105022429 0.00392232427220718 0.00463255589994527 0.0100116091083269 0.00865899482070406 0.00602279259932043 0.00966834475434415 0.00814502541282741 0.0100312084199386 0.0103616125417988 0.00622251119806059 0.0008816858548921 -0.00629576237955631 -0.00825057454669011 0.00800867312081843 0.00353107284087811 -0.00677619213204677 -0.00712066582222923 0.00998591445017858 -0.00582022501295712 -0.0042333295942135 -0.00830000055441327 -0.00864748687757979 -0.0116285415431051 -0.00460427735964888 0.00894685859315753 0.00264921857698335 0.00830097301772051 -0.00116072679950558 0.01563520803151 0.0123385059715536 -0.00493508096559362 0.00254502136303919 -0.00126385292690418 -0.00124643197018985 0.0131795141571239 0.0026971003244305 0.0105339432722122 -0.00281006177505154 0.00308499318491258 0.0084132122365196 0.00271301630036203 0.00326977971281465 0.00217510593802568 -0.00284328178170967 0.000911678259816425 0.000439638402262172 -0.000232794325827232 -2.03572019364897e-05 0.00120823931496573 0.00151583191493972 0.00567956532965576 0.00244209034600492 0.00482749057509526 0.00105584999654445 0.00151294411736389 -0.000658070723298495 -0.0035139528692112 -0.0030336893816606 0.0128507748586612 0.0134498458528254 0.00911070136344256 0.00299587767041203 0.0085513903975762 0.00453126205775173 0.0111240855868554 0.00761276051942014 0.0032027931461306 0.000559010106293608 -0.00372306778373203 -0.00431816130846277 -0.00881060251193286 -0.00314113136108289 -0.00227519676519926 0.0023741333438729 -0.0027911677704444 0.00138233972601683 -0.000298044524870397 -0.00758963416274998 -0.0093646313790132 0.00112033034127489 -0.00957391333447024 -0.0043283109417988 -0.00613582097864022 0.00161361150325452 -0.00559237464518703 -0.00206641819015392 -0.00934558322457843 0.00422493246530309 0.000912537059780844 0.00062202661179463 -0.000549383072602098 0.00223412770664411 -0.00330766511498706 0.000210408920937555 0.000507745679467679 -0.000367919130726718 -0.00219726215897144 -0.000479471115506032 0.00134929776115438 0.00160692155050719 0.00434832382463378 0.000420731432905306 -0.00423196630923902 -0.00166101871555349 0 -0.0004502152519127 0.00751909729976177 0.00869915214290844 0.0105932818536633 -0.00084109399263793 -0.00172277100528475 -0.00221638036704047 0.00366841406583229 0.00134330552056916 0.00186474867324485 0.0053097734757782 0.0021510874278038 0.00229218696530191 0.00277259211876421 0.0036611774333632 0.00145975969812507 -0.0068138696759466 -0.00448872905598237 -0.00570062472733897
6.57821335426576e-05 0.00132079533784495 -0.00207847304152255 -0.000129779187458816 0.00270719064141161 1 0.00686696718943673 -0.00116812724088532 -0.00942179830053056 0.00498874065132143 0.000186075065221181 0 -0.00761039438884532 -0.00509649035990936 -0.0036454537316794 -0.0038555435028484 -0.00332868967434611 0 0 -0.00125979207150178 0.00436521964467175 0.0020372488025803 -0.00247219307232093 -0.000472367175128464 -0.00109417020494296 -0.000300476856823494 0.00161134864972382 0.0003221894106619 -0.0016097313045433 0.00443024872143684 0.00525198458181284 0.0032974220843899 0.00283366683563626 0.000455232923890244 0.00245301838058648 0.00277544596865276 0.00285679656593546 0.00252363522754862 -0.00216179141758285 -0.000876721089190075 0.000983075617896159 -0.00042506198484643 0.00154980296520432 -0.0025289635863675 0.00162269123491967 0.00228312636005479 -4.89550901761344e-05 6.60805309940072e-05 0.00200309533924786 0.0056511037995721 0.000545005355588639 -0.000986013520509833 -0.000587956140330061 0.000945468115140254 -0.00330280325187092 -0.00222441008512489 0.00446491498898139 0.00288985302821609 0.000953804672295298 -0.00394441189072433 -0.00783870364165585 -0.00638892459720908 0.00167334484652858 0.00166706460132088 -0.000978353049878133 0.000894758534740871 0.000446038441034488 -0.000836269360281947 -0.00324002764966899 0.0036335881444238 -0.00100392174209183 0.00055215741191254 0.00156825005486669 0.000668273559175887 0.00296883779704057 0.00249592558891647 0.00314198410978973 0.000336708481009603 -0.00295012391278802 -0.00224168397718061 0.000869609587777286 0.00111171466222383 -0.00348911443983193 0.00503239285406139 0.0027849071180329 -0.00150136295462847 -0.00391737231900544 -0.00253904612201912 -0.00146030529796921 0.00139769390186964 0.000113448784474939 -0.00380536447865129 -0.00336629467418331 -0.00151886453919497 -0.00342004153770987 -0.00325196916557096 0.00130581179932956 0.0033197743189378 -0.00077685578267479 -0.00245225514778784 0.0043452968126351 0.00343696780258216 0.00145371508178932 0.000900130561468776 0.00138010586045723 -0.00309306762966779 -0.000323635968368932 0.000103698061673144 -0.00320266719645395 0.00407192692243699 0.00364505376087969 0.00171114137463012 -0.00260724876424531 0.00597378478381297 -0.00114586111658721 -0.00391373001807274 -0.00220231345072281 0 -0.00305780686560669 -0.000896419876577894 0.00273148956755382 -0.00443829272698469 -0.00372061159531086 -0.00342643197007833 -0.0010710509713802 -0.00258036756829209 -0.00705266973766374 -0.00123717792634322 -0.00284927702263989 -0.00236006884161114 0.000815749076486721 0.00103723355522484 -0.00639068917810394 -0.00263672842210679 0.00269025887967744 -0.00209502739750104 0.00262039251163534 0.00507551697777277 0.00146061831336229 0.0037286075996854 0.00338670754557307 0.00117223463215063 -0.0011657736282147 -0.000928464630479526 -0.00274417068071177 0.00477939994086351 0.00789164109564838 -0.00172996468629975 0.000856356853635094 0.00131696054905112 0.00062103379460545 -5.98196844248585e-05 0.00254920667594242 -0.00237619502010462 -0.00285129233647378 0.000425083327083142 0.00308533466526629 0.00402432757049356 -0.00754989381094586 -0.00116277627204096 -0.00636267645335634 0.00392064578582475 0.00661124606395672 0.00378333934697439 0.00115504148274106 0.00452887837465672 0.00176925776093885 0.00707879433299341 -0.000759012327531678 -0.00376612167953827 0.00882377644736976 0.000289595056392404 0 -0.000564451214355773 -0.00024751872296531 -0.00238507529976869 0.00185349331854262 0 0.000865187789003083 0.00864962852721676 0.00222769404966602 0.00340466935160251 -8.35509939956072e-05 0.000362382447497719 0.00454130962826573 0 -0.00120983543861723 -0.00207360269554999 0.00500625103187892 0.00647581221771 0.00508469395301032 0.00426089940135767 0.00484400692604105 0.00776322971290377 0.00365791386591414 0.00425250873985376 0.00963763419675927 0.00311037055913867 0.00394904761926096 0.00217143135461793 0.00679012459238529 0.00728685285625663 0.00341146662074242 0.00490641156828865 0.00534858960215704 0.00513798744827711 0.00385985536408836 0.00478352947148827 0.00643358937895486 0.00687585992931036 0.00155033580937428 0.00303559347520431 0.00508689042179709 0.00734945974374043 0.00363876246102548 0.00634414427709594 0.00457406560338487 0.00642199335726623 0.00676556971682918 0.00407784209954019 -0.00163874295163877 -0.00498960601888727 0.00400835314693306 0.00452583867617566 -0.00526192329126553 -0.00534700190349012 0.00482612917282344 0.00179153730565875 -0.000858752671155997 0.000532946953015006 -0.00631658608494827 -0.00158390253945736 0.000131516482692416 -0.00042733253545363 -0.000309103117480406 0.00677879901532887 0.00377742615373565 0.00985805741235095 0.00797235972585241 0.00294268870385846 0.00125304550276799 8.31615403258771e-06 -0.000317417844640828 0.00141125038928022 -0.00300109661035473 0.000766159316918771 -0.00397197293386862 -0.000609330759362408 0.00531315207656799 0.00501809110934449 0.0026259379407178 0.00349842656568199 -0.00215255025888574 0.00141433954628151 0.00393703642262552 0.000102245092278161 -0.00324401915575975 0.00380699479004322 0.00178292979477681 0.00367779690516314 0.00177938411523826 0.00157431468990077 0.00484830116841402 0.00477536059884439 0.00451883014661484 0.000393123596131216 -0.000472147155616854 0.0047459991132734 0.00795199650973189 0.00226992400854232 0.00660518590117192 0.00322560655058797 -0.000987828957282498 0.005009323874489 0.00301593206627311 0.00600375585086346 0.00477666538019591 -0.000443108795444618 -0.00197127549711856 -0.00372981566853525 -0.00430235705234009 -0.00431794821663272 7.62361761268461e-05 -0.000203064254778726 0.000279726684950058 -0.00376178561368277 -0.00450953831386289 -0.000360627846348089 -0.00148511080143563 -0.00629479419279203 -0.00164626165161751 -0.00680154539925689 0.0038522918018947 0.00296772246106588 0.00239012850991907 -0.00100937668245715 0.003035296534072 0.00437223850643415 0.00122079319332006 -0.000873687723723566 0.000757864831020563 -0.0012571751552477 -0.00174552014920427 -0.00115989059707857 0.00259093892209138 0.000975686608445021 0.00264728796474536 0.00436523984071325 0.00215039681885826 0.00530306426348899 0.00220394497366134 -0.00156602966892224 0.00198623894492331 0 0.00198152017045614 0.00291722605036401 0.00276946495666308 0.00890444676593568 0.00773273708451639 0.0047673039399892 0.00132980292519178 0.00186677370484146 1.57530309771558e-05 -0.000741695262306802 0.0013756206229875 0.00393923800688406 0.00556953251557727 0.0073312763962951 0.00174159057076272 0.0006076022121258 -0.00667923658334801 -0.0028735400740426 -0.0029852756139702
0.00576648908164715 -0.0026688326223206 -5.5122917655947e-05 -0.000307978859775549 0.00605693320053341 0.00686696718943673 1 0.00789139305743382 0.00180713205903065 -0.00504733706419835 0.00278724689542417 0 -0.000511082294246717 0.00137175475771867 -0.00138290938224927 -0.000945802809588934 0.00276273950834521 0 0 0.00181218480425147 -0.000712536114703676 -0.00281461785575033 -0.00417765530443202 -0.0032744944472714 -0.00587953342473582 -0.00129480398172011 -0.0053961418014569 -0.00339731379368537 -0.00735062261809202 2.67608606139151e-05 0.000542772184347824 -0.00196455861856515 -0.00508640048495544 -0.00519411650683433 -0.000917843959497015 -0.002012870872327 -0.00120676483568806 -0.000433879102464691 -0.00165415379224239 0.00013712868697741 -0.001388564360378 -0.00216701943146602 -0.00204959973108131 -0.000102300856460162 -0.00241632618300688 -0.00158607562480969 -0.00473367645184639 -0.00505605882560127 -0.0037983185757079 0.00196226969930058 -0.000823858945603921 -0.002010017466607 0.00239883407046331 0.00064891129972588 -0.00435283935239865 -0.00257273966428626 0.000993453980031327 0.000198712880688509 -0.000293334127218438 0.00129124509838363 0.00202466169027261 0.00181422019459968 -0.00477125730929339 -0.000123111337474165 -0.00559549509524059 0.00351745009832384 0.00140472136471898 0.000284294359658245 -0.00524788913950331 -0.00326866531678068 -0.00302380744542515 -0.00559855470778335 -0.00237919413764554 -0.00102526924281126 -0.00189542102400566 -0.00717450991577114 0.000774061501926838 -0.0027493726123666 -0.00195857356795422 -0.00831125006821963 -0.00786030015765257 -0.00859936874175611 -0.00893719847090184 -0.00316619380696244 -0.00179400207592613 0.000412553366216437 -0.000339510148917746 0.00240124054655511 0.00465729585532848 0.00540666432194072 -0.000812413478206441 0.00211601180351672 -0.000560648150183364 0.00712065829326516 0.00439982071166434 0.00432738632499343 0.00230557209401778 0.00286610745614461 -0.00159154007425815 -0.00132499921682478 -0.000745987452624471 0.00151627725077891 -0.00841289818289326 -0.00289726027911236 -0.00157065365511555 -0.00460017309174269 -0.00115261731949624 -0.00128788492299383 -0.00392282417964284 -0.00479720154548466 -0.00460719888421338 -0.00811707159910601 -0.00456921658715487 -0.00134099660672436 -0.00295632825651864 -0.00458558566760322 -0.00524841273893245 0 -0.00468535277822191 -0.0057302866651732 -0.00146192391348424 -0.00519283161274873 -0.00286689501684226 -0.0010025942921366 -0.0028026745353452 0.00793424132041058 0.00344922270440802 0.00342454166601839 0.00436887713795763 0.002166596250186 0.00353703476506815 -0.0026965574378494 -0.000726128264171933 -0.00221070084571052 0.00138596864658997 0.00468477403920384 0.00468536757018266 0.00594923400935526 1.6752241452286e-05 0.00114849251597438 -0.000872541616394111 0.00360773422225185 0.0021170778529412 0.00374731652620603 -0.00340171098078162 -0.00333524928541848 -0.00291247515228812 -0.00075616190931883 -0.000561851600757862 -0.00431801809665088 -0.00111763506328988 -0.00282325709985808 -0.00323821691493595 -0.00376340724211307 -0.00632136296178034 -0.00162426959235061 0.000173024476723409 -0.00132728210072823 0.0036243028524666 -0.00215112498259459 0.00348544320610901 0.00810032409302549 0.000777861612732576 0.00062105066709028 -0.00146499636661419 0.00473308831669629 -0.000437851760379925 -0.00125999023635624 0.00398368057387265 0.00458470470629497 0.00290731750059223 -0.0010417326631093 0 0.00488264687540904 0.000977395236602429 0.00442412905076718 0.00500546646418385 0 0.0045154251160699 0.00416237421411417 -0.00154749601603472 -0.00277743095213613 -0.0031353688037902 -0.00490090045479428 0.000283928717973044 0 -0.00426002715425319 -0.00336380975934548 0.00275043754855777 0.000841059195391517 -0.000291894372409621 -0.00154714049900985 -0.000689404732861467 0.00417002735084949 0.00179055786012573 -0.00232783014993569 0.00343194513291325 -0.00290707154652359 -0.000856480930433755 -0.00163897532547528 0.00207639655762706 0.00198100458665885 -0.0013102827943463 0.000977621070603578 -0.000318834471607911 0.00143952844428176 -0.00130215554224143 -0.00106094609893246 0.00362283822759425 0.00104542026632442 0.00481153525053401 0.00411932891935345 0.00209480430551713 0.00604591719674047 0.00157814633450759 0.0062035320427388 0.00472066503462831 0.00370754393917381 0.000521583295317048 0.00690226296404253 0.00346876222415805 0.00538325502375572 -0.00292975374722569 -0.00230642192789686 0.00508669744427775 -0.0021448842408779 0.00407518119167376 0.000838487341731809 0.00667105079749415 0.00329702488694103 0.00161692214006208 0.00418371583971299 -0.000765489190029622 -0.00486219927243387 -0.00178990797519377 -0.0015152716549513 -0.00219663537189946 -0.00414352389687391 0.00386476082967194 -0.00297645796457345 -0.00263795957375317 -0.00336108702130889 -0.00910287256768402 0.00411833642945522 -0.0077975515780201 -0.00266168245568471 -0.00511503198612981 -0.00796446070487976 -0.00626122164258213 -0.00307709478356096 -0.000756380427077241 0.00175821623768489 0.00610296350376378 0.00515397819126408 0.00419780812855641 -0.00112961915259531 0.0039213198253466 0.00345675718774942 0.00620048401810591 0.00427524213192084 0.00102726775405403 -0.000351627633064699 0.000433194439110711 0.00157314592477384 0.00249621772096547 0.00427540183635316 -0.000889922134876453 0.00142826710879452 0.00254465830004506 0.00187981387413221 -0.000956727401034658 -0.000152457715704881 -0.00203361794783933 -0.00314429514717001 -0.0014146487731602 0.000846889448579736 -0.00463091246633489 -0.00123045607924255 -0.00468895289711984 0.00024462947143383 -0.00580489583176423 -0.00422616062155612 -0.0047226441484762 -0.00526869458627334 0.00127054274517185 -0.00589680883317005 -0.000193864832760843 -0.00183617780393426 0.0107914972136182 0.00541949900608267 0.00597689525008669 -0.000329994369280298 0.0099181595956573 0.0127769638724865 0.00299328349989078 0.00209114849840094 -0.0043917169972509 0.00498074036386736 0.00935791535761121 -0.0017606049781849 0.00035526859709847 0.00532290155245268 -0.00363557316506756 -0.00222487935630641 -0.0031217499429526 0.00234046608316561 -0.000183508017430998 -8.56647431161071e-05 -0.00401132927326783 0.00533268029786895 0.00411278075226322 -0.00224463237272021 0.00835598295135602 0 0.00155466307482632 0.00153340832143462 -0.00371982031495932 7.51196810690825e-05 -0.00214290191731729 -0.000985079539982599 -0.00137023293343837 -0.00307000345875416 -0.00213966447749905 -0.0024232180481958 -0.00263167014181727 0.000204557880805038 -0.00321451318843405 0.000942407614004639 -0.00339437348444859 -0.0020923766949315 -0.0011009361235424 0.00178824558236887 0.00305714362436813
-0.00914181275892091 -0.00123366567352175 0.00530812823338519 0.0005388554818122 -0.000796426234228148 -0.00116812724088532 0.00789139305743382 1 0.000421752851959617 0.000232772612616629 -0.00679325760185633 0 -0.00612876165544708 -0.00731392629618596 -0.00254216279461771 -0.0098935012518939 -0.00440105268118988 0 0 -0.00566911908179142 -0.000805992561384225 0.00243192879449266 0.00169568948707257 -0.00118886446665593 0.0038158317712347 -0.00346470161937754 -0.000127122337348391 0.00571209653341905 0.00401546845442158 -0.0018644740189426 -0.00166682903424864 0.00237613026730626 0.00148801597174794 0.00388391842571828 -3.46418109908098e-06 -0.000464330351552148 0.000305095354398988 8.20953180057722e-05 -0.00328297671406839 0.000593090035565766 0.00173167000833127 -0.00075005167980614 -0.000376681707441947 -0.00230372088573677 0.00218135820337765 0.00117902884111313 0.00459812491215702 -0.0012000414376143 0.00131236928968554 0.00127061867067879 0.00388284816175496 0.00736190757278774 0.00460982576188494 0.00507991526824463 0.00552980361111914 0.00406574907998054 -3.32972116883658e-05 -0.000323561260193625 0.000633260644651614 -0.00617259409385092 -0.00623699997727671 -0.000239520178046304 0.00468757480791641 -0.00049063758317173 0.00217146771216117 0.000782938717148479 -0.00311166775778606 0.000904065335298731 -0.00320629107170787 0.00307438786932434 0.00307813296579189 0.00509360392456227 -0.000789391462759833 0.00819973601902001 0.00595042497660246 0.0114922800306957 0.00600933585461932 0.00580842130249763 0.00256542909503345 0.00650546297327267 0.00711692984190343 0.00336490927472532 0.00734355215378147 0.00881776125776614 0.00485857444866076 0.00578200518729385 -0.00406898430104001 0.000456323524258555 -0.00824332097086849 -0.00710331905134524 -0.0068836948747981 -0.00824269473494905 -0.00747171301573837 -0.00041572916016296 0.00123089073145157 0.00305134149724245 0.0015435984829639 0.00193309527327326 0.00098066143243239 0.00375965305723658 0.00398219772683155 0.00497688388829363 0.00543815706858642 0.0075830832669289 0.00731414062984317 0.00876768951601447 -0.000395475208963984 0.00365338647822402 0.0049784237553726 0.00950982254993088 0.0094590442810279 0.0111619604578226 0.00290582938696382 -0.000220923166477907 0.00261200038398275 -0.00229874245759572 -0.00267755298698151 0 0.00423540058779598 0.00142432805008599 0.00692210260400339 0.00395138632368099 0.00189678393461677 -0.00144847971252875 -0.00389220537036862 -0.00250858204374348 -0.00637973632345305 -0.0033246295664009 -0.00582783021291052 -0.00514861371636712 -0.00509557006287361 -0.000557696844457608 0.00348010991394664 0.00108538287397816 -0.00299225178953184 -0.00158004529853922 -0.00106757561357162 -0.00132842548226839 0.00533287758417508 0.00168561945274044 0.00371508916928661 0.000768445513230326 -0.00694222528631579 -0.00565302518641532 -0.00135681563335473 0.00517524296700911 0.00291893091631617 -0.00236063559945986 0.00313846922195969 0.000786414975884331 -0.000666531599583339 -0.00145852502672325 0.00603434052667279 0.0035375815681755 0.007276595441471 0.00210667669718219 0.00250151245459965 0.00361720855602582 -0.000338850888392376 0.00572581657083614 -0.00158926953132333 -0.00823582388087584 -0.00254502999803319 0.00333978527700416 0.00270755166218312 -0.000882451415330989 0.00509887571389759 0.00576728785980023 -0.00530699977597861 -0.00132846382879816 0.00491436440285316 0.00174083884182707 0 -0.00662961238400161 -0.00418944329786797 -0.00901416798943892 -0.00571736616392003 0 -0.0081362559851995 -0.00327581561037587 0.00209468418428436 0.00117547508722015 0.00379728174074124 -0.000928119348924713 0.00101500312397297 0 0.0013274505032856 0.00439149515500622 -0.00518234845216926 -0.00182200178993523 -0.000728820583570867 0.0027456925836149 -0.00230041333540408 0.00202534324219365 0.00371067102904243 0.00159364985971725 -0.00214600617318531 0.00305622948868433 0.00247827601078744 -0.00177302199837247 0.00288148722577057 0.000815411866837858 0.0051596117574102 0.00104253417299839 0.00590455453166752 0.00339065941269328 0.00191489336863598 0.00140698734373624 0.0001560284347143 0.00290754384440813 0.00424607705053404 0.00522256786139803 0.00311852852754511 0.00142872544274732 0.00355628645429638 0.00215024808052205 0.00481591773768546 0.00126871113983924 0.00492547849411734 -0.00236370591046603 -0.00616092223682311 -0.00611401332037448 0.00689212215728373 0.000336700232022814 -0.00341679994801289 -0.00489545716898335 0.00730826999857158 -0.00337881009966907 0.00154659496320351 -0.00337156948083537 -0.00327233875308387 -0.00675830114490179 0.00105548041365241 0.00520318428409398 0.00495773193286819 0.0068648647057756 0.000928343524460133 0.00748869434058692 0.00616776250090727 0.00258035231274616 0.00854469568405911 0.00320641813441583 0.0061316027099007 0.0084361076555815 0.0057024999231257 0.00938731550378759 0.0027340317079211 0.00619701005064343 0.00407128436567017 0.00692289345822934 -6.36016693617198e-05 -0.00496202467251566 -0.000250971427918453 -0.00336082739381192 -0.0020239743838272 0.00191797798511996 -0.00161850659844703 -0.00348873364199689 -0.000515774665878482 0.00451711041971862 0.00157455839511728 0.00535654251435159 0.0018216933576345 0.00059802316854966 0.000915835798688611 -0.00648716720605445 -0.00566636611141943 0.00691536105918574 0.00806555144076516 0.00422466126417551 0.00231475487229825 0.00747095214453895 0.00768592157598417 0.00868389016874195 0.0111648293766136 0.00384780099904557 0.00241685354928653 -0.00642657254015171 -0.00529038123970419 -0.00416233760951657 -0.00169713184845304 0.00521333577103232 0.00563640785809101 0.0033846904165451 0.00147826878613285 0.00263062777982678 -0.00373729253376633 -0.00530459470818315 -0.00271804397192986 -0.00731146075312697 -0.00293707303374936 -0.000762244679151154 -0.00435811361538681 -0.00794383571573454 -0.00795203357599216 -0.0098478503916888 -0.000615456661905329 -0.00368759526808307 0.000119130769390849 0.00170963968040694 0.000715870967990793 -0.00239486584757954 0.00339936559769661 -0.000145513232783486 -0.000810185559714553 0.00274556578215472 0.00111454258812962 -0.00316636641425938 0.00190519766659252 0.00126292294265846 -0.00120125860329392 -0.00749139948056612 -0.00997100708530011 0 -0.000356441097456207 0.00420293970920311 0.00293438572700752 0.00423132756101075 -0.00196627866277587 0.00542102300963796 -0.00164000717523517 0.00144672987760805 0.00368781761141677 -0.000809671876855386 0.00334135252263332 -0.00221184287554569 -0.000915951232698088 -0.00187611813424803 0.00456840443059469 0.00364153614303572 -0.00162474911466915 -0.00093019934770673 -0.0045362548895311
-0.00776936372535431 -0.00114563425856779 -0.00114293344226183 -0.00287687057246216 -0.00392394078346983 -0.00942179830053056 0.00180713205903065 0.000421752851959617 1 0.00441390131740055 0.00330555736505627 0 -0.00243258434085401 -0.00359356920010355 -0.000445703096644985 -0.000120437449099476 0.000393397301471706 0 0 -0.00166827233322133 0.000794213699974724 0.00062028230785614 -0.00347994336183226 -0.00536573809619112 -0.00437670118247543 -0.000351737396454504 0.000308938293199815 0.00626211974117317 0.00398842194054911 0.00735742072358212 0.00742561600130688 0.00606049963186275 0.00550582481471242 -0.000898606451351264 0.00654722377942256 0.00670726318899474 0.00278266995353056 0.00280512915554184 -0.000133984761262103 -0.00595626123494105 -0.00307823523793324 -0.00458550599992447 -0.00191990853167179 -0.00616988141325314 -0.00107248106623259 8.52091730039654e-05 0.000764592761330797 -0.00225340328345874 -0.00378927127149827 -0.000608479283800482 -0.00206575706547805 -0.00441188093296849 0.000421719239130739 0.00102191108716062 -0.00473844324842111 -0.00200911926410619 -0.000645623973163247 -0.00107704317742304 0.00205149026654577 -0.00318613561382979 -0.00252467667555372 -0.00167397579197494 -0.00920000718233468 -0.00363981443771432 0.00244669465003425 0.00220328385025173 -0.00481583496564339 -0.00216371730251941 0.00526796317819525 0.00171849603165107 0.00347516964983873 0.00453570423786231 -0.000929297757024904 0.00111322752991713 -0.00304189785535986 0.00224434774061447 0.00121342526100258 -0.000725101134757933 -0.00284573359652575 0.00316753134628234 0.00306705872971559 0.00189448236285917 0.00218132043438785 0.00180700988665849 -0.0043655629874991 0.00141657106315076 -0.000169517544562403 -0.00126774630508962 -0.00249429156011682 -6.21565138316058e-05 0.000321978832656709 -0.00260628968756345 0.000415363236313991 -0.00578158939433734 -0.00439493075385067 -0.00366005266281992 -0.00340337183653749 -0.00268096055161506 -0.00422811373687169 -0.00135615150265623 -0.00173362235558637 -0.00200425921797006 -0.000929296547837073 -0.000437092920066191 -0.00198765509153199 -0.000360482792229052 -0.00437570598980985 -0.0060428468916405 -0.00371074744490177 0.00143246542402057 -0.00030072911820661 -0.0051874318933344 1.35186486057358e-05 0.00423314740978794 0.000754637979487735 0.000221838556934744 0.00575407665759822 0 0.00214601807264436 0.00341327347691155 -0.00294182943329945 0.00421126540551184 0.00288833368018388 -0.00266483794642645 -0.00278675088101779 -0.00157119472118265 -0.0034772192013527 -0.00349756128383087 -0.00192289789024397 -0.0018129610239249 0.00211576580805268 -0.00630062755048873 -0.00257508607903535 -0.00242730405268235 0.00215172958806257 -0.002957701545782 -0.00405362944679758 -0.00114347621590416 -0.000451737422026322 0.00221548849473232 0.00125414883350573 0.00311335718188554 0.00133973424865236 -0.00677415305744432 -0.00600803572567058 -0.00343908500482355 -0.00379849516279589 -0.00134853506884557 -0.000980647704734358 -0.00688993156778729 -0.00189797481412963 0.00418394259716238 -0.000589737566900314 -0.00616997118834124 -0.00274282982224272 -0.00698581815721279 -0.00994231858058269 -0.00439455877132895 -0.00157396244142075 0.00290268433664009 -0.00240363741359192 -0.00710004360396034 0.00434242856122336 0.00309427060169975 -0.00197506938963872 -0.00298943039438144 -0.00427739265716736 0.00636186506203532 -0.00308982842137487 -0.00272135648653935 0.000457466729026325 0.00405209020812667 0 -0.00257127156112275 0.000727487546843312 -0.00305586588922245 -0.00175751992691087 0 0.00456855937879661 0.00463600348808034 0.00106193179701798 -0.00339680006089689 0.00110544029688328 0.00380795544898397 0.00438814026388349 0 0.0010096126052743 0.00675268922630436 -0.00276699096187557 0.00861661320810296 0.00843338282659885 0.00147283596657028 0.00482173261677138 0.00347296474510419 0.00365866253448428 0.00553120873125692 0.00309833670461957 -0.00287287357146316 0.00160544186522878 -0.00353995743720526 0.00260088951283482 0.00848945741176432 0.0011543944569427 0.0102277581640644 0.0042061089057613 0.00534147753583868 0.000578634154270931 0.00357888379947582 -0.00258976549858379 -0.000928715406474843 -0.00289825990427984 0.000456871109631392 0.000239736635911453 0.00199862420839839 -0.00263634662792175 0.0014149963470066 -0.000113555268370004 0.00271976997787096 -0.00636781509827814 -0.00723392489310862 -0.00316407118724493 -0.00353315141219808 -0.00161050540826435 0.00119756727541249 -0.00259234628483554 -0.00207968229741389 -0.000714759278364256 -0.00213654209666519 -0.00187276231855803 -0.00341660834003812 -0.00269013231645981 0.00111233043128408 0.00315455555964167 -0.000848092648831715 0.00322798550002552 3.41741994970673e-06 -0.00279855466607696 0.00215613001118593 -0.00132992073046302 0.00410174588289822 -0.00402991337506374 -0.000620428076721411 0.00244106516881195 0.00301150517166649 0.00416979785704382 0.00901720253482374 0.00646351757233366 0.00788151889725186 0.00364868324257719 0.00227531842586393 -0.00385304275770237 -0.00378399224531536 0.00167064260806556 -0.00267230357538798 -0.00155651022256377 -0.00442726225878176 0.000665841025472444 -0.00309968803367918 -0.00580880327321396 -0.00147309385680946 -0.00204096646080332 -2.47352162590615e-05 -0.00217133630591599 -0.000807297091166566 -0.000266555047243451 -0.00752207209745414 -0.00265932590219294 0.0019039953466601 -0.00123841590249946 -0.00245150699450502 0.00218255535382863 0.00156369061931116 0.00170226022279961 0.002006078851872 9.80428907028112e-05 -0.00565371400309841 0.00688385090495829 0.000777958782358007 0.00432623448250148 0.00309595918873581 0.0028382659796876 0.00152444812992618 0.004005530437552 0.00454899884650534 -0.000666132969684399 0.00496566363073421 -0.00148276150397605 -0.000832796735799202 -0.0065677602530789 -0.00419951165023496 -0.00618155040548617 -0.00128799086770097 -0.000168784784928346 -0.00115239138777172 -0.00160673029705381 -0.00209980581760136 0.00397953419107135 -0.00169193440873437 -0.000963023434298445 -0.00525600194441744 -0.00321142175844336 -0.00160054710686634 0.00274858109453674 -0.000815537221559302 -0.0027001266030032 0.00661259791526134 -0.00716348291265824 5.57846517714113e-05 0.00366492151788861 -0.00378948149316534 -0.00347993739411191 -0.00755795709941985 0.000202933022881796 0 1.00979194946124e-05 -0.00540946916058044 0.00103786858408531 0.00801962168792665 0.00829028616026606 0.00955490607728676 -0.000672999121313814 -0.00699400109617358 -0.000848757615243702 -0.00341699634313122 -0.00618405802553192 -0.00256862612598814 -0.00322406825355289 -0.0047668639850305 -0.00236929556888798 0.00363164856832243 -0.00407271966398158 -0.00250031523164068 -0.00191467853753114
-0.00073185359645796 0.000271181331602223 -0.00680436707936826 0.0032065665796404 0.0044577935779119 0.00498874065132143 -0.00504733706419835 0.000232772612616629 0.00441390131740055 1 -0.00560306205191273 0 0.000683682182966668 -0.00161909997324998 0.000119253216071514 0.00184684166656596 0.00309020799403333 0 0 0.000988913608204747 -0.0052590112913769 -0.00325005517042509 0.00464334199939209 0.000421182369034374 -0.00028677042505353 -0.00085396706603575 0.0011199870943353 -0.00447024846332537 0.00236166391688046 -0.0007935015158735 -0.00384335395422052 -0.00150926941974145 -0.000327862564295587 -0.00222910042074404 -0.0020056587433667 -0.00323081760211763 -0.00192782791666186 -0.00305629940780616 -0.00394129807416524 -0.000183918223053661 -0.0011910384182932 -0.00028169421834475 0.00223228666418501 0.00317897118444711 -0.00534071865046254 -0.00233613945941159 -0.00202956625502882 0.000960684645951422 0.00276833077987205 -0.000342026611879184 0.00341137568842424 -0.000141280791849899 -0.00530868376534886 -0.000630151415972378 0.00414830835981249 0.00167882482631459 0.00118561054670379 0.000736755130466064 -0.000903551488134037 -0.00257586903885868 -0.000652737252950847 -0.00335694939396011 0.00180002606239862 -0.00464680546865483 -0.00587232404399316 -0.00507513752126455 -0.00200527368983536 -0.00407205171759014 -0.00762360226686242 -0.00415994362811671 -0.00335711181495459 0.000842346594181905 0.000376546523100672 -0.00269436586312576 0.00134659976035932 0.0032637435390215 -0.0022370158790231 0.00123641374977769 0.00261561002278261 -0.000771462020752096 0.000355744789502033 0.0042985189211582 0.00307340569133933 -0.00116047111285853 0.00423346571588065 -0.00146695569510379 0.00437220848271957 0.00367536069670589 0.0002260130948462 -0.000542189446414048 0.00276448428629103 0.00715527847430696 0.00206034599801281 0.00564460837134602 0.00644265807401169 -0.00173741205256581 0.00668465854161624 0.00756713900662119 0.00579975208361148 0.00394496894903561 -0.00142575193794063 -0.000972122068917703 -0.000725218645076725 -0.00358269453969543 0.000508274127460977 -0.00411727259156441 0.00119781923407869 0.00207925726969088 -0.00123297860197036 0.000225002260159587 -0.00248880317732379 -0.000531709747259275 0.00200641154117777 0.00165142536150223 0.000492464655639778 0.000782294692548156 -0.00198289915555951 0 0.000446939003641941 0.0030631941129732 0.00310132223672655 -0.00649502689556014 -0.00379664508513045 0.00314763326727666 -0.00133156553870299 -0.00124073266986805 -0.00127711926657289 0.00387211781271984 0.00339158170826637 0.00270732482737566 0.00490457620113401 -0.000367834298739387 0.00150600886076801 0.00312974632221272 0.00719051045175583 -0.00495361557768705 0.00304588145074227 0.00185357985608218 0.0047644706283664 0.00271416585215499 -0.000144310701638876 -0.00376492002273311 -0.00157609612300242 -0.000220641197230238 0.00699511364196893 0.00722355182642296 0.00326665112863721 0.00305101566432723 -0.000827705291826931 0.00471982509415481 0.00211698682488562 0.000938639485351202 -0.00594981073580659 0.00887216382706309 -0.000476003272589947 0.00653677704075317 0.00527949835245145 0.00204189869168015 0.000292427080799523 -0.00453234451049093 -0.00261528701628719 0.000593723045799418 0.000785592231041996 0.00336386153738371 0.00385550129384386 0.00558434765045611 0.00652531307599847 0.000891713697630028 0.00648542571923734 0.00712610157912951 -0.0041405231490192 0.00594386801125413 0 0.00106005998238059 -0.000417096365366543 0.00524381703030973 0.00233871706657523 0 -0.00222331425727447 -0.00313355305741274 -0.00578007841798925 -0.000389539222765483 0.00164314010518989 0.00349612586388174 0.000915702898207136 0 0.00184084826928426 -0.000684020111410092 0.00451976089786565 -0.00238423499055733 -0.00344833266262034 0.00407666865110341 -0.000249352862596432 -0.00429368351895887 -0.00262923119575503 -0.00343851963754508 0.00248429177582382 0.00356649219962835 0.00476273260059415 0.00627640546615527 0.00197256514504554 -0.00378929294884135 0.00280274406016114 -0.00247508912176146 -0.000841294339168475 0.000320521750942621 0.00442937216860395 0.00246235251298251 -0.000165558435303548 -0.000899852367065391 0.000552861366892234 -0.00196662768485019 0.000817058715053666 -0.00235490989589777 -0.000564985931487217 -0.000541834193885493 -0.0038430737734351 -0.00146490273787565 0.00181892677881973 0.00233745836730538 -9.85974620449918e-05 0.00276612669063526 -0.00117550811667558 -0.00281470172614029 0.000794850712739507 -0.00195718401777676 -0.00422586876099109 -0.00269735504926541 -0.00228293931921088 -0.00349219917908515 -0.00377433809812781 -0.00349526352192179 -0.00471381212732252 -0.00105114698913106 0.000324762463030412 0.00697149284890994 0.0033984199345892 0.00402888830252161 -0.00442784823662522 -0.000934675750224716 0.00623184674076134 0.00354824427213573 0.00186347838389291 -0.00408535588159992 0.0067093521195183 0.00118255721170596 0.00238003817691859 0.00286281605679376 0.005672201730726 0.00133964845066663 0.00623787326979078 0.00669173466447932 0.000336408070518506 0.00244640686842769 0.00116222237884718 0.00304104531692808 0.00548359145567201 0.00499793402839032 0.0082229553091416 0.00329155490283023 0.00448092728917867 0.00435870636132968 0.00683976279463583 0.00588636145577294 0.00421817588687488 0.0104442271460123 0.00078098304568424 0.00206123481817803 -0.00178149693988269 -0.000978209318951963 0.00276214449247616 0.000726943822516752 0.000350545687976306 0.00218953178492109 0.00453853535017702 -0.00159661271420427 0.00302445284288241 0.00249709179548766 0.00213673448187687 0.000693294873387068 0.00554519455392349 0.000273296658439745 0.00494424326425607 0.00506095111021987 -0.00362981811253138 -0.00154712698918337 0.00146341950691086 0.00667779020195618 0.00754216969101918 0.00670125204099604 0.00618459810843517 0.00591123313431498 0.00275586627060941 0.00196892205146524 -0.00467599286251077 -0.000315732322742087 0.00599112660068621 0.00233292678980053 -0.000391397093545871 0.00895066504185519 0.00639068434296574 0.00434527167179049 0.00659187819480985 0.000925317871519413 -0.000493189968839648 -0.00295622388417321 0.00505598475022593 -0.000232778738690436 0.00423173779501502 0.000269998102871695 0.00380579567533499 0.00270191950544523 0.00148380390278052 0 0.00614524616921268 0.00560424167931293 0.00601557540487955 0.000782466847433613 0.000463448912064562 0.000384046554076386 0.00681088811976881 0.00485203705744328 0.00103882708857673 0.00497728406127718 0.00619717473498744 0.00715609619528404 0.00430694938154263 0.00418142820005338 -0.0023799879624088 -0.0020326411179989 0.00342025175586482 0.00258549075215312 -0.00328078242351143
-0.00341814405468363 -0.000568402056684271 -0.00208445826557201 -0.00403465181121946 -0.00226212384613502 0.000186075065221181 0.00278724689542417 -0.00679325760185633 0.00330555736505627 -0.00560306205191273 1 0 -0.00538024272214917 -0.00221788448996119 0.0010053911914298 -0.00176084097961844 -0.00229077888798304 0 0 -0.00157249421807636 -0.00510123767015219 -0.00431840596665157 -0.00207337380444279 -0.0018530857382773 -0.00221896679375161 -0.00469710408854662 -0.0027050188560021 -0.00480960322986762 -0.00657761522742068 -0.00353996016190798 -0.00133224598404727 -0.00751557703980128 -0.00607315583443726 -0.00245668965495867 -0.00293419808784915 -0.00683878785791255 -0.00304014260016883 -0.00261419504924383 6.59218005950584e-05 0.00278482055890409 -0.00442905031281552 -0.00251749757882825 -0.00205743559066307 -0.00165685193527137 -0.00331250631428053 -0.00574279706854458 -0.00378812955925752 -0.00289643260060157 -0.00111750822678507 -0.00153935094376236 0.00169658428454357 0.00379330779707321 -0.00492538172456516 -0.00293135377278708 0.000344100942515979 0.000544435963355598 -0.00195164144688453 -0.000625503644375003 -0.00165441649089174 -0.00211093016848935 0.000985567733449519 0.00227760082246415 0.000673542639411018 -0.00121005158980139 0.000161612743981559 0.00325980365793974 0.00379902713809463 0.00113924552124302 -0.00117165982381852 -0.00836100128988398 0.00107223884490996 -0.00319256525316194 -0.00078921458442402 0.00665169119530854 0.0050029897657923 -0.00753805396270234 -0.00879867415750856 0.00417394948278022 0.000668385907363774 -0.000527081919384263 -0.00378494358557373 0.00142195391068237 -0.00603585165782107 -0.00118461590113689 0.000511746397263196 0.00445694351270931 -0.000998952899347046 -0.00216461905223914 -0.00326654640200665 -0.00541614996778102 -0.00227470305555716 -0.00402637151103142 -0.000878331612987316 -0.000729446979376036 -0.0015343021603333 0.00333456145779114 -0.00191584528163106 -0.00105079685798139 -0.000849869551445399 -0.000126186009588665 -0.0053342865906998 -0.00631820338411912 -0.000664592450810153 -0.00343032448124315 0.0050803326302022 0.00217837760102361 -0.00256659477605363 0.000949142232026248 0.00496344645539541 0.00411756839320757 -0.00108087726663695 0.00508357698019286 0.00560669138664692 -0.00159822618932544 0.000893077693168284 0.00258681065875527 -0.00149193519919215 0 0.00258106710191379 -0.00235325260916385 -0.00464657464960146 0.000839754104172085 0.000347469512353693 0.00199311996435364 0.00234837778017188 -0.000490160137464297 0.000585192994978791 -0.00285666689114344 -0.00183411137457313 -0.00941803305150121 -0.00805118360064056 -0.00172987726825169 0.00127118684015792 -0.000799252251719251 -0.00193561711555222 0.00211246193623566 -0.00150453728519057 0.000662280918595521 -0.000225293446039887 -0.00189421910279589 -0.00411027488167264 -0.00670642996801096 -0.00156055481253221 -0.00130183803935478 -0.00405438359701582 -0.00489303773474178 -0.00202775413389941 0.000302091553624886 0.00622158562412331 -0.00360848025857989 -0.00237882970046536 -0.00319326685642581 -0.00154810689896171 -0.0016354159262964 0.00559066783126069 -0.00346917324056825 0.00136815117287441 0.00215287134467587 -0.00384269084979504 0.00144693615344642 -0.00275276271602344 -0.00229454199092957 9.13976659138669e-05 -0.00421438369427013 -0.00109584739187133 -0.00220830577262263 0.00254436203177163 0.0051604876997736 -0.00568005333459638 -0.0048972107340463 -0.00615086341040084 -0.00488338647076396 0 -0.00533988593647596 0.00111541700381821 -0.00534991503827209 -0.00786924619509179 0 -0.0066428230451478 -0.00440766794014397 -4.64013988047751e-05 0.00077938988676686 -0.0059368021843442 -0.00259718545558034 -0.00589292126802889 0 0.000325281066348286 -0.00674363328387033 -0.00093059934870025 -0.00231661499632298 -0.0025775567997611 -0.00620905742331549 -0.00134490930119649 -0.00404477598393228 -0.00436416440598586 -0.00255247553561348 -0.00145998487790051 0.00156437740807489 -0.00125088824089625 0.00168594413231273 -0.00267431584295548 -0.00262613887642768 -0.00358857565880974 -0.00212967285429521 -0.00170945360232078 -0.00104004560139044 -0.00202861152542876 -0.00234183467638293 -0.00246868270321935 0.00290907332502605 0.00452196444354221 -0.00862833923375737 -0.000254639795768145 -0.00351635669513605 -0.00400847677414769 -0.00306443701003102 -0.000226517142726005 -0.00234428520745468 0.00201423712138299 -0.00202008728375009 -0.000648849929173682 0.00124436873309298 -0.00203668837523618 -0.00414023553455059 0.00454276932719039 0.00809164344631735 0.002549592674607 0.00425289914007445 -0.000950523053578459 0.0018020403130338 0.00417852058890154 0.00959451009463267 0.00379179132865315 -0.00435237767033027 -0.0074953155795626 0.00422478617402577 0.00381986772606444 -0.00317092545161538 -0.00673884028152366 0.0089999353576479 0.00334595835406234 0.00538949168917223 0.00153781021011332 -0.00612307979277014 -0.000433993421758214 -0.00399551438376484 -0.00225809288366876 0.00173544298107987 0.000240242873256967 0.00622996516016106 0.00203438869286043 -0.00240795061157628 -1.53823836874101e-05 -0.00745105777167254 -0.00497295099097252 0.00031031289428871 -0.00499231373851719 -0.00311442724406459 -0.00320296621089449 0.00302010331048404 0.00121243956939682 9.86514618332956e-06 -0.000934420184054841 0.00104962003204417 -0.000932372479110482 0.00293416888097773 0.00129577515526853 -0.00642498583352722 -0.00404332664884645 -0.00230539198878418 0.00237056969794264 0.00614983830333772 0.00411203778077572 8.36131921076559e-05 0.000415995308232013 0.00473078339788168 0.00453006620245881 0.000131644681926791 -0.00271570315584653 0.000637672842004136 0.00607933547600635 0.000868600826347954 0.00324339154811266 0.000234584029163949 0.00544734394059862 -0.00019164379305478 -0.000205720078658154 -0.00225559584593979 -0.000699506247521051 0.000964239967614332 0.00122474592302942 3.55571984226132e-05 -0.00555696145519192 0.000635388988798239 -0.00280724341499238 -0.00315777216724301 -0.00488695489915664 -0.00736406909987535 -0.00493572075470249 -0.00259466897799601 0.00018760168761856 0.0011475128675634 -0.000120404115129417 0.00104368867587982 0.000875153857859998 -0.000793505136945138 -0.00297310482828031 -0.00455626053029415 -0.00498739595670521 -0.00125035124197309 -0.00256797924911934 -0.00549427091386563 -0.00391163584120568 0 0.0023680570003995 -0.000359309340158967 -0.00586541015473567 -0.000953078632355224 -0.00038745844867517 0.00232312869625114 0.00203142192454937 -0.000900708184004401 -0.00753398177992125 -0.00226240467409027 -0.00341512714630537 0.00359439388752158 0.00725429082168252 0.00393485233588876 5.2429571580467e-05 0.00354651997583698 0.00315817760073914 0.00229816873206035 0.00506295222855956
0 0 0 0 0 0 0 0 0 0 0 1 0 0 0 0 0 0 0 0 0 0 0 0 0 0 0 0 0 0 0 0 0 0 0 0 0 0 0 0 0 0 0 0 0 0 0 0 0 0 0 0 0 0 0 0 0 0 0 0 0 0 0 0 0 0 0 0 0 0 0 0 0 0 0 0 0 0 0 0 0 0 0 0 0 0 0 0 0 0 0 0 0 0 0 0 0 0 0 0 0 0 0 0 0 0 0 0 0 0 0 0 0 0 0 0 0 0 0 0 0 0 0 0 0 0 0 0 0 0 0 0 0 0 0 0 0 0 0 0 0 0 0 0 0 0 0 0 0 0 0 0 0 0 0 0 0 0 0 0 0 0 0 0 0 0 0 0 0 0 0 0 0 0 0 0 0 0 0 0 0 0 0 0 0 0 0 0 0 0 0 0 0 0 0 0 0 0 0 0 0 0 0 0 0 0 0 0 0 0 0 0 0 0 0 0 0 0 0 0 0 0 0 0 0 0 0 0 0 0 0 0 0 0 0 0 0 0 0 0 0 0 0 0 0 0 0 0 0 0 0 0 0 0 0 0 0 0 0 0 0 0 0 0 0 0 0 0 0 0 0 0 0 0 0 0 0 0 0 0 0 0 0 0 0 0 0 0 0 0 0 0 0 0 0 0 0 0 0 0 0 0 0 0 0 0 0 0 0 0 0 0 0 0 0 0 0 0 0 0 0 0 0 0 0 0 0 0 0 0 0 0 0
-0.00662611205323172 -0.00460527771513773 -0.00205629154642617 0.00999017059266654 -0.00848906964538655 -0.00761039438884532 -0.000511082294246717 -0.00612876165544708 -0.00243258434085401 0.000683682182966668 -0.00538024272214917 0 1 -0.00274199093310271 -0.00925211224802016 -0.00265108787260639 -0.00563253370913834 0 0 -0.00620169490119203 -0.003367308624336 0.00661433512712129 0.00727545756597864 0.00988275690383105 0.00886138616905909 0.00301284994330881 0.00662473378032337 0.00604486689838206 0.0121359508634745 -0.00247201219332373 -0.00458427989671463 0.000330451106433043 -0.000445597220063926 0.00591666637657638 -0.000956284044601572 -0.00128042138775173 0.0006773365571382 -0.00114959879081825 0.00314456076601014 -0.00155383220105547 0.00340749592027954 0.00583315107283171 0.00977272670685137 0.00822051346508428 -0.00220550387335369 -0.00174774956861536 -0.00121588557210426 0.00212423748422314 0.00682794142891084 -0.001398046835753 -0.00632552680263302 -0.00637810905591359 0.00188492642063071 -0.00243726851868073 -0.000725327485668012 -0.00460633110113707 -0.0027044631437508 0.000606145508728666 0.00209235393428498 -0.00185631665609422 -0.00471653061774822 -0.000272024086916395 -0.00401922182026654 -0.00893325660752688 0.00119591583209 -0.0035415297359251 -0.00661412466111529 0.0004720943993437 0.000859530268567998 0.00355287317001676 0.00223479053938444 0.00207174798660427 0.0039058766636003 -0.000802943045818404 0.00500988266596211 0.0060966333651943 0.00284886091978926 6.39831750005898e-05 -0.00132469043418535 0.00288742515126311 0.00922528312533576 0.0063582283170611 0.00458505652780495 0.00365665314504662 0.00173045142001927 0.000369944002017036 -0.00859055186032323 -0.011075152958794 -0.00615642667523759 -0.00787017985025714 -0.00474108030468378 -0.00335258679204155 -0.00580240419726628 -0.00523552485301531 -0.00786866974706027 -0.0116321819989193 -0.00755651607700372 -0.00163351801838261 -0.0049593709512548 -0.00687294204452151 0.00390853198531058 0.00118183515403724 -0.00359947122133484 -0.00131929939840927 -0.0040324465697904 -0.00552935932428933 -0.000960937695862201 -0.00352650997121514 -0.00528340260126322 -0.00176753360841614 0.00353472419152529 -0.000625473317350126 -0.000566884786066922 0.00263001876476991 -0.00411678670460598 0.0043604597292797 0.00589339635092595 0 -0.0020255835620928 0.00195719545730132 -0.00243218098338295 -0.00123229929984361 0.00441678524246175 0.00755516780523974 0.00592563495832853 0.00262727851882369 0.000461333457948589 0.00379168216952449 0.0012629352307602 -0.00238865240305791 -0.00573825566529379 -0.00757191949523767 -0.00165479100022792 0.00353185354353665 -0.000987253548826754 -0.00747785569283278 -0.00372926855243888 -0.00838363028561649 -0.00838489586278139 -0.00358190169146185 -0.00536131499512153 -0.00161669819910331 -0.00464285723489729 -0.00432561013101099 0.00505337151021431 0.00646576439554598 0.0041162270371278 0.00320392800131999 -0.00118645498743629 0.0114788037971406 0.00402235190427929 0.0119901976474992 -0.00261474268947408 0.0041550565372975 -0.00259629441220857 0.00985969529986953 0.00160949166106425 -0.00521369370745995 0.00451757812434661 0.00335509787431218 0.000672874869970941 0.000243542403317925 -0.00432578889864214 0.00314737572508395 0.00906642343496468 -0.00419063524793694 -0.00157696536558009 0.00299530664885289 -0.00326020615700513 -6.0081426007099e-05 0.00224859419268701 0.00143987047022728 0 -0.00438248330972038 -0.00525335759413696 -0.00151510581455231 -0.000848371367600612 0 -0.00268719597302287 -0.00218920034237081 0.00400066945249452 0.0110318228739068 0.0101242229365073 0.00963104983015802 0.00712939505293078 0 0.00969036811534054 0.00967945455405731 0.000614673641570285 -0.00443449162421507 -0.00250403569911979 0.00969250490459403 -0.000522103672403282 0.00222595557283312 0.00206825418466001 0.00548533787902684 0.00054871978830156 0.00038675994640044 0.00688751079007134 0.00903199948648617 0.000525646672484712 -0.00160899321126361 0.0015594029473267 -0.00285299802103888 0.00100808079294022 -0.000588135616903011 0.00724613647238036 0.00312354047679667 -0.00084749075373815 -0.000479580432659889 -0.00144219032702532 0.00180366335394907 -0.000199235770494589 -0.00153235659052023 0.00151765837051291 0.00171831344731865 -0.000374714059633804 0.00139254366490633 -0.000398460032842081 -0.00216858576570366 0.00266824304273358 0.00305719548288886 -0.00228617147008014 -0.00131523192031811 0.00187021475206865 -0.00116480895282922 0.00296927549820025 0.00211214707990248 0.00415078569729012 0.00134093496681166 0.00520559047273321 0.000849319402677007 -0.00229911767501172 0.00500476102305108 0.00437635381925895 -0.00144589227550477 0.00946933986471852 0.00720983186363805 0.00611592593371295 0.00623159316598677 0.00129053195996046 0.00644291831801699 0.00698567623839956 0.00370405871177834 0.00655671823238452 0.0051696200531685 0.00928279553592123 0.00547122620569558 0.00339205256437454 -0.00160383800298945 -0.00611075619164029 -0.00509576115172691 -0.00557818342675898 -0.00144237562952349 -0.00280656651710421 0.00166671249411129 -1.16699932191952e-05 -0.00134966913675411 0.00231011279265156 -0.00303938903165061 -0.00173697347208094 -0.0028894101414924 -0.00119344424123089 -0.000980367746248392 -0.00660593487422888 -0.00457531018909592 0.00388443888951217 0.00439773005740466 0.00263692789724075 0.00248789452343576 0.00183815352120302 -0.00578529894456531 -0.00406877378561525 0.0103031885479042 0.000733706071351597 0.000404878150442627 0.00167681788051661 0.00527084162351368 0.00800976713317013 0.00378772800732342 0.00474820231064421 0.00250755730894318 0.000623254621527284 0.00469942608821345 0.000103910922264474 0.00619711267060005 0.0093255964318373 0.00649734178345574 -0.000918543266539474 0.00490383234216992 0.00158216037808446 0.00183892198955357 -0.00156559561110946 -0.00309934942290801 -0.002979546045547 0.00147373835306984 0.0024676428854994 -0.00341838065665126 -0.00749258523590329 0.00654727091780196 0.00473651201270829 -0.000686453815778063 0.00644530167352151 0.000507795611775748 0.00318694838773171 -0.00153622967027614 -7.77324573919848e-05 -0.00360736180532846 -0.00164024824542613 -0.00247817960101776 -0.00392242999305146 -0.00187521297204531 -0.0048383218259811 0 0.00913366408624602 0.00420019927139324 0.00852919861569668 -0.00239590905921772 0.00427943707786175 0.00258158790643438 0.00841484087096179 0.0103539451218256 0.00897034438463078 0.00630906139411025 0.01214270495536 0.00788431334518969 0.00437836970553881 0.00671695615279904 0.00050174010903265 0.00736645915390345 0.00354570277869973 0.00211711870141043 0.00467598414095099
-0.00323041960931388 -0.00933167350755453 0.00447467347531758 0.00449420246020223 -0.00809504269700182 -0.00509649035990936 0.00137175475771867 -0.00731392629618596 -0.00359356920010355 -0.00161909997324998 -0.00221788448996119 0 -0.00274199093310271 1 -0.00185424896973576 -0.00224658836847437 -0.00702953153588401 0 0 -0.00754087895302541 -0.00632965504684331 0.000531138622939596 0.000817616560238258 0.00444708327508896 0.000677185681770449 -0.00198176849924325 0.0032875746037215 -0.00357351185664316 0.00597874612015987 -0.0079051130777734 -0.00842851046412876 -0.00431491334580101 -0.00564149075728938 0.00409895545766036 -0.00815248943055906 -0.00585115898700331 -0.00510444461340093 -0.00461401183092967 0.00313843813818909 0.00183506517733308 0.00221733902385327 0.0027317507516163 0.00330980695205147 0.00517173016464673 -0.00160417083749759 -0.00525779590353132 0.000619419660993132 0.00478548106721971 0.00291176479038251 -0.00508753045671816 -0.00904645738093641 -0.00721426454636744 0.0027328553369508 -0.00351757721965101 -0.00417870920048006 -0.00644509424732936 -0.00783264954343863 -0.00492984089682468 -0.00106370481883937 0.00144912899513705 0.00245145319198261 0.00306903575735078 -0.00638841494318173 -0.00778871006490497 0.000597567694675257 -0.00584867924598346 -0.00471872246955927 -0.00317866813654319 0.00479838027357146 -0.0011643007497927 -0.00447933256427375 0.00154657324449639 0.00168862609603504 0.0019161435641495 0.00700418529082744 0.000228779888875067 0.00208070876985396 -0.00202987697860154 0.00198332745837133 0.00552253993093563 0.00154430124469519 0.00164643710994142 0.0036618670462184 0.00188679397541885 -0.00122109840350644 0.00697108476638373 -0.00532779038318268 -0.00951617249555899 -0.00305278127443882 -0.00497220996938222 -0.00959580313921466 -0.00192003011286698 -0.00270349793112164 -0.00696164485778811 -0.0066425564458404 -0.00886676746599144 -0.00243219153664208 -0.00167207038507671 -0.000542708137507889 -0.0047338030784073 -0.00082302587189691 -0.00205119980709198 -0.00470963266400247 -0.00346149748435204 -0.00460076121818049 -0.00258270194253865 -0.0041052247206061 -0.004082994958046 -0.00724331255441706 0.000134671448789951 -0.00256210076925584 0.00530812278960768 -0.00265113222537169 0.0021949254815067 0.00197231749541615 0.00374385007673785 0.00861996716122571 0 -0.000610085717352998 0.00536479969930515 0.0025158335984064 0.00687234744829876 0.00605289725904936 0.00545239948743779 0.00638600571870689 0.00498326450113102 0.00418010093101214 0.00388980426894569 0.0016543161777288 -0.00169901101147377 -0.00790782452659993 -0.00615835971024778 -0.00203424184500595 0.00367390954716992 -0.00246546716260867 -0.00586496853339492 -0.00657931638049704 -0.00869459220868453 -0.00476405351556988 0.00294077422235489 -0.00415211898130389 0.000481693136618366 -0.00436000215216549 0.00286491179800412 0.000661376364834374 0.00202851176899674 -0.00154053500208666 0.00291472789298847 -0.00245336730336466 0.0045456964498029 0.00272404795129073 0.011533677281587 0.00215247949205358 0.00052100531037558 -0.000836921926186311 0.00584608438625559 0.000251400208945623 -0.00535729938040345 0.00807057486563134 0.0015686439056997 0.00234595285154961 -0.00148424930999447 -0.004704364484527 0.00299305021326011 0.00455137385741673 -0.007583833117737 -0.00552894433779856 0.00475847086747046 -0.00532030765155858 -0.000982208081694183 0.000369124190926861 0.00393181760153709 0 0.00132045734051505 -0.001302416881548 -0.000896230965807407 -0.00687942459737364 0 6.92662580522959e-05 -0.00632686691917159 0.00535934010547201 0.00416631511631883 0.00920392744230416 0.00765504811001139 -0.00240004188741977 0 0.00189719906434005 0.00437269072020677 -0.00719014059880304 -0.00544261314984664 -0.00502058552899331 0.00462190485735308 -0.00679388564892659 -0.00298558836771306 -0.00285937162806779 0.00408130940125295 -0.00418092548383348 -0.00162989004419312 0.0040356889314196 0.00531523062507462 -0.00146481233014309 -0.00270548480501974 0.000238744055795141 -0.00600176886558253 -0.00122840772462629 6.22186636712656e-05 0.00300936115385256 0.00282789804146713 -0.00589559608873242 -0.00278409361614321 -0.0029533520145155 0.00282557592486755 -0.00387667949520886 -0.00486377663158658 -0.00300903330481178 -0.00170738652704816 -0.00288580550529932 -0.00303542554123178 -0.00157528027010662 0.000348023444066228 0.0026261931467346 0.00258312120899677 -0.0020037658448457 -0.00266012905727534 0.00130578800452351 -0.000306521106524828 -0.00407774374709681 0.00362575871809919 0.00559261691263771 0.00197675528349136 0.00401043081773513 0.000483134544868305 0.0023607476136578 -0.00332338319477229 0.0120135188630329 -0.00317656613256733 0.00921831159218023 -0.000133169802690112 0.00534348551950455 0.00461726552277186 0.00344001163327263 0.00584269305904794 0.00903982862242931 0.00554079120580666 0.0013938160305691 -0.00325114941081554 0.00709653512159568 0.00382871468181807 0.00100463862095988 0.00183800038452315 -0.00873779319123106 -0.00278773394625702 -0.00461446204010842 -0.00184648917249527 -0.00453295710902427 -0.00503769466762019 -0.00381803804355025 -0.00418769089530731 -6.7415262653319e-05 -0.00541026381004151 -0.00486747461691714 -0.00503738190548728 -0.00134556717731539 -0.00177557341377899 -0.0051685706168411 -0.00295882233045212 0.00360034413852666 -0.000131484975508557 0.000349342342908951 7.57990708973462e-05 0.00378556497325834 -0.00329111861287751 -0.000724152833888678 0.00199930062541404 0.00247179102037868 -0.000410443876228134 -0.000821955745720141 0.00794573292012378 0.00760103778616655 0.000961918318062376 0.00580481213251677 0.0019220696250828 0.00215696294549247 0.00481523998540633 0.00482436797854407 0.00938062938328513 0.0124537387663568 0.00639041308813558 -0.000115116380364455 0.00331575703962457 0.00187399130320432 0.000928960894058349 -0.00700736193170212 -0.00628157563208829 -0.00123067417705977 0.00200983028035726 -0.00381997294859689 -0.00277197357700576 -0.00342502213571311 -0.00284899147805281 0.00141253336891219 -0.00278559978955137 0.00204716600976245 0.00142523393231295 6.39195097239545e-05 0.000756225631984285 -0.00149540655556523 -0.0023748678737219 -0.00299914130330916 -0.00415628267096126 -0.00429141510686363 0.00134529923846318 -0.00547006487961993 0 0.00662299887837993 0.00192254817295333 -0.000663171189720436 -0.00161596777868442 0.00566687415831136 0.00495547013034508 0.00500701467578157 0.00557240295948215 0.00401297051728543 0.0026760013902486 0.00427116601466865 0.00369225294962183 -0.00218352594006508 0.00188895273040313 -0.00732197403408221 0.0050568268708404 0.00379954418158357 -0.00103651305531007 0.0011849551004938
-0.0112667283497988 -0.00153566457286137 0.00675569387160185 0.00243544439588797 -0.00917135120894563 -0.0036454537316794 -0.00138290938224927 -0.00254216279461771 -0.000445703096644985 0.000119253216071514 0.0010053911914298 0 -0.00925211224802016 -0.00185424896973576 1 -0.00221977575371027 -0.00213824517452553 0 0 0.00257219343910627 -0.0012691896102901 0.00247234046695883 0.000993390353194105 0.00365868813878605 0.00214357209255098 0.00151023740556613 -0.00201701731233558 0.00282895512829461 0.00499978242085672 -0.00492203200577428 -0.00213370988673003 -0.000271627160602106 0.000504396864266006 0.00338638349644025 -0.00095084512655243 -0.000451901724890658 -0.00139053131863372 0.000948834204907333 0.00610121309325946 2.12189172867885e-05 -0.00125845271256142 -0.00240281160716116 0.00177066440900714 0.00345813559338809 -0.000255193416018883 -0.00246294271262763 -0.00255826161822293 -0.000788537373647435 -0.0017504225150984 -0.00412520748852574 -0.00260677159881459 -0.000248113497655678 0.00557361441582266 0.00118620358767837 -0.0014562127773753 -0.00239091834644513 -0.00230392689147585 0.00176388508971607 0.00146692321346723 -0.00287835139506106 -0.00175155519879528 0.000792523091496836 0.000727075976368102 0.0014627637050087 -0.0015488680099996 0.00361437787648708 0.00239219822213057 0.00310563726627153 -0.00127886199011163 0.00255273129295665 0.0116452631036198 0.0109979687578749 0.000605984776506263 9.74263028955211e-05 -0.00114219678908734 0.00637610540560021 0.00232809684839135 -0.00145326644047131 -3.34021675166549e-05 0.00409489399680747 0.00574555246217831 0.0109281587288205 0.00327939184903155 0.00494506250390851 0.000423638807977274 0.00181221474707224 -0.0067520316361376 -0.00236355514460537 -0.00736345535744106 -0.00690829438210602 -0.00686257342603836 -0.00608844018812317 -0.00864183405470415 -0.00368313053235679 -0.00369546887654747 0.00159337080540076 -0.00586207167399305 -0.000966052265217073 -0.0112809701933157 -0.00710941885971899 0.00423163835713147 0.00115496785762318 0.00195935893871197 -8.14267764920074e-05 0.00183978090369901 0.00592896343044453 0.00106069802948458 -0.00214810005847541 0.000770763668431428 0.000355187296336635 0.00450125118385896 0.00148041819477742 -0.00167126716184892 0.000915836544796379 -0.00604803797419965 -0.000384708266931739 0.00557501295556335 0 -0.00502204645638727 0.00190634382224869 0.00465414323423625 0.0047363904317907 0.00461242105923448 0.00228179382843263 0.00375774900737839 0.00609118226612147 0.00164166977731576 -0.000523957045905576 -0.00282784524219243 -0.00297613594642285 -0.00352601403646604 0.000189619785068495 -0.00109579503056123 0.00246635869873197 -0.00432668733517485 0.00239585636417479 -0.00772647973545931 -0.00840480970245856 -0.000812188234935177 0.000307811947100324 -0.00488044252040054 -0.00404883314720675 -0.00209607149006352 -0.000119458160990327 -0.000712155916157843 0.00303347541572538 0.00352406289547762 -0.00367667051291775 0.000581796897124647 0.00225726869420149 -0.00344538384667663 0.00896185281164467 0.0015239243050904 -0.00331460789536519 0.00611998424859363 0.00069239498535532 0.00149575429319346 -0.00209032286987234 0.00394904800880374 0.0125707350416431 0.00608538615798892 -0.00923481109178115 -0.00144829462990023 -0.000289388354334051 -0.000968323877996398 -0.00818000394505097 0.000223308907728028 -0.00418783323068999 -0.003303373994021 0.000424449767875044 0.00655010132765448 0.00757165528191032 0 -0.00694654097393449 0.00589289691392001 0.00347858635097524 -0.00302040852823919 0 -0.0010635628065241 -0.000478472005306665 0.00211254932651897 0.00183352551625267 0.00411838094774822 0.00804264989571415 0.00159911662371192 0 0.00634891058078922 0.00611738059928628 -0.00267376163017939 -1.21364204770185e-05 0.00019903953774267 0.00081831992094689 0.00238588100042773 -4.56982074902793e-05 -0.000638174619094207 0.00126164104176949 -0.00241667044032691 -0.0032826758725448 -0.00354666734950453 -0.00276192792722569 0.000849860107912538 -0.0023804772510678 -0.00338069828987552 -0.00170441881976813 -0.00231796186864174 -0.00420344299245463 -0.00150278491096143 0.000306001587207009 0.00376533511144447 0.00254292459524176 -0.00162479315207288 0.00114536441155587 -0.00056003220402939 -0.000622978801902841 0.0025408629793325 0.00409675859864031 0.00264671310437647 0.00321119109044982 0.00127291853839266 -0.00608648996740422 0.000200096686673708 0.00421895390076305 0.00243726508673005 0.000803962909162285 0.00456491706093541 0.0020170569354923 0.00278072281431879 -0.00214143478043922 0.00496363040925554 -0.00232370692971698 0.0060244229097253 0.00454572553624921 0.00437590558068966 0.010583136785418 0.00511523553148013 -0.0008215046477613 -0.000767923802706887 0.000625945559534961 0.00464353505537871 0.00218360581784428 0.00521899659137922 0.0023620757367322 0.00754753104958897 0.00405877981936122 0.0107828955505515 0.00682656657575519 0.0113521718480467 0.0110673462092322 0.00295424444301837 -0.00157280844732151 -0.00441947874135077 -0.00539870759679344 0.00266290018431734 -0.00307322425792123 0.000409517589594733 -0.00249073551010652 -0.00398792142827976 -0.00748377008195274 -0.00129434657162073 0.0015918898903797 0.00109134458298459 -0.000784670577516769 -0.00530785946032358 -0.00636295327411973 -0.00772895799892001 -0.00828674174500893 -0.00526091447085191 0.00182992553513238 0.00207250679455162 0.00382036240243618 -0.00252985607863219 0.00171647780558216 -0.000762222888760399 0.0063284425132229 -0.00187622290166057 -0.000924491866319059 0.00423310216929279 0.00339270259059194 0.00487806691060399 0.00451329491328635 0.00264941351256051 0.00580099184113536 0.00380662539680561 0.00247543535451086 0.00681159325025804 0.00300256177730126 0.0017781567592737 0.00540286827229101 0.00234891401561224 -0.00293078675184996 0.00107880316583388 0.0060756368402225 -0.00335102634262178 -0.00132231020936443 -0.00343542898827272 -0.00136312204214063 -0.00273465237860379 -0.00245289247350349 -0.00363132426616403 0.00166965988414681 0.00237683181465436 -0.00145985009995602 0.00532298372864737 -0.00159144736856597 -0.000264768254918697 -0.00186885501600994 -0.00592331781636078 -0.00594581785750611 -0.00573932414999942 -0.00219774030174246 -0.00406682253117589 -0.000418535773695834 -0.00674897257319565 0 0.00141858735739815 0.000730079892359111 0.00316983032985028 0.00272852597144694 -0.00329788963928663 0.0010010894685348 0.00187688852420411 0.00364752032844128 0.00135601299067991 0.00396132130561395 0.0020541333794054 -0.00398651674817316 -0.00201351653473318 -0.00383749654748424 0.00571164339430791 0.0101077015734259 0.00080656152138607 0.00144566620772803 -9.9614766252828e-06
