1 0.00305168880641574 0.000198360683112672 0.00110846016008508 0.00505450615925261 -0.0065480155355085 -0.000660773067478163 -0.00150976853132636 -0.00714958123939214 0.00304766563467319 0.00234188399386263 0 0.000131790449718122 -0.00129325349636315 0.00567002832952616 -0.00259951379699374 -0.000148121883358907 0 0 -0.00229646999682705 0.00170284694960295 0.0035645739093106 -0.000497748541996273 0.00052389902838333 -0.00536479410557782 -0.00165517451422896 -0.000183892820942756 0.00103382878977066 -0.00298790878336541 0.00200006371224116 0.00365717670438322 0.00524610678527693 0.00694285046184589 0.00347936344141869 0.00382634700702949 0.00706101886820194 0.00783075554849431 0.00445045906019143 0.00242550793272492 0.00376791979118104 0.00572025473591192 0.00506368617803294 0.00468131018363189 -0.00213218318716786 0.010060360283794 0.00186159212980587 0.00878159424483722 0.00694146698220653 0.00290225632855012 0.00367038188830421 0.00335579096649643 0.00285979553579502 0.000488526949188399 0.00406099162821468 0.000834285518983509 0.00341931366776672 0.00631678318002845 0.00256487972019545 0.00290705049748015 0.00125124005636855 -0.00359576448268087 -0.0064589458994218 -0.00430812269967846 -0.00416377535528015 -0.000839739129967773 -0.00304650017933666 -0.00470152489389751 -0.00828662940695542 -0.00667864682007977 -0.00123058194262466 0.000899122343593829 0.001151519388006 -0.00466828155404646 -0.00123051279310696 -0.00624621298436153 0.001063308469922 0.00038606676268433 -0.00828939239815453 -0.00292226538332246 0.000967604983617609 -0.00352639276644736 -0.000238300716475304 0.00271029446675156 0.00495450917437361 -0.00170417475262383 -0.00388206896445834 0.0033966689143942 0.00246227989059549 0.00507062444926262 0.00385298704757798 0.00368643737634903 0.00374013171561066 0.00161517028003708 -0.00445907153248826 -0.00100804205533386 0.000686618615108981 0.0052347299610766 0.00254376769404479 0.00307397249897765 -0.00191100344870972 0.000166645661110788 0.00166247951320495 -0.00197058468446525 0.00415872563651314 0.0022351273414421 -0.00261001437243604 -0.00278936187244978 -0.00416828742561126 -0.00505984979377849 -0.0030763857531714 -0.00121164850739502 -0.00183994279602981 -0.00282888027517224 -0.00648356112369383 -0.00526656252568341 -0.0084088161109305 -0.00335788234784345 0 -0.0012334752527464 0.00292449833325698 -0.00435100732488554 -0.00398570781047398 -0.000730259786685123 -0.00171452539198305 -0.00249464249030456 -0.0112915646844567 -0.00927093194102855 -0.00289934000469376 -0.0029743054926739 -0.000729564730601573 0.000895319078338417 -2.64855534417824e-05 -0.00537164733901416 0.00142817945540428 0.00134438204382454 0.00172044973729555 0.00682134200572887 0.00129755479840129 0.00145220233969123 0.00425995057185456 0.00502902465112119 0.00343739571272415 -0.00427826882228046 -0.00296437099038718 -0.00545363797511575 -0.00488301620335089 -0.00690111502294892 -0.00420520978527628 -0.00342684259616445 -0.00628213951243682 -0.00522094244296323 -0.00311570961097416 -0.000514467169743465 -0.00142353298848109 -0.00499498733404189 0.000716046490740012 -0.00402866889126276 0.000106174469120939 -0.00364132609226131 -0.00450817464346849 -0.00530610115346339 -0.000994456249876929 0.00396104746703479 0.0027750101821652 -0.00214434930378801 0.00437329703596941 0.00197828944822032 -0.000928647476500062 0.000556397716693972 0.00247272615992724 0.00409203392170784 -0.00391005160706535 0 0.00184205411837733 0.000896902368734447 -0.00101780600825704 3.38929471187578e-05 0 -0.00120665939099972 0.00348572554640927 -0.0022856197983477 -0.00179717622129161 -0.000710331832215752 -0.004247423771949 0.000647927523962032 0 -0.000961662724393509 -0.00218788817326716 0.00397773546944708 0.00544088072121746 0.00516169175295726 -0.00255301604859861 0.00166392682624187 0.00644809873233533 0.00314510792616411 0.0014016304647008 -0.000914496052523222 -0.000873575827768077 0.00462170874456797 0.000506856530067763 0.000959252294898831 0.00605999568870124 0.000912510558221539 0.00724511466307451 -0.00111941270770182 0.00102524366183931 0.00219411022703233 0.00371542388797998 0.00493754288392171 0.00373322094620124 0.00509719469187646 0.00255598977532912 0.00416395071156015 0.00375093267455894 -0.000405928885898264 -0.000217185478626955 0.00106410342637128 -0.00417996449993619 -0.00168347599205311 0.000725162744148183 -0.00149198715041905 -0.00380586549035563 0.00356684442589349 0.00308895484517808 -0.00673713534105397 -0.000678060979918309 -0.00368659142984485 -0.00249821732015321 0.000648125910407412 0.000129333295188497 -0.0050520677519598 -0.000462730386264138 -0.00239434526286127 -0.000255369057166954 0.00485179263179064 0.00132471591992775 -0.00334435483199747 -0.00247578103705726 0.000366080923627172 -0.00300880650450584 -0.00564359994546703 -0.00102586953948398 0.000179841816531916 -0.000446227277138185 0.000595472543645412 -0.0021736581978828 -0.000157925154896323 -0.000733979535390671 0.0023060190289606 0.000906482744994496 0.00687527981204064 0.00784696359245442 0.00545186018563797 0.000550946368457304 -0.00271158541358958 -0.00336730835329075 0.00541106516489622 0.00605531254504053 0.00131351470083021 0.00444956456594171 0.00717100676299145 0.00500156718091981 0.00614444866811405 0.00448644822664952 0.00436333247296454 0.00617327711954416 0.0015391512064019 -0.000522275183860012 0.000702531262281595 0.00200313918734068 -0.000442997478455059 -0.00411264211271697 0.000675105513561752 -0.00258010630465714 -0.00103752308862633 -0.00387857065484398 -0.00464635008442535 -0.00713069082156309 -0.0053507837914671 -0.00652439216215421 -0.0026386005780896 -0.00204587925459417 0.00394043887727962 -0.0020907453211994 -0.00155359265084053 -0.00382477030515507 -0.000274086585830061 -0.00530892560865399 -0.00686223774089916 -0.00524056780007748 -0.00611269268883126 -0.00665793148703129 0.00453438607433865 0.00211772071800565 0.000428942675826787 4.60607838514631e-05 -0.00128942355773091 0.00529986623841205 0.00692557406795314 -0.001308643991946 -0.0051663848110281 -0.00147316268123756 -0.00041329925980309 0.00220950768392857 0.00120590983288174 0.00309279633434729 0.00744527357015176 0.00184842969572196 0.00199077056215088 0.000216090566278638 -6.89119125619863e-05 0.00389846179804642 -0.000514087823138907 0 -0.00110240463753916 -0.000599399620265653 -0.00137681002011108 -0.00228000547254874 -0.00483370073107379 -0.00745745358757727 -0.0049115682476823 -0.00583477838087124 -0.00383600857944128 -0.00183718553232124 -0.00537605113315158 -0.000243631041923312 -0.00346789243619083 -0.00433265717302364 0.000866732666303659 -0.00194644197141843 0.000900168753135931 -0.00207672038943311 -0.00667839568681767
0.00305168880641574 1 -0.0100690281713141 -0.00874375562334706 0.00958555404211837 0.00284668900368273 -0.00842580262028782 0.00742005562342532 -0.000921801231603366 -0.00136261096674399 -0.0055229762247902 0 0.00230222805719533 0.00163770684412548 0.00754161706186601 0.00422119860828351 0.004866227507292 0 0 -0.000270810455323745 -0.00220769049072329 -0.0112544026605577 -0.00558659154579032 -0.0102815814279046 -0.00636315968094323 -0.000969414807484109 -0.0123319273289776 -0.0105029699561202 -0.00973959567355259 0.00300805347886947 -0.000613371020083707 -0.000567029871100345 0.00195847588658847 -0.00860307120018445 -0.0015177927706101 -0.00217849151093864 -0.00460926851796903 0.000319670405117206 -0.00545027176276443 -0.0024222007442565 -0.00537129830034167 -0.000346792520831384 -0.00559735938394435 -0.00897320128386292 0.00051409883011625 -0.00104948936958911 -0.00433727597029046 -0.007810036722683 -0.00896462876629441 0.00107630826652358 0.00736272781802421 0.0018497775802108 -0.0070050952935098 -0.00217067644050893 1.82644767248482e-05 0.00398983819331014 0.00381878727864346 0.00252749414905643 0.00188288937387539 0.00376203953769471 0.00147466743654002 0.00294837367041981 -0.0014932769814547 6.39305601328083e-06 -0.000453905657819409 0.000174318130009785 0.00430402090766519 0.00178566195066078 0.00105208845895278 -0.00628978702787486 -0.00752480561285079 -0.00993133481856747 -0.00501276254149094 0.00122665470905387 -0.00907175133635748 -0.0131590345259709 -0.00653045366338817 -0.000981492425383622 -0.0017149092408606 -0.00897168916469215 -0.0109316814620383 -0.00930266903961176 -0.00704095165447213 -0.0100364276362251 -0.0026171899464743 -0.0053915592667047 0.00584953287338352 0.00513629553613941 0.00503124751140693 0.00456083328125298 0.00308798702239139 0.00667818755718079 0.00387105005329095 0.00614100556695468 0.00554436610088661 0.00777645333428151 0.00886645553223339 0.00740302299852629 0.00625054024244611 0.00382818764911223 -0.00871386804930044 -0.00454288490686936 -0.00390643346687147 -0.0034933079308556 -0.00576597538459455 -0.00724037791418894 -0.00409608415648379 -0.00299414873399769 -0.0075084676320988 -0.00372278378330104 -0.00929064366992753 -0.00776086794815708 -0.00308974941331132 -0.00840392642277738 -0.00437995181020898 -0.00744465504060907 -0.0101285914389899 0 -0.00100294558101268 -0.00703700153275984 -0.00357751798007697 -0.00902694998768815 -0.00839859629292489 -0.00351262150001092 -0.000536033839541463 0.0033986453397252 -0.000461578908248802 -0.00354867853474248 0.00137944505181103 0.00147636311922939 0.00594567473204142 0.00124631296844865 -0.000367418856320586 0.000373212475104645 0.00148851698334317 0.00242983619505658 0.00688377740840674 0.00685313091741678 0.00396259789426332 0.000523617480772144 0.00723018924314853 -0.00191314542399715 -0.000115312037116738 -0.00402524168787711 -0.00702590555854478 -0.0071631262793488 -0.0138401552332181 -0.00713612559548944 -0.00663559549734701 -0.0101911272112357 -0.00712483263335099 -0.0117202439243843 -0.0116902890174347 -0.00355613650483243 -0.0103625232413543 -0.00477426863051451 -0.00317969967496147 -0.000173779298822265 -0.00544898868441221 -0.00594193805493495 0.00027725857850838 0.00688072329748109 0.00123680780070084 -0.0048355729865509 -0.00605792457387402 0.0149072151614968 0.00549698250501132 -0.00114469991520475 0.00727091687312753 0.001170062262825 -0.00308533388600561 -0.00833341890843486 0 0.00699822031565793 0.00620848780107176 0.00523066131996377 0.00623300995807384 0 0.00188532215433204 -0.00215427877466742 -0.00790324642873982 -0.00710304683250198 -0.00984531984744959 -0.00920391926172499 -0.00761315766829991 0 -0.0122880342779392 -0.0113884440030618 0.00275021910428559 -0.00107898429559326 -0.000491449617156796 -0.00617560834326231 -0.0010310249642407 -0.00185816500811934 -0.00458144822880643 -0.00680146785300298 0.000240102097806059 0.000717775916100272 0.00311805986913556 -0.00251128854633236 -0.000503428295635514 -5.31545722806294e-05 0.00110479599956225 -0.00165814945783928 -0.00290216471886068 0.00072417081438561 -0.00666633538161584 -0.00568258379376243 0.00316527582430414 0.00526020328916875 0.00803968283436857 -0.00262117026438818 0.00553994021201574 0.00117201135796151 0.00354092152962412 -2.02947472333095e-05 0.0034607387074212 0.00112329680264399 -0.000906921130413171 0.0046199236435246 0.00251902129170976 0.0013114334408311 0.00264244459063167 0.00201072748223623 -0.00140623928974201 0.00076221278153576 0.000240554525145421 0.0018545200077981 0.000578824121743522 0.00323825670520527 -0.000338639109033057 -0.00118034090146648 0.00434437367515376 -0.00664900632927514 -0.013894040175023 0.00308512775778311 -0.00326689667096466 -0.0078758302515148 -0.00403025261803113 -0.00248370216771318 -0.000621648325466558 -0.00456113961022424 -0.00600506281373792 -0.00568828268805047 -0.0103715375632678 -0.0110552729892811 -0.00553508761031701 -0.00645948498210811 -0.00718440874681507 -0.00227220627304194 0.00792061440401731 0.00843246523127207 0.00899653532636445 0.00900643186280171 0.00400259315287293 0.00226620991643508 0.00567097761956881 0.00769398531806093 0.00546754836259029 0.00915557961701226 0.00657444940410094 0.00659838825975798 0.00707525451194943 0.00380826703483018 0.00844126639925467 0.00540836928753928 0.000527695588361154 -0.00649761533912502 -0.00107313561621082 0.00471224633751991 -0.00562457810982438 1.59412243932829e-05 0.00224766830215555 -0.00841255825068754 -0.00297395102109518 0.00205854867958341 -0.00597531697252843 -0.00532704313214826 -0.00714915763563844 -0.00412701030100712 -0.00538989482889456 -0.00673823014531879 -0.00590008160101281 -0.0009919104005983 -0.0100974066715171 -0.00945526442418885 -0.00436663640794137 0.000373269095529845 0.000925129220158173 0.00177628075640252 0.00185144787670679 -0.0029070855001969 0.00474716858815105 0.00721524029481549 0.00489694441641745 0.00278366805010328 0.00226213294379604 0.0100341746372204 0.00895074116856401 -0.000965809778073346 0.00132981045925315 -0.00122143598294194 0.000885674521417554 -0.000310139807741341 -0.00117170720332043 0.000880740028974324 0.00984940522422711 0.00404026177631634 0.00343968077792895 0.0057025548063762 0.00433510842529441 0.000193107538226326 0.005545018507736 0 -0.00493322389141353 -0.00205275235543863 -0.00479207912114267 -0.00751838732909544 -0.00793433464702417 -0.00370291646755822 -0.00369803526886516 -0.00784245293026824 -0.00403272702981823 -0.00127454285518753 -0.00681404310922453 -0.0030217279550738 0.00229913290699644 -0.000859094249387302 0.00189918465837525 -0.00702107449679832 -0.00190280562920901 -0.000881871964269712 0.00147686917386522
0.000198360683112672 -0.0100690281713141 1 -0.00615137253823295 0.00432274202177318 0.00327911237174868 -0.00157645218511218 0.0043200374663574 0.00536554088066764 -0.00151434839443245 -0.00269714681811295 0 0.00372610660140774 0.00284380637698304 0.00293500722180547 0.000571257023845582 0.000890227474572432 0 0 0.00129439929679887 -0.00127468641245336 -0.000661765767254007 -0.00125422591946985 -0.00181157955901488 -0.00278768917810189 -0.00330610970557562 -0.0049634196868093 0.000180884346691912 -0.0068409938371027 -0.00410949684979682 -0.000613885104789625 0.00243809060344739 -0.000653446256618805 -0.00289124949369106 -0.00534125720910462 0.00192349827671434 0.00200691270642061 0.000150731634129951 -0.00495604953881432 0.00164969800896971 -0.00218099469293192 -0.0010651068305213 -0.00196302151967788 0.000822384301584479 0.00103504418187797 0.00414679872561367 -0.000790921227138208 -0.000986241066933557 -0.00283118706332104 -0.00585445787224408 -0.00325025993954316 -0.000413266464027844 -0.0025623698692609 0.00224441684702156 0.00331025604888153 -0.00174577307411529 -0.00597348462525897 -0.0029027997842089 0.00130567829858499 -0.00111689415837001 -0.000221842619045788 -0.00172573055345271 0.00222591859708603 0.00291627273969049 0.00194664694168235 0.002866911513666 -0.00388107653953647 0.00390797643403022 -0.00140206636328838 -0.00125890492260156 -0.00400448563429653 -0.00703334740833445 -0.0053713806090152 0.000137198665218426 -0.00238551522203059 -0.0053642663242804 -0.0016001186555969 -0.00275577855247373 0.00394398012664157 -0.00190344839539166 -0.00372879034228257 -0.00747146461026711 -0.00329183873209003 -0.00139192560841916 -0.000957376446262429 -0.0013256059709638 -0.00153757802165053 0.00326031600357827 0.00128110633865749 0.00382431173230349 -0.00563764408883621 -0.00304601306244816 0.00268665687782285 0.00313044143682847 0.00330838211373981 0.00156614850938158 0.00304905109662399 -0.00137684892779083 0.00105841041096597 0.00273041363047555 -0.00152141553914113 -0.00483222466124629 0.00490373571289622 0.00298086366656021 0.00536519578122102 0.00355745773049224 0.00317544091480519 0.00147941997517076 0.00523458319476509 -0.0005733714453897 -0.00760143454788396 -0.0028543728231954 0.00181679389412918 0.00119986438697432 0.00206427376758972 -0.00144955807027531 -0.000849338806226669 0 0.00208785704478743 0.00498765464604181 0.00351911885585193 0.00493790192414552 0.000902870622861628 -0.00176110505789849 -0.00368647091107291 0.00195165014446277 0.00305135975778546 -0.00380396158730612 -0.002504738164359 0.00882507677925499 0.00488691998037507 0.00809664572085303 0.00365215149073353 -0.00359777257099141 -0.000774789533893328 0.00375746730168839 0.00179337905772419 0.00256063298823093 0.00213211878656607 -0.00180432094944633 0.00258420775528462 0.00452873249409265 0.00859374546431455 0.00192025286492537 -0.0024165435324005 -0.00354639774195523 -0.000724773784158017 -0.00264434169387366 0.000894335899272355 -0.00527610420622752 -0.00255594607790551 -0.00618469643035631 -0.000586879966395891 -0.000535319017172252 0.0029537813153492 0.00184895974710633 -0.000636254603809081 -0.00448443974206163 6.57454759123884e-05 -0.00538400412786657 0.00183304891329319 0.00142678595080652 -0.00221056068291994 -0.00622915419499115 -0.00435651878147892 0.00515087871018788 -0.00020005892827339 -0.00197300622060536 0.00208898280917423 0.00421701735607793 -0.00278289435318146 0.00157124338131738 0 0.00337896075123331 0.0021906985956724 0.00472274501791909 -0.00229911909374944 0 -0.00574843365652123 0.00122733869220725 -0.00133483567934454 -0.00500933874878728 -0.00370946618363568 -0.00686774379191371 -0.0036398942659583 0 -0.00235480559586169 -0.00457845944129619 -0.00222130952841289 0.000130940519917972 0.00248278058086966 -1.10368620157823e-05 -0.00467985796115468 0.00134055417372373 -0.000512766083329087 -0.00209011858752654 -0.00837643406745007 0.000545143497801284 -0.00138307609297378 -0.00124627236479525 -0.00107971705167805 0.00268981903394149 -0.001766147332156 0.00372357046696371 -0.00115905397158754 0.000642076808220759 -0.00209341140990216 0.000380251419513847 -0.00507034950592688 -0.00323167424286516 -0.00233723830828972 -0.00509707339031948 -0.00411470072973273 -0.000325392517957117 -0.000983984790184305 0.000408063403395572 -0.00231466255936407 -0.00314311408477947 -0.000939864517581078 -0.000109578626823801 -0.00288456503553193 -0.00494003500272064 0.00131129050230656 0.00119620024443345 -0.00291345564119475 0.00200953266810525 0.00172279983650099 -0.00157358173042136 -0.00459593279013725 -0.00198055472476913 -0.00428015634118028 -0.00179319470236661 0.00204025235546401 -0.00196755712528208 -0.00591160564971548 -0.00454393251010584 -0.00370374391315967 -0.00979203814684313 -0.00628327666887116 -0.000558570606003793 -0.00178815076330795 -0.00115539679001187 -0.0024087643887557 -0.00380245836705601 -0.00395170883100004 -0.00551622088753926 -0.00187266032556794 -0.00225572962090216 -0.00410539900622339 0.000990522752443731 -0.00120778337463172 0.00366570162521265 0.00273303777889543 -0.00240571475156471 -0.00513368192317039 0.000385079216621194 0.00609889121654083 0.00696830704232405 0.00465591289678429 -0.00160975086046561 -0.00231629802137025 -0.00117433000015148 0.000553551142012218 8.61378059660088e-05 0.00361019114929323 -0.000183120822576463 -0.0018066926153461 -0.00578574763391995 -0.0044979472667938 0.000134163346249778 -0.00209516283126091 -0.00108431977728514 0.00260551134531074 -0.00292304531220076 -0.00418012451019137 -0.00129468584238906 0.00224144721569876 0.00329911398827931 -0.00165760027997054 0.000216381525690089 0.00337577050646417 -0.00547859980369963 0.00495763431066711 0.00214421450145661 0.000720117465727007 0.00127286572848085 0.00356376493775375 -0.000952513260541572 0.000642116515284878 -0.000434378844623188 -0.00288636627428678 -0.00103995471227842 0.00198308691797053 0.00171481640597225 0.00562321036219017 -0.000284212727584104 -0.00545699089868552 0.00545775143638705 0.00670729318088476 -0.0071888235563864 -0.00324376808645959 0.00460713702474774 -0.00692892473532412 0.00383180779165667 0.00539307633862857 0.00520351534515982 0.00281287158246369 0.00192657952263468 0.00239645418993748 0.000580760556457417 -0.00274592642596844 0.00371005510641142 0.00459253809033111 0 -0.00234319110064287 -0.00160142408292587 -0.000691562527327812 -0.00138896134260557 0.00608712020711336 0.00261777226897157 -0.000755745388388233 0.000759828902764026 -0.00503128975437543 0.000195885133370971 -0.0045734990797172 -0.00288724814426289 -0.00371553582208946 -0.00496710067791346 -0.00414084556729014 -0.00191092868587982 -0.000384908078645977 -0.000937334866988027 -0.00329308238487985
0.00110846016008508 -0.00874375562334706 -0.00615137253823295 1 0.00106084005083379 0.000286270525507493 -9.91054601994127e-05 0.00542682943365845 0.00288098149532238 -0.00827344533025804 0.00236085227890206 0 0.00361252379529768 0.00424831895312493 0.000897485690899237 0.00594714536123369 0.00162492976784718 0 0 0.0047386112774457 -0.00560867154710044 0.00162499450865634 0.00147881755002681 0.00459282284328091 0.0023278411699735 -0.003887490245266 0.00256732432943528 0.00193370940814872 -0.000788204325589197 -0.00707166664658998 -0.00881221654312556 -0.00869188943042365 -0.00309860014978287 -0.000504232914996942 -0.0100546967377323 -0.00876784829194235 -0.00192443721941009 -0.00503062935928653 -0.00126781542558751 -0.000828410967454417 0.00397250924153648 0.00243482596870766 0.00753187609275687 0.00769179533944013 -0.0041579406957593 -0.000382676466789412 0.000474435926743832 0.00150161308277891 0.00374878660152825 -0.00333739237995156 -0.0026147335508272 -0.00269763998505741 -0.00668919535140132 -0.005711238729234 -0.00242157444101372 -0.00275424954368656 -0.00483602294753257 -0.00268729768873607 -0.00788578733165695 -0.00237419013955058 -0.00514512576164323 0.000273183235539897 -0.00771772245753797 -0.0072534940197639 -0.0088493061574574 -0.0072180112663298 -0.00572332434484409 -0.00736560207431658 -0.00646749802975642 -0.00716477882116661 -0.00618324580734432 -0.00089712493465921 -0.00256069636633864 0.00174582979649052 -0.000587127743453573 -0.00314910740496352 -0.00776108262449425 0.00340504780757053 0.0033355051454643 -0.000567705469032334 -0.00204503022344024 0.00130200783022251 0.00199840967234337 0.00254169056610679 7.56792196618839e-05 -4.94540885865548e-05 -0.000522201431617839 0.00262781311440641 0.00456767476708399 0.00212818535672251 -0.00488711755353099 0.00114050762471919 -0.000991347087287948 0.0049796533090308 0.00218067863839769 -0.00161319108995151 -0.00137514894037792 -0.00130786817653829 -0.00495409851429566 -0.000787036213929683 -0.00643440237047147 -0.0111489361233358 -0.00757638727820386 -0.00821585323918511 -0.00730166934415735 -0.00165694863162136 0.000721185321514938 0.00277593802257812 0.000528402244292261 0.000584148473103515 -0.00736529962094792 -0.00265568673403722 0.00367034733676579 0.00771193747142697 0.000545551732384997 0.00532291933685834 0.000671245914401794 0 0.00105728159597137 -0.000113617563651748 0.000518200399173526 0.00568800648409641 0.0019784618527467 0.00779418938923476 0.00244356747112533 0.00208948222234565 0.00218286383106736 0.00042918520574043 -0.00115337870730336 -1.17100192345891e-05 0.0037533468233761 -0.002982778132644 -0.000438314615961575 -0.00117818624766325 0.00167462222028 -0.00219898245480171 0.00102681563486686 0.00129724934521035 -0.00275677844479114 -0.000156979343711446 0.00329529172799657 -0.00527123241077824 0.0016112078303734 -0.00162586298794345 0.0014132665671208 0.00486779297852464 0.0059846120094228 0.00654690717195293 0.00327197977352167 0.00257426464022122 0.00537928865485232 0.00149030195932894 0.00195540217330995 0.00599795695654657 0.00252380451505044 0.00464846970103821 0.00218630995718989 -0.00207019082749511 -0.00513098478819481 0.0014275280095642 -0.00161848036941112 0.00465148838896461 -0.0118178806293055 -0.00240029406551522 0.00606518671971591 0.0010162074587843 0.00166861238996742 0.00221659428848872 0.000127595125774121 0.0064888178717885 -0.00900198609595775 0.00297266465417683 0 0.00410524016239833 0.00178146756532117 0.00186071230520652 0.000184646538181134 0 0.00258314444309022 -0.00551559123767511 0.00800429225889775 0.00583965167794064 0.00192482647706657 0.00289437938853825 0.00343315838642622 0 0.00573841778590027 0.00311394278330969 -0.00376623454637936 -0.0107704526039148 -0.00801746621193873 0.00684172292798268 -0.00788178548213799 -0.0027560011674962 -0.0013698171727904 0.00143974360304624 -0.00140417518989802 -0.00379120777703352 0.00608824053817516 0.00854229126272628 -0.00221658941888284 -0.0077839601153102 0.00251693002466976 -0.00802029893393428 -0.00166405407808461 -0.00616081595011718 0.00367159286705467 0.00856138763499262 -0.00692969596415274 -0.00659474652054838 -0.000279151013872449 -0.00445176327305932 -0.00352868602468626 -0.00584382231792766 -0.00523884988554785 -0.00696287114676439 -0.00776543657273019 -0.00503679598007712 -0.00446972980984906 0.00421859875267847 -0.0012904883872061 0.00447848331955179 -0.00697947506630819 -0.00929957509311713 0.00517384928014605 -0.000448756161216053 -0.00465712809896152 -0.00492337505292185 -0.00130931112346403 -0.0028192493173484 0.00292766724861312 0.000192048406169496 -0.00625043988095915 -0.00117398779581749 0.00247887171653489 0.00281872954915358 0.00241646980466932 0.00206300389239626 -0.00597737419726307 0.00267224327470206 -0.000833163642755642 -0.000485301047239352 -0.000482520914612737 -0.00459943314541234 0.00133109832572187 3.68312714025448e-05 0.00422774465321579 0.00374863822282685 0.00274085209482431 0.000147934699511462 -0.00425515790936723 0.00233534304644844 0.00255243045080122 0.00356964979913851 0.00366492788773024 -0.00223577728773445 0.00383316387169679 0.00557553105601141 0.00703196240844394 -0.000468400794089085 0.00110643878129044 -0.0037510196828496 0.00452445308956302 -0.000425188959309164 -0.000835728552843593 0.00158727855267831 -4.09677441117298e-05 -0.00391474081355823 -0.00606729202996507 -0.00408269441608136 0.00167537443169582 0.00660541287814348 0.00417099751590408 -0.000209706807444854 0.0023861353674801 0.00458711668911045 0.00392170538082001 0.0117973071315082 0.00489084936356635 0.00299061548980606 0.00448295154167242 -0.0019923041153526 0.00157596506276351 0.00334166886028317 0.00262065905102737 0.00258022488717975 0.00731746918201895 0.00850436018453006 0.0112743482560152 0.00591745065353577 0.00572992045306563 0.00226798620455188 0.00314101673359127 0.00396833435868037 0.000234141885678197 0.00371425121273745 0.000348984993830034 0.0025494232263257 -0.00292088524125576 0.000797429475984651 0.000292980638066416 0.00765386378064447 -0.00130427501879551 0.00320972217800265 0.00221009617736664 -0.00314815391470155 0.00487114156998894 0.00157501492696291 0.00581732515641399 -0.000297073593203218 0.00140691356987431 0.00399169050788938 0.00318013515788773 0 0.00892013375306811 0.00715336726299899 0.00603307920330833 0.00485557545329675 0.00616702516945818 0.00683164312186823 0.0096500178205051 -0.000860460342016058 0.00232470381743079 0.00717174473454816 0.00989565121935464 0.00795450691099518 0.00454243921352227 0.00658729193535456 -0.00460472382019961 0.000478126108143221 0.0030171278824478 0.0012056860399268 0.0036015611863277
0.00505450615925261 0.00958555404211837 0.00432274202177318 0.00106084005083379 1 -0.00572333135761698 -0.00274135149247606 -0.00144276906656654 -0.00788719056803701 0.00680195628206666 -0.00344864308734282 0 0.00185669275809519 0.00147171258047772 0.00129991840726224 -0.00250917490359477 -0.0019630876762809 0 0 -0.00271587731265719 0.00643383983375592 0.00513158106214232 -0.000694588601565323 -0.00363933739951385 -0.00528632789695663 0.00173093086515627 0.000424667699991394 -0.00335187283871971 -0.00212674715753285 0.00981718609953528 0.0117904417788515 0.0105641698395059 0.0104946504498804 0.00417851528083898 0.0128226541395717 0.0121107564434813 0.0105227376917968 0.00882820385277769 0.00431605035115244 0.00126953275471537 -7.97095591657464e-05 -0.00448997787016187 -0.00543691546964129 -0.006159051799813 0.0117262858342987 0.00861077044567886 0.00773213399766477 0.00428679004937042 -0.00296923744792784 0.0123920239811363 0.00667766031511298 0.00603151391523876 0.00626560492772041 0.0110736793420993 0.0070080329829508 0.00918211801302308 0.0145470703971804 0.00743902549622788 0.00875457287522593 -0.00157855154144692 -0.00234238776293962 -0.0040996776419255 0.00559382425128602 0.00274350273428632 0.00322229309506204 0.00530070435833128 0.00166517750310749 0.0025310897307452 -0.000341695915041784 0.0092007417917335 0.00206716299644878 -0.00159195423370423 -0.0118942249765591 -0.00239145245492896 -0.00260978860391682 0.00224725749102848 0.0102795423133099 -0.00771034230630262 -0.00722011537916323 -0.00362684187670245 -0.00192580135155117 -0.00562154864442911 -0.00532652756497937 -0.00236445511095739 -0.00490085364761172 -0.00438267780366957 0.00273361244553416 0.000433743200471658 0.00261389636216365 1.38919186425613e-05 0.00866455624906289 0.00182058821959817 0.00307097495424143 -0.00381373798100192 -0.00194287145725174 0.00254316401519365 0.0040592261604887 0.00523996960740677 0.00421224514001536 -0.0037502894057278 0.00709120007734285 0.00708008268863072 0.00612096959054119 0.0116709148701271 0.00796743162323625 -0.00512088874558554 -0.00401449867739014 -0.000306514900002515 -0.00377911898015151 0.00100843397698502 0.00358483338294867 -0.00230893197131922 -0.00776217767201323 -0.00612131248804347 -0.00299672547921503 -0.00851462179394451 -0.00987639286922706 0 -0.0008685168003456 -0.000555016716501402 -0.00507380474303058 -0.00534469043560282 0.000367978359962491 -2.71459124204777e-05 -0.00126544039534472 -0.00714308202218673 -0.00895992580653916 -0.00552491211628129 -0.00641715605466291 -0.00203943209342847 -0.00193410525667322 -0.00293722123972421 -0.00861130078006502 -0.00753498884859956 -0.00465469485315966 -0.00439434510892947 0.00572646308487695 -0.000127553441562177 0.00344929253037049 0.00607669955071169 -0.0002773713908127 0.00115677882351415 -0.00365086813759904 0.00214235878732313 -0.00420065222048483 -0.00316427902942594 -0.00179104200251284 -0.0077169622035478 -0.00427552218983971 -0.00317600486877305 -0.006602415595093 -0.00620615092447017 -0.00289799869814792 -0.00281206707299782 -0.00196126330092552 -0.00145509076245969 -0.00245884754068822 0.00186882444094045 -0.00537707801036582 -0.00344915531619945 -4.1229564792252e-05 0.00143074663196968 0.0115614996639669 0.00324624539198841 -0.00120692262471674 -0.00182236162691505 0.000858683689098376 -0.00133124994073772 0.000906733776847074 -0.00198261467118898 0.00832328607256503 -0.00518649565208342 0 0.00484610050836343 -0.00348931487415446 -0.0023431170605885 -0.00142703397042757 0 -0.00239402342230167 0.00887848316339224 -0.00405098688192189 -0.00920210429425817 -0.00218727592048893 -0.00761719047252056 0.00113549387646336 0 -0.00192344640158556 -0.00556833939555603 0.00962561261051684 0.0126441841139487 0.00980362772080876 -1.53298007949907e-05 0.0118258532235109 0.00602954755456957 0.00142839081024631 0.00181103713979078 0.00497256687121695 -0.000199284196087758 -0.00443661721713769 -0.00736328794346485 0.00657624137608607 0.00907034198866173 -0.00206878593351621 0.00811995154641383 0.00473827482480674 0.0101354230868359 8.15680457523607e-05 -0.00148760262868854 0.00984640193567037 0.00511591815045168 0.00320311904457144 0.00581291817449561 0.00589189830605142 0.0106117956414655 0.00458691652197642 0.00791429534140614 0.00475001586973777 0.00152239927478729 -0.000712559812757725 -0.00197085953405469 0.000640168420483734 -0.00305932537125553 0.00999160596612664 0.00716432982482406 -0.006623212454534 -0.000178463735866231 -0.000330265816306448 -0.000106613065372224 0.00392097202406549 0.00175963953375572 -0.00313990433750199 -0.00168345222628349 0.00114657794527111 0.00211604443641202 -0.00270005131229475 -0.00273990725460589 -0.00624055901268941 -0.0013931560131926 0.00743570604585671 -0.00463399683457546 -0.00631483749415513 -0.00432130421335906 -0.0028676395790379 0.00269612862211105 -0.00538687515132935 -0.00451946289783765 -0.0059940994533908 -0.00949786674505469 -0.00636794346982295 0.0023344021513744 0.000806607233622722 0.00161953649769727 0.000112228091102133 0.00372009278577639 -0.00267254066020241 -0.00237717017025901 0.00320214502293366 -0.00223977462312936 -0.0011907122923812 0.00180227330068537 0.00270880642064966 0.0047671980206667 0.00360514450380924 0.00363129382468043 0.00501522206345369 0.00202781097077113 -0.00151671473036467 0.00746893264467538 0.00507470942813024 0.00710441643082072 -0.00790760149784242 -0.00581353732739001 -0.0039092054494501 -0.00113336791799431 -0.00638013689870249 -0.00746418683379194 -0.00691021420708831 -0.00901849016754919 -0.00626338624129028 -0.00201719692475964 -0.00677673725182737 -0.0011053657512488 0.00215016292719964 -0.00204104785837513 0.00456549888288794 -0.000938067117701122 -0.00058415155368709 0.00321747554197983 -0.00976582548755366 -0.00335337181590442 -0.00432901578474764 -0.0102543609464272 -0.00153671494658259 -0.00199197588690805 -0.00197623451883661 -0.000894926054418051 -0.00641494118736252 -0.000788808705275335 0.0031879269743674 -0.00529887932619895 -0.00918922475315493 -0.00832789176378233 -0.00732791515263836 -0.00226929623771591 -0.00122543858572329 -0.000388538928386256 -0.00194354883047925 -0.0015751557568289 -0.000690156795007053 -0.00384008097215196 0.000197779355400828 -0.0024256501615871 -0.00170902536554399 0 -0.00315134430112878 -0.00336851142736942 -0.00286586430370271 -0.00334408794829392 -0.00598777608547017 -0.00859034541456022 -0.00512009743742556 -0.00522726803663136 -0.00236393864508673 -0.00186971675947538 -0.00834932246163285 -0.00511426049601074 -0.00670881418097345 -0.00699751776761786 0.00574328969403573 -0.00613012859498372 0.000652705513710202 -0.00192704074671043 -0.0037259961950283
-0.0065480155355085 0.00284668900368273 0.00327911237174868 0.000286270525507493 -0.00572333135761698 1 0.00237019697568541 -0.00824181353569558 -0.000485380385380815 0.00339707364139273 0.00317936348013572 0 -0.00680473504810254 -0.00151110438520754 -0.00241895178642961 -0.00425316488421267 -0.00741039737637082 0 0 -0.00689578448129695 0.00217809642195992 0.00493205584564051 0.00749731540943079 0.0027395536740796 0.00212407573523916 -0.00467324964608075 0.0125366155080879 0.00861083083146661 0.00517994069384422 0.00106103336259989 0.00199051535012527 0.0055811524105138 0.00206474760588284 0.00976807634049746 0.00178217680855286 0.00435496055338541 0.00542893982969315 0.00433935223735465 0.00125407694589641 0.00302848177209453 0.00129535373891749 0.00279766627912268 0.00471550050940994 0.000633749492974205 0.00512488978195242 0.00374105394761909 0.00620999024903643 0.0080165987345764 0.00261872327441712 0.00246859741034066 0.000673983995246047 0.0031966428762406 0.0013084936250004 -0.0016367764957963 -0.000813464654630637 0.00261497891146255 0.00146215236679652 0.000560948392024245 0.00143403323591578 -0.00325081827249824 -0.00271302965436702 -0.00578816795984336 -0.00142034530390414 0.00233576349546892 0.00163034227150484 -0.0020532651485201 -0.000503313481084475 -0.00110393344563767 -0.00364556142914621 -0.000443790405409115 0.00114652573835137 0.00503122949073593 -0.00385759196912598 -0.000279460224287456 -0.000335933437263077 0.0121787005280279 0.00520377390374811 -0.0044995601317165 -0.00438881876163705 0.00620614107042997 0.00622779592014665 0.00747687925593585 0.00821985133043605 0.00378386779330515 -0.00360650760723253 -0.00566238875002546 -0.00121850849774627 -0.00264990486869675 -0.00331396779660474 -0.00540678582639417 -0.000833174138560632 -0.0038058872000199 -0.00417359566012063 -0.00238380886766835 -0.0014257037711505 -0.000169954212622942 -0.00373215818904887 -0.00258744874142367 0.001329667986494 0.00156889281042649 0.00248721608444357 0.00034516000814026 -0.000797271795762863 0.0010229215938 -0.000127584351254267 0.00662902496071993 0.00567375701316262 -4.90328265340468e-05 -0.000597989543960142 -0.00216354804783473 0.00325858474405379 0.000596042241705596 0.00216660759417088 -0.00293370412685474 -0.00197792592671537 -0.00189709108461586 0.00486879712013738 0 -0.0015212620177252 0.00710698515430928 0.000564751196324569 0.000744966711882298 -0.00417921010485543 -0.000134919545548025 0.00228065209331989 -0.00702222606593617 -0.00579271109307757 -0.00322409387590227 0.00056768985480351 -0.0052960346391797 -0.00609177597799639 -0.00389785109029178 0.00138888544424362 -0.00317808490937389 -0.000508887030131172 -0.000852645376027303 -0.00555161544197789 -0.00375835121274343 -0.000317864672533179 -0.00297279147498737 -0.00440125805261862 0.00283596437130488 -0.00587751770210141 0.00221936818035219 -0.00220141762527768 0.00199034787574185 0.00477191327853921 -0.00188484710421953 -0.000257946154714583 -0.00040884690526827 -0.00240917754529363 0.00440078911324387 0.00339796179944927 -0.00307139552333265 0.00149303637960876 -0.00222404568237687 -0.00485518711877201 0.0027208307603533 0.00157061294848798 0.00556773816809191 -0.00467308560982967 -0.0066914959449512 0.000665904475987315 0.00613553996913697 0.00194026809759006 -0.00569715868311832 0.00373677652463426 -0.00255024018484755 -0.00547380172062734 -0.00157229213783919 0.00536039174359997 0.00156586526711383 0 -0.00498746887409541 -0.000777186338020061 -0.00665353975515504 -0.0028075152718643 0 -0.00342736770063907 0.000906596792363588 0.00444390692321626 0.00418846115535911 0.0090328767099616 0.00524119033895106 0.00820580494327113 0 0.00517765756296501 0.0107872569549808 -0.00166044376767476 0.00435709013334564 0.00504203962467192 0.00704870107887254 -0.00114362286238353 0.00471408284472248 0.00497515754408962 0.00288112127807451 0.000766728729800344 0.000577031857839023 -0.000662831077687989 0.0019027688929303 0.00811825482281617 0.00531696274318607 0.00239039318652737 0.00704795805774304 0.0044181563161651 0.00612152499472989 0.00485515694529379 0.00591486987649795 0.000225831699316984 0.000246798432766113 -0.000272377667080413 0.00283794394538664 -0.00181199557579757 0.000511969336143595 -0.000522284751439468 0.00312350663695411 -0.000140896127075375 0.000999621810933399 0.00323031982863289 -0.00185214030088645 -0.00372088422000107 -0.00528788313549412 0.00334291806569182 0.00636806386581303 -0.00114185636693376 -0.00195399503501094 0.000954805505641226 -0.00552992684549389 -0.00187679931246306 -0.00240245987654552 -0.00357919754292274 -0.00353615082062655 -0.00153763553564556 0.0021201964280839 0.00758670650156214 0.00242867673041872 -0.00108347646067503 0.00717881254246754 0.00379318799852826 -0.00695380171046161 -0.00054885464730331 -0.00176183539474891 0.00273212556595052 0.00148700000881144 0.00753066631645622 0.00534605177299074 0.00302565003089119 0.00284285624989136 0.00602832383980197 -0.000675682533748709 -0.000720071773530952 -0.00265693001016034 -0.00598704270411828 -0.0025203509281427 -0.00786689660229764 -0.00785070070268852 -0.00331933422507129 -0.00395341705620919 -0.00806938918740507 -0.00278324474241139 -0.00390970281748105 -0.00240775071177747 -0.00168849280313891 -0.000821678417125699 0.000153323071017106 -0.000721159723927679 -0.00208437243991703 0.0058597218838148 -0.00107170394557526 -0.00181455820175094 0.00498701457633634 -0.00105778049239514 0.0005956970476694 0.00590089867822866 0.0026020086512753 0.000737737183882141 -0.00254427121909851 -0.00500905785416036 0.00343065457026552 0.0010476169266884 -0.00604103774026646 -7.53705129664104e-05 0.00190145165456251 -0.00122053744206528 0.000929448556877022 -0.00154447871636286 -0.000626767139669286 -0.00237492392815821 0.000676308855458744 -0.000980635224552155 -0.00360127496615704 -0.000239790530244978 -0.00384616250811201 -0.00176034854685197 -0.00119618744660734 0.00197458418789333 -0.00342154873518155 -0.00463961788414545 -0.00406266801901635 -0.00493482016992926 -0.00128004260441235 -0.00161845334112363 0.00099654574284949 0.000305656372936484 -0.00285560761360407 -0.00341029619045424 0.00118331442534355 -0.0031082883343666 -0.000792360038715442 -0.0059689706198538 -0.00941733904998122 0.00291837300837704 -0.00546377287421259 0 -0.00152792375502299 0.00279723791767898 -0.000416067413354748 0.00337373778718813 -0.00239898373012668 -0.00363787504173129 -0.00316693886192923 -0.00109765011409109 0.00279347674850853 -0.00346071206554172 0.00024137798864941 0.000826083640546939 -0.000703698215249718 -0.000807757729118076 0.00321661112765654 0.00274195284860937 0.00136161184348955 -0.0036056171089569 -0.00522039402517845
-0.000660773067478163 -0.00842580262028782 -0.00157645218511218 -9.91054601994127e-05 -0.00274135149247606 0.00237019697568541 1 -0.00508435451529 0.00211521398314453 -0.00524422206737467 -0.00154855591838902 0 0.00294792088107217 0.00421065104075186 0.00475778175235291 -0.00361717861830042 -0.00259473812396347 0 0 -0.00160697366702507 -0.0059692718032952 -0.00458759051297026 0.00217338319154618 0.00500787288594264 0.00887250002337577 -0.00563939258932468 0.00131429369543454 0.00202939918631827 0.00341589376531705 -0.00433883676967843 -0.00674076760677348 -0.00823461911839558 -0.00927917524664865 -0.00621796841487675 -0.00809817012657004 -0.00955059425889959 -0.00644939953135654 -0.00828894147548798 -0.00218975266377788 0.00268207140254256 -0.0017892100313648 0.00243071681239643 -0.00161988231111646 0.00292611871277991 -0.00615170069175538 -0.00518062764017536 -0.00454903447729552 -0.00666540805997411 0.00178394812045305 -0.0101965205482915 -0.01140946190398 -0.00583933908404465 -0.00428710919146198 -0.00958164596475831 -0.00991764752072282 -0.0100985574514554 -0.0108142620523331 -0.00904739466923811 -0.00591727577541228 0.00138014745272617 0.00152528223192395 0.00602130942914642 -0.00425435712061414 -0.00315707031613283 -0.00307302430798136 -0.00211852774817354 0.000487006812715416 -0.00150874802181198 0.00350785367404884 -0.00605736359261096 -0.0026287535361178 0.00243285699054393 0.000780386651855044 0.00308039553648309 0.0071610948584331 0.00165699410373674 -0.00864030256559297 0.00438015653858058 0.000300353650760908 0.00895853267642412 0.00222523888770904 0.00531329232832721 0.00892021338356318 0.00248605135769402 0.00622584330989147 0.000989117487603391 -0.0047590852977962 -0.00183199406387023 -0.00390964980275402 -0.00131760072850618 -0.0100318594773965 -0.00585455779506608 -0.00221965618870723 0.00258717373805199 0.00227466080219496 -0.005264152808286 0.00100605082518227 0.00012006532542221 0.000661271017898271 0.00254168033721927 -0.00101234259050795 -0.00498266868976878 -0.00658065053268108 -0.00771400779102079 -0.00758960650643143 0.00190711555155662 -0.000707558931199646 0.00141891641272697 0.00391508439716249 -0.000995951542423563 0.00233035770783266 0.00135627143585716 0.00224437501695488 -0.0035782315775632 -0.000936298383585014 0.00700409172191237 0.00504202650072929 0 0.000105698209692289 -0.00129698380363639 -0.00334946157571653 -0.00162250351652861 -0.00367063359730689 0.00065121727924405 -0.00139486248162862 0.00439885192507834 0.00871009549904576 0.00251982109319684 0.00519089998027193 -0.00303145869028331 -0.00505669496005432 0.000906553336606486 0.00226675522634632 0.000609498332445397 -0.00192487179720943 0.00248157295370204 -0.00352606797840265 -0.000477948882295418 -0.00408169591742666 0.00130544007861128 -0.000665311660841759 -0.00194292190851206 -0.00223464616223661 0.00296583343932027 0.000703694553621906 0.00490557166525593 0.00407314683107352 -0.00304232985774786 0.00101415512584632 0.00473121328225517 0.00157656143485334 0.00301282113532234 0.00318337754523614 0.00756718261462758 -0.000986112305097177 0.00746038078218246 0.0025002254753331 0.00666628419229568 0.00575767625014408 0.00585715932211271 0.00214648588469978 0.000901236921837287 -0.00977289055187247 0.000688064668955077 0.00158589891431994 -0.00356569383894118 -0.00228907308504743 -0.00253105297117449 -0.000971722205105322 0.00216400288959178 -0.00662770599317531 0.00382365720719127 0 0.00114827615130133 0.00386732974787107 -0.00344657120317487 -0.00211369159262973 0 -0.00239496886038308 -0.00563672800262906 0.00474476953390684 0.00414728469368315 0.00233490755477868 0.00480907241221792 -0.00330218878247917 0 0.00259380570622927 0.00317397627800833 -0.0078992098146425 -0.00648346719127497 -0.00597690260883811 -0.00854303685401571 -0.00736450714018712 -0.00469396826715519 -0.00336555747039614 -0.00178953470943966 -0.00182737651320412 0.00377198764275017 0.00404176665467807 0.00725956227492285 -0.00580958548094 -0.0056456886800992 0.00328435955943343 -0.00467001706143003 -0.00524814749805978 -0.00773452072630555 -0.00589019445783683 -0.000960996081699301 -0.0112134871803803 -0.0117541024994742 -0.00768436044811573 -0.0038356823079351 -0.0121837388240867 -0.00881718810615552 -0.010129863620239 -0.0077580052111911 -0.00783609610482033 -0.00478054867704977 0.00231256955445122 0.00833617121351788 0.00321662097513808 0.00191189309982088 -0.00843200789173639 -0.0068549939588228 0.00956020645384492 0.00738755598132848 -0.0054366485093521 -0.000137047483573591 0.0034465100096835 0.00241637472579083 0.00472608536046519 0.00474760374217289 -0.00259403275911177 -0.00304517617190163 0.00191483094390658 0.000819902764486355 0.00687877505038855 0.00222412207778759 -0.00600239587679181 0.000858117465097819 0.000224458933294197 0.00321177204731038 0.009341578598483 -0.000819918687956411 0.00130791676233491 0.00024920396192234 0.00173866062742412 0.00550403735927055 0.00694776301117083 0.00255011676319779 -0.00819472740304952 -0.0018220892674393 -0.00125701904742952 0.000756422525487364 -0.00272372755529924 -0.00508216446276991 0.00075654966636224 0.00161593123195324 0.00302504098208423 0.000194354781247473 -0.00112667143929186 -0.00928026674586543 0.00524760619971544 -0.00312306545969065 -0.00219071475881644 -0.00249325492280013 0.00127426985163278 -0.00167883590828249 -0.00643697954034577 -0.00772189982708871 0.00480102824000978 0.00275154583503549 -0.0017632461418732 -0.000699869091036657 0.00326074072157203 0.00204422528170507 -0.000124840468180638 0.00238071272444762 0.00764621199586934 0.00230851401738496 0.00399520797996082 -0.00525600449091471 -0.0034331618839468 0.000517428980965756 -0.00167351656466222 0.00346011016934172 -0.002194846146209 -0.00243733019826863 0.00486309150132284 0.00674539378339282 0.0047185826245567 0.00704986665092795 0.00184414519702373 0.000526631801663249 0.00306040548670086 0.00131101211783631 -0.00597198770847907 0.000346965958217427 0.00231311447549664 0.00394713507134521 0.00162978615252633 0.00735159651133532 -0.0011042065171832 0.000774477078821754 -0.00229614934904216 0.00355381237379523 0.00502855268366151 -0.000544196827200437 0.00512550573887909 -0.000348744842075 -0.00353535289439752 -0.00320054718048665 -0.00402917007794453 0 0.0047451618991298 0.00561335065900423 0.00213228324046549 -0.00121755103355534 -0.00180938018854736 0.00481343093166245 0.00492013364879788 0.00641324140838433 0.0060271694101306 0.00280058822548791 0.00721807213214555 0.00959244870708996 0.00460134418715593 0.00348276293728414 -0.00313684013951042 0.00242632359336623 0.00679313306678905 0.000148402897747535 0.00148895335408343
-0.00150976853132636 0.00742005562342532 0.0043200374663574 0.00542682943365845 -0.00144276906656654 -0.00824181353569558 -0.00508435451529 1 -0.00630589696697901 0.00576315183849122 -0.00252742846036626 0 -0.00351018521120048 -0.00137509168642847 -0.0042147260570494 -0.00600718667741082 0.00130672830910362 0 0 -0.0084287533103598 0.0050652205611538 0.0078902999915241 0.00216142009768156 -0.00237537449593076 -0.00678870585583521 0.00598620840683392 0.00308035499675198 -0.000456643066153181 0.000910764558750293 0.00699433339569716 0.0102935209913233 0.0112267402965348 0.0109755774596878 0.00546111149478515 0.012216363982438 0.00943059638264465 0.00910218237016138 0.00942788011164905 0.00502627925564772 -0.0017443623853126 0.0022832669008737 -0.0048423266369706 -0.000198683034151868 -0.00333519725319446 0.0115122594624682 0.00946520068387952 0.00816181253202172 0.00420592208542047 0.000270870372310496 0.00854413407765742 0.0042167047327982 0.000979465685671829 0.00481385932201886 0.00426444102858175 0.00349152184361987 0.00574292101537542 0.00942133870751897 0.00533415872348263 0.0084312462804533 -0.00268183012390869 -0.00300366247312027 -0.00357729357751473 0.00301819940735098 0.00328241762071697 0.000542725468661229 0.000588807299318829 0.00705937039164006 0.0015410528795477 0.000996122315426967 0.0110808186564718 0.00546147947821202 0.00216024614906119 -0.00546832517307455 -0.00507539436626145 -0.00684140234298902 0.00451950469338701 0.00366357145590477 -0.00825708237200207 -0.0048455611216101 -0.00292256706845276 0.00364435525078391 -0.00332881110393791 -0.000510613189860453 0.000246694159659427 -0.000416090068870009 -0.00287169499053835 -0.000961411117645655 0.000727869756185908 -0.000915727360159265 -0.00365231774923671 0.00544463928889888 0.000482475982540844 -0.00155209206166842 -0.00745633084143711 -0.00339496432734566 -0.00129259705071194 -0.00112866513219066 0.000933404897821711 -0.00298264905556024 -0.00461791081829455 0.00477126691780631 0.00393734138837534 0.00655615759588917 0.00765149213303933 0.00342316939040978 -0.000933121147968906 0.0010778625459983 -0.00448457233905901 -0.00738399843712522 0.00276636838734019 0.0070205513604837 -0.00413529991652748 -0.00860418188974534 -0.00694206486452016 -0.00778288223440956 -0.0112477128345685 -0.00648021637914339 0 -0.00131953508191437 -0.00121275637572863 -0.00435009206545299 -0.00232618262228861 -0.00322728310678654 -0.00402103043463861 -0.00523958394821675 -0.00631185221581544 -0.00588802410410074 -0.0057941158596323 -0.00812585934803788 -0.00654346914919408 -0.00217845424410492 -0.00176709581048279 -0.00668585531225688 -0.0027076163919733 -0.00626881404287236 -0.00349953544826989 0.000297641966795574 -0.00224382603082328 0.00219105859837471 0.0013236214100257 0.000368649102648588 -0.00262886538618327 -0.00457732341471031 -0.00250591221836095 -0.00375869526677741 -0.00689691328555204 -0.00388103615510299 -0.00561027200527511 -0.0074785778756781 -0.00766951235747081 -0.0101707910004965 -0.00137588507761597 -0.0064907444222909 -0.00959454995103604 -0.00318694492764954 -0.00661597108695712 0.000873344770336739 -0.00276635789041348 -0.00062209445032074 -0.00145234598667386 -0.00188118133433979 0.000767859961231783 0.0107130524989234 0.00534042009801784 0.00427260368771678 0.000878387204127692 0.00285600751571439 -0.00449859047432865 -0.00368114157195305 -0.00013301630200303 0.00761395031746155 -0.00211149027826958 0 -0.000446045495294107 -0.00386620621413512 -0.00624059429208757 -0.00621634770710197 0 -0.00551615582527966 0.0109064936857927 0.00410696650674406 0.00294300417690508 -0.00125720178010049 -0.000208251683545812 0.0117016300882274 0 0.00582175789494994 0.00576592320121157 0.00965089586693602 0.00914590862035736 0.00824363890424888 0.00304430350875385 0.0123661671620015 0.0123218347808369 0.010419220636481 0.0102993419510554 0.00880696298229186 0.00181262959143112 0.00150269317910255 -0.0056303972413362 0.00985340385799937 0.0101225993249716 0.000915023182458124 0.00518187361094656 0.00851937893098859 0.00946446959511668 0.00185899569543555 0.000684047259124951 0.0118841817013263 0.005962634223125 0.00227237129726207 0.00591750349848046 0.00689818703319322 0.0104604516489404 0.00865979770810386 0.0125569296309382 0.00713497277269827 0.0080012391631402 -0.0012644390092524 -0.00706228429229651 0.00636722155561908 -0.000686521146128565 0.00780313461889352 0.00588136249631154 -0.00720247366908971 -0.00179667873671502 0.00326252014401717 0.00146156496625066 0.00465852978383878 0.000734678757409862 0.00067168845816979 -0.00067247786255132 0.0029550013662227 0.00838634376613726 0.00263659967947353 -0.00386869792257412 -0.00487058501429134 0.00675712777523804 0.00674215106970924 -0.00150342063424827 -0.000863479632025182 -0.000580177512470623 -0.00305100568198527 0.00455134869093219 0.00689279299993073 0.00794449319583248 0.00137645854787516 -0.00283857803687873 -0.00182348016635103 0.00118222269628686 0.00401358951633004 0.000774160183043326 0.00116667092499623 0.000115871895182483 0.00219962267449976 -0.000690836820090391 -0.00221024274318802 -0.00177665898982459 -0.00415280779000917 0.00113168942097216 0.00630483484224622 0.00688787548646785 -0.000970806957546672 0.00457383574464126 0.00434605836192049 0.00227111733815334 0.00308069768892199 0.00880466826919827 0.00359576319786412 0.00883242242723006 0.00307920814702319 -0.00257897254692258 -0.00191731715260508 0.00781457722757022 -0.00330724019448242 -0.00454336027086466 -0.00471136240774204 -0.00536514082665129 -0.0055352354771251 -0.00269131049677026 -0.00401000417309759 -2.15589827127097e-05 0.00250990555747492 9.89609937862585e-05 0.00339233134337939 -2.43501883723702e-05 -0.0021740114339109 -0.00138713441309492 -0.00896484459823393 -0.00556460530475034 -0.00592674963219994 -0.00654937454834659 0.000214257878022556 -0.00293313114459555 -0.00434813040271703 -0.00608603124325482 -0.00357200361398076 -0.00149795549091092 0.00422123891076636 -0.00278054021528902 -0.00573547382275291 -0.00555013694288033 -0.00189506355802375 -0.00322142726550754 0.000649471759840988 -0.00547533912525992 -0.00269666499266187 -0.00200757007557634 -0.00295607642659724 0.000439324228822037 0.00185506861112894 -0.00585412463814929 -0.0027514146626302 0 -0.000954261496982689 -0.00247144785788084 -0.00153238505665261 -0.00523865235339663 -0.00228485246466348 -0.00971029506897318 -0.00730904472927147 -0.00474937876757422 -0.00729280225205086 0.00240088560070546 -0.00405757550787785 -0.00437807968199006 -0.00155671171547067 0.00200645939542951 0.00832698911806614 0.00412511495718898 -1.65816323905795e-05 -4.37134358787468e-05 -1.89506045641935e-05
-0.00714958123939214 -0.000921801231603366 0.00536554088066764 0.00288098149532238 -0.00788719056803701 -0.000485380385380815 0.00211521398314453 -0.00630589696697901 1 -0.00271185225964572 0.00298296335884602 0 -0.00651085209279434 -0.00321136598639234 -0.00350817223883004 -0.00438153088782273 -0.00727385214784264 0 0 -0.00315564566307278 -0.000441275582968653 0.00371115796335553 0.0017768672913582 0.00437585852178391 0.0048525285893429 -0.000265747117166598 0.00888067426519593 0.00731243187559403 0.00840504562718515 -0.00162842557629137 -0.000654439483570208 -0.00156132869959973 -0.00341441238602519 0.00267077604966325 -0.000371205781661833 -0.00175868272345744 2.03486127602138e-05 -0.00071805900989076 0.00503881549445565 0.000971541702856887 -0.000497564129100472 -0.000841334337549161 0.00370117599979273 0.00393153545101313 -0.00256489830515433 -0.00442755730147765 0.000308427752630492 -0.00269958719318387 0.000915377251640917 -0.00149661973151719 -0.00133871686740609 -0.00109334688729558 0.000867628985076787 -0.00162734102645121 -0.000148636518966215 -0.0017789982000932 -0.0012868585210054 -0.00151749144650474 -0.00161974274039865 -0.00367543145344599 -0.00061119218994049 -0.00159857942925145 -0.000556564413299791 -0.000549176090213528 -0.00308142196183018 2.18213815895344e-05 -0.00162245346503889 -0.0026613552193524 -0.00457679722512532 -0.0024758082987398 0.00457682441632448 0.00964248972545078 -0.00155256825545876 0.000219225197074046 0.00340669876201567 0.00979043846663601 0.000733763594198626 -0.00251715518238215 0.000808727729926456 0.00945185307249696 0.00272855133987129 0.0110074735939168 0.0124128318296775 0.00666911138409584 0.0045682455196005 0.000562701923265768 -0.00390712983293742 -0.00484113153947346 -0.00556726843138948 -0.00494685058813644 -0.00345512458946164 -0.00584770714611563 -0.00607784424818019 6.40632075858636e-05 -0.00239760906203371 -0.00241294735822413 -0.00466201472644917 -0.00132317007782731 0.00288683548910038 0.00280610200318539 0.00130316097188206 -5.80528470080026e-05 -0.00300025234926407 -0.0035648835214024 -0.000522775486467368 0.0023807731869322 -0.000837805673214599 0.00105183901963614 0.00191565886452506 -0.000874054292359991 0.00238559234108789 -0.00184882774197908 -0.00418953886992154 0.00115244684054481 0.00235355322151782 0.00329699491238453 0.00625372896142406 0 -0.000748119650670837 0.00753173268263531 0.000526749223355142 0.00338299684785534 0.00190616019167848 0.000316280665845177 0.00206020818459897 -0.00450039861239046 -0.0012944390772635 0.00247952399383138 0.00117587875441131 -0.00260332451279079 -0.00419721221107636 -0.00467455979770909 0.000469758011745571 0.00251934945619565 -0.00224806105901695 -0.00234058135526068 -0.00196712344204016 -0.00252615443690528 -0.00078318110315585 0.000463813993982042 -0.00393428354292707 0.000711898288795684 -0.00299019089957472 -0.00139318849222157 0.00105104023755566 0.00554681479520739 0.00594816917313317 0.00208671080011333 0.00190619738946789 0.00346914211172477 0.00106064798311399 0.00389971795109427 0.00476505640076487 0.000977022954328494 0.00512383060114212 0.00206520186498311 0.00148666274596176 0.00239058162698456 0.00483818437399001 0.00856283768565476 0.000518899648050094 -0.00487415538579284 1.847950660286e-05 0.00295850665058042 0.000857473144608265 -0.00859248383664533 -0.00234323371561277 -0.00220646597486321 -0.00283745501737708 -0.00482430850992008 0.0014053531171536 0.0031863881398711 0 -0.00730596081325703 -3.16071167701765e-05 -0.0025255479237384 -0.000402978394207039 0 -0.000781211442836499 -0.000372414667137803 -0.000411752528875155 0.00536183727448585 0.00948626368506231 0.00712771859009377 0.00517129092186035 0 0.00565509730722253 0.0100326577739474 -0.000966589166008861 -0.00054071834136819 -0.00210822432583196 0.0010976774267908 -0.0021071073966599 0.000307111455319594 0.000404756930520836 -0.00295923008937074 -0.00122448561956497 -0.00369168251955007 -0.00460316624053661 -0.000906234563119538 -0.00120949544417462 -0.00300103607918928 -9.61321994400066e-05 -0.00201040690777204 0.00167470954806176 -0.00227024762699183 0.00118487370709411 0.000935934635802537 -0.00203853924498921 0.00156840247668433 -0.0020656783933123 -0.00018988065961801 -0.0015312423087656 -0.00422749549750772 -0.00333134190458022 -0.000571594931156372 -0.00149203488563628 -0.00183925677076123 0.00144953730695215 -0.00021422627866768 -0.000488259883445552 -0.00205245992734902 -0.0015820916166972 0.000220184303880615 0.00250096601276509 0.00069301721849816 0.000437648247445061 -0.00177423447890085 -0.00118753715288774 0.00119459431724151 0.000772387944194696 0.00116495598005617 -6.75538500727984e-05 0.00441150529200012 0.0104594209807827 0.000843854791395327 0.00433324534906555 0.0047876389280401 0.00317982777383315 -0.0032496135165433 0.00159828255013109 0.00276309526835042 0.00814374091567878 -0.000314233392659052 0.00982508467366714 0.00748285763300936 0.00702720615357218 0.0028749630942752 0.00461663763581335 -0.000300774267643366 -0.0016892443764875 -0.0035323595394869 -0.00654273907317359 -0.00449738914812232 -0.00447217985755275 -0.00211092784273662 -0.00310992067688755 -0.00934687903592706 -0.00434779887071459 -0.00212143835488481 -1.02181873456888e-05 -0.00288482514025369 -0.00502274084192248 -0.00249887691387462 -0.00308500118668403 -0.0044303663159659 -0.00247652936514922 -0.000588982213339561 -0.00341520348965001 0.00141700947159771 0.000509544617005177 0.000323254931219716 -0.00274517150930962 0.00336336174156478 0.00167670313795879 0.000664463235751447 0.00452269786280158 5.57807447711342e-05 0.00549616634948898 0.00204082257185669 -0.00130770009401238 0.00586024099271962 0.00459802759357865 0.000663394205097473 0.00471904812062271 -6.06699520514321e-05 0.0015420177899612 0.00162169332943179 -0.00063551048438124 0.00279035886642297 0.00401021955011701 0.00662459802029462 -0.00563535648029474 -0.00419304195737745 -0.00344694420562143 -0.00178158458332484 0.00193346829797205 -0.00439629216312483 -0.00620254996988757 0.00212804257153252 0.00394235911175253 -0.000697072762877071 0.00151813676410853 -0.00223316606377404 -0.000687428404666007 -0.00214588705618257 -0.00219841466804309 -0.00596845170940574 -0.00310289801018856 -0.00323889726308339 -0.00622881662068146 -0.00082599300048472 -0.00366525489516986 0 0.00275093577728424 0.00653184908661464 -0.00156637160496404 0.00354892010265685 7.08150651465174e-05 -0.00362582675369217 0.00246803375451154 0.00188610339537777 0.00387494279257862 0.00137248947903787 0.00277360523297999 0.00159610098601374 -0.000187620351744831 -0.00217818605161016 0.00325215700464336 0.00790817225617192 0.00292640702720889 0.000433884158396447 -0.00159952787299355
0.00304766563467319 -0.00136261096674399 -0.00151434839443245 -0.00827344533025804 0.00680195628206666 0.00339707364139273 -0.00524422206737467 0.00576315183849122 -0.00271185225964572 1 -0.00472084960898331 0 0.00126918314360433 -0.000474630283788738 0.00360476684613365 0.00125725127998363 0.00116451109936781 0 0 -0.000346459196937998 0.00433052300132597 -0.00776537343179969 -0.00560647948819532 -0.00569828817314175 -0.00208397817355423 -0.00108629316426547 -0.00685776997022924 -0.00426005574674116 -0.00289999493018276 0.000520919601654386 0.00123501185372076 0.00181884333348651 0.00123764178713848 -0.00918060600409647 0.000378015099685163 0.000387988464169504 -0.00398094282121135 0.000903565315387598 0.000103834926438332 -0.000971424770886795 -0.00350823967189122 0.00201657749418127 -0.0051620112707983 -0.00416015951772063 -0.00169109955567823 -0.00249254468021863 -0.00864327201254962 -0.00919481140775461 -0.00891897540519285 -0.00195619082912275 0.000562199769608534 -0.00278977257088396 0.00103254788148766 0.00102596039854773 -0.00191891361393782 0.00186136545730858 -0.00351925553762103 0.000837604853433496 0.00405253625421474 0.00596642958972868 0.00534535233021717 0.00358494364839503 0.0035963857294217 0.00268764100883096 0.000197899200391791 0.00194016206606907 0.0041489673719956 0.00430569991745538 0.00805166227029699 -0.00201845304710768 -0.00414639018508283 -0.0050341153935124 0.000314542027466604 -0.00125795819990687 -0.0113207584872832 -0.0131824671359385 -0.001865707796375 -0.00174105946024644 0.00253910059378986 -0.00488924224291279 -0.00490360862414548 -0.00922523898997043 -0.00347844144625261 -0.0120678443713538 -0.00199955614384666 -0.00462985669148678 0.0030518910921684 0.00176335154475924 -0.000175553071897058 0.00724629066913232 -0.000552580217252944 0.000674763464228681 0.00123967511064312 0.00177771169601229 0.00363496777087915 -0.000113629176367178 0.00684350529739614 0.00205207236601084 0.00498382665101669 0.00409768177241151 -0.00146757995218753 -0.00121330821190622 0.00183666130553454 -0.00264331720743133 -0.00129278113791975 0.000406437903695046 0.000270910787525571 -0.00233833974795463 -0.0018595980855258 -0.00546289330396202 -0.00479964506119716 -0.00692699218479544 0.00230775877038358 -0.00547546236949718 -0.000777260668438413 -1.45758970347405e-05 -0.00292181326874086 0 -0.00302703812903466 -0.00539401807380799 0.00149614737902738 -0.00304482232179905 -0.00765801226359287 -0.00586821144686327 -0.00135355632075893 0.00693532680343876 0.00410522882327398 -0.00604708847012791 -0.000729567371696758 0.00707825368785012 0.00581025551684293 0.00460678233680156 -0.000750191901738998 -0.000117516283532094 -0.00098513518946136 0.00201634349134403 0.0044626187084449 0.00886211125755914 -0.000895148288881936 0.00115731820022195 0.00555068285353307 -0.00647796106222326 0.0025992534394194 -0.00610826574507381 -0.00352965684187228 -0.00689319357944564 -0.0077056318059449 -0.00483911373745911 -0.00729716536090743 -0.00583196774419991 -0.00636029647367298 -0.0057389484036781 -0.00803684553549688 -0.00360843679984848 -0.00912069752712569 -0.00237267647025178 -0.00224171681933082 0.00118280639668883 0.00233298420990939 -0.00442524339888765 0.00089948812605571 0.00479602742406038 -0.00290524778070067 -0.0030372388746189 -0.00300886728211449 0.0107073996645125 0.00396248916277269 -0.00174564516357388 0.0053578455975387 0.00356169901574546 -0.00469564387863763 -0.0045132521475403 0 0.00495625688120216 0.0070040593199559 0.00364639281944535 0.00627566746078314 0 0.0036406447834853 0.00153022073673839 -0.00106155912152945 -0.00150676445169062 -0.00315342475877937 -0.00535253047658987 -0.00841474048824037 0 -0.0087821055315254 -0.00449529058894149 -0.00100175098022348 -4.65647097250681e-05 0.00184361250094022 -0.00369298560120353 -0.000578985058667073 -0.00219029162687939 -0.00270404568608553 -0.00256329277599566 -0.00131604768577302 0.000931312059378532 0.0048705138018621 -0.00191958851648083 -0.00231541096242145 0.000588868292817706 -0.00155410277790695 0.00293244577167581 -0.00563018133368003 -0.00177436636680942 -0.00709134662489836 -0.00496807004075125 -0.00204983235746907 0.00131896825671205 0.00475261620084597 0.00317289829830865 0.00206535814132661 -0.000129456269386879 0.00377907142565107 -0.00168100314383921 0.0011209050701928 0.00229006332718865 0.00238344906131195 0.00327555322513257 0.00167830864944816 0.00106112567155872 0.0048746622568621 9.31759811101868e-05 0.00065099356065495 -0.0015955295613894 -0.000197081747702043 -0.000122452472147881 -0.00137637370483422 -0.000737474140465533 -0.00108103902200792 -0.00324128515371093 0.0012574066024678 -0.0101945205055712 -0.010247603803896 -0.00175109506201502 -0.00403602759498213 -0.00208097481648997 -0.00119163501493377 -0.00101078305768724 -0.00558921509799851 -0.00421925069455503 -0.00249923357000945 -0.00203638558216616 -0.0109384205520573 -0.00650171662674669 -0.00550287371025869 -0.0041630462469452 -0.0042588453696918 -0.00452817041731138 0.0030548418305567 0.00451413811796121 0.00760589239395532 0.000599341199611584 0.00399797958148946 0.00317206698347541 0.00388735194628793 0.00685434598371833 0.00408518296946388 0.00226825340187424 -0.000599339942616719 0.00255953095660015 0.00574424913851224 6.26177225383177e-05 0.00567306661128899 0.00589239615356734 0.000439576013098998 -0.00154115584142582 0.0023800285945465 0.0020093385185743 -0.00699678680595515 0.000666399698927164 0.00217941375397441 -0.00566681981031203 0.000811388259731191 0.00296280648138437 0.000140754771154284 0.00307014497095152 0.0001338594632482 -0.000822650090229246 -0.00651382186170399 -0.00541178018352084 -0.00975049644537864 0.00210649279135031 -0.0104998345747704 -0.00460057755400853 -0.003603369469411 -0.000418505214878699 0.00142501601159626 0.00203140849603108 0.000725865458692443 -0.0032218651959037 0.00352709696571976 0.00717409340563042 0.0101846342365645 0.00104727612566411 0.00173301915796936 0.0110968673117329 0.0083014781448846 -0.00538143883056896 -0.000101301876550284 0.00417029321076153 -0.00479544012130486 0.00178645427322385 -0.00144459360986666 0.0048025130139702 0.00601124307030263 0.00738208202507725 0.00782507825455606 0.00612627658544247 0.00574010960944029 0.00111670932207031 0.00432152642805227 0 -0.00435787969143335 -0.00413797548563553 0.000703237645094129 -0.00250252009217747 -4.74916678798861e-05 0.00226194747268684 -0.00138091935694278 0.00148617162984001 0.00119916480583485 -0.00170127090277406 -0.00113093518227698 -0.00144838345888011 0.00191040260114575 -0.00213781711425437 -0.00242629911699367 -0.00686380105175447 -0.00321972870098066 -0.00300534257332357 -0.00128383955866926
0.00234188399386263 -0.0055229762247902 -0.00269714681811295 0.00236085227890206 -0.00344864308734282 0.00317936348013572 -0.00154855591838902 -0.00252742846036626 0.00298296335884602 -0.00472084960898331 1 0 -0.0020665814895871 0.00179021500025352 -0.00224142954191254 -0.00358080019176417 -0.0039629780417277 0 0 -0.00179270010054102 -0.00348331782232576 -0.00437164784046918 0.00127182033766755 0.003943479426702 0.00428874603418232 -0.00172528272721865 -0.000287201820535241 -0.000217037040496768 0.00117643851436987 -0.00585455518635683 -0.00495024334468772 -0.00217040070943919 -0.00579347227210184 -0.00424549390821086 -0.00680421323980693 -0.00245061849422439 -0.00386098470798892 0.00122970787029806 -0.0015190819673855 -0.00320025223513297 -0.00555450864712658 -0.00594324336684364 -0.00223267361008943 0.00181912730082773 0.000152789958097542 -0.00188327141749337 -0.000771661645718246 -0.00345260799728398 -0.00499988384098786 -0.00565964232248796 -0.00188527925814052 -0.00376814916354862 -0.00867106849331504 -0.00654949290490945 -0.00267613583154378 0.0021765838858781 -0.00773711417883031 0.00178873717451298 -0.00227293413248413 0.00436447757091905 0.00779001080689423 0.001455927114812 -0.00153406650744691 -0.00540394522467832 -0.00414693926994677 -0.00216452254487166 -0.000986984747781269 -0.00401618261535072 -0.00630360759919303 -0.00611897603835372 -0.00501671620953947 0.00150091149808817 0.00193142307902718 -0.00194140038760527 0.00147933004715674 0.000545617007627884 -0.00744642375096618 0.00160668808015958 0.00284803176754534 0.00158753413372004 -0.0013730177958524 0.00301979041277937 0.00299614272535478 -0.00164914803824242 0.00272121514865505 -0.000753464563450731 -0.00360964506438267 -0.00375381550473257 0.000677502460566 -0.00398412320802773 -0.0044896134433299 -0.000641125083862238 -0.00115392395671258 0.00266253305309751 -0.00182658699116276 -0.000669074531676183 -0.00114812859570734 -0.00237091988570144 0.00280379879848949 0.00174673479082079 -0.00452365567598547 -0.00696571411763701 -0.00716610482076033 -0.00679250019173537 -0.00716428117464979 0.00404453539540519 0.00387932845059422 0.00109800614966969 -0.00124894752138112 -0.00149937950174695 -0.00442817532116127 -0.00302110371227133 0.00121750041848555 0.00246308361562624 0.00565304152668799 0.00633390139594604 0.00582657623785758 0 0.00250340017701132 0.00245404860993712 0.00714825442064543 0.00828770002732421 -0.00208027120235265 2.36749293272515e-05 0.00506539140044676 0.000320511184554618 0.00580362828130119 0.00502055556612524 0.00543759208202523 0.000246765220835904 -0.00218514914115354 -0.00516656596663343 0.00475372152611482 0.00291831781844256 0.00653137957521087 0.00263281976287603 -0.00261637169160463 -0.00111671860965567 -0.00487322271160663 -0.00530507525183214 -0.00329851933267357 0.00246328726496326 0.00381604247731695 0.000991533037774589 0.000161160544536531 0.00331334889592334 -0.00225186074626634 0.00168054727757711 -0.00118051433253889 0.000298968004627347 0.0023131595555902 0.00326824352815333 0.000256320693032435 -0.00170794654460963 0.00223515246650339 -0.00257815927592412 0.00334363527146599 0.00202094451825325 0.00367931647134792 -0.000150607905778681 -0.000613196593050185 0.00306136474467372 -0.00611934439234578 -0.00583861139759795 0.000967331476886861 -0.00307741635980436 -0.000227048724181741 -0.00284862152222975 6.51800668474632e-05 -0.00231568953887633 -0.00572975944664256 -0.00034873488797684 0 -0.00408633371680506 -0.00411315525730384 -0.00578624303803056 -0.00108646357757295 0 0.00414554391389153 -0.00165538013882653 0.00186437983938558 -0.000277143876670432 0.00373956089694947 0.00415947488604806 -0.00414646317443556 0 -0.00195704693191835 0.00126152298317821 -0.00809364089464372 -0.00539161247388139 -0.00326121123120644 0.0018208835950179 -0.0067285602934979 0.00178359110663499 -0.000356649145240837 0.000113857219448749 -0.00090686437924824 -0.00128539281763963 -0.00188468193139466 -0.00146645682448174 -0.00506727086724165 -0.00468205387698726 -0.00374989833305084 -0.00700127914001794 -0.00251440859361271 -0.000705321821272432 -0.00176899043277864 -0.000571110028004093 -0.00460243279434453 -0.00121955602477681 -0.00263970507570795 -0.00648488802938179 -0.0036463859726551 -0.0053921999012818 -0.00253554918424844 -0.00539354966452267 -0.00749639370936296 -0.00501019522701247 0.000373976054150001 0.00440388708900288 0.00185777066607762 0.0031317353776391 -0.0052879410165565 -0.00362113114499581 0.00757539726212846 9.2131199603804e-05 -0.000794929262622619 -0.0022108491518773 -0.000550503048185528 -0.000301610850285534 0.0050159719026788 0.00174793448759109 0.00129289223803994 -0.00568851829833482 0.00253082287276753 -0.00406602636716823 0.00138353472040065 -0.00277689488480672 -0.00710251917900828 0.000201034278828254 -0.001040859830621 0.00112917928597132 0.00285284084828926 -0.00261810375980594 0.00308773954031767 0.000133109741092606 -0.0007900758395786 -2.66179588927167e-05 -3.69098254065913e-05 0.00244925054333393 -0.00539902507468078 -0.0058944905701355 -0.0025760262646529 -0.00101027030443606 -0.00216042486346438 -0.00398330365060621 -7.34064428756183e-05 -0.00299648083013687 -0.000348118447301901 0.000363662995855539 -0.00106771874538262 -0.00528561833345315 -0.00269972826099885 -0.00206979525915285 -0.00141789377467859 -0.00212144328949677 -0.00243166768724328 -0.00525254891101464 -0.00841794305588988 -0.00683456006494172 0.000918470106291184 0.00189199823918856 0.00218179731229898 -0.00228832104919927 -0.00185106628561755 0.000871587452702494 -0.000200490106580512 0.00768490175371288 0.00794153758063267 0.00380866901160607 -0.00052480046866217 0.0018325629761196 -0.000378955795977077 0.00628934369323523 -0.00196221208649702 -0.000957735822734347 0.00713840285351897 0.00274310553416548 0.00856348590238848 0.00847720833211061 0.00807130499564696 0.00466130936990207 -0.00413277889267245 0.00356309458678777 0.00623935094606755 8.17202700924504e-05 -0.00232647760931767 0.00143453032495503 -8.85703007134197e-05 0.000902230899432454 0.00583658928329257 0.00434591006655861 -0.000534211073571016 0.00415192006485326 0.000399610323345092 -0.000726147595221753 -0.00339469878133699 -0.00228460007851477 -0.000361086946184659 -0.00268517496164519 -0.00220003455974329 -0.00163317284570677 0.00042676258368416 0 0.000719317016330664 0.0017843938111128 0.00354116966925902 0.000233857685238673 0.00266324543646106 -0.00229573683493962 -0.000161459708651083 0.00350667482973389 0.0071518529417469 0.00447245937128878 0.00310002799576065 -8.92750097274614e-05 -0.00319941379299816 -0.00175688107792197 -0.0039141818499686 -0.00525457844881154 -0.000250473033758882 0.00334474600261084 0.0032169930496875
0 0 0 0 0 0 0 0 0 0 0 1 0 0 0 0 0 0 0 0 0 0 0 0 0 0 0 0 0 0 0 0 0 0 0 0 0 0 0 0 0 0 0 0 0 0 0 0 0 0 0 0 0 0 0 0 0 0 0 0 0 0 0 0 0 0 0 0 0 0 0 0 0 0 0 0 0 0 0 0 0 0 0 0 0 0 0 0 0 0 0 0 0 0 0 0 0 0 0 0 0 0 0 0 0 0 0 0 0 0 0 0 0 0 0 0 0 0 0 0 0 0 0 0 0 0 0 0 0 0 0 0 0 0 0 0 0 0 0 0 0 0 0 0 0 0 0 0 0 0 0 0 0 0 0 0 0 0 0 0 0 0 0 0 0 0 0 0 0 0 0 0 0 0 0 0 0 0 0 0 0 0 0 0 0 0 0 0 0 0 0 0 0 0 0 0 0 0 0 0 0 0 0 0 0 0 0 0 0 0 0 0 0 0 0 0 0 0 0 0 0 0 0 0 0 0 0 0 0 0 0 0 0 0 0 0 0 0 0 0 0 0 0 0 0 0 0 0 0 0 0 0 0 0 0 0 0 0 0 0 0 0 0 0 0 0 0 0 0 0 0 0 0 0 0 0 0 0 0 0 0 0 0 0 0 0 0 0 0 0 0 0 0 0 0 0 0 0 0 0 0 0 0 0 0 0 0 0 0 0 0 0 0 0 0 0 0 0 0 0 0 0 0 0 0 0 0 0 0 0 0 0 0
0.000131790449718122 0.00230222805719533 0.00372610660140774 0.00361252379529768 0.00185669275809519 -0.00680473504810254 0.00294792088107217 -0.00351018521120048 -0.00651085209279434 0.00126918314360433 -0.0020665814895871 0 1 -0.00806858843757675 0.00343671614247758 -0.000242296329810077 0.00354220282322361 0 0 -0.0042779575862333 0.00175267169888093 0.00363948367345563 0.00518286770927517 -0.000147520461023901 -0.00167493117374952 0.0012623545485913 0.0028087495249798 0.00280326317972192 0.00039960344253149 0.00438247167215957 0.00481110332846846 0.00799824663444627 0.0106209120559998 0.00569302856431152 0.0084534854595039 0.0098530135722584 0.00635824057788734 0.00698692858061797 0.00362088775609562 0.00115865169958497 0.000212756611696151 -0.000740830744412358 -0.00262059287009275 -0.00356219836412644 0.00872550707909618 0.00419410227135236 0.00796554666108373 0.00812740456433456 -0.00253764656734116 0.00382233748813307 0.00512098924347025 0.00418240407819191 0.00362157895407417 0.00547153634055856 0.00231049789597558 0.00484061680187319 0.00347091039708248 0.000979495768015714 0.00419454105174945 -0.0027729563467067 -0.00207597600608703 -0.00734371310046543 -0.000780108755836318 -6.38301350911793e-05 -0.00145697015706271 -0.00549423538400456 -0.00492494570154796 -0.00886729644803944 -0.00669851962918351 -0.00168898738813608 0.00264227031943182 -0.000503367965240283 -0.00503227042887486 -0.00142268562238187 -0.00330193958547574 0.00138815704057357 0.00255961524480006 -0.00667299012712421 -0.0013963689828099 0.00595435534900125 -0.00202309873712234 -0.000157491016851374 0.00518083359471961 0.00167455880687612 -0.000180465725011318 -0.0037784503455823 0.00150336312329999 0.00301204601636369 0.00224195360075066 -0.000358342885019139 0.000534159527400098 -0.0025914607349334 0.00117487197440172 -0.00819406570453788 -0.00408196327978324 -0.00120216682369138 0.00303536666970853 0.0043543387723014 0.00454484245297381 -0.000854734701314448 0.00197842919474078 0.00411211130080644 0.00237700384721835 0.00531404966224223 0.00374287878076089 0.000855110122222364 -0.00278699883866061 -0.00100929336901374 -0.0020147539211987 0.000333133442166988 0.00015877426604886 0.000835269084144117 -0.00469547443711562 -0.00577185905571473 0.00359006796486944 -0.00764491983342083 -0.000708086506731187 0 0.00378072174770823 0.00932606779054031 0.0041374595963983 0.00326813615210363 0.00634575098283079 -0.00120102456665848 -0.000366975895729295 -0.0127875095284144 -0.00842247069621263 -0.00702196070494802 -0.0069792683859694 -0.00359711886118446 -0.000804789138302362 -0.000654522271818445 -0.00533334951802013 -0.00443612887624664 -0.00389003239039723 -0.0021604102994064 0.00122013385523279 0.00157276879870168 0.0034657705696512 0.00487385160977004 0.00439159631777569 -0.0033144004232981 -0.00526688165433987 -0.00232937813721107 0.00239530126161997 -0.00198301598767705 -0.00392153520895619 4.38696944621721e-08 -0.00176825086518238 -0.00611054188106195 -0.00124839427154427 -0.00529084078939031 0.00285308341206719 -0.0025598314488425 0.00304773746409032 -0.00220504602654923 -0.00312045571680328 -0.00126038656799142 -0.000804563773856482 -0.00427870932767279 -0.00548639421921441 -0.00114696101898339 0.00282253384599479 0.00203212837708361 0.00398764299985483 0.00160937785840365 0.00139172256640957 0.00361399060538572 -0.00614843970544037 0.00135161693081834 0.00159640833017991 -0.00531112344158169 0 -0.00455605104359942 -0.00309482454427949 -0.00384391120990847 -0.00289594662981535 0 -0.0055937589615174 0.00175470570693143 -0.000353343860869756 -0.00165089164620672 0.00133507627014848 -0.00504846163077312 0.000207233398113978 0 -0.00256249744324317 0.00393003846975161 0.000462150094268343 0.00559499018124262 0.00706145376260959 0.00141703971899984 0.00354388930726174 0.00353481700504372 0.00283323433004649 0.00578555946897079 -0.00410073141940002 -0.00237602508796966 0.00219881092252946 -0.00262336754862154 0.000702490028474662 0.00228703344664907 -0.00468649879900183 0.0061020166588566 -0.00311058397715218 0.00455915441884412 -0.000364001343349894 -0.000849315898555061 -0.00231907851597188 0.00203620455756168 0.00434701381470108 0.00402338830199653 0.000994016020773414 0.000677366953333094 -0.00379247218918879 -0.00159077703026551 -0.000747862087395298 -0.00253868473455427 -0.000492768106422949 9.28486017241846e-05 -0.000599605705534797 -0.00410516899743295 0.00470044283840757 0.00327520735246758 -0.00844440398494544 -0.00406570975107353 -0.00481682207757512 -0.000943351401787891 -0.00132445183523406 0.000742710908874841 -0.00615902058018835 -0.00408602817477401 -0.00292021611421373 -0.00321500127859421 0.00191683857025643 0.00346683977607906 -0.00197517916702203 -0.00221817715005795 -0.000151285123384035 -0.0013411804421021 -0.00745360283878615 -5.37267430360198e-05 0.00245839175254319 0.000653036844854451 -7.397928204669e-05 -0.000352465422430508 0.00048341549267806 -0.00190113521550989 0.00062493817428473 0.00480359745421166 -0.000588466150094204 0.00313027548227911 0.0034623138854114 0.00051593799976878 -0.00479016435436271 0.00111453165682309 0.00148948700307075 0.000375239859151529 -0.00122172828101759 0.000768680759938814 0.00237265855021733 0.00293959636506973 0.00195515626105058 0.00345598921141757 0.00544932620140213 0.00288840702181813 -0.00102624797544131 0.00126830495849208 -0.00154921294816465 0.000640112191024561 -0.000302559025881818 -0.00221154677068221 -2.11241628031892e-05 -0.00047026259371163 0.00134196449845776 -0.00530450464580353 -0.00139993185358878 -0.00418425418852974 -0.00351633214249695 -0.000167921215168437 -7.64033470545928e-05 0.0035259260221935 0.0111146549343686 0.00127554675451636 0.00519401403756841 0.0033786196269616 0.00196308771894308 -0.00227188104266498 -0.0081200757311821 -0.00629368876449249 -0.00471867763247937 -0.00484103468490559 -0.00415696067460347 -0.00376688550495784 -0.00140525179004334 -0.00366358654095093 -0.00150758310469023 -0.000414344680277378 0.00582910636988154 -0.00585594575000639 -0.00838102582410703 -0.0018545294924086 -0.00378122143260084 -0.00243924275989065 -8.41933061122323e-06 0.0031424667532333 0.00394386044811296 0.00184894303121896 0.00138959437698713 -0.00353010981617085 -0.00311352378196855 0.000754298199621283 -0.00757156484164996 0 -0.00358378859467902 -0.000376670867679313 -0.00116186276214261 0.00042770348920659 -0.000761636049739475 -0.003668689172129 -0.00498960490707117 -0.00373240955422531 -0.000597577123502753 0.00266426049769273 -0.00381802765575005 -0.00367171642770692 -0.00310929178934908 -0.00364437222779318 -0.00196959060331549 -0.00344658409634141 -0.00191679588007139 -0.00671039355065633 -0.00744095133116675
-0.00129325349636315 0.00163770684412548 0.00284380637698304 0.00424831895312493 0.00147171258047772 -0.00151110438520754 0.00421065104075186 -0.00137509168642847 -0.00321136598639234 -0.000474630283788738 0.00179021500025352 0 -0.00806858843757675 1 -0.00132346996452465 -0.00510279172236888 0.00535781627260519 0 0 -0.00469765508810243 7.25756834933308e-05 -0.000129367851166882 0.000694391485569222 -0.000764391338499564 -0.00664755385010237 0.000601270775951009 -0.00413441566075329 -0.000223864708848283 -0.00232508890951835 0.00149259386362596 0.0037789152504473 0.00157141815124536 0.00896690431678138 0.00408289797555573 0.00523681118371787 0.00617372807216431 0.00465749926073147 0.00424889555030576 0.00269367649289679 0.00501098470398931 0.00575880192326918 0.00448704043451961 0.00355392143104018 0.00108888389252805 0.00839851423844792 0.00189113010569056 0.00659269754856708 0.00594426373236649 0.00243854188691067 0.00108778406820358 0.00285442865263179 0.00396232051103009 0.00195871115284353 0.00460449170888106 0.00152788861317519 0.000410820536193276 0.0024113115105944 -0.00146692623855336 0.00208443769656788 -0.00268279054241874 -0.00603562550348926 -0.00566308709395655 -0.000519619773992851 -0.00362275833628314 -0.0022796472613453 -0.00306358704761731 -0.00461868236592852 -0.00686108955316752 -0.0054268415487316 0.00264405436561902 0.00110138447724634 -0.00282474250297558 0.00079509397184997 -0.00145753994281621 -0.00138840012179971 0.00204821322475615 0.00167109613309261 -0.0020991238989526 -0.00117944802552672 0.000322347962048008 0.00066884189722642 -0.00208470060171738 0.00135739062004702 0.00490641328919412 8.72278866161759e-05 -0.00189058398222667 -0.000334038472162259 0.00198641289364219 -0.00272967059986648 -0.00305407304981212 0.0011462500066968 -0.000146297336759741 -0.00197789967991235 -0.0029674677264502 0.00133994270049637 0.000813459223546762 -0.00209382612775612 0.00146776939557225 -0.00358683427312813 -0.00141381834040328 0.000717568720438581 0.00381576909393887 0.000226415130535884 0.00589264257736414 0.00274792647101314 -0.000989223570719453 -0.0019125549456377 -0.00363335370221334 -0.00158068976203773 -0.00210377053872635 7.11295335115198e-05 0.00168421571042908 -0.00353928485126896 -0.00524028221265186 -0.00307663417919458 -0.00734872907333997 -0.0067757002437129 0 0.00037655912776451 -0.000901614112679035 -0.00324077573773497 -0.00282615394200825 0.0020943043581126 -0.00394762872721565 -0.0023143275864452 -0.00755885539245636 -0.00822261743328182 0.000192920172743163 -0.00303306088371142 -0.00378938605714726 -0.000827765827285281 -0.000604605303504525 -4.09768562987688e-05 0.00262764697317608 -0.00241769147403362 0.00168903942607276 -5.98070008027575e-05 -0.00207647616231745 0.000619342364791555 0.00390705676252416 0.00281797353822712 -0.00142718920219105 -0.0025124677875128 -0.00403211632697355 -0.00500455512096868 -0.00591072131586336 -0.00345595929618504 0.000302731966106098 -0.00364926144551608 -0.00611601400974704 -0.00235011290392721 -0.00568096956397992 0.000173511360485363 -0.00645584836765275 -0.00257044805266898 -0.000462866677649213 0.000816230698824641 -0.00136446197845402 -0.00150462219410015 -0.00369133873434575 -0.00410241823037143 0.000674199165216608 0.00235285648822103 -0.00201862477527478 0.00114693444749512 0.00319831024284333 -0.00205412006244875 -0.000433709930624098 -0.00523967765970268 0.00209924678931283 0.00178207949608004 -0.00245205187910921 0 -0.0036769533864756 -0.00503455101109488 -0.00357488384329211 -0.000462905584795726 0 -0.00164716253244462 0.000133330693282536 0.000240065349995193 0.00163142537372363 0.000205704160531157 -0.00164179961435995 -0.000476992703769235 0 2.04910798759944e-05 0.000910617587622888 -0.000816478252386237 0.00197331498985318 0.00124982993841867 -0.00210387712008734 0.00133015074525934 0.00595347264093787 0.00355205040318359 0.00500695088864059 -0.000715183017068365 0.00200880263777632 -0.000812648508451404 -0.00135790805686824 0.000597732013778246 0.00347025955048548 -0.00271600355696036 0.00295417561590927 0.00125839921748473 0.00296659323572859 0.00152396810298035 -0.00203780205378744 0.00301252562043727 0.00336934202032253 0.00062134359468154 0.00171203253342552 0.00395398731560258 0.000968315720712272 0.000365206243722178 0.000893363945237857 0.00160912636036436 -0.00111912792167674 -0.00102451025854134 -0.00201191864892196 -0.00132842797469553 -0.00160668918397773 0.000679338344820473 -0.00116230249294911 -0.00483120867471903 -0.00414399982260023 -0.0037988280507024 -0.00101879289433926 0.000350482928498479 -0.00120594966540849 -0.00426219669601186 -0.00401870614245423 -0.00325140376845916 0.000351921981039499 -0.000227818702854003 0.00250718024370787 -0.00185049149721372 0.000706683444396889 -0.00207451866295776 0.00071849286491486 -0.00261534986024281 0.000421057977774529 -0.00224420593476717 0.000245912409519312 -0.00216739465413097 -0.000364719241901072 0.000657014282480998 -0.000284286270477546 0.00281751563390709 0.000660851023441125 0.000865917764231544 0.000835950471367763 0.00255571380597512 0.000432943263983267 0.000820704527552638 0.00152824665313607 -0.00220699691814216 0.00333386912200394 -0.00154984453063076 -0.00142035005978206 0.0018544014390089 -0.000310545752263523 0.00118823167042093 0.00071108431634312 0.00292297224356983 -0.000616293050739197 0.000797500725121919 -0.00148030098044595 0.00109858938813692 0.00166468424060648 -0.00156684056466142 -0.00400515241918845 0.00126111138732371 0.00280684897438514 0.00134271828780969 -0.00387749676386023 -0.000175752826615725 -0.00714497444577372 -0.00494620069165473 -0.00229620115473406 -0.00145251265303177 0.00358105739472743 0.00123377482863795 -0.00369829081253305 0.00409997102642632 0.00293388060170404 -0.00181219214207468 -0.00775848569684126 -0.00802727511554607 -0.00924410705807015 -0.00518815692668044 -0.00437680091428301 0.00117135383927687 -0.000661862566086977 0.000438371202550181 0.00235902261200276 0.00121943981506854 -0.000883868583591011 0.00383940805148902 -0.000560146242540529 -0.00121302953616631 0.000292580168184921 0.00166216404619427 0.00456365423882381 0.00405417143530561 0.00588551859523378 0.00217400166163119 -0.000111547563129302 0.00247126138978034 -0.000427314033920353 -0.000752706806103751 0.00163084043219721 0.000375624172760255 0 -0.00407724449135573 -0.000772339267912128 -0.00292378763697503 -0.00248639549264988 -0.00449199671626887 -0.00448875451960551 -0.00483408194584621 -0.00244116433513701 -0.00538296690829869 -0.00045827304505889 -0.0062292607367395 -0.0050470963487958 0.00212670516314967 -0.000508040927291447 0.00442961000176598 -0.00175803437343379 -0.00782833636826654 -0.00265375081029781 -0.00817984873787645
0.00567002832952616 0.00754161706186601 0.00293500722180547 0.000897485690899237 0.00129991840726224 -0.00241895178642961 0.00475778175235291 -0.0042147260570494 -0.00350817223883004 0.00360476684613365 -0.00224142954191254 0 0.00343671614247758 -0.00132346996452465 1 -0.00272319719299015 -0.00158601664471859 0 0 -0.00209329209369638 4.74876746540501e-05 -0.000418140739799354 0.000230524297493595 -0.00359543884448095 0.000316703658429447 0.000429214994602778 0.00371610425647744 0.00162321045493928 0.00193270364635453 0.00270405901042932 0.00317116066378561 0.00138126325525377 0.00743064055600628 0.00491922705095302 0.00826529089857238 0.00364133874458928 3.5842481874828e-05 -0.000705553855568395 -0.00287726170645122 -0.000290486137182221 -0.00132283126356877 -0.00251627277502803 -0.0046217391547338 -0.00532346001222804 0.00515778594587022 0.00126235920481726 0.00592119297107858 0.00520095123958193 -0.00057685323669264 0.00413290681898041 0.00317889722351956 0.00502982768520184 0.00256708385027916 0.00648543579142297 0.000529283378800985 0.00241625578570449 0.00717938225974807 -0.00125634118016964 0.00152801709927024 0.00100865536004548 0.00144718092621265 -0.00226195292619827 0.00232892826558118 0.0040681619041288 0.00164686990181878 0.000799505740651199 0.00420608037797022 0.0013257209363492 0.0017761239693674 0.00519942446625571 -0.000494869725805398 -0.00307288668351607 -0.00232140087219717 -0.000923341357055906 -0.00190592955941046 -0.000817872127801337 0.00100732734005841 -0.00115748024794908 -0.000789498152882539 0.000312542587067681 4.54738557003808e-05 0.000650929336984186 -0.00136520096142589 -0.00256553523147862 -0.00119631363318057 -0.00127560679899692 0.00204895698368821 0.00613233258122583 7.75697764725365e-05 -0.00222604955110626 0.00489616985539766 0.000307287169276993 0.00381475122683203 -0.0037687655850441 0.000545945001024139 0.00383992922756508 0.00149305348798864 0.00353109169829664 0.000367006986724447 0.00260537434910103 -0.00148746420008051 -0.000427596909015848 0.0023590098255409 0.00692829371358485 0.00384252116897723 0.000106183548523858 -0.000981008320205855 0.000550399182516735 0.00220457182670007 0.00151310490806907 0.00233972999306955 0.000448140375860672 -0.000673284162119684 -0.00273092007279057 0.000350785754131475 -0.00465602489275533 -0.00346985370353825 0 0.00217633997384809 0.00264202521632858 0.00442100211116075 0.00450507704983375 0.00220755856490975 -0.000676697696129049 1.14746637142301e-05 -0.00670504713666653 -0.00561879959088251 -0.00390777169706015 -0.0044108246353028 -0.000962921689715426 0.000408650319527321 0.00082535771307071 0.000748661315580171 -0.00302947945693932 -0.00335771738210223 0.000255669672798992 0.00103270473838763 -0.00295978312722008 0.00889031933693293 0.00556572894562879 0.00166307789479843 -0.00262422933286288 -0.00167040965138864 0.0029408147024946 -0.00516691233443922 -0.0048235360028765 -0.00402415553534662 -0.00112774950152192 0.00219039628954265 -0.00140878758734419 -0.00187426113509829 -0.0018146255416361 0.000594436651183306 -0.00556168154404385 -0.00357383558778971 -0.00461693156675562 -0.000101750743031201 0.00298803315759977 0.000289920235126617 -0.00450727538688176 -0.00241289947652098 -0.0011715352236855 0.00927865586450526 0.000357667997038931 0.00171885645896936 0.00249860566245126 6.44876727545644e-05 0.00511926812475434 -0.00293069852994182 -0.000947317091433443 0.00187811618143086 -0.00608181721130082 0 0.000382025372696179 -0.00718161045163462 -0.00353474216119893 -0.00272222131045612 0 -0.00519718766103866 -0.000932822558797316 0.00403652288875409 -0.000142897315486058 0.000734664163604023 -0.0029163961716657 0.00206128141146043 0 -0.00172302443270231 0.00117687575685148 0.00291573980055295 0.00352034230684583 0.00151849367449448 0.00266251875357577 0.00444497345790914 7.09462624617452e-05 0.00242737371730045 0.0063610441657395 -0.00115786899897402 0.00233022722313566 -0.00040041243168497 -0.00203620479348414 0.00112148267659877 0.00331045703139765 0.000314443649796119 0.00052042789773415 0.00375629728907122 0.00504918536924541 -0.00193460690787654 -0.00151677379657293 0.00404651707209283 0.000752811208530127 0.00123733468435236 0.00331655544115489 0.0021839875471121 0.0054775267520136 0.00272089703851932 -0.000330997514603077 0.00323230093804619 -0.00164223830247108 -0.00184741041062995 -0.000599229426723253 0.00396020678102114 -0.00147513434426615 0.00383938007000282 0.00501388371468252 -0.00536424144685728 -0.00139481365663283 0.00191614398773779 0.00541687729170076 0.00362360003028744 0.00394647416618626 -0.00202004704315113 -0.000237044929169833 0.00503295952331524 0.000523333080947182 -0.00393606360315146 0.00286679065782991 -0.00127730642056609 0.00122641528299971 0.0022701546690119 0.00517548196637102 -0.000672743853214415 -2.68489484051789e-05 0.00269030223381772 -0.0024595685057628 -0.0018750820027242 0.00298709188643437 0.000884077321487627 -0.000915469021765316 -0.000152273846820085 0.00583047358333374 0.00362655922752812 0.00192211025852071 0.00485603299352075 -0.000464687514852899 -0.000441670696359157 0.00369258946806925 -0.00413876918131838 0.00151150651672795 -0.00370606902967402 0.00128995570326817 0.00391262961460594 0.00517252515998224 0.00243813184779924 0.00308378877155993 0.00597165221646774 0.00176297072527566 0.000345120494437895 0.00171081623508232 -0.000415712709220246 0.00248355117517597 1.7499472993101e-05 0.00149757690341389 0.00634025513598712 -0.000653925812302691 0.000521832355255149 -0.00523064133180025 0.00178554487633701 -0.00140729391861257 -0.003926922560549 7.37469749673396e-05 -0.000903928958528988 -0.000234587620986167 0.00768989094559942 0.00499127276263054 0.00526099575836789 0.00539519895532501 0.000287964939484481 -0.000372858286341955 -0.0102748648472436 -0.00734859892686438 -0.00806568976991001 -0.00453526327854699 -0.00269137235548635 -0.00902229767823603 -0.002691727682567 -0.000649107783918494 -0.00242483417240155 0.000558001235818727 0.00665533694036401 -5.60128689764267e-05 -0.00544125105551942 0.00124810763899787 0.00135537950801268 4.29386868996157e-05 -4.42441486473411e-05 0.00230390161322414 -0.00120136354639783 -0.000487210859701979 -0.00154426989907421 0.00239982720272914 0.00313522461038248 -0.00672151045556429 -0.00495295472211405 0 -0.00116000734741816 -0.00578163943577336 0.000485367164347085 0.00286428815699452 0.00312082406885228 0.00305196769644228 -0.00083024948605866 -1.01068114252884e-05 -0.00229666716548209 -0.000244223922321533 -0.00375361561421442 -0.00249682148160832 0.00413848892199951 -0.002758753880886 0.00182505902870401 -0.000454301963993015 -0.000188780293279108 -0.00197458897277453 -0.00780207675663282
