1 0.00601104963305557 -0.00251554363216121 1.36928688562592e-05 0.00106608476634058 -0.00121309418417434 0.00329140308893784 0.000936900796550871 -0.00185712290991411 0.00954961063065583 0.000442584285421041 0 0.00299729043102435 0.00809023936995782 -0.000214382894109526 0.000778709342933563 0.000883169623380171 0 0 0.00782305039475667 0.00466112838858837 0.00435703239795487 0.00178399604429146 0.00274580994756318 -0.00312017166581783 0.00576156568037009 0.00256030340947917 0.000420504471039629 -0.00298218685475152 0.00617403338980193 0.00496842792092543 0.000248346969658007 0.00307833380931643 0.000668985703944083 0.00169118154137087 0.000171565337426774 0.000559055925965027 -0.00105553972096907 -0.00388739631849263 0.00789780415610196 0.00815567787409881 0.00567544519208496 0.00124118538780428 0.000499629907537206 0.00213908782787942 0.00391838141597398 0.005814960240962 0.00490317833452213 0.0033922921628803 0.00856243250875603 0.00658417521665894 0.00293516940965856 -0.00151954784249659 0.00142071590931953 -0.000125771017017558 0.00665986895021789 0.00803716686306253 0.00119526094648502 -0.00244489356897009 0.00236561946791121 -0.00196287412080194 -0.00107935993088237 0.00182560655931579 0.00531107784420509 0.00635175590769499 0.000158881562885886 0.00361356406756284 -0.00193864851085777 0.0111097989331251 0.00426691979585171 -0.000729633861425665 -0.00283234736987142 -0.00113324177153011 0.00333330021210604 0.00257085979278251 0.00167739728862983 0.00576128570239235 0.00490684068846109 0.00895914570105443 -0.00245712844953776 -0.00223231729734168 -0.00588209382425493 -0.00484388203477726 0.000978136385917184 0.00576259176325676 0.00301917475962457 0.00643170264285722 0.00305612344035137 0.00468921612148026 3.72326809712212e-05 0.00404229065011989 0.00912798230988101 0.00396618475919866 -0.00232957527410823 0.00145443670174262 0.00133426495941187 0.00410421055345783 -0.00168518662854896 -0.00141942029232395 0.00237548948456333 0.000737539313839183 0.00297522368728764 0.00476380938904469 0.00567084583891831 -8.90286325920806e-05 0.00640298564659377 0.00691560162005869 0.00973647283159482 0.00686859862684293 0.00617627824067169 0.00287062618479404 0.00739617874254665 0.00516721101371835 0.000920853446254345 0.00296790838267588 0.000215299145757702 -0.00269462605771704 0 0.00326894457686349 0.00577100585756581 0.0013254972629508 0.00253757060773904 -0.00040468042588234 0.0035026464334274 0.00230355071546542 -0.00447924383556854 -0.00449319042312011 -0.00021423703365457 -0.00395258855440269 0.0026099397716147 0.00483269538359782 -0.00210589373387694 -0.000937322366154612 -0.00170810215297234 0.00329788743231052 0.0061922260255698 -0.00401722060689047 0.00101504805219059 -0.000197477930358091 0.00178553482575577 0.00823354052519868 0.0086800770132842 0.00512131316154031 0.0065621561571508 -0.00511505489572616 -0.00197375784400491 -0.00268448633060719 0.00532346035915592 0.00211059385533762 -0.0036991029742629 0.00184500290513358 -0.00481698597040046 0.00569085891475161 0.00487960571425232 0.00131500503600173 0.00318775404923417 0.00302646976791617 0.005146101682323 -0.00521037393366199 -0.00152491288726843 -0.00626399450056551 -0.00475931592743036 -0.00626148752070819 -0.00231126285055223 -0.00218047796009351 -0.000527758397776843 0.00354656199475341 0.00193744478013497 0.00309028738279194 0.000937469547110638 0.00470557657280088 -0.00804523700291705 0 0.00777252401935921 -0.00519465579035265 0.000658028412522688 -0.000932231762184602 0 0.00884837985529601 -0.00155390185740957 0.00305585798776885 -0.0010619521251071 -0.00525338864973494 -0.00735757708277089 0.00242700280239228 0 -0.000503617562641405 -0.00411312130905405 -0.0050855005687362 0.000558931974615921 -0.000959583892755287 -0.00344216763437058 -0.00224065131294002 -0.000701815737115252 3.33080546215426e-05 -0.00650386018780654 0.00144637387423999 0.000625940826392844 0.00323567267926668 0.000772735376379122 -0.000735428938998507 0.000899853732046576 0.0031067669301799 0.00031500589057967 0.000856760060106271 -0.00509936455629757 0.00386102050559801 0.00358518200392385 0.00387544928108934 -5.43576667475186e-06 0.0043070144979504 0.000863832034423337 0.00433940456392918 0.00269955936934276 0.000149369920642961 -7.20972199220207e-05 0.00212692649595185 -0.000798453697039795 -0.00189198821264992 -0.000507190297043137 -0.00163019256202596 -0.0025477694339009 0.00459563305391953 0.00525222705731673 -0.00337675624656985 -0.00836993953477943 -0.00245919135776996 -0.00536055166512308 -0.00185977714609482 -0.00247460182379808 0.000816868665128618 -0.00417979924032068 0.00017307900765977 0.00114059239402268 -0.00375131296416377 0.00221804344257182 -0.00260585207047942 -0.000881494369734691 0.0048144688038016 0.00419834328719406 -0.000208470212515607 0.00102069360923604 -0.00436435216215413 0.00532399625383154 -0.00622756718924517 -0.00607966056652832 -0.00891383130355189 -0.0075204887406717 -0.00811603826325267 0.00484077530143215 0.00114690041237459 0.00101363662299964 -0.000137646402902673 -0.00385909090831196 -0.00293364385481639 -0.00945702923934885 0.00147343265441701 -0.00186569044140742 -0.0130840931353507 -0.00295386130423796 -0.00712288596116725 0.000216563444540055 0.00267818806317427 -0.00538216678266077 0.000944747610096351 0.00103026579727396 -0.00292899904354098 0.000361045662972448 0.00573748959191559 0.00146719416447163 0.00238265271265979 0.00416411978516342 0.0109269688321841 -0.003862662880222 0.000924261885033331 0.00102779404474931 -0.00327504264476247 -0.000390360285545692 -0.00663642462877445 -0.00624048689017133 -0.00137512316508443 -0.00221566377778457 -0.00138151475516807 -0.00131100516823721 -0.00175574286475535 -0.00252044020672303 0.00240220452246139 -0.00105320049360727 -0.00290451223764392 -0.00395079207481928 -0.00175666208661834 -0.0112584811201897 0.00384182396996823 0.00496986058169047 0.00160920459155234 0.00565329360985656 0.000165617416997685 0.00357862005556093 0.00594687947212825 -0.0046990468468833 -0.00313408363613111 0.000481235569159914 -0.00796649205069407 0.00274751470552441 0.00185229385560795 -0.00792757964415248 -0.00209059670380317 -0.00172400702626138 0.00314483659367088 -0.00410585853991488 -0.000399302371401039 0.00455199365013252 0.00602947208713388 0 -0.00139220941460609 -0.00553932260284536 0.00209582439760458 0.000101301128508543 -0.000447014564733307 0.0017549850310702 -0.00345920010994659 -0.00713364193830857 -0.00356311443319831 -0.00128696419299157 -0.00489854844820246 0.00044410039980173 0.00385331878371491 0.00400167535884738 0.00436392177218438 -0.00468288685112644 -0.00452203341546907 -0.00921525482647957 -0.00407051655003115
0.00601104963305557 1 -0.00206548785600459 -0.000929262110687833 0.0048852984965808 0.00282333729423182 0.00906496542369885 0.00277406056021248 0.000238057220968165 -0.000367846721742864 0.00180497297006819 0 0.009818961772253 0.00343488703313181 0.00528241607638364 0.00488013729806585 0.00667320630847537 0 0 0.00759461806955945 -0.00176040143372878 -0.00130521158537116 -0.000267883497692542 -0.000743701828855527 0.00338008999960517 0.00376316482946363 -0.000425794656326495 -9.92512547256169e-05 -0.00502497653307946 0.00321574916855588 0.00275180399243661 -0.00136891197963384 0.00798804117881861 0.00191273199635897 0.000759529077333604 0.00240845291174318 -0.00329805181234841 -0.00586303714833993 -0.00808582101249837 -0.00132238468254933 -0.00723559945172878 -0.00535637184056214 -0.00468633686114469 -0.00189028307774352 -0.00543682055090472 0.000701658121290767 -0.000420112170683155 0.00127713424072283 -0.00205492178233224 0.00181502089685371 0.00503218470996382 0.00825100257765582 -0.00170506487575514 -0.0028225979544399 -0.00239823080309369 -0.000411669151892812 0.0025130238630104 -0.00179655064635929 -0.00546179244451183 -0.00118690115796172 -0.00690252428386755 -0.00400174923431333 -0.00133009665739118 -0.000981419821400894 0.000737715953287776 -0.000435506507125416 -0.00204581099691131 0.000668717197519403 -0.00363220053387826 -0.00249422749905716 -0.000681242994399792 -0.00403246504694151 -0.010949718788632 0.00860041493326399 0.00394585738776395 -0.000106537374947007 0.000529078544445514 0.0039069284918391 0.00136035466072775 -0.00416387719530079 -0.00160295099653883 -0.000427958883176607 -0.00487123318143319 0.000815004064611934 -0.00184582414348286 -0.00265786911399608 -0.000359446546864673 0.00345109218831018 0.011245762855101 0.00809030458634924 0.00594516260256105 8.8936982522178e-05 0.00427412560986596 0.0068641942346918 0.00488285301925267 0.00491726399271943 0.00322553625474712 0.00252197229109148 0.000723577701169338 0.00150183758848566 0.000383444386791152 0.00539025696322241 -0.00124779363930373 0.00176745779584412 0.00329699251101725 -0.00223925721326518 0.000421716359052127 0.00794886082018686 0.00227017605283164 0.00787421882867963 -0.000804473740655243 -0.00340847152416869 -0.00249518480169946 0.00259456278190212 0.00121299761060421 -0.00180939010915807 -0.00611319342629342 0 0.00102885892308316 0.00506965475338376 0.00191822391406992 -0.000446702218404273 -0.00383329493505227 -0.000817731398152023 0.00147173982487082 -0.0122466423813303 -0.0103245015378422 -0.00606279392118297 -0.003136105954501 0.00351942532857493 0.00534247477991496 0.00113904024773929 -0.00203083638211582 -0.0019079694094748 0.00319261072076253 0.00288904624681941 0.00868781260469683 0.00382671347288961 0.00344009423601935 -0.0013995604143275 0.00777869576081462 0.00563835910072332 0.000566988535268937 0.00386378117773568 -0.000431523573055898 0.00622613099354548 0.00815709865475397 0.00419086069775657 0.0123262628296898 0.00266674089612242 0.00255193217115479 -0.00231512083205401 0.00739608869668477 0.00656214693377303 0.00253759816099543 0.00237840214584238 0.00251427314398085 0.000322348999576497 -0.00689118704178404 -0.000971544082167283 -0.00469093796076758 0.00272611864534837 0.00239002402857301 0.000383807728031265 -0.00320196094302052 0.000486745369483392 0.00543649386219849 0.00231594043023398 0.00382728682954918 -0.00252079674495929 -0.00305225491765122 -0.00789396839170703 0 0.00730015773933035 0.00111682074533511 0.00437830201282057 0.00407363425115879 0 0.00219510724923251 -0.00028912965936723 -0.00263306842171994 -0.00475886878572798 -0.00215463063904811 -0.0063211517612204 -0.00230483106894806 0 -0.00378154297233286 -0.00487298153970949 0.00195692168967026 0.000555218362614466 -0.00353853128153799 0.000570341870466947 -0.00140208555924554 0.000202507618280957 -0.00135824610950385 -0.000534086979546735 -0.000810803672860833 -0.00102908321635566 -0.00619088665362125 -0.00259785824600281 -0.00734724710991318 -0.00548383079680888 -0.00442688042174025 -0.00204202872870717 -0.00254475534318703 -0.000554671903582046 0.00289406654904175 -0.0015190211109086 -0.00203855789895224 -0.000851994854006195 0.00494601330032359 -0.000431334218529665 -0.00430821559540677 0.000213322417656404 -0.00635613785955333 -0.00538759740751082 -0.00747910817355779 -0.00686762303218045 0.00260738965095693 0.00436282740269971 -0.00818642738906428 -0.00862539560273524 -0.000126607717402483 0.00357256138835415 -0.00773543664671046 -0.00565097864929325 -0.00432229624306316 -0.00232821242909751 -0.006038288106188 -0.00242952450564333 -0.00552507318157793 -0.00550646911635393 -0.00417803486376131 0.000253259463468955 -0.00768215174777006 0.00440609012558178 0.00113828605316731 -0.00414393270542284 -0.00322851599971923 -0.0034622794631372 -0.00157918034366216 -0.00100691098783191 -0.00524281487874529 -0.00791454148039791 -0.00351038917746463 -0.00404301246085043 -0.00199336030895262 -0.0088834003319151 -0.0034947271838136 0.00438797147265301 -0.00438189519468263 -0.00198951911546187 -0.00278480079014963 0.00277283862855169 3.19495249993532e-05 0.00445561223568328 -0.00363548734907899 -0.00353672537308831 0.000899992576319203 0.005488206545243 0.0041423673835813 -0.00134946937585989 0.000801265352676368 0.00062016050234322 0.00308554689623217 -0.00142861548297795 -0.00359492687340863 0.00296058853602257 -0.0048764185023507 -0.006006368427386 -0.00487061249549857 0.00253503303176253 0.00401721260413862 -0.00780394408481228 -0.00729026821202017 -0.00855031822646829 0.00365921887260335 -0.000823646022219985 -0.00541736616388343 -0.00250689375516251 -0.00161518840531882 0.00079448327144201 0.00532362363050268 0.00120832753533478 0.00311086616326969 -0.005484966593851 -0.00172839015487475 1.76614187522213e-05 0.0016669218634427 -0.00413505133940967 -0.00252106995323112 -0.00648946016620694 0.00411733933349641 0.00609335263270912 -0.00145870335316284 7.29805656700603e-05 0.00132867967115862 0.00252199474614279 0.00477353979774874 -0.00302818946564755 -0.0113300719862528 0.00172583886229399 -0.00656389481694471 -0.00245083978857259 -0.00444525593883961 -0.00555431458873372 0.00462490691531499 0.00431232358140238 0.00591746302412026 0.00398066866917413 0.00634376982033209 0.00217259970987489 0.00590121765532893 0 -0.00397402454696161 -0.000847842968402662 0.00637489169406976 0.00336712059923409 0.000185015554089761 -0.000741749029080035 0.00537087147225688 -0.00159747348686608 -0.00267126417947589 -0.00193710147375159 -0.00425211441836711 -0.00426952200537759 0.00116417150601859 -0.00334012151361357 2.36162990463078e-05 -0.00184626350127773 0.000406054316042207 -0.0054094085893834 -0.0114503524746025
-0.00251554363216121 -0.00206548785600459 1 -0.000463969689767382 0.000101407516480822 0.00430905000216223 0.00410146398265315 0.00241447732735697 0.00397511671018392 0.00544097661909523 0.00168389565565035 0 0.00029791341426709 -0.000961753347617035 -0.00320840860398541 0.00253139227971108 -0.00052265001777404 0 0 -0.00120514802998915 0.00117109462839653 -0.00204484560864147 -0.000469010465317936 -0.00387850564423252 0.00553294679274764 -0.00436356350806597 -0.00163624366231831 -0.00227399406684687 0.0023871742818967 -0.000806308427269693 -0.000632260202139968 -0.000705895012914356 -0.00696190204606665 0.00151058471623167 -0.00595298053322308 -0.00371072799396188 0.000936124698604435 0.00861369898852339 0.00253213303053155 -0.00344883204212649 -0.00356432644349718 -0.00137274374956467 -0.00454226531117696 -0.000708615051398812 0.00539808994795906 0.00356619761138808 0.00454525832277521 -0.000694574509641642 0.000280572188923282 0.00440457550782769 0.00404472396428886 0.00392374952445581 -0.0019397521131596 0.00639543576108286 0.00373758441026582 0.00882159613929777 0.00435472484222704 0.00751085530023916 0.0038500503324491 0.000793418834985068 0.00208985338378952 -0.00392772843772983 0.00867009050535702 0.00744756691721865 0.00562553849471888 -0.000509132591582263 0.00652100388614012 0.00200177364881096 0.00455939901638284 0.0023122030071131 0.00624321076179535 -0.000161109113482424 -0.00238774914678079 0.00313628043383182 -0.00417974481610281 0.00545884410295455 0.00551340837704848 0.00758802055355769 0.00797349385596364 -0.00299476012221196 0.00245323084715181 -0.00331916648698697 -0.00473143915028597 -0.00251886540426863 0.000686038245533323 -4.54638890914869e-05 -0.00191857067210312 0.0013905593803276 -0.00275446917995105 -0.00204854901010663 -0.00365934219178588 -0.0011128604480376 -0.00500098746764721 -0.000805858108582204 0.00270087266774957 0.00125054385508802 -0.00100160502726365 -0.00494161955305713 0.00305384628761955 0.00416314790891974 -0.00183311805819672 -0.00214389546168761 0.0133053903149837 0.00542457572466832 0.0046395858844662 0.00788969383497475 0.000374167304465952 0.00495128624650499 0.00785613798008108 0.00800062610486294 0.00126177407041817 0.00517841088156663 0.00678612645083169 0.00544431589318644 0.00544139716771604 -0.00422466815128082 -0.00174202151097044 0 0.00513102484984983 0.00702467063837954 0.00466598547064354 0.0026395434705814 -0.00509790193509099 -0.00342817750342655 -0.00303051072274989 -0.00136564746551323 0.00104591197346996 -0.00489106835866595 -0.00397870821931597 -0.000274537336773147 0.00113956310609957 -0.000201195932312566 0.00416364621799724 -0.00169052912902981 -0.00364282264891055 -0.000922316106314302 -0.00335210912233069 0.000379284228738768 -0.00117482940119665 -0.00477975580937416 0.000992149212379939 -0.00322225108410363 0.000631838190415793 0.000269327575088006 0.00724491938827979 0.00743068141269212 0.00371367149862269 0.00064504150000995 -0.00241445844321788 -0.00290182407632684 -0.00283674513904689 -0.000160688587885375 0.00740683096705312 -0.00362682314111315 0.00855663368358981 -0.00538288046778538 0.00402828685234047 0.00299341895628596 0.00400363996493009 0.00304666351256832 -0.00776287712574905 -0.00502392421112917 -0.00522255760725257 -0.00224085644792356 -0.00116375143989889 -0.00498102410437122 0.00526787113970879 0.00508533725632588 -0.00473707581061198 -0.00354465740248955 0.0042753075000877 0.00265261855984886 0 4.59161865010133e-05 8.01842595517768e-06 -0.00137401921590348 -0.0036842797369187 0 0.0021065508101439 -0.00471754111881735 -0.00289709310922307 -0.00224456132594007 -0.000972572844002664 -0.0030078911554072 -0.00329704987620796 0 -0.00699395896353517 -0.000617943709915127 -0.00941660729181519 -0.0034107417053173 -0.00470330543341558 -0.000468291762474276 -0.00825994662296244 -0.00147815251279448 -0.00131783845470021 0.000643712086637005 -0.00193529948492708 -0.00342040605170439 -0.00293075274785249 -0.0066209974160644 0.00606782165953779 -0.00145841141256213 -0.00323390901828983 -0.00547824217079052 0.00263453951055173 -0.00292580633468846 -0.00413302653447662 0.00116258298997868 -0.000901525662073288 -0.000415330546724327 0.00163852422121403 0.000464302144224498 0.0053200065489075 0.000294190637599667 0.00816018273580676 0.00439662128066556 0.00459352326774691 0.00693397415242663 0.00400739341747415 -0.00103783458265458 -0.00337912230628538 -0.00275896813707462 0.00991598913390093 0.00579991276675136 -0.00188785705307356 -0.00209756442511201 0.00345771042548253 -0.00306642955640496 -0.00386989092321674 -0.000400788746666287 -0.00144813472233002 -0.00165931477872723 -1.65389361971725e-05 0.0028196441750588 0.00232963176182414 0.00243051043130529 -0.00218848170259636 0.00542894540890331 0.00150649531268591 0.000696551389183426 -0.000414942059166246 0.000586187267695013 -0.00355175283242679 0.00356614625327385 0.000222210923934609 0.000174502138718586 -0.00325952086161169 0.000222740225585789 -0.000392525269590653 0.0022474522927317 -0.00432211641081161 -0.00889116423731561 -0.00929577539679273 -0.00421355497985708 -0.00139784153759395 -0.00262741548759601 -0.00819268683691083 -0.00463026468307549 -0.00415455564358045 -0.00278738367132882 -0.00597940085835913 -0.0039098365687088 -0.00695362160448104 -0.00409909926092009 -0.00380313093005224 -0.00322779618548734 -0.00771697456883389 -0.00187057928962572 0.00214834696778141 0.0076051110827319 -0.00297042237402211 0.00366677104625191 0.00571323459802322 0.00749883947861464 0.00411024841168378 0.000285239472083474 0.00214322395113121 -0.00237500886774581 -0.00327953819850849 -0.00326558851088614 -0.00355903387812788 -0.00181490578244748 0.00172281999334819 -0.00274230075222155 -0.00869535113642244 -0.00472690366710262 -0.00455327253543328 -0.0029036100457225 -0.00203908748691902 -0.00445022078973369 -0.00845249971937506 0.000542913444658909 -0.00629351153942342 -0.00260065900338641 -0.00199801398729347 0.00560531241581933 -0.00240992944529538 -0.00394558950615428 -0.00622059589504863 -0.00619268567512808 -0.00916457323261724 -0.00805176716592854 0.000989082233475608 -0.00390863878044562 -0.00301584695836789 -0.00992126542591441 -0.00230984949799223 0.000438453631155119 0.000263444566611817 0.000486566943503257 -0.00216081097562723 -0.00110157731675561 -0.00316381798747819 0 -0.00288673026509499 -0.00369911455657505 0.00090349914324742 0.00527107911290269 0.000269687293151941 -0.000835798707866064 -0.000738310237078655 -0.00122774573719797 0.000335828729644165 0.00108828553386174 -0.000728634365361731 0.00037480567615326 -0.00195347243839579 -0.0053634640693018 0.00167277772889762 0.000339724905292984 -0.000399813680663812 -0.00347958918338056 -0.00493168666536498
1.36928688562592e-05 -0.000929262110687833 -0.000463969689767382 1 -0.00442686066837898 -0.00438389989297459 -0.0138535846169412 0.0017606819347587 -0.00326308364249858 -0.00488077114469496 0.000610178355308217 0 -0.00545295495682251 0.00243192171697547 -0.00536590226973618 -0.00202912881570494 -0.000864503096388684 0 0 -0.00105392362149103 0.00337754697845583 0.00819557565605991 0.00354912484584924 0.00983459817041811 0.00699985571238046 0.00541180720402581 0.00681256568609593 0.00536851616851202 0.0034884136344051 0.000111928727753109 -0.00101975852001571 0.000942153514423284 0.0055835299570358 0.00537736065026321 0.00110243374616273 0.0024982764517476 0.00608551253526597 0.00233595487289131 0.00417659613770544 0.00672169461362982 0.00539536831633934 0.00404813729899648 0.00279628257527633 0.00486089215746506 0.0036099838544463 0.00150062503885429 0.00359413515607953 0.00585452307109646 0.00107823968964887 0.000711967024182983 0.00149359119626561 -0.00201586308903277 -0.000119862119543069 -0.00239147159456268 0.000707479446764932 0.00114029681093446 -0.00149897009896314 0.00051378350122118 -0.000931577204120976 0.00120220780540443 -0.00311410577901917 0.00065158044942077 -0.00376380014365777 -0.00495653429889551 -0.00660831746206136 0.00210608831855766 -0.00347743012311424 -0.000883553565540382 -0.00393545900402595 -0.000134650355755805 0.00214782223120679 0.00325391014739186 0.00192370059447392 -0.0108601521494839 -0.0053542221692022 0.00223992339343608 -0.000823752367294415 -0.00726444811411692 -0.00396535274390275 0.00195503793058667 0.0057185596173342 0.00413173675538622 0.00420783417016294 0.00692039540959058 -0.00553390235011637 -0.0060641272125133 -0.00130144230379821 -0.00594600087261091 -0.00101661257198179 -0.00205761719029641 -0.00184383908231767 -0.00209117848913276 0.00162356137822077 -0.00521248622399984 -0.00593201504339596 -0.00270605630783251 -0.00821123096451857 -0.0053863039830064 -0.0051896457663808 -0.00563937319111394 -0.00106812171077363 -0.00273130758586476 -0.00614465096593964 -0.000506802756304368 -0.00506448458577365 -0.00534254884923692 0.000442257306006102 -0.00573045870833432 -0.0103117587428664 -0.0103095674582112 0.000131641812586208 -0.00484439795362582 -0.00268067797906829 -0.00523820617776607 -0.00665116221306595 -0.00248232404618929 0.00260906404485644 0 -0.00513516106780111 -0.00884820100658572 -0.00641686445368643 -0.00568032851950655 0.000743525221494935 0.000304268691980753 0.00431340278931693 0.00340755878101821 0.00241823980280851 0.00807781690187437 0.00269778577610926 -0.00807686701600538 -0.00655289619421392 -0.00772520730008204 -0.00469779536157999 0.00643569719661783 0.00190129159762782 -0.00834084804421736 0.00276823802319855 -0.00219015201283988 -0.00321520568718636 -0.00300964033689807 -0.00433898440688303 -0.000991591582045669 -0.00876143472270009 -0.00525331719773079 0.002763015046822 0.000593281796969575 -0.00493700647570614 -0.00689712486077029 -0.0098535077906169 0.00342194324624738 -0.00818709820168546 0.00714824216666837 -0.00685914565341301 0.00392144382601013 -0.00768618746983087 0.00136311696998369 -0.000139710142795874 -0.00439779896546582 0.00331580109425894 0.00310128723288876 0.00622031781539639 -0.00361274253964836 -0.00452538983962378 -0.000816336904556237 0.003885079735741 0.000355651660305427 -0.00512621869553128 -0.00995586571224483 -0.00398257147285391 0.00077043803205493 -0.0050440369640235 0.00112160553430771 0 -0.00410299459819837 -0.000802418183518484 -0.00246478199166175 0.000732300691672144 0 -0.0018040810050579 0.00494303947534358 0.00542474049826898 0.00573411170509449 0.00772504394200216 0.00396172784073875 0.00892708398964713 0 0.00865293737539943 0.00378993770186289 -0.0010475694935069 -0.00310770467245081 -0.000728290845153274 0.0079590353554687 -0.00224310238809043 0.00622925127870405 0.00385530392183526 0.00131945514990457 -0.000877379611434151 0.00106056464503812 0.00463678513701615 0.00128850416918808 0.00190650858955228 -0.000885885641289344 0.00193734496008607 -0.0030227735771743 0.00331010677952815 0.0019435681106277 0.00337015536854728 0.00120410475030589 0.0019591358733026 0.00431243828891749 0.00115414687339681 0.00128119952205762 0.00476337452877549 -0.000695339854610945 0.00253344096178916 0.00181888891850219 -0.00219212788075275 -0.000352201273016708 -0.0039047877341957 -0.00280888419763835 0.00288178796609854 0.00301940009790717 -0.00180017459894795 -0.00321265202374927 0.00259896969752825 0.00326437152656636 -0.0016458376505387 -0.0015236107313404 0.00543319567777453 0.000362990501714632 0.00430798929218143 0.0059725334310914 -0.00118902110215878 0.00233143169433423 0.00603006927047896 -0.00900526187317749 -0.00165969027376388 0.00175139905324685 -0.000976366381783123 -0.00489768243800784 -0.00619180195258225 -0.000718978558843722 0.0024716585794022 -0.00128136048800644 0.000844359426175445 0.00176458329482611 0.00479621281855168 0.00320461969214317 0.000343176899553998 -0.00996027640639693 -0.000551050633746162 -0.00383291834654019 -0.00298389830165714 -0.00500326404177078 -0.00116764023596423 -0.000191834952538968 -0.000865097255511939 -0.00335210656211829 -0.00382382107075359 -0.0024014889628757 -0.00387844659617243 -0.00155355237875536 -0.00309942598677081 2.6106369035502e-05 -0.00107696282232165 0.00408552798062319 0.00151812763608727 -0.000520714132456179 -0.000655987787456634 0.000333396060813073 -0.0021725586907927 -0.00769949089097102 -0.00451492334772789 -0.000287779474473939 -0.00464077787149644 -0.00309565852635714 -0.00851542440124527 -0.00262796944992014 0.00240812868347501 0.00392199470905276 -0.00865727039689149 0.00153621017809293 -0.00355051269151665 -0.00439246271474277 -0.00107218831856959 -0.000631137049811889 -0.00110943441410365 0.00220392451172233 -0.00150921055985805 0.00733858614199154 0.00425356691062623 0.00212877746886518 -0.00215062614803924 -0.00208832829802278 -0.00606877655223716 -0.00188251360487489 0.00326679741405899 -0.00250099262774259 -0.00257461490997169 0.00542023940949806 0.00018851776596759 0.00238734962406681 -0.00163635646576237 -0.00164043787999858 0.00507481123035884 -0.0029627397378497 0.00167732738890509 -0.000148137000739693 -0.0031442886623485 -0.00260849935944727 -0.000662592776005987 0.00433105022600426 -0.00149245684096449 0 0.00311304541280768 0.00263988239746409 9.76565316564335e-06 -0.00724342868710679 -0.00862361525552701 -0.0127014890321828 -0.00193662568134511 0.00409672166392634 0.00735357229219958 0.00122299793470681 0.00731865435825624 -0.00549864887760082 -0.00593309954547324 -0.000980786589377609 0.00317153886117676 -0.00161567401448966 0.00222745098368247 0.00270273620359198 0.00943474643061893
0.00106608476634058 0.0048852984965808 0.000101407516480822 -0.00442686066837898 1 0.00702460745118339 -0.000307062621526978 0.0077610826984585 -0.00200103371307703 0.00417520072798973 0.00154885945124821 0 -0.00202227915505769 -0.000857053158665918 0.000165500036808985 0.000991712798854874 0.00430501935567803 0 0 0.00219020546491513 0.00146701738373089 -0.00223318873020103 -0.00178861219238952 -0.00413139700347087 -0.00638366652745878 -0.00349619552271506 -0.00202265831157232 -0.00869496440115745 -0.00657431546689751 0.00293644550802273 0.00709096167173384 0.00100926187676279 0.000750909157247835 -0.00594768162186471 -0.00120988467318084 -0.00145497603401852 -0.00166555577523379 0.00292745698227619 -0.000326948931896134 0.00440792676463024 0.0017395651824637 -0.0057250311622053 -0.00353601490818212 -0.0049770176770262 0.00290150554479923 0.00420441708941422 0.00349817074167624 -6.94917237493501e-05 -0.00195270639301862 0.0104817654908246 0.00200378388274909 -0.00307059636388976 -0.000406801297111127 0.00226469035481471 6.28633565353393e-05 0.00569372269724362 0.00963196358912416 0.00516068477017181 0.000956758474951712 0.000737124219430009 -0.00133970113202786 0.00316291573518028 0.00258168213516164 0.00811937181249291 0.00472988284343834 -0.00152559089645071 0.00308656882770214 0.00195378287765332 -0.000146800651857602 0.00151309849029926 -0.00482848499946249 -5.17345319546064e-05 0.00304693895904523 0.00271870251024588 0.00540892953016761 3.39965221551957e-05 0.00171438699995133 0.00406746612711819 0.00579382251320505 0.00293944871647243 -0.00798992902338649 -0.00470942311241194 -0.0038172037141814 -0.00334024170627318 0.00656407879368789 0.00194326109301782 0.00141097013108457 -6.08416407103473e-05 -0.00434754445044219 0.00104952049169597 0.00457643976564667 0.00586106730684683 -0.00550267432584334 0.00366556958345661 0.000598742577552749 -0.00322608804618424 0.00311581163326622 0.00212627070852586 0.00299949902846621 0.0026863123702592 0.000188337887936478 0.00271801387307441 0.00446272404652844 0.00155627164453494 -0.00403414902028193 0.00325619551633865 0.00506966284341688 0.0120725813751949 0.00242873967295806 0.00623564309319872 0.00189268059006821 0.00159290483098896 0.00326180821737841 0.00489991953443306 0.0030277704168202 -0.00304466322495537 -0.00683237254823618 0 0.00501063633434812 0.00450518905799891 0.00145994723269423 0.00135165234388198 -0.00360733127363205 0.000495104675964042 0.00209420489986594 -0.000887066195334721 0.00318732353998566 0.00310145723673601 0.0081726756032742 0.00323744344109939 0.00582559522679583 -0.000247257468495152 -0.00136884615330914 -0.00191165465635978 0.00437684298367564 0.00737277084024773 0.00102709214747583 0.00567606808360299 -0.00150588974526988 -0.00368697273922937 0.000490571973461267 0.00481400693386912 0.00857639540973838 0.00271447269614717 -0.0015313709657885 5.4014690961532e-05 -0.00322638459247656 0.00586725026412994 -0.00224380744954437 -0.00611476714426579 0.00283776297452346 -0.00697891745770288 0.00318236170305791 0.0015362523726428 0.00192571582295539 -0.00221946801890302 0.00355675576517604 0.00580595037188664 0.00202765080297894 0.00096557487169599 -0.00116708537825743 0.00216286303738602 -0.00278316202159051 -0.000148578859094578 -0.00563459881991644 0.00183037178611544 0.0008319637941025 0.00174366253368244 0.00584158501906822 -0.000492139509802269 0.0045729393670391 0.00227891009681784 0 0.00106532376097053 -0.00200375532891623 -0.00255168724689452 0.00474160968648196 0 0.00706294641168556 -0.00183193880964802 -0.0065138068260369 -0.00459444413646934 -0.0097581863239117 -0.00485889650950596 -0.00318812421717425 0 -0.00866829577593902 -0.00988641178130472 -0.00477443546015427 0.00112288261326788 -0.0051383093295189 -0.00770951298881887 0.000734718898627256 -0.00324361102996233 -0.00355230661450006 -0.0101846830039085 0.0046615843487034 -0.00118732996525242 -0.0023957887569488 -0.00532155825244239 0.00280665319074774 -0.000696092798763331 0.0013640353279702 -0.00295665367527367 0.00118084749396409 -0.00031600164457863 -0.00278984994261209 -0.00140129229663314 0.00343477977352881 0.00305551807121663 0.000803667213939963 0.00121210972132861 0.00265169000365087 0.00687431723087351 0.00447274672792331 0.00429366458975661 0.00348335647220363 0.00294185680925051 0.00032671585003058 0.0027252337295168 -0.00137158814373789 0.00322259808355562 0.00661256770019241 0.00420125887937673 -0.00169544356337792 -0.00415192595314566 0.00139953032255936 -0.00150891380303189 -0.00170232923137906 0.00265132532968479 -0.00118811207272482 -0.000763638115765305 0.00373122979042628 -0.00250549992692289 0.00216572952578802 0.00578907710070971 0.00573138420070789 -0.00453855739964122 -0.000368346071823011 0.00614130103409128 0.00957282994695753 0.00380786463186972 -0.00379521868228911 -0.00134417174835043 -0.00404279370605585 -0.00897937691514158 -0.00199544244425454 -0.00674317064324031 -0.00348705906143306 0.00706484767556157 -0.00217256181547837 -0.00487449883039739 -0.00488199647656194 0.0015880649300367 0.00468201249934701 0.000713226671747511 -0.00245697280563254 -0.00385225150875183 -0.00104591181110505 -0.00322906091834401 -0.00542054602031816 -0.00226851099472767 0.00168499706413278 0.00396927498877235 0.000783295194855708 0.00273866161964251 0.000546970880930566 0.00327452137533955 0.00353181402784311 0.00397338894248344 0.00144185924035072 0.00253174405913418 0.00675633155444152 -0.000393268969244022 0.000218353762493674 0.000679794598472724 0.00155531153735645 -0.00289958485600936 -0.007759646592721 -0.005171279810315 -0.000805815764916358 -0.00323864932735015 -0.00413410984210459 0.00042494241457504 -0.00266687273050442 -0.00474097745589214 0.00540199941950207 0.003428035951188 0.00538425258287985 0.00597322552527986 0.00249385048444554 0.00159712926786289 0.00425274053224513 0.0088900968176333 0.00204092568754846 0.00414514366690214 0.00107150865199808 0.00433815308096299 0.00226807329682543 0.00120658392742564 0.000375563958871409 -0.0015519495447595 -0.00288723257961349 0.0027023963580198 -0.0042263194606111 -0.000953984792839398 0.00307604608030986 0.00180088835613635 0.00169021293234079 0.000827973962283881 0.00274342492426357 0.0034747776627158 0.00886793984705674 0 -0.000389677592364464 -0.00154534762152675 -0.000460771272389517 -0.000477766227533508 0.000643164534058992 0.00465677100948773 -0.00355129222136792 -0.00649846795554547 -0.00473735828086863 0.00147806691068316 -0.00597447791160626 -0.00152407019457328 -0.00379839444897751 0.00210471575855719 0.0029193769109306 -0.0038394014328401 0.0025766544258751 0.00387195343337421 0.00125163322745229
-0.00121309418417434 0.00282333729423182 0.00430905000216223 -0.00438389989297459 0.00702460745118339 1 -0.0018282777543032 0.00266820117123652 0.00164844046035581 0.00087939089214539 -0.00232028207717109 0 0.0033324702241872 0.000484598701046533 0.000439567659418014 -0.000560839832968642 -0.0048852043526295 0 0 -0.00108297452075764 -0.00131403660159384 -0.00329626341666329 0.000819029259462622 -0.00449103702384946 -0.00387414233098897 -0.000546078952657659 -0.00574916509570197 -0.00673949291994895 -0.010797386485433 0.00141670492864977 0.00257488548728962 -0.000661832547445916 -0.00283190902473537 0.00045057597633056 0.00585760431411245 0.0033289103233753 -0.00455837875678077 0.00226299920826779 0.00262326931787637 0.000821227743753508 -0.00306127869420091 -0.00368126613286781 -0.00779599368989013 -0.00684463180894517 0.00227207020791391 -0.00164375102964874 -0.00526637809263825 -0.00427350191516873 -0.00778467472786551 0.000534810899812109 -0.00187739815603821 -0.00458937420065791 0.00347557557593967 0.00173402769977866 0.0012207281226246 -0.000335342072319307 0.000804260729454168 -0.000393529941851619 0.0023357166756863 -0.000555671338819984 0.00507566953885474 0.00349257589968726 0.000943702700393903 0.000240898610419241 0.000814500426063215 0.00343111280895172 0.00723721662470647 0.00191498873423052 0.0025567236238798 -0.00174902338432681 -0.00199440926692757 -0.00537881656854562 -0.00612148980475942 -0.00179552788780123 -0.00172211060993147 -0.00559961189623727 0.00391675990585976 -0.00100262712440043 0.0029743231103356 -0.00384384887411739 -0.0062527805355895 -0.0113317913450006 -0.00430510864879586 -0.00391487345248824 0.00576962717090351 0.00323164521818096 0.00187003032855228 -0.000502926137779591 0.00320743069371721 0.00363355871557762 -0.00346031120164397 0.00519441761113445 -0.000480457102822566 0.00400564204109228 0.00423833688130586 0.00160076288954501 0.00992942499533008 0.00817194198503242 0.0017381606423981 0.00341692075825894 0.00317062901924106 0.00415118147685276 0.00193359939787593 0.00179152188024335 -0.000319380379084458 0.00228426738902887 0.000839806403345383 0.00229733214480395 -0.000701806382833449 -0.00221699750239563 0.0014215243842492 0.00240610653941167 -0.000150460615432404 -0.00134812409509489 0.000983611559531674 -0.000615124249497223 -0.0046419284894767 0 -0.000183915102769892 -3.45794475554836e-05 0.00660074089499661 -2.74133540677293e-05 0.00131828018103626 -0.00122902498241371 -0.00350022471636812 0.00315442338453039 0.00430037313744701 -0.000788006121480426 -0.00129088664968059 0.00292834241392427 0.00541966825684527 0.00768178221986577 0.00221719074089423 -0.00369600494078675 0.00262370357425609 0.00449691841869122 0.000771250976585969 0.00487796942025828 0.00485923007474302 0.00801498457696342 0.00626446912283857 0.00509369626316564 0.00427302496861016 0.00697208630995983 -0.00554728767363404 -0.00416152341929543 -0.00276487590781636 -0.0036406037118884 -0.00460405215890356 -0.0054735953685433 0.000535607535715681 -0.00980706680652885 -0.00364298891149466 -0.00398147103764065 -0.00147299229190799 -0.00677013969887324 -0.00372183021443809 0.00027272649446329 -0.000793978208309374 0.000466959160220385 0.00425086935675406 -0.00113563829173034 -0.00179626579885852 0.00480412301324165 -0.00160090392431662 0.00338186223134997 -0.000881908138139338 -0.00542763706853842 0.00285419814533292 0.0029149035478146 -0.0005639152013813 -0.00761073323319214 0 0.00204814269289853 -0.00364820159095307 -0.00195120108257934 -0.00178269229407439 0 -0.00450368794003243 -0.00195365799335784 -0.00428790443410093 -0.00465218353711487 -0.00687887663091261 -0.0110065507130659 -0.00228841720328186 0 -0.00429120985525697 -0.00594545561684787 -0.00304716050498524 0.00120815393490124 0.0010805882698568 -0.00574965223262177 0.00212842837476287 -0.00648979373288825 -0.0078280296661217 -0.00636967479588599 -0.000719728681500041 0.00959872086193984 -0.000494358544195879 -0.0045435271176146 -0.00116691286203068 -0.00338236273287046 -0.000732090805575904 0.00315105857061728 -0.00496544871060544 -0.00387486698736528 -0.00626837163792811 -0.00495349879246656 -0.00478197487040106 -0.00776488923189561 0.000827734164259313 0.00575171256739135 -0.00204208219434521 -0.00638993098319191 -0.0056139313068156 0.000456392286053209 -0.00162451058496856 -0.00114560819972143 -0.0046110956363707 -3.38999233796635e-05 0.00549454848775101 0.000743381717328258 -0.00226374928312998 -0.00111903096449011 -0.0016246622182485 0.00610936308756121 0.00100239613556815 0.0015799216400133 0.0038038835934154 0.000529010252693026 0.00515057687235168 0.00219358565635652 0.00150302320030769 2.76062928082883e-05 -0.0107073997909112 -0.00281873003615833 -0.00128160527855926 -0.0062591247971699 0.00516855070816047 -0.00309771062024489 0.00146817647106072 0.00760604383736822 -0.00478665210336126 0.00180730244907867 -0.0073479565134971 -0.00655039124972334 -0.00872847762923275 -0.00677301786025507 -0.00976037968357187 -0.000563808084601186 0.000470459112564197 0.00426165370805036 0.00517759380102179 -0.00285088431024482 -0.00448970599453904 -0.00134252188166287 0.00109289538356118 0.00406428022321304 0.00254319487761868 0.000603134704639092 0.000254638173994623 -0.000754254444002487 0.00613607050011131 0.0015812147975587 0.0059762996562533 0.00291687277652649 0.00293879522844991 0.00839658799149598 0.00245598957136202 -0.00179274065317061 -0.0018882607279619 0.00134672433726554 0.000874682505850256 -0.00318766935658686 0.000467986049675488 0.00116639915809228 0.000665415522290199 0.00178838172774158 -0.00209118309866627 -0.00103370578674271 0.000548084800268699 -0.00487640308306202 -0.00239330293975709 0.00203410930976482 0.00837093867756062 0.00256344737421287 -0.00278807535584023 -0.00493351063351 0.000672869527338512 0.00179601336945723 0.00470106261497041 -0.00174084063431103 0.000800939414708328 0.00114616875890702 0.00470260410333147 -0.00375710857029906 -0.00292227108652375 0.00453832207372396 0.0103173543460293 -0.00459047192266428 0.000483769201450606 0.00212781488515668 -0.00336179834907612 0.00146649039215874 -0.00290310647197476 -0.00163412776417011 -0.000662264255132511 -0.00236607634057625 0.00152150951068796 -0.00552176115973789 5.98872501345206e-05 0.0020003350782312 0.000479926822598745 0 -0.00667800809876929 -0.00423735273311357 -0.00731265251907514 -0.00649247026506907 -0.00341947569595259 -0.0033326289669138 -0.00421509487339102 -0.0060823190862644 -0.00344457111890569 -0.000664695615806027 -0.00625388294508801 -0.00475605628616976 -0.00310817252576879 -0.000757402064276547 0.00605743071585634 -0.00434670673771914 0.00489362283412147 0.000709612650827215 0.00352258773749495
0.00329140308893784 0.00906496542369885 0.00410146398265315 -0.0138535846169412 -0.000307062621526978 -0.0018282777543032 1 -0.00598068363399837 -0.00174193861001144 0.0065208326229687 -0.000314147564045825 0 -0.00273262857661363 0.00224263110769862 0.0018525422765662 -0.00164715690574464 0.000543581207517328 0 0 0.00614667087438502 0.00739732414634575 0.00313279580838989 -0.00490958362813321 -0.00949237543274709 -0.00589837544852237 0.00683487884923859 0.000489856712921795 0.00384487347765334 -0.00338929459674351 0.0115697720212933 0.0103853785347701 0.0113408887920306 0.0113904073372932 0.00847353311755196 0.0129171314602953 0.0100335570030283 0.00699745327241273 0.0029754160010159 0.00261729430019732 0.00248126028076623 -0.00481475117478766 -0.00319472593019927 -0.00461771951037803 -0.00938197405967945 0.00369339595279914 0.00612218071093416 0.00382126234782085 0.00574220998191048 0.00119478335093986 0.000342226612436862 -0.00195140779423258 0.0048118432845999 0.00347486188888976 0.00028400101084977 0.00315020999286211 -0.00255517671774186 0.00301868759906888 -0.0017505123123516 0.00476331681730694 0.00045273075667383 0.00310508725295177 0.00262017241565272 0.00223138596363326 0.000138347154148061 0.004127105401182 0.00546115852888333 0.00145573373857723 0.0028896683067768 0.00379967764726535 0.00287967137752469 -0.00394030225985113 -0.00821846786579363 -0.00283581886577277 -0.00274409196388216 -0.00313403377385984 -0.00258455546781273 0.000575412978324012 -0.000893338262901799 -0.00176479669718105 -0.00210336423898986 0.00115242741523134 -0.00308784004625139 -0.00301930819585037 -0.0053398695841889 -0.00113701613738717 -0.00471347001422724 0.0004696709386185 -0.00230141294714828 -0.00115912049427062 -0.00176983128166343 0.00506084704320782 -0.00218927137653522 -0.00156234102963794 -0.00355152992996455 -0.00118346321757879 0.000242342729159588 -0.00324404035906966 0.000661742217315538 0.00258511577473235 0.0012509256467963 0.00225331696740999 0.00200786170482943 0.0022816920781815 0.00305416690118206 0.00339756369231245 -0.00055898049877691 -0.00587860011246933 -0.00404715841850346 -0.00116274457399374 -0.00489263978412389 0.00585548856897336 0.00466002687826332 -0.0038427104222917 -0.00418779409118656 0.00621328964858266 -0.00469090805583167 -0.00671542731754124 0 -0.00212455668771532 -0.00240839551883751 0.00232381895343689 -0.00109299863365452 0.00122975296295196 -0.00723054814156254 -0.00648718114479738 -0.00147811456471089 -0.00308665004451957 -0.00513300038781668 -0.00394147444721028 -0.00102697421853647 -0.0080061842931705 0.00193367010575384 0.00159981210519986 -0.00629484897162825 -0.00224605702725687 -0.000282967625524971 -0.00261138790786721 -0.00517458363352794 0.00561845162349259 -0.000934238335182336 -0.00135324598431234 0.000960206271727327 -0.00287111949716666 -0.000283916342210778 -0.00800800024389652 -0.00781412794233922 -0.00678102700620415 -0.00453552227863679 0.00124189761988654 -0.0106063422366408 -0.00702380241396664 -0.00935823453336319 0.000388054222606987 -0.00260714603220802 -0.00599635188167296 -0.00862433403632605 -0.00375011401707535 0.00213574344793232 -0.00812394822193989 -0.000760003610518152 0.00252450126899049 -0.00332004905821634 0.00776685897354998 -0.00203190216629509 -0.00984104693504715 -0.00187635065058891 -0.004103782938693 -0.00344450597728372 -0.00736059499124517 -0.00182654134383005 0.00133302917243772 -0.00633691127420287 0 -0.00473368457936601 0.000180847485183095 0.000886492645847009 0.00127798068642228 0 -0.00290758624118014 0.00661773014301776 -0.0034210324738289 -0.0086670665434992 -0.00627124541450323 -0.00609634660874036 0.0010017186073022 0 -0.00442506958076523 -0.00313010234797907 0.00581868119666179 0.0104878458893853 0.0107069027546891 -0.00171391463062793 0.00938440883452157 0.00621585751383032 0.00434389399985763 0.000508416054464756 -0.00212861226362849 0.00342309535473532 -0.00294961323285101 -0.00712586369582428 0.00243937725919573 0.00622720651552797 -0.000418340098082033 0.00765553274261237 0.00228605589776999 0.00678205787299694 0.00461541694349172 -0.00552573416119585 0.00356049245560112 0.000662994554074918 -0.00423498834850198 -0.000832304453025981 -0.0030158317314806 0.00417522229439023 0.000338916084677539 0.00342814029421473 0.00231685523737842 0.000513446566606818 0.00332533362073801 -0.00360347519436215 -0.00286537396051898 -0.00685404177043091 0.000529377166250838 0.00491775939106626 -0.00270590978909703 -0.00141448939347622 0.00189103175513254 -0.00236188802062223 1.78524695462297e-05 -0.000205235003691564 -0.00116596027216815 -0.00416876896209889 0.000252733941633398 -0.00137534579072336 -0.00315193508993457 -0.00760694540716538 -0.00705009982711947 -0.00204391961671756 0.00316390332987368 -0.00104634096955645 -0.002604022364788 -0.00376026771331367 8.35480939259657e-06 0.000956907346101692 -0.00540141243063088 -0.00353663482187689 -0.0071255403552938 -0.00324303032596328 -0.00304170698183667 0.000391555479298493 0.00537093836082516 -0.000180819786533296 -0.00417919360947343 -0.00404156446548559 -0.00122212315104455 -0.000984198383908945 0.00145773715300526 -0.0054941929212478 -0.00655486564602364 0.00192541140472815 -0.00228246026454775 0.00404077608584268 3.90032380462597e-05 -0.000780317687896933 0.00259798750539976 0.00180296834356569 -0.00477911298209045 -0.000898126101525143 -0.000493310934893454 -0.00217937039530433 -0.000321297271610372 -0.00180374437022846 -0.00590261365899021 0.000484004226821795 -0.00168936441986812 -0.00276865238877993 0.00157933084482767 -0.010446052820359 -0.00931571864136789 -0.00798368702473814 -0.00548097782500155 0.000380539947745544 -0.000524799050868488 -5.79860524220043e-05 -0.000731037627505999 0.00340605279297171 -0.00960086320321598 -0.0105977152929231 -0.00824410786739645 -0.00897800540003412 -0.0105358417133359 -0.00840762126051533 -0.00275201338637194 -0.00565718365570587 -0.00561586642452828 -0.00357895507152464 -0.00275402592711066 -0.00397689041966645 -0.00296840585820009 -0.00556658880494121 -0.00547856935684721 -0.00308780249928021 -0.00462760001180075 -0.00562210491338 -0.00503352966365244 0.00458496485950216 -0.00303457887886446 0.00357578155015346 -0.00512993296102606 -0.00221925883460166 -0.00488895747385464 -0.0089452338532307 -0.00628077802989658 0 -0.00967921100492025 -0.000457541189425646 -0.00498571076156188 -0.000724926985631678 -0.00503432990083654 -0.00546366239513341 -0.0117486889289731 -0.0098625162673629 -0.00787038574438804 -0.0134109182583346 -0.00829187623389433 -0.00784250077326961 -0.00291048264043994 -0.0067383914246216 -0.00154071524678535 -0.0030911200376367 -0.00513187985948015 0.00260262687391995 -0.00346313093920668
0.000936900796550871 0.00277406056021248 0.00241447732735697 0.0017606819347587 0.0077610826984585 0.00266820117123652 -0.00598068363399837 1 -0.000915948330088751 0.000285700074422894 -0.00113011925654736 0 -0.00157481540205701 -0.00479538781507748 -0.00191881042512206 0.0030513394825283 -0.00634831959151677 0 0 -0.00206761055641129 0.00218608901759425 0.00580874718179135 -0.00520130286211769 0.00434681752348467 -0.00539215657323357 -0.00166462802099544 -0.000589875126093653 -0.00639729180842921 -0.00532338335590279 0.00110909872913433 0.00348601075075292 -0.000133111267848923 -0.000552911260964435 -0.00485578012557916 -0.000203932632676989 -0.000934691763163462 0.0042175491143501 0.00500051424941856 0.000819516186678146 -0.000980344604590374 0.00275731903078461 -0.00154652431348987 0.00117355010455684 0.00574394257282622 0.00445669146471955 0.00538200513058091 0.00234225875564148 -0.00282925171617942 0.00190398907421347 0.00696470893058516 -0.00186622320826229 -0.00221973013416125 0.00479952970514176 0.00183512321728709 -0.00218948248623773 0.000862293380631529 0.00380044339238169 0.00301703589227957 0.00191399738344475 -0.00161767675352259 -0.00476366303766712 -0.00319357399000264 0.00181592998596407 0.00395417984787061 0.00386731190663257 -0.00112339570618597 -0.000270723699060473 0.00198506011015595 -0.00069668801853637 -0.00178993637716035 -0.00535820248383316 -0.00238222988154176 0.00448175991122782 -0.00569785730380885 0.000638821466563697 0.00113018237488075 0.00562905683096969 0.000743887753946351 -0.00110123277971071 -0.000473852277536386 -4.30030362779221e-05 -0.00149493050490213 -0.00488105454808577 -0.00117024723248727 -0.000333480203035321 0.00219261030391436 0.00422835245426739 0.00271312277194744 0.00162795358276763 0.00641756974687536 0.00816023430524784 0.00760183915993891 0.000193971023461443 0.00453019264163161 0.000907160195083795 -0.00179460838864531 0.000572483839344106 -0.000269813829894524 0.0019763277515748 -0.0043983127618654 0.00705200807833683 -0.000297263473576631 0.00362927372983636 0.00265710531763274 0.000122122115724264 -0.00186344799898144 -0.000458896848823007 0.00462760496132568 -0.000943275164644818 -0.00214537689549661 0.000302435132883229 -0.00666257326676885 -0.00360844409001592 0.00620200681647795 0.00135711586313522 0.0037513693080697 0.000399053366061999 0 0.00118708309304879 -0.00154850049877252 -0.00147614685326382 -0.00152478816767558 -0.0035103770739414 0.000567894274766682 -0.00105886465940619 0.000693971095144345 -0.00193789909711953 0.00115761746410054 0.00249202702959602 0.00654790548036249 0.000770223313986947 -0.00245700822684762 -0.00515300044420243 -0.00356686565472711 0.00240283715778634 0.00340223918058336 0.00609262067700879 -0.00279882161083689 -0.00527361489325158 -0.00108301879370629 -0.00585084184029056 0.00381407656130422 0.00942578515042929 0.000976424440546163 0.00267989233343447 -0.000304910806532239 0.0025855662430671 0.00743196868055942 -0.000764676527412575 0.000410273471475724 0.00134035817412074 -0.00239335906951978 0.000528158325300633 0.00809112409566329 0.00124093673424822 -0.000668082093375834 -0.00354952205964799 -0.00160580707728529 -0.00222277325726266 -0.00118067682504505 -0.00484734378642484 0.00588716468367249 0.0037755610427948 0.00345747752597462 -0.00278750406520012 0.0065231465111433 -0.00119528567076034 -0.006024433645809 0.00238827131799004 -0.00477690457832067 0.00182809025318943 0.0023134301774604 0 -2.2849402171261e-06 0.00186510693516053 -0.000761975895156252 0.00153887199909619 0 0.00457554213478233 0.00176382018303719 -0.00391210719873914 -0.00362302586124101 -0.0105711486653982 -0.00303685828425766 0.00153194845452755 0 -0.00406079015683683 -0.00316155129114437 0.00523944966543549 -4.93547917121449e-05 -0.00339979873271092 -0.00690087422560866 0.00268767523530652 0.000435547775502522 0.00155101686919251 -0.00363565315706869 0.00598621354412844 -0.00550511207896231 -0.00454583518560345 -0.000237390644614325 0.00409069332199944 0.0018977568208883 -0.00137638592279988 -0.00388221875640068 0.00112381480497089 0.00118705022446775 -0.0020742454739164 0.00320468593650219 0.00373272730675058 0.00199994064607182 0.000917527670730752 0.00291199647200646 0.00226361067181121 0.00402070002991926 0.00154889080835913 0.00436871447263288 0.00356694465195477 0.006661845443606 -0.00128552355656299 -0.000658839222658567 0.00188907487836538 0.00354873904309985 -0.00243416644162381 0.000269687135037984 0.000195338552297556 -0.00331203833641692 -0.00102055613009461 0.00114553093760706 0.00153915434011304 3.72767119561524e-05 0.0015104065124336 -0.00137892502232467 -0.00349796781593811 -0.00248131532666125 -1.01614193186036e-05 -0.00479108636632154 -0.00681243303548614 -0.00238333962534896 -0.000799974849882469 -0.0019523854684219 0.00190516947988985 -0.00457140164015949 -0.00695007334081223 9.08724852248299e-05 -0.00207905285475638 -0.00223913175180371 0.000963676460922635 -0.00678480607966066 -0.00874859412112292 -0.00527344924519132 0.00188306813225745 0.00632304086224885 0.00113005490364876 0.00746382509434356 0.00980668469198116 0.00654524558173751 0.00517753433853456 0.00663977178663101 0.00370454340047564 -0.00126344430428726 -0.000928027832025328 0.0022470990573828 0.00392703638958178 0.00419891028749518 -0.0060842518159596 -0.00157878588132582 0.00417942461577968 0.00620387458643878 0.00122520862735922 0.00405525306371339 -0.00589327898350724 0.00427170227445039 -0.00409583346679426 -0.00106735972013726 -0.0105960409448975 -0.00356175342064965 0.000849907168194495 0.00810900650956076 -0.000531318671702225 -0.00525822912527284 -0.000461745190840668 -0.00476591263913662 -0.00500427021587142 -0.00393618418772091 -0.00375740514424989 -0.00821621715400097 -0.000949816214246915 0.000536000836640889 0.00478711226414666 0.00408368079930392 0.000754217195143421 -0.00060774810360137 0.000840316346677929 0.00543436797794416 -0.00144264157324582 0.00129954930167944 -0.00281305120268692 -0.00240224769982673 0.000657841953138375 0.00240133465953345 -0.00228053188906455 -0.00404443929855052 0.000763549254936275 -0.000303637959939838 -0.00624191690819214 -0.00568186983234146 0.00650618469744365 -0.00489127332848396 -0.000532267135388056 0.00521375977008304 0.00742321768508687 0.000109130250881855 0.00431382895940273 0 0.00492777162416883 0.00520353481055186 -0.00029376010687766 -0.00306825099836688 0.00569385863947114 -0.00632548482479298 -0.000274863105629253 -0.00580380548308438 -0.00441132574080302 0.00572053143530383 5.44024286713652e-05 -0.00260833880504658 -0.00249993681542419 0.00186796410644212 0.00365168246638796 -0.00352942214547045 -0.00071473047775311 -0.00278443577302798 -0.00130537593858296
-0.00185712290991411 0.000238057220968165 0.00397511671018392 -0.00326308364249858 -0.00200103371307703 0.00164844046035581 -0.00174193861001144 -0.000915948330088751 1 -0.000171923066185181 -0.0051471234298862 0 -0.00436024316281479 -0.00079242645130958 -0.0022224212535931 -0.00456369319111189 -0.00087318431228464 0 0 -0.00315285623468103 -0.00439495744507591 -0.00345474121321583 -0.00322047643901359 -5.41335318170455e-05 -0.00336694374928622 0.00455716721584485 -0.00143340721184241 0.000386141129465384 -0.00060828524957596 -0.00366372966185217 -0.00206015926767028 -0.0032485691932252 -0.00410159252269465 -0.00396080934525989 0.00135935139688742 -0.00244902468543632 -0.0064777763269566 -0.000908490959840581 -0.00139917420528755 0.00233642973913593 0.00345679036436601 -0.00152554485052259 -3.78924438751946e-05 -0.000747726145401574 -0.00273155283739502 -0.00641579890084031 -0.00648135249048055 -0.00684715725254299 -0.00451223007892692 -0.000262371119192096 7.61134362106826e-05 -0.00273530684142049 0.00103031941192227 0.000877861865930684 0.00563831835492934 -0.00078076202183396 -0.00101473059347786 0.000465386550034083 0.000675015473451845 0.000255342077652224 0.00488672801857798 0.00764952438947824 0.00515376899894367 0.00057836992459265 0.00123011785378404 0.0101122137347816 0.00957578811446889 0.00553228267576489 0.00701779183148175 -0.00248840782201008 0.0017550847750373 -0.00186691362217502 -0.000413443248202405 0.00457387369998746 0.00539982722141773 -0.00200130140929333 -0.000621586615933677 0.000310775580694712 0.00320968772626419 0.00430183154459617 0.00293966498360573 0.000773939960469095 -0.000724129442847457 0.00531729987799228 0.00687863845380447 0.00456763902580687 -0.000135546645484985 -0.00217688267468101 0.000688442370600595 -0.00297642641828004 -0.00435415543130258 0.0044526522879203 -0.00165075355387904 0.00163334287543171 0.000562549585901463 0.00327259987469368 0.0024919377794448 0.00485073209006431 0.000803961100234567 -0.000702864297727099 -0.00222756621345467 0.00321261962277192 0.000178923127524547 -0.00226696168773848 -0.000594349754447372 0.00407093495209146 0.00218477329930681 0.000891352111587163 0.00426346024339038 0.00118949199990879 -0.000519196611168808 0.00453860024120584 0.00393242535421888 -0.00270072368144178 0.000354694239606874 0.00163642193093285 -0.00227497478266732 0 0.00383144581887435 0.00121162472894787 0.00290980208118257 0.00106938680887979 0.00531207874262137 0.0016072396779149 0.00273930177906144 0.00656192997540771 0.00599944674913369 0.00403575956208919 0.0028795362321094 -0.00285481489104326 0.00416747301558045 0.00650771375683499 0.00166045193531454 0.00718358260132096 0.00303284460898981 -0.000475820563760765 -0.00368741818152656 5.02690638103473e-05 0.00470518431762108 0.00491714590014476 0.00387519845332791 0.00297749791790889 -0.000683495975667137 0.00520996390787675 -0.00328687548892308 -0.00515032118764544 -0.00693421923407174 -0.00241651373059834 -0.00197421814718511 -0.000337680618635418 -0.00171880849575986 -0.00228703272204842 -0.00808748988493792 -0.000462291893558846 -0.00284377088494369 0.00103515111881503 0.00167211993460344 0.00155326225736264 0.00353388278049951 0.00521649509505538 0.0095028183819137 -0.00216696739341638 -0.00379069047476578 0.00152124342843701 -0.00402520981863998 -0.00234346959796883 0.00273571346234924 -0.00117105202218636 0.00361758521973405 0.00785881620125897 -0.0010290441907467 -0.0020881954918796 0 -0.00382432618304543 -0.00171655874321934 -0.00160687297788597 -0.0027221657928136 0 -0.00424926174088584 -0.0060946307867288 -0.00600617862090503 -0.00171958979617112 -0.00265501402739878 -0.00240807294016986 -0.00263266837690997 0 0.00147104779363523 0.0020851981855381 -0.00263177427185084 -0.00249828928127508 -0.00192966114025017 -0.00300398044676404 -0.00123002720473903 -0.00764204544581187 -0.00961985104726865 -0.00888246773429819 -0.0014101904919663 0.00507393710230617 -0.00264525255906269 -0.000635415835136319 -0.00152445547438285 -0.00169422895521515 -0.00118338620863267 0.00271645152422772 -0.00258404342544772 -0.00464931491331653 -0.00415946783676749 -0.00520351457285222 0.000390378938827104 0.00534465291571426 0.00109276086668527 7.40831117200281e-05 0.00302126214289048 -0.00603879054097933 -0.000920588183717747 8.76027812561347e-05 0.0015825765589055 -0.00027630988790156 -9.29767023748625e-07 -0.000187006249950813 0.00541662203453974 0.00128388440074876 -0.00326732834497052 -0.00125975076869762 0.00454980568770806 0.00432591620228254 0.00320173948072719 0.00144180122924631 0.00495963103985475 -0.00483361407742568 0.00177664145732668 -0.00066037915456516 0.00204571709707557 0.000842930746110315 -0.00685245465076866 -0.00108697555151118 0.00660562853695847 -0.00255344012248248 0.00253267202169007 0.000597782295539839 0.00548325755637743 0.00514768329987935 -0.00186086122057904 0.00564460462569048 0.00144541511854822 0.00121339359089894 0.0012555517777144 0.0028607780655617 0.00142881595093247 -0.00623659835357927 0.00466400256278713 0.00237218727171094 0.0037437878117877 -0.00260347407412673 -0.00952311618333805 -0.00605036568915618 -0.000674446497494344 -0.003059712008099 0.00346679375929308 0.00476369914846709 0.00225735860121401 0.00374210760414057 0.000844743579529842 0.00436700816152349 0.00500153745676672 0.00509036490419395 0.00596636403170928 -0.00135368725569186 0.00375567084389802 0.00290807660595074 0.00203499492389156 -0.00506560379548762 0.000668203233601848 -0.000274767656154462 0.007448589821603 0.00756789564371837 0.00243880233562489 -0.00072244586279056 -0.00248531244724917 0.00454666879908479 0.00589570091209305 0.00762496967947919 0.000977132627823919 0.00137821696274661 0.00796227412280867 0.00467170943576997 0.00364645144129404 0.00343402935474683 0.000865744284710949 0.000491401546519362 0.00696660094034701 5.03334369294561e-05 0.00230590704958166 0.00248595663560926 0.00625572551572641 -0.00194523289465456 0.00213869000365005 0.00310773383130866 0.00237576901457047 0.000174575590351027 0.0050408634511097 0.00407372966343661 0.00429604120290467 0.00520692763927152 -0.000787023599246671 0.00352298840869869 -0.00533898072081397 0.000472860418668254 -0.00143169574840106 -0.00787472792453817 -0.00713879488085087 0.00330743093459293 0.0042105419988478 0 -0.00396260631455436 -0.0034076996411516 -0.00620304362683321 -0.00702766965868442 0.00310857988067317 0.00173897793589049 -0.00165395153084601 -0.00415658884205387 -0.00162600227173918 -0.000221466592378933 -0.000320805827577423 0.00338184005644329 -0.000246969712583814 0.00406714635095324 0.00037594622788914 0.00158285320493371 0.00385923017941152 0.00169699322981307 0.00890836744395542
0.00954961063065583 -0.000367846721742864 0.00544097661909523 -0.00488077114469496 0.00417520072798973 0.00087939089214539 0.0065208326229687 0.000285700074422894 -0.000171923066185181 1 -0.00443184149799877 0 0.0122581007827954 0.00206824412093621 0.00339105488451358 0.00548280359269764 0.00108117177062465 0 0 0.00484426834602348 0.00736415643659804 0.0042685063445196 -0.000344887899673625 0.00117008118937721 0.00645082606783277 -0.00138732054580399 0.00461971207200633 0.00287761804087047 0.00709289223376299 0.00397165672104504 0.00317802996005592 0.00331679565772004 0.00921910733600474 0.00772363646671219 0.00390022562064364 0.00848462806525821 0.00886622093437286 0.00331858729837096 -0.000305814953319593 -0.00513011562207405 -0.00325331308106287 -0.00140690086036257 -0.00167359470698969 0.000833586231192322 0.00342226931167978 0.00680119784928754 0.00384094667389586 0.00220133342811459 -0.00112413023155298 7.57171464356209e-05 0.00272700549633029 0.00938014052578045 0.00529371753325775 0.00390564015179412 0.000967253560721521 0.00436564376717424 -0.000553583210346888 0.00362350041470718 0.00172165612898872 -0.00284807507640584 -0.00538494811122785 -0.00938313319896764 0.00265612861650814 0.00207173335966227 0.00255572489592966 0.000125368718398945 -0.00342674286124151 -0.00144088253613357 -0.00351852312026388 -0.000599564231750365 0.00115413083379326 -0.00159829915922014 -0.00110893387354382 -0.00103564987667146 -0.00490856614262743 0.00405493238226976 0.00583135420232044 0.00281168858407852 0.00288704602862965 -0.00633435544745657 0.00167248876318941 -0.00259657938037292 -0.00363934683449952 -0.00410669819055825 -0.00277894713703758 -0.0059014178106319 -0.0017966941468824 0.00522886669411187 0.00473555673279227 0.00767823040643749 0.00680343737878514 9.71401734559482e-05 0.00284029919508194 0.00294441973000911 0.0031033809456324 0.00133996368707296 -0.00178710066427669 -0.000488647296570509 0.00107961410226143 0.00110033697476503 0.00315753387374462 0.00375749994289585 0.0013118697562178 0.00185042855767238 0.00745388424438485 0.00861354868682106 0.00361976404054513 0.00393134278262644 0.00731197664624014 -0.00104645916762156 0.000121998974947728 -0.00172847016149639 0.00506308964415044 0.00416200369104668 0.00237472961136003 0.000365634481816015 -0.000920943138906524 0 -0.00225925725160926 0.00707349831695097 0.00599863060941218 0.0068459989684126 0.000877974939456827 -0.00314522937103085 -0.00338217154681297 -0.0108490112513593 -0.00701437239284048 -0.0115896687939786 -0.00956175614817232 0.00993260561565037 0.00276018724141974 0.00108013291050045 -0.00135475093815702 -0.00823476273652334 0.000123405131824454 -0.00146176789679455 -0.0010708675074835 0.00126234678830447 0.000831478441563364 -0.000887757378250313 0.00176623678641868 -0.000247718348038724 0.00513594572812364 0.00218639021030236 0.0013359381279165 0.00259239145046572 0.00653249807071552 0.00350836046657951 0.00629615012836166 -0.000676417416590089 -0.00212587300902274 -0.00361749987602533 0.00731893913575844 -0.000732490648875718 -0.00125121599037102 -0.0040654757219393 -0.00025654857848411 -0.00497257377048359 -0.00197801033841719 0.000160651864465119 -0.0071812634441251 0.00351102787267573 0.00386248388752995 0.00191038344002078 -0.00379537519883667 -0.00293414348572063 0.00667726265892018 0.00200347932160942 -0.00276385691781539 0.000301685584620862 -0.00105647105909182 -0.00144848834552083 0 0.00125096380665781 -0.00290094231789729 -0.00148852960609823 -0.000718947613677929 0 0.00284205475302123 0.00413366012347736 0.00186262073426974 -0.00379780627454466 -0.001369197943759 -0.00548391156913328 -0.00172731494454438 0 -0.00407766356004039 0.00354794822538878 0.00565356101991878 0.0024832815554596 0.00468180957776946 0.00158265327217925 0.00392845077668702 0.00509233753704614 0.00687291212785423 0.00570347167051629 -0.00283399262910861 -0.0068357938388615 -0.00363134591050281 -0.00361893926057402 0.000417438678734059 2.70702892235422e-05 -0.00790361037184397 0.00467567493571181 -0.00285130175855296 0.00144807352665303 -0.000973624375219027 -0.00210699465095402 -3.49279163341555e-05 -0.00238904015855272 0.00106600941942893 0.00252857762258201 -0.00324133547707193 0.000532519227795273 -0.0015585729812954 -0.00423540230237839 -0.00546199976420726 -0.00273600890452173 0.00640054357659372 0.00351761845796361 -0.00909922049306169 -0.0122408276564319 0.00145419187157151 0.000374215542347551 -0.00944922940593675 -0.00579280816017107 -0.00535807970072932 -0.0048959734308982 -0.00672758764009795 -0.00400696212602842 -0.00864707478967741 -0.00869169366771151 -0.00458152063331053 -0.00109140567274418 -8.62560297292687e-05 -0.00289122587718164 -0.00991268628070099 -0.00113383068500074 0.00122452516645803 -0.00378091673610707 -0.006229996087113 -0.00154546294776414 -0.00372252539551574 -0.00319818403394909 -0.0057806293680988 0.00173362250689789 -0.0052863254481187 -0.00649983988772391 -0.00485123622228393 0.000579676370980741 0.000959647103177232 0.00111621735108834 -0.00282374839547058 0.00671009825178465 0.00404807974244348 0.000698778970996125 0.00581102554559262 0.00546398332560239 -2.86691648377857e-05 -0.00199847375513766 0.0016959189701045 0.000371734585956254 0.000267646563354705 -0.000387735374113588 -0.000287060509753269 -0.000328370842526171 -0.00164430928776515 -0.000530585010716046 -0.00691809981898458 -0.00302720923470332 -0.00693661207707313 -5.30383575438792e-05 -0.00288647695673255 -0.00205921152867642 -0.000482702180334807 -0.00342989837346716 0.00378782830054596 -0.00151362370183794 -0.00372317830366679 -0.00479672930793997 -0.00209235178756347 -0.00556502834149887 0.00499449296688001 0.00167310775007203 -0.000893957440438256 -0.00344981175196218 -0.00463497637104986 -0.0078383123656447 -0.00628696625887942 -0.00609052036472911 -0.00942210313050301 -0.00616465121847712 -0.00352728359954066 -0.00142406130314166 0.00280094192615103 0.00165225085132909 -0.00195207310571289 -0.00351616593920408 0.000952864285530398 -0.0110579154993628 -0.0126027036304219 -0.000149705606861006 -0.00393268012357323 -0.00576097953688686 -0.00458474822315703 0.000510518954893211 -0.00210653764114323 0.00105457002928158 9.14686435840316e-05 -0.000272375884669678 0.00368255543877745 0.00262121784075485 -0.000871430220574227 0 -0.00676778779500781 -0.00717776422723061 0.00520119646871373 0.00458412436481228 0.00414765435105227 -0.000735442062182967 -0.00529141988950046 -0.00417413706298242 -0.00160103592096068 -0.00667474408132049 -0.00354993746243074 -0.00304498450830216 -0.00416805150357745 -0.00711094519560521 -0.00443811608871006 -0.00243572587489565 -0.00114919467609325 -0.00298459397264868 -0.0132391108274111
0.000442584285421041 0.00180497297006819 0.00168389565565035 0.000610178355308217 0.00154885945124821 -0.00232028207717109 -0.000314147564045825 -0.00113011925654736 -0.0051471234298862 -0.00443184149799877 1 0 0.00250241983594884 -0.00318712616797559 0.000538337980319046 -0.000252298766408256 -0.000492518897061804 0 0 0.00155209448701992 -0.00209516754101571 0.000331028239421428 0.00159041551818347 -0.00529490818711318 -0.0015415820572614 -0.00185020020085611 0.00173375071215704 0.0080285781567095 0.000929822978904432 0.00377674628023521 -0.00126100089998552 -0.00468565270858578 0.000391456482179616 -0.000211897181736402 0.00312535919187534 0.00236529498734949 0.000476244397819295 -0.0042356269969007 -0.00267909411861355 -0.00100962517662168 0.00229719558667737 0.00485591452194265 0.0101005877875962 0.00320135717253116 0.000703646424094879 0.000120837758559268 -0.000240341616045934 0.00281150948115865 0.00444780364364518 -0.00325266438552348 0.000438585787437434 0.00030378913689383 0.00241205453814078 0.000727971861978858 -0.00229278883541566 -0.0012351375656106 -0.0019564239123314 -0.00337554740130402 -0.00553897529897544 -0.00268762740219367 -0.00404559242686644 -0.00699114948138697 -0.00445179899383687 -0.00374571775236497 -0.00513226318510505 0.00313997306945377 -0.00414545149049692 0.0014207000143651 -0.00330675362668149 0.000142973004981575 0.0011588112708117 0.000288016658613907 0.00239760308438444 -0.0027994973823693 -0.0061022163055694 -3.52590751830781e-05 -0.00124294794652246 -0.0029359413587388 -0.00507413548366278 -0.000900499967730373 0.003647935202738 -0.000953038339429711 -0.00185018211767924 0.00324162143741645 -0.00830556828867451 -0.00420094799719784 0.00259595699133398 -0.000339489138588185 0.00124408276749499 0.00471774011259061 0.000617117442924779 -0.00106570094637921 0.00539983803621095 0.000917063496938356 0.00154080513555425 0.00405495995504516 0.00212472218362473 0.00333323286959528 -0.00303339394735391 -0.00192766728945411 0.00355295780308832 -0.000733539211987909 -0.00349131571951909 -0.000352247062025811 0.000622137246836246 -0.000801634895447548 -0.00341588299028352 -0.00355206873868083 -0.00130191660647232 -0.00477732697133326 0.00334836055036319 -0.00192998810560517 -0.000194774211714099 -0.00644219650639185 0.00261888974659586 0.00187986541856608 0.000851451206751879 0 -0.00593962106721174 -0.00140468535040083 -0.000306281847647013 -0.00213335748038069 0.00967896193929235 0.00422617272831091 0.00260157163666407 -0.00282359729170492 -0.00409698715534242 -0.00137195470398939 0.00175440155595163 0.000563053125051737 0.00241774206043675 0.00339399987419278 -0.00328222062067461 0.0035286224373871 0.00246376196934223 0.00318127976949152 -0.00182848776803412 -0.00231105574574504 0.00115058851290259 0.00375800211119523 -0.00091394851412814 0.000684285280945735 0.000520240365399278 0.00225688832629797 -0.00030394203095609 0.00016555522290771 -0.00111423365454239 -0.00118143691155854 -0.00304605384090054 0.00347420335680886 -0.000606135928826091 0.000195978965282396 0.00379795767320501 0.00347843954133508 -0.0043300287663574 0.000637227408940464 -0.00485884361716932 -0.00895056283760641 -0.000602214786820458 -0.00241431828005306 -0.00172369904465564 -0.00263666153563238 0.0022705808540523 -0.000393484085054147 0.00115369596725402 -0.00194616377176975 -0.000455166466157139 -0.00331184628496928 -0.00453612524441493 -0.00136577237290561 -0.0033129035158136 -0.00424777843389179 0 -0.00138111970607578 -0.00355145363478535 -0.00423588000953655 0.00056227721176801 0 -0.00185372930905328 0.00106208212490134 -0.0002557124888007 -0.00478696045317462 0.00105306361054003 -0.00168707704199735 0.00410654145378253 0 -0.00710756834570699 -0.00056232398582794 0.00172206003970716 -0.00186060756411771 0.00125534703864672 0.000557550710456715 0.00182213090684584 -0.00181105524529926 0.00318902438832164 -0.000349059926874529 -0.00176797878674108 0.00401942615135675 0.00601618536238884 0.00229779821662768 0.000883128799820519 0.00133233770653291 0.00215958001719522 -0.000512688718191143 0.00775048707044288 0.00324890979221428 0.00636132093371635 0.0063001521108275 -0.00103259733025035 0.000258130317752956 0.0022610560379452 0.00441230160701148 0.00163602442764146 0.00051890507817762 0.00174230312213085 2.85253394228252e-05 -0.000796349811099961 0.00134003962659276 -0.00218250822223589 -0.0015469940566775 -0.00126795429540775 -0.00513244182071883 -0.00168920981460528 -0.00364904827136884 -0.007233198766123 -0.00327757675312468 -0.00391355330794434 -0.00548697182748353 -0.00510252268269392 -0.0059027384700677 -0.00779818692273637 -0.00588957693459624 -0.000864643749067828 -0.00271396498320381 -0.00107707976070036 -0.00640578158255755 -0.00511250255394974 -0.00145156644030817 -0.00329394061717462 -0.00531355361759087 -0.00333546092130795 -0.00350537092607326 -0.00211934442380264 -0.000503912172794151 -0.00346791370699836 0.00398718468562172 -0.00317205526749122 0.00325773597142347 -0.000763247889180158 -0.00403230715174846 0.00181660830438498 0.00147632835098926 0.00552867472524383 -0.00108915038303102 -0.00471355578362363 -0.00269618323497761 0.00452512586240511 0.00183079307073749 -0.000291395389420438 -0.0015562825604649 -0.000987664440828541 0.000169575584340532 -0.000241575617586636 0.000839609526755992 0.00600508654388083 -0.000372415511334054 0.00019694835686627 -8.22247289221763e-05 0.00150048760714319 -0.00419812452858078 -0.0072147354916645 -0.00206321719780111 -0.00385314456548296 -0.00318311918097524 -0.0028490213778037 -0.00246666700161336 -7.11330986785487e-06 0.00574400807482058 0.00081227688567721 -0.000402486623532609 -0.00435032566531614 -0.00206547049602934 0.00175662932771738 0.00293801530867022 0.00823863684149021 0.00444758289049257 -0.00322255560703686 -0.0009323541963047 0.000905496658687744 -0.00284939468610507 0.00576457790547146 -0.00353636129223252 -0.00656937910755946 0.00236958984745835 0.00545489652119647 0.0015807677280141 0.00233112817416404 -0.00487581930168991 0.00601827748916262 -0.00491329030633907 -0.00215746129005408 0.000361810129487648 -7.32320384934821e-05 0.00319404379021535 -0.000483883585450976 0.00313085903405811 -0.00282968245423855 -0.00693762312606894 -0.0041033268717164 -0.0009496346352922 -0.00275500853326468 0.00553284258491582 -0.000605541485188508 0 -0.00089665362727499 0.000852532495888092 0.00295245500496918 -0.000354852869434155 -0.00178192439678386 -0.00865443044153041 -0.00359284922391983 -0.0026206517996773 0.00071735433941567 -0.00196050876844252 -0.0062344248431204 -0.00441606093482364 -0.00271512695199396 -0.00276724609840867 -0.00642860480160387 -0.00180014192015021 -0.00454365398550342 -0.0030221790198391 0.00265739951181966
0 0 0 0 0 0 0 0 0 0 0 1 0 0 0 0 0 0 0 0 0 0 0 0 0 0 0 0 0 0 0 0 0 0 0 0 0 0 0 0 0 0 0 0 0 0 0 0 0 0 0 0 0 0 0 0 0 0 0 0 0 0 0 0 0 0 0 0 0 0 0 0 0 0 0 0 0 0 0 0 0 0 0 0 0 0 0 0 0 0 0 0 0 0 0 0 0 0 0 0 0 0 0 0 0 0 0 0 0 0 0 0 0 0 0 0 0 0 0 0 0 0 0 0 0 0 0 0 0 0 0 0 0 0 0 0 0 0 0 0 0 0 0 0 0 0 0 0 0 0 0 0 0 0 0 0 0 0 0 0 0 0 0 0 0 0 0 0 0 0 0 0 0 0 0 0 0 0 0 0 0 0 0 0 0 0 0 0 0 0 0 0 0 0 0 0 0 0 0 0 0 0 0 0 0 0 0 0 0 0 0 0 0 0 0 0 0 0 0 0 0 0 0 0 0 0 0 0 0 0 0 0 0 0 0 0 0 0 0 0 0 0 0 0 0 0 0 0 0 0 0 0 0 0 0 0 0 0 0 0 0 0 0 0 0 0 0 0 0 0 0 0 0 0 0 0 0 0 0 0 0 0 0 0 0 0 0 0 0 0 0 0 0 0 0 0 0 0 0 0 0 0 0 0 0 0 0 0 0 0 0 0 0 0 0 0 0 0 0 0 0 0 0 0 0 0 0 0 0 0 0 0 0
0.00299729043102435 0.009818961772253 0.00029791341426709 -0.00545295495682251 -0.00202227915505769 0.0033324702241872 -0.00273262857661363 -0.00157481540205701 -0.00436024316281479 0.0122581007827954 0.00250241983594884 0 1 0.0019593195866808 -0.00365588189285574 0.00303209506129118 0.00142765480630377 0 0 0.00247087130321637 0.00607175946904166 -0.00409566177778368 0.00284175964359857 -0.00153580246879137 0.0017440957384546 0.00526015114511787 0.000752669106002994 -0.00229591247598189 0.00130361713832541 0.0071252041377201 0.00505092669266018 0.00298235561001 0.00582194389425812 -0.00147884872308663 0.00736479294811123 0.00210482676612282 -0.00370967310663471 -0.000661295597150791 -0.00593753460635983 0.00192459724499895 -0.00311123478704363 -0.00377258483978124 -0.00714548884395023 -0.00667738671148786 -0.00143756550855661 0.00238239423424718 -0.000666176213502225 0.00359217245013186 -0.00667969968952876 0.0077759424200636 0.00470874918167717 0.00118302646309945 0.000934789688734465 0.00345466481821815 -0.00398053229535527 0.00536269559129644 0.00450941764344847 -0.00404311604251646 -0.00330786279894623 0.00543469548927626 0.00433822424634547 0.00215431804388528 0.00416808215477369 0.0089524601189766 0.0141435185692365 0.00161107571785995 0.00299804131758536 1.35914566665858e-05 0.0128640369887927 0.00418472682336357 -2.87745992759838e-05 -0.00201263005415306 0.000361061422530559 -0.00401010858602019 -0.00494026456718481 -0.00337835430550873 0.00787952589960146 -0.00273398935404877 0.0036950191387048 0.00425171764341674 -0.00335833432156904 -0.00773334232274881 -0.0034178676701223 -0.0121846835425784 0.000512716603880792 -0.00641179596568164 0.00504563994669739 0.00267646284642048 -0.00271296516778729 -0.00196356534155332 0.00618999805857553 0.00466001130612318 -0.000265965159242215 -0.00450546088155448 -0.000793982898321775 -0.000914072389661792 0.000683975091127788 0.000906904649556134 0.00380296234342002 0.00265249379295968 -0.00170899627516362 0.00232068759522135 0.00964878420965733 0.00488566429692366 -0.00230771124513702 0.0024766704670004 0.00137566991767599 0.00673917418425248 0.000871066100375446 -0.00135122117876983 -0.00156920139676797 0.00480620457933281 0.0048886259201348 -0.00264202635884597 0.00415809225782815 0.000137139444055733 -0.000987597416757767 0 0.000138417103909278 0.00424073304004951 0.00279840281934066 0.00599581781811303 -0.00115251562016142 -0.00304542180653908 0.00275079314194111 -0.00187107890759378 0.00299442535468565 -0.0045913602239226 -0.00159118875217548 0.000770839700879775 -0.000109422691912091 0.000600445855375711 0.00472298098656687 -0.00674815962180078 0.00276128062071479 0.00427743424128944 -0.00720044335248953 -0.00218650577809718 -0.000825810530417795 0.00114873493250026 0.00396060430912719 0.00303088194338093 0.00557517797286131 0.00427034153089519 0.00233580901333044 -0.00309541748189541 -0.00713603579793474 0.00543367694666 -0.00458819686802912 -0.00344901198832752 0.000237176440863055 -0.00697483972579126 0.00323717806553528 -0.000223481232795018 -0.00135903516420709 -0.00792644677453569 -0.00643763240290311 0.00320907616097028 0.00468654148137016 -0.00140999025742711 -0.00249680701285973 0.00368168796336522 -0.00294487113195186 0.00111840365841449 0.000192414092616159 -0.000804418910942468 -0.000138832791625926 0.0013788388408648 -0.00293947619958736 -0.00109441438580723 0.00646524834990722 -0.00214678082085591 0 -0.000778052254480326 -0.00720460556912127 -0.0011904497346038 -0.0003245374063836 0 0.0047793932344578 -0.00226814603998152 -0.00195678472976039 -0.00491850758291798 -0.000336666056138668 -0.00475406790759961 -0.00226631385428802 0 -0.00812132917731164 -0.000844346820511055 -0.00686211274647315 0.00363495553694438 -0.000288196762354252 -0.00139248078976327 -0.00295482000560833 -0.00646229988134964 -0.00637060735817516 -0.00153770027934015 -0.00327292901864942 -0.00186767720322205 -0.00200790557531833 -0.0045762238126865 -0.00244993543746272 0.00139970295961566 -0.00219645920221983 7.73112768480251e-05 -0.00741973721209341 0.00148080216662733 -0.00484796415448027 -0.00390301229253404 -0.00320662584452449 -0.0050646581833378 0.0007013339531116 0.00475409116791326 -0.001869428240641 0.000429772326984249 -0.00184990068735858 -0.00319006982221463 -0.00181406703952039 -0.000426800702248265 -0.000185679355288451 0.00139543312565762 -0.00418034322568477 0.000560871484830638 0.00777841519994731 0.0120454376297617 -0.00150565859129778 -0.00462780340942262 0.00253433963468664 -0.00185685776589872 -0.00321143027929283 -0.00129781062204597 4.17140821650374e-05 -0.00489400492183558 0.00918746847177289 -0.00233162528616492 0.00357058449638818 -0.00258550438998695 -0.00347442879801319 -0.000510599200376404 0.00558341987578389 0.00235412333302992 -0.00171822444169501 0.000294343147796999 0.00170148561811193 0.00657163564587229 -0.00693551100448508 -0.0060440828057905 -0.00619130013738492 -0.00582565775033499 -0.0107407056137065 0.000577482932919778 -0.00579822127030961 -0.00398543178027821 -0.00223997093617166 0.00127737993215387 0.00119564069390241 -0.00361102758649917 -0.0012219202574174 -0.00049314581401027 -0.00826101498920129 -0.00789610180287878 -0.00862895340296983 -0.00380005095947363 -0.00502272878971534 -0.00506319108520714 -6.54378670077825e-05 -0.000797366843129964 -0.005105781241942 0.00294825198357014 0.00289195643473911 -0.000860369530003447 -0.00310506396322456 0.000990288876431582 0.00432129849996346 -0.00190655948582946 -0.000248118884628541 -0.00188037238308224 -0.00374229115650338 -0.000729535631425968 -0.00251832671994504 0.00418514907023048 -0.00681861486015646 0.00334951045761358 -0.00237175741570081 -0.00207498847052076 -0.00355825722112171 0.00190439786626213 0.00161778855226908 0.000107865759764117 -0.000404202357975365 0.00349529909715797 3.51505842930064e-05 0.00284419178220911 -0.00409527432669147 -0.000438208392397433 0.0014939174065203 0.00789513013539222 -0.00123049246083193 -0.00257507553545388 0.003321169394017 -0.00148117571203236 -0.00211644226157492 0.00320975884430788 -0.00603423938742335 -9.74986290484882e-05 -0.00242789179662091 -0.0018578317095635 -0.00224982686682287 -0.00138939304770712 0.00308720791595242 -0.0074028581592386 0.00196635929489722 0.00523426343439125 -8.36728113037849e-05 0 -0.00443365075956631 -0.00368942550343375 0.000331947502512868 -0.00402880697234937 2.20546054038806e-05 3.94839729177893e-05 -0.0027713998276237 -0.0034854078129834 0.00180414597119687 0.00247904399036708 -0.000891602756374262 -0.00326674218137172 -0.0024802165146745 -0.00241187778751905 0.00404965177543763 -0.00651650763747647 0.00219059301609144 -0.0023205042517514 -0.00239774750216706
0.00809023936995782 0.00343488703313181 -0.000961753347617035 0.00243192171697547 -0.000857053158665918 0.000484598701046533 0.00224263110769862 -0.00479538781507748 -0.00079242645130958 0.00206824412093621 -0.00318712616797559 0 0.0019593195866808 1 -0.00947067787961369 -0.000585542526748526 -0.00570096869221064 0 0 -0.00137014240351646 0.00359389545485064 -0.000135154417953248 0.00199233508782989 0.00405269302720866 0.00103475622174137 0.00456608626915522 -0.00147426662653924 0.000238713323649576 -0.00328073746456172 0.00115712999524682 -0.000776550687004832 -0.00750059536603626 0.000518725492963664 -0.00488290373064902 0.000377502699071292 -0.00417801304345024 -0.00017468178374337 -0.000710071900615671 3.50564282778001e-05 0.00297953820412664 0.00560953627944596 0.00631526768509374 0.00116071542926184 0.00446193576926156 0.00202223563582594 -0.00316720326268524 -0.000565242068787009 0.000309254162069252 0.0055127830070468 -0.000328914787406793 -0.00155953485135444 -0.00376471631373088 0.00147472034718612 -0.000680163877241794 -0.000623077654428073 -0.000932628575330018 0.000111652129445382 -0.00245163538485828 -0.00148864400960658 0.00270771408055856 -0.00118187012170674 0.000915883428595148 -0.00267156594199674 0.00174928634782468 0.00129943009382646 0.00159413484927527 -0.00344368035972816 -0.0032972563159328 0.00523163502690004 0.000289699802376271 0.000135743284725192 -0.00112449366819873 0.00555269667100939 -0.00520874314250826 0.00324705045436626 -0.0037176395036945 0.000515490846765998 0.00663894700606413 0.00276653124953168 -0.00143006454703764 -0.00489022124897728 -0.00392636139340116 -0.00306350175649768 -0.00400577561547285 0.00231853054055058 0.00182686073321895 0.0033611854804316 0.00450177038562752 0.00475084124618797 0.00110350559610978 0.00208973605347873 0.00493065871066248 0.00421558555011063 0.000763633918451685 0.000945899704680015 0.0036974619090335 -0.000812850080323331 -0.00169870194901345 -0.00194745900230949 0.000321207702542393 -0.00172061840512289 -0.00216467496861311 -0.000880988119629171 -0.000881746916319162 -0.00421385575589602 -0.00508118059417259 0.000109648713359204 0.000777886535446614 0.00167518458105788 -0.00094227649395805 -0.0010612691753236 -0.00163482102872893 -0.00336514627465158 0.00833973276017621 0.00410837308494123 0.00504097395725467 -0.00251761162694478 0 -0.00232357283769182 0.000226364326834467 0.00205663065089702 0.00489799483749392 -0.000262863193970583 0.00353122317092842 0.00263384498506094 -0.0012333069689106 0.00180005492565576 0.00322307422685604 0.00300509660717456 0.00379625262103869 -0.00261670759324263 -0.00106390835978082 0.000794349935739805 -0.0011920248182592 -0.000169723717269137 0.00804690708896853 -0.00335381440622941 -0.00852043153040177 -0.00258595448616318 0.00148906553863079 -8.20328390076614e-06 0.000944175817239329 0.000132094807561527 0.000556901301505916 -0.00185663553809333 0.00139315991156948 0.00126584628665342 0.0112912812725758 0.00273563859915454 0.00620492333016521 0.00603812924803812 -0.00147231951168833 0.000689566840945682 0.00302975381058909 0.00167589200086788 0.000996744303768629 -0.00443561706762831 0.00252497710948589 -0.000718496467763252 -0.000891280250308323 -0.00129022902812878 0.00709676679634308 -0.00495573528713665 -0.00304181543376724 0.000290130985388852 -0.0007353683410468 -0.00399777507990029 -0.00253729213773826 -0.00307655062479095 -0.000852246958715252 -0.00189575628716389 0.000637633214205714 0 -0.00152441425180063 -0.0101959315625186 -0.00344764623683746 -0.00323630020109891 0 0.00127187904508777 -0.00550350744413178 -0.00133228064809471 0.00560048930697106 -0.00300305134204865 0.000448430372265503 -0.00185680313800373 0 -0.000593218215606205 0.000169541092314098 -0.00422055448048774 -0.00487362383371444 -0.00421268321728492 -0.00491343616775984 -0.00255072437275551 -0.00434171138630182 -0.00687177701094124 -0.00335211221251608 -0.0022345453911655 -0.000247369229214774 -0.00813572415982635 0.00388539386111412 -0.00283084957587683 -0.00413395442734882 -0.00200389651105135 -0.00276549952852814 -0.000960137374554841 -0.00335945424742853 0.000310128771988962 -0.00129260481940082 -0.00272766718671365 -0.00270907440811261 -0.00177446936023996 -0.000182745216051345 -0.000705193600710357 -0.00157099650201949 -0.00227963954122764 -0.00225102537845362 -0.00117555314422124 0.00071741136884982 -0.00457250238636495 0.00234616796977156 -0.00117589163890781 0.00594128385064293 -0.00283366994929231 -0.00147169304626885 0.0057544716353042 -0.000858438538730096 -0.000170955766264202 0.00280013175682953 0.0053354315953385 0.000773792185418623 0.00619658176824064 0.00497823640630841 0.00108623080633296 -0.0026015560781344 -0.00714173442653948 -0.00269256858334076 -0.00282669190602138 5.99977531115358e-05 0.00175580414661369 0.00597011356300281 -0.000303145676626874 -0.00133129887960145 -0.00112122319607885 0.00394330084290487 -0.00589135982327204 -0.00218345474872424 -0.00556010741534389 -0.00510628510701956 -0.00453323234407964 -0.00235990488052566 -0.00508523917456251 0.000151994064669248 0.00123704564759788 0.00443625180306551 0.0019035146288353 -0.000122951479570599 0.00314898135103216 0.00356030983597333 -0.00302810965952014 -0.00479394487799613 -0.00370597468298506 -0.00411321723341473 -0.00264701227671159 -0.0056250617227106 -0.00395700806908475 -0.000859525876039833 -0.00156594519687696 -0.00319965620355059 -0.000689618455820402 -0.000115089224283753 -0.00491577000847032 0.000418106822193325 -0.000500437636527927 -0.00424566710372244 -0.00676164480792781 -0.00621075102671399 0.00393644083996283 0.00760564934548334 -0.000499608624042143 -0.0031308373060483 -0.000591892267495745 -0.00211839289237513 -0.00472124183330796 -0.000782739070471883 0.00197239426415701 -0.00207861779341288 0.00184423430787736 0.000508890138838303 0.000798867128030086 0.00431952438366599 0.00300576947875208 0.00317708561444188 -0.00323585109059425 -0.00262335054213159 -0.00140645054469351 0.00463576276056602 0.00273822429233482 -0.00404807041780915 0.00180804790958061 0.00148136676018631 0.000908350195834748 0.00811053353130023 -0.00406027610143572 0.00194937609541604 -0.000125497355775964 -0.00120021772377955 -0.0030917209099666 -0.0128590916382534 -0.00123700521563664 -0.00278108850608204 0.000484477344393394 -0.00678894383444799 0.00107654597807662 0 0.00151508240494432 -0.000565652974186576 0.0013902619168161 -0.00123525431169964 0.00637310570954916 0.00488886504854175 0.00401130088436377 0.00319050838999084 0.00286317807198316 -0.000397336535073918 -0.00202195081619866 0.000667890784078635 0.000441512874731683 -4.11247660672936e-05 0.00400818305723877 -0.00180974458703513 -0.00119090148529308 -0.00189663042148815 -0.00261018703021016
-0.000214382894109526 0.00528241607638364 -0.00320840860398541 -0.00536590226973618 0.000165500036808985 0.000439567659418014 0.0018525422765662 -0.00191881042512206 -0.0022224212535931 0.00339105488451358 0.000538337980319046 0 -0.00365588189285574 -0.00947067787961369 1 -0.00391480167979891 -0.00245800910375874 0 0 0.00379388088911852 0.0013610320387462 -0.00517675495519653 0.00149921542459427 -0.00396513472871304 -0.000169098284995885 -0.00700346670945232 -0.00077155370502171 -0.00417900725288589 -0.00308174803789499 0.00381090729798895 0.00243569473411995 -0.00155848639665291 -1.36534020263251e-05 -0.00681681439584194 0.00292693095079586 -0.00266699613459668 -0.00727318534194258 -4.50623948054773e-05 -0.00544344261076597 0.00290479474373654 0.000588223784152782 -0.00216167610749823 -0.00463269133914179 -0.00721937258780972 0.00037451706221655 0.00204951968663949 0.00147828047865884 -0.00149993315045538 -0.000489380274410495 0.00314099923020582 0.000811591863094681 0.00041965692330657 -0.000146243828104543 0.0016435449024424 -0.00455239022486278 0.0027740787994379 0.00324172692969122 0.00130473198994136 -0.00158990046602676 0.00173067700044059 0.00268421247816449 0.00199468312743515 -0.00137285059527018 0.00668411951524691 0.00749390543799982 -0.00102142044248207 -0.00207911036110708 0.00126273599402381 0.00327434437812721 0.000817793462962404 -0.00548250825337852 0.00105438447165879 0.0081799480689412 0.000171209893128439 -0.0041298087858608 -0.00663008789213999 0.00210930570289225 -0.000581175245386809 -0.00336121673281136 0.00579259701703845 -0.00327383765492919 -0.00438781697100062 0.00477423671838251 -0.00852353554270233 -0.0037659269019039 -0.00389624905480193 -0.000870319651851369 0.0010452958113924 -0.00401140881411414 0.00058334293163342 0.00303008729979837 -0.00025250297983866 -0.00233412781374684 -0.00330339456293792 -0.00223109065715431 -0.00234292672294003 -0.00287281229614286 -0.000774609531542058 0.0017427597753465 0.00246234901007575 -0.000119236025142886 0.00229299637314361 0.00142191397256196 0.00348506372810336 -0.00260558170941904 -0.000953442314642803 -0.00398413512933868 0.0033922051827468 -0.00153624374171807 -0.00309659429137363 -0.000915175192738736 -0.000807036544534834 -0.000413516810765139 -0.00541164098335687 0.00455453221527475 0.00414127888149605 0.00531959526386609 0 -0.0044623223973285 0.00170957553335072 -0.00266602339826661 0.00248746914017156 0.000115145490889288 -0.0039215537253845 0.00541188055259039 -0.000801929855325415 0.00495144356917527 0.00175081860393493 0.00451097631905223 0.000192173738834191 -0.000914706821094493 0.00111563618772487 0.0026577438776577 0.000427462237317415 0.00519402204923946 0.00767612637843968 -0.00153161474246454 0.00575943908752169 -0.000846067838516002 -0.00255985379051594 0.00165802901554938 0.000241148125648294 0.00882629680127435 0.00230762404025778 -0.000803753714180007 -0.00236679177723183 -0.00808649222666742 0.00176545861554907 0.0010777725802721 0.000194398688377086 0.00467179131137756 0.000225146627749712 0.0024060010088662 -0.00279758256092751 -0.00385991696790993 -0.00783524205287291 -0.00531098080061222 0.00336395310048158 0.00263096563983854 -0.00123071174195428 -0.00324481984197772 0.00456608020582534 0.00206753009519008 -0.000534953161898092 -0.00392558050397798 0.00210948625221018 -0.00699736383009504 -0.000759271322696 -0.00172992621433946 -0.00766207192582495 0.00337743113829079 0.00445366849147698 0 -0.000437320869950995 -0.00535760775414338 -0.00181242258289564 0.000281264716494404 0 0.00507623497175576 -0.00280739531131547 -0.00436992401672465 -0.00579661254102305 -0.00598221952562763 0.00418130898196184 -0.00679751148914144 0 -0.00876057204746761 -0.00501416973740327 -0.00396181721876522 0.00285485752784592 -0.00123403563033427 -0.00727553870548967 2.53903600522424e-06 -0.00673922527978405 -0.00489844008079648 -0.00364490621330588 -0.00123283960012907 0.00133673855949503 -0.000307916813737802 -0.00528280124936827 -0.000644527379421945 0.000520578971968954 0.00326421550692397 -0.0014523763272154 0.00176181363817096 -9.74675604548763e-07 -0.00454416831760161 -0.00314583907617156 0.000783665192442328 -0.00256709849719836 -0.0066731044693192 0.00159765165756385 -0.00261584131049703 0.00531845014532188 0.00194124951999735 -0.000374433809583809 0.00443771516668047 0.000212721251055637 -0.00580834614750915 0.00130322015489078 -0.00183305700004633 -0.000733599824738595 0.000850233941437447 0.00639789277007907 -0.00123254553659267 0.000451700193110581 0.00140687525520375 0.000748058034010817 -0.00447289087794447 0.00268764880679303 0.000220337861223542 -0.0024558867229391 0.00453766845170861 -0.00317245450094238 0.00113028747413188 -0.00637738709316336 -0.0045884153806303 -0.00183739159829013 -0.00186149157712007 0.000751939004626526 -0.00111061748741829 -0.00330569635399905 0.00416598343254869 0.00361278316751048 -0.00136399697007523 -0.00213527344508537 -0.00300788442842106 -0.000839916768167166 -0.00320490044524899 0.000616920543131688 -0.00193054049560919 -0.00125291430389708 -0.00315293369897485 0.00150084537030216 0.000625486412795808 0.000938754949737041 -0.000392236155555848 -0.00129938976720165 -0.00451395039706607 -0.00572193023610616 -0.00630461794979654 -0.00393572485359769 -0.00369686114007107 -0.00308920487806535 -0.00111574641583842 -0.00795064392758649 -0.00434986906074306 -0.00162824877124187 -0.00162771175309438 -0.000769027474291394 -0.00189701220283329 0.000303108282007606 -0.00313518490868601 -0.00455760433595853 -0.00617729748510941 -0.00457992097594362 -0.00326159925186447 0.00188746661544737 -0.000976771042588863 0.00223380046944456 -0.00857475196521257 0.003002343279737 -0.00291662504419447 -0.00675094829622596 -0.00592769049245691 0.00315708994428201 -0.00199398870912278 0.000371868001827346 -0.00645673214786926 0.00116595860260489 0.000572790594191078 0.00511037944660379 -0.00150010436945792 -0.000919724568950809 0.00181754121104113 0.003292769029342 -0.00090013240466595 -0.00122442203118031 0.00364472587549699 0.000739064506539115 0.00367340088000186 -0.00252319217678333 -0.00318975972376889 -0.0047994143642778 -0.00615709910441785 0.00391003081134693 0.00271196202646388 0.00121095675082452 0.000677596114011528 0.000145259286899867 0.00226724287905043 0.000442338805761022 -0.00113348305048167 0 -0.00337739955568184 -0.0054658712092529 -0.00396649546142203 -0.00511171579208407 -0.00213356728031641 0.00152490891153964 -0.00539764021687428 -0.00237618922543079 0.000254239518472398 -0.000935351470700866 -0.00472613621461827 -0.00618565077265282 -0.00180090148522213 -0.000998216811220127 0.00292001436652805 -3.31658362619206e-05 0.00300045190277461 0.00204105756658323 -0.00252910358615118
