1 0.00417855449843714 -0.000559595232065807 -0.00146267641886385 9.84141335318704e-06 -0.00635222211589575 -0.00559078812060049 -0.00134977565982421 -0.00409419486896654 -0.00012687888011342 0.000351539875415596 0 -0.00689639529321401 -0.00112814655826398 0.00635216685354938 0.00395971273766968 0.00694554829378775 0 0 0.000107618344490832 0.00921217468900693 0.0063279203053706 0.00172521179257047 -0.000603172468775435 -0.00382087501298155 0.0042494492187588 0.00693802488235853 0.00264875186124894 0.000774111722524533 0.00377551292971657 0.00154015568088807 0.00366728768486744 0.00128551686400284 0.000888720613597824 0.00557265254553467 0.0069030202971776 0.00349787667624702 0.00419617167883979 0.00267878196572509 0.00311343785468537 -0.00448345720377864 -0.00469190944757077 -0.00410965703292086 -0.00321968549229664 0.00210817770627566 0.00297452832855322 0.0015714516354883 -0.000360036951563817 0.00257683320236797 0.00663826899115644 0.00328836741883509 0.00576477762556624 0.00247029942229318 0.00236354409159061 0.00235394794627096 0.00703232386486367 0.00476219190031306 0.00313033877682437 0.0030399901003535 -0.00112958635601425 0.00155807618263835 0.00147499686725094 -0.00389942887817635 -0.00650507886312113 -0.00377138646319854 -0.001229668568866 -0.00449050696407886 0.0006897967064247 -0.00393613044740833 0.00411496170993542 0.00164367657579801 -0.00263559661180297 0.0017031660697149 0.000852810957197123 0.00201905102692832 0.00493890216960906 -0.00257794906693433 0.00238968061395368 -0.0022482476800967 0.0024091052739965 0.00679494390732641 0.000436209630852863 0.0059592009150217 0.00725052703719102 -5.87021795632461e-05 -0.000678548379902433 0.00493373101387458 -0.00421453836153208 -0.00370962535002532 -0.00281947038945357 0.00802343912192309 0.00454393580237321 -0.00555475872411047 -0.00321331843634526 -0.00441623766647975 0.00313171352158155 -0.00289152095437433 -0.00153397178571375 -0.00521238119501384 -0.00337058826696857 0.00106420074557013 -0.00193991333876224 -0.00737569597223641 -0.00359690590541783 -0.00576843375759005 0.00353331224741767 0.00239416439513871 0.00526337128401459 0.00495996545275282 -0.00151065020706353 0.00519039620352037 0.00358299215193719 0.00309119420453844 -0.000726294419452021 0.000650467424159346 -0.00518854548683194 -1.97869414200104e-05 0 0.00431962392006701 -0.00239947866249226 0.00141003837020356 0.00547113801554617 0.00167653709259294 0.00187532156115897 -0.00083582565442901 -8.98083769319032e-05 -0.00128428501316607 -0.000628112055864529 0.00159207529401611 -0.00405350523973555 0.000874941604849941 0.000187664628464217 -0.00454847647898376 0.00170591993294599 -0.00172431009701957 -0.0019415568161342 0.00320096973149536 0.0036469553153423 -0.00343656395092728 -0.00351159851630625 -0.00193903197846647 0.00307270483305061 -0.00373351244180339 0.00375931540998119 -0.00443022955327825 -0.00314977728507843 0.00116283763909511 0.00206688419525929 -0.00139689222643208 0.0017442821289043 0.000241210679503003 0.0016864179411078 0.00277633159794847 0.00277467438479215 0.0018356799706297 -0.00363504228003533 -0.000885116186350962 -0.000977363683165727 0.00170647861609854 -0.00153693316101003 0.00325539134149305 -0.0129107835458391 0.00463516171239644 -0.000738767023830133 -0.000596315872909319 0.00196117026850135 0.00385572812587413 0.00342837827706831 -0.00202122180737151 -0.00289088691337784 0.00146117289590192 -0.00291419582335609 0 5.63509591700364e-06 0.00284443653032453 0.000603990611731548 -0.00141833753277206 0 -0.00290178732845815 0.00179919253511226 -0.0021349750420616 -0.00448206711681517 0.000796953871145594 0.00246618278857209 0.00259286258277499 0 -0.00080665658429886 -0.00128238281309407 0.00159427966183121 0.000192556340635542 0.00429328509915635 0.00303586008132556 0.00933574392395347 0.00351840050598786 -0.00198791570660115 0.000914077370716999 0.000848513894866145 0.00261380116419427 -0.00339869257679881 -0.00652521000198382 -0.00218326926465387 0.00269663912219789 -0.000564914927844989 5.1795840690916e-05 0.00036522220995546 -0.00017740460541491 0.000766818218291325 0.000312129155248536 0.000524095293175293 0.00322746183905832 0.00281175901604645 0.00112740652146314 -0.00119114161898479 0.00366750621413066 0.00408691870796098 0.000743426137366078 0.000498945806699142 0.00279234352021226 -0.00321132309985494 -0.00942631750997841 -0.00366311789342495 -0.00292150189882577 -0.000948582304543493 0.000969351485781867 -0.00171713797951056 0.00170640912945792 7.12190717524888e-05 -0.00022324755841067 -0.00640761798825913 -0.00173042556999111 -0.00230427778489067 0.00171537790041431 0.00270441874571876 0.00352356447429753 -0.00263932671184853 0.00451075685094142 0.00219580953113403 0.00671477621684411 -0.000190304220077263 0.00113035889932459 0.00315220812869237 0.00169879121735296 -0.000398059859486821 0.0058939733206353 0.00852603871725233 0.00792607639508698 -4.29556197067801e-05 0.00825055187142622 0.00643781692910013 0.00254527750740035 0.00359102872299748 -0.00436491499876229 -0.00678749987083939 -0.00569453761588142 -0.00245987761069701 0.00202788090050652 -0.00776944852456 -0.00660835196261703 -0.00884106499244472 -0.000958032875417357 -0.000864144340273611 0.00149574698976465 0.00094272108954781 -0.00145390847089139 -0.00910343430333515 -0.00488091413329259 -0.00334090073134441 0.00523325379733275 0.00287741013765174 -0.00366888494905892 -0.000475774528083974 -0.00147816308612487 0.00465562724249476 0.010057204741998 -0.00236010977070003 -0.00362657595105935 -0.00014844504601048 0.000944524602331499 -0.00291346787412385 0.000283580591529346 -0.00305951945892478 0.0031719072686299 -2.12888686272636e-05 0.00289245705970438 0.00331144805596882 -0.00328519781485486 0.00388664577825036 -0.00300133741210906 0.00111562944756179 -0.00368521503576188 0.00025199115014613 -0.00733013280672296 -0.00414540813858325 -0.0046855927949944 -0.00476998216772418 -0.00140913075398232 -0.00226466851252471 -0.00131850322038966 -0.00677258434758795 0.00164823220051845 -0.000784485011852722 -0.00313065607296485 -0.00429104697135514 -0.00570366376841212 -0.00452964048738694 -0.00329150529629459 0.00114500069164056 0.00401051368822595 -0.00384522642429629 -4.72987101425123e-05 -0.00073863783049594 -0.00109751983344075 -0.00709579716061312 0 -0.00619015791027821 -0.00391206584821885 0.000439477954920664 0.00418167775820999 -0.000860131990848947 0.000163823822876759 -0.00692004195687031 -0.00106552518682005 -0.00374026443984325 -0.00368864983873517 -0.00109961002709229 -0.0070442133716612 -0.00590806624115965 -0.00356417570274273 -0.00320419501488254 0.00170302859268534 0.00271191951152333 0.00190960899880174 -0.00409701090105648
0.00417855449843714 1 -0.00830702352165261 0.00833741663391784 -0.00492128886525901 0.00146205006123018 0.00692391642041064 -0.000847782186535663 0.00276901372761282 -0.00950201118347248 0.000141092297222279 0 0.000816948182003995 0.000832034915058054 -0.00516967992289245 -0.00706922924719582 -0.0038689974304286 0 0 0.00573293998951206 -0.00687530551122273 -0.0130531614678184 -0.00313978873337265 0.0117631764090155 0.00828009695362242 0.000936230582101733 -0.00332068086282876 -0.00193694553956012 0.00880699592947936 -0.00854854651883188 -0.00300773392703644 -0.0124906229156825 -0.0114612111806962 -0.0145070330325841 -0.00781792911129778 -0.0133151354576089 -0.00863705242681596 -0.00197112524251263 -0.0103557854809467 -0.0130797746624237 -0.00686788820734602 0.0054111651204781 0.00687863998959738 0.00967595213585981 -0.0128301167781213 -0.00788800191103099 -0.0132299429478531 -0.00428436558231328 0.00357857885938819 -0.00537537431012508 0.000533515873528268 -0.00100386877326603 -0.00815474554891009 -0.00591293912847382 -0.00141515225808772 -0.00818767023134376 -0.00485407274646934 -0.00585106793466218 -0.00792520174683379 0.000323136011919831 -0.000795125079967762 -0.00380340946060157 -0.00834713370437879 -0.0050765690986271 3.77530901106485e-05 -0.00831772986845229 -0.00842300059170119 -0.0100153937526046 -0.00951470439876094 -0.00698047728860351 -0.00654765319996417 -0.00593053362256249 -0.000236721103548874 0.00427231758210873 0.00722991994241117 -0.000944447097516215 -0.00850419586047739 0.00324825977934197 0.00196198001812608 0.0098729215148736 -0.00299417609651667 0.00926886877025796 0.00149529630562495 0.00478592681443677 0.00622398870990074 0.00436517574666169 0.00551342997047038 0.00114435586281112 0.000368329378825828 -0.000712645652943361 -0.00744258850837566 -0.00496700648670849 0.00133705797983524 7.83189412982658e-05 0.000522539473083512 -0.00400213559495328 -0.000412817269141069 -0.00258312728149058 0.000931604391356564 0.00471352582188914 -0.00657796526680104 -0.00913037394133525 -0.00552311382199275 -0.003492586568311 -0.00245399357842198 -0.00283371212736874 0.00222074637105761 0.00157608372207752 0.00211384911484386 0.00237960230210006 -0.00627110930384931 0.00335905318239425 -0.00113245486873058 0.0081066764024732 0.00213193261072996 0.0070842419160415 0.0082972162631277 0 -0.000375077000243448 0.00420099630607439 -2.7913701714191e-05 0.00539956458371456 0.00174276816702416 0.00062476888650968 0.00324159893416433 0.00204719528653321 -0.00195535597034367 0.000784576200305875 0.00297980107317006 0.00389980943347405 0.0012768519055454 0.00114564981550675 0.00401009736686856 0.00226991198509899 -0.00128652609690194 0.00320409293381566 -0.00572089562243551 -0.0027278471299893 0.00264315270885594 -0.00250380808356236 -0.00249181071532869 0.000649084171290335 0.00595083144639479 0.00283542356851395 0.0112404370172396 0.00461016997547023 0.00141168131623965 0.00355095850974736 0.00566789567856585 0.0070435781689991 0.00182166767977217 0.0064676563054958 0.00359281898719129 0.00587679683627399 0.000762236869447972 0.00174783941958086 -0.000181768348388437 -0.000656303249054319 0.000719497995689565 -0.00388022326813851 -0.0073164807428009 0.00860210747248994 -0.0059315492071087 0.00278780645294252 0.0128805184609565 -0.00431741463654116 -0.000833035722392571 0.00254410423289325 0.00716149507293747 0.00580385775987631 -0.0063311230412769 0.00587466090204458 0 -0.00662473146639583 -0.00498450480584038 -0.00545575377342515 0.00215159724820664 0 0.00137896012991586 -0.0015272434931206 0.000645200541473795 0.0137449444410781 0.00429313534623768 0.0050543763276707 0.00252662089883707 0 0.00306523477817448 0.00886943515072051 -0.00179516111311024 -0.00132558651605754 -0.00829432339637717 -0.00412333304352956 -0.00615809217816263 0.00181379506079778 -0.00383659567192734 -0.00848843283007851 -0.00659884474414021 -0.00332295513445156 0.000391406987206989 0.0131450758624959 -0.0061185167139026 -0.00525407949823845 -0.0038005481038964 -0.00708821234821715 -0.00857267329911443 -0.0056643195651261 -0.00344001583370854 0.00634646832627281 -0.00351210547696382 -0.00954596246710824 0.00077741233348336 0.000180744214535285 -0.00250171946377827 -0.00742843915953763 -0.00552113928497201 -0.00345313433982252 -0.00265721053927994 -0.00147746036435033 0.00214381557479651 0.00210787919664265 -0.0019944690416511 0.00298624242491016 -0.00518874539847 -0.000818651529645493 0.00303954133116625 0.000728247435520279 -0.0010740071009481 0.00121027836938197 0.0026272578981876 -0.00581710436775943 -0.00091063793817084 -0.00318962772601619 -0.000208537938742031 0.00516337028907755 0.00851874783886399 0.000757265355812556 0.000958653749520607 0.000573338312768921 -0.0052366427050163 0.00379673592376335 0.00208600701290599 0.00222974663220518 0.00331012269233389 -0.00419893801535653 0.00753521750040357 0.00771915283766705 0.00769709846312488 0.00602276372184217 0.00359319460897067 0.000538690726632183 -0.00166511716586086 0.00517210246530559 0.00315447274627273 0.0100158036483824 -0.00132551909182263 -0.00257029808025856 0.00612037403850248 -0.00486729095207936 0.00525042247337663 0.00815369918447198 0.00472975178330462 -0.00245580272948263 -0.00412564201740802 8.96152302967187e-05 0.00593385105875726 0.00298629864036647 0.00268032953662029 -0.00764274044974968 -0.00801549085683033 0.00191132797922888 0.000757191984155629 0.0129742284550658 0.00393980005667945 0.00506539629534384 0.00117600973142648 0.00969150718507453 0.00575830115287362 0.000143777437832577 0.00324198232842815 -0.000291044923830146 0.00498382444570925 -0.00114131432820562 0.00382904159533629 0.00165083320252347 0.00116998013780853 0.00104275779528319 -0.000434087706868659 0.00599199344390767 0.00793540654164147 0.00799423303740475 0.00472314845898025 0.00212751003315266 0.0048401093423779 0.00182714066980713 0.000129653901991577 -0.0028767832941439 0.00197910851532952 0.00188268361243071 0.00819140213203405 0.00486346020336913 0.0068378039522609 0.00945309003761048 0.00329009555528577 0.00521187706959803 0.00104068823217121 0.00361965192021553 -0.00293518479441456 0.00104485134342226 -0.00117194546962514 -0.00178275766244237 -0.000978423317083438 0.00108059078271872 0.00172473440687511 0 0.0130704835339359 0.01276858930474 0.00122973316112855 0.00463882119716223 0.00354059250589622 0.0059830690479477 0.00810484110777968 0.00358007385456623 0.000772759233345619 0.0110543819804449 0.0109545379343505 0.00588394212939176 0.00994415840679942 0.00866326634942303 -0.000654438808756477 0.0028716275710612 0.00230662505130484 0.00181829121248925 0.0019171942289652
-0.000559595232065807 -0.00830702352165261 1 0.00406487268192086 -0.000994699025607835 -0.00233223856859299 -0.00122203494457766 0.0031318379877209 -0.00512023160028921 0.00135631544531708 -0.00388556835333592 0 0.00773956711329259 0.0117475051492004 -0.00241048898026792 0.000527890594475083 0.00383595541233928 0 0 0.0101152003221906 -0.0044642120911259 -0.000257199288931904 0.0024281033394587 -0.00179466249199521 -0.00229361680071505 -0.00079975677618427 -0.00369258829363691 0.00225612910183884 0.0049182416654854 -0.0113182623829113 0.000697996473680738 -0.00643696115894363 0.00455415426943846 -0.00419964890218749 -0.00906327814022746 -0.00634164159429073 -0.00388004874715314 -0.00548840339720643 -0.00408684536455528 -0.00150682360859629 0.00431580512611169 0.00389049437347447 0.00184720624267621 -0.00275823545601794 -0.00227530533088999 -0.00607970099718557 0.00791916141743455 0.00270478622047709 -0.00320940323109232 -0.00719820478171515 -0.00626586013926933 -0.00309178848894547 -0.00411226962654345 -0.006392532113656 -0.00796067201311902 -0.0119541067861794 -0.00884663667204093 -0.00930826218828148 -0.00600430922424237 0.000646922641841135 -0.00647330702765212 -0.00664541021083557 -0.00764469380419985 0.00707044739238403 0.00854100418300081 0.000342159785296591 -0.00145989707686785 -0.00365783532058933 0.00478882618087728 0.00597169997110109 -0.00411761144810772 -0.00867508221752437 -0.00578084092760351 -0.00454386259571219 -0.00362479041191397 -0.00554389743784787 -0.000928216717100112 0.000637528152285936 -8.74979494951047e-05 -0.000624690011261082 -0.00426915122891134 0.00351039188850385 0.00578828826052724 -0.000117331307807378 0.0033243992156799 0.00308779693955378 0.000803507153395961 0.00192698291119778 0.00355057296575764 0.00615608543721955 -0.012901408215584 -0.00595667331663422 0.000890263994877829 -0.00156268540290128 0.000697537424569693 -0.00194489236749709 -0.00544911392466247 -0.00291544636319104 -0.00367616325718978 -0.000770430194374906 0.00331404900733566 -0.00533376461515746 0.00490449031638902 8.15834451812701e-05 -0.00510385650428983 -0.00582225385270172 -0.00546153381503539 -0.0113378077479865 -0.00795116310850968 -0.00585882261790267 -0.00348782585810222 -0.00979888076830744 -0.00717122498713239 0.00166917004018171 0.000511333861547925 -0.00065570053928859 0.00470679784035607 0 0.00229064921387282 0.00678387648390657 0.0068112079378252 -0.000611643518801355 -0.00351196185355376 -0.00514120106157448 0.00502707128949407 -0.0063398857894917 -0.00697905787828138 -0.00579432595471387 -0.00783908983996352 0.00216883956732253 0.00201884614833453 0.00408110031556956 -0.00307670259010099 -0.00604158952372299 -0.00838669018635491 -0.000593179123106107 0.00201091715803539 0.00262825284372321 0.00211847337566149 0.00323434690752805 0.00515475806186462 -0.00861311039411969 -0.00251238657551573 -0.00282451239035689 0.00271789359068217 -0.00443345930624851 -0.00673918531692736 -0.000257764598804126 -0.00222820919373958 -0.00105897527833308 0.00233267939469468 0.0072268129704622 -0.00766131114173508 0.000485695300292341 -0.0109704668163534 -0.00166766608830761 0.00285733783498145 -0.0010548385471256 -0.0112644776535694 0.00242934986000387 -0.00721032390909436 0.00729734819086028 -0.00629849475353867 0.00150492382430526 -6.62829410260228e-05 -0.00293564595534311 -0.00242219754785173 0.00563994032111675 0.00618589971379123 -0.00129055733441698 -0.00116156442686093 -0.00169349165167476 0 0.00637544113817177 0.00584527730143449 0.00449447516562334 0.0111904612612599 0 0.00181505662532198 -0.00152508288418739 -0.000724349830639334 0.000470683110801241 0.00375106821774453 0.00311643849824622 -0.00382037287332051 0 -0.000255312853002681 0.0065306210146273 -0.00198182630588296 0.000527615134271326 -0.00320220722384774 0.00296532049282463 -0.00410870172751063 -0.00200952616943122 0.000685970259842227 -0.00453117495805894 0.0021965170356271 -0.000760645796223213 -0.00278443906622402 0.00106421693815775 -0.000165286375110181 0.00013377427092243 0.00311176343162353 0.00302524088486806 0.00190076888514097 0.00202239969232541 0.00416956019965751 0.000257297592078802 -0.00075402270039543 -0.0013473757841027 -0.00431247967438482 0.00210532100048467 -0.000639912247835085 -0.00234648567058705 -0.00202021909579906 -0.000779941329563557 -0.00476884269831113 0.00233560124889824 -0.00664829535675446 -0.00113521470765078 0.0041883827954838 0.00263675860563043 -0.00931786480216717 -0.00149678094327021 0.00350871365206752 0.00362249061959724 0.00276573605394325 -0.0015935076900018 0.0010393842782477 -0.00291279097457732 -0.00136051985461598 0.0014591386439954 0.00211592476802813 -0.000971391229569956 0.00132234496980726 0.00158847002770608 0.00210735247829684 -0.00201720011773994 -0.00412587265318071 0.000757200753070874 0.00013304065242052 0.00442224255965514 0.00278705238883728 -0.0013205035236117 -0.0013329395180346 0.000863883310481317 0.00257335747517355 0.0040854988287965 0.00217624135400615 0.00378913026171197 -0.00709882058058576 0.00311411032645363 0.00192753027214305 0.00122672457905238 0.00474835145475433 -0.00758474951344384 -0.00296382931159659 0.000129229512708769 0.00291820668039464 -0.00334527316702812 -0.00834408393021367 -0.00862641003355362 -0.00433519841107093 0.00496865982547404 0.00129779105475422 0.00185710207555992 -0.00100056420798317 0.000698170321813696 -0.00661191634657891 -0.00486882470003723 0.00802765716083403 -0.000861553168962174 -0.00254763479623073 -0.00433574523968171 0.00347801552396474 0.00292834916218224 -0.00277458592062943 0.0020996108803979 -0.000724653067599901 -0.00675053214909662 0.00375880767247139 0.00220933081778887 0.00458109524482391 0.00140498782843056 -0.00511541209579114 0.00388042677598917 -0.0101092587315992 0.00222956226999046 0.0077681110514814 0.00541560740747558 -0.000611486915741362 0.00176093699860796 0.00915975165016569 0.00344117484978163 0.00150066648764776 -0.000632601299894082 -0.00380984186284124 0.00621625701234479 0.000826794627938205 -0.00287083616767032 -8.13717138950399e-05 -0.00186530529641907 -0.00329209145557181 -0.00633210874124914 -0.00872027003499814 0.000321516871007172 -0.000515638213890342 0.00174068303073744 0.00277380059529435 0.00324729187937486 0.00744039554394553 -0.00165577129164404 0.000152540395430989 0 0.00287730463793629 0.00525623067743156 0.00223104694058092 -0.00761299788752211 0.00467395969854081 -0.000408446429776882 -0.00179962903055034 -0.000472993819199432 -0.000755371250436323 0.00535969790675658 0.00538537674171948 -0.00352028546338843 0.00480746789299207 0.00843758658479236 0.00128317355353058 0.00691008954097216 0.00314090455071475 0.00489096370768288 0.00299631982253077
-0.00146267641886385 0.00833741663391784 0.00406487268192086 1 0.00432048402016254 -0.00696622745452104 0.00173553022165329 -0.00149013519610722 -0.00887170556029434 0.000221728545453976 -0.00153408414469606 0 0.0095589435451409 0.00749032887383922 -0.000544925543856058 -0.00421231769606788 -0.00152393430364656 0 0 0.0044114085250092 0.00390810540710022 -0.000910730665853002 -0.0050485499517589 -0.0044618774426031 -0.00622487814644914 0.00249289752931157 -0.00909553069304897 -0.00286778960703582 0.00297456176833456 -0.00385471866668811 0.00984739314241491 -0.000849665394502048 0.00692873245847077 -0.00383058867289462 0.00546025870419979 0.000538714539318501 -0.0023762404664801 0.00517230948846495 -0.00226233902510677 -0.0109437510719883 -0.00668130631272962 0.00409913565439438 -0.00101790539680073 -0.00279625078445336 -0.0051919058051838 -0.00193640903460407 -0.00126613862499499 0.00920066833650738 0.00483894382752513 0.0089121955913532 0.0022530251613279 0.00171017020972259 -0.00208918636861196 -0.0036325370003509 0.00497541680682369 -0.00527498117224727 0.00218035764633684 -0.00394286958235601 0.000148049323150526 -0.00738864784678649 -0.0107005416828634 -0.0138633208254525 -0.0010177730772739 0.00827100679476275 0.0100222521887296 0.000240406468824297 0.00593756692244829 -0.00550280251812757 0.00380530635656718 0.00487472302933873 -0.00248404331892129 -0.00900049554124053 -0.00151629434680786 -0.00838367793916892 -0.00486108251609103 -0.00640160951284531 -0.000670959962268205 0.000400358101133681 -0.00227900323003657 0.00331541592823416 -0.00679489693062659 0.00654838123767095 0.00248815031391479 -0.00803668620044453 -0.000343762107697859 -0.00200097968687843 0.00575471097030966 -0.00172549966494976 0.0069992004977757 0.00579126875348439 -0.00517823415207421 -0.00520769860581126 0.000265691696165266 -0.000101769877539926 -0.00135654033676549 -0.00280084909152892 0.000604322721713989 -0.00434798705258636 -0.0030190189590966 -0.00911271185603577 0.0019963276281291 -0.000357557858396321 0.00612711673820633 0.00579859861658936 0.00536809292853611 -0.00532058750237559 -8.47188462071083e-05 -0.0045291881945609 -0.0075081762016825 -0.00379560787136989 -0.00492627044791841 -0.00986909340987732 0.000624981314567737 -0.00156381748894009 -0.00106656469898831 0.00322838779933214 -0.00341061362464739 0 -0.00104256506186481 -0.00281454582612561 0.000157118515436283 -0.000303077335089958 -0.00210171521383087 -0.00733223555470065 -0.00264701169680925 -0.015146356771311 -0.0168738886245223 -0.00759099075742493 -0.00435150838473314 -0.000256172756295932 -0.00127277561599791 0.00266345223885554 -0.0108705925860674 -0.00412914791795931 -0.00924063903539829 -0.00360404407953867 0.00445215467498551 -0.00254137586886197 -0.000648878078700163 -0.00344063764534524 -0.00286124610377297 -0.00666658538965461 -0.00239785765022954 -0.00586251728592388 0.000455822094634572 -0.003622183057395 -0.00885777900336373 -0.000459496656657028 -0.00662892987561728 -0.00898600359454541 -0.000297173427475032 -0.00523365646025576 -0.00741301277682978 -0.00250805976147477 -0.0046742124764036 -0.00320998570523 -0.00658922961155023 -0.00805474657933398 -0.00802912712322137 -0.00109309372760438 -0.00912780146251767 0.00851441504154158 0.0115086501814536 0.00635755218840045 0.00113468353051957 0.00779819796084365 -0.00203684208002725 0.00787522642296729 0.00287521219747134 0.000547482086570129 -0.00269172995376807 -0.00248534197307912 0 0.00126269134803423 0.00624423170801168 0.00262150435166966 0.00776068400653181 0 0.00501626861416091 0.00815834601003705 0.000314304220240485 -0.00135992860267277 -0.0024136147282563 -0.00763244422430111 0.00262325581632702 0 0.00120264638698345 0.00267663618205689 0.00176800238946232 0.012933096215808 0.0116960371107647 0.00938752906573285 0.0115445293409044 0.0117496207520023 0.00522278642146469 -0.00268566713758494 0.0059276987559652 -0.00211092071263108 -0.00207376905334234 0.00529743735852427 0.0080754598110966 0.00404099871146062 0.00414534142577817 0.00153747365771912 0.00791389462233994 0.00762090540655024 0.0102714612889247 0.0039846528339459 0.0143226400587739 0.000839034425917777 0.00602204579676256 0.00714242280013298 0.0102365314096005 0.00967193259269995 0.00720793840508823 0.011776700841533 0.00732690929799874 0.00891808506393043 0.00322987692651021 0.00250901116761176 -0.00351044278681102 -0.00129501195489551 0.00273433909567087 0.00215353844174045 -0.00222286695412249 0.00203556776726048 0.00225076224587935 0.00132211159627305 0.00134861928107558 -0.00355791206777791 -0.0052656674590498 -0.00568627331208963 0.00190573050954375 0.00507124074828216 0.00105738802420092 0.00329853075191058 0.00391470349513206 -0.00526176685254266 -0.00201635946839641 -0.00132354339124267 -0.00140347589901395 0.00393403499602085 0.00189151383319594 -0.00629918650576398 -0.00138988593323393 -0.0054256447777751 0.00196998566482377 -0.00359087240102053 -0.00302553191174329 0.000945031885842288 0.00081346492568867 0.00885915304793008 0.00886765112554601 0.012142140267675 0.0114795117278321 -0.00390529024670234 0.00149093243303954 0.0075483333283737 0.00933887311263421 0.0074490988336496 0.00206533890481461 -0.00306832160012721 -0.00300580218927914 0.00365113005466413 0.000200983493258828 -0.00127151940154502 0.00123592750023515 -0.00756996735897114 -0.00544971733123789 0.0100452750408135 0.00392920703106716 0.00618921486856989 0.00719669293160153 -0.00438352914115516 -0.000427488658543012 0.000635186246368174 -0.000421499581518723 -0.00101579088146641 0.00189187531073659 -0.00615146857990352 0.00693060972621644 -0.00196373552739292 0.000918470171009228 -0.000352143461449308 -0.00491187834013087 -0.00732883295855194 -0.0116731206429928 0.00154259347927387 0.00587786862000963 0.00368093887557804 -0.00219107139321213 -0.00443753664029696 0.00634379281007567 0.00660112156539466 -0.00128081979566505 -0.00419081995780518 -0.0101866784722241 -0.000933964668761078 -0.00314299527486593 -0.00935036481214148 -0.00958802504664006 -2.97662613827877e-05 -0.0077088531323774 -0.00740013053623472 -0.0117435233192698 -0.00805757071401226 0.0116883600391224 0.0053091994181475 -0.00142632489119529 0.00144457929493345 0.00661870464261028 -0.00581289725798151 0.00361657419517234 0 0.00671924628734238 0.00408395475125728 0.00051131071505747 -0.000120122900321377 0.00673949124133871 0.00670751464063887 0.00124135063988867 -0.00567961695759698 -0.00695696109167841 0.0019423003499283 -0.00292115593373227 -0.00393647600996487 0.00667906572745843 0.00610840974689368 0.00349748204830833 -0.00111028967616189 -0.000330517661852461 -0.0015466658105662 -0.000921774902264822
9.84141335318704e-06 -0.00492128886525901 -0.000994699025607835 0.00432048402016254 1 -0.00401994070068987 0.00391420113575849 0.000565846367028314 0.00579536077911273 0.00228192941368687 0.00274545420943996 0 -0.00148876289679766 5.50142224006311e-05 5.71133360785026e-05 -0.00531016171839573 -3.16769342148252e-05 0 0 -0.00361801598643295 -0.00209339032345584 -0.00499674385209059 0.000358302772429766 0.00128499774604266 0.00132510050140369 -0.00768575637105434 0.00114784156005649 -0.00890652142131412 0.00156695775988467 -0.00394064891415545 -0.00376634388403879 0.00372805960814895 -0.00767661513664658 -0.00406896597070257 -0.00502736782892751 -0.00457548965535497 -0.000263046096273017 -0.00250763166573037 -0.00208528355564488 0.000278108378003875 -0.00421886178172049 -0.000106192120701897 0.00366575547363379 0.00135155726729383 -0.00300525738306345 -0.00389489894080367 -0.00833511536967669 -0.00296230429243996 -0.00294431297208183 -0.00482292932729707 -0.00417454712517984 -0.00295714866887559 0.000318409153052564 0.00214359923513543 -0.00106689641686466 -0.00413231560535243 -0.0017247455187741 0.000390493437234557 -0.00713785215004711 -0.00387042777131209 -0.00500830720005527 0.00223483859505269 -4.57877654531376e-05 0.000307189620170447 0.00466373060921405 -0.00276978312617511 -0.0029928721815856 -0.00146275043219903 -0.00175600490317082 0.00180697983599199 -0.00696207662063513 -0.00203461702389663 0.00815930765606639 0.00597943677447582 0.00194881324928672 0.00177266246007677 0.00379539687116682 -0.000423856738421133 0.00246245083206963 0.00694484453425105 0.00510817769757851 0.0052081256830309 0.00605546597960708 0.00687837559013502 0.00401941647955093 -0.000728067361786159 -0.00453893704329593 0.000941400239153832 0.00236902890944778 -0.00546634327189465 -0.00600861295626308 -0.000367282748149373 0.00651601750150055 -0.000762432056380713 -0.000775342825969724 -0.00571270926408902 -0.00230771963405326 -0.00483073450122813 -0.00196182098195544 0.00213214499694611 0.00171928989574138 0.00159814859850838 0.000670749237922366 0.0015206534528861 0.0012284129445785 0.000224275837694468 0.00065320262447353 0.00442510445013578 -4.33814619932526e-05 0.00327290867053275 0.000182804526989086 0.00355888847639788 0.00205578902152636 0.00473203985156928 0.0013704474680668 0.00148938222808572 0.00696326221063145 0 -0.00262791233520498 -0.000460627184978118 -0.000417782915566624 0.00590562251728482 0.00854282255260788 0.00184812626784949 -0.00023219671929391 -0.00131573765367943 0.000537780351592644 0.00210342897000175 0.0106873429273491 0.00175704460185553 -0.00182834282977083 0.00292362229499841 0.00236088064657844 0.00493455520820115 0.000186962037888119 0.00352832932765301 -0.00289222504302434 2.7686935247137e-05 0.00348782834905896 -0.00465544839066151 0.00289649778756158 0.00280097467755338 -0.000927825094997983 0.00406873888778418 -0.000406220969057428 0.00221967938433347 0.00166654625632054 -0.00116903067350546 0.00197888384483373 0.00174866588228455 -0.000683812138159563 0.00247782748714131 0.0040156132408546 0.000110181195812415 0.00573278094429885 -0.00170686575860589 -0.00586165286382278 0.00417526810128974 0.00568187505556545 -0.0125852489091952 -0.00678013219042103 0.00117217134255945 -0.00679407339852606 -0.000881520942357578 0.00886494019377379 -0.00375227198672068 -0.00307818356571741 -0.000664689800307959 -0.00135764223427718 -0.00157121544069878 0.00396994090416939 -0.00616235954421135 0 -0.00681392877484444 -0.00588505431438621 -0.00937655152796914 -0.00569746160135419 0 -0.0118268079208549 -0.00197181962421656 0.00180069707703391 0.00847349322722892 -0.00254729404311108 0.00417360429251098 -0.000370389506641436 0 0.00181143150064277 0.00121558756690572 -0.00980385904871097 -0.00141001700550994 -0.00484322222399533 -0.00148759253824634 -0.0100141733900288 -0.00246667126637152 -0.00944143034492977 0.00149955146961487 -0.00295645614178985 -0.00289226330677434 -0.00280242813036013 0.00862439066774814 -0.0050427087336587 -0.00562918413783238 -0.00596052114641737 -0.00467205863744234 -0.00186100792841268 -0.00694541996707855 -0.000399684253638768 0.00418864615332476 -0.0112045122349516 -0.0073003580838701 -0.00634809075247785 -0.00368817986337041 -0.00942083098295659 -0.00737078197989879 -0.00696861882226231 -0.00642362847559984 -0.00641706847199616 -0.00469048803366846 0.00290595154256958 0.00250578763485507 -0.00223191060033723 0.00167280615391511 0.00145708869642866 0.00493474304786313 0.00585369001143084 0.00206933099307435 0.00470854217562673 -0.00739122163939242 9.39719568202086e-05 -0.00103551097927736 0.00174474519724227 0.00224164933418187 0.00728854598135469 0.0109940519184996 0.00797391552656234 0.00164747711944512 0.00490715169549956 0.00830950745286942 0.00430843574611872 -0.00350125868065879 0.00423838243416612 0.00213476518968009 0.00915693854744079 0.000450200614644175 0.010138780063831 0.0104243067277207 0.00606631640940724 0.00767050038938717 0.00605195503789421 0.000862677784321484 -0.00687220865330948 -0.00506193842261512 0.000209877419819509 -0.00172946473262919 -0.00547698835445715 0.00185825784936163 0.00486791583454796 -0.00180430732230276 -0.000983766408940964 -0.00124352031209733 -0.00213209552504077 -0.00176346146916044 -0.00126976572276295 -0.00732145930177584 -0.00399138592353264 0.000970691127239379 -0.00807647312351818 -0.00107176282796467 0.000135586733819337 -0.000103156621487693 -0.00318785434509448 0.00148275524583438 0.000519812686695302 0.00962099410753704 0.000120954329886068 -0.00570721279635449 0.00308499880797195 -0.000553745992457422 0.00262876743850409 0.00272935833860152 0.00442845910118747 0.00508178996278614 0.00737579774560803 0.00169879049288881 0.00296659937226988 0.00624730910772547 0.000980181390630644 0.0018368888097299 -0.00399056648205147 -0.00119782895430737 0.00362283239771577 0.00072110421267491 -0.00114937857608699 -0.00936184328859055 -0.00981540697187535 -0.00497593415249004 0.00518616917268383 -0.00243940406325047 0.00017040791627549 0.00261549856622736 0.00378780943615159 -0.00212864376342969 0.00448222093189765 0.00202944086513583 0.000132299471954651 -0.00163438080628398 -0.00176727532053095 -0.00722683611996614 0.00413263297673921 -0.00296220516027362 -0.00372800987661238 0.00470899637751972 -0.00389423012667911 0 0.00589477815082344 0.00667020308177414 0.00563531986096388 0.00693500429146705 0.00126352249883732 0.000354070431932115 0.00369899063118176 0.00354999816774052 0.00455640980748351 0.00285204576837537 0.00364632221771191 0.00759955945459409 -0.0012966309144111 -0.000913722010100911 0.00154729525196313 0.00771762146937769 0.00467150375305584 0.00483180230660931 -0.000814394993500115
-0.00635222211589575 0.00146205006123018 -0.00233223856859299 -0.00696622745452104 -0.00401994070068987 1 -0.00186938462955993 0.00446235752114935 0.00411935798731559 0.000404292610759339 0.00167658666046575 0 -0.00775470893680697 -0.00131252267222457 0.00404261444915256 0.00284931955408844 0.00289734842186074 0 0 -0.000852523427420128 0.00221770345516072 -0.00325627762410688 -1.94663765637444e-05 -0.00526248649934795 -0.00416924775866539 -0.00216860952096153 0.0020527148255688 -0.00299958404207787 -0.00565634855040184 0.00561126167664621 -0.000748359259886043 0.00119565895876882 -0.00868096580177228 0.00433442478805735 0.00742178799346258 0.00350464451378324 0.00157330050825232 0.00227054905951485 0.00124011282352424 -0.00430654194284258 -0.000270343901682349 -0.00402058104848216 -0.00961307642837361 -0.00291486204543161 0.00460926629395334 0.000703695365937752 -0.00137203365172174 -0.00300535743303809 -0.00676930383117273 8.06024142296245e-05 0.00996211944635443 0.00446704851727394 0.00130959270815104 0.00399563823896254 0.00749381280335314 0.00823179811115201 0.00513665947678998 0.00936022500424853 0.00130263654661841 0.000656129842644037 0.00307276534947536 0.0100876336322748 0.00982742556863476 0.00381059286541043 -0.00576399430916227 0.00471840448521852 0.00433813525111543 0.00810452686540131 -0.00288678454633401 -0.00176839207184798 0.00418053502528142 0.00257692044319811 0.00324297608733702 0.00104859951908 0.00277345559665769 0.00118724625832171 -0.00242028394602484 0.000488212423299646 0.00347250842391332 -0.00170699431049966 -0.000328476963368438 -0.00129225393031142 -0.000192767389229113 0.00260815428873033 0.00113601561022405 0.00357059964017729 0.000233964196227691 -0.00337621669716374 -0.00868836844189628 -0.00996995557078571 0.00401346207519257 -0.00252735508770435 -0.00720869426233785 -0.00555887019354775 -0.000395379586295877 0.00432912425474866 0.00639264445449635 0.00429868964210971 0.00523481992774642 0.00431353581311407 -0.00087625608256444 -0.0012505230104203 -0.00310970962511966 -0.00225142777783148 0.00339762770909381 0.000530411027205474 -0.0035543434070884 0.00245184956869295 0.000680097025153277 0.00154491797376858 0.00218548430781888 0.00493415137959764 -0.00165011237156989 -0.0052893356018521 -0.00351054239505919 -0.00661519302024423 -0.00167442399614969 0 0.00208836377143971 0.0029152943336872 -0.00369444484772032 -0.000272343625139371 0.00756335898044588 0.0016134562442689 -0.00119479767141071 0.00481610923138175 0.00558244773830357 0.00539254652977459 0.00807702038886628 0.00359184746930998 0.00219703234664461 -0.00454474396834517 0.00517870249217573 0.00244306856205732 0.00465826133663298 0.00526110401249548 -0.00873761540782491 -0.000877989260794155 0.00481665550637443 0.00401173592895243 0.00155104618978082 0.00835407691544634 0.00358657523699383 0.00601727489109448 -0.00710507722382016 -0.00270646246648894 0.000106142734346932 -0.00107498853649225 -0.00268501368722813 -0.00389221311886374 -0.000351149284625505 -0.00508960173003978 -0.00198627543130776 -0.00076274825476175 0.00298719021173801 -0.00414016714267438 -0.00202631820017267 -0.00327838625277377 0.00789383562833968 0.000619730984117592 0.00665690519647491 -0.0127077314992139 0.0022226437411747 -0.00932250115043032 -0.00520438458278548 -0.00859035040853832 0.00664902454000303 0.00116182108042845 0.00370544311965967 0.00604822251419496 -0.00234693064189353 -0.00129296880076309 0 -0.00451449840274406 -0.00428183216200988 -0.00218169791809334 -0.00320518792636937 0 -0.00149409608424077 -0.00401315419019277 -0.00182988232213222 -0.00705404976501235 -0.00614721380302607 -0.00140798852495353 -0.000806857754943822 0 -0.00199466465598065 -0.00665702947028331 0.000792363700234925 -0.00263035924141677 -0.00147638771807734 -0.0031021337469065 0.00103921282428201 -0.00258495667548689 -0.00614117399137252 0.00224456548377937 -0.00629015522490702 -0.00221751423089159 -0.00214750520590617 -0.00487631324357844 -0.00647617375976482 -0.00354034767807946 -0.00620483706350535 -0.00443054815052564 -0.00167907516657519 -0.00406523956097073 -0.00277216481476276 -0.00475198250724428 -0.00305870110634538 0.0052047680125151 0.00356100283583325 -0.00633978892215995 0.000459918811548731 -0.00154151356123585 -0.00438117914908726 -0.000879112562539832 -0.00131127409412944 -0.00408969590668734 0.00395130358656851 0.000376860651343192 -0.00411969046572724 0.00578020836724953 0.00618091959605786 0.00154223960167378 0.00561179114425584 -0.000627613349467426 -0.00602343625108857 0.00435248039048073 0.00146796369569181 0.000989309295482382 0.00199647006752472 0.00295836070763426 -0.000666826968651566 0.000515851982527935 0.000768486213520663 0.00230158640491671 0.00146882869843778 0.0045705202270957 0.0018646653938079 -0.000503609340163312 0.00714065610037366 0.00349735762679096 0.001575992177252 0.00192463266898967 0.00271401380094094 0.000894221803378906 -0.00122607977295564 0.00141673215205589 7.30550679850693e-05 -0.000119239808231575 0.00624915553028965 -0.00445603599209492 -0.00683602600112161 -0.00592001605022363 -0.011531525568168 -0.00143812357500119 -0.00526077163361557 -0.00467070857686083 -0.00479035004601307 0.00214741030146917 0.00420989638087045 0.00864443183905489 8.3529600166994e-05 -0.000142401384688628 0.000959729419616791 0.00129522337052722 0.000801075690190638 0.000835938767434898 -0.00151513226240125 0.000512519491982053 -0.00369422118378838 -0.00447482205070878 0.00104644841237289 0.0033503871122653 -0.0036385324784651 -0.00463231193358078 -0.00195978527781991 -0.00121787708456946 0.000906656897612643 0.00297869325425416 -0.00153953986685478 0.00234077923194289 0.000859530918810028 -0.000359007669449802 0.00215310108425473 0.000322125976737708 0.0051490074129016 0.000214961835219875 0.000973654660385973 0.00412058963139527 0.00834872935199862 0.00152397215132176 0.00117477078132584 0.00231609520762141 -0.000279077154223525 0.00219880099486944 0.00213971118894732 0.000475356258660193 0.00461014970219513 0.00529702976916556 0.00613905706494788 0.00468892960094754 0.00294424570987494 0.00159825952838415 0.00772101941901447 0.00107640847012925 -0.00349110050496905 -0.00195699031375698 -0.00176951231708104 -0.00572625750258907 -0.00976239799743491 0.00136416601337429 -0.00075082638324578 0 -0.00528373260488655 -0.00113800626652852 -0.000352078763388599 0.0030349287570489 -0.00345411372634576 -0.00320765395013773 -0.00170021814572188 -0.00280955313533785 -0.00319111922074007 -0.00134404673172491 -0.00396033077813524 -0.00326595196438047 -0.00665248895593381 -0.00751043372170258 -0.00421510768193625 -0.00614640538951362 -0.0037903089433565 0.00251018062731236 0.00179206522155815
-0.00559078812060049 0.00692391642041064 -0.00122203494457766 0.00173553022165329 0.00391420113575849 -0.00186938462955993 1 -0.00299424674194046 -0.000748216635718872 0.00120361069725519 -0.000348997137142501 0 -0.00141700114668041 -0.00424989565012493 -0.00432411452207383 0.00140382391396397 -0.00351261926996531 0 0 -0.0100430214380261 0.00832346546208607 0.000393039578704238 -0.00575670165512607 0.00455537507207477 0.00486369360925041 0.002816969847607 0.00313976616833543 0.00579030731843185 0.00469546962686153 0.00334925906630639 -0.00395064434845132 0.00112769379133166 0.00348434658800308 -0.00291097352706455 0.00558286248582072 -0.000658685170565025 0.00234640792252313 0.00234112801973374 -0.00449847121756679 -0.00251091333211587 -0.00759530124938658 -0.00941761965965665 -0.00067530305724006 0.00464440181859539 -0.00931259272940637 -0.00424362383239711 -0.00659938690665333 -0.00611084985092867 -0.0068482388919508 0.00880214477594212 0.00582996358837734 0.00585631600858818 -0.00215963941055525 0.0047010167048751 0.00374140522984534 0.00461489134015553 0.00293556184882601 0.00209756929887809 0.00025966784282307 -0.00212288443918566 -0.00182465739292077 0.000293433159026307 0.000131265890963195 -0.00114411619014214 -0.00245769727279889 0.00311952025121997 -0.000731630972805001 -0.00577152757611689 0.0035629237272015 0.00781543978030023 0.0022140253190653 0.00103355531371314 -0.00224775065560752 -0.00717458815462341 -0.00550807664590885 0.00203940272734269 0.000311921286081568 -0.00338612329761084 0.0049416871688141 0.00254464255302131 0.00716855525874257 0.001825585824147 0.00658693381873824 0.00141445114417978 0.000367492403102491 0.00368215882657127 0.00351809703032067 0.00253774313906964 0.000386250675067253 -0.00207899786068034 0.00325624258039889 0.00479822924493938 -0.00665292071323938 0.000310152982379852 -0.00153368367927002 0.00290670154942071 -0.00190672227420267 -0.00235815957264941 -0.00643027261496445 -0.00242668869257947 -0.00371998322541878 -0.00433707937745741 -0.0038230812563838 -0.00356456183532 -9.10430384344267e-05 0.000483311401460133 0.00591841018732568 0.00105288671987919 -0.00302346459882618 -0.00524449438000232 0.000298880207149912 -0.00908410349897951 0.00360654612443268 -0.00626425411152946 -0.00108926349892767 -0.00153428675989513 -0.000945051195398303 0 -0.00222051330527726 -0.000201875434634225 0.00232106333050276 0.00145155279349312 -0.0040036891792894 -6.29636607941376e-05 0.00456604893875326 -0.00222519129806333 -0.00018228729114174 -0.000961834016906705 -0.00422318785681074 0.00266090935899395 -0.000754615692898858 0.00129437295199161 -0.00525823655175738 -0.00353577341638861 0.000514519600600969 -0.00440639086897138 -0.00282967896589994 -0.00116201827744086 0.000100029834689996 0.00024086216184272 0.00277112980427649 0.000491120953568132 -0.000565562130871383 -0.00112505682076796 0.00379447149819215 -0.00090783832611255 -0.00487120820462931 0.000233174879051959 -0.00840401153926651 0.00183036263376375 -0.00732659132484562 0.0059901862599048 -0.000417032641332115 0.00596846158331771 -0.00137765438977974 -1.46020149298763e-05 0.000933819059104398 -0.00445227796122739 -0.00225576864498674 0.00550715185572583 -0.00302052531880245 -0.00320198070840561 0.0060066097914056 0.000590369586916793 -0.000697857462630841 0.00745577146104439 0.00444914138310681 0.00373317353584322 -0.00239794360383537 -0.00251498543046915 -0.00330682047199917 -0.00491856395962403 0 -0.00226152453160327 0.00215158442017241 0.00242493196865324 0.00335551802484686 0 0.00234329763226398 0.00463463699203076 -0.00212591869729812 -0.00670091946535616 0.00258926638079792 0.00370356736345857 0.000771932801610697 0 -0.00315406785760576 -0.000943524713733934 0.00193441757187814 -6.69501450418176e-05 0.00424900251342062 -0.00292052948433948 0.00684209455217417 0.00033681093274024 0.00146639188884358 -0.00241523863834034 -0.00116629929351113 -0.00514683418130878 -0.00460112810300655 0.00348743767195746 -0.002070038525521 -0.00270704684219901 -0.00336932706280504 -0.000977748513057553 -0.00120469850847926 -0.00377107571562906 -0.00176192687362442 0.00097320955182435 0.00606985903548706 -0.00142859168490337 0.00728162070170204 -0.00010532518377329 0.00431979267396494 0.00441674470324873 0.00574542795145144 0.00128433499013887 0.000719189421842044 0.00391905800435263 -0.000104251583974806 0.000365391525620152 -0.00347452829886054 -0.00408041887825405 -0.0068693102616281 -0.00267037523561028 0.00504204787501634 0.000330311205685162 -0.00138102462603961 -0.00573948646878426 -0.00223554959799657 -0.000307659608017945 -0.00181157991619378 -0.00249373599189582 -0.000492712945761538 -0.000806109667460294 0.000355576319649497 0.00357439269356231 0.00596030331494041 0.00179263182224538 -0.00156451854890878 -0.0048829840252083 -0.00236916834809053 0.00128105120839832 -0.00245741095625433 -0.00276349586200933 -0.00293086194325345 0.00101356890182875 0.00215261789114152 -0.000548359114604458 0.00582860400909744 -0.00178107152754723 0.000191154555366147 0.00177347931416201 0.00446179056465819 -0.00368661603700041 0.00462692568959814 0.00182710614066034 -0.00165096331404788 0.00276037132275021 0.0029777259073594 0.00277920424854778 0.00479688946828432 0.00158124964061968 0.0032860050308253 0.00284644097534024 -0.0041335180740134 -0.000311054591853118 -0.00111265807300155 0.00148388470453279 -0.000989939204435701 -0.0010450933576524 -0.000503743096418042 0.00194998775072994 0.00438159956541765 -0.000136980418771255 0.000311693954291637 0.00108165370960463 -0.00368806567927835 -0.00141784305628487 -0.00432646564015697 0.00212873322326568 0.00527385887334855 0.00470791888262743 -0.00321999209950336 -0.000939653183462914 -0.0038520940151237 -0.00376772037780303 -0.0039463336394079 -0.000661760616601743 0.00120315334173563 0.00436324631241455 0.00121758015666665 0.001227601647683 0.000395548046705251 0.000415983266527195 0.00146488686554546 -0.000111391426817153 -0.00633540607284432 -0.00338229386448111 -0.00821904043137305 -0.00250490160885528 -0.00321507451859451 -0.00311562574933496 -0.00545299900094321 -0.0044797985504177 -0.00593501957539624 -0.000567797175276557 0.00198392092723948 0.00150289223740733 0.00240557073452381 -0.00269839964735303 -0.000413626399500268 -0.00420907123894128 0.000629214926170401 0 0.00393731227123497 0.00129683020950048 0.00146100287518901 0.00210550529654418 -0.00118854694245768 0.000800790894716977 -0.00363953982111246 0.00222389060518134 0.00483365983472743 0.00431894907693818 0.00324790367452252 -0.000208081951727764 0.00214186200791489 0.00171038437157381 -0.000697671247353513 0.00393143953105585 0.0022285213479024 -2.05764500387127e-05 0.00218380196900935
-0.00134977565982421 -0.000847782186535663 0.0031318379877209 -0.00149013519610722 0.000565846367028314 0.00446235752114935 -0.00299424674194046 1 -0.00666534029691896 -0.00229341299022871 -0.00583823531042127 0 0.00748445972746614 0.000963392717431096 -0.00122737805990944 0.00405707052579007 0.00397790096349373 0 0 -0.000982003169495986 -0.00316403876036295 0.00332243473524734 0.00730688353504115 -0.000518375207403245 -0.00623560143686264 0.000360464524600689 0.00178753793895835 -0.00142935749223688 -0.00191315544324854 0.000335713110585549 0.00249933893492817 0.00390596431604203 0.0026700814466094 0.00589241473691021 0.00332452703195545 0.00906269200041076 -2.97863292858521e-05 0.00228358559151122 0.00370749126739358 0.00746581695056294 0.006622413118081 0.00304059204837043 0.00454288761635669 -0.00112871645171875 0.00153088686408915 0.00794821604082623 0.00588251065683721 0.00732851986316349 0.00563215087294823 0.00249762825765803 -0.00641411321499806 -0.00187000375144029 -0.00140711420428778 5.53830862298602e-05 -0.000166354383872367 -0.0029739296988108 0.000720047062452729 -0.00183560880093978 -0.00064600248804939 0.000578277229233468 0.00186206241463752 -0.000674308437652307 0.00209523216517985 0.000596218598066879 -0.000751787349348238 0.00072862815066573 -0.00186744768253257 -1.56786162504254e-05 -0.00119242182850341 0.000550542569615472 0.00247599054354283 -0.00104717519466914 -0.00486963351178202 -0.00712899284698263 -0.00732779101318025 0.00174091475345705 -0.00046431581888822 3.18747046944469e-05 0.00177995844568467 -0.00645977482532692 -0.000374081820716324 0.00137585596442581 -0.00211201154954399 -0.0048370788291642 -0.00546630279583325 -0.00377299610519768 0.00336489171518846 0.00273653414771415 0.00686496720285072 0.00451801702783382 -0.00268892582321545 -0.00434801543476198 0.0030301467827776 -2.97998036604364e-05 0.00345829189372251 -0.000825839730530754 0.00552358312552016 0.00549829116952548 0.00312616031494051 -0.00150393638452057 -0.000164027641959745 -0.00287231305119003 -0.0023326023285918 -0.00208211136901525 -0.00238569255792529 0.00508781436797462 0.00673106968843315 -0.00279685472376149 -0.00388773312107228 -0.00797803582927119 0.00567173331193237 0.00134658167849558 0.00371467248634759 -0.00850429029832236 -0.000602755359413533 -0.0112947947524049 -0.0089835089652316 0 -0.0047608643381222 -0.00165683591317845 -0.00549152538601939 -0.00186677948460285 -0.00644033557043929 -0.00477832521700374 -0.00616499932950743 -0.00371751144051757 -0.00171071813099348 -3.95448454846321e-05 -0.00257835411190649 -0.00180346090495666 -0.00787345694914055 -0.0071297216209856 -0.00146114252777489 -0.00172996690144646 0.00244296830594599 -0.00331824905975655 -0.00128177703328568 -0.00534929756327313 -0.00732387340496812 0.00222601151108213 -0.00400938074539225 -0.00387952485567279 -0.00148777764014736 -0.00299050932538985 -0.00199039416564292 -0.00937206276841527 -0.00444830303160136 0.000722254782962578 -0.00694155618679012 -0.00636159134790002 -0.00403159330914597 -0.00306219123049733 -0.0076168690014432 -0.0024321627991007 -0.00606467829379049 0.00361907791871002 0.00513393092661095 0.00323032797585721 -0.00301717144063261 0.00293256414937915 0.00202833222789383 0.00388256771361454 0.00357791093865948 0.00407495849348057 -0.0036879679098566 -0.000427863929322096 -0.00171366867713308 0.00260900913206264 0.00026555423725911 -0.000327935945507763 0.00490490948270446 0.000352706169062714 0 0.00354965157202281 0.000806309954212294 -0.0033138418731862 -0.00525077620042793 0 0.0017386225140807 -0.00494983751864277 0.00219281851853632 -0.00427583975782675 0.00378200622508951 -0.00863003742297592 0.00315505391520613 0 0.00170641254944221 0.000473091444129458 0.000991913309925008 0.00235131948442323 0.00374821704348669 0.00197127750664245 0.00125616762365224 0.00689714558483389 0.00511038927022563 0.00528465875221959 0.000833225481231594 0.00176614716955752 0.00345635256544997 -0.00139850865220269 0.00460447418170278 0.0068610644491261 0.00377858479363951 0.0061634430817564 0.00389597327429516 0.00888442170456041 0.0034067239397151 0.00153334259464923 0.00150870016480431 0.00207162162027403 -0.00169270754763091 0.00294712440161736 0.00437336545751034 0.00146040479196466 0.000790288995980387 0.00411908213926979 -0.00134693154931005 -0.00378937370260136 -0.00136210534141082 -0.00200543713822686 -0.00334773538666909 -0.0026806393579384 -0.000488011687223539 0.00357411164663478 0.000541191460072813 -0.00745951577697452 -0.00113781106745862 -0.00133367027974625 -0.00436473595395508 -0.00288049425643521 -0.00442096325481633 -0.0105848278949711 -0.00736218385094942 -0.00208954620421426 -0.00677918743880667 -0.00334477970001573 -0.00212949578376857 0.00106348587401374 0.00574886474315305 -0.00146754449185035 0.00140092818118298 -0.00124778236122667 -0.00987667652243319 0.00498135474292457 -0.0101428461221274 -0.00474828890357456 -0.00853036857421164 -0.00924318932209961 -0.00876374183659305 0.00442501798996286 6.30392457151192e-07 0.00609974436559493 0.0036969117488032 0.00392130417072791 0.000712412553140749 -0.000513959285300847 0.00348268696687915 0.00366994601019029 0.00525729564760677 -0.00252275671903591 -0.000276065404360007 0.00120197860719949 0.00191276067889541 0.00614172219384732 0.00391057108776274 0.00177063549964323 0.000863496575981425 0.00187819607957279 0.00343253199589392 -0.00250093365415848 -0.000564980845665174 -0.00376353705936572 -0.00183947459028675 -0.000486700641313796 0.00146289665342458 0.00822841311532864 -0.00687155244120631 -0.00289820855813593 -0.0105894808182177 -0.0074648914233608 -0.00156214940534725 -0.00605824528267074 -0.00621699073978761 -0.00926294231522029 -0.00341743823934403 -0.010546115844951 -0.00579070948102617 -0.00293498111510983 0.000618982676131927 0.00430359728143775 0.0047794649496302 0.000491940133163187 0.00114516698563448 0.00207616368860231 0.00235446360702855 0.00109029120984415 -0.00363463315100234 -0.000596650108020488 -0.00121042255318442 0.00390186895302911 0.000296797293179928 -0.00139474061198842 -0.00186363517217518 0.00284541915165309 0.000179945214958342 -0.000979432661335042 -0.000664482878046335 -0.00221422589968893 -0.00703811824619353 0.00100543951311543 0.00471604229915171 -0.00175413564823928 0.0017597813655489 0 -0.00505681140876543 -0.00844563495046778 -0.00194182975404826 -0.00358553821506244 0.000657378629048314 0.00377144324003407 -0.00556037423524324 -0.00979303479147141 -0.0030743765397223 -0.00870630157670091 -0.00565144635306885 -0.0079026140376559 -0.00118007133653311 0.00186883189295333 0.00238500874003542 -0.00295585813206382 -0.00112113239858736 0.000327097417546306 0.000548232174971689
-0.00409419486896654 0.00276901372761282 -0.00512023160028921 -0.00887170556029434 0.00579536077911273 0.00411935798731559 -0.000748216635718872 -0.00666534029691896 1 -0.00174996079627705 0.000842158553788839 0 -0.00247315898113901 -0.0102462845204095 0.0029958377895219 0.0035190049666526 -0.00643212321400445 0 0 -0.00355694884792845 0.00217066800363312 -0.00385917683343741 -0.00183090276662629 -0.00861659837734367 -0.00120493020864144 -0.00352090389307904 0.00510980481538759 0.00175793423471071 0.00122940941767643 0.00993153475046734 -0.000767798458639634 -0.000982402699288511 -0.00208638693042502 0.0071310426567153 0.00379260382133604 0.00354017535425162 0.00847061067440867 0.00521729080803711 0.00415644649516953 0.00511950702423263 0.00577404735095018 -0.00737842861845427 -0.00422683661302525 -0.00783260387346642 0.00944362717395162 0.00595712762117336 0.00449486045284212 -0.00052526071164445 -0.00553727409834791 -0.0011186061371918 0.00245338580682652 -7.53996702128246e-06 0.00159179178762192 -0.000371470280030224 -0.00320078851403733 0.0064769123180937 0.00697253249225145 0.00447808152741202 0.00693104275560873 0.00544904835598387 0.00274020046503091 0.00403612040861346 0.00151083311301209 -0.000290063904869177 -0.00287967536483614 0.00376631076813524 -0.00392231397177448 0.00397811438245409 -0.00361422850603294 0.000485113234537779 0.00291784130556076 0.000168131223004293 -0.000737325632568413 -0.00139858007087286 -0.000828441879499672 -0.0017377136283462 -0.00210306788979983 0.00315944055327945 0.00329299232165274 0.000171431528379958 0.00431376280675465 -0.00132820016985001 0.00493372914946232 0.00146916137124551 0.00186542005010031 0.00655532136342584 0.00031136977307815 0.00521254874775919 0.00239516047503788 -0.000712238965595087 0.0104116639305321 0.00663257616801407 -0.00513792618121378 -0.000642291940009468 0.00276247335286997 -0.00132249266630263 0.00264529166778685 0.0016617692232842 0.00752578319019679 -0.00401672765093311 0.0057988734954727 0.00287700714353866 -0.00270721030367015 0.00501411983112366 -0.000763372627570687 -0.00220366591235754 -0.0013336849390797 0.000395368866214247 0.00143068649333442 -0.00325943565203042 -0.000491316453526935 -0.00145333090721239 -0.0010358957106342 -0.00316857721079924 0.000569778280482095 0.00224533270687003 -0.00343235128391064 0 0.00651005545091151 0.00648384128943465 0.00785248079394861 0.00507247922884253 6.92245334824587e-05 0.00504285098297865 0.00319627078340028 0.000211466395530918 -0.00121677953581368 -0.00124411737547022 0.00175514278730822 -0.00559473100668931 -0.00617585622610476 -0.00497719271827177 -0.00237020976517975 -0.000660303392941275 0.00148038037713723 -0.00350355744034377 2.59349734202987e-06 -0.000190261466680505 -0.00171739539042242 0.0026087672060543 0.000570653262893609 -0.00186978580821846 -0.000486601896338191 0.00245602090729502 -0.004372960144862 -0.00324915907457106 0.00307683410188086 0.00301743534082541 0.0054558454278776 0.00449891857244557 0.00492806851887437 -0.00249587261652011 0.00479726185321511 -7.81580226492285e-05 0.00175490417428893 -0.00220478175401716 0.00032858123454835 -0.00181224339542697 -0.000852782030166408 -0.00030077815000248 0.00511975181154017 -0.0106015284853523 0.000327265222292232 -0.00427496760564814 -0.00838276122349759 0.00484844193550349 0.00712970290099903 0.00321832010127235 0.00167008512799719 -0.00411436690429188 0.00238943011082821 0.00258841560208527 0 0.000743957491784524 -0.00212531523989695 -0.00396417311082346 0.00122700275333262 0 -0.00188919400222548 -0.00496432301481466 -0.00683129924244519 -0.00556447458391949 -0.000110704242000057 0.00342645592525115 -0.00856724837346498 0 -0.00952116312063371 0.000681315084472551 0.00208529749936884 -0.00728477111280985 -0.00170524974223897 0.000229483582341491 0.00458320500939501 -0.00241274412546276 -0.00618641383373248 0.000262875807527974 -0.00183064304425744 0.00110283450143542 -0.00372197690763169 -0.00780119471990742 0.000812435260008802 -0.00136587595740251 -0.00298229671075615 -0.00518561437365882 -0.0037466437237309 -0.00764511343156546 -0.00353759509856655 -0.0073219470321597 0.00422870283975692 0.00815369784423756 0.00368482326892786 0.00202971666812338 0.00224370505283551 0.00594985772223411 0.001828317087947 0.000299351506070571 0.00299601871669358 -0.000103332352974722 0.000529966571495416 -0.00219413602030221 0.002718066006981 0.00154933401199975 0.00623658128179794 0.00209288693752439 -0.000366295168585597 -0.000953768153838512 -0.00115183716537276 0.00184637116469667 0.00190375987114468 -0.00028461839546113 0.00237774283120094 0.000835244283896209 0.00671680348920323 -0.00863611897173738 0.00205562697531539 0.010447075420683 0.00586009098315462 0.00556192621583733 0.00589839867462348 0.00606799779926521 0.00456961528201417 0.0040679588268549 -0.000569641835126528 0.00507056287949771 -0.000387763825726381 -0.0015410160743319 -0.00149544321763986 -0.0024253013252157 0.000330921555867932 0.00810716256047049 0.0061390192413319 -0.00301475862785132 -0.0056281264462555 -0.00930219546794422 0.00220446773336387 -0.00048539501987872 -0.0102698597112654 0.00765744579711659 -0.00048234169852898 0.00241096890721945 -0.000372104848637987 0.00993775689572281 0.0043920143470201 0.000194892335973369 -0.00437314707182204 -0.00564243336707702 4.37365873266226e-05 0.00707717865669914 0.00472537900664656 -0.00380567594802027 -0.000940506998554885 -0.00565451082457062 0.0046683780618275 0.000452607830072573 0.00147682775416586 0.000923937446135819 0.00409446644495673 0.00758625510268613 0.00350261636969406 -0.00238209342220862 6.28992257782328e-05 0.00238544720634997 0.000180160621271002 0.00233138088648226 -0.00258653637207372 0.00388818951874978 0.00388909754149811 0.00209690058365931 -0.00317566245092749 -0.00061945579567126 -0.00254340156254625 0.00465670269009298 0.000159235364396872 -0.00432394883796504 0.00256842967241328 0.00227030667156478 -0.0028938399730343 0.00164041887942185 -0.000129236101417418 0.00735019870939648 0.00966405818370211 -0.00597662184094253 0.00256580975947269 0.00490451802103423 0.00182188844115922 0.00448885324886216 -0.000680036895861894 0.00169882945072638 0.00199168240422379 -0.000356296422034785 -0.00240138298575973 0.00653463918716322 -0.00258810776054393 0 -0.00386190525438124 -0.00447105322744993 0.00527886090557951 0.00614347957042615 0.0060720139614125 0.00689044876637558 0.00402587760072644 0.0033574430466826 -0.000493268166562804 -0.000383509029661769 0.000694868114229538 -0.00677681071653657 -0.00692951627234119 -0.00529399730800779 -0.00856048498684297 -0.00228740337361244 0.00364908086994802 0.000769692183862768 -0.00163951704591441
-0.00012687888011342 -0.00950201118347248 0.00135631544531708 0.000221728545453976 0.00228192941368687 0.000404292610759339 0.00120361069725519 -0.00229341299022871 -0.00174996079627705 1 0.000554734351616244 0 0.00581222187229913 0.00640744714942136 -0.000870949291683724 -0.00100967825164608 0.00199581089944685 0 0 0.00349714771840012 -0.0074127921681162 0.00338115937522571 0.00231590365179079 0.00013752034445218 -0.00149382932291703 -0.00458001550530652 0.00273231060947866 0.00688818060613011 0.00222555708637111 -0.00970295616229353 -0.000504393438427577 -0.00160993077172151 0.00161515382856861 -0.000747542581369622 -0.00777591854435885 -0.00688035455236116 -0.00759018602228582 -0.00746697603328403 -0.00039441203446707 0.00167973158918123 0.000578563938769927 0.00358618846570883 0.00362964641987598 -0.00133870311413937 0.00072834415746763 -0.00074318530656332 0.00430325129123413 0.00470842251773171 0.00225587199677261 -0.00411036139489268 -0.000201576245265219 -0.000226146341702237 -0.00582656621375413 0.00038429902997856 3.42913802862441e-05 -0.00189751084967454 -0.00586952272634257 -0.00453667980520415 -0.00671544732219543 -0.0038583223810395 -0.00665292380578466 -0.00613674208626914 -0.00287277379215976 -0.00210441936835701 -0.00250523607300997 -0.00415846657390875 -0.00455451921309235 -0.00652949432129298 -0.000224694638098227 -1.76477847117202e-05 0.0035776652534208 -0.000587034714969574 0.0013251547866147 -0.00250227393098966 -0.00372366742907885 -0.00152267777695567 -0.00154592011165088 -0.00104323229053566 -0.00226217057660238 -0.00218855274463789 -0.00205767266592787 6.042507916517e-06 0.00221404682995886 -0.000541614878585611 0.00027277609543563 -0.00296855132249078 0.00238949102047208 0.00378460539311217 0.00566948449947962 0.0067156437467204 -0.00506956389784393 -0.00485483253561572 0.00121072111637732 -0.000229874863034648 0.00214560774260541 -0.00119883755586867 0.00232467887957433 0.00361757756688975 0.000392791349796665 -0.000759142981076767 0.0009822553578255 -0.00166218510002697 0.000411067290076135 0.00030768686058769 -0.00232192024250755 -3.95532852633856e-05 0.00308390776254349 -0.00284551284355771 -0.00452958526003582 -0.00153862838475177 -0.00246873695330949 -0.00301299012380515 -0.00097128400422534 0.000526183741617354 0.00551146485193798 0.00190135710886426 -0.000899587192848881 0 -0.00166811232975552 -0.00247579790537838 0.00256920127042447 -0.00261811778311018 -0.00246818603090855 -0.00136300222866459 -0.00165325836058068 -0.00130327238423691 -0.000954671189432745 -0.00324863092766203 -0.00105974298907363 0.0012086167056882 -0.0021409025875963 0.00480916681203579 0.000851884443856516 -0.00610847203742567 0.00303755422502586 0.000269430212146434 0.00503064877688169 -0.00139836443020224 0.003903603799311 0.00228478259815228 0.00222036499275679 -0.00479442150088351 0.0011721854652268 0.000668540015490503 -0.000921931870874112 -0.0020294790939629 -0.00340885204853689 0.000570156873102603 -0.00255122481500252 -0.00324322384634989 0.00294809410267359 -0.00623435221934864 -0.00408123516004729 -0.00149157970761243 -0.00280562628832962 -0.00326987624276089 -0.00350710689623405 0.00141175190009917 -0.000945876903939138 -0.000262167947758284 0.00120995279091623 0.00342455903782153 -0.00348267338533133 0.0029513850007523 0.00251619682158714 0.00158143646179441 -0.0031680560467965 0.00166934253011752 0.00703820164929084 -0.000449645732630951 0.00123221318432187 0.000120132845575753 0 0.00460698825126014 0.000791330175297163 0.00580023793336886 0.00251142109767594 0 0.00292825796461185 -0.00540329341393463 0.00651363694499098 0.00446528901226816 0.00154528434919689 -0.00260851589632591 -0.000362484384598667 0 0.00744328165078883 0.00252976781782717 -0.00612318406321304 -0.0034804250735108 -0.00232002686710018 0.00668692763750725 -0.00607047874646281 0.00280972171829354 -0.00116440745942124 0.00408474875536103 0.000550042350400815 0.00458287707716907 0.00221284700914034 0.00263626571087783 -0.000487238297265053 0.000729468677678253 0.00514216422871023 0.000756095559693504 0.00658339937616789 0.00248805783666908 0.00408069350875958 0.0059686707344582 -0.00392956596572695 -0.00114998497547949 0.00171820031060255 -0.00154697512490423 0.000239984996327513 -0.00732619292168368 -0.00321314958737875 -0.00558376906947532 -0.00259000672285433 -0.00675520444304534 2.74876710687296e-05 0.00061285356007701 -0.00283087780815975 0.00169804331927882 -0.000317990874718591 0.00118547439825701 0.000346572758288205 0.00187017040674189 0.0044836948577226 -0.00351207548454936 0.000231502553967454 -0.00534505812462904 -0.00304446604781293 -0.0014240448604594 0.000805756677174446 0.00394935088596969 3.43229078271429e-05 -0.000831189041509823 -0.00323080939296685 0.00323304980570613 0.00196379774039746 0.00295808861568619 0.0012168953772029 -0.00286487901033465 -0.00169415067532398 0.00138039937909209 -0.00104134789327334 0.00109626971672073 0.00195089862941929 -0.00163153141467937 -0.00288131171335179 -0.000811808111031778 -0.00199811627877172 0.00297474496205868 0.000929297575719372 -0.000206154149302713 0.00477663799776019 -0.000642258082623872 0.00106566192683166 0.00323281529533477 0.00232187845676573 -0.00140293286126224 -0.0012915299897518 -0.0004047263120807 0.00183574084927852 0.00115655423219627 0.00334794132141131 -0.00162197076911251 0.00200266395591165 0.00164376181953176 -0.000959414418078687 0.00106409316925214 0.00577624243085986 -0.000160371296975836 -0.00204162086400122 0.000902745942799908 0.00344355201714209 0.000419338105382625 0.00464258634773746 0.000832196369087237 0.00139044625763658 -0.00409206321463693 -0.00155054105546678 -0.00477815868479827 -0.00371590894786078 0.00153228581493802 -0.00301994436008263 -0.000808575407007792 -0.00499227382696412 -0.0030027499865384 0.00204491050184201 0.00146202634573606 0.000881521791666804 0.00070654055430623 0.00252980037413845 0.00517682237666136 0.00106796828699915 0.00077563982545755 0.00079812308027767 0.00455765828030643 0.00653326412748088 -0.000889789438802654 0.00066765161695627 0.0028283001020433 0.00123337291240914 -0.00232394217115228 -0.00294315637291413 -0.00172240747587114 0.000477543352614614 -0.000950703727092531 0.00339730156705088 0.000876341355460689 0.00672969644758457 0.000654740674494007 0.00454033695986278 0 0.00124617745802679 0.00125232615190345 -0.000272098906716091 -0.0045969880481902 0.00198050685575154 -0.00048748010762053 -0.00110805466187514 -0.00296782080370012 0.00111424845508261 0.000500690542103947 0.00196017371443024 -0.00259561778887233 0.00355989106068567 0.0109836155514683 -0.000170019740270292 0.00383566203078957 0.000377551029853353 -0.000467729895684256 0.00271740811354243
0.000351539875415596 0.000141092297222279 -0.00388556835333592 -0.00153408414469606 0.00274545420943996 0.00167658666046575 -0.000348997137142501 -0.00583823531042127 0.000842158553788839 0.000554734351616244 1 0 0.0016903574519486 -0.00262287087635672 0.00221827647662246 -0.00111059266184907 -0.00303465263848505 0 0 -0.00189012441614121 0.00127379028504439 -0.00514844754545295 -0.00780371277043406 -0.00474297443351939 0.00045035711106182 -0.00390651937269313 -0.00177369261282061 0.00199423112774436 -0.00106678643147211 0.00246734215283475 -0.000798916874564175 -0.00309679136971611 0.00121080202822436 0.00137683797435755 0.00430311345825519 0.00182301896081644 0.00440330895964373 0.00407692478305895 0.00174187927239286 0.00390835440789966 0.00446108781342309 -0.0040949958834418 -0.00439468116432845 -0.000278730190296944 0.00741917972455 0.00369610474761061 0.00286958279658102 -0.0074121807112909 -0.00776853153566253 -0.00413284466681181 0.00184648409785643 0.000506428982779047 -0.00145267743862212 0.00353424578419768 0.00141046725932121 0.00672779182850347 0.00632560595982261 0.00509409120355344 0.00476361507242567 0.00243483783351305 0.00562349884878617 -0.00184450249755246 0.000950630084832825 0.000518751862522436 0.000543859133426194 0.00237464713902098 -0.000736800094654131 -0.000640122525590927 -0.00109948770329234 -0.000768197625002724 0.000344330882512715 -0.00170677930161225 -0.00430087304955536 0.000928047182315844 0.000976999806345023 0.00135923498295093 -0.00364994208494688 0.00492410252867093 0.000322622799316262 0.00275457730604808 0.00480171354066911 0.000576324307608184 0.00414678565961914 0.00829674104910681 0.000134236299441811 0.00224301996177483 -0.00169051741869328 0.00426274519519286 0.00180425643192752 -0.00143112076414254 0.00677322001984971 0.00233468996676706 -0.00105139489657843 0.00409148176824382 0.00343809951768118 0.00219510564994797 -0.000673880691719086 -0.0021407493496428 0.00371218801657661 0.00236400419577963 0.00378905489595255 0.00133824974291633 -0.000275151747383279 0.00211210164626893 0.00157063312450619 -0.00165741795861921 -0.00367156498090067 0.000487413333417317 0.000607230338982247 0.00278841692961142 -0.00476411192408707 -0.00372459356816258 -0.000834328376383114 0.00117585745124612 -0.000733895761386449 0.00425058738989645 0.00248246483590417 0 0.00416280387544753 0.00101384256988739 0.00508341657873214 0.000897292554986657 -0.00197702695850213 0.00384836682120134 0.00101743164973372 6.75749549147864e-05 -0.00157543702673212 -0.00356115885159002 -0.000855530049690693 -0.00130765586355607 0.000995752380933796 0.00621785219260924 -0.00464581032986614 -0.00164520299755797 -0.00315472169080542 -0.00172715794831017 -0.00213399971839815 0.00250305925289588 7.0281214024339e-05 -0.00226826268118674 0.00125526469709218 -0.00761971664249782 0.00065563669254676 0.00429177808190606 -0.00261706889513288 0.00219472701302552 0.00205576780389528 -0.00158220106147348 0.00137579541753674 0.00141008639315266 0.00164637195696173 0.000971072441753684 0.00044898872092604 -0.00156780493143154 -0.00116346520862807 0.00117841302288715 0.00391673952818285 0.00192515843131716 -0.00329042738359815 0.00443510214670686 -0.000119998010274847 -0.00192492575904888 0.00347480621429018 -0.00470176421853578 -0.00703417678500043 0.00069294564276432 0.00497818916958993 7.29519000310726e-05 -0.000389648174104048 -0.00149963799996142 0.00118275613549235 -6.66857716122968e-05 0 0.0106180298983611 0.00207135746290643 0.000370590505111482 0.00186416818757478 0 0.0044657561562254 -0.00474224952753695 -0.00947018709257514 -0.00304282012242756 -0.00030061827412626 0.00367527189312797 -0.00704077872353583 0 -0.00653529757731974 -0.00185367188166574 0.00566050534100167 -0.00118751144275581 -0.00135361108171708 -0.000449824679519597 0.00428885926663207 0.00159899625381335 -0.00173681937891102 -0.00410297158051673 -0.00590893010224679 -0.00128690403231014 -0.00275615294572623 -0.00580051345798502 -0.00186329528239922 -0.00131201380609711 -0.00328412518328165 -0.00278093879783935 -0.00707762767626742 -0.00457956727101672 -0.00579492452332782 -0.00249737994949956 0.00631877040303888 0.00763277061989351 0.00321700981949904 -0.00185062159051546 0.00614530309980527 0.0104226208174305 0.0060639129087365 0.0043066809259617 0.0074862279335286 -0.00186154897180402 -0.000154405251275223 -0.00646177883830785 0.00201689654451224 -0.00205650017647921 -0.000507221307191463 0.000825366761739562 -0.00387525130683682 0.00214727603310127 -0.00188048059619822 0.000571057073887989 -0.000503580656140454 0.000152225233312228 -0.00132395254350521 0.00109296259941683 0.00261858792478654 -0.00324623814011569 0.000806361540530572 0.00478909481358321 0.00551692188729889 0.00108388375815938 0.00450204892369493 -0.00113490377371204 0.00233001020255815 0.00484326217963799 0.00317433270000493 0.0030492460912215 0.00247584992394191 0.00275548059717216 -0.000428825674842985 0.00132515517622951 0.00338437985295323 0.00561904258710176 0.00669108637073081 -1.17168965731713e-05 0.000802718198318197 -0.00180896570065753 0.00267743387543094 0.00227324214008345 -0.00416340282385506 0.00502977677703188 0.00291309011068398 0.00412633644703927 0.00453177910860105 0.00980108661166248 -0.00317188167888881 -0.0030543570707167 -0.00302850296732657 -0.0043072543115549 0.00145675531569741 0.00633181246812184 0.00337051879099179 -0.00225891620601937 0.00192262149372161 -0.0036954707711698 0.00214002595337921 0.000966185363559047 0.00199648653440821 0.000743269471326765 4.96446153075877e-05 0.00400133555553583 0.00561299719536527 0.00152565403667611 0.00139946670938174 0.00222916892498145 -0.00219914466307079 0.00522062898558416 -0.00295988736409726 0.00232148510069238 0.00315371950582227 -0.00234452957940085 -0.00279798101946283 -0.00325076755514209 -0.00274813027508297 0.000627538388082227 -0.00177245466376561 -0.00282270692889669 0.00108966308082119 -0.000257634209713636 -0.00511764156920223 -0.00197305761167872 -0.00317335786239397 0.00296428848393716 0.000551742767054208 -0.002034955073806 -0.00164970222649975 0.00160853751443966 -0.00295476050061623 -0.00059990155745039 -0.00441144251094374 0.00115090572714514 -0.00243252845259345 0.00206845104959909 0.00128027396420897 0.00661888831744799 -0.00200755733258953 0 -0.00592245818232187 -0.00514307687924921 0.00100561725269584 0.00269934013857199 0.000282826849305794 0.000588302374593882 0.000338048363896375 0.000111030176766099 0.000237878406148138 -0.00501489616636107 -0.000683784043697199 -0.000481290558231688 -0.00345086086306943 -0.000351496145455439 -0.00289156517676845 0.00109955308877327 0.00238107661621538 -0.00632573583165539 -0.00255553873140712
0 0 0 0 0 0 0 0 0 0 0 1 0 0 0 0 0 0 0 0 0 0 0 0 0 0 0 0 0 0 0 0 0 0 0 0 0 0 0 0 0 0 0 0 0 0 0 0 0 0 0 0 0 0 0 0 0 0 0 0 0 0 0 0 0 0 0 0 0 0 0 0 0 0 0 0 0 0 0 0 0 0 0 0 0 0 0 0 0 0 0 0 0 0 0 0 0 0 0 0 0 0 0 0 0 0 0 0 0 0 0 0 0 0 0 0 0 0 0 0 0 0 0 0 0 0 0 0 0 0 0 0 0 0 0 0 0 0 0 0 0 0 0 0 0 0 0 0 0 0 0 0 0 0 0 0 0 0 0 0 0 0 0 0 0 0 0 0 0 0 0 0 0 0 0 0 0 0 0 0 0 0 0 0 0 0 0 0 0 0 0 0 0 0 0 0 0 0 0 0 0 0 0 0 0 0 0 0 0 0 0 0 0 0 0 0 0 0 0 0 0 0 0 0 0 0 0 0 0 0 0 0 0 0 0 0 0 0 0 0 0 0 0 0 0 0 0 0 0 0 0 0 0 0 0 0 0 0 0 0 0 0 0 0 0 0 0 0 0 0 0 0 0 0 0 0 0 0 0 0 0 0 0 0 0 0 0 0 0 0 0 0 0 0 0 0 0 0 0 0 0 0 0 0 0 0 0 0 0 0 0 0 0 0 0 0 0 0 0 0 0 0 0 0 0 0 0 0 0 0 0 0 0
-0.00689639529321401 0.000816948182003995 0.00773956711329259 0.0095589435451409 -0.00148876289679766 -0.00775470893680697 -0.00141700114668041 0.00748445972746614 -0.00247315898113901 0.00581222187229913 0.0016903574519486 0 1 0.0050752730727635 0.00144820906985222 0.00143361938619989 0.00696868117971738 0 0 0.00575135606564226 0.00131725584301243 0.00780950340233114 0.00466216658492109 0.00181705290491578 -0.0050799181366686 -0.00221318121092446 0.00301719793825618 -0.0013918051592614 0.00158768431615536 -0.00758990204931637 0.0077111709918245 0.00208944968714873 0.00357676813088876 0.00428425392236275 0.00496095389343868 0.0042510696616197 0.00236478970001815 0.00722509217314601 0.00504919266923389 -0.00231228143131711 0.00348635491042285 0.00309137391994604 0.00124558417095602 -0.00113804818105169 0.00496276860800846 0.00327352412375647 0.00474444635524687 0.00511162368757577 0.00855497467783181 0.00552569985756654 0.000412786792558019 0.0012753702603915 0.00474717646107268 0.00381037130623411 0.00291445407557768 -0.000293606437200722 0.0011630825412354 0.000369955474501028 0.00350678240754822 -0.00307567397167607 -0.00182497519037787 -0.00591301255449977 -0.0027824098103841 0.000658364504266463 0.00878491966053267 0.00459644917212781 0.00706259394827758 0.00368101169746837 0.00254580755846772 0.00267655466648463 0.00403385094405667 -0.00769270204715665 -0.00310242357924408 -0.00799519223999202 -0.00543663070180586 -0.00230852072534953 0.00979254924709857 -0.00696223219882932 -0.00974433347956072 0.000749619295587337 -0.00474974105491556 0.000537893417370549 -8.1196043079123e-05 -0.00326188590749323 -0.00509610021941472 -0.0122483648131719 0.00449581042055137 -0.00419266312924118 -0.00577364614039565 -0.00117211951181425 -0.00660574776795966 -0.00677181118970095 -0.00230537870457079 -0.00515380471223668 -0.00487330679142743 -0.00405140015065933 0.00115347147503305 0.00388080869928829 -0.000983709755318051 -0.000789238144782987 0.000507159596219049 0.00698237287463216 0.00437870688830736 0.00526517416062317 0.00385201154074364 -0.00122421042130782 -0.00279537632919538 -0.00385084284957881 -0.00615375561466164 -0.00956884473903403 0.00537462510321168 -0.0020428415234352 -0.00351786676604381 -0.000839902308221916 -0.00333283342393407 -0.00523125916489892 -0.00550874257248385 0 -0.00758760740237005 -0.0107188759518865 -0.00737824095775595 0.00205526714984908 -0.00288244684396184 -0.00157060691427881 -0.00631347873718173 -0.00546569116359678 -0.0084334533106415 -0.00291482159548914 -0.00244985746925162 0.00151120346660814 0.00245280303884715 0.00293977689905951 -0.00338167661912431 0.00157501167878972 0.00141135363537277 0.00660239939179565 -0.00118580846191322 0.0062238971844267 -0.000791013332851168 0.00495260451126522 0.00343370050150493 0.000607224791391436 -0.00114635185330454 0.00653694833329131 -0.00323317370269701 -0.00361413436314829 -0.00840182595743265 -0.00136192959029344 -0.012420338118669 -0.00519450381517093 -0.00515805933800329 -0.00194318792788032 -0.00556879877555339 -0.00176772163640728 -0.00306290180518934 -0.00659462831240148 -0.00437713728897577 -0.00395382109181093 -0.000497478166619136 -0.00206560990680489 0.00302625814378625 -0.00333535466247986 0.0024089116898079 0.00836850406136723 0.0071197970052763 -0.00213181671469355 -0.00986972149556435 0.00170738152084986 0.00666306340998542 0.000391882921590557 0.000328660185085307 -0.00189965001539343 0 0.000904672109471751 0.00094172640935726 0.00360114265490494 0.00155027688222035 0 0.00153689834691512 -0.000267892671575819 0.00980533520463268 0.00392255859528043 0.000907720748845544 -0.006035539549866 0.00811224128425686 0 0.00917546210588787 7.19948417990369e-05 -0.00286546282437217 0.00561020456816105 0.00934621545271713 0.00262196078966895 0.00366819823495 0.0125613628956036 0.00656355583715074 0.00497018923932273 0.00850711675092406 0.00258157957013624 0.00434745778149829 0.00117189723196296 0.00506599010164032 0.00588301725732066 0.00455820500370115 0.0047841544992368 0.00454523371516993 0.00667295005336244 0.00562702513024773 0.00724060417103993 0.00186618506437623 -0.00295827441398184 -0.00023404709023017 0.00241198154825746 -0.000938081551364356 -0.000957237396965917 0.00426375738661298 0.00417025447731878 0.00257951272034722 0.0012067660451694 -0.00501493317024489 -0.00735596475314539 -0.00575483914506636 -0.00437996425984545 0.00315499283611587 0.00525737235521696 1.53080537397663e-05 0.00645257396124663 0.00310499418978322 -5.88934399542383e-05 -0.00322875565272009 -0.00482340709193766 -0.00311059016036208 -0.00340863952413583 0.00222614524952226 0.00542707782662547 -0.00685600790260535 -0.00354879133935653 -0.00423735119499476 -0.00372552678197184 0.00287005490398302 -0.00166791320313242 0.00133704169637286 0.000709703413782254 -0.00145151578577026 0.00179050480465118 -0.00209103272430831 -0.000463252543850283 0.000234057595543725 -0.00538170532810512 -0.00466359691135163 -0.00086601404201826 -0.00634163347190093 0.00124704855586723 -0.00221662689358304 -0.000710102372171544 0.00139535398236183 -6.42736650912282e-05 0.000653270808569593 -0.0061178440557664 -0.0054147171062863 -0.00622317152139807 -0.000223542091906136 -0.00202916199577435 -0.00153056849995932 -0.00127611122563373 0.00100301877615484 -0.0025669866621402 -0.00750377527302495 0.000904667904435479 0.0036508424691149 0.00162364879402284 0.000492446619777729 -0.000218803806467008 -0.00509146863961552 0.00294506187607726 -0.00379779212007415 -0.00443657710208889 0.0010236984799946 -0.00537615469526882 -0.0054886420938678 -0.00388608069515786 0.00494463612556715 -0.00171693492622651 -0.00488078647425897 -0.00173174310354508 0.00177577895164218 -0.00517648916871839 -0.00167566432805905 -0.000732836471149041 0.00372057254392742 0.000959211821840546 -0.00166194472992943 -0.00619943056712783 0.0034432983888501 0.00327619989376647 -0.00554536273055544 -0.00301961546957195 -0.00634066320340287 0.00107326837309607 -0.00107779036004115 -0.00479603753424794 -0.00347581761785798 -0.000382340174464688 -0.00625273683202373 -0.00584630599900102 -0.00581004136279768 -0.00701275164342405 -0.00128053316361135 0.00537957082356541 -0.00413624874472423 0.000307329654156685 0.00580584080738184 -0.000391817174668677 -0.00108129580179631 0 0.00289798595816054 0.000747602567766941 0.0014352236350214 0.00111127241440942 0.00219277149526767 -0.000479641667090127 -0.00391131163776642 -0.00391526341915123 -0.00252125423172613 -0.00401403603257978 -0.00127557762355198 -0.00517401338804916 -0.000700460517572431 0.00145220236403923 0.00493134741792674 0.00425165600296521 0.000204283365980554 0.000377328894575283 0.00179100081215978
-0.00112814655826398 0.000832034915058054 0.0117475051492004 0.00749032887383922 5.50142224006311e-05 -0.00131252267222457 -0.00424989565012493 0.000963392717431096 -0.0102462845204095 0.00640744714942136 -0.00262287087635672 0 0.0050752730727635 1 0.00182973196088101 3.5118784918613e-05 0.00839790732965689 0 0 0.00559160429304586 -0.0029277793078428 0.0100376238918542 0.00440482236505406 0.00123463794393931 -0.00514024756384921 0.00322896526938459 0.000658881090072087 0.00207327323331077 0.00286060611002994 -0.0119735208531563 0.0110956534754216 0.00379316540002652 0.00942512427610809 0.00308927350890885 0.00308693799700674 0.00787566890804002 -0.00176966465723814 0.00433588618080739 0.00283286744043227 -0.00234719753056336 0.00224246519709866 0.00366749136635631 0.00621930216950019 0.00590579149986015 0.00138948421101798 0.000532366441874843 0.00619440785612707 0.0079875275720199 0.00955102469378848 0.0065584159769826 0.00206436208395027 0.00229118806448665 0.00419367295699921 0.00097479055470899 0.00466047175811606 -0.00531131550854345 0.000631555331652344 0.00161317280293406 0.00320239912538579 -0.00690235968181322 -0.000397024241930075 -0.0062479136727372 4.39715266351502e-06 0.00730830612875142 0.00993773641104061 0.00717957343321418 0.0104719066303174 0.00717006953278972 0.00605883273321192 0.00261000552104163 0.00500214706092499 -0.0025131324902186 -0.00622241598500759 -0.00887819119768122 -0.00435129184059736 -0.00748514397260851 0.00377336732150703 0.00132883372267898 -0.00458581097254265 0.000900392455717287 -0.00373482127834044 0.00140751013241009 0.00021226221734417 -0.00355629884279735 -0.00183899507150346 -0.00700751561853842 0.00785017274428008 -0.00642242672799819 -0.00199283356996787 0.0028679938071718 -0.00925742476387079 -0.00675970304226767 1.00660701733278e-05 -0.0014466161178771 -0.0018416155013441 0.00057317222450222 0.00246181881004798 0.00389320511572879 -0.00292105534445874 -0.00710896254282596 -0.00169578963388027 0.00375671549088451 0.00380681450521798 0.00682344902748099 0.00637001207718152 -0.00487764496452292 -0.00270680241695515 -0.00483026990062479 -0.00780865600451724 -0.010146053290987 0.000616153846340433 -0.00654838126359306 -0.000633663804744115 -0.00577887438579508 0.00252613102830759 -0.00795911471776062 -0.00395016186284055 0 -0.00160574274856699 -0.00703418345175369 -0.00471982536111252 -0.00718779885206332 -0.00891289352418176 -0.00799834849729159 -0.00808766755482906 -0.0085178911211213 -0.00575065433558234 -0.00381436675460842 -0.0102375702007414 -0.00513033249649244 -0.00628633763418433 -0.00141937168888869 -0.004099459386072 -0.00532931009779846 -0.00413653194995572 -0.00117978775970743 0.00298541991303854 0.000829261282354 -0.00580843439588899 0.00577755702732263 7.4784056273877e-06 -0.00285162708043932 -0.00486659646378611 -0.00142616695020284 0.00284596334217016 -0.00470917526438926 -0.00814815626272394 0.000826693048149595 -0.010349684131267 -0.00466213998719217 -0.00352805456084511 -0.00324909301318839 -0.0077611789811256 -0.000415123495170877 -0.0050939828596273 0.00113474047524165 0.00189499194504711 -0.00382822075700323 -0.00989102902066 0.00722451390568949 0.00165757018964355 0.00453899293992936 0.00425895327977084 0.00994802003839861 0.00534223692515176 0.000750602344273573 -0.00680419112308182 0.00474863062318761 0.00173571361731824 -0.0088493997409451 0.00241709242400321 0.000913341903244648 0 0.00206539859342573 0.00392401146238295 0.00369239738525381 0.00163349655688804 0 0.00421724560669095 -0.00119882646236091 0.00844442343049278 0.0012962235932043 0.00617037077254966 -0.00702402087696456 0.0105728157484855 0 0.00896240992913619 0.00559876497907988 0.00058753894426283 0.00969646006116878 0.00981362965011216 0.00568661689236548 0.00454055410412716 0.0131731205876685 0.014236196200926 0.00328645016982846 0.0095627112959494 -0.00144437549957639 0.00151219236094577 0.00525337497364571 0.00569548864636818 0.0118371731818826 0.00407733737218597 0.0108304850298369 0.00926626942627283 0.0154545072451184 0.00714360399334512 0.00754508149936837 0.00538540172939338 -0.00165998966003072 -0.00426562607762714 0.00520029187418133 -9.96553861649613e-05 6.0497193143219e-05 0.00146856938692124 0.00755901563512473 6.48462032117355e-05 0.00432633488206119 -0.00553431282304762 -0.00672005509449373 -0.00588309600371711 -0.00727027259431544 -0.00400595933015096 0.00361265604385601 -0.0065426750425386 -0.00303491342605498 -0.000225960327969444 0.000883900315338207 -0.00679816504939296 -0.010106854223175 -0.00718572252939717 -0.00836574801584793 -0.00646080896664197 0.00436795082107859 -0.00711585478085968 -0.00340474473873602 -0.00664794643107715 -0.00204520250771265 0.00218873903765596 -0.00464484264057235 -0.00256270625025335 0.000181759725416788 -0.00646317666327445 0.00275345315651185 -0.00640057500947303 -0.00525067002345276 -0.00706736246194367 -0.00565400834832844 -0.00644260875872807 -0.00254605863710185 -0.00735311913638639 0.00735103166672765 0.00315736540191271 0.0052411946417026 0.00721191890942907 -0.00263706620520651 0.0018651951696045 -0.00220190582288872 -0.00092672954359431 -0.00269518466548026 -0.000621697120436202 -0.0103353646501348 0.00091188653057163 -0.00155204576621975 -0.00285481843737848 -0.00408560153455556 -0.0019068154160215 -0.00489880800229536 -0.000362400666173251 -0.000375032145356512 0.0049197398842458 0.000768772506660778 -0.00403580391137769 -0.00320184390794202 -0.0043087507795163 0.00164507229467833 -0.00665332267521679 -0.0051486968727585 -0.00881010279112656 -0.00771265113215668 0.000261899765793329 -0.00375134876646252 -0.00818527282684277 -0.00653098965654068 -0.000169419801680069 -0.0115845363511713 -0.00859893718394935 -0.0052541776630932 0.00206606474290842 -0.00023132573143021 -0.00302536772091471 -0.00968573661110739 -0.000465975833633867 -0.000413057094406277 -0.00479012024715467 -0.00167035063044418 -0.00459433971157704 -0.00429323576005231 -0.00605270608285236 -0.0076127993327962 -0.00802384084016047 -0.000159566124733127 -0.0101271192916395 -0.00225660644278515 -0.00711898733935569 -0.00891944466836177 0.00307454406374607 0.00507839800162401 -0.00784126534926523 0.0010282629780788 0.00755950954086563 -0.00573864920336692 -0.00376144312954876 0 0.000446236610313028 0.00149645893860413 -0.0040956587661442 -0.0033084932052589 0.00204702989388543 0.00432225841503248 -0.0045776356495264 -0.0051504629497414 -0.00692888216904336 -0.00401149791665826 0.00118571138020618 -0.00463488881995324 0.00367856425252577 0.00557107651956242 0.00746965785343755 -0.0039969587595073 -0.00584184360906596 0.000639024878077283 0.000135883655416189
0.00635216685354938 -0.00516967992289245 -0.00241048898026792 -0.000544925543856058 5.71133360785026e-05 0.00404261444915256 -0.00432411452207383 -0.00122737805990944 0.0029958377895219 -0.000870949291683724 0.00221827647662246 0 0.00144820906985222 0.00182973196088101 1 9.5334365608476e-05 0.000909644806525877 0 0 -0.0038670949236841 -0.00214986516998357 0.0105383508072288 0.00289644666029897 0.00496751920461604 -0.00114599220138403 -0.000425424107984073 0.0098645063065404 0.00120688905508536 0.00149589887113838 -0.00235589815277682 -0.00254730621509119 0.0045720791975946 -0.00566892683264629 0.00624250097555269 -0.00106112454797265 0.00170885890004194 0.00150823558031899 -0.00486733855472801 0.00219254660873873 0.00323415420822301 0.00346466711593628 -7.13366486986197e-05 0.000792535832402112 -0.00513664557708376 0.00225256625416772 0.00185930949171128 -0.000641198563228033 -0.00044730841749839 -0.000769857922400192 -0.005987122102565 -0.00202011023668872 -0.000847030943983573 0.000284081335816331 0.00265921995015391 3.40306242871633e-05 0.00455684000799915 0.00283399987733218 0.00466598009510502 -0.00265487139644358 0.00263842403969308 0.00325034051273747 0.0034499258364497 0.00331049767013987 -0.00218141065929241 -0.00393602259154458 -0.00102983155912737 -0.00245533681402372 0.00369954475097937 -0.0024583411273532 -0.00396844407490853 0.00164439037607362 -0.000303168265181238 0.00137512692626593 0.000382197788384952 0.0022705682587365 0.00158786188136499 0.000895247001761489 -0.00128527955795442 -0.000186563677429265 -0.000499905781293573 0.000130932628818226 -0.000305566070430582 0.00259753189628027 0.00455374973452894 -0.00145907135839825 -0.00104516760846808 0.000326079220973039 0.00222246503434084 0.00571043581638324 0.00308125439397111 -0.00235067635214133 -0.004148088241411 0.00860395216473565 0.000690737701215412 0.00368340798699825 0.000554957787645397 0.000433715309180148 0.00105610870656521 0.0010476978178727 0.00303634030781606 -0.00258441230525653 0.00246654599252732 -0.00191487220685373 0.000685087618121959 -0.00243653001215616 -0.000475180630642356 -0.00158781095813089 0.00268974740430742 -0.00132833355844124 -7.01676893730798e-05 0.00154044942796691 0.00392577362236085 0.000506597580061879 0.00179292434753051 0.00329158991252341 -0.00386771928015073 -0.00190548555967806 0 -0.000633496885165162 -0.00450975908307939 -0.00643159752229982 -0.00610265304290539 0.00292938388216739 0.00412466719647331 0.00104075206754339 0.00476467123745683 0.007708934827425 0.00359675475217206 0.000550725384844125 0.00353041350410897 -0.0044981713000611 -0.000282686619891852 0.00355659849279258 -0.00263537844547369 0.00838921254540991 0.0036347569921154 -0.000520897863523721 -0.00253427312210738 -0.00490938034391195 0.000638929353544438 -0.00301387634258978 0.0041882666221939 0.00114914713721576 0.00835204033993082 -0.00531990722706177 -0.00316554783249659 -0.00368790125098895 0.000512525478287329 5.51311599515886e-05 0.00100132338773008 -0.00139680656772352 -0.00198465928974364 -0.00145564789424729 -0.00502886536838515 0.00173175341504238 -0.00620201640591145 -0.00409171704872678 -8.73865106485672e-05 0.0053119167447158 -0.00466179359243592 0.00691723352336314 0.00225712864503777 -0.0100537159572679 -0.000853549231837792 -0.0017663773768267 -0.00304862447610419 -0.0049367626161124 -0.0012711063449653 -0.000427618322844998 -0.000399857791907091 0.00481236803472487 -0.00346508159115544 0 0.00300959999434094 -0.00571434238646838 -0.00364742041487025 -0.00820656722217243 0 -0.00416330077830471 -0.00567967020099987 0.00210185659098197 0.00388017912999032 0.00273192191962664 5.94903897325204e-05 0.00843728464392918 0 0.00536389577158502 0.0015478717824721 -0.00818617929150069 -0.00776890239082009 -0.00333471673974551 -0.00324589370671254 -0.0118360937171576 -0.00202656850953823 0.00019758876485206 0.00467015655864797 -0.00395844895291974 0.00433394216944556 0.00619691620923236 -0.000742645374479765 -0.00557783379393673 0.00228962264492029 -0.0021114202288941 -0.00332374306097463 -0.0025450103052967 -0.00192759124580008 -0.00547906798625624 0.00163127519123103 -0.0125940218011934 -0.00723913793973202 -0.00759488206853124 -0.00516415704003022 -0.010042532348493 -0.00905434882878969 -0.00776450083884862 -0.0131240853841775 -0.00876696295878546 -0.0110653112750518 -0.00408391512534741 -0.00515058450864111 -0.00448144352984375 0.00214889628756154 -7.28150405329951e-05 0.00195167512249873 -0.000317121120228314 -0.00718941120162022 0.0022922494600828 -0.00155212465004814 -0.0040466442236989 -0.00204706526829433 -0.00039438816027579 -0.00310109011191442 0.000149247542449207 0.000177163425064315 -0.00203266798521829 0.000133834528956059 -0.000232743896619873 0.00475913630856396 0.0035663616448224 0.00504819748712716 0.0098099421705984 0.000557277543734636 -0.00136982149758959 0.0042394894651284 -0.0022574622561421 0.00164478095791995 -0.00410486644086407 0.000516470521354366 -0.000601627080689139 0.00173271520276875 -0.00494026736285688 -0.00653887783983338 -0.00151377504172521 0.00173022268552841 -0.000914498211241018 0.00744002294369117 0.0090599742319821 -0.00776675397873242 -0.00765728582844272 -0.00753800665053714 -0.00208998195897171 -0.00209694440406737 0.00171365032310807 -0.00660409811559929 -0.0026826017263553 -0.00430918108795838 -0.00476987458853945 0.00573531730925305 0.00233614112514606 -0.00698386081695291 -0.0023816225240638 -0.00146951082995697 -0.00260379388303065 0.00469169634641382 0.0022241425822536 -0.00178260912598997 0.00262861192466608 0.000664919535868819 -0.000160178889535543 0.00170245369189224 -0.00326012388351084 -0.000468019746244349 -0.00330975710075755 9.38372618781998e-05 0.0025118019465567 -0.000170827221696887 0.00293606329022596 -0.00490476306816483 -0.0025858076638505 -0.00133053805785458 0.00468800899643396 0.000855164362726333 -0.00100879334568886 -0.00482396178148276 -0.00496529788561046 0.00566292234060281 0.000904997646773757 0.00140987496142563 0.00147490210390213 0.00230257348186198 0.00647974845029974 0.00442121676711489 0.00386024273648914 0.00257413903182427 0.00406662414055227 -0.000821033706867507 -0.00331987574337341 -3.68742071881465e-05 7.50997267381479e-05 0.00425082261615903 0.00257014702380062 0.00600470500090078 -0.00429355118676345 0 -0.00235810446510616 -0.00527975408634647 -0.000555394051952991 0.004049509252481 0.00160812276564971 -0.00325012300861656 -0.000775828879419419 -0.00130834161061958 0.00237776506562754 -0.00750100645752667 -0.00134170314344595 0.00342186794394309 -0.00213763091502037 -0.00167672513441472 0.00138666267286601 0.00158672619656832 -0.00111652815725501 0.00201993316543201 -0.00427434896244018
