1 0.00180177014999427 0.00136174253309241 -0.0044725520597919 -0.000590351586847177 0.000829812287363982 -0.00368242505414483 0.00130739019182298 0.00268962193174221 -0.00160031998716875 -0.00121359129406936 0 -0.00578561997051396 -0.00526323183623396 -0.000546469630471333 -0.00189219950543965 -0.0034247024826574 0 0 -0.00503013298777251 -0.00183113365518236 -0.00127417000588493 -0.00210535087027321 -0.00116428501587261 0.000536396022072539 -0.00846178828472538 -4.63418069738874e-06 -0.00779013232884439 -0.00601969786995079 0.000378687339463364 0.00631411102562565 0.00791711468253677 -0.000244597924905033 0.00429300666249488 0.00487259282149707 0.0054347857338241 0.00588079055637154 0.00753224828220945 0.00514000458152703 0.00165141696429596 0.0016920225511234 -0.00504823494983624 -0.000135796196677997 -0.0042411470962583 0.00849456917217648 0.00834592280424312 0.00166364883187134 -0.00500383633976162 -0.00461731698398532 -0.00115295962447389 -0.00449850741205428 -0.00534912514447926 0.00828852354096779 0.00952133583546256 -0.00437975255035388 0.000977343577606463 0.00530626952506118 0.00685243503330024 0.00930295634041637 0.00280822259210627 -5.76991191705752e-05 0.0033353257869473 0.00171189571556574 -0.00111627043975796 -0.0010242776242068 -0.000692938440003574 1.50574813973369e-05 -0.000370622389751316 0.00294483189573674 -0.00482019103583935 0.00302859098403576 0.00252379288866334 -0.00370509472961533 -0.00573127961302513 -0.0104919945517159 0.00105043755747446 -0.000281836256570859 -0.0116530242149733 -0.00256880718962589 -0.010435493928225 -0.00249518503667268 -0.00374463847793061 -0.00507925364136314 -0.00846807101598755 -0.00407740890030135 -0.003514060449331 -0.00610360624621669 0.00282948635685486 -0.00181855234775393 -0.00519724078408967 -0.000917996947600726 0.000271314479054483 -0.00182867276494928 -0.000110730629162007 0.00128174612486538 0.0033984800434405 0.000225274403263914 0.00172828582658007 0.00676966519030116 -0.00205387274776771 -0.0010638804619104 -0.0026171165135021 -0.00072582669812729 -0.00210457922375742 0.00023742279445196 -0.00431328711044947 -0.0032050674077772 -0.00175774082601544 -0.00781449745298969 -0.00205598598008175 0.00152709424976769 -0.00718245590837448 -0.00623283420143694 -0.00977224076209398 -0.00929579397567214 -0.00937071430268614 -0.00253328406796944 0 -0.00769026064607197 -0.0021192557181226 -0.00817070978491654 -0.00132668000435291 -0.007806801417795 -0.000152057001831431 -0.00811801126220075 0.00488436356755655 0.00671604537585132 0.00159724014965647 -0.00372987326020143 0.00370190526579469 0.000920191179708989 0.000850550074914671 -0.000293801078030132 -0.00387966823628372 0.00132762917625967 -2.78260271656513e-06 -0.00245300800423167 0.00154899722659774 -0.00182347839479504 -0.00073226778194903 0.00360204661063906 -0.00267826832064299 0.00220914317495381 0.0021051894825984 -0.0117833532577643 -0.00832378475560255 -0.000486735526267289 -0.00543967433576037 -0.00269657965778613 -0.00833412819898938 -0.00505596557117105 -0.00745735113816981 -0.00406007664506824 -0.00779563215890547 -0.00635579471597066 -0.00369977085319101 -0.00501614113979923 -0.00332619049061346 -0.0048344433690554 -0.00508827051649731 0.00244144803258193 0.00431441588816327 0.00291120020377029 0.00402828219181278 -0.00258235108672483 -0.00379425751002885 0.000662244290448698 -0.0128838871971744 0.00232576864658895 0.00174360665440821 0.00518256020107784 0.000864779557154016 0 0.00464210880898555 0.000292337768259384 0.00510329430939341 0.00224895013839701 0 0.0055564742397631 -0.000109145677984096 -0.000973948722356137 0.0037992103822065 -0.0017758569881603 -0.00477765908340868 -0.00507132845698299 0 -0.00341122155528104 -0.000927748399676655 0.00402996226931344 0.00382910931429975 0.00318168544661372 -0.00405574926743273 -0.0014892445661633 0.00262716151257112 -0.00254943556315124 0.00829025641179818 0.00395451181681327 0.00213235877488414 0.0114115693367874 -0.00248488393950314 0.0109012656832662 0.00297487763495064 0.00320107472575354 0.00207548859108119 -0.000867721390756964 0.00417631689537713 0.000150085471388124 -0.00034841728931918 0.00397932723548758 0.00278222484663124 -0.0058321485087828 0.00739210179627179 0.00285545267119938 0.0062934315300091 0.00409629839681729 0.0086271782799338 0.00766270169922534 0.00571047487135515 0.00151769429130693 0.00256559688144974 0.00863880042545822 0.00551088328860787 0.00922593750534231 0.00280866003063773 0.00717564735296038 0.000349225628733425 0.00574503824551618 -0.000899670306715922 0.00250362431343116 0.00828481093730961 0.0027718240038261 0.000325082144701273 0.00459315607509161 0.00295941419774201 0.00894138300309891 -0.0048592561841588 -0.00244833625071538 0.000736567963049557 0.0105650538255746 -0.00347247169330552 -0.000217076813897409 -0.00211510380646842 -0.000891175596873122 0.00443804644241309 -0.00770040402824943 -0.00117325384274588 0.00053637066748409 -0.0047114475235905 -0.00667384930111278 -0.00103106920039713 0.00269433289426297 -0.00149619317175418 -0.00498038263229139 0.000248683544523751 -0.00219678082385921 0.00378490317437953 0.00358837246452233 0.00431015964466972 0.000885999770145297 0.000931007298236278 0.00428295402482541 0.00464580240468782 0.00247314888419718 0.00285046928486437 0.00490772003897452 -0.00110462393109332 -0.000764388793324116 0.00413063014343608 0.00935604472118583 0.00175269598089255 0.00365424552226828 -0.00102568178308507 -0.00380878389205885 0.00354466104631737 -0.000203654509311422 -0.00455410644161611 -0.00568766698214276 -0.00815109573940928 -0.0087644116425863 -0.00382161762615874 0.00381972707345988 6.43899184514155e-05 -5.25216110880207e-05 -0.00998178932284757 -0.00373582890013391 -0.00410568265053106 -0.00198167006399308 -0.00662801939693081 -0.00251376312039565 0.000448929931150012 -0.000419439339017481 0.0046047723342055 0.00450219037058189 0.0025565218415614 0.00484946571968909 0.000375633692473768 -0.000941462231490679 0.0072302503835011 0.00123185268901861 0.00106228745429459 0.000730762780087135 0.000574531177376983 0.000907342594671088 0.00722691854067145 0.002995416236075 0.00204587469980786 -0.00207039873536493 -0.00184242188415259 0.000686819614389051 0.00340682980008558 0.000675009000667943 0.00451000634061119 0.00463202643604292 0 -0.00417177727141915 -0.00684581550344057 -0.0030561484316921 -0.00346201101665936 -0.00564355089375791 -0.00442532903202802 -0.00387089665474065 -0.00507414735353253 0.00426324907011464 -0.00418998512401785 -0.00458946661685622 0.00584136395558191 0.000910916463665104 -0.00168187004634909 -0.00177143484676087 0.00341198517648623 0.000339404128321441 0.000746112114573424 0.0034812947343849
0.00180177014999427 1 0.000798181880089637 -0.0136945202803412 -0.00458164289736436 -0.00325988545022241 0.00290510660553172 0.00501659029137161 -0.00179016478464006 0.00483638606296557 -0.00161523158500182 0 0.00400630220401502 0.0068696169218004 0.00523699417061596 0.0029474411482469 0.0037018547168602 0 0 0.00741662030140468 0.00714467253602792 0.00302583128566282 -0.00946271028037373 -0.00897514749860711 -0.00322437387106343 5.68030872813961e-05 -0.00722463902769908 0.000626915320047899 0.00193262243717393 -0.00467371952100107 -0.00579355394862876 0.00185261661980384 0.000966309149314364 0.000110609579864542 0.00121253151032785 0.0017151107284573 0.0058197105761715 -0.00745885178063676 -0.00473150082211882 0.000744360490879392 0.000149568000009135 -0.00665370735680123 -0.00300035146628217 -0.00987052519201274 -0.00601105347295053 -0.00353422949959442 0.000341699842193275 -0.00855713356792458 -0.00856123279760906 -0.00609636558957347 -0.00463937271787794 -0.0058635379090896 -0.00179928155403169 -0.000393915275763779 0.000179182547860156 -0.0065606975755134 0.00228238911037225 -0.0013925008982927 -0.00379214619189399 -0.000128210839014117 -0.0044537178177911 0.00207825427615744 0.00628384236752456 0.00377904829117535 0.00526386596927845 0.00324699737319974 0.00690645560894354 0.00555181094956786 0.00645106736257848 0.00440296542590664 0.00203578631886552 -0.00352251236674383 -0.00180419863784225 0.00247030987340628 0.000474252588118062 0.000339893695844606 0.00405727169249325 0.00514994009518864 0.00709814132812096 -0.000333096224727358 -0.00395672324216 -0.00537173020143793 -0.000339362274003656 -0.00646290262600726 0.00923341517822833 7.80522225507836e-05 -0.00726440186007783 -0.00287321793878783 0.00692691773752754 0.00811159111306261 -0.000893290625627321 -0.00599424955376446 -0.00264665452606784 -0.0130179404983764 -0.00395971151932192 -0.00354050997054032 0.000306031533972816 -0.00363287594503823 -0.00255507957757559 0.00130408881975563 0.00240333868308514 0.003490307772827 0.00982359628430183 0.00638752095784229 0.00616152752012491 -0.000711767531836452 -0.00374171817564403 -0.00101638771961546 0.000719101368857789 -0.00145435898990435 -0.00024396605109549 -0.0036050677165699 0.000144699580282033 -0.000596872191639841 0.00188917844220168 -0.000770942897011866 -0.00427655942690701 0 0.00381970970009627 0.00436176494886501 0.00296852291941754 -0.0038416350936034 0.000438452681997247 -0.000741982406126779 0.000782774201904389 0.000229381818593254 0.0027091498760106 0.00860554671909218 -0.0021181929641613 0.00910105186305426 0.00645172541503501 0.00682091139943783 0.00293665817312567 0.00610158252178752 0.00514240495729581 0.00758916231783184 0.00158550375601914 0.00939845686093782 -0.000275121947532997 0.0012089897763582 0.0080734950683558 0.00552144050566892 0.00515778353568781 0.00057211358914238 -0.00424396268284716 -0.00023309088186738 -0.00228860434724092 0.00484909756916863 0.00121437092818767 0.000728592695683 0.000987881703681659 -0.000120903819951695 -0.00144114545523768 -0.00594004832406814 -0.00140960975972012 -0.00437326735914987 -0.00629443690431429 -0.007239383661336 -0.00292019653448345 0.00170084311165441 -0.000652018334017237 0.00501275053108201 0.00141642276510436 -0.000280369378018343 -0.00978212416951335 -0.00303749848599039 -0.00516176774556771 0.000646430680303518 0.00760599861759567 0.00114603114339352 0.00470922920265579 0.00239545591099811 0 0.00722936111958776 0.00670587485214874 0.00715150755327745 0.00420204946740126 0 0.00981133249884938 0.00289248549153145 0.00277091710454241 -0.00522175167053437 0.00281959226691835 -0.00129957078332804 -0.000126578533020329 0 0.00675942832833775 -0.000791471522413585 -0.000175834036991972 -0.00216327424847337 0.00721930990068226 -0.00588072704062462 0.00601934784703525 0.00317586443554042 0.00928241512271539 0.0030606384940248 -0.0007156546033171 -0.00500994584382254 -0.00391514908177328 -0.00631915822141161 0.00272998248574104 0.00457549762545544 -0.0059160952452103 -0.000131616473075848 -0.00100553872731559 0.00107194467636832 -0.00340580489544297 -0.00766727288149421 -0.000346175029752076 0.00280297011286138 -8.9699453807599e-05 0.00190611043355016 0.00161998536746975 0.0016526490257408 0.00371551706190018 -0.00455960512454819 -6.0072292638845e-05 -0.00080987394216298 -0.00265901225362477 -0.0026160951905033 0.00102758748459118 0.0036615254966719 0.000585079888379657 0.00583755941710333 0.00528285935011729 0.000108031146719676 0.00221218479670814 -0.00164385808564426 0.00103441853577621 -0.0036121678441354 0.000699736426547831 0.00143393268358745 0.00115133415063027 -0.00418139407675032 -0.000774668383457163 0.000887426786565389 -0.00460865884601492 -0.000606603316427873 0.000148730969201451 0.00306867170956944 0.00409545864552489 0.00592744545202646 0.00206858957654048 -0.0018016560877032 -0.00251864772816706 -0.00422717380989164 0.00232399571851323 -0.00384255689418213 -0.00286988334808168 0.00346512455506053 -0.00771537767697135 -0.00716151165498762 -0.00185267815022498 -0.00255956006191589 0.00260603929311344 -0.000950933642042523 -0.00139316240021539 0.0021890120337928 -0.00581219551856961 -0.00508482464086934 -0.00402121333029891 -0.00446334808503289 0.00252432142338932 0.0073754225456481 0.00712254215017549 0.00527999549862924 0.000652557015112642 0.00149239154081641 0.00193487229783601 -0.00607636861848523 0.00316871605918827 -0.00459095051199763 -0.000950737953990958 -0.00460142871021729 0.0039399192949151 0.000986754507140814 -0.00213606007708318 0.00145171011075167 -0.00463290126541848 -0.000641206523842997 0.0042511972750169 0.00535584075071578 0.00131702955285673 -0.000686107035007504 -0.000263633218312694 -0.0028963027460095 0.000243050941655663 -0.00539583217833848 0.00533863625665293 0.00352903325579028 0.00113843039420874 -0.00245811394696661 0.0116822171460017 0.0107918004992608 0.00669033784500153 0.00539841438858255 0.000669395172601484 0.00191826708864531 0.00576516958636784 -0.0017425258264966 -1.62707804104529e-06 0.00504141764246669 0.00037718169672653 -9.51698761432937e-05 0.00225809642255249 0.00770103861973227 -0.00463573182487309 0.00595715374158074 0.005426706791781 0.00208195563946674 0.00398089953762228 0.00558576279531822 0.00972750119974343 0 -0.00975107274171663 -0.00666957480964232 -0.000916756810972305 -0.0012776214026387 0.00372387260078486 0.000309925287203123 -0.00127647503958022 0.00262046760345674 0.000558656913280346 -0.0078639075382931 -0.00279133316669218 -0.00855504396410847 -0.00701081832630104 -0.00627799297691568 0.0050139216186921 -0.00241289610589279 -0.00559668915290214 0.00652678467001025 -0.00148854919604397
0.00136174253309241 0.000798181880089637 1 0.00112822155952187 0.00417445741600321 -0.00102851436804371 0.000394492170274446 0.00921971702404779 -0.00600632681329281 -0.0056782209750333 0.00560534158498484 0 0.00948254802070441 0.00580474847382744 0.00776541333056808 0.00164899308699663 0.00664898383040585 0 0 0.00263021493549666 -0.00129054499962478 0.000455092594231938 0.000184898883071401 -0.00133661266427836 0.000929120194967621 0.00124456328800777 -0.00383220585216885 -0.00135094412599808 0.00635033588467418 0.00138078618838131 0.000789285399956259 -0.00647353705324277 -0.000419716946013191 -0.0021709977168056 0.000182556586098967 -0.00160747805625443 -0.00292187159892252 -0.00350921886708784 -0.00672771484067754 -0.00406102478716721 -0.00680894616396237 -0.00228369424600785 -0.00120632190948313 0.0053943679341806 -0.00956864773129139 -0.00299318074045173 -0.00514963679149163 0.00664321278737796 0.00544022475591429 0.0089151419517328 0.0041065177336678 0.00169497775342364 -0.00873226991819569 -0.0054447441116754 0.00288389319789063 -0.00183343755766644 -0.00587345553778968 -0.0051162993524033 -0.0073622234730248 -0.00471645245356762 0.00247261233654326 -0.0039829599209048 -0.00283334688280324 -0.00158882152804829 -0.00652507632276863 -0.00409498335338231 -0.0010329093009703 -0.00461584877439221 -0.00590928396517945 -0.00112799087877284 0.000101646462046168 0.000928597883016593 0.00196129751520017 -0.00639944101206147 -0.00476792534467184 -0.00743328875278836 -0.00101791645206828 0.00399894170050948 -0.000466847762568653 0.00330351604121021 -0.00517343678068701 0.00533183816999958 0.000878034586691275 -0.00425734869757576 -0.00180157355439199 -0.00327615654426695 0.00814481735632625 0.00458425539131593 0.00636256582980226 0.00389325743921483 -0.00160209956928297 -0.006234405565914 -0.00567327823580088 0.0014510406918374 0.00578230857030996 -0.00146875925117966 0.0104068583360141 0.00908931673904709 0.00125757524842191 0.00205088226684321 -0.00418219532587151 0.0016486313220827 -0.00209647015592447 -0.00373503836322781 -0.00060618611379346 0.000870660766910982 0.000655767194091725 -0.00937774881531615 -0.00565332674586782 -0.00950325986743758 -0.00482446551157914 -0.00202166983503683 0.000558823256753944 -0.000455138336665482 0.000545460989686343 0.00389616922872914 0.00224463511473648 0 -0.00197524577815536 -0.00541237172783027 -0.00621535230198149 -0.00567902880811443 0.00328641607080868 -0.00012886053411101 0.00690334040089471 -0.00501737581333865 -0.00379198304553565 -0.00168394663171295 -0.00229088445452253 -0.00447882485862912 0.00488554002686721 0.00273797593613597 0.00152029372367066 -0.00177426149283218 0.0034185209342774 0.000315704098092731 0.00355015491218013 0.000126974336013425 0.000758215575434728 0.00642590770767151 0.00193898323087301 0.000388969868917855 -0.00240601661965941 -0.00966014469735758 0.0072299138159442 -0.0024820567644703 -0.00990199999806889 0.00184425648558683 -0.0104555510796971 -0.00344651000812777 -0.00312638869336066 -0.000400301035752349 -0.00942743757153934 0.000219653324806324 -0.00818216622026685 -0.000884785461809707 0.000316071417407703 -0.0111843729548016 0.00282797819124727 -0.000148948582874651 -0.00478552630768708 0.00851458394290788 0.00734339919917528 0.00523937933891661 0.00283114811678294 0.00664161607080763 -0.000754484034060498 0.000742888653160267 0.00972366724627009 0.00646728821903269 -0.00168982093830997 0.00814385723077857 0 0.00541178174775178 0.00850094265087048 0.00701272054197913 0.00537320346542707 0 0.00239663482961941 0.00553842045581192 0.00299457262887316 -0.00270965303732369 -0.00137378424257744 -0.00743743969079081 0.00845026186921034 0 0.00283820022962189 0.00384243931912385 0.00896445203106655 0.00329713474488617 0.00528096267948235 0.00274010691456857 0.00831983587530444 0.0103220151627461 0.00784838612625352 0.00120173367452335 -0.00103252824555095 -0.00251085186924891 -0.00110275580376377 0.0023099304297967 0.00188281066274665 0.00118383675915657 0.00196106225108179 -0.00552474290458668 0.00133482681618888 -0.00040967871676373 0.00188513083725319 0.000495304057237515 0.00669420800914736 0.0021554288686053 0.00677219137251621 0.00346091420372517 0.00485211001754783 0.00342053452230062 0.00573839172406819 0.00318887131771979 -0.00061464019206704 -0.000236452773704999 -0.000649496942436228 -0.00222791716045017 -0.0034546067295828 0.000100401003319445 -0.00102999237903259 -0.00150287843249483 -0.00360148510813564 -0.00312842853131704 -0.00543482284006607 -0.00166783133415978 -0.00331583466726906 -0.0089770314390098 -0.00570351057242215 -0.00433048195717936 -0.00974779123212117 0.000858215883051123 -0.00319311017289418 -0.00614687092817957 -0.000695375666303499 -0.00874610289126744 -0.000964223052200688 0.00403405368332508 -0.000601013382312604 0.00343464813667121 -0.00317715075755027 -0.00454916630398504 -0.00209717907157701 -0.00533418252510259 0.00174287166121107 -0.00248089529041882 -0.00050334389921692 0.00178523123271512 0.00355458797494417 0.013174568748425 0.00858541814251984 0.0101868551142425 0.0105171069033753 0.00235630419221203 0.00339008112410006 0.00641505306139325 0.00960227734804662 0.00478642262108332 0.00782548837742645 -0.00140057673973769 0.00142655490047101 0.00844607235500673 0.00980908245366171 0.00554737922841984 0.0036114721271144 -0.00477209745411178 -0.00211149090458518 0.00485029651372198 -0.00158160533395788 0.00155245787487425 -0.00645545660541291 -0.00508816930172509 -0.00327654682207716 0.000322629513938036 0.00244171326646473 0.00191597872342702 -0.00109224705766883 0.00224384819548855 0.00302255650801194 -0.00766785459881235 -0.00350339575100178 -0.000240377525648205 -0.00085174034537748 -0.000979937297181818 -0.00362400037382691 0.00537413021532706 0.0101585871748341 0.00397983157134297 0.00230564418729535 0.000355912086522347 0.00702065386853942 0.00961769095928304 0.00480169310120463 0.000497864281460004 0.000230716262810601 0.00583668273053612 0.00340869764046417 -0.000197876431480045 -0.00375066670298592 0.00383449867674137 -0.00206314960412645 0.00244170685774996 -0.00057534167435937 -0.00194150091121473 0.00236419315911192 0.00631850356167875 -0.000396855393881719 0.00251970185733397 0.00480544933564465 -0.00163377174101834 0.00873247745370654 0 0.00520848649381258 0.000432074509227887 -0.00308252749342394 -0.00720397046013162 0.000419726374430955 0.00062653853011259 -0.00161184734395202 -0.00741513596620711 -0.00186698599382775 0.00362524299209249 -0.00494753686400239 -0.00544199827290221 -0.00101359914060543 -0.000732326294715677 0.00220450774523617 -0.0059559745205797 0.000277073309303939 -0.0051282661073262 0.00198535448772556
-0.0044725520597919 -0.0136945202803412 0.00112822155952187 1 -0.0136620829979384 0.00162303209987753 0.00462513537315507 0.00339968268517614 -0.00131746984420747 0.0006308951892754 -0.00134669531847429 0 -0.000716579543245883 0.00957072090588473 0.00104990943630506 0.00214939515492428 -0.000362931072123238 0 0 0.00746756101367067 -0.0078330767810567 -0.0032564932512539 -0.00199757293309287 0.000253710925001154 -0.000839952356528699 -0.000583986371708172 -0.00360298899738074 0.00202264900729316 0.00225000241985818 -0.00527284871026294 -0.0108029759571062 -0.00750257291204123 -0.00167377775787298 -0.00464168063805712 -0.0114687349135157 -0.00801362575358301 -0.00691228484535697 -0.0124239595555389 0.00019458712215175 -0.00265637310635685 0.0065000791002939 -0.00606546501924006 -0.00176080009520954 2.55976722480283e-05 -0.00541174868966629 -0.00492727167518571 0.000573087000009829 -0.00571350851631771 -0.00213807786225579 -0.0063666049470435 -0.00452896229878522 -0.00175785452249703 -0.0100106857635655 -0.0116501076471318 -0.00390731888870208 -0.0115169518314701 -0.00792016011602382 -0.0108859275040961 -0.00341307651647563 0.000573172243373558 -0.0036921606564708 0.00718657704702833 -0.00275642627063007 0.00502212795030556 0.000759599811384 0.00727926091764072 0.00553389599394227 0.00641499533551591 0.00271992950412236 0.0011538905533711 0.00281375247851381 0.000952146690615275 -0.00621670194772252 0.00077956312928256 0.00429624840254056 0.000413379222563204 0.00319886641773294 0.00342051637883262 0.00390675170394006 0.00512513474882331 -0.00274103138990697 0.00794695017486608 0.000174369695260541 0.0020622449253361 0.00472843398456354 0.001313736265882 -0.00515218373330359 -0.00477957470240929 -0.0024429146880017 0.00334565231032476 -0.0110108199404389 -0.0125511361942358 -0.00856726815942978 -0.00975989334605926 -0.00383999363751975 -0.00122641775941025 -0.00236279860584981 -0.00418666235379476 -5.53518530887564e-05 0.000317103359675188 -0.00624115507471184 -0.00591241462963079 -0.000780538031756433 -0.00300301593500544 -0.000487602969610719 -0.00693278385480336 0.0020381383030511 -0.00235210931309579 -0.00595924646480374 -0.00552378048505791 0.000161658472496079 0.000744376959037327 1.91250925699424e-05 0.00364291509534216 0.00823809132582835 0.00404481230990944 -0.0037466738244652 0 0.00420268912407216 0.00674823187691423 0.00579927937170996 -0.00309175971748854 -0.00612557466149656 -0.00317190480307218 -0.00118967528967788 0.0060941681734206 0.00745544401094226 0.00320454566559098 -0.00698388940916324 0.00828816877175324 0.000658058526972325 -0.00371550271089027 0.00157240624108829 -0.00410254805248293 -0.0038020557400072 0.00262592260067117 -0.00629517831098073 0.000129612806203513 -0.00556227129239574 0.00481804914644182 -9.13754272378454e-05 -0.00165807306002037 0.000203565612544986 -0.00318328034152703 0.00608005535310972 0.00429984103922789 -0.00242455201558358 0.00838718033557781 0.00185354002275101 0.0026237882593355 0.00195862689102854 0.00497679652102304 -0.00497242125691251 0.006194799038183 -0.00553841185122087 0.00027300733783009 0.00362141205486577 -0.00187177496798163 -0.00237109160739631 0.00747968392424432 0.00576268484338939 0.00382739956048874 -0.00531051980170894 -0.00117479399542837 -0.00218707928377744 -0.0102798886345891 -0.00592814764775126 0.00608247414752504 0.00905961739447875 0.00302540311422772 -0.00415483130506688 0.00436195748194049 0 0.00794329819453726 0.00673818526169588 0.0101239542678813 0.00581648296059833 0 0.0115242080692436 -0.00204792717265241 -0.000218824365587077 -0.00174763410232312 0.0117936998772801 0.00304568730484305 -0.00198953016650858 0 0.000995517940252471 0.00689952567240002 0.00365578298297232 -0.00827573283094023 -0.00251453605532045 -0.00138101291928654 -0.00236643717685867 0.00219871397450872 0.00336161464765591 -0.00504067224515865 0.000487324941070231 -0.00538593656537786 -0.00407680672018982 -0.00164702793898257 -0.0029794939229053 0.00162792331460732 -0.0040003247973784 -0.00202401677340261 1.46218547862227e-05 -0.000274607052166436 -0.0018940030038844 0.00104984198316878 -0.00519824472624734 -0.00362767824579428 -0.00572471038611705 -0.00843499747224566 -0.000445566629371903 -0.00478078795513042 -0.000566887375516912 -0.00548710198169896 -0.00685453403048071 -0.00108242212989261 -0.00172325450677741 -0.00085165383381051 0.00529335584085102 0.00375882947450579 -0.00976472377339694 -0.00441138239526244 0.00483171830130713 0.00114605478781156 -0.00341171559509623 0.00608657479778415 0.00613807656790641 0.000943239948206111 0.00169750084807547 -0.00202685891682134 -0.00741028498192551 -0.00395562896755539 0.00408161204211891 0.00227681586007073 0.00164970232178652 -0.00133980204333037 -0.00874267429495909 0.00141361453452277 0.000465019100829673 0.00570691033733245 -0.00117974997304932 0.00188516393827482 -0.000432103548952655 0.00309708783829162 0.00415785388557926 0.00268068765476462 0.00567210028643843 0.00462734887843578 -0.00641990551477465 -0.00507210182515603 -0.00597141929898427 -0.000611869854701999 -0.00127121637352399 -0.0072587774838072 -0.000692387567538983 -0.00470754383557634 -0.00564668323197575 -0.00938270476161306 -0.00723230946722557 -0.00814290012463504 -0.00417093519841271 0.00779358351728589 0.00686540998589038 0.00716622668192884 0.00352153821322188 -0.00132497192252224 -0.0034883222819767 -0.00658202393884852 -0.000376231731499645 0.00366702749751811 -0.00162797947400417 -0.00183434630824611 -0.000163289368133649 0.00715292038773403 -0.00197584176280213 0.00600037098583107 0.00221731978953863 -0.0038532963720381 0.00161923406542063 0.00590022968630187 0.00549185896021747 0.00240983614324025 -0.00559776966304015 -0.00368014543804864 0.00116703876461102 -0.00509067842229895 0.00794602799100021 0.0126637229488805 0.000322755519783581 0.00477046446699723 0.00753771105746542 0.0086925310096839 -0.00139847263510286 -0.00018765816973217 -0.00465101405635768 0.00241821570932599 0.00425412269454641 -0.00327108185228088 -0.00220169644742171 0.00315168772937225 -0.00311272185668312 -0.00773582777655771 0.00269148685542734 -0.000530102419086188 -0.00570801960122866 0.00276659978109098 0.00178609766142232 0.00127268457593364 0.00494069988579378 -0.00916517128579091 0.00866492842950037 0 0.00155770341315098 0.00375686032180346 0.00553556891143945 0.000732289274035777 0.00597590650528789 0.00704539579350919 0.00378071750474046 0.00478522914873416 0.00335600151076922 0.0052679196008828 0.00726018611228554 -0.00700240538988003 0.00672740909344481 0.00278620698724524 0.00393087100609361 -0.00300190004109186 -0.00128934225974609 0.00468027003050313 0.00505321136441415
-0.000590351586847177 -0.00458164289736436 0.00417445741600321 -0.0136620829979384 1 -0.00329350441055144 -0.00943710271222338 0.00623254082256604 0.00128285290437351 -0.00101060730505078 0.0048406037910832 0 -0.00554689401149945 -0.000317092457023446 0.00948212149914203 0.00155673849985951 0.00339646759052433 0 0 0.00299786559393533 -0.00362283956824644 0.00738338183891938 0.00105984023520769 -0.00440433825179262 -0.00333290127108371 0.000215597031033644 0.00108536046444373 -0.00364369082413231 -0.010064903769382 0.000162460428560688 0.00298233776916152 0.00527013317071241 -0.0024550533686417 0.00862780634064191 0.000207761682292079 0.00141979393675649 0.00261748175105573 0.00233528021837832 0.00816146630236166 0.0026987583201507 0.00584803435557523 -0.00134249551121088 -0.00711015957891705 -0.0114223426319327 0.0114160775428216 0.00808702469173032 0.0054559232624918 -0.000101027136389992 -0.000186222981385444 7.72888894475967e-05 0.00236135769653867 -0.00485348054950069 0.00783851065870337 0.00152607770138836 -0.000791847499048256 0.00452090168909931 0.00687770721185587 0.00331215083251709 0.00652911276903717 -0.000249780438355608 0.0026548489531733 0.00164243582670423 0.00105441598550778 -0.0049511266670812 -0.00334457401875517 -0.00277153793249124 -0.000669832336564807 0.00366017400691978 -0.000126336097851914 -0.00366965873400116 0.00325798928051447 0.000785066340823892 0.0025652863183416 -0.005640494971281 -0.000185073978701571 -0.00670846245933986 0.00458442058114294 -0.00171019474942021 -0.00324546557116686 -0.0027121704898101 -0.011721637446865 -0.00776095852365573 -0.00348556751097251 -0.0089502330756123 0.000689311995016402 -0.00289632397361601 -0.000665026723162137 0.00293369935346934 0.000768697884169701 0.000283557170259658 0.00182373925898307 -0.00285487281160882 0.000856552812600025 -0.00400025971100238 0.000997422495474708 -0.00107607776157508 0.00461744782885333 0.00151316017276276 0.000894926336373833 0.00417952650250685 -0.00130653567444965 0.0048599835590813 0.0037721820418609 0.00528161563520425 0.000304742756919463 0.00402601199556265 -0.00513209231351012 -0.00392250558061488 0.00143456838809102 0.0015450816854619 -0.000267882604373769 -0.000658083202122339 -0.00329088302852051 -0.00550208340628038 -0.00440747297099291 -0.00636940837260015 -0.00732129620856097 0 -0.00162190020130409 -0.00349794642771726 -0.00751364718374552 -0.00620196775734697 0.00225467805054192 -0.000260795302699038 -0.00341410386649288 0.00657614006205984 0.00178301983786012 0.00788886937902054 0.000737550512733107 0.00212535433176944 0.00770775077982769 0.000197616670112215 0.00821484750426859 0.00301938703363271 0.00555404826780237 0.00167258730928867 0.0035076779409178 0.00789451509470561 0.00250318698940033 0.00119125030661061 0.00272348941174759 0.00713810062524703 0.00683704850582863 -0.00493176088436882 -0.00878883468166771 -0.00920741173823681 -0.00073926595292549 -0.00629668808900042 -0.00817969031491306 -0.00983364084382642 -0.0031045118610565 -0.0113089826751004 -0.0072427705990664 -0.00706508922030038 -0.00515412845097169 -0.00502559830216763 -0.00608181925538805 -0.00403314989329108 5.43539021431418e-05 -0.0040880041051453 0.000185809963594615 0.000512818589419798 -0.000689842109313798 0.000280748472190575 -0.00906854435473682 0.00171770533670173 0.000184013083707533 -0.00620938669357298 0.00697750158738026 0.00359353593429877 0.00406583184359181 -0.00388393398673365 0 0.00630465322413119 0.00492896998705309 0.0108466135673013 0.00260191520880402 0 0.00278127978843953 0.0014445876668119 0.00685795153620893 -0.00127354951660346 -0.00637646607733265 -0.00969872778997019 0.00657129362707553 0 0.0097801334486152 -0.00190673253379754 0.00272532043940578 0.00056165540185741 0.00668256155680917 -0.0016380067065905 0.00338507456247391 0.00408301440749054 0.0051693752514073 0.0101846578520183 0.00579832925464926 0.0103336259923819 0.00719536904491598 -0.0102843234610026 0.00400479381246579 0.006070321154715 0.008258319343947 0.00429844455415925 -0.00121140590401974 0.00485863541017319 -0.00306287591118043 -0.00542382632018636 -0.000869658332011131 0.00414371623885221 0.00137629525587419 0.00283065324933991 0.00257524262283738 -0.00292802110666453 0.00402296361200759 0.00138384788514256 0.00450561593966984 -0.00172574828152315 -0.00388580550073208 -0.00610714894202501 0.00361286683412952 0.00513415667025666 0.00631913290899153 0.00385708772392278 -0.00106296151613904 -0.00505128522190197 0.00299577554200885 0.0021755295318912 0.0024833919452061 -0.000509091933320299 0.00543743755905615 0.00724092798202647 0.00054421644971151 0.00128810777775851 0.000472916605689424 -0.00282359161036058 -0.0068151223050815 -0.00428437669510211 0.00102828686094102 0.00869274074585806 0.00514608321200524 -0.0006079003896535 0.00228526810425851 0.00483123122917126 -0.000894374239597924 -0.0029378505895467 -0.00571660385741282 -0.00127057092675251 -0.00597989114230811 0.000617240624794637 -0.000269193613768452 0.000655579855369291 -0.00011389926299595 0.00153069973470927 0.00261675086732061 0.00564653433351895 -0.000372418856176715 -0.000240397548467307 -0.00462121235698942 -0.00302075497417235 0.000379664210959041 0.00355065054404607 0.00235712611163804 0.00432960048977392 0.00418537156180513 0.00217674709608621 -0.000457252713981655 0.0103364092483353 0.010788242909893 -0.0028173550599218 0.00377966825269737 -0.00473819625958756 -0.00292576719254556 5.69061043011716e-05 0.00343126107984747 -0.00184668967170508 -0.000590583729543817 -0.00424304458697397 -0.00879034361905483 0.00249208083609117 -0.00692572455617674 0.00225994452590107 -0.000694595798123986 5.77556539194191e-05 0.00540213836237318 0.00493162876789936 0.00514496304622407 -0.00355683349461972 -0.000502022548781412 -0.00288574484843686 0.00131900010145118 -9.33168813693252e-05 0.009467892190127 0.00474597235350023 0.0099048762352722 0.00661304904732768 0.00713042474402756 0.00827000655121005 0.00712509045153673 0.00130265902121974 0.0046339969798728 0.00839638708536262 0.00487429553899834 0.00382288042175689 0.00884245089774051 0.00509394359485054 -0.00418659477572396 0.00689802947164979 0.00566809363299606 0.00517407092640891 -0.000660676938763429 0.00533845335172441 0.00389790372430593 0 -0.00912935712694691 -0.0066396887177384 -0.00750196439937504 -0.00295312446631034 -0.00668130451017031 -0.00993460120909874 -0.00396707962971136 -0.00935053780362255 0.00443489957954596 -0.00477672340094058 -0.00766766746056723 -0.00117539648688208 -0.00264401872096502 -0.00252392415199975 0.00447628858315929 -0.00351737002516531 -0.0075924774365658 0.00634826937009997 0.001761259145764
0.000829812287363982 -0.00325988545022241 -0.00102851436804371 0.00162303209987753 -0.00329350441055144 1 -0.000632335865695558 -0.00818288177432846 -0.000725012911834808 -0.00323795088582911 -0.00164202149455942 0 -0.00506098838436244 -0.00673311336214291 -0.00420959316254459 -0.00856608552375555 -0.00588939116214704 0 0 -0.0105915040454814 -0.00202959071565812 0.000519780621743638 -0.00560449163830311 -0.00186863937948463 0.00341380458218087 -0.00321884878733369 0.00449770816963366 0.00394118040510586 0.00233756333507368 -0.00684686563536633 -0.00171280774423704 0.00200127743581427 0.00203057748825874 -0.00143006766270846 -0.00548225273284929 -0.00307046599993005 -4.49439316554173e-05 0.000397994448967377 0.00407991939554086 0.00348217115660089 0.000658325615981226 -0.00112622817573264 0.00354521902264024 -0.00280306128887898 0.00308038793190766 0.000401730038410906 8.14353892113536e-05 -0.00172064956360332 -0.00356360777899237 -0.00511003174726094 -0.00797316100876477 -0.00676800739589676 0.00324002345660691 -0.00126892491761333 -0.00665120824359938 -0.00617534600981917 -0.00698448200443281 -0.00616905815956154 0.00198504562750098 0.00135033522714438 -0.0043514167489657 0.00345156821802397 0.00177830909726615 -0.00286760522097175 0.000924891512219546 -0.00345096404972443 -0.00339281792043117 -0.00140664742647749 0.0016224183156825 0.0011739379512555 -0.00228194441065619 0.00517185179474107 0.00500886474884362 0.00123721535874583 -0.000483203256283415 -0.00255077747746016 -0.000343905553309394 -0.00352933942186683 0.0012402574446298 0.00169827233625326 0.00236610332502166 -0.00333864440967526 0.00223635959500072 0.00134161528287088 -0.00216903371376026 -0.00388801699744924 -0.0077687334395689 -0.00498135337499658 -0.00356437596210963 -0.00222334790270109 -0.00441214804271375 0.000946799557731177 0.000529862796162182 0.000303696092690965 -0.00806940344161316 -0.00189968099129096 -0.007252314995749 -0.00545081768612401 -0.003213375766441 -0.0036698829351119 -0.0025142647815683 -0.0019582340560926 0.00294800730269218 -0.0030483485401305 -0.00407932876568838 -0.00194299179583188 0.000100661849065348 0.00721656882894648 0.00299163663853377 0.00419656255528532 -0.00156829647049104 -0.00154638975815692 0.00202493325504253 0.00299168275318141 0.00283638643929228 0.00525654617917858 -0.000452744786858493 0 -0.00246413593795662 -0.0011513247870101 0.00272699906244829 0.00260097455718109 -0.000285001306056662 0.00200823041669483 -0.000660111042379635 0.00151622518530678 0.0018155375561367 -0.00177842025629583 0.00210804429183301 -0.00240635844595309 -0.000780954540185177 -0.000408201216380053 -0.00402050873040974 0.000792267423547092 -0.00262825825727041 -0.00266761753969877 -0.00357572341628463 0.00125478172106054 -0.000600074853219826 -0.00385448570578008 0.00604833112056502 0.00069886021514559 0.00034876157063092 -0.00301734308599367 -0.000790309010049252 0.00629224194194679 0.00744331038576137 0.000604558180245026 0.00147923032868028 0.00189781434187461 0.00465367275606342 -0.00161563548876425 0.00976237566639193 0.000307196120303107 0.00448178649388855 -0.000587954267385452 0.00088848448114226 0.008770359664814 0.00319685066587676 0.000829257117598223 -0.000549904630208924 0.00402742538510392 -0.0041115424004117 0.00766464362235854 0.00548145780001117 0.000268778248199092 0.0032226946191404 -0.00502423335317698 -0.00492774241083147 0.00185840121229244 0.00280846090859346 0.00150087997548761 0 -0.00392246950952023 -0.00479660295614023 -0.0018894629564963 -0.00719093907446965 0 -0.00433017954276799 0.00481644158325675 -0.00277663434772517 0.00864483860673964 0.00112667482165234 0.0037319168506022 0.00122403818413717 0 0.00360353786563751 0.00175575698954384 -0.00113998209873799 -0.00288887211617917 -0.00534081485391897 0.00264689901161389 -0.00920969468715466 -0.00405755673699351 -0.00514010881829515 -4.74897443065189e-05 0.00685236935823905 0.00200827991170291 0.00560020806166716 0.00462018383443337 0.00489390660303326 -0.00233462778831527 0.000861518735878667 -0.00246174001375936 0.00321947142042231 0.000342711406989749 0.0016076506059776 0.00384613458854091 -0.00755789571033831 -0.00304836114707336 0.00341217860965496 0.00242075070409752 -0.000220577463451074 -0.00609653034119171 -0.00469312964289996 -0.00172541776601976 0.00116125970452396 0.00413891423389377 0.00645158258081539 0.00477533178605819 0.00654773869861892 0.00567011775987905 0.00361418847330471 -0.000527727074733528 0.00258989176359711 0.00822034219142617 0.00404083956096586 4.86479591533037e-05 0.0053593511532221 0.0114668071276314 0.00471594647329454 0.0037526050605573 0.00508109919227948 0.00203894491079082 0.00494041845351094 -0.0011846316208395 0.000637825823410952 0.000926611149465939 -0.00144176615163744 -0.00331906108345407 -0.00231615473316036 0.00276740665553464 0.0021870473686498 0.00220741692484115 0.00614095817861664 0.00648016471477851 0.00226815317231913 0.0036220565187609 0.00290738058298592 0.000517614666660918 -0.00678999575103868 -0.00247436702137875 -0.00308882067175721 -0.000602044071787477 0.00253184210232205 0.000908815280964439 0.00164998081621433 -0.00414555857340437 -0.00139828550244946 0.00170401485083496 -0.00170633170260787 -0.0029212188447171 -0.00506000403895127 -0.00614338299450593 -0.00343992625284518 -0.00533875137575203 -0.00638906593382204 -0.000483477444882825 0.00325470789512713 -0.00355770278142528 0.00927912399426028 0.00602034947780659 0.00442248722915282 0.00487299960267697 0.00762174339265857 -0.000137349292002199 0.00163171089849863 -0.00172381627799525 0.00360133866372896 0.000875101251429534 0.00279706536015052 0.000543889646547264 0.00443327273289325 0.000321408010509362 0.00636330105850261 0.00320889113670889 -0.00179493736949389 0.00023169617378705 -0.00208197565794015 0.00111940650904578 0.00129875991578118 0.00633925338648479 -0.000328062316273625 -0.00462451525153703 -0.00120546507381585 0.00161423621008925 0.00357625485756456 -0.00400517181172971 -0.00373221844772927 0.00142209711764019 -0.00238964679955909 0.00587989965713974 0.00297155253206627 -0.00148107282012321 -0.0033355246342637 0.000690665434134938 -0.00102661917695989 -0.00496175882833253 0.00736218656014734 -0.00295228486078203 -0.00462284410518814 0.00146411809716584 -0.00186522093485269 0 -0.000418420250736493 -0.00142851621330469 0.0095360008667906 0.00625167091943684 -0.00170024717532219 -0.00332838428635423 0.00392811263008477 0.00335153221758865 0.0101040420896191 0.00364157012548455 0.00158449043586162 0.00714709583181923 0.0063846974087726 0.00799606538434395 -0.00395167202663686 0.00592987885119438 0.00463654156208237 0.00373092771009973 -0.000776691366226261
-0.00368242505414483 0.00290510660553172 0.000394492170274446 0.00462513537315507 -0.00943710271222338 -0.000632335865695558 1 -0.00602835092540333 -0.00245468599873652 -0.00201452070561666 -0.00183076764519546 0 -0.0083968285343818 -0.000257074047073846 -0.00819517605763221 -0.00209238595933804 -0.005336117056652 0 0 -0.00260812061094527 -0.00744864272330013 0.00113060321434159 0.00748812826796773 0.00543848979737645 0.00200054356560679 0.00133069213135289 0.00481401576433087 0.00154119160240697 0.00233225378196984 -0.00696548908123379 -0.0011974862884852 -0.00665042113943721 -0.00118950929076154 -0.000994721835041498 -0.0030929405077718 -0.00494131466245649 -0.00362983430890145 -0.00045080535882417 0.000684616731679837 -0.00671584608466374 0.000857411064653504 0.00630342158410865 0.000205906088838393 0.00304933685957863 -0.00363735477305398 -0.00418843926289768 0.00114090486355499 0.00425371957434192 0.00972552595848812 0.000663011619686035 0.00401685298295575 0.00518177425571596 -0.00164287632641117 0.00242424534485927 0.00353811835863119 0.00400777494678482 0.00142664898388517 0.000532959583669575 0.00245124654263186 -0.00306115548255916 -0.000210465168545886 -0.0045540306775614 -0.00568183781044522 -0.00262862076424087 -0.00199845339503676 -0.00307092482801196 -0.00299767485642774 -0.00501591575107475 -0.00476034406674166 -0.00195729674592059 0.000842006701523819 -0.00132562901215572 -0.00345342158216514 -0.00234634676562712 0.00347506300887211 -0.00215261954900337 0.00185665409791314 -0.00162543335734561 -0.00227849204823652 0.00566206920064391 0.000761649992503852 0.000822029691859225 -0.00092690440067251 -0.00275944010820354 0.00124296153747253 0.00123198195373575 0.00217595680991938 -0.00413088360432548 -0.00833009259295413 -0.00759802598258999 -0.00335974210939587 -0.00648139638262554 -0.00701962354387598 0.00261992273126475 -0.00451263592059132 0.00330617000325271 -0.00349187286626532 -0.00164410074633149 0.000898913423958633 -0.00167879521494019 -0.00503280414282841 -0.00566424911774161 -0.0073459818581846 -0.00321507355632946 -0.00165668098428557 0.00448050236288328 -0.00091098381688784 -0.00206260160736604 0.00299860856620286 0.00078483759536759 0.00161677480517374 0.00271772189443388 0.000803166149871437 -0.00363534292506737 -0.0029314936435661 -0.000285868655592071 0.00666452397555651 0 0.00329749453374452 0.00246633407765768 -0.00245206826340601 0.00132875952232528 0.000471967036783634 9.22067072820511e-05 -0.000417255029048569 -0.00149215709312018 -0.00799679573606754 -0.00413162280224352 -0.00684425026732006 -0.00401666102121843 -0.00184534587370693 -0.00734141974518704 -0.00128361198398559 -0.00433113017523034 -0.00194812227725251 -0.00426713625292673 -0.00434957549377587 -0.00922772006431866 -0.00585540502835591 -0.00458406195331397 -0.0125055300949351 -0.000675439979805367 -0.00535961954682622 -0.00280142614107581 0.00272298226374418 -0.001395502496927 0.00321254180174599 -0.00733190770930451 0.000752468900792253 0.00423380494969856 -0.00102308686680495 0.00493497863002523 -0.000318959131071427 0.000390983559760688 -0.000999809921782527 0.000724599884187265 0.000987259388341118 0.000105794113567769 -0.0035467187819411 -0.000806388977759414 0.00106595647082727 -0.00738291393645493 0.000685608985251372 -7.45277885222991e-05 0.000367527562003942 -0.00313737429375889 0.00364550635853394 0.0059556215148773 -0.000654289652157414 -0.00122906064246657 0.00115004900118618 -0.00270132988856493 0 -0.00463195786975754 -0.00476842275187633 -0.00337805200362333 0.000487004800202932 0 0.00491220221614677 -0.00463303259598755 0.00173544957177157 0.00319825101745039 0.00912342712829553 0.00359001909385916 0.00462848142419794 0 0.00157161111369477 0.00312313201612937 -0.00195633187974643 -0.00160476896137492 -0.00139583295963824 0.000708431100583589 -0.00119302002911962 0.00547994325281467 0.00122625539283147 -0.00203749386255295 0.0032783066835814 0.00708235353045163 0.0056237432165725 0.00034258366996632 -0.00440401296021874 -0.0041535191565072 0.00468502657533509 -0.00485224979710628 0.000779793975669117 -0.000111444509658549 0.0015425873870176 0.0026250517075272 0.00229210221845736 -0.000629054416705579 0.00247618956842423 0.00568956840814851 0.000317850587295607 -0.00110592508146738 -0.00618351945318753 0.00234915280518083 0.000215816349136433 0.00396523683908545 0.000639505724363736 -0.0010962269553226 -0.00149669661397345 -0.00157965781059809 0.000120553741676656 -0.00358921972947879 0.00294282003501963 -0.000519681820795019 0.00193404852462849 0.00419626295834039 0.00270537496662033 0.000762689687291109 0.00406109692211675 0.00368425629312702 -0.0022119395670231 0.0034097088243042 0.000777744715478101 0.00323183854421999 -0.000576498242159116 0.00415370684856135 0.00171920060268601 0.00207838181537198 -0.00322713097741488 0.0010375909666708 0.00189522206476144 0.00468366084589356 0.0070818125140325 0.00274045256852941 -0.00286159453958473 0.00399411405148524 0.0038439052004048 -0.00172524079591323 0.00256903789799425 0.000887622640726445 -0.00254533338687143 0.00249443526611997 -0.00384907646802391 -0.00405622493944063 -0.00395100204780567 -0.00634149341215937 -0.00285805818320308 5.4719033935859e-05 0.000540205773160039 -0.00174337688021609 -0.00413663551177543 -0.00536769859749696 -0.00198053142550566 5.53303419531539e-05 -0.00186066600323567 0.000243120668171224 -0.00191407737360285 0.00559976487013007 0.00398022105206307 0.00390776229435913 0.00308592456925758 0.00513477381668253 -0.000355140420771445 0.000276047591034607 0.00051404535805775 -0.00147472420365603 0.00346916435994325 -0.00476845712455802 0.00056074327471366 0.000999554053193648 0.00525558278388565 6.66347942842613e-05 -0.00358764772640348 0.000574470923826263 0.004112357268387 0.00487460213463376 0.00320311513890356 0.000247803146405944 -0.00220678228388416 -0.00200122730804126 -0.00366710506683004 -0.00071823178484436 -0.00230258144654954 -0.00289596827403481 -0.000994890672841569 0.00210371863764011 -0.00292973666107884 -0.00102134913324253 0.00330982388411769 0.00228767669684965 -0.00140449994243986 0.00233261257794316 0.00124728273152165 -0.00437391426526873 -0.00276576981660778 -0.0019017274307684 -0.00849930358985812 -0.000902016218098657 -0.00301930398312793 -0.000661549153220329 -0.00627586509640774 0 0.00574784726069662 0.00904785761160931 0.00159268937395536 0.00201580926716186 -0.000330676512254694 0.00613881163565616 0.0030653778660564 0.00502164537883747 -0.000633088277846123 0.00480152338566527 0.00727110257328474 -0.00177807710074044 0.002074378147007 0.00150977292204822 0.00379639209605695 -0.000596117266235723 0.0025008621003635 0.00393725356069413 0.00333862139073707
0.00130739019182298 0.00501659029137161 0.00921971702404779 0.00339968268517614 0.00623254082256604 -0.00818288177432846 -0.00602835092540333 1 -0.00246314747175312 0.000164039997025251 -0.00413707934100764 0 0.00354202068430763 0.00488090582311827 0.00425015907140161 4.6659848173284e-05 -0.000326468746924528 0 0 0.00652949141154271 0.00276571961118249 0.00216219636063327 -0.000365359158063184 -0.00224965437280687 -0.00481444584296283 0.00123432465487629 -0.00409596643504796 -0.00219245261556846 -0.00384580169770274 -0.00282793121755977 0.00758818749147169 0.00737909152556849 0.00568996278994882 0.00204549374441458 -0.000218665318111848 0.0053441759802182 0.0059947921988669 0.00889101293429514 0.00717879549440054 -0.000618238748048288 -0.000446227417247359 0.0018986753031785 0.00187995919084652 0.00154512441637833 0.00684789471740963 0.00705478958700353 0.00334477503531043 0.00436566126349791 0.00389187515504298 0.0047203810649332 0.000228119847615546 -0.00131953346951621 0.00902545820243075 0.00101540819866048 0.00321615429906973 -0.0047369254105474 0.00222846991387532 -0.00110395195408717 0.00968168713848996 -0.00608554352162192 -0.00692076986274975 -0.00768289262999359 -0.00511748672932227 0.00192657990248855 0.00984626450803487 4.50808941272423e-05 -0.00333131537480076 -0.00346929117235443 0.00591377413012195 0.000617618548609529 -0.000979559520597116 -0.000791313775475558 -0.00183916565958371 -0.00415030672976406 0.00223856604023833 -0.0040803474947816 0.00152509993754873 -0.00502092963197891 -0.00365165333806459 -0.00495119348109772 -0.00278176987495704 -0.00729154450806808 -0.00638695260259415 -0.00410440102243897 -0.000513715403684094 -0.00545293285362959 0.0034505885418702 -0.00153561111997126 -0.00233807966816433 0.00448574327504771 0.00462095212860075 0.00340052986041297 0.0029605480862998 0.00239402618649714 -0.00391946678914664 0.00414912160150465 0.000422532193552662 0.000635040360818885 -0.000485711485057948 -0.00183202464351121 -0.000282365675165674 -0.000521358651705277 0.00805586428984964 0.00284407736478107 0.00199205520842148 -0.000240582978123368 0.00234779813233695 0.00357288161866667 -0.0016665259631553 -0.000402223917543388 -0.00223986371036179 -0.00251668589423597 0.00177337628833544 -0.00348210370162866 -0.00982489835052369 -0.00657297787765464 -0.00309655739160797 0 -0.0057186838218712 -0.00209749290097615 -0.0052458528381438 -0.0031634246747666 -0.00430261365228463 -0.00650445438348533 -0.000237423109717263 -0.0100358550974472 -0.00790328270826056 -0.00749742600799733 -0.00417783387013532 -0.00249679283687336 0.00293685181917581 0.000867758572622793 -0.00391054712822239 -0.000737287057829375 -0.0112984370156926 -0.00094630108709945 0.00415698496735398 0.00758873921287546 0.00288478543263347 0.000355900317061786 0.00689040111598541 -0.00366728072639987 -0.00153554491285757 -0.00423956862027723 0.00204186331138274 -0.00382099844691864 -0.00434424084048902 -0.00558620023654858 -0.00278852741989084 -0.00709294366112563 -0.00543003062869778 -0.00489278978418606 -0.000925300778008548 -0.00348733271778078 -0.00155154622791231 -0.000757789877541879 -0.0015124497062069 0.00340450011476201 -0.010921292254298 -0.00329883222011984 -0.00406591966413354 0.00315481722059734 0.0028268615172391 0.0168944808915833 0.00288765633187979 0.00454297691789875 0.000564187690872347 -0.00324574231685012 0.000552139832148792 -0.00385689112279196 0.00262258989256997 -0.00500882478952101 0 0.00701969298750964 0.00575910960460695 0.00765872457634816 0.0044035980101397 0 0.00239194101075241 0.00204766908585302 0.000233840905482314 0.00210675025783998 -0.000616846147466272 -0.00310842466030595 0.00273953402064281 0 0.00689671838743808 0.000219666393430576 0.00359580086372544 0.0108052253895322 0.00778801151268543 0.00777679811946375 0.00618164682939298 0.00651711566919142 0.00615505815503883 0.00186748081807438 0.013717342154907 0.00373722113507639 0.00134565874758647 -0.00021041973431422 0.0114660997112731 0.00953047269716361 0.00511247794180356 0.00734165407977658 0.0059464846504695 0.00725205947445821 0.00803312039223802 0.00692236534242101 0.00505848774690535 0.00192749436522235 0.00290249343244057 0.0149844491132803 0.00616739576459481 0.00490601032170267 0.00581874602927807 0.0120192297120121 0.00900388845722087 0.017629648112696 -0.00323075099506077 -0.00155824995395209 0.00206860759641752 -0.00279656521172612 0.00185890659655764 0.00424184935485605 -0.00443044560615837 0.00524364916799704 0.00778377895467373 0.00121908674464185 0.000963132604329683 0.00176441842811872 -0.00521164895239142 0.00168205480902812 0.00646929940521459 0.00164225020894312 0.000594756301099006 -0.00636997497533356 -0.00780793034065828 -0.00563547091760534 0.00319572200248673 -0.00846125745417579 -0.00788848942561831 -0.00411002765573422 -0.0040655087971737 0.00124337543917464 -0.000392994006384661 -0.00382220294567387 -0.0060054938794944 -0.000884330874045255 -0.00416829743798557 -0.00569138564597053 0.00371320070424239 0.0052465868768316 0.00350214067802086 0.00336109272429197 0.00647693410917536 0.00200576424750827 -0.0018469611873369 0.00111237480920555 0.00310475981952116 0.00666584106687391 0.00101453021807169 0.00208543164030748 0.00285635646882667 0.00130786660390894 -0.00197519794123817 -0.00173867196826708 0.000469325008730905 -0.00108140890692242 0.000962674075888976 0.00322527070231817 0.00872380285296048 0.00412480549898817 0.000151351221250438 0.00140457760870496 0.00209234388706557 0.00172196056464661 -0.00532165176854001 -0.00828119000897387 -0.00618016780459549 -0.00680541681351014 -0.00175922759773396 -0.00546232985097709 -0.00133550629287185 -0.00494498458357163 -1.09138290884048e-05 -0.00426308450116772 -0.0121909182446845 0.000247666797258813 0.00137136121432837 -0.00262344922009062 -0.00989565213420276 -0.00631965932261592 0.000539687444215441 -0.00153193427972158 -0.00223454380809518 -0.00350328533455399 -0.001691407395648 -0.00149621844057964 -0.00323588278605115 -0.00581219045682041 -0.0105699932522209 0.000773785501717062 -0.00730415084021297 -0.00575845113181889 -0.0106325355183647 -0.00106325636030862 0.00576709843452547 0.00475209305440447 0.00378013223041154 0.00288838616852582 0.00373900926668402 -0.000544542961962638 -0.00282222457799706 0 -0.000900333763561017 0.000112657256501218 -0.00785290525750435 -0.00418819197462387 -0.00518346629616987 -0.0031219751030074 -0.0075723404053945 -0.00656864048269151 -0.00349872161217797 -0.000320505007860586 -0.00379700995127971 0.00118490885759287 0.00297540558011007 0.00570792057507065 0.0034911930659454 0.00358266696997805 -0.00222539396030347 -0.00362101572640953 -0.00438035863730179
0.00268962193174221 -0.00179016478464006 -0.00600632681329281 -0.00131746984420747 0.00128285290437351 -0.000725012911834808 -0.00245468599873652 -0.00246314747175312 1 0.000749857747616445 0.00109581696365601 0 0.00158885029905856 -0.00311264144070048 0.00042173060520347 0.00190848251533395 0.00174094221838298 0 0 -0.0054613547939938 0.000551135162197273 7.11267467880737e-05 -0.00509047924075069 0.00240309552219994 0.00119532125316707 -0.000933833810405965 0.00569275847090168 0.003012134163291 0.00194987366527443 0.00164138058253472 -0.00185440748665216 0.000813972041728079 -0.00237675288377255 -0.00619264712444786 -0.00265816492190217 0.00217738284992162 0.0040141946556519 0.00233345755917587 -0.00162494541013453 0.00353291499141831 -0.00525671349970719 0.000401677021682191 0.00165467616243346 0.000918521343636774 0.00140188569353881 -0.000112492816188798 -0.00923766488804545 -0.00469840533940029 -0.00250338874645694 -0.00279848706747038 -0.00111889002447417 -0.00304506708998522 0.000147845844206069 0.0095446797783992 0.00465215420252034 0.00411651351741728 -0.00147133272098526 0.0024624921040113 0.00313910536396031 -0.0023082330700119 0.00210174100782177 -0.00484982194486665 0.00192785948421125 0.00363201984325428 6.70376210021182e-05 -0.00218980845903069 -0.00275972459538909 -0.00396780233955757 0.00341722484019949 0.00261163608639885 -0.000748668398684707 0.00321618185361983 -0.00215085906129641 0.00526101112505195 0.000355126220421607 0.00697127330050848 0.00282928719785881 0.00150901460729982 -0.00150986213214387 -0.00290461623842064 0.00547213569481326 -0.00173792015144601 0.00100604455302042 0.00348214927127318 -0.00295331455830276 -0.000621791368848112 -0.00204149698789954 -0.00297958375201514 -0.0033228724115999 -0.000498147918410012 -0.00134959891907507 0.00196638939101239 -0.000138638605033479 0.00027291707477378 -0.00304642077028461 -0.000283828404839697 -0.000649080359723801 0.00355674625541099 -0.0016820061730723 7.37679453171658e-06 0.000823327741693521 0.00166856723978985 0.00404789920843448 0.000495176832733977 -0.00163673053032753 0.00526831404843115 0.00363878358936215 -0.00362070835914429 0.00746732491270169 0.00519457167153538 -0.000242763369550816 0.0018742369334014 0.00340931448859221 0.00246223224318059 0.00182413509658626 -0.00151548173763917 -2.49183589021769e-05 0 -0.00325296503345413 -0.00770869701705451 -0.00727666729226384 -0.00305365238097302 -0.00105318768420003 -0.00163347213686982 -0.000159959496415305 -0.0022831483799232 -0.000734927365122291 -0.00333896594186779 -0.00178577388440825 0.00370626436929946 0.0041839298891882 0.00174678503464994 0.00321858550113607 -0.0058507316910545 0.00259737900565412 -0.00175546838532512 0.00146639448545365 -0.00523942113396526 -0.0019689643115043 -0.00243699643941871 -0.000164006538142922 0.00172520530409673 0.00273749678468414 -0.00206093929529766 -0.00301553042148611 0.000546017301810291 0.00325041638346818 -0.00430028048370125 -0.000482112668967907 -0.0012376646250354 -0.00469938665663177 -0.0046137526639536 0.00619274305138024 -0.00249991610975885 0.0024030591122651 0.000147422428397726 -0.00320860254014567 0.00250734041846116 -0.00278152144546044 -0.00412542054467126 -0.00205611532146132 -0.000965887729778206 -0.00353143052717067 0.00153915680956553 0.00282491147978862 0.00180809637556984 0.00430810100952051 -0.00241084400533527 -0.00419270100078317 0.00190476731837601 0.00498573878056724 -0.0038808968774858 0 0.00314809789010165 -0.000162704556791466 -0.00114685252049399 -0.00253021959985632 0 0.00190379390807533 0.00246839160996447 -0.000815746178351681 0.00957948816078064 -0.00413549344389333 -0.00383402974230966 0.00463872444977999 0 0.00347730667993598 0.00774292935508631 -0.000967685355191498 -0.00139596304127138 -0.00144447720404355 -0.00111345931464574 -0.00407814517040596 -0.000608724310789872 0.00170191718648601 -0.000144565496039437 -0.00215821809973397 0.00161243626020029 0.00263744702683759 0.000741947033947518 -0.000195837967191172 -0.000566652754703435 -0.00441493448330278 -0.00167768292091406 0.00294880972482063 -0.00154033020282534 -0.00247996369911179 -0.00465436651344836 -0.00124560384453654 0.00212726714112929 0.00243028580179499 0.00361631384190452 0.000865551579384414 7.68193028600381e-05 -0.00268905592182768 0.00149839681856069 -0.000815671437498288 -0.000655424874363513 0.000480107124231495 -0.000510330771825226 0.00174913311433006 0.00423875024653078 0.00689859221304474 0.00133936454111479 -0.0035040316298247 0.00077489926070925 -0.000133373067574112 -0.00127167340924565 -0.00140590780203809 0.00534633635801702 -0.00312261096018647 0.00240985509404724 -0.000291162791652055 0.000637033900822198 0.00326354681768712 0.00131866536493751 -0.000108113013404768 0.00317715759869202 0.00273406785270232 -0.00166117963425953 0.00122206667120692 -0.00161595228709611 -0.00192868347487634 0.00251945267032166 0.00119351921351985 0.000801381860859426 -0.00556731540494304 -0.00103536384555453 -0.00380223771481404 -0.00133806901933573 0.000801353016858412 -4.30967831004736e-05 0.00244812452207966 0.000356569714498559 -0.000745936732513036 0.00621719460479674 0.00232154237605145 0.00152769779410821 0.0013488663956734 0.00236348585517845 0.00119897348768945 0.00435139526646544 0.000859249655810826 -0.00462881234324094 -0.00136168791547523 0.00189846822986556 0.00335744372171882 0.00235680715615801 -0.000370369479876474 -0.00217588336918656 0.00141459779308595 0.00238814561097977 0.000632860284429805 0.0031774260501982 0.00944571910072103 0.00315600420828987 -0.00132013469445112 -0.00765226840948308 0.00205675140704486 0.00332231093516495 -0.00626092616694774 0.000145512998065165 -0.00531087798275595 0.000448479917323767 0.00309239624075291 -0.00362626645617535 -0.000926009065220789 -0.00302376653087786 0.00116352991725121 -0.00856833034472422 5.34045564148084e-05 -0.00414768818283241 -0.00327417719766441 0.00186930998046094 0.00387349731500287 0.00164073227431078 0.00150075720412864 0.000468766067755709 -0.00114409635662784 0.00163106130379795 -2.2194168654106e-05 0.00207295928504045 -0.00209686237575716 0.0044200296620374 -0.00455207062716829 -0.000610994124679812 -0.00167088899929713 -0.00207384515019959 -0.000833147056804677 0.00224470269964021 -0.00332841007743887 -0.00157064439672648 0.00205121347811701 0 -0.00708019434189576 -0.0048689596989142 -0.00387269830745257 0.00216267912940756 -0.00718340083657119 -0.00396529687913388 -0.00291807689005373 -0.00295082318034975 -0.00273110305685885 -0.0034323151297916 -0.00305808740323795 0.00553038103651875 0.000871825670361411 0.00368608548233066 -4.4865551001561e-05 0.00471914916651003 -0.00223930871300812 -0.00809454392471075 -0.00408390985225853
-0.00160031998716875 0.00483638606296557 -0.0056782209750333 0.0006308951892754 -0.00101060730505078 -0.00323795088582911 -0.00201452070561666 0.000164039997025251 0.000749857747616445 1 7.23609135939259e-05 0 0.00360454092715399 0.00279860283990383 -0.000107957597907416 0.00177256990848977 0.00245503683251584 0 0 0.00667216300281672 0.00258508872406 -0.000638815739400738 -0.00167104180591293 -0.00103398993028656 0.000467931106683697 0.000152886592772498 -0.00400835817045549 -0.00347518340061133 0.000701490783596789 0.00897727497397314 0.00428733242749445 0.000957829936710371 0.00484678532661741 -0.0036642617633519 0.00299438965875191 0.000970336142648051 0.00107636963265529 -0.00337618541070539 -0.00672547676913369 -0.00989124091704278 -0.00533333524458642 -0.00314253316247723 -0.000508579894916108 -0.00165142883920093 -0.00583728962353025 0.00142106139888679 -0.000267981095538236 0.0077128146722889 0.00258480213655374 0.00274888101462031 -0.00391145971283751 -0.00292345521098719 -0.0061632563603829 -0.00606113155663058 -0.00434899057072805 -0.00359513807649022 -0.00213508474738437 -0.00543301089731101 -0.00331536720957035 0.00202322787020291 0.00177510721739521 -0.00151985014531307 -0.000852686399338419 8.99796690273674e-06 -0.00130268370830678 0.00398275852037763 0.00473030795300847 -0.000276338002873083 0.00140211937101533 0.00436977758775116 -5.28648497652765e-05 -0.00112708584583262 -0.000358899776615458 -0.0026154407670277 -0.00359876094158859 -0.0103087965707752 -0.000568727799969626 -0.00142183778776426 -0.00480552647346103 -0.00263827508496667 -0.00450101954357888 0.00455610833038275 -0.00298984456065564 -0.00564490447037801 -0.00158168829104863 -0.00678687787553649 -0.000897060883245463 -0.000393755529423323 0.000667444499045351 0.0034726645325922 0.000502634082590227 0.0011698386178597 -0.00297590963133617 -0.000625481706406798 0.0029796705866757 -0.00253696572604176 -0.00177520776101798 -0.000909576113412361 0.0037097146193141 0.000469350150056556 -0.00317307071306495 -0.00154221409655358 0.00141914217312715 0.000565506490650921 -3.90330963024287e-05 -0.00609653572477987 -0.0059015644489875 -0.00771667984163273 -0.0054249394168158 -0.00538051530929193 -0.00734167019993473 -0.00477385127201612 -0.00656221821430206 0.00173059747130314 -0.000642791918020174 0.00452601234580943 -0.00418879847401447 0 -0.00535682150005613 -0.00689235906363956 -0.00436925092970037 -0.00122537010913125 -0.00446579872288867 0.0016327887559744 0.00287844945495814 -0.00444388319917191 -0.00505732747708594 -0.00267354882464982 -0.00372149692482127 0.00225338420867108 -0.00150698194619634 -0.00268489857629861 -0.000536010370855043 -0.00085507168443359 0.00200958746755132 -0.00175813939682002 -0.000323002325271057 -0.000493893127347946 -0.00134382459645529 -2.90532426317957e-05 -0.00338607088005335 0.00229726278547531 -0.0017315272338053 -0.00391178359499929 0.00437366564475532 -0.000708868512187864 -0.00496840557067922 0.00203890456128811 -0.000389491586485359 0.00327650975764872 0.000896267717390358 -0.000520759336281303 -0.00293808385824196 -0.00433125590453288 -0.00356759242774434 -0.00453332125848338 -0.00348874498056992 -0.00812824657203824 -0.00346229717684135 -0.000809488853326408 0.0009278275700644 0.00449173676646937 0.000671090239053877 -0.001448371017289 -6.76967790952159e-05 -0.00240037434455857 0.00334437491313972 0.00202325107018767 0.000887675068103429 0.00294077929470917 0.00203363139235504 0.0107088608569485 0 0.00512434101600702 0.00333400975102713 -0.0016559988395035 0.000361486725845698 0 -0.0014327229373952 0.00391773757914004 -0.0016463492306775 0.000330714603324004 0.00156678781231999 -0.0025111866267976 -0.000688858049257696 0 -0.00289930826388581 -0.000289231799559935 -0.000721311042339733 0.00153992064351274 -0.00133547956495227 -0.0040636024697367 0.00315075628246318 0.000279733932094393 -0.000487882367643361 -0.00559158154035257 -0.00165798022001623 -0.00201457799694817 -0.00156738507359239 0.00428494953268455 -0.00158355780345572 0.00171810838314183 -0.0022272442168332 4.99275112472949e-05 -0.00213429837137058 -3.84162971432046e-05 0.000438054704131104 -0.00194291307759728 0.00599598903036142 0.00405019674583935 0.00383894058102678 -0.00524817758318179 0.00385464440045609 0.00428398863338052 0.00436924132438925 0.00102667934905079 -0.00317380162251838 -0.000763495470999068 -0.00349864205318408 -0.00263763689930631 0.00526764264949592 0.000184114482435513 -0.000320002153678221 0.00338534194744697 -0.000902122712787137 -0.0013164104749299 0.00290559719528126 -0.00298195899279242 0.0029107107821328 -0.0020240759382299 -0.00275586561454664 -0.0021856492846652 0.00306536138411736 0.00109665722135455 0.00216445491207755 0.00168022893032671 -0.00644400800695532 -0.00703064070003467 -0.00404551478660782 0.0048310363573309 0.00355536012160834 0.00397489210113918 0.00114937164165825 0.00092110036141418 -0.00147878053212223 -0.00201010629530267 -0.00348958813657334 0.000810016627670577 -0.0014455997653527 0.00740112170699933 -0.0033985846209141 0.00192631352475641 0.00240907835474063 0.00487782052402469 0.000935770626079442 -0.00102387241848322 -0.00062615927654936 -5.14623592202155e-05 0.00209701705774615 -0.000155130383717191 0.000259107615300778 0.00109104434787092 0.000496543216567099 0.00260187846539327 0.00604522462180016 0.00249245142370547 0.00296520980509283 -0.000544356688415741 -0.00287609073939553 -0.000458647514826776 -0.00322081635634309 0.00187593992326129 0.00020927098755735 -0.00457384789737287 -0.00602740353052239 -0.00154434986605287 0.00500311484717435 0.00631290683910693 0.00236242668720496 3.3045555586794e-05 0.000545842821523354 0.00103457371163057 0.00246554453724726 0.00314829117099176 -0.00143095518631729 -0.00100405098768864 -0.00078057881118744 4.03012052091669e-05 0.00135975864620887 0.00810268773434543 -0.00206090567703296 0.0046270268832859 0.00042355872585604 0.00426794648320411 0.00297116433325926 0.000626700947795552 0.00594032596428076 1.96460822723314e-05 0.0009705820537047 0.00205471932682166 0.00220993622918091 0.000990311997986875 0.00154860555439193 0.000730644711903452 -0.00230356983323996 0.00427517075020645 0.000244831655877511 0.002306237531718 -0.00419001428284265 -0.000442541880893559 0.000859019232852719 -0.000733572938961635 0.00173557293253954 0 0.00397685010323595 0.00714017617417599 0.00255514221880201 0.00221486002888821 0.00528140911016049 0.0013407982779833 0.00331019909325245 -2.40464533492163e-05 -0.00100049106904725 0.00295354156347223 0.00160295314186719 -0.000716726217706094 0.00503750429149128 -0.0036730132898937 0.00327737193194887 0.00263588885871161 0.00393118256813904 4.95224612967057e-05 0.00106152493276233
-0.00121359129406936 -0.00161523158500182 0.00560534158498484 -0.00134669531847429 0.0048406037910832 -0.00164202149455942 -0.00183076764519546 -0.00413707934100764 0.00109581696365601 7.23609135939259e-05 1 0 -0.00466016507916586 -0.00623666795680772 9.94271229623596e-05 0.00581962440505367 0.00145570890805117 0 0 -0.00494370730124815 0.000266089867968629 3.85645678017156e-05 0.00289625647508581 0.00350760299666007 -3.82549617370943e-05 -0.00493938874210587 0.00247870950398235 0.00161845372934017 0.00374068383128077 0.00242174419562617 0.00107180634082503 -0.00114266548270718 -0.000385145475280131 0.00248478772376709 -0.00348507716631469 0.00209871625871352 -0.000823754358090241 -0.000357648223521662 0.000985968114131758 0.00118529212051578 -0.000969766192722422 0.000688734356196739 -0.00566576202518138 0.00265726022412085 7.64228714972241e-05 -0.00149731438033437 0.000237442062722116 0.00355258767478689 -0.000993355034164265 -0.0022280929904078 -0.000328446723325255 -0.000307730156310637 0.00292430464882964 -0.00202799918015528 0.00147240914162516 -0.00106355512628539 -0.00563036782946457 -0.00448342386439999 -0.00383751850721493 -0.00272418524879055 0.00246455370294811 -0.00343989187905234 -0.00201956965094092 -0.00288876832420145 0.000363904517939187 0.000613737758964582 -0.00350880769265111 0.00298441761530024 -0.00252827244826644 0.00121950096506526 -0.000243468634360595 0.00287538339516039 0.00383485179403226 0.0030617105333748 0.000558925216574212 0.00193083142622785 0.00298127189446115 0.005144914757991 -0.000479311309586218 0.0024054574872537 -0.00130602310144777 0.00637639536694136 -0.000306309649578529 0.00426878942100884 -0.00407178656198545 0.00439016621234622 -0.000326909619974772 -0.00123856126926823 -0.0025551099636772 -0.00425794020545359 -0.00144274889572845 0.0036367801344986 0.000851436702635246 0.00505021738666488 -0.00088787199430621 0.000374605687986153 0.000113648330162045 -0.00268009939217272 -0.00129163889741133 -0.00189094960689927 0.00664900847195704 0.00309864437143112 -0.00344224613081349 0.00011518887355029 -0.00638868579226683 0.00695796863733352 0.00309198510172555 0.000494503553393229 0.00889180439139489 0.00151363285143962 -0.00113414870458447 0.00179699744135465 0.00208800645896295 0.00564749831604387 0.00291342542815384 0.00308721293562113 0.0017077044457541 0 -0.00804662682109602 -0.00399379733170459 -0.00220054485151667 -0.00172754232700062 0.00627565522839017 -0.00448666994575526 0.00736329449426333 -0.00319593769403643 -0.00334101371709707 -9.34909698312489e-05 0.00512910696259792 -0.00128104738568792 -0.00144632786559933 -0.000471048680623752 -0.00328344725339363 -0.00197031933192777 0.00544111430100274 -0.00184482088788546 0.00237842571001314 -0.00295386263071037 0.00379272072159393 0.00184140863823755 0.00110599494781141 0.0045908338626894 -0.00362725267214846 -0.00316672640412927 0.00250183614722035 -0.00113767292521082 -0.00123359961482638 0.000167812008306954 0.00380060037758711 0.000216827053523127 0.00226908470574496 0.00203172216556442 0.00176506444075425 0.00325694751079347 0.00423843884781521 -7.84994131919194e-06 0.00347021681048499 0.000983397929279658 0.00357061379735977 -0.00130342728370483 0.000729581027451335 -0.00401163271992699 -0.00417176898841304 -0.00163020003952272 0.000500907664961559 0.00396841471024098 0.00179430783324646 0.00407315425590099 -0.00656414931043646 -0.00267643356085383 0.00228866149238196 0.00604887804178753 0 -0.00441511335308364 -0.00160443805507052 -0.00656479116483075 -0.00471433435597497 0 -0.00407839645145427 -0.00301858714967283 0.00158524359109854 -0.000911699945049818 9.07103546302124e-05 0.000365465049399004 -0.00137960762810173 0 -0.000636900056554563 -0.0021638307803405 -0.0029103752963756 0.000368608491822033 -0.00616041362607916 0.00239461024624684 -0.00744980825956177 -0.00333253295890022 0.00211650511808565 0.00117112187615269 0.000683424394249674 0.00146227878678819 -0.00451670102819974 -0.00045478503068161 0.00178232181824813 -0.00183435111865044 0.00047645088353865 -0.00105193430782848 0.00105097025137717 -0.00331032319842855 -0.00339779326593755 -0.00692114783809283 -0.00701623939536482 -0.00282757996019706 0.00432598948171563 0.00127765099401051 -0.00442917079198564 -0.00573715557488655 -0.00820185481365146 -0.00123905364527483 -0.00883164900843944 -0.00497680251245608 -0.00664646373241739 -0.00214757592013118 -0.00261398744975245 -0.00159046813364998 -0.0026256301847225 0.00098792947258806 -0.00484351912670146 -0.00638122741280176 0.00210261879755011 -0.00435177175458347 -0.00767295264462444 -0.00288660773641648 -0.000976723368951142 -0.00380695455795908 -0.00136245794421512 0.00179990685385971 0.00215862764481898 0.00418176672621283 0.00378166834474852 0.00484530865918687 0.00266236321916829 0.00407617791080765 0.000930564051162147 -0.000211017759146052 -0.00142582880974189 0.0031530023408714 0.00482429791960552 -0.00369169719940543 0.002205268066205 0.00429655765072657 0.0032935265348816 0.00151253998489447 0.00144963825737191 -0.00265729631798435 -0.00161980681404228 -0.0078896241096617 -0.00553765888598013 -0.00675035204151525 -0.00542114837416644 -0.000622557662474929 0.00110656562110283 -0.0024326446242128 -0.00395715712444613 -0.00609418683094436 0.00189813613344802 -0.00462163619433402 -0.00777887591930456 -0.00261876106435019 -0.0021940064721734 0.00307322333963423 0.00640039335338824 -0.00266125135933524 -0.00263779249951221 -0.00312236357783425 -0.00136798755411369 0.00551553944228329 0.00380935570577926 0.00270161834750009 0.00326622639239029 -0.00133924423518504 0.00380522884910759 0.00578770564604444 -0.00235414203116375 0.00208896420207233 -0.00314473744240109 -0.000527743283512564 0.000706776866171139 0.00443602186134596 0.000201758442645766 0.00497802601239419 -0.000783351782674622 -0.00192961577106842 0.00157692898866628 0.0122760245822656 -0.00722437002689537 -0.0049696852656318 -0.000379472574133671 -0.000584376622355322 0.0144983113297434 -0.00261412966281908 -0.00351314344235314 0.0129354134507946 0.00812866484870012 -0.00294486092360423 0.0106064205258767 0.00429014067053776 0.00546006420231934 -0.00154429322693492 0.00105542146599965 -0.00215168731436987 0.000804081269019795 -0.00463280951247385 -0.00498198866767569 -7.24766879176242e-05 -0.00408923245271281 0 0.000352659025864856 0.00317261598009464 0.000877684980783723 -0.003713108185692 -0.00550860813465612 0.00524207218627253 0.00534807545293336 0.00075378242861427 -0.00419567806660826 0.00771686653572568 -0.00295195511302782 -0.00339284198043078 0.00214115264430269 0.00610201260664593 0.00581292963284486 0.0049089328600434 -0.00107573225995203 -0.000593301538741673 -0.00118333409440629
0 0 0 0 0 0 0 0 0 0 0 1 0 0 0 0 0 0 0 0 0 0 0 0 0 0 0 0 0 0 0 0 0 0 0 0 0 0 0 0 0 0 0 0 0 0 0 0 0 0 0 0 0 0 0 0 0 0 0 0 0 0 0 0 0 0 0 0 0 0 0 0 0 0 0 0 0 0 0 0 0 0 0 0 0 0 0 0 0 0 0 0 0 0 0 0 0 0 0 0 0 0 0 0 0 0 0 0 0 0 0 0 0 0 0 0 0 0 0 0 0 0 0 0 0 0 0 0 0 0 0 0 0 0 0 0 0 0 0 0 0 0 0 0 0 0 0 0 0 0 0 0 0 0 0 0 0 0 0 0 0 0 0 0 0 0 0 0 0 0 0 0 0 0 0 0 0 0 0 0 0 0 0 0 0 0 0 0 0 0 0 0 0 0 0 0 0 0 0 0 0 0 0 0 0 0 0 0 0 0 0 0 0 0 0 0 0 0 0 0 0 0 0 0 0 0 0 0 0 0 0 0 0 0 0 0 0 0 0 0 0 0 0 0 0 0 0 0 0 0 0 0 0 0 0 0 0 0 0 0 0 0 0 0 0 0 0 0 0 0 0 0 0 0 0 0 0 0 0 0 0 0 0 0 0 0 0 0 0 0 0 0 0 0 0 0 0 0 0 0 0 0 0 0 0 0 0 0 0 0 0 0 0 0 0 0 0 0 0 0 0 0 0 0 0 0 0 0 0 0 0 0 0
-0.00578561997051396 0.00400630220401502 0.00948254802070441 -0.000716579543245883 -0.00554689401149945 -0.00506098838436244 -0.0083968285343818 0.00354202068430763 0.00158885029905856 0.00360454092715399 -0.00466016507916586 0 1 0.00237550153191386 -0.00325162786766345 -0.00251741928753045 -2.43297440956248e-06 0 0 0.00373938485504161 0.000478742041459395 -0.00067029995736622 0.000610887499615162 -0.00197731484089267 -0.00189457082043861 -0.00561121319041714 -0.00231622249873976 -0.00700057712787903 -0.00477427081196444 -0.00553088404041436 0.00903606699828693 0.00327997620509361 0.00364933648178667 0.000274207975235848 0.00219734695321317 -0.00121873454443828 0.000948122081547674 0.00544018245753721 0.00577379165694778 -0.00567274551070802 0.00128611630258511 0.00124035926766074 0.00337837145785578 0.000525464279851447 0.00471502998073987 0.00121414320131277 0.00524374440096059 0.0033244089781021 0.0020088130492108 0.00157270456390835 -0.000670674187554931 -0.000110958468460646 0.00593106242254187 0.00383374903690906 -0.00305867723078672 -0.00425333536720274 0.0010696271188697 0.00303961290968839 0.00831969610378615 -0.000522812345403363 -0.00214246549375751 -0.00192578993719622 -0.00288152290027478 0.00244340095906766 0.00492512035751815 -0.00337054032046249 -0.00245423216608646 0.00184771837426303 0.00358244875220037 0.00260309472018936 0.00726243519144595 0.00213444105902583 -0.00190121909569076 -0.00638225806557304 -0.0115015845984346 0.000351635236134392 0.00185660850761867 -0.00602104962453427 -0.00639861418680599 -0.00429395624889039 -0.00619509355243991 0.0013690171943381 -0.0044573393132302 -0.00882267534139653 -0.00117939781633392 -0.0074833130457976 -0.000944511161549802 -0.00460648910015334 -0.00032316474214939 -0.00369113061200188 -0.00490022385024598 -0.00533116633569117 -0.0039547345919749 -0.000361124115719444 -0.00418970565533808 0.00351254676946727 8.14266313714542e-06 -0.00213885672327206 0.00335779182393617 -0.00227372919495216 -0.00237731327483136 -0.000547941697728127 0.0022537838065445 -0.00243631440617736 0.00207111995957142 -0.00160001344035936 -0.00596799992982433 -0.00570120411260114 -0.00757048081726247 2.17884422523034e-05 0.00466336332441164 -0.00807888316113974 -0.00128388371238046 -0.00832091887653348 -0.007342760676582 -0.00814354080178611 -0.00722683259780329 0 -0.002602781554107 0.0015825706959777 -0.00074554221539083 -0.00529995816169518 -0.00893546879540881 -0.00513464211263669 -0.00640804629352779 -0.00271864149542976 0.00285868839971662 0.00191123405489946 -0.000981109899226864 0.00788833675646979 -0.000166562125497063 0.00305890536311126 -0.00407239325272706 -0.00321190132568212 -0.00304586234214488 0.00327519513745982 -0.00140423777960679 0.00778702338593793 -0.000917969607494983 0.00162859055511079 0.0039286498809853 4.29507536405469e-05 -0.00134155706381781 -0.000165968823020236 -0.00222794106448845 -0.00653627967638248 -0.000869251988519324 -0.00209078926089088 -0.00134256099061821 -0.00313008385447785 -0.00471066405453958 -0.00273398776645249 -0.00279584309025813 -0.00419127823448659 -0.00520858451450392 6.74245897851531e-05 -0.00228909695161723 -0.00483280375910158 -0.00834801488795604 0.00114638564140274 -6.56273151094763e-05 0.00128473690170363 0.00407028971168044 0.00875508384717005 -0.000464908539806263 -0.00460795317233534 -0.00267984404394001 -0.00455174678422159 0.00211288890456285 -0.00171512041687167 0.00139709489901133 0.00288812648400007 0 0.00689396210257569 -0.000926058110544353 0.0069922899680894 0.00220870144399813 0 0.00259755534080316 -0.00124602701215143 0.000903174148666195 -0.00141702603337317 0.0013622993978225 -0.00221591136335478 -0.00466402859601111 0 0.00229079999359072 0.00192303713636787 0.00225245468782664 0.00558636948883212 0.00480730620124053 0.000666552933144759 0.00119764720507425 0.00597832903425878 0.0037800017079916 0.00146518703168541 0.0106756488794529 -0.000236734666071364 0.00764647629338223 0.00152010103805253 0.00522064942741048 0.00757227581989223 0.00263397752093676 0.00601298102116494 0.00402145169393785 0.00721307283091893 0.00433933256548729 0.00445489883247412 0.00594352664568762 0.00289858329544603 -0.00358340124641007 0.00647771348874174 0.00545418022133705 0.00413745577262751 0.00913097166360942 0.0100533610128101 0.0116278203301277 0.012627581418851 0.00132995973471587 0.000395843680071845 0.00617093248889001 0.00741887951336318 0.00206814436720478 0.000400844774017709 0.00341107952024545 0.00435955550354935 0.00505987121952392 0.0051587397519009 0.00489950701470165 0.0056849635700727 0.00187476208496779 -0.000419677394317131 0.00401146622088518 0.000305032664013418 0.000948487591222104 -0.0056818429105645 -0.00471968454846637 -0.00236679747661715 -0.00141449819346938 0.00126943795651681 -0.00128730392087263 0.000587586570338632 -0.0039120163977589 0.00123509809051591 -0.00308475991149128 -0.000475637894335277 -0.000910023055597701 -0.00327417365804474 -0.0027344055775621 -0.00306325817887604 0.00251302973456143 -0.00183481570024611 -0.00608267333043699 -0.00135581436794452 -0.00190439944441155 -0.00786046431698874 -0.00186751141037276 -0.00047578805098463 -5.71675199931253e-05 -0.00236534444148629 -0.00563032454379103 -0.00126751065615847 -0.00329829012415679 0.00343042913904052 0.00245515565812454 -0.00252029702981052 0.000712904075737569 -0.000731387440379039 0.000675426653539427 0.00342067340795252 0.00589851147322421 0.00637995050947008 -0.00229420815324977 0.00047385492205004 -0.000210154677566991 -4.66423827560513e-05 -0.00541750547112829 -0.000736278747152621 -0.00551295402275951 -0.00813047871944975 0.000797156126956186 -0.00424778099231601 0.000467263631514031 -0.00477340382960051 -0.000133457412852697 -0.00147854001980808 -0.00318264541253078 -0.00472781432139992 0.000390171332718029 0.00258657300115928 -0.00680303225248423 0.00142862985969074 0.00439872723161304 0.00322170380735301 0.00171578309895368 -0.00476337566062483 -0.00167756646838402 0.00572168975765034 -0.0015694760685476 -0.00305547785750935 0.000231233136299558 0.000503755699324761 -0.0037530510102798 0.000272565881381387 -0.000235783508421243 -0.0026849514367082 -0.0066325794302055 -0.00143183707293368 0.00165883020077661 -0.00287422218317928 0.0012393370898758 -0.00261598548409002 0.000729405391174307 0 0.000135488178804377 0.000841190010798692 -0.00200136540710761 0.000727023126491495 -0.0019263394004549 -6.40896731885619e-05 -0.000733123465626695 -0.00541234598858395 0.00195215156954863 0.00424265570658333 0.000281127436530709 0.00387212425285514 0.00597522525924427 -0.000101432227087187 0.00203853084954671 0.00507286026373746 -0.00159353747581348 0.00206948875644722 0.00782271104227526
-0.00526323183623396 0.0068696169218004 0.00580474847382744 0.00957072090588473 -0.000317092457023446 -0.00673311336214291 -0.000257074047073846 0.00488090582311827 -0.00311264144070048 0.00279860283990383 -0.00623666795680772 0 0.00237550153191386 1 -0.0048187952414894 -0.00389547837116117 -0.00434042549966013 0 0 0.00228456795671221 0.000859658796181917 -0.0045063392597707 0.00175465986372298 0.00245290533573503 -9.37258410012622e-05 -0.00144369817901192 -0.00773101870031296 -0.00125727813442145 0.00214021555111689 -0.00215201801325901 0.00747595909148706 0.00334539225156242 0.00641766909992298 -0.00358834695928338 0.00361444746351842 0.00319805033270689 0.00478679342030513 0.0079431313444967 0.00205120902757643 -0.0044188913265959 -0.00071485341845148 0.000419472216061254 0.00537660609597579 0.00311454266144077 -0.00145171234558088 0.00678447029084566 0.00267070318708965 0.00584164980376362 0.00515980224299546 0.00336062685846489 -0.00300154644856287 0.000722229958455152 0.00268583920443875 -0.00252008734081574 -0.000968752141419863 -0.00703511542652764 0.00283593550178678 -0.00370317999403109 0.00667177566245313 -0.00235755010491598 -0.00980412235913346 -0.00434056057246573 -0.00134760577071919 0.00341459220078186 0.00922655424029817 0.000448629057696341 0.000388835829731277 -0.00292269467292032 0.00822059703586364 0.00727676258247249 0.00126092516379655 0.000815200797675157 -0.00574937417653712 -0.0105809193813161 -0.0129923201496033 -0.00274457894278117 0.00417231719272802 -0.0116540292141739 -0.00350194547687658 -0.00641873102136703 -0.00217472969233406 0.00540053356870387 -0.00721023857699799 -0.0107999876013784 -0.0052499390044764 -0.0131105170245791 -0.000862059808796907 -0.00316381933096795 -0.00193873324044521 0.000467924244373043 -0.00284287251845657 -0.00445165386329129 -0.00465988434847801 0.00071771506980998 -0.00200990307666099 0.00360237068382081 0.00169164165164638 0.00049903814546003 0.00321488083104135 -0.00159628348687946 -0.000906403247975137 -0.00096347722403436 0.00823752469846551 0.00128300307138655 0.0049856256777246 -0.00305538676028081 0.0027440934604857 -0.000193521990794234 -0.00813909702010002 -0.00643536496413828 -0.000826969448906315 -0.00909667821805832 -0.00129236230060042 -0.00654211419671869 -0.0101002224224313 -0.00707402647136903 -0.00316601402018864 0 -0.00814634525352097 -0.000359926915718934 -0.00152497702609709 -0.00068878153462945 -0.0120037829277891 -0.0074249206063647 -0.00657601889508604 -0.00869838887627144 -0.00613424245274193 -0.00535282308357177 -0.00772313657057843 0.00277134004401409 0.00413814152573572 0.00568594705434252 -0.00604670055064282 -0.00357757082585767 -0.00728711218479538 -0.00416977418068489 -0.00342059844676851 0.00272684554531679 0.00326006003632726 0.000766455274097092 0.0105973480829381 -0.00844315181008999 0.00153140079489959 -0.00578375734470508 0.000125880332561049 -0.00422424684656164 -0.00336882466555397 -0.00125012381989262 -0.00477859519218428 -0.00204131475407277 -0.0021304245527936 0.0023088846137496 -0.00398561651008664 -0.000614644301518767 -0.00338408230658104 0.00130639800856698 0.00133524298390738 -0.00344393429118507 -0.00970622584158609 0.00307220363523649 -0.00644857594479488 0.00378883076904823 0.00650738338916981 0.0116035739439684 0.00429075183214632 0.000813737204001263 -0.00117117525614171 -0.00447414881132856 0.00615840366538112 -0.00313103039472754 -0.00295568525267908 0.00123801389407299 0 0.00418314051323195 0.000833487005564965 0.00452056304199496 0.0078465121141556 0 0.003133429710317 0.00249797034809656 -0.00380760389626591 0.00200168951111293 0.00448453593039471 -0.00166581267475583 -0.00381054428328749 0 0.00240188590132015 -0.000959472057852824 0.00431631153089681 0.0119723126689346 0.00734694059858017 -0.0014321424967489 0.00740167952322846 0.00755237167808115 0.00427436365157453 -0.0026541573439282 0.00966508573647903 -0.00331329804302688 0.00124856232767345 0.0079900522233256 0.00952943515618207 0.00712965445217273 0.00409991493517155 0.00389170806788095 0.00416702948971293 0.00589168606564621 0.00636682916559647 0.00624996352690946 0.00986011767111161 0.00478072349929769 0.0051623109533453 0.0110201304099749 0.00924127830923411 0.00978045058472279 0.00781382488186494 0.0128921578821169 0.0063052326545066 0.0141749539547232 0.00476494528000079 0.00137970872621638 0.000892649650618095 -0.0019337712007751 -0.00241927927996507 0.00197780168047031 0.00180413304534089 0.00744422343375475 0.00184687836975866 -0.00123796690087148 0.00610663745531197 -0.00314322561311396 -0.00336125420006812 -0.00727505111261073 0.00106176987503529 0.00200819322377812 0.00330870251563425 -0.00651097014288639 -0.00787368971342229 -0.00713440530345011 0.000910967411967806 -0.00473358765458964 -0.00542530538671389 -0.00245042777838664 -0.00206246905353602 0.00148480135846402 -0.00282341384936559 -0.0042370954911932 0.00191522023415964 -0.00490564762327669 -0.00239912254913722 -0.00196316736673014 0.00292197774407612 0.00721801557600769 0.00375158636467494 0.000576634011141843 0.00408099154117479 -0.00413432231457144 -0.000918877452428936 0.00354274877116668 0.00778750913986011 0.00708809836981221 0.0037620916219949 0.000282435630329099 -0.00177093273368018 0.00754175864724956 0.00269800635825156 0.00121758282315998 -0.00111999310262138 -0.00630988879833111 0.00330684117949958 0.00813208059986455 0.00168267896264169 0.00658133455257976 -0.00400560332975037 0.000638504633076782 -0.00393523935360374 0.000787436221264085 -0.00345920651635964 -0.00280166277504993 -0.0066196322152377 -0.0150729351153655 0.00900407659411427 -0.000773295969861039 0.00141454862937948 -0.00811039870434622 -0.00532568942097914 -0.00652141267073325 -0.014626855928393 0.000867281024968244 0.00292480320725785 0.0118820171655897 -0.00391093382549267 0.00311027315925545 0.00522673901686296 0.00650112788551209 0.000164426759095733 -0.00359258050715525 -0.00710691193014096 0.00229777190841537 -0.00358771606888852 -0.00478609340312934 -0.00434514167687546 -0.00245040347090021 -0.00271532217817896 -0.00619085587861916 -0.0074846837589265 0.000501642448663918 0.00141110322847961 0.00458863850742873 0.00334013975828774 -0.0021212274927061 0.0028147954222528 -0.00174392396658691 0.00586941101028889 0 0.00797830499738942 0.00179335065195071 -0.000603798480459038 -0.00366699421945902 0.000297798392184489 0.00225861207969242 -0.000762725194034682 -0.00627741499371299 -7.77544892772153e-05 0.00449627714790157 0.00123626448738735 -0.00279033452395562 0.00940566543443508 0.00645611993445474 0.00706474662557093 0.00181159145587486 0.00106165282928275 0.00602760389989607 0.00222192433055244
-0.000546469630471333 0.00523699417061596 0.00776541333056808 0.00104990943630506 0.00948212149914203 -0.00420959316254459 -0.00819517605763221 0.00425015907140161 0.00042173060520347 -0.000107957597907416 9.94271229623596e-05 0 -0.00325162786766345 -0.0048187952414894 1 -0.00131698847716697 0.0013712321109634 0 0 -0.000136049355334969 0.00265149760570719 0.00177658278874581 0.000652544790779698 0.00191228818169336 0.00150107823610071 -0.000984704636114761 0.00183961081391449 -0.0026309985004745 -0.00254949199341021 0.00606917787435383 0.00568756280012438 0.006996489234461 0.00222372041144717 0.00238112600524002 0.00315984520842683 0.00509106323028861 0.00965338507010649 0.0135733215959059 0.00574797359116579 0.00347544487865216 -0.00237118658259132 -0.000670293175588835 -0.00135492097292968 0.00150209228405284 0.0101379206418262 0.00781601095006112 0.00338158699187814 0.00168357240458285 -0.000882620051857039 0.00320760000420247 -0.00184754549685705 -0.00631847144117813 0.0132594004895153 0.00575084582012505 -0.00429164892296634 0.0015294139488984 0.00465214329132255 0.00156937477621422 0.0078422178700482 -0.00111613945232815 -0.00213112891269804 -0.00736020925041273 -0.00212564458889739 0.00140851577076242 0.00458286809751051 -0.00353453206515498 -0.00171157454136017 -0.0049691947744845 0.00352411060620849 -0.000957775788942617 -0.00473473788372464 0.000699702289272299 0.00361830456826628 -0.00587262703133348 -0.00440721834387103 0.00321413441913282 0.000582625798935083 -0.00886587095360309 -0.00770728582614268 -0.000953299008010576 -0.00082007446502651 -0.00665603432115179 -0.00212555923713834 -0.0036877637681226 -0.00513198267672841 -0.00479136966244305 -0.000526461654637154 0.00331863815808799 -0.00108173719594428 0.00147691030675332 0.00698132382235304 0.00844267587901917 0.00368245211693259 0.00364088890254654 -0.00235066474307031 0.000508479523086442 0.000602592846198395 0.00186508459307029 0.00180804920109504 -0.00250532587830017 0.00200321838278278 0.00226724270389328 0.00898656402091153 0.00404436487481804 0.00217089802217635 0.000909373930182806 -0.00484670680169569 0.00330249599619965 0.00407520256063837 0.00568888342790954 0.00184503124123483 -0.00203409655265179 0.000225691461266717 -0.00561747846059626 -0.00799510370260352 -0.00643025561440577 -0.00539224445183084 0 -0.00981048709820275 -0.0100281055886526 -0.00142454711941355 0.000723388478266341 -0.00155264272329502 -0.00140671815412182 -0.00512782905893634 -0.00675345536141937 -0.00483409471539361 0.00144105742285582 0.00683692523832482 -0.00576058073670636 0.0037144600997457 0.00262708415664142 -0.00420686651227784 0.00613797868958446 -0.00122244556272827 -0.00296236492737115 0.00678813028770415 0.00968320765992675 0.00614278210791291 -0.00158649627471168 0.00696588556488199 0.00165817301831646 -0.00294948165028355 -0.00551206103690864 -0.00200115426641601 -0.00592000812460146 0.00298856150390677 -0.00991642351032558 -0.00156131789012303 -0.00215508134352598 -0.00515101456387521 -0.0043610432194179 0.00472310101287897 -0.00312971389546462 0.00521773755737125 0.00168226366651146 -0.00268116622124802 0.00604260927217718 -0.0050578749633302 -0.0100566894844952 -0.0085332518303461 0.000211637576888895 0.00126513392516709 0.00734044072750923 0.00295026691455415 0.00637843309011624 0.00122778658531578 -0.00814163989759078 -0.00544357217275658 -0.00717342495987129 0.00521108299524592 -0.00547191971227125 0 0.00307377013465059 0.00460180534499665 0.00423464861974193 0.00207741848590156 0 -0.00997111241363405 0.00150082248835824 -0.00195095587686478 0.00762081649888967 -0.00806729121395627 -0.00135624025516409 -0.00184620144208662 0 -0.000906738458055204 -0.00414605147596854 -0.00158526047487476 0.00795150464433727 0.00595086800193469 0.00354487099803044 0.00217833693567146 0.000348099644412758 -0.000778251046469523 0.00425743724288378 0.00958858198001103 0.00514724534651595 0.0038684579763217 0.00125207219801078 0.00967229401439204 0.00204671642781773 0.00585369723745927 0.00252069436212739 0.00514058452888951 0.00278288491795655 0.00837472684935029 0.00268979190925478 0.00257171718352522 0.002356022226107 0.00511896434288058 0.00942295700098002 0.00324359862914156 0.00407487147081075 0.000303382636129993 0.0101714007858281 0.00874733360881057 0.00885328929545427 -0.000111018221106007 0.00238033606567158 0.00238888663000613 -0.00414891009239379 0.00631998754652807 0.00795160075441233 -0.00370123825925936 -0.000662252817420122 0.0114318392044005 0.00209155535696216 0.00738000609177654 0.00661505085747817 -0.000391060876356436 0.00392085135499227 0.0129732739261309 0.00322318788203759 0.00091366503225584 -0.00197338496283617 -0.000976068503435814 0.00283923149457237 0.00433384130075581 -0.00401077773038148 -0.0052106824734409 -0.0060762388592544 0.00254779197080273 0.0022132358429478 0.00333147748913959 0.00228412746326414 0.00100678585128171 -0.000418046980352659 0.00053631327568035 -0.00484888831688061 0.00583748545491043 0.00367226310508896 0.00544445307532674 -0.00218317034915109 0.00603584729992454 0.00576373858002988 -0.00316030398414646 0.00999270525373936 0.00379107106123904 0.00560488773812438 0.00317977164682347 0.00847947388761358 0.00626581699572623 0.000912834539129385 -0.00378823107541168 -0.00595799429586861 0.00281513808922161 0.00556897326480635 0.00660077324576845 0.00341018411254355 0.00418426712966318 0.00353078374745315 -0.00049430134921685 0.00720194317427536 -0.000498915207715938 -0.00356422343558671 0.000938656768399975 -0.00840935272911522 -0.00380929503010884 -0.000584768005524327 0.000176594617197984 -0.00200169681362535 -0.00240484020675696 -0.000766362494710043 4.48289866520428e-05 0.00313039088447559 -0.00122745441669229 0.00358086435616444 -0.0079610903835506 -0.00713056141362974 -0.00503464544141006 0.000947256184469921 -0.00301974335084723 -0.0053374533932762 -0.00271431186211037 -0.00626563756433621 0.00260082710949368 0.00179076884266702 -0.00430376390883076 0.000246016074432375 0.00115887771323124 -0.00178602732033245 0.00113858624004822 0.00383987229675938 0.000510165268256177 0.00151379851556517 0.00535056776307842 0.00379207122292971 0.00418974491975024 0.00463449382697723 0.00206829700554843 0.00400425466078948 -0.00734918942545821 0 0.00191392783343849 -0.000589010721507662 -0.00130644877795572 0.00401357054929786 -0.00973413132962545 -0.00240687033282836 0.00324750658150628 -0.00191242753577043 0.00761431066636212 0.00258899049688779 -0.00280568611925698 0.00735318008718194 0.00139271772543096 0.000933520343491879 0.00011268437312949 0.0096446672727402 -0.000317649279449246 -0.00348315226459247 -0.00298048514137274
