1 0.00163008484296613 0.00412880048141512 0.0116770642853441 -0.00742755608489642 -0.0046548182909487 -0.00891431880258726 -0.0125285294718199 -8.92800676810785e-05 0.00168707683323401 0.00645299020436065 0 -0.00283473186532397 -0.000182906182339347 -0.00821528303450858 -0.0069806921074238 -0.00369773111588142 0 0 -0.00365248935671773 -0.00790272065522698 0.0054164961085052 0.00763089525419999 -0.00154358384655148 -0.000790279232062421 0.00482015215344337 -0.000111311033110952 -0.00105816015243136 0.000250556249378435 -0.00533310642416849 0.00448248091001498 0.00117383200527324 0.00280949551691994 0.00316286790631308 -0.00218611818864344 -0.00160230236943042 -0.00604492556003176 0.0018980223500575 0.00478312256464574 0.00233789155232492 0.0062052849284814 0.00727154032836999 0.00525090908363712 0.00664182330792609 -0.00262769724059102 -0.000251481300157972 0.00363863759995759 0.00914914124235467 0.0150447964734366 0.00457693183678745 -0.000408171313704954 0.00369178454800781 0.00386493208450725 0.00265423500979963 0.00434454915093923 0.00106624336969203 0.00111750362659879 0.00249829027151995 0.00405757931027429 -0.00395517916926167 -0.00320156121743019 -0.0051957997206734 -0.00394545644159452 -0.00751493158481774 -0.00268766276323234 0.00430690169995078 0.00691681712560458 0.00609290501041446 0.0015735414935472 0.00245696767823002 0.00636388682274174 0.00179324006003628 -0.00307416547861023 -0.000445372435022067 0.00300254878661671 0.0065809954849274 0.00149542676347454 0.00161918886245103 -0.00325439733969581 -0.0025786788235846 0.00258933104104369 -0.0026506895983119 -0.00184895405313139 0.00113228029235684 -0.000249198004233193 -0.00276768408798554 -0.00318383811277451 -0.00426892059379626 -0.00584335055960276 -0.00294874770717924 -0.00511432907850843 -0.000234419419621773 -0.00531667918841245 0.00462940492198175 -0.00183769572238809 0.00539971822270301 -0.00722967012863347 -0.00443792126094118 -0.00738538523355235 -0.00749611436386435 0.000839342016411279 0.00404896487399463 0.00225977991969076 0.00201614344024146 0.00513278153449563 0.0021815682649359 -7.13737115887383e-05 0.00325614685946005 -0.00142159694874817 -0.00286996766523013 0.00626637987909624 0.00439434155517316 0.00662440127600503 -0.00380309832557883 -0.00464412695372512 -0.00653535361619445 -0.00161766974667901 0 4.26047192854921e-05 -0.00354940707334594 5.2220118059141e-05 -0.00491741711178256 -0.00244437954933797 -0.00227145252104324 -0.00702248304448191 -0.00777902033127303 -0.0050635631080874 -0.00759236184243337 -0.00389398494309914 -0.00736079579958439 -0.0112333174135795 -0.00453888412325021 -0.00594494178153773 -0.00249168323458556 -0.00347713192568392 -0.00580606484521281 -0.0016655599684876 -0.00749045834046405 -0.00881033696655941 -0.00190341460798674 -0.00830730080318083 0.00259803754978472 -0.0117622892557759 0.00335829215994507 0.00135163937059997 -0.00102381873301427 0.00119908562362339 -0.00080003350058625 -0.00755881430575456 -0.00069345899266827 0.000249374306897523 0.000635334861935425 -0.0062964869199465 -0.000316482697430782 -0.00193717329037494 0.00455507638244867 0.00691255490180466 0.00336553159847012 -0.00406539775522503 0.000124943439892104 0.00256361902089244 0.000867239446264635 0.0016326878756941 0.00494890413349101 0.00942995940496069 -0.00357600805712657 0.00182567193918405 0.00915572709339232 -0.000325100605070564 0.00337618551277221 0.003438876061481 0.00177258929843161 0 0.00251986967411297 -0.00658859841191995 -1.15083131572441e-05 -0.00225454372771719 0 0.00838516223893774 0.00323674166310706 0.00844524438905545 0.00475365962996564 0.00403952301755463 0.00177494360649154 0.00456883201979904 0 0.00632830786014019 0.00374457002883671 -0.00116102611917338 0.00473482345594606 0.00620106994989548 0.0093359035928427 -0.0011834638980649 0.004827857546199 0.0067478106112088 0.00676478333757679 0.00745190427762051 0.00949095462725537 0.0099664214044484 0.00702893350986064 0.00205091357061949 0.00684649500541307 0.010341788936562 0.0044256248548204 0.00941568510772775 0.0096410779607893 0.0093856117945875 0.0113346326106737 0.00639699286341359 0.0026523737272419 -0.000868673335355966 0.00733988054125932 -7.04483022884314e-05 0.00460846390003801 0.00405507539653375 0.00678568321288441 0.00218844481194696 0.00682823891633789 -0.00113057247838308 4.5890104138128e-05 -0.00391150865696637 0.000694552168268112 0.00366093020527947 -0.00132168438511999 0.00417873699233317 0.00596615936328004 0.00384568934363205 0.000844218650404346 -0.00553735129753933 0.00057452448389041 -8.68825324115478e-05 0.00319316612201032 0.00256745795002724 0.00498940444965425 0.00264760668671353 0.0110892126667025 -0.00594411833899327 -0.000451503720679206 0.00667652911909145 0.00123114834491191 0.00300747580546136 0.00542381288138148 0.00800823442652045 0.00199955593086228 0.00588165023527681 0.00231489593008949 -0.00163429576650108 0.000453569169032805 -0.00289960338027438 0.00670316137616644 -0.00307014458084506 -1.82584384329868e-05 -0.00628700808125141 0.00106211697873742 0.00131370069081339 -0.00404008025029846 0.00348022922350975 -0.00481300339729198 0.000428529271052302 0.00062945822669407 -0.000291787097213461 -0.000874263715621263 -0.00783447465060181 -0.00867742306899636 -0.000907367532757104 -0.00440037162034293 -0.00331839355992525 0.00159997458208642 0.00457946875819529 0.00671200740537759 0.00422845391294193 0.000273298427085835 0.0122166104815861 0.000437988660620976 0.00244839894201237 0.000951353347518039 0.00198579831848835 0.00341803811225377 0.00144529893641275 -0.000761109039006019 -0.00148502717857972 -0.000183515776920306 0.00156089542592417 0.00440824549007119 0.00260851685519498 -0.000532605094901646 -0.0013449065536469 -0.00804923567905095 0.00752094222202227 -0.00220752284608183 -0.00487544306353428 -0.00300545594896763 0.00227040998067941 -0.000933784808810166 0.00348022622578971 0.00337577210550332 -0.00651570358756208 0.000483593655501575 -0.00576991443791452 -0.00483216222423912 -0.00541162233450284 0.00154891294517797 -0.00561820148589727 -0.00350992159722562 -0.00636883706205471 -0.00911941500201868 -0.00442064809247084 -0.00145874497781356 -0.00578647178220914 -0.00502651120567847 0.00366778657085018 -0.000446618029289379 0.000330921423099346 0 0.0022369816580116 0.00382549388091585 0.00146205093296962 0.00453152024662941 0.00641943548954469 0.000286139271044132 -0.00282156327160565 0.000987625164985578 -0.0022357937531199 -0.00242911223855844 0.00442623521150561 0.0016380407315879 0.00363097610198004 0.00570140838691984 0.00116866631993572 -0.000944621034426916 0.00767094864266538 0.00356966354818654 0.00131590019744844
0.00163008484296613 1 0.000766277203079941 -0.00915251471355107 0.00434330792754351 0.00517448354075611 -0.00314886859221126 0.000248177179259232 0.00123511341207173 -0.00269636664583896 0.000169366523339066 0 -0.000510984564253645 0.00264361600968308 0.00207073318566253 -0.0032544091220072 0.000222216811904562 0 0 0.00895240013013432 0.00246537491253924 0.00021204079639407 -0.00412029673519439 -0.00501033164212555 -0.00495372653283075 -0.00400619175920138 0.00403413764855316 -0.00476688880245827 -0.00789666124123695 0.00740084831883014 0.00260857662655107 0.00240042748485066 0.00506716346027209 0.0039548688118326 0.00174845789987559 0.00566929962157154 0.0118555245668873 -5.12045618968992e-05 -0.00345070926346477 -0.00350711551292411 -0.0025287764650694 -0.00360838207402047 -0.00916992128542643 -0.00564574785915102 0.00469962945877434 -0.0024521327383972 0.00775317579685572 0.00601001220744196 -0.00156213027967357 0.000515523414951914 -0.00183261267484548 -0.00314622870992232 0.00171247686862854 0.00481602643717661 0.00544663091356189 -0.000462491825045829 0.00393931484243889 0.00311280706134745 -0.00412190525215185 0.00383411945822861 0.00204677796803507 -0.00473128111884525 0.00545337657540171 0.00216068693097427 0.00477630609535668 0.00120182983343849 -0.00382190971566512 -0.0049356673472673 -0.00790628217927494 -0.00598751950426369 -0.00577771123117365 0.00213246032101104 -0.00319577144579168 0.00124646304501589 0.00270235043932284 -0.0107807516233561 -0.00420085774754526 0.00587768055812983 0.00404775381749043 0.00320096038075834 -0.00215847322237226 0.000452877245463993 -0.000475268943411635 -0.000534989660816671 0.00362987630728021 0.00556510952740199 -0.00560297687082514 -0.00246078621238138 -0.00697526954301166 -0.000941493042577005 0.00107077365830457 -0.000840497872563293 0.00430305424427663 0.000914485870845367 -0.000334326638178714 -0.00595986762934022 0.0115694301344901 0.00416631410994045 0.00628722151907796 -0.00228033927256604 0.00730242639712216 0.000973153230235867 -0.00161634764020331 0.00259826315852367 0.00095615406219743 -0.00881182322236096 -0.00525154163331192 0.00375673225157936 -0.00318118993042143 -0.00680719717093533 -0.00756204822779906 0.000697108770724595 -0.0112115074056114 -0.000553534804723944 0.00241014077920984 0.00317159081193438 0.00196852861944163 0 0.00151188951505767 0.00507656755821489 0.00120385145541318 0.00351381469319424 0.00574118310180173 0.00608745859320958 0.00830001315022345 0.00145482822725362 -0.00147171382712788 0.000125248308374323 0.000942902849518846 0.00134810480038507 -0.00388618596280559 0.00341978037944766 0.00325200141227202 -0.00171671420176277 -0.000698456238968382 -0.00119765416837256 0.00255736853591117 -0.00178714985417379 0.00665366996312676 0.000418367632794037 -0.00351711930617722 -0.00187577396026998 0.00693458899089272 0.00470220405670216 0.00298764649705597 -0.00172033743832351 -0.00482251377756233 -0.00239907309122676 0.00227494117164797 -0.00692693904992578 -0.00224366666859364 -0.00854239011638243 -0.000329578887895314 -0.00451604800461799 -0.00161266896455202 -0.00488202430016423 -0.0053454017476878 0.000177780728867821 -0.00147479625062542 -0.00804518459211959 -0.00225937980152556 -0.000948544359088973 0.00581417647164354 0.00764058804714357 -0.00265807676649547 0.000597163814613223 0.00451687035034498 -0.00905143685918112 0.000858200920301493 0.00433045250610227 0.00454675239449912 0.0124852974089076 0 0.00194950742590263 0.00202222086211675 -0.00871632550069062 -0.00330258964172712 0 -0.00415980344422539 0.000385888865016764 0.00560139445759123 -0.00125014605812964 -0.0078352907779346 -0.00262201023239007 0.00380354953011362 0 0.00175675762960771 0.00507216500368042 -0.00519063490587034 0.00782200557141464 0.00487160483501981 0.00276088256467903 0.00339637620672686 0.00633692120496763 0.00417537389897971 0.00865365781597341 0.00316511663981879 0.00366714423871586 0.00128993941255305 -0.000486871942435494 0.00790414429569297 0.00185975367932367 0.00665842095170848 0.00167395844734035 0.00617506917092645 0.00460115845033034 0.00530530695722436 -0.000480675304056188 0.00575774961508167 0.00388887808271033 -0.00629434152052211 0.00530636487598872 0.00385355859198846 0.00817511984085482 0.00274770899120904 0.00621238106440362 0.0103636090081618 0.00538642229324646 0.00481617072345659 -0.00280805570113313 0.000926673973496554 0.00388993990114031 0.00430129939125692 0.00640625466298914 -0.000348557023720237 0.000500164909143836 0.000546219781102872 0.00162312136978756 0.00445116592894703 -0.00472102496061143 -0.00191513317525898 -0.000606386727897866 0.00253824618346317 0.00511272177910484 0.0127493625250321 -0.00854221510172247 -0.00453445265513311 -0.000911874832024355 0.00501617304401159 -0.00453325177046656 -0.00498814941662621 -0.00783084913223224 0.00129117526266792 0.00127675791083916 -0.00179645732433581 -0.00757849543141249 -0.000504279409493617 0.00277599030047114 -0.00703768917697126 -0.0105991335674491 -0.00274707318978459 -0.0030743157451525 -0.00129638461270982 -0.000218091794565452 -0.00186015165694326 0.00144374328867966 -0.00399526346264892 0.00763142001871437 -0.00128316522710871 0.00128988237552192 -0.00568360344999492 0.000654821080169122 0.00654191161963306 0.00192993846039696 0.00011618569654059 0.00630479918598325 0.00676386508721143 -0.000300652552065921 0.000608578657527705 0.00836469522999013 0.00168121756208649 0.00327042117927082 -0.00317474266719723 0.00293541006763116 -0.00291052433214106 -0.000744948647593612 -0.00369268324857354 0.000797929961768535 0.0013334474019752 0.00302608611180314 -0.00201112039294717 -0.000937503891461676 -0.0027843279775005 -0.00235346500115919 -0.00505656393343606 0.00439080373477881 0.00126001032712238 0.00554732108478385 -0.000477433246222704 -0.000803658263861614 0.00782645279764946 0.00706140682523478 -0.00357706236255947 -0.00135889206039048 -0.00299577976204478 -0.00404866529506506 0.00786370693476563 -0.00199047010643393 -0.0011121749140081 0.00348958312797035 0.00928771237453871 -0.00726164033090275 0.00517956637743263 0.00640168067291587 0.00131567077522916 0.00247880512952842 0.00368227815392677 -0.0062495542192059 -0.00825972651170483 0.00269373933879335 0.00141065694599382 0.00525241876916371 -0.00263903833850108 0 -0.00100915968618774 0.00589251170691167 -0.000319922683609072 -0.000291101326205104 -0.00308068714108422 -0.000647025203841162 0.00344782193660289 -0.00347539028229786 -0.00181923439739424 0.00518778928487077 -6.78354942906596e-05 -0.00115847677945121 -0.00248632895523905 0.00187395585901103 0.00218839706261441 0.00127523721700538 0.00343908631674868 0.0047608663593031 0.00200187317709158
0.00412880048141512 0.000766277203079941 1 -0.0091804773674848 0.00420634841124201 0.00615419076981794 -0.00119627798613975 0.0022660302525165 0.00516567854978221 -0.00954377618115259 0.00697664686081694 0 0.00658105847770548 -0.00196483365714816 0.00997369625629695 0.00756211540818455 0.00245775131651773 0 0 0.00640816167900566 0.00611102855462173 -0.00378265086102834 -0.00301764263541104 -0.00409941904665664 -0.0031469241971208 0.00227464141005305 -0.00130395835231963 -0.003675855299896 -0.00514333701534747 0.00543347728087285 -0.000900026431925469 0.000402721906055198 -0.00278853614085899 0.000575027925753642 0.000813514249050638 -0.000445372106605512 0.00647213230771362 -0.000766511874636898 0.000602906855627657 -0.00377402793578581 -0.00384456963426319 -0.00169528597349728 -0.00575282432596034 -0.00729583423407396 0.00386313123417361 0.00607375421721134 -0.00230028886351615 -0.00435333055869322 -0.010866482136619 -0.00200287837420267 0.00222539037040202 -0.00274238905462548 0.00162989558582836 0.00523263114861059 -0.00329621436299386 0.00154825990271406 0.00794455917538767 0.00150482627062945 0.0002071555955165 0.00475760935362184 0.00114039585268549 0.00570202919194104 0.00153173457748523 0.00452829373260019 -0.00253755847903611 0.00011829069451832 -0.00419633005423336 0.00105676137174226 -0.00340355040939403 -0.00523639448602102 -0.000589886436519942 0.00178319981220776 0.00429050233608885 -0.00137998242792384 0.0014832563196768 -0.00723337893802719 -0.0044578516842012 -0.000197618588292469 0.0038783089097391 0.00100102646210179 -0.0020250091346349 -0.00583214833975146 0.00703647854280584 4.14020188008688e-05 0.00209167175837103 0.00997014361593874 0.00619743626359698 0.00515587002765046 0.00553882953136994 -0.000591211166287889 0.00805895424980594 0.00391801058068827 0.00436641310006649 0.000553036650115301 0.0048566759358051 0.00108699956174477 0.00412781942144205 0.00349432263144224 0.00703166722674168 0.0037783434377417 0.000799665321425616 -0.00368094996171749 -0.00257441501535305 -0.00261361148080552 -0.00194390207364829 -0.00329133570073614 -0.00636031679743203 0.00594215030302367 0.00535836171884781 0.00290361030021816 -0.0117351420692214 -0.00199155849604146 -0.00299209848026554 -0.000191825580821657 -0.00247255049956996 -0.000477766246440811 -0.00114698101429294 0 0.00263274190394479 0.00516353428231071 0.00462730349174699 0.00192621326335677 0.00450342627166507 0.0026752633958606 0.00571849130243336 0.00643701864341806 0.00824262707317158 -0.00250485190624645 -0.00221970295690179 0.00117434750615356 0.00580608433289401 -0.00368300104883454 0.00670995892246703 -0.000718337554517016 -0.00153838929976117 -0.00144149275663388 0.00138902913499092 0.0034981951752615 0.0034849563510951 0.00467787289476608 -0.00183337576665581 -0.00192739269453247 0.00794522609371221 0.00255536421528334 -0.0025531510139515 -7.80558014679662e-06 0.00258293334631698 0.00105774986970024 0.00763746958345432 -3.49377425464265e-05 -0.000648142375276446 -0.00469732085455814 0.00294378392406951 -0.00182972163741054 0.00366607550739899 -0.00531388695207533 -0.00192915100613087 -0.00177747587996173 0.00855356565664978 0.00313522294237977 0.00174243508224193 0.00363651281418622 -0.00137090863909903 -0.000417431171292598 -0.0115056145233438 -0.00231867188575222 0.00765624118483835 0.000807739819100725 0.00348240754212656 0.00252267442201824 -0.00234127711620135 -0.00269479889896097 0 0.00370191693016632 0.0080568858908894 0.00496777477914223 0.00695096597373826 0 -0.00144662764717468 0.000957240854808265 -0.009928613252436 -0.00340420725076844 -0.000513445107818624 -0.00449061111867884 -0.0030344330853594 0 -0.00455886473061574 -0.00375697600974987 0.00113315909247029 -0.00607569935442446 -0.00178888050424381 -0.00660918508816721 0.00270738458905156 -0.00118103496390957 -0.00669137391381375 -0.00380088456511706 -0.000322048402226933 -0.00179087023186623 -0.00529463023158686 -0.00645818990085134 -0.00714739352121687 -0.00601370329875394 -0.00340183568793193 -0.00177076721981249 -0.00949083726057802 -0.00941219662685992 -0.00794646201470075 -0.00794885389451478 -0.000708653822931283 -0.000152274224950599 0.00778871314573732 0.00179677511467463 0.00300819406311615 -0.00230769379353306 -0.00384555610225412 -0.00437533063662754 -0.00196015094080278 -0.00262942980053842 0.00251617715289688 -0.00222792859747361 0.00667291901401995 0.00587330425335725 -0.00515713997369072 -0.00489000884107167 0.00205591396995118 0.00153027825869947 -0.00628321474344108 0.00107509453883952 0.00459203787372934 -0.0014029413141921 0.00195462726408239 0.0011501006767395 -3.91575991399439e-05 -0.0089843790089925 0.00448497434862011 0.00180565053234628 0.00365262407460717 -0.00281500378259129 0.000500454846336747 0.00237509783426431 -0.00119031938127486 0.00128471892346676 -0.000568534165220483 0.00164306538849368 0.000295502609092281 -0.00222625956394231 -0.00421583690116348 0.00148128641457471 0.00400440884961661 0.000913882540407505 0.00717152389650027 -0.000585976875102722 0.00124467838845112 0.00220805475091671 -0.00138333453195116 0.00197679181078406 -0.00175474886090661 -0.00105109695168806 0.00134723014556625 0.00309420484726017 0.00549180208640527 0.0101086082362943 0.00541927216592903 0.00307984191789542 0.00211539286087265 0.00407804909404263 0.00225451379043881 0.00463270876536823 -0.00167491594896006 -0.00247707051774505 0.00388467691153915 0.00162751880531407 0.00277316197056382 -0.00253489493045602 0.00315721906491928 0.00444395752289869 -0.000984497268768064 0.00331682979682745 0.00173518560249782 0.00169149059025435 -0.00550523489603012 0.00248574918394792 -0.00139587124347284 -0.00352183892225205 -0.00149999192449017 0.00460755524535552 0.00760698811950745 0.00352859316736225 -0.00159866768930028 0.00757126421718696 0.00437507118393314 0.00561020985356197 0.00349670282992325 -2.80592468642211e-05 0.00509251665837057 0.00712595596290581 0.00174776470923784 0.00439475914300844 0.00271809447594344 0.00547119497245194 0.00811561105793796 0.00431901850038173 0.00434400129767547 0.00446030984420311 -0.00108905120269221 0.00769149860904409 0.00144445738264299 0.00575302973257233 0.00660730926003329 0.00673697811666831 -0.00343865449203055 0.00841094365567524 0.000975413954370704 0 -0.000424498467328615 -0.00254204056884854 -0.00312707501115835 0.00464301579182526 -0.00358615870988045 -0.00531626206132599 -0.00114262232876867 0.000106776472324941 0.000551263656190473 -0.00278809718620606 0.00474766073154471 0.00124942018251825 -0.0036882627711644 -0.000949316134793513 -0.00741091407113637 -0.00213666747803899 0.00172137535530077 0.0080068478540725 -0.000861560562793922
0.0116770642853441 -0.00915251471355107 -0.0091804773674848 1 0.00557324769577385 0.0131707726042466 0.000775423031185192 -0.00665571322490929 0.00278527519178807 -0.0059945144523982 -0.00045360209008745 0 0.0028153216171233 -0.0050785727581516 -0.000749513938721238 -0.00820474686660056 0.000720349480682471 0 0 -0.0064371134453224 0.00239213475231643 -0.00637889987758443 0.000947900581896989 -0.00412117324624108 -0.00152527995179332 0.00576390272595013 -0.00071434158671064 0.00131077319200109 0.00293955804205091 0.00231122954452916 -0.00893613775579777 -0.0102762063023769 -0.00638238005091763 -0.00202952741941092 -0.00642942005705749 -0.0046681105766024 -0.00472160392628745 -0.00458125720170537 -0.00418904781323202 0.00975573203939613 0.000206709779339182 -0.00183980148454476 -0.00212086437067518 0.00185848419530072 -0.00226179368673243 -0.00916220275334259 -0.00268381650636648 -0.00158680517811824 -0.000484770536385813 -0.0100405594840889 -7.87911993800589e-05 0.00180269427745729 -0.00643727543669993 -0.000803323068068447 0.00352371325238309 0.00104982805443913 -0.00498312111617172 -0.00173047432207502 -0.00939530375668081 0.0030756799054342 0.00061027634853825 0.0062711517963866 0.00885601738987765 -0.00366509394650116 -0.00331786501679068 -0.00407788407933131 -0.000730706803537892 -0.00131728102991805 -0.00927184902733796 -0.00377093144321255 -0.00184595638470836 -0.000834685041457116 0.00822577985129 0.0037003971414048 0.00466593373304861 0.000180589642963164 -0.00724923020318759 0.0100538437974295 0.00201914461521396 0.00126094474615903 0.00970031255533884 0.00168948603219105 0.0024222139702922 0.00666898204998974 0.00263163201231415 0.00761828585723067 -0.00154240017844996 0.00142142430560182 0.00446884551046296 -0.00179666842468894 0.00116517833447108 0.00271388413320937 0.00343069219521587 0.00200214230366001 0.000734290693773627 6.02704430995208e-05 0.00344916050793379 0.000337170353898764 0.00276069409986447 -0.00296782309032082 0.00138168762283109 0.00408633804270145 -0.00407566866694686 -0.00133783624759888 -0.00511856527305394 -0.00563077639883928 0.000221730747108893 0.00321917834554108 0.00304281488159173 0.000154138663956867 -0.00209603758915921 0.00443850870814619 -0.00104741730569556 0.00634829784361041 0.012727734524339 0.00864200415685051 0.00258779458616686 0 0.00901976387894956 0.00410977467457068 0.00798330696959516 0.00709458901777397 0.0138693598445265 0.006449480901299 0.00784901666068918 0.0055423434119653 0.00242629303128063 0.00858071041848661 0.0102204018912132 -0.00245309547161111 -0.0047284082017691 -0.00285159300518251 0.00449242212475004 0.00182841426292021 0.00213107548886156 0.00302933918838193 0.00197917930968351 -0.00429082013728752 -0.00116992180449616 -0.00347234037596645 -0.00605794626590695 0.00512841274879762 0.000604770002115591 0.00544565028996673 0.00239120538966281 -0.000167949891514669 0.0042265875703857 0.00665373828565324 0.00432387531464174 0.00590394163140038 0.00369830287953058 0.000167449132922795 0.00694789212151592 0.00304441139012912 0.00980904331712642 0.000808751208843504 0.00376266852084803 0.00719025319143168 0.00435504935531387 -0.00596017981289836 -0.0012718788208946 -0.000197907729993551 -0.00499667268532227 -0.011726178610319 0.000396840198199793 -0.00327073014837342 0.00710166676333146 0.00147195473546775 -0.00209960854159796 0.00751294840251321 -0.000422397812797755 0.000415600346593667 0 -0.00356262695680432 -0.00660735777485685 -0.009697491720765 -0.0120146028832056 0 -0.00858151058083658 0.000671263615075926 -0.00609259606157986 0.00187289639716666 0.00165644962573112 0.00371836584376658 -0.0029120355277508 0 -0.00428359323782969 -0.00312755794395888 -0.00076083153774808 -0.00887308677153394 -0.00751421875630864 -0.000641368906670521 -0.00644068144038988 -0.00706471508685769 -0.0134164170731126 -0.00347188203820721 -0.0111074829303676 0.00242787057059226 -0.000195214378382004 0.00291897341954622 -0.00518630567691866 -0.00999833599906986 -0.00198912827039654 -0.0061661854514568 -0.00505830840154846 -0.0102432271655664 -0.00323276299645542 -0.00331755253569818 -0.00906830836454692 -0.00220867639572542 0.00178964390158204 -0.00277023607170899 -0.00120034775374901 -0.00851735427068938 -0.004633010159884 -0.0103298114272289 -0.00439391526555884 -0.0105372537586259 0.00855181495224868 0.00913834294135415 0.00211910535217272 0.00553353801958252 0.00190025819660564 -0.00100732380433574 0.00757176721972732 -0.00123620078168791 -0.00859505752092802 -0.000883624346287935 0.00449772776276654 -0.000382675338867064 0.00348961414963752 0.00634490961864752 0.00121986811831015 -0.000974593566023319 0.00663108097763655 0.00586983199103229 0.00136996485151676 0.0101895306837664 0.00384467453570581 0.0041339752173653 0.00288274375274438 0.00112353024985367 0.00347986355340311 -0.00169205261625556 0.00511317315871219 0.00340719924448541 0.0054535065939525 0.00273698770806624 0.00585133086567086 0.0063644566596792 -0.00139959856437089 -0.00357099439468946 0.000498888426304902 -0.0026552895009327 -0.00320692331482646 -0.00194106723180996 -0.00147187571262801 0.000784223788606138 0.00305727508515281 0.00768448585233767 -0.00414085588959477 0.000937668587890476 -0.00136312488770361 -0.00896096096187862 -0.00580364590757552 -0.000131888225910264 0.00392243197766204 -0.00372548905939964 -0.0022652363939203 -0.00163501952733125 -0.00359753479778833 0.00385381445815337 0.00864096321408511 0.002066153927042 0.00262868824582272 0.00489308186864669 0.00831246036205215 0.0121713654968758 0.00890749277765122 0.00828062970794319 0.00294956274343082 -0.000971581566262949 0.00166404053048315 0.00430097536763269 0.000706109186843083 0.000804300998293922 0.000684641451812295 0.00653117050940254 0.00172433103779662 0.00304330628236553 0.0104353399333517 0.00687252398007121 -0.00504390699805586 -0.00246777198804025 -0.00271707189905159 0.00184858222006629 0.0027820723542988 -0.000460495864720823 0.005127580485473 0.00826474437816583 0.00846503318023322 -0.00318865537158829 0.0105230576055397 0.00986954465243919 0.0105109997981429 -0.0048867952440257 -0.0033095450077301 -0.00609979293253938 0.00163573213213628 -0.00351444868764056 -0.00543577143652982 0.0098564578728351 -0.000555751146819183 0 0.0067955457356022 0.0026287306116321 0.00175072751252177 0.00528136012987822 0.00592536587836583 0.00300259395258241 0.00110566804275723 0.00646715775577142 -0.000988880234949983 0.0015797496590438 0.00142501434757451 -3.97921881120235e-05 -0.0012512454392791 0.000273041411771573 -0.0092439545541227 -0.00313844736549855 0.0107871138527265 0.00588038449726495 0.00326768560376175
-0.00742755608489642 0.00434330792754351 0.00420634841124201 0.00557324769577385 1 -0.00543041035205787 -0.00283388746571893 0.00523338390515791 0.000332904661778313 0.000590023282652417 0.00330615014939196 0 -0.00390897742791654 0.000693052426666605 -0.00555222326331491 -0.00589063037974929 -1.42350930647717e-05 0 0 0.000526899181239697 0.00360079661120597 0.000964876193680683 0.00707967855469394 0.000284026426102729 -0.00211072852845321 -0.00228867318772282 0.0018963734172835 -0.00115228339249877 0.000847391028757621 -0.00154644402476928 0.00227402337943833 -0.00403864511127278 0.000618687929488904 0.00290182814853064 0.00499328020327071 0.0028968978587121 0.00567836302482867 0.00432079557220598 1.65283430197333e-05 0.00162643076976767 0.00159786688890079 0.00342676249622195 -0.00225692728858565 0.0013718662071848 -0.00255757755525486 -0.00128277840351584 0.00418453903005256 0.00342121054682922 0.00814197048386772 0.00443454262454342 0.000946679013501348 -0.00272853313826086 0.00121944175594248 0.00431516517899855 0.0019996452505001 0.0016379548123002 -0.00212032556112254 0.00409858422989073 -0.00394831968287773 0.00177601734323795 0.00136652345198285 -0.00196260081706432 -0.001647429578004 -0.00358577297409637 0.00206394680405094 0.000493954061181491 0.00247761871550676 -0.0021405619664212 -0.00242688342789154 -0.00433919114160426 3.47627718900798e-05 -0.00286796730610909 0.00283042716900632 -0.00621169663806909 -0.00594973690752191 -0.0049880071692506 0.00377332769377857 0.00172556244167599 0.00430959821933003 0.000732860991397039 -0.000127886157965739 0.00482302426220878 -0.00167134976223616 -0.00427186830034435 -0.00611022012085984 2.63390105406138e-05 0.00150354104682973 -0.00066674446455753 -0.00650979868659739 -0.00380407463969734 -0.00228868696509246 -0.000782622563233434 -0.00590702637101025 -0.00660179863853377 -0.00151710079183059 -0.00797723591376392 0.00357988593486387 0.00332431814338587 0.0029855993927703 -0.00136947928218575 0.00173097128486054 0.00121620997917869 -0.00383031589533532 -0.000588296929891086 9.54519129090045e-05 -0.00138357577273232 -0.00466814391471732 -0.00204703675784711 -0.00755601979631924 -0.00975143476333527 0.00275033823581781 -0.00187348581673098 -0.00501896305963613 -0.00325394391886625 0.00264980285462706 -0.000217502155567714 -0.00425201449077473 0 -0.00104000887286022 -0.00137974788278686 0.000658123790756715 0.00662437194691255 0.00620664175997282 0.000912704494507051 0.000410862722946622 -0.000836043365849304 -0.0021367153234265 0.00168336377331261 0.00373203413785934 0.00197279838128865 0.0013124351117862 0.00786749777750557 -0.00170328273225911 0.00447084162375991 0.00472064859315279 -0.00164425124771365 -0.000497734664621606 -0.00606346366287412 0.00341077222624077 0.00112771118192306 -0.00350175189787452 0.00215179148547736 0.00411908603203657 0.00509765356125678 -0.00275296689177418 -0.00527819387187595 -0.0105451899899536 -0.00352600044232446 -0.0061463834484009 -0.0070753183291087 -0.000850142320713624 -0.00510657828191083 -0.00706346075119269 -0.0049236452917956 -0.001864600760529 -0.0037306602128559 0.00204407637364562 -3.11304260833566e-07 -0.00113815249740858 -0.00349695805958334 -0.00241222159714569 -0.000658153344251375 0.00779583470980927 0.00416041137169084 0.00872227868758132 0.00625248805784544 -0.00033520115781573 -0.0010414703979525 0.00639150677229598 0.00583145539894258 -0.00475236074183043 0.00849927270104628 0 0.00205756513105205 -0.000956864070856665 0.00137188962977777 0.0037198392669828 0 -0.00381428070107533 0.000895543103712073 0.00727029709983717 0.0032000875027934 0.000182393110015612 -0.00679953253233946 0.0039260888899833 0 0.00110856746532011 0.00414339441418589 -0.000573967263992447 0.01032035269251 0.0061356410711702 0.00318036322001056 0.00324072111638801 0.00403499217116447 -0.000204337605525318 0.00832802544101961 0.00461071422549588 0.00983155667697286 0.00961560665269012 0.00790107184125706 0.00849563997700837 0.00356029934602409 0.0108816258127038 0.00151841628085167 0.00576703701496795 0.0022940724966649 0.00664965521476189 0.00673140233886016 0.00358204467126667 0.0048385672168058 0.00119429628191101 0.00505506452324929 0.00310998225819803 0.00791622065487755 0.00478745384317426 0.00614552728327378 0.00685188588800029 -0.000153675543651079 -0.00348619966327776 0.00156586140070193 -0.000500584729034308 0.000196440963378569 0.0030353024962621 0.0018957924746135 0.00697843419494995 0.0023318184397965 -0.00136534696073744 -0.000837589725789171 0.000268423192193279 -0.00416161320736819 -0.00151539886884883 -0.00145846760680301 -0.00131105656425776 0.00824009179533089 -0.00103919974100361 -0.000414273732733666 0.000905197735704278 0.00463845675097569 0.00463669493425332 0.0012892002430539 -0.00207240257310763 -0.00419426120743285 0.000119867674744982 9.49959008679684e-05 -0.00726688584182247 -0.00482352570740687 0.002994874459232 -0.00897556954438221 -0.0079449705962004 -0.00102034375620903 0.000681518839229966 0.00432452569893798 0.00492955432772453 0.00415476993046312 0.000158293126724499 0.000977600477752876 -0.00398196298510455 0.0106371053356445 0.00218464207883258 0.000743931342619404 0.00193350700635462 0.00241391239099271 0.00570450801401037 0.00713138928465762 0.00371488953636312 0.00552166945067309 0.00871842305395384 0.000206854138637525 0.00367184750385348 0.0122688782639581 -0.000718296109399382 0.00523109781654652 -0.000643760916449215 0.00972179559644524 0.00527567479062322 0.00486611504830271 0.00146106226291127 0.000644782412316549 -0.00236260311630564 0.00543168817490805 0.00583434431774136 -0.00120737901418886 -0.00420540615032949 -0.00215020634812173 -0.00295315449874207 0.00068708870901102 -0.00187808121655865 0.00151093404671913 0.00901246045384524 -0.00332290411967136 0.00273953327017031 0.00254457848635613 0.00176223433663202 0.00655924131120226 -0.000761582221572634 -0.00630972471678194 0.00524777525846845 -0.00267947965972482 0.000987673580952773 0.00303728274736477 0.00441728476395203 -0.004400576896951 0.00199270979864434 0.0057949497798902 0.00421206206817485 -0.00246334868413903 -0.000298097758375799 -0.00442995357011872 -0.00719694772235038 -0.00155992466145012 0.00209699238891747 0.00575628646926693 -0.00173793327054775 0 0.0103327227252585 0.00515916207960856 0.00441442067483872 0.00148251262738658 0.00278429329980762 0.00396919997352146 0.002121122013368 -0.0036578337841453 -0.00392476658301634 0.00280410958414235 -0.00441075606754304 -0.000301915388674147 0.00207152713102933 0.00475275555324136 0.000965521056347614 0.00204402261480621 0.000708900766220252 -0.00082776205943949 0.00191915320239971
-0.0046548182909487 0.00517448354075611 0.00615419076981794 0.0131707726042466 -0.00543041035205787 1 -0.00336122420550818 -0.00380136318223951 0.000797589418688312 0.00112615077775295 -0.00101381917461086 0 -0.00675782739096662 -0.0024512551345335 -0.00782422691257635 -0.00728083399292475 -0.00531100916132787 0 0 -0.00174707662274845 -0.00254510267621287 0.00160337348191504 0.00921164169224333 0.00248332036607688 0.000184802596408069 0.00385127599263587 0.0049025333141252 0.000529454929891696 -0.00310681124424448 -0.00253816921760356 0.00468762797408182 0.00178999863391041 -0.00309277007974733 0.0029294008821224 -0.000305899183855897 0.00122232296572362 -0.00612472831885363 0.0035932743267822 0.00262176074641251 0.00430458537793518 0.00707484559979779 0.0109475782578437 0.00881996756153038 0.00895496684029725 -0.00122479444227482 -0.000262407100801598 0.00644810496717746 0.0100723329355397 0.0139027319762683 0.00102067767884478 0.00208725918527546 0.00216297140171639 0.000315601574170094 -0.00173977438999544 0.00150623569763707 -0.00273118420837364 -0.00100425311826353 0.000996360290185978 -0.00234354792461032 -0.00238645351425365 0.00237848295870044 -0.000729773208439527 -0.00441091394547813 -0.00572481994373003 -0.000996457482555384 -0.00114454459817692 -0.00342475405109668 -0.000525232093475862 -0.00419672165426692 -0.000445043360140189 0.00137955141584076 0.0038631870555714 0.00265204357456814 -0.00465998301496678 -1.86828451002065e-05 -0.0031375432435441 -0.00329543417716054 0.00210495614449923 -0.00335354660697419 -0.00663895625362276 0.00297608449483326 0.00220916202242536 -0.00278526116474655 -0.00390709383158267 -0.0013721570459834 0.00494283877996917 0.000429146732992523 -0.00379783220089699 -0.00449326240840492 -0.00204727502455398 -0.00152296007519227 -0.00276841281914777 -0.00555415144536476 0.0065181260293742 0.000166530058402917 0.00225675163626558 -0.00070951514559005 0.00278165866908106 -0.00311708824465282 -0.00490055617896667 0.00485918886921647 -0.00289337578827909 -0.00502596944709661 -0.00195921389381078 -0.00466909238401232 0.00711486278090014 0.0088011054902503 0.0046786079471367 0.00188759371696741 -0.00352383585361515 0.00472627801866696 0.00247899797422055 0.00483714810125037 0.000241584089836549 -0.00463820940669458 -0.00307688684791669 -0.00284836964493678 0 -0.00557491575709621 0.00167348176557776 -0.000588629280329108 -0.00117521417571068 -0.00604885284844457 -0.00609323073352307 -0.0042353335518204 -0.0052734968746329 -0.00285210442056568 -0.000758642552270594 0.0040676875377395 -0.00433309436431207 -0.00759871967024712 0.00226135650217961 -0.00609004294559799 0.000629606853447915 -0.00256960181807472 -0.00447765801810296 -0.00378775609100537 -0.00810520011628393 7.03057025503149e-06 -0.00851567460346902 -0.00944514231057029 -0.00483379588273208 -0.00865429986863101 0.00404683962456051 0.00408357993163108 -0.00151683732304526 0.000248595005538778 -0.00351048590446867 -0.00372075667654161 8.8147085818021e-05 0.000592650733062714 -0.0043011879589825 -0.00177127435222443 0.00717914272518968 0.00200282388566212 0.00726381144518747 0.0145458931640781 0.00649930746007068 0.000611317271423925 0.00198333999079075 0.000747937433817531 -0.00518967888649778 0.00465605345216899 0.00489184192217915 0.0101405191859479 -0.00186012347528801 0.00456505222375333 0.00141902432511438 -0.00361180597571729 0.000251957453991872 -0.00455633264368675 0.00802806257931322 0 -0.00303702248453503 -0.00714125763444677 -0.00465482198256626 -0.000704368680425732 0 -0.00212429145248696 -0.00381317565095129 0.00417671950213872 0.00456606128920151 -0.00376156991269947 -0.00073614871554235 0.00368542225503008 0 0.00360183860068735 0.00713846780753802 -6.50791152946631e-05 0.00298183925611394 0.0021413490349614 0.00875849732108138 -0.00357028501194112 0.0024695418499182 0.001054512447284 0.00350422691074522 0.00327894890329149 0.0102461804495153 0.0112474397358394 0.0122099094700394 0.00421020171411603 0.00126575478704709 0.0101313420073237 0.00465985474378644 0.0082432105731778 0.0065736886732745 0.00766956283924037 0.00994163898756418 0.00458937245184246 0.0020110042825977 -0.000170726977522338 0.00777598936900976 -0.00173098988400494 0.00164923518492007 -0.00214186814751376 0.00414325311391284 -0.000590892498018373 0.00465984159373963 0.00530351768079598 0.00536298081606698 -0.00333223668761693 -6.62921145049245e-05 0.00220298752401242 -0.000191523458325118 0.00873403955208496 0.00679507440860541 -0.00327795292332913 0.00118291786659981 -0.00287867827406746 -0.0012141834576446 0.00368478891046068 0.000431856979348736 -0.00315845524889065 0.00386786267849915 0.00518531059841024 0.00300144674917686 0.00270272072240677 -0.00203801880337373 -0.00124374107561934 -0.00125896517425578 -0.00466524918351018 -0.00311740945195131 -0.00544924641117541 -0.00551097837781152 -0.000265237919550849 -0.00629740910755585 0.00148417723910508 -0.000823373993425063 -0.00291650741636964 -0.00486110340087765 0.000130070343004234 -0.000382770413490802 -0.00562364840289716 0.000481018093136744 -0.00389037933638084 -0.00568906949502683 -0.00350849234143944 -0.00101951889609783 0.000112508920836099 0.000842263771517825 0.000781596796875005 -0.00348686463222248 -0.00547108185149295 -0.00424771078389438 -0.00316518737926042 -0.00275772068848074 0.00280076665783528 -0.00331435046213172 -0.000558403465799054 0.00877550086202619 0.00604540996231754 0.00970820185874223 0.00987414311080388 0.00790535325622189 0.00652798850122128 0.00941728430071808 -0.00308377585324665 0.00369770639848055 0.00130412941802175 -0.0040850274369161 -0.00226803127878152 -0.00238790318302553 -0.00500346487683593 0.000777837405735084 -0.00321274145953539 -0.00384655892518055 -0.000811953953832335 -0.00190669329371314 0.00324986940227844 0.00377819035360059 0.00170886919809801 0.00289694900778039 -0.00676946248101446 -0.00397835647580565 -0.00882304770360345 -0.00690994515120141 -0.00344825811975302 -0.00127702853886464 -0.00283894408240905 0.0032979250217226 0.00438141340030661 -0.00308493208290616 0.00240365454751742 -0.00227209191460405 -0.00328943175343697 -0.00193556527555295 -0.00223262995039228 -0.00897520479651956 -0.00480910270463487 -0.00420053160395935 0.000205755536526564 0.00119993283619124 -0.00346399659766044 0 0.00670679514223053 0.00968259933522764 -0.00225556890369935 0.000781936062928351 -0.000537582905895239 0.00314633111238844 0.00165268828203899 -0.00172731087981737 0.00156625004195645 0.00830767482793996 0.00616275251368642 0.00254868893856049 0.0136883731310905 0.0161196365713762 0.00350318525114799 -0.00162764875891536 0.00616048876206408 0.00616086073302105 0.0050692848928693
-0.00891431880258726 -0.00314886859221126 -0.00119627798613975 0.000775423031185192 -0.00283388746571893 -0.00336122420550818 1 0.00187957582630293 -0.0074788324703918 -0.000669634299432827 -0.00654480741059808 0 0.00135773714853042 -0.00498598341465699 -0.00337313556391174 0.00473766108796455 -0.00278966167703157 0 0 -0.0112592256745308 -0.00297654282145756 -0.00279843666171767 0.00279467128266309 0.00483200198732665 0.00365355142171973 -0.00068593780080171 0.0025276742971926 0.00537850392822805 0.0059953318578669 -0.00195947190774706 -0.0088337713671515 -0.00222729384388643 -0.000621473058263407 0.00232736011790019 -0.00181527859314689 -0.00436621819614728 0.000973664593262985 -0.00375486228309552 0.002986991212738 0.00943389381514952 0.00546957187712658 0.0034045960140949 0.00615219698382127 -0.00349114373724642 -0.00329537605876168 0.00335180054605918 -0.00124809660568059 -0.000851537502605626 0.00224764446618972 0.00244586263723429 -0.00655089768620467 -0.00542304547661428 -0.00462855389023273 0.00018184196221616 -0.00697756757112725 -0.00116964854795313 -0.00337216424053728 -0.00390490628038189 -0.00095743127504591 0.00100664095214466 0.00329440888346482 0.00414300843941653 -0.00369375800017674 3.19429004645248e-05 -0.00333477874819399 -0.00226585450362889 -0.00272643048868366 -0.000612406396379883 0.00485247608049512 9.02793950951801e-05 0.00294603083337489 -0.00284047008248094 -0.00638013362533497 -0.000861672067030757 -0.010605427320931 0.0036286151437218 -0.00033826067621169 -0.00176203591905537 0.00043481331314639 -0.00619628255335581 0.00248459034449799 -0.00136016685987213 -0.0018860624010152 -0.00419181306814242 -0.0125676931693567 -0.00184868054299325 -0.00162361052488835 -0.000647217418447217 -0.000733820238236657 -0.00482438252221828 -0.00521253720189566 -0.0011204051820945 -0.00320245422820911 -0.000538670737917173 -0.00404811329714922 0.000720180117547058 -0.00742973620168764 -0.00283821005146038 -0.00100795006255684 -0.0021480434866683 -0.00323326274847535 -0.00530235224532098 -0.00223160397505022 -0.00682830944829769 -0.00817637946326171 0.00482993724480162 -0.000894064702132239 -0.00478683209435987 -0.0016459209594594 -0.000992260283982699 0.00613903071310198 -0.00238716737626989 0.00210862200030081 -0.00259246297440171 0.000821890374497037 0.000669945986906188 -0.0056545928728662 0 -0.00603351060213017 -0.010279102959598 -0.00182083649277687 -0.00259910496141083 -0.0041892956643007 -0.00734074522219191 -0.00798656835808267 0.000952550474301783 -0.00698979500135312 -0.00555445265431951 -0.00835424621202328 0.000288581705894343 0.0024349979475984 -0.0043954322398926 -0.00439974437367033 -0.0086590612183942 0.000495840524242381 -0.00348531922488575 -0.00201178526308638 -0.00495871783169628 -0.00565846310857292 0.00262106833945744 -0.00115343387632694 -0.00258725777274297 0.000596455436562445 -0.0047860124705724 -0.00643591026922608 -0.00228394735825728 -0.00143112420940699 -0.0009750561374512 5.02415916864075e-05 0.00106482639448714 -0.00453174218828644 0.00377519067803597 -0.000334610101319582 -0.00239943794622495 0.00314982030394247 -3.270935886165e-05 0.000606410763707336 0.00370132909978515 -0.00847736562427401 -0.00428231049124078 -0.00183253402862375 0.000766147251333465 0.000943575020836384 -0.00454871864620005 0.00104042037615626 0.00608606647986863 0.00148212451241666 0.00648399155732871 -0.00128108335129334 -5.88133702855098e-05 0.00610383791925126 -0.00758482229384384 0 0.00076080180791083 0.000640708271020179 0.000561012042856466 -0.00108281310451725 0 0.00491234949730581 0.00175819176237882 -6.18973645964186e-05 0.00351945838771695 0.0105950325697455 -8.45025846786395e-05 -0.001060640624619 0 -0.00241815714871279 0.000482332293243409 0.00235024576908046 -0.00622626517039155 0.000731216774175728 -0.001930794226836 -0.00520663568511112 -0.00253153174251818 0.00411697402077083 0.00256977504190848 -4.06129240914001e-05 0.00166609880363824 0.00481491598930072 -0.00105517607337201 0.00243782929648649 -0.00569053634063928 0.000177178969045411 -0.00821529860221017 0.00123146103575221 -0.00353735437413572 0.00289642774004753 -0.00156872381665629 -0.00281694190628743 -0.00175129816005263 0.00328050587668208 -0.00516013937274584 0.00213642470939309 -0.000249842483459868 0.000183641383816844 -0.00252361565963905 -0.00627426528525579 -0.00649471133392153 -0.00333801009753893 0.00413617374572027 0.00344882591265303 -0.00109770588723256 0.000390877178112248 0.000694069177066672 0.00280161267060585 -0.00301162767522527 0.00309080389092046 -0.00208299249371231 -0.00130595689284132 0.00838769652265699 0.0060322912774834 0.00394355050209793 -0.000890597960262595 -3.20760420137532e-05 -0.00946037325416249 0.00660916178099405 0.00734582263580226 0.0119497465622456 0.00366169429787961 0.00738462914524183 0.00651723759306665 0.00695279511312405 -0.0106648629864203 0.00431107197724542 -0.00256151301696988 0.00510740608528131 -0.00494508267958954 -0.0038555715335106 0.00535328725989099 0.0123600611473835 0.002941724665881 0.00187854921206994 0.00795340291959039 -0.00203747043901846 -0.0026803895411594 0.00223976849411576 -0.00139325323057783 0.00134971167790548 0.00410681188450524 -0.00323184867456669 0.00334325606252411 0.00200622277436605 0.00547537569495646 0.00460821160231608 0.00336074043628354 0.00399932242416631 0.00090019101964793 0.00232521995657863 0.00385264045752505 -0.00319468322432916 -0.00366987446475203 -0.0018671704680864 -0.00152658410196671 0.00294253875685586 0.00545437952983827 -0.00369057806485847 0.00856297604848455 0.00282003012381773 -0.00276285705806732 -0.00595066100046654 0.0018041661974969 -0.00888152331630167 -0.00625426913495411 0.00356870832092828 -0.00713980631673958 -0.00262694903567538 -0.00592436211669012 -0.00357772027451237 0.000926175112736653 -0.00352169461035836 -0.00186165284914231 -0.00338607040489007 0.00262578431282345 0.00483545452170661 0.0039327648761966 0.0044603277821887 -4.93451203063723e-05 -0.00214615465901534 -0.00367044196873833 -0.00188994009981011 -0.0032760094966905 -0.00291682240043877 -0.00368536847805657 0.00314650917493293 0.00500347860534449 -0.00159128965323003 -0.000362394880317061 -0.00217021661644012 0.00273946904016072 -0.000204060895025467 -0.00526302389233034 -0.00187343314672966 0.00502661815121672 0 0.00120114287223311 -0.00427779694717457 0.00459413231008199 -0.000917083688395306 0.00315493237407246 0.00834672410979145 0.00306687403034899 0.00446683206181743 -0.000497211041121688 -0.00253966113075572 -0.00640764923175263 0.00333494156369273 0.00114389321687485 -0.000118753580987108 0.002963144954682 0.00578224776015165 -0.00353115569664805 -0.00559552884041086 0.00281258598085568
-0.0125285294718199 0.000248177179259232 0.0022660302525165 -0.00665571322490929 0.00523338390515791 -0.00380136318223951 0.00187957582630293 1 -0.00950655661353833 0.00218711008722715 -0.00136497191800112 0 -0.00227511194590228 -0.00272655125096025 -0.000110360495627923 0.00209960307508166 -0.000724762419218476 0 0 -0.00699458800932769 -0.00208054867771431 -0.0011480535928203 -0.00317632895839492 -0.0062593593256357 -0.00123596645978756 -0.00457519855418196 -0.0032338611254977 -0.00260164222657643 -0.00416348858086931 0.00358297615864613 0.00364915745151332 0.0079030649418398 0.000775644029140097 -0.000216310868009461 0.00636640929990753 0.00691946387934949 -0.00115626899189661 0.000845054915275668 0.00317424217606146 -0.00375977307165009 -0.00781880046586567 -0.008492727087258 -0.00306774719922095 -0.00449831859808466 0.000207438728822554 0.0033484462260282 -0.000970674426070868 0.00383112783531373 0.00105224846588104 0.00132897936472947 -0.00724955583574894 -0.00502044763874707 0.00540223947529931 0.0083473220075771 0.00137750139378962 -0.000988083761574007 0.00110324558547546 0.00401927945448794 8.29801663097058e-05 -0.00276930705567468 -0.00217357696967874 -0.00424936595390465 0.00898913261076933 0.0034545396461368 0.0063239144777258 0.00990136004277304 0.00434962779415941 0.00637892056652685 0.0059760761487533 0.000371728261901241 0.00191692229635821 0.00235822777005051 -0.000659618559271402 0.00402214715897631 -0.00604130465702485 -0.000518068898747036 0.00297339371110241 0.00151372634529921 0.0064530595370118 -0.00714504185490042 -0.00194648852757886 -0.0033556443605816 -1.55004767976668e-05 -0.00231029024563403 -0.0119126765404852 0.00409597941308047 -0.00264083440651038 -0.0086101989200844 -0.00355654527449563 0.000953866959088776 -0.0029665230062533 -0.000546250138598202 -0.00697622482285929 -0.00330755533198341 -0.00758662979858582 -0.0052495852373656 0.0014197654850532 0.00195490987286749 0.000861875788624142 -0.0050313768146098 0.00941265137906014 0.00622732528747403 0.00407835833584558 0.00533443697586213 -0.000636028367787156 0.00370238385061554 -0.00210527859287664 -0.00665457750156805 -0.00485036699171661 -0.00368659496669323 0.00142690228367555 -0.00531749704596491 0.000913187168220904 -0.002012859973061 8.34441554330584e-05 0.00177533626726536 -0.00536397576495131 0 -0.00272350986019539 -0.00197678741744818 -0.00165378658549486 -0.00389330021200047 -0.0055256278337873 -0.00499430308360335 0.000426951833718666 -0.00851918870067924 -0.00271254801143126 -0.00491332854841611 -0.00438487646920187 -0.00127426907676358 -0.00487533851394049 -0.00117537628859012 -0.00866002658384594 -0.00622451416265328 0.00202597957131977 -0.00484633698473384 0.00493895423464747 0.000902648117611034 0.00254308123469384 -0.00149154812080823 0.000519713556077938 -0.00626217312288246 0.0028398487505996 0.000362926149061303 -0.00787115959512323 -0.00690121475817426 -0.00396429869280676 -0.00129238400719643 -0.00420429396645994 -0.00828771171438865 3.23046661098178e-05 -0.00664179695707582 -0.00254601315987271 -0.00414830013410907 -0.00188929329813114 -0.0123377326081795 -0.00539509667266595 -0.0085945755082986 -0.000925047420166535 0.0013310769961538 -0.00123596336159393 -0.00760379938748215 0.000424752276321662 0.00557700286969224 -0.00544169182525001 0.00651289436518604 -0.0018994972352965 0.000576456825153366 -0.000503709302041561 0.00470478187569574 0.00684401779901028 0.000997159496342761 0 0.00231555143325403 -0.00163567483858325 0.00210640758685222 -0.000679101313163371 0 0.00521871708917756 -0.00398496721026357 -0.00320267837033913 -0.00685122473856358 -0.00362550709953609 -0.00312236201501078 0.00201541796098755 0 -0.00447046897278968 5.93139660926089e-05 -0.00716729940062401 0.00587055658444939 0.00283785490898493 0.00249782749229448 -0.00307097935575334 -0.000338592434281217 0.00400454897219513 0.00554191650936392 0.0043599571054993 -0.000121877128979654 -0.00333984822842762 -0.00202046008209392 0.00744874725491732 0.00527114926730137 0.000116385294084566 0.00657705992895701 0.00815906418589607 0.00211995714823108 0.00568244584923095 -0.00477580771607313 -0.00144630278327693 -0.0011892200480815 0.00137866618348701 0.00989979502015149 -0.000587263993016868 0.00138323054800723 0.000482292266628394 0.00550460859681111 -0.00288571872879098 0.00251809244697359 -0.00598464564449289 -0.00287607484673919 -0.00593291709472139 -0.000581158502965303 0.00495337504995241 0.00664487767049259 0.00223418196646724 -0.0028660344189966 0.000782338104220579 -0.00731845195204454 -0.00434749767071701 -0.000264544845042089 -0.00210731708140206 -0.00308331137820525 0.00277297194972749 0.000219965262947613 -0.00232456620064038 0.00221948807266526 0.00287415933334655 0.00414407271073986 0.0125653116333242 0.0018641953484186 0.00264171467243755 0.0038829089317135 -0.000699442523285147 0.00377515321009976 -0.0103085162315997 -0.00646286950856915 0.00227502825608292 -0.00830353869764282 0.00125388737634901 0.00594378495404824 0.00139600461109651 0.00291041150686886 -0.00103384747957629 -0.00608684926699672 -0.00065540034223885 -0.00131471435654502 -0.00871968314144732 0.00663795072514201 -0.000334924622155128 -0.0021687859233576 -0.00396385163185172 -0.00146625382256582 0.00534742401920693 0.00458343443055499 0.00158723359958694 -0.000417051437675181 0.00456984891271826 0.00395459797546585 0.00572835689072585 0.00201191604718495 0.00302442352465003 -0.00484837469544443 0.00099767189447492 0.00616832552745195 0.00550042592524812 0.00189601767175382 0.00254591045071466 0.00271213470434593 0.00427355219125391 0.00192091674163276 0.000395232874411341 0.00121330793346564 -0.00993541578532651 0.00199311638721495 -0.0026366163434108 -0.0020092436372771 -0.00357915624929848 0.00173705876799886 0.00355336054940316 8.71120257629554e-05 0.00122900457742394 0.00728149291652897 0.000560036347543273 0.00457712693935904 0.00792123762506021 0.00859426218267809 0.0047663291316182 0.00463425501172948 -0.00282729775173584 0.00871062251941292 0.00439351083293366 -0.00741770151061301 0.00248777402424851 0.00302518827405212 0.00216378631487049 0.000983111874317873 0.00653680670167733 -0.00195480898040369 -0.000583850594245912 -0.00132575987897708 -0.00416199830692011 0.00263411555945031 0.00612946034045183 0 -0.00463325750779664 -0.00209269761181415 -0.00323218045492599 -0.000295075690364902 -0.00162132033237534 -0.000114550480120703 0.00142012519739297 -0.000245538496902134 -0.00476443223300796 -0.00796253038530587 -0.00916725405535433 -0.000920763703305939 -0.00382542886177432 0.00238089021203235 0.00159637065737184 0.00395793343126885 0.000430266106168693 0.000707706388363009 -0.00305947790095826
-8.92800676810785e-05 0.00123511341207173 0.00516567854978221 0.00278527519178807 0.000332904661778313 0.000797589418688312 -0.0074788324703918 -0.00950655661353833 1 -0.00232578194266947 0.00579768804812616 0 0.00521123270732001 -0.00683004499082911 -0.00832869767661423 -0.00567024028359538 -0.0053489531558819 0 0 -0.00299676556666347 -0.000717934146361077 -0.00216227525239514 0.00541654081099548 -0.00807875847156853 -0.00674427078838207 0.00398219930803338 -0.00248954909307945 -0.00177631254203013 0.00158493574850497 -0.0015823594311344 0.00731894778811057 -0.00401293611390691 -0.000641348335092503 0.000738336506323061 -0.00142395137001975 -0.000493769908838175 -0.00317977243620466 0.00360063594038736 0.00846092713650477 -0.00104945535565144 0.00376446887202373 0.00450281234959192 0.00424301635432925 -0.00168502698944413 0.00920324640764063 0.0012378516953975 0.00544596478852393 0.0107102591025639 0.00489972742678718 -0.0053186516172413 0.00167615512595994 0.00321272094822605 0.00364467464583487 0.00425091273008671 -0.00142059439751134 -0.00314437674948481 0.000119268877749389 -0.000711303334595961 -0.000599967193294122 -0.0104406236293575 -0.0125502392343848 -0.00812660902951093 4.33323110119527e-05 0.00550569985217618 0.00580221129450488 -0.00327231045294363 -0.00615652770498955 -0.00637635805065288 0.000369995719908271 -0.00218195339827703 -0.00052928821737136 -0.00172883644442427 -0.00180684951210939 -0.00430194221903584 -0.000138868042399432 -0.00540893436688716 0.00120646315956141 0.000255497929195654 0.00349577774776925 0.00179737885573779 -0.0027227569630993 -0.00156233316166487 0.00480240268736938 0.000414367655120436 -0.00328726212953383 0.00669380741305156 0.0091727067905043 0.00256889235751722 0.00414152455987639 -0.00385546274777799 -0.00130487960805418 -0.000772624089010129 -0.00173888107776406 0.0051010966478342 0.0031367298879317 0.00247445849418728 0.000641008113749697 -0.00273325538454234 -0.00267301091111597 -0.00346279323490941 0.00424899525664013 -0.000106723089694674 0.00260478728662118 0.0033761299026464 0.00620420595269194 0.00500171118123263 0.00411865878908356 0.00144411967406019 0.00288971892497013 -0.00826045015328094 -0.0022586858796084 -0.00196039764142051 0.00152676374984768 -0.0103848767381276 -0.00199414945684894 -0.00385959015308456 -0.00340445091147901 0 -0.00180202571766046 0.00905513716750298 0.00261762391651682 -0.000510688891940853 0.00208090043375535 -0.00102638039117854 0.00161660711062533 -0.00466531416767524 -0.00337368954305362 -0.00304849743161164 -0.00219601056988308 -0.00343088457759021 -0.00444058934549013 -0.00344417476384127 -0.000289949266502785 -0.00239684547282338 -0.00426674429013809 -0.00312468242005141 -0.00325601060520649 -0.00421119672201482 -0.00400810585984064 0.0013794635197904 -0.00853655556598883 -0.00428484104373836 -0.0034510994279457 0.00011069674499399 -0.00474347473198526 -0.0147421673261707 -0.00752954574701333 -0.00222669206196852 -0.00573176587457393 -0.0122292259904591 -0.00245302603227041 -0.0096005477981155 -0.00960218488201837 -0.00534515237362346 -0.00453699215929156 0.000148008057880418 0.00632184096189314 0.00573480156687524 -0.00735648981084381 0.00212518998994113 -0.00826230659939011 -0.000102628370663414 0.00714704321761612 0.00504204026647368 0.00234369390110568 -0.00393595762431606 0.00730872071374565 0.00328575734179461 0.00616734667947093 0.006138354945278 -0.00352157822095785 -0.00759703594794385 0 -0.00530212099087971 -0.00626924563037624 0.00153384511662415 0.00421225249096626 0 0.00709454785393629 -0.0003919490297288 -0.0076552377311642 0.000889294664966069 0.000993061394074043 -0.00906520932006005 -0.0055609353737844 0 -0.00181525788615205 4.86649942926385e-05 0.00115694827325935 -0.000593250456575147 -0.00379173267967862 0.00284957617508052 0.000526547441796463 -0.00215341226433371 -0.00330787691334874 -0.0104834337047972 0.00559936591579812 -0.000595153248582135 -0.00610239408632535 0.000526602935118044 0.00530805682091067 -0.00490430553377056 0.00206640438581052 0.00196227465791851 0.00782700097286067 -0.00226524469087122 0.00587658894635777 0.000685011678320148 0.00338822041332549 0.00388667292077383 0.00817641428439225 0.0089908657087455 0.00951879526159002 -0.0028057438415171 -0.00238732516946905 0.00582436447525963 0.000834307124906279 0.0102191723394684 0.0028251044068671 0.00385904500465381 -0.00351205144345854 0.00117290156876516 -0.00282192686136152 -0.002281140862916 0.00628000765568624 -0.00362003502642711 -0.0023082806860775 -0.0020778657631161 -0.00442784964894414 -0.00574516068876218 -0.00537849507968514 -0.00902743571752846 0.00111267242789904 -0.00768754653419951 -0.0045614644017709 0.00493317603240163 0.00171412059010414 -0.00127190341365571 0.00207173156905222 0.00210229769028524 -0.00274235628234241 0.00205838360518384 0.00350820301802113 -0.00116363275447242 -0.00726904370288168 -0.00852044911135799 -0.00120360593028309 -0.00473353148585472 -0.00367630439046344 0.00384621647834251 0.0073604401345896 0.00380628597607752 0.000902136536262588 -0.00294529667040941 -0.00158027690410182 -0.00601342350843034 -0.00273667612687343 -0.000283649454503564 0.00767294589110732 0.00583066227101334 0.00826340265628391 0.00732739346555435 -0.00192347769977745 0.000168812654703607 0.00328684326159931 0.00284114481357155 -0.00496621079086647 0.000925484717652048 0.000215360291008676 0.00744249255672538 0.00445895113853586 0.000287630071891166 0.00404726413980659 -0.00317153554441048 0.000894282775301457 0.00278307726223525 -0.00529757798196355 0.00360080214107924 -0.00389868127510415 -0.00498703331288428 0.00391370685274043 0.0022856876708246 -0.00277753785070815 -0.0053370551393655 -0.00433470759225999 -0.000475247870139414 -0.00278426489170757 0.00585565958764202 0.0112980811818502 0.00932073999560754 0.00688162912634271 0.00527113308854959 -0.000816700050299827 0.00196521196999576 0.00854644735606588 0.00788699579590894 -0.00583897792236377 0.00134426086646595 0.00126162730279657 0.00206992770718706 0.00758132451350218 0.00337171347954975 0.00121646086143222 0.00280658716392007 -0.00546476785869087 0.00459851281177876 0.000551941282541508 -0.00196034480334295 0.000491644211319248 -0.000608772762507966 -0.00634394661895339 0.00646838015301089 0.0027666239846601 0 0.00262657840897522 0.000885611737572532 -0.00764510881752011 -0.00757998584728305 0.00143611065846166 -0.00183061079626097 -0.00670202978914726 -0.00492341874282852 -0.00763450254708745 -0.0013892726417399 0.00198598575666731 -0.00544380402039571 0.000692135343323829 0.00313953483866522 -0.00830676687621041 0.000403241124791901 0.00116605206974991 0.0047470432212413 -0.00187561424617897
0.00168707683323401 -0.00269636664583896 -0.00954377618115259 -0.0059945144523982 0.000590023282652417 0.00112615077775295 -0.000669634299432827 0.00218711008722715 -0.00232578194266947 1 0.00471919045091231 0 0.00193010588675633 0.00331486279075958 0.00333824289377014 0.00159425410428239 0.0054895156092609 0 0 0.00258619618513191 0.00675660205843603 0.00153779504010039 -0.00415642671385355 -0.00575648429046377 0.0019087704497379 0.000393191894520619 -0.0065499725317094 -0.00423106454218052 0.00453449545335078 0.00219676212298698 0.00417986027809324 0.000923935538005603 -0.0051122984708308 0.00153222751140146 0.00704225964144447 0.00556495731950327 0.00239808242221397 0.0044162051760684 -0.00396672074343182 0.00190762537017892 -0.00610833137941964 -0.00992442863047453 -0.00602167339910598 -3.49469499304693e-05 -0.00172982517578745 0.00272112947582253 -0.00895378966625543 -0.00452830855263276 -0.00480586152998358 -0.00471083456687461 -0.00222338322625842 -0.00466864670131757 -0.00233481146516731 -0.000763603663553341 0.00180795214786171 0.00237530237809374 0.00270419296037159 0.00377890348876391 -0.000953294553237991 0.00251219103387577 -0.00216281199495011 0.000650636814652558 0.00656835848852624 0.000136479044024614 -0.00263119456270976 -0.00374618904079872 0.00263860987461177 0.00189449094412748 0.00153574833764223 -0.0028929673305804 0.00302487358617212 0.00106622780182616 0.00751603793733295 -0.000361513298666538 -0.00470427826415515 -0.00106872289588102 -0.00151440826360683 -0.00391082192228964 -0.00137849820477498 -0.00061685787608367 0.00101870446715115 -0.00267704494893085 0.00289047272546109 0.00409593782875836 -8.28125343836123e-05 -0.00164285006362896 -0.00421142061439733 -0.00119167951810574 0.00405069479740218 -0.00409236338972861 -0.000364917262351104 -0.00374213867582918 -0.00226425203107275 -0.00539013954003946 -0.00176790263697381 -0.00753297077674456 -0.00140779940145533 0.00233113865622411 0.00417433965430689 0.00291030640542483 -0.000821725142118112 0.00326577734027892 -0.00118064027857251 0.00206934906155272 -0.000633386167939644 -0.000658492844802645 -0.00391866151421647 -0.00347892663797767 -0.00310229650941566 -0.00161422031288604 -0.00110923819602218 -0.00838440290068399 -0.000472959184302889 -0.000528821440696539 0.00342838142909572 0.00288154545698921 0.00766003629558158 0 0.00103741901548356 0.00217179769175717 -0.00236356528971934 -0.00359047349186079 0.00849659120228109 -0.00072981794826264 0.00654429348742771 0.00124320099274519 -0.000881632744676378 0.00104887876608192 0.00590388735927532 -0.00271283231455171 0.00419788768586586 0.00271092720072667 0.00176325477227591 0.00596856976192956 0.00596569812989819 0.00384473488583637 9.54853470074156e-05 0.00396522639509686 0.00172609751265279 -0.00205154490023805 0.00184232328699759 0.000459356665053493 0.000936314518126707 0.00184680400755701 -0.00572495625341012 -6.86312353877204e-05 0.00214047755572584 -0.00318176528181968 -0.000890496995929115 0.00257022386349481 -0.00135843617218854 -0.000331071983189873 0.000958814992450182 -0.00257024339283973 0.00204359695924648 -0.00133255702388996 -0.00192841061279395 -0.00584051601337271 0.00191345806304303 -0.000691413865679294 -0.00361046546047843 0.00193220003469353 0.000732168632805552 -0.000827260916085837 -0.0061614685330296 0.0027870522171602 -0.001990500350678 -0.00599277330008065 0.00292683456594137 0.00164124646829397 0.0028876213150084 -0.000552961685367331 0 -0.000423887276311992 0.00270030602386402 0.00376444097388883 0.00291555671693017 0 -0.00330118417983626 0.000118002945610061 -0.00358124258001449 -0.00399269005159889 -0.00295944543326285 0.00277877142280465 0.00202590654993791 0 0.00118108523646651 -0.00223071690269331 -0.000651673782787008 -0.000233732689841253 0.00781502100140045 -0.00412910238264681 0.00548870771994152 -0.00163477611822952 -0.00402905721520674 -0.000181419218254971 -0.00562661539834574 -0.00279368588828316 -0.00286930785362567 -0.00309121915272911 0.00134410687280845 -0.00128129271910551 -0.0055560944152427 0.0022251285823879 -0.00796512040670287 -0.00543109321774871 -0.00789761528320791 -0.00959863246960556 -0.00270055222088067 -0.00405428548938498 0.00045450764876255 0.00483610614226374 -0.000272263862205043 0.00109576613952387 0.00167886178309084 -0.00207746945198512 -0.00171030213580382 -0.0049265744436883 -0.00119634042766068 -0.000555217147089697 0.000959216568914058 0.00393640010856599 0.00231334993915827 0.00130216152268596 0.00189068045923697 -0.00236779547256873 0.000563158350194085 -0.0031215831874635 -0.000482888950734611 -0.000347524876799014 0.00214801016478426 0.00345049424862928 0.00131465466740598 0.00113782391150807 -0.00138446419786308 -0.0019259418970707 -0.00171562447491702 0.00433615652022153 0.00641426562583698 0.0013894344588708 0.00219993741951567 0.000752206883666743 0.00348282236780584 4.61413708741646e-05 0.00146635450092667 0.00507920042976266 0.00350292410380126 0.00170111268782368 0.00343319033210835 0.00262397987383915 0.000563100533995354 -0.00370952406260535 -0.0011388547600121 0.002488917834579 0.00168278313023377 0.000272144860841807 0.00188838803347266 0.00101881985368002 -0.000696031715327467 -0.00378077683215154 6.11171175709099e-05 -0.0017623413579283 -0.00267467123474065 0.00433597377284922 0.00462501799031623 0.00130064477523565 0.00622717425598501 -0.00284525491116613 -0.000104404765998605 -0.000603890100052786 -0.00393925058582187 -0.000472717356110462 0.000559747334079162 0.00504358222749682 0.00297158393691795 0.00308388189517264 7.29080200830917e-05 0.00194335892925463 0.00653405303482761 0.00124341002201108 0.00168509759097406 -0.000502776974789859 -0.00215849239074792 -0.00174764246354348 -0.000629854183879141 0.0043504318785417 -0.00087238288400808 0.00657449640925763 0.000710138089648419 0.00131952840297507 0.000841781117529343 9.73194416704161e-05 0.00589509768305058 -0.00174910344544694 0.0055754011652701 -2.49463719569339e-05 0.00413819237944565 0.0017023267191884 0.00571197934123257 0.008833242308237 0.0017680360271356 -0.00214881393022828 0.00727825995448346 0.0046264624696857 0.00427012629142107 -0.000811225089559389 -0.000764127144700261 0.0012711032680583 0.00263651390037984 0.000507617242763522 0.0024015686152404 0.00613555099429858 -0.00255782481770132 0 0.00228596880534452 -0.00163999951340921 -0.00274012394233387 -0.00120401669590417 0.000291134273670294 -0.0038781752894491 -0.00387669408803455 0.000449910047667229 0.00134715470605251 -0.000425972189847166 -0.000713967444921482 0.00060237504906877 -0.00372164258461599 -0.00185805795212405 0.0019658974460148 0.00211739177407708 0.00229785424913561 -0.00137519851198832 0.00222655346734725
0.00645299020436065 0.000169366523339066 0.00697664686081694 -0.00045360209008745 0.00330615014939196 -0.00101381917461086 -0.00654480741059808 -0.00136497191800112 0.00579768804812616 0.00471919045091231 1 0 0.00657678819338431 0.000408229725084082 0.00185821313546579 0.00340766231390175 0.00112702490034448 0 0 0.01007403712385 -0.00359907507447148 -0.00061559230295362 -0.000793642874079973 -0.00687264512293793 -0.00606595582895441 -0.00202326932948504 -0.00473541266101515 0.000681431754719082 0.0013248455800493 -0.00397342191301861 0.00413013801688289 -0.00128587924784442 -0.000155449693268349 0.00354298041448541 -0.00533074403731937 -0.00287903365376504 -0.0027378895436399 0.00408102669558995 0.00576360154150455 0.00481556978425431 0.00637378204904828 0.00042884399943518 -0.00335761281587082 -0.00165644413274893 0.00760304792251726 0.00276482480289693 0.00871679512694192 0.000959724030335205 -0.00135235664043885 -0.00359159601601016 0.00149344305836879 -7.53485138027907e-05 0.00511225721203896 -0.00809442667671016 -0.00328904520796915 -0.00678966812475515 0.00134937911018985 -0.00585370021270182 0.00742512756136688 -0.000884834103519668 -0.00689115929820485 0.000899120415608856 -0.00228074720722486 0.0027978953912506 0.00220050158452516 -0.0041832427114197 -0.00145497469689533 0.00117344731969345 -1.24809014755354e-05 0.00309694641084358 0.00176869133572737 0.000504682715972187 0.000875645555970704 -0.00555429835791453 0.00334971224213221 -0.00339395643448616 0.00203050147783002 -0.00584645858573019 -0.00526237021476997 0.00329489244039056 -8.45014400688485e-05 -0.00264736019229117 0.00148205312653873 0.00214699367299021 0.00312595027630007 -0.00262952200265016 0.00243328057842674 0.00154342701414882 0.00369781987755251 0.00561046078967466 -0.00164556131570712 -0.00661426932168625 0.00377399739711938 -0.000635814876927474 0.000800151899128908 0.000222346712177951 -0.000401485346020924 -0.000538931443369996 7.43595487153714e-05 -0.0016799562171415 -0.00408163724188117 0.00135699838483612 0.00652702531247161 0.00527162259924785 0.002976234842546 -0.00170725225146074 0.00463570444283177 0.00387600319829323 0.00446329532164899 -0.00296534286621119 -0.00493676092804585 0.00101774607568928 0.000665691083708953 -0.00296603050398794 -0.00573129711409965 -0.0037118429074578 0.00146485691973143 0 -0.00173759903133391 0.00297815929317326 -0.0027194179036483 -0.00191984191543553 0.00143329728094406 0.000692974869469738 -0.00350313840877557 -0.00250877953833411 -0.000934512552169229 -0.00275493954973541 -0.00181083976383905 -0.000259334414400875 -0.000846632677909409 -0.00565924354544149 0.000580315752755376 -0.00138205577447451 -0.00238254315084414 -0.00168454575901564 0.000109959706799084 0.00112128688403825 -0.000675804544080806 0.00413274563326859 0.000532623178179163 -0.000518756681584447 0.000683063030087945 -0.000345774051002016 0.00453505356137858 0.00447261975267365 0.00302676253959087 -0.0072930295102451 -0.000281431619103322 0.000350915831183774 -0.00563634893198894 -0.000249855310381916 -0.00356582888999704 -0.00388701352704135 -0.000582346257208615 -0.00229685002114564 -0.000775458389967152 0.00461400786804346 0.0013352413121853 0.00520930704968856 0.00338091866551489 0.00718025289413287 -0.00273941716617354 0.00436910523521357 -0.0020747614220506 0.00413533535243279 0.00304010878327779 -0.00465756817115246 0.00250997356632775 -0.0062950898779231 0.00165368546367528 0.00131736571972265 0 0.00185789334975744 0.00352929372583232 0.00639752794134055 0.00730993245651295 0 -0.000216241704369568 -0.00224394311663147 -0.0038131389275391 -0.00340838294668863 0.00125068678871112 -0.000501479158362816 -0.00341896771655038 0 0.00121755040162771 -0.00206539771934372 0.00501937224109399 -0.000977560501261981 -0.00275872756471473 0.00308593695092856 0.00291468861317429 -0.00121926810766269 0.00383187807096594 -0.00103826071694477 0.00826911967732602 -0.000336179896512887 -0.00475293297525333 -0.0045656880749392 0.00260494223684226 0.00179353506451286 0.00177860134441654 0.00481324497721753 0.000771422526669459 0.00313367448214261 0.000235761393062155 -0.00178503122962236 0.000700385604546634 -0.00445761770270909 0.000426266503739816 0.0040593039058529 -0.00304747724981766 0.000940166423067652 -0.00739584427127346 0.00322974062382752 -0.00738061282241862 0.00513513625501634 0.00111611265257253 0.00190228556250231 0.000113895960223937 -0.0049562732978194 -0.00632592489643235 0.000139811794765797 -0.00292794589730138 0.00192294849930058 0.00137345690144561 0.00458474073465495 0.000748258194443593 -0.00221826695774859 0.00123153695868645 0.000549730293469686 0.000575133989045234 -0.000563833669207479 0.00367793741576656 -0.00213119157404379 -0.0086021844801257 -0.0094168965826597 0.00118552301467739 -0.00833800164014065 -0.00701590151979522 -0.00150908083305491 -0.00198963959909932 0.000494590665745292 0.00463664217496777 -0.00360940696436888 -0.00660508656410327 -0.000682724602189631 -0.00285747299795066 -0.00372409856733544 -0.00334714424049368 -0.00185183878541936 -0.00127381637261779 0.00400324767902604 0.00328446643522914 0.00214949504431398 0.00113413744376327 -0.00301194780430186 0.00153290702477004 0.00321804882258914 0.000895691168279515 -0.00263942557927651 8.73643527678487e-05 -0.000888809573255167 0.00149790047727086 -0.00463696195823764 -0.00813593555886432 0.000817801180100819 0.00224537231454674 -0.00789864801684412 -0.00106453905249241 -0.000671996064188812 0.00292966824134199 -0.00964205962595645 -0.00726032828631911 -0.00166735147209051 -0.00789053889313849 -0.00931957829578919 -0.00447615375280956 -0.0069393593035025 -0.00461600960807964 -0.000489969435550981 0.00134364027063305 -0.0111353281039053 -0.0012369466738858 -0.00221556062688053 0.00270560612531045 0.000937793201345442 -0.00153735982267767 0.00276379525073656 -0.00421029320502818 -0.000697644235935036 -0.00544878092666355 -0.000946768183735162 -0.000700812908579641 -3.41671643317138e-05 -0.00125523792077822 0.000685327257762285 0.00414022063998899 0.0019734240732162 -0.00223916988683306 0.00606666770208353 0.00336398155610657 -0.00342209387989957 -0.00256164661518799 0.00606304540980294 0.00397276334082485 0.00522094017491447 0.00469645776295382 0.0046906135582759 0.00197544767968799 0.00210818082933837 -0.00247359956471939 0 -0.00319571335415764 -0.00415828299015043 -0.00387670771554442 -0.00853776285030199 -0.0040667659105152 -0.00378158962852449 -0.00401975326625998 0.00111694787497922 0.00160585090088122 0.00148463817540108 0.00525686221535288 -0.00637005346248988 -0.00291032623305855 -0.00132824134222904 0.000912531063629414 -0.00558156133971339 -0.00103410688514995 0.0011433809116636 -0.00132250056965624
0 0 0 0 0 0 0 0 0 0 0 1 0 0 0 0 0 0 0 0 0 0 0 0 0 0 0 0 0 0 0 0 0 0 0 0 0 0 0 0 0 0 0 0 0 0 0 0 0 0 0 0 0 0 0 0 0 0 0 0 0 0 0 0 0 0 0 0 0 0 0 0 0 0 0 0 0 0 0 0 0 0 0 0 0 0 0 0 0 0 0 0 0 0 0 0 0 0 0 0 0 0 0 0 0 0 0 0 0 0 0 0 0 0 0 0 0 0 0 0 0 0 0 0 0 0 0 0 0 0 0 0 0 0 0 0 0 0 0 0 0 0 0 0 0 0 0 0 0 0 0 0 0 0 0 0 0 0 0 0 0 0 0 0 0 0 0 0 0 0 0 0 0 0 0 0 0 0 0 0 0 0 0 0 0 0 0 0 0 0 0 0 0 0 0 0 0 0 0 0 0 0 0 0 0 0 0 0 0 0 0 0 0 0 0 0 0 0 0 0 0 0 0 0 0 0 0 0 0 0 0 0 0 0 0 0 0 0 0 0 0 0 0 0 0 0 0 0 0 0 0 0 0 0 0 0 0 0 0 0 0 0 0 0 0 0 0 0 0 0 0 0 0 0 0 0 0 0 0 0 0 0 0 0 0 0 0 0 0 0 0 0 0 0 0 0 0 0 0 0 0 0 0 0 0 0 0 0 0 0 0 0 0 0 0 0 0 0 0 0 0 0 0 0 0 0 0 0 0 0 0 0 0
-0.00283473186532397 -0.000510984564253645 0.00658105847770548 0.0028153216171233 -0.00390897742791654 -0.00675782739096662 0.00135773714853042 -0.00227511194590228 0.00521123270732001 0.00193010588675633 0.00657678819338431 0 1 0.000532164225188263 -0.00556316790571216 -0.00316028037819848 -0.00252516929744008 0 0 -0.00513998127359587 0.00019329335211496 0.00833219347035238 0.00671951063022334 -0.000369464171929103 -0.00324104666042915 0.000913758885423283 0.00775508348384251 0.00521486516543433 0.001777810061856 -0.000107691464230429 -0.00194233941990459 0.00214634258810212 -0.0029010017659611 -0.000467527155188011 0.00334979950049971 0.000602452052911762 0.00167948461595776 0.00674196707155231 0.00377121528718897 0.0076466062937917 0.00162968665357188 0.00256574651155113 -0.00470891316849487 -0.00274162932743748 -7.04733059582532e-05 0.00303749012818057 -0.00108119070007534 -0.00187115703053228 0.00738619158732393 0.00189810590109767 -0.00243927900840354 -0.00301799196564058 0.00992413586953882 0.00450560276589942 0.000593372093210688 0.00535218987649104 0.00406516610811603 0.00582598014791686 0.00252532317431439 0.00624708029837793 0.00240037439414007 0.0030345285596584 -0.00252021424005491 -0.00937842019146809 -0.002798780240732 0.000791708191603668 0.000577664248804996 0.00108815010335277 0.00121123908515845 0.00232530248334102 0.00375607839503577 -0.00075606699504412 0.000253212708930729 -0.000653532924525863 0.00143665274821713 0.00698730219159913 0.00115264571600077 -0.0044250483544821 -0.00205285454784253 0.00266215216433502 0.0051504806602781 -0.000907622351696041 0.0020028043870842 0.00110239653600325 -0.000304670032674125 -0.008812752068225 -0.0109461189276033 -0.00411550126555207 -0.00270910070296251 -0.00475740805805369 -0.00571362374919077 -0.00158315867328783 -0.00184372142448955 -0.00319895767285921 -0.00503131241945721 -0.00641213567080629 -0.00496878366460156 -0.00318864768182166 -0.00301648544611645 0.00146470438835412 0.00371240186204594 0.00803874973117175 -0.00180214694283028 0.00159851707909461 0.00536258501775516 0.00539842275643469 -0.00479251998265292 0.00829323396788721 0.000744584576628127 -0.00248996898603685 0.00503263254239459 0.00324354170882843 0.000221342290917563 0.00117659159999569 0.00262828726990015 -0.000604251518818611 -0.000803236195344189 0 0.00168049963434247 -0.00584698018244047 0.00183267383130117 0.00318106575198132 0.00462253303488586 0.00201759043481535 -0.0027597255450238 0.0016352483261255 0.000343185927080545 3.55471881874052e-05 0.000963754878695157 -0.00198596000484004 -0.00324984484992448 0.00705239321536548 -0.00537706940023636 0.00300426517318103 0.00213243479297371 -0.00118961085146228 -0.000583442158317012 -0.00807020379931678 -0.00511291301365333 -0.00826237069825897 -0.00246933974897554 0.0034974261554582 0.000349493841118009 0.00506712901284059 -0.00503661807499411 -0.001029596842174 0.0041212466479189 -0.00407929543719914 -0.00195419928693224 -0.000573250411903298 0.00272203649117241 -0.000890957856122735 -0.00115142843184292 -0.00548076058098488 0.00537998688051051 -0.000252305387187578 -0.0055696302153529 0.00628102259710769 0.00532007403825204 -0.00180641098412456 0.0082946350784168 -0.0023726465478806 -0.000578614664320692 0.0055774274935645 0.00620790852240685 -0.00190017435368485 -0.00436470790129334 -0.000381873015307027 -0.00119084720248333 0.00059396001825474 0.00142613000795472 0.00193105377017632 0 0.00420268032796313 -0.0061712713633138 -0.000519959526232273 -0.00130760277006336 0 -0.00184978754344074 -0.00109120150778103 0.00936836533773422 0.00925790122836149 0.00270723632550463 0.00264178999163681 0.00661670427141839 0 0.00615459568356359 0.0032649069494595 -0.00291555521393231 0.000871574012617943 0.00365572031105602 -0.00106155293193914 0.00102515554599375 -0.0017056374011437 0.000786529380918878 0.00732210764345503 0.00260159683594933 0.00781582528813448 0.0126201494642364 0.00210700297088838 0.00857571086865086 0.00687012336241012 0.00321832190977507 0.00158930745634496 -0.0023039894470118 0.00288932885981039 -0.000640918519618397 -0.000305416265147309 -0.00166791429598522 -0.00400090857954597 -0.00673766654495433 0.00638356131237881 -0.00614722176573813 0.0016170595113482 0.000214202759011207 0.000895347259168452 -0.000264118532155149 -3.85039454051688e-06 -0.00506152798729712 -0.00080245256412654 -0.00339391111874022 -0.00121359333640325 0.00591194740685039 0.00198108664072671 0.00288755724975033 0.0069396937425296 0.00496202706826946 0.00117133787051781 -0.00287468706673725 0.0024688308483946 0.00321073625099647 0.00493083008492765 0.00745477498359833 0.00892461844647359 0.00147927396920541 0.00253519155946226 -0.00273926796936557 0.00495147525978269 0.0108796250644221 0.000103051025844078 -0.000620787765524982 -0.000761308077580255 0.00594063572247097 -0.000813630255567526 0.00366689954978461 0.00643932034644058 0.00155093173241365 0.00103748965275622 -0.00161254068286702 0.00297702192600733 -0.00371944161287001 -0.0072021489757236 -0.00357134400124168 0.000939644911781387 -0.00166274102143432 0.00151031347558821 0.00138566373871135 0.000977874394905156 -0.00648595839876951 -0.00415947369091542 0.0027437615631571 -0.00109252637990299 -0.00551126258628081 -0.00424395294240131 -6.77532744073142e-05 -0.000832790135750948 0.00295708718970839 0.00193260504840923 0.0100067446831575 0.000722026546473988 -0.00019309358868623 -0.00169509551312549 0.00633931680198699 0.00404971253756761 0.00277695029335652 -0.00298661850822332 0.00409891496247724 0.000913835220184795 0.00276652487493779 0.00327886172675216 0.00159326037526194 -0.000411755790763352 0.00576018633756737 0.00446726551023313 -0.0018441440009249 0.000430103037813045 0.00329524006472669 -0.00333995958638331 0.00422985178725115 -0.0081997925909977 -0.000151854046121346 -0.00277930527410067 -0.00170918688614373 0.00100140876619366 -0.00535031621595991 -0.000804586786081612 -0.0016881291398498 -0.00295353273697761 0.00107682970112944 -0.000765453678591279 -0.00189797451204501 -0.001481901008681 0.000373755495219533 -0.00367545382157421 0.000450241748063988 -0.00526157354173078 -0.00719204133547892 0.000278919695854121 -0.00358814029628923 -0.0030055967208806 0.000323237292257654 0.00820971895907754 -0.00388038897233649 0 0.0047024820720421 0.000148816469159048 0.00585824097858133 0.00598439281394565 0.00476033643190014 0.00171494944153306 -0.00382688959270185 0.00454086036400472 -0.00147538538682205 -0.004643204480607 0.0021886024443788 -0.00154563353276585 -0.00756847419757385 -0.000122684540153015 0.00531070716766589 0.000242609855781663 0.00666066265521361 -0.00016273299445683 -0.00161918386657524
-0.000182906182339347 0.00264361600968308 -0.00196483365714816 -0.0050785727581516 0.000693052426666605 -0.0024512551345335 -0.00498598341465699 -0.00272655125096025 -0.00683004499082911 0.00331486279075958 0.000408229725084082 0 0.000532164225188263 1 0.00136816111739049 -0.00115881243207806 0.00126349585383978 0 0 -0.00371528536822719 -0.00190423924838813 0.00209408080147398 -0.000629342928726024 -0.00330244070294949 -0.00116274323205525 0.000138974032683295 0.00143870021376074 0.00157379906020945 0.00613515049033265 0.000447257109877983 0.000162518498100875 0.00213904593676875 -0.00227711690969242 -0.00110599002983478 0.00459692871886549 0.00516870193348876 -0.00107322686569473 0.00229063372406377 -0.00255387860945635 0.00115661661705328 -0.00380919585438511 -0.00269610861749306 -0.00348221940453501 -0.00190494582660071 0.00145875539699538 0.000534109741242986 -0.00296556962956716 -0.00060236042082058 -0.000697641173978978 0.0032580001088728 -0.00933964650893462 -0.00538584807371412 0.00336702896250131 0.00217375705989558 0.00398888738832949 0.00208961437300643 0.00335682012290821 0.00495133372343539 0.000614322846469106 -0.00251295894973469 0.0016025697967049 -0.00583937205638728 0.000803011277557525 -0.00326824890775348 -0.00704560867873882 0.00125194143330999 0.00213663104688124 0.00417650710929761 -0.000445333343932108 0.00169861069664613 0.00173294597672116 0.00237247066218609 -0.00309080464880327 0.00412942226034986 -0.00321561843521065 0.00176556840882666 -0.00462122070969061 0.000862937727822986 -0.00599769445393759 -0.00408177103082338 0.0032757359736072 -0.00624287841736239 0.00270757472494404 0.00358997452916144 -0.00709180081047989 -0.00920639550176976 -0.0103544754781486 -0.00853520352395123 -0.00490683071075107 0.00122909199944792 0.00322043439330005 -0.00187713506364164 0.0022307683739546 -0.00371816538233473 -0.00545316832105443 -0.00784705706344371 -0.00175431565988121 0.000778638986620786 -0.00343913319524068 -0.00688946242015126 0.00227502313414146 0.00615629154901965 0.0022315793116702 0.00552721690381644 0.00183619073643136 -0.00501280394178464 -0.0034385316915555 0.00701761687847919 -0.00214353447750447 -0.00523391796279856 0.00276239707786166 -0.00208944704078144 0.00163044964764883 0.000215143262782734 0.000668093454536047 0.00128314466826621 0.00122788263502123 0 -0.00158840218533002 -0.00617423916392913 -0.00137240166158023 -0.00414322337208002 -0.00271849134058499 0.00344329413137898 0.000728856545668256 -0.00444516596288198 -0.0033791264065751 -0.00755533133194046 -0.00470411742819759 -0.00650238150078818 -0.0102167536884282 -0.00729334691609211 -0.00729529412741001 -0.00802704814413579 -0.00580072795023958 -0.0064514087161036 0.00843116878331739 -0.00102464644406769 -0.0052384616778075 0.00315536228939286 -0.00300138014903467 2.22961686279991e-05 0.000708413793118943 0.00286544095410996 -0.00381506184003261 -0.0014575879405317 0.00996151799934719 -0.000121372890813899 0.00143254673717141 0.00248703672554266 0.00038915260389949 0.00135702681501778 0.00730496251390838 -0.00256004062713104 0.00306949795242948 -0.00530211825383451 -0.00220945726126213 0.00143062548535147 -0.0010309391125102 0.00194720449824518 0.00284762663218862 -0.000126890248664636 -0.000852202126764284 0.00497477458767121 -0.000534836305161806 0.00633533738369167 -0.000647934525410403 -0.000310193623780239 -0.00407269676553601 -0.00471471862588247 0.00541519258334195 0.00261551859238149 0 0.00914837932956779 0.00114836653807583 -0.000342746599468621 -0.00115016725741985 0 0.0061311296091129 -0.00163723746667268 0.00198146179344673 0.000195033628286298 0.00286786206856889 0.0015414112555682 0.00646546940466166 0 0.00689071492812357 0.00502083359280938 -0.00327849049523544 0.00228425969600973 0.00112670999941835 0.00228643739954414 0.00197241603621646 0.00235912989344714 0.00294712710602587 0.00970884880196389 0.00190644020827664 0.00145168095952637 0.0042212327731399 0.00038241772822739 0.00271391837867877 0.00613829489428532 0.00241299628928134 0.00610558123091606 0.00197901185758196 0.00341576187537241 0.0010896051649986 0.000919224617952608 0.000603079199042698 -0.000115173334061491 -0.00775305393706165 0.00531032964784846 -0.00532492335340426 0.00574053139943671 0.000909054514910557 0.00302092684740159 0.00207520634718398 0.00232287566974072 -0.00482576626394472 -0.00926057231272545 -0.00305201255355986 -0.00311244597161103 -0.00103536754697374 -0.00194668848746546 -0.00674358751997827 -0.000171896649550366 0.00221924349646841 -0.00280751709320759 -0.00422341498668599 -0.00242274294201416 -0.00352649245657767 0.00376379497996528 0.00519636263164555 0.00125183417861033 -0.00143403341438427 0.00621433346744212 -0.00517512883242662 0.00209187159415669 0.00764528443919378 0.000769508397884157 0.00285867663785795 0.00236152326357391 0.00508464691975947 -0.000723148526487698 0.002554805597288 0.000617545180627043 -0.00508693736230889 0.00337992216980185 0.0021632768056015 0.00417039585699342 -0.000457471509628952 -0.000332298386720799 -0.00318579887117918 0.00396239570930758 0.0021468329172616 0.00645876737714645 0.00292379068279254 0.00103562829329371 -0.00233363708062709 -0.00107415031592176 -0.00855866026024302 -0.00168971733926962 0.00190542990942903 -0.00598224161453909 -0.00849771993486765 -0.00492925448229641 0.000578797118907132 0.00639412903104284 0.00863839740963857 -0.00414663184831032 0.00375322507766309 -0.00165343044906103 0.00285306310822539 0.000426016588093998 0.000391704607168751 -0.00126041982910764 0.00630809283197333 0.000785117315306058 0.00805747114953822 0.00130277796484077 -0.00588441327805266 -0.00638944226425494 -0.00194416925552171 0.00486921804002808 0.00216148481429047 4.75089038570001e-05 -0.000466264481819045 -0.00388558485101374 -0.00668725008087538 -0.00195622852906763 -0.00483732656212893 0.000964109154841004 0.000844434757379545 -0.00539180611992541 0.000446652143060158 0.0101419650351834 0.00740785431473601 -0.00236300394794685 -0.00660233087950737 0.0018568912846207 0.00449149739998708 -0.00828825485829284 0.00142072654016252 0.00523563084386564 0.00202540884193602 -0.00624630891923346 0.00871417978739719 0.00677310075409052 -0.00222305653540586 0.00449546268716984 0.00495635939206607 0.00570416688263656 0.000997024947107171 0 -0.00234230398183103 -0.00239438888755499 -0.00120486056026287 0.00459215907550564 0.000186373646909871 -0.000269674463210812 -0.00382519241659633 -0.000445386136657541 -0.00684093305547407 -0.00235537092043132 -0.00457955294425836 0.00629430978159886 -0.0044019104629914 0.00120477781551937 0.000412031680136941 -0.00226015639149303 0.00723983746516901 0.00474732805811936 -0.00735004874793445
-0.00821528303450858 0.00207073318566253 0.00997369625629695 -0.000749513938721238 -0.00555222326331491 -0.00782422691257635 -0.00337313556391174 -0.000110360495627923 -0.00832869767661423 0.00333824289377014 0.00185821313546579 0 -0.00556316790571216 0.00136816111739049 1 0.00414363011332121 0.00422027130376256 0 0 0.000810799938506536 -0.00142142345098451 0.00722782106612001 0.00189282346759045 -0.00335067465970891 -0.00183273444752472 -7.18871958916464e-05 0.0014492295322739 -9.23420656538045e-05 -2.2116789522088e-05 -0.00128467839076207 0.0062822420464783 0.00629608100460769 0.00218320586061311 0.00151465258965593 0.00595855483012972 0.00289426048495206 0.000286867653959039 0.00492528732753381 0.00478828364451158 -0.00171759602744123 -0.00209311731995548 -0.00017067725977826 -0.00504874787706982 -0.00182204638813953 -0.00212196440013917 -0.0014603943565825 0.000258199583356156 0.00114719564090502 0.00450543356628469 0.00654662133187597 -0.00438127620541514 -0.00362859479736941 0.0116989149354672 0.00777445359977678 0.00272471850335801 0.00312592373640851 0.00745670261956818 0.00508725636500221 0.00658032617550195 0.00218697244298922 0.00102183194731628 -0.00755287072284289 -0.000321236519151382 0.00269591942780388 0.00608918089455259 0.00569100340245226 0.00658495517291729 0.00289735558192405 0.00718561458750148 0.0014032354267979 0.00298674739357698 -0.00427806577763063 -0.00474411733873406 -0.00674528576550057 -0.00654609363501712 0.00392013825376813 0.00565046325092251 -0.00330489752689323 -0.00127516685360728 0.00308629827514713 -0.00353352833502907 -0.00166282700381649 0.00517712270167452 -0.00061547770053743 -0.00417013729212168 -0.00619148270541625 -0.00562736055780963 -0.0102441443639881 -0.00630877176563527 -0.000104232158837153 -0.00787746597089227 -0.00671279634324506 -0.00858760939774855 -0.00797755486355606 -0.0130058882089129 -0.00575153060172516 -0.00578975820392995 -0.000260141287896357 -0.00449185698158241 -0.0065222069684508 0.00212243538785839 0.0110993792234696 0.00815467145827348 0.0113444333565779 0.0050119703733979 0.000193365912120855 -0.0117793315453194 -0.00269760526684028 -0.00949058397402748 -0.00686354721129019 0.0038015119686112 -0.00823353445816219 0.001822243994233 -0.00323687329250983 0.000484545138829087 -0.00192270943753723 -0.00465309589512112 0 0.000600569349447363 -0.00373198573426476 0.000560421265451157 -0.00134472215162197 -0.00134703194948064 -0.000212977819014889 -0.00387513274417341 -0.00813019828664945 -0.00435246045120126 -0.00104485186623601 -0.00466128483828445 -0.00636273924543756 -0.00483683387050826 -0.00207313370889498 -0.0116844834658708 -0.000355321946544091 -0.00192597040124023 -0.00838844402615126 0.00361858882599563 0.000667554035579825 -0.00528558229390875 -1.0184073462456e-05 -0.00246324599386406 0.000705863815922008 -0.00647756292282987 0.00104105037524884 -0.00620334997168695 -0.00502767109112299 -0.00513907149937034 -0.00421691541455126 -0.00714381120338776 -0.00642049342453715 -0.000600996463069268 -0.000416525238168079 -0.00419858054351728 -0.00236180755363289 -0.00329850728635047 -0.0102491445004294 -0.00712934213532544 -0.00444479552050463 0.000387318051233057 0.00201465944676786 0.00328346947233923 -0.00155198350657861 0.00281278456796104 0.014709525390131 0.000621259584877544 0.00656030530780691 -0.00922402132691356 0.0125928822793449 -0.00358553934599427 -0.00389334335276876 0.00936536130461774 -0.000346988349882143 0 0.00720777577369831 0.00348582400328713 0.0043267912561976 -0.00326848263803975 0 0.00326888944849485 -0.000336586148580865 0.0118312112226906 -0.0034987556072663 0.00447620875000528 -0.00538836337722966 0.00792494015092678 0 0.00367215626892353 0.00319789399725874 -0.00769132195074617 0.0116752138550644 0.0140075968728863 0.00104426180664792 -0.000145355975493758 0.00805507834439637 0.00860621543256414 0.00899388876185569 0.0131168063016527 0.00851916146331935 0.00973659420316396 0.00335751426130475 0.0107149530133468 0.0155214813998173 0.00967157434484592 0.0113503618062282 0.0115377164564107 0.00726821706718573 0.00526553135617219 0.00401383136253415 0.00335762983913452 -0.0043559639868274 -0.00310878438092858 0.0119412472554864 -0.0032411150680058 0.00910424199621675 0.00820074743498423 0.0113222857282881 0.00466199677672647 0.00981280208365682 -0.0117445927430904 -0.00626584403267318 -0.00240750705095711 4.61456581072874e-05 0.000675826893263327 0.00684018344591078 -0.000188720955019934 0.00242128272700867 0.00861150293123297 -0.00101293901148151 -0.00199526454109841 -0.00177137416580506 -0.00149046120959499 0.00262016489755972 0.00719658854375459 0.00419800796000162 -0.00627888777551545 0.00410498054929917 0.000549288487449492 0.00375579629585712 0.00560799515693964 0.0050654933949372 0.00453688521254811 0.00613546803800811 0.00787075266642484 0.00860467097889905 0.00103329088540696 -1.80497698667093e-05 0.00187655023096586 -0.000293131942478967 0.0046526880999185 0.0076670333485287 -0.0025378193216516 -0.00197256271359856 -0.00399952357647035 7.94879507885739e-05 0.00416527755870978 -0.00119045227964063 -0.00343379445640701 0.00697337465297199 -0.00794855995500523 -0.00780098621400399 -0.0074546129007757 -0.00592956069031968 -0.000346925739888851 -0.00105730584723911 -0.0062453922174014 -0.0047846083547967 0.00216781593582951 0.010375184311073 0.00940545869588825 0.00484656213219698 0.00203464408109074 -0.000408218894833526 0.00281937060748711 0.0084336646956449 0.00696945704323252 -0.000372084920624589 0.00487654320421742 -0.00103442734613499 0.00714495222456275 0.00279153416776626 0.00410181272085542 0.00293485968733199 0.00245180163888739 0.00468710002484125 0.0037354591543961 0.00152678452404748 0.000883451280009002 0.000770442637365984 0.00219338867802401 -0.00291483269683566 -0.00691757044491705 -0.00227458194293197 0.00143040017178689 -0.0035343505825324 -0.0017363355103533 0.00352274872726288 0.00143571526514002 -0.00133324420557092 -0.00788864879263218 0.000670664411152918 0.00168540408839311 -0.00607864044430979 -0.0040088836976165 -0.000525374790869169 0.0042422740609213 -0.00945506140732329 0.00265554368062068 0.00225926856429513 -0.0046148224870331 0.00335526413990641 0.00534142777767691 0.00931053770969621 -0.00689722397557817 0 0.00319230341755432 0.00416736400192519 0.00352159444863797 0.00929012195455029 0.00108329349117915 0.000370745652696193 -0.000476297678307491 5.64005461831463e-06 0.000710271084111659 -0.00268874778573745 -0.00315192234696496 -0.00174541051563395 -0.0013761942597909 0.00262363698223434 0.00802741199367948 0.00175411872790628 -0.00298844003120403 -0.000859491219677143 -0.00413594228477069
