1 -0.000258089582031865 -0.00801294216597614 0.00432948101036494 -0.0033853698724868 0.00652589203907823 0.00493596152057491 -0.00271379999700254 0.00351191848169788 -0.00700176751675422 0.000854458560810253 0 0.00629224346499915 0.00522717189863026 -0.00658362793799207 -0.000197235806717071 -0.00243459571743237 0 0 0.000656878039416665 0.00154501864456492 -0.00463217660215399 -0.00407832409807781 0.00553776638325157 0.00820392177785385 0.00706767646457673 0.00117141290698795 0.00281279023189795 0.0059793448159369 0.00388739322512952 -0.00798811646924067 -0.00669030389481838 -0.00541712278819201 -0.00569940001814263 -0.00116444908739874 -0.00581462959469772 -0.00517980381107463 -0.0073671479196256 -0.00881553001942826 -0.00717897981529044 -0.00680304862431462 -0.000785050639638927 0.000561405078649186 0.00842459879003839 -0.00946849206685481 -0.00606653694333179 -0.00718637755065029 -0.00729782201303835 -0.00195917050079326 -3.5778813353754e-05 -0.000482467065547463 0.0044620455591065 -0.0083828459419954 -0.00667973307574883 -0.00321324925289718 -0.00483434667381163 -0.0052346879335684 -0.00662401582085587 -0.0064348145659465 0.00308497171075405 0.00741394105216216 0.00875096670887776 -0.00704448035988885 -0.00574479965636901 -0.00883040188251907 -0.00503614566940628 -0.00353729974922698 -0.00210186635569988 -0.00640848766600005 -0.00611825018071027 -0.000600533204970243 -0.00101028242379617 0.0031806338758809 0.00322171071688076 0.00298503947043231 -0.00208266953905661 -0.00685274125128536 0.00624032432192648 0.0041905904730961 0.00553012275088396 -0.000525181637653097 0.00230587084212377 0.0029394057761548 0.00415169975072113 0.00359177594686639 0.00509046162147826 0.0038965808414678 0.00130615890997894 0.00586727990902612 -0.00201629177850728 0.00759333516173758 0.0100746061645204 0.00250384793841007 0.011365722544737 0.00434776644631357 0.00616722042531406 -0.00226779333175541 -0.00277088602022621 -0.00201964701480311 -0.00131863426508326 -0.00796317617209151 -0.0104155228313222 -0.0102500643907715 -0.0110971752192851 -0.00794266003823386 -0.00373340206503648 0.00112918962232185 0.0037034141739159 0.00418792943438959 0.00252313264353334 -0.00352267675245232 0.000835935823667302 0.00408803673127072 0.00694613492125219 0.00670919713225449 0.00920629904300018 0.00842207030629616 0 0.00304128747411683 0.00310191894061756 0.00373047670995144 0.00439459817157265 0.00629599635271394 0.00543569356941464 0.00544814538986681 0.00700354290484675 0.0077221770895008 0.00282589198729313 0.00555137482192715 0.00446402029252602 -0.00170886546553027 -0.00143832473157616 0.00144008637655531 0.00241019017754103 0.00519575581797128 -0.000348939636987676 -0.00611660483710161 -0.00431493662169872 -0.00371361386846968 -0.00263883759538755 -0.00460493184837535 -0.000492701583742523 0.00488596482516268 0.000138435346086469 0.0088229656181266 0.00744550309603369 0.00108571791901389 0.00794126066373307 0.00663222538710065 0.0116356501332881 0.00925671916411982 0.0114423810380437 0.00295920397057106 0.00893484984838152 0.00263374456062212 0.00546605099320727 0.00653530691014607 -9.70384642008048e-05 0.00682695668996729 0.00299075258408918 0.00443152381954002 0.00481160428309725 0.00154615172671471 -0.00911751428368411 -0.000227439997291294 -0.0027638444139117 0.00584281343405108 0.00487142211311372 0.00199370226137995 0.00391774391685477 -0.00879842277492312 -0.000638597078019561 0 0.0017317448518775 -0.00702469832073266 0.000428318218187073 -0.00131282526221083 0 -0.00183017024741306 0.00429938205493692 -0.00543323154820916 0.000291462259935736 0.00720915601102842 0.00819914924520394 -0.00372702419189617 0 -0.00569502137696868 -0.000723720184854254 0.00635825399622269 -0.0063657584811064 -0.0035665568464755 -0.00662993055296976 -0.00131850451257956 -0.0039459181209853 -0.00246322269376591 -0.00827310413538334 -0.00647867204553845 -0.00498186412371394 -0.00228858436261425 0.00515374373946108 -0.00560215349098274 -0.0048723733166847 -0.00491224745708105 -0.00596122516677353 -0.00823626193532591 -0.00703079912549483 -0.00613445082761626 -0.000863976650107369 -0.000248359869417818 -0.000223484285098584 0.00143557895099698 -0.00955169968164646 -0.0047186480011434 -0.00382595579216016 -0.00248725142660739 -0.00530589591624789 -0.00432989130632734 -0.00588771756333899 0.00152615194549708 0.00537988460197848 0.00272742272428505 0.00466435822381525 -0.00858173835506265 -0.00876185290736427 0.00770126099740425 0.00116976029901135 -0.00717360006928141 0.00102286998611174 0.0025009819906127 -0.000841866208437764 0.00453908895692831 -0.000286561792848183 -0.00645096578428926 -0.00391436037456633 -0.000443033910103138 0.00406701734039113 0.00714378768459852 -0.0015191527876902 -0.009634788522903 0.00669107232766999 0.00449697934308689 0.00552152082993477 0.00206029403535385 -0.00617920271123955 0.00253853021628238 0.00135460773968675 0.00287105230578213 0.00110403283826499 0.00386989045732229 0.00364043633306708 8.5045062302635e-07 0.00244104775085414 -0.00236547613912502 0.000869150445574514 -0.00662778043228086 -0.00485726384375352 0.00356957295582656 -0.000885123198639964 0.00549550475738346 0.00190505180930939 0.00114643503337924 -0.0013437442737019 -0.00368589511070223 -0.00194063870608261 -0.0011012570294871 0.00140567055750025 -8.60555729095355e-05 -0.00671901226510301 -0.00777811504756643 -0.00293895409165182 -0.00698050927005836 0.00336192068830696 0.00365292290604491 -0.00324008108058588 -0.00205181891254431 0.00235029907713211 0.00791258239841203 0.00798323833141181 0.00619598126822117 0.0049721905388698 0.00556849872387943 0.000705626689885997 0.00303650091507073 0.00531444288555635 0.000968712276405661 0.00276923029437603 0.00497574534757181 0.00535919739311837 0.00388509668400064 0.00675622408027489 0.00457522609654916 0.00235120038981071 0.00174397538222521 0.00329963349267449 -0.000317053822446145 -0.00249552884553711 0.00158578033622148 -0.00320731323863908 -0.000622443249145408 0.00448247313858643 0.00319402439293531 0.00209664376278826 0.00161957355622704 -0.00179655108572034 0.00321194130139484 0.00155043446826166 -0.00428480562869662 -0.00252349218724327 -0.00595759805036588 -0.00731154786689938 -0.00532210737209642 -0.00202741382556579 0.00176283333229311 0 0.00642052277452963 0.00605255545757715 0.00601499072860073 0.00458732441295117 0.00764402305607118 0.006827946621922 0.00713784832114986 0.0100477209396072 0.00787657829333908 0.00584002219190856 0.00814642149689054 0.00223596156395888 0.00192421937135814 -0.000683058157356148 -0.00429198362474278 -0.00356883324959942 0.000419921761393561 0.00122269361292339 0.00507034796792308
-0.000258089582031865 1 0.0017584069492148 -0.00702703816603918 -0.0040043507501792 -0.00529826820611395 0.000256648785623276 0.00427938765845098 -0.000489498502330415 -0.000319903989670219 -0.00117554811197044 0 -0.00125971084465377 0.00102287361203131 -0.00294908852362882 -0.00179594244977329 0.000159937107249569 0 0 0.00140743643773805 0.00746443171286413 0.00519402694632181 -0.00125323813240157 -0.00261328533169377 -0.00299070433831669 -0.000141915284980885 0.00286982437091238 0.000541543662180835 -0.00241304458884683 0.00585245947741812 -0.00669119340529235 -0.00729787444021081 -0.00448907323280089 0.00103965574150849 0.00234290039434626 -0.00103298761017611 0.00452460227249978 -0.00418245107306719 0.000334089188088286 0.00383988050503598 0.00646468065428755 0.000809599403459598 -0.00301052387208523 -0.00803173900022673 -0.00153885420419934 -0.00369825490809874 0.00154123079381918 0.00134758379809436 0.000969642254262114 0.00488490920534868 0.00115427675373216 -0.00496508200932328 0.0022449466067785 0.00464628153435135 0.00322053565920208 0.00260791697950816 0.00453199699384839 0.00482980512286073 -0.000710500359277431 -0.00148713038845431 -0.00530502126207832 -0.00208548241964598 0.00377295900675581 2.04609054811223e-05 0.000898909021839398 0.00226128943826067 -0.00117015758314576 0.000631891426991889 -0.000461301041921049 0.00168967197331652 -0.000398218542833049 0.000612174595737425 -0.00291433860029198 0.000878371983629659 0.000373573778243162 0.00186483136722599 0.00320861480694719 0.000337977433699075 -0.00119146448577275 0.000760345587111726 -0.000973315797772778 -0.00126427954541079 0.000970963255227902 0.00211090757696534 0.00249608171043174 0.000965764182038637 0.00156223896755446 0.00230071589669745 0.00108248633810248 -0.000517737368803786 0.00194332879398271 -0.00078862216993028 0.0011557040052282 -0.00543246652365827 0.00103244524349176 -0.0042461201041115 -0.00210117622151031 0.000141562294745935 -0.00253715750949727 0.00381074864103613 0.00873521574119416 0.00642417597509092 0.00489835154681374 0.00542150332200152 0.00781166411724587 0.00255320047503456 0.00116336020955767 -0.00219706179193574 0.000192704940793339 0.000222396962822688 0.00383289464104673 0.00157255809686935 -4.49375062759013e-06 0.000732277919376457 0.00211205096484875 -0.00316427718941432 -0.00358990728274617 0 -0.00266523258157183 -0.000193488136689974 -0.00173058340547633 -0.00443946231801327 -0.00161938568872148 -0.00425941235625784 -0.00231846100413976 -0.000664408598019398 0.00206472601088279 0.00249194702721221 -0.000108710335729221 0.00380931814185432 0.0040016663947881 0.00382007142510765 0.00309827934856122 0.00178902025901581 0.00133502192921516 0.00613075698801772 -0.00352737668734919 0.00501326455079566 0.00431460598423553 0.00190422048421913 0.00684637381368901 0.000783751792839429 0.0026881692391702 0.000757534395724117 -0.00490906219431468 -0.00379609036549207 -0.00259170507093574 -0.0013232321125798 -0.000649442823069439 -0.00658682284625351 -0.00419463674836619 -0.00450246196738448 -0.000737198911223662 -0.00271087760265036 0.000543370102848991 -0.00360124515204887 -0.00489769935781937 -0.00191922027822575 -0.000626694779910732 0.00166879857975288 -0.00130869644187434 -0.00112165860503311 -0.0011537141264428 0.00146264851524191 -0.00273702521073194 -0.00580506848369072 -0.00603753307557143 -0.00419503818176463 0.00278248456996895 0.00107095522552799 0.00392729083110518 -0.00236957794287677 0 -0.000919704595010272 -0.00267489479607649 -0.000177130809964683 0.000640875217449697 0 0.00198141188448876 0.000841940496341678 0.00324105706217908 -0.000806775713993317 -0.002808405602487 -0.0032498238605311 0.00777724390254922 0 0.00318655414374727 0.000644941627973114 -0.00300515457547842 -0.00477174870363571 0.000692615212473295 0.000632464922670973 0.0028249417706135 0.00307170059860795 0.00560896544174081 0.00395351613877248 -0.00165099700118989 0.00226430110462752 0.00105173944228712 -0.00647592005577904 -0.00394157985623118 -0.00472352100958025 0.000617866410288072 -0.0047733539237297 -0.00193869680659174 -0.00142757306626682 -0.00126695033044519 -0.00507289232972677 0.00170820202785049 0.00080700665718778 -0.000192601289522229 0.00259102780126771 0.00192780395722336 0.00343709091658344 0.00481856285142639 -0.0053432983692088 0.00287539034599831 -0.00335580893108114 -0.00607106882441861 -0.00528346657157073 -0.00323457276542581 -0.000283210536612027 0.00321435619960231 0.00200361955301285 -0.00334000628743265 -0.0014983567463349 0.00154643715008661 -0.00146287174019909 9.18266512208232e-05 -0.0014588290868639 0.000306714995580781 -0.000532726780511385 0.00110449501425717 0.00296361607548346 0.000939591294128774 -0.00519451227483985 -0.00412215153836896 0.00109056590814057 0.00481887915141304 -0.00447855953966081 -0.00281131018261141 -0.00397066959730699 -0.00134992954358961 0.00266860816233529 0.000192634606059389 0.000451406832626567 0.000713585593331811 -0.000791921066605848 -0.00192342193226915 -0.00110035570705692 -0.00211129182341888 -0.003269931357214 -0.000800089811576523 -0.00203307931776571 -0.00327230180432733 -0.00403586626156309 -0.00190560179500644 -0.00370376284970571 -0.00575339681861675 -0.00576735513756615 -0.00339842822367354 -0.000639979161833333 -0.000484462488706572 0.000275309482214986 0.0029159984341642 0.000994022442580888 -0.000972230409553547 0.00395564799320503 0.00333401196258871 -0.000119063692030405 0.00338693110291203 -0.00798302723545538 -0.00567706466883697 0.00354930851352602 0.00224021235188448 -0.000561799662354342 -0.00246640306229073 -0.00256400987354478 -0.00427966711169792 -0.00437636644699212 -0.00349940504430755 -0.000779923694396765 -0.00425021740286801 -0.00313999998910525 -0.00220110086810907 -0.00331474537110225 -0.00282841653171389 -0.00417552779378583 -0.00388603198136946 -0.00170290085871411 -0.00189678808125067 -0.0022837175589981 0.00207086897158734 0.00209592212201736 0.00162469349082062 0.00291584762665454 0.000320421498108094 0.00263224526853461 0.0029897283957732 -0.000585552912628596 -0.00139629330892975 -0.000310562704465871 -0.00106563290580737 0.000578025723786056 -0.000621539237916214 0.00281621453851391 -0.00374728967638054 -0.000630675316363269 0.00160382113590026 -0.00415356948173165 -0.00474034729353506 0.00031420526710014 0.00211192051428127 0 -0.00704344430207538 -0.00631892709277543 -0.00400182847393908 -0.0062299295910453 -0.00470627140883145 -0.00429167402714526 -0.00601159855220319 -0.00643645281369335 -0.00574534019014058 -0.00364030541506387 -0.00481278581007677 -0.00327561985326237 -0.00683923030571235 -0.00207890464500012 0.00039123638304556 0.00289461727588341 -0.00036978559464607 0.000234854026679342 -0.0011054426207111
-0.00801294216597614 0.0017584069492148 1 -0.00439903484567527 -0.00383655389061782 -0.00663278582127142 -0.00526270187930864 -0.0049533547156058 -0.00730646057836358 0.00821805400205543 -0.00281215407091713 0 -0.00185765887392447 -0.00188418223224615 -0.00278883935900533 -0.00243373559997197 0.000810800892542345 0 0 -0.00333063714902667 -0.00260305997760107 0.00781187304132369 0.0052585677451837 -0.00635320613541764 -0.00850122818748114 -0.00770226079522426 0.00212201687097004 -0.00318843903037215 -0.00396897690303017 0.00101784829338704 0.00562188802264723 0.00426934545392402 0.00441293296761457 0.00913490677280224 0.00362480140599502 0.00572453661364737 0.0087063741360857 0.00341712986492953 0.0122016707183541 0.00578011965753181 0.00578455733393038 -0.00176772386781482 -0.00132005875343019 -0.008521078010436 0.00565192703454776 0.00531133113635918 0.00815700083464588 0.00682909256782421 0.00114047209869307 0.0015220360792795 -0.00636383233361089 -0.00801925413487378 0.00924863751491412 0.00462659218155277 -0.00113474616439243 -0.00143359946179791 0.00427627935978905 0.00345342510607872 0.00388473506273322 -0.00228916134479089 -0.0050133233726967 -0.00618903182033807 0.00209450396109074 0.00261172666485138 0.00696013692381631 0.00260873950949572 0.00234805005756668 0.00109849929426992 0.00360773814513315 0.00846500707916713 0.00264900522257609 -0.000263270323422546 -0.0045152974611319 -0.00566535018894703 -0.00550116673980479 0.005183565278083 0.0110533048218434 -0.00770863407744136 -0.0037353527458104 -0.00541391057685269 0.00181560863157798 -0.000143068827415562 -0.00271958984954882 -0.00184196210618256 -0.00443539892565186 -0.00432550888892101 -0.00439674007352889 -0.00704046657425288 -0.00367554656889985 -0.00283933772126687 -0.00263902669638999 -0.00518250012562701 -0.00579619450920499 -0.00979154808272313 -0.00608013141699679 -0.0100750174522456 -0.00508820675132698 -0.00503496976297534 -0.00483539551935825 -0.00765194829568045 0.0137925476950447 0.0127106191110146 0.00662362813065247 0.00834045097438907 0.00489528824328119 -0.00121093666422076 -0.00407886049627485 -0.0106892736160205 -0.00783179068032008 -0.00572893195474502 0.00866821300867306 -0.00258336446303904 -0.00806186645123809 -0.0060573583318868 -0.00541806668317575 -0.00762436705808259 -0.0063929384743763 0 -0.00519150650226146 -0.00291579696917702 -0.00643978288973905 -0.0054166482234719 -0.0082274384076636 -0.00552159772752385 -0.00418325713357845 -0.00688994539820801 -0.010191605604535 -0.00161915743090836 -0.00391510091510171 -0.00698312297854998 -0.0058971974989471 -0.0045015171028222 -0.0065368182925514 -0.000568663342905123 -0.00652517331393834 -0.00301674312150392 -0.00299295477484904 -0.0029944114042534 -0.00317816841581306 1.24626562280242e-05 -0.000432549478435058 -0.0019006457154279 -0.00450968054608508 -0.00283501423154347 -0.0101868854782956 -0.00852176658430908 -0.00562746435911912 -0.00853992350836383 -0.00713139703747594 -0.00876745612045368 -0.00949564463352832 -0.00734111097170703 -0.00410179796888951 -0.00825947040291549 -0.00706950836730902 -0.00888450404160413 -0.00955803227901428 -0.00305134780497345 -0.00764611568573494 -0.00261438351679274 -0.00525647612475174 -0.00571776401420127 -0.000562886584943159 0.00912720022109026 -0.00228016927272602 -0.000122140797515284 -0.00751388720182278 -0.00537703710742287 -0.00167198531336603 -0.00732412927656569 0.0105262206859389 -0.00111339137486073 0 -0.000998747698469385 0.000282166929354448 -0.000442439141791243 -0.00169143141420869 0 -0.00220475771372535 -0.00783290810950293 0.00684733266061725 -0.00385828367517141 -0.00862897873350313 -0.00688752101001622 0.00401625197982983 0 0.00453455883681455 -0.000702359202534547 -0.00542297243496519 0.0049989064807829 0.00469480958764756 0.00833984961318568 0.00202247668506733 0.00622773916217254 0.00682352219590109 0.00949306710351745 0.00739819410925203 0.00778675842573444 0.00236057389133612 -0.00737727627763977 0.00487796096974442 0.00334130821905783 0.00664756947915865 0.00262231040616701 0.00763390488000354 0.0046104376029697 0.00791457113960304 -0.000474042989361209 -0.000277525157223408 0.00168863555382208 -0.00630880741215921 0.00799339575076358 0.000323099586162513 0.00473535297230372 0.00512740821103291 0.00482542259939395 0.00215268429555551 0.0045934947387217 -0.00609979750208348 -0.0089760082859119 -0.00804701446520423 -0.00619929771822212 0.0035881993192034 0.00599504719991341 -0.00605608544118003 -0.00290148816980162 0.00265988896332331 -0.00593062110906912 -0.00474532508060411 0.000187801357445364 -0.00387180090082628 -0.000659381008247232 0.00290700782551974 0.00506141144826923 0.00126602553664678 -0.00719014126801322 -0.00691152450150671 0.00545911191854404 0.0113271300829329 -0.00357642795355428 -0.00195276714741787 -0.00335560912064853 -0.00561122152728269 0.00869671086802256 -0.00256282934157392 0.00118743448456559 -0.00480849625301498 -0.000698328353257564 -0.00210238093300541 -0.00289519606245371 -0.00241425547421376 -0.00302771083498636 -0.00356092360340821 -0.00444360043862353 -0.00103402819461295 -0.000631208847317544 -0.00428205992226238 -0.00350532798526523 -0.00398700368601528 -0.0045589945543491 -0.0039168786814917 -0.00236907692047571 -0.00283280854777695 -0.00424929213779768 -0.00438868714974178 -0.00418324208131576 -0.00409645196144813 0.0115040421802773 0.01052569537299 -5.0711103890522e-05 0.00434560960581934 -0.00627842624841651 -0.00794965759820229 0.00773923705961279 0.00183157267040125 -0.00341067169669847 -0.00522265727635292 -0.00804811756677412 -0.00790637436505456 -0.00660610434406309 -0.003034626344458 -0.00578124383663204 -0.00654104776463856 -0.00473031210153723 -0.00221463030771324 -0.00302657111304512 -0.00692541179994168 -0.00780485883022897 -0.00583111663110398 -0.00685454410606731 -0.00598023412704855 -0.00504115856231754 -0.0043912376047832 -0.00252982248215668 0.000351561221744629 0.000270096356551944 -0.000341945399652484 -0.00154436838164741 -0.000657403560081065 -0.00394029212259426 -0.00291850754114625 -0.00675818896033062 -0.00156901697618542 -0.00138635784319133 0.00114004227906707 -0.00523797487611236 -0.000859790748494374 0.000596222555143236 0.00172765923578804 -0.000377925434771418 -0.000828026321764637 0.00232541144012641 -0.00309975092151356 0 -0.0063831594084347 -0.00688130969364281 -0.00648363915739949 -0.00824737224554258 -0.00618593133278117 -0.004240168815428 -0.00944748984707071 -0.0112933431409133 -0.00874983889357323 -0.00751209532729352 -0.0102316409371427 -0.00327113345163877 -0.00333218048745214 -0.000178723031437748 0.00439240191669872 0.00463522096407825 -0.000906212249156718 -0.00533345226467823 -0.00379652725560474
0.00432948101036494 -0.00702703816603918 -0.00439903484567527 1 -0.00150455839234898 0.00177770625087048 0.0121996696939036 -0.00167947449656543 0.00105684418681981 -0.00742896159489683 0.000348334137141806 0 -0.0013338021875485 -0.0026504599470669 -0.000624434554709873 0.001161730312213 -0.00356472559498128 0 0 9.32620651172489e-05 -0.000430290857358984 -0.00447403164072433 -0.00301013424134307 0.0110856424403551 0.0113015741670204 0.00323036182770827 0.00294062587915687 0.00560959442481688 0.00837421008371811 -0.000943721141798319 -0.0104995804201611 -0.00614972014664018 -0.00735547018817866 -0.00605563904611955 -0.00875364256173755 -0.00653083092264588 -0.00227575013239119 -0.00736977800484118 -0.00515055941168187 -1.33567162984807e-06 0.000378344685898157 0.00531528446788849 7.54388290907619e-05 0.00275472508249523 -0.00558358557305423 -0.00521983244474596 -0.00718553306892005 -0.00634966709611997 -0.00446560418534285 -0.0052666917051989 -0.000210604352408413 0.000288247309926591 -0.00340177724227138 -0.0028556931554928 -0.00190719860109493 -0.000427834121215735 -0.0024944463662258 -0.00344031039188496 -0.00653645891957841 -0.00112963058032129 0.00170490678400703 0.0011583858930365 -0.000855624968859651 -0.0033206843293894 -0.00520348270839837 -0.00630781663116636 -0.00541307882494011 -0.00384047983962387 -0.00472392798773072 -0.00545650741014406 -0.00441899940195256 0.00137626185719482 0.000734296658367226 0.0109384009481373 0.00952107215607806 0.00145391025755267 -0.0051461282622943 0.00844416783844678 0.00789222178826906 0.00812405838948066 -0.000794647864696736 0.00413993909353752 0.00369402801365256 0.0058403422754884 0.00757492574950469 0.00928214944599305 -0.00284855994873243 0.000522908780833715 0.000520522469804608 -0.00252911022371844 -0.00270353736838178 0.000615204170719145 0.000363218206907298 9.81376045869916e-05 -0.000484784689834457 0.00149231633550074 -0.00284040478633612 0.000105185263077553 -0.00107861275710412 0.000506632450533775 -0.00316353958821015 -0.00480409932900435 -0.00400758630093035 -0.00312240900145757 -0.00399990422660912 0.00583483559078427 0.00607279305035223 0.0101039089248136 0.010909303524543 0.0107235042769485 -0.0015068081305266 0.0104079914082113 0.00805234252246375 0.0100993798007748 0.00593050812580784 0.00626640974310418 0.00511446796020151 0 0.00622554728152918 0.00608482800161472 0.00592319978741157 0.00585176831058913 0.00954839348378152 0.0058154390883723 0.00616587347154974 0.00507480222922555 0.00427282653693422 0.00379698703888248 0.00162666628804739 -0.000217512163847491 -0.000702098622266725 -0.00457472325267495 0.00312222853512987 -0.000943320114722063 0.000984002377394667 -0.000372204280604768 -0.00236286900576701 -0.000234409892326708 0.000252391551902769 -0.000469634922695188 0.000202654941910256 0.000715831487727823 0.00119933682016576 -0.00124331554387257 0.00581288960148605 0.0104904722848218 0.0110423694797108 0.0101600275351645 0.0128531385520705 0.0118061839345672 0.00853064512454738 0.00744382704285327 0.0103185985386219 0.00794359900747745 0.00899996101217825 0.00462513989142964 0.00632287305985221 0.0060838527783946 0.00371444239533376 -0.00196239147249098 -0.000640483474267821 -0.000410364683011206 -0.00691797874504857 -0.00489566169400125 0.000700452128299134 -0.00391110823891823 0.000252750830136556 0.00744444101449644 -0.00393041384129348 0.00192216387553182 -0.00335914026165014 0.000548288286416463 0 -0.00301000511069174 -0.000990191575772944 -0.0054895542848815 -0.0020111186882189 0 -0.00149644967176653 0.000179393876052694 -0.0051204489026009 0.00801836724705898 0.00784515688082541 0.00779307987126377 -0.00231711243437808 0 -0.00295035047085914 0.00455619430756334 0.000185327940793828 -0.0108807245714034 -0.00762184862532345 -0.00527547199451694 -0.0067980779022744 -0.00653199118659108 -0.00560101788232532 -0.00328786288274686 -0.00700334356324628 -0.0042340152929938 -0.00019397154105394 -0.00195173506223116 -0.00748661243044902 -0.00873888041374494 -0.00593648286921881 -0.00834784751776468 -0.00814283401664754 -0.00758012120378316 -0.00769030022484438 -0.00152764704347738 -0.00549548871721299 -0.00435573415730177 -0.00129678691215947 -0.00507799685479755 -0.00360541216455543 -0.0064316971701932 -0.00526298536057405 -0.00805892795920422 -0.00515102934510025 -0.00830772849182034 0.000457833830077718 -0.000414996296783502 -0.00235088954081503 0.000709846893111433 -0.00542314007746437 -0.00268355402860059 0.000688025361679164 -0.00392276946446299 -0.00421109738241316 -0.00105384162361126 0.000796566604016139 -0.00240539915700892 -0.00150483204976737 -0.00162426581258305 -0.00361410516868735 -0.00397450156269592 0.00139578838160791 0.0064894625717192 0.00589769044997247 0.00121059197336472 -0.00455351175712964 0.00807939733053435 0.00535787180340751 0.00754249229486122 0.00721446022990062 -0.00178202678307512 0.0031121999002711 0.00140103460254737 0.00687887628867043 0.00398021396084854 0.00708241530521107 0.00757781454833601 -0.00332669654356776 -0.00120151305715988 -0.00204985963315861 -0.00179731725763532 -0.00509847641415579 -0.00274305961204484 -0.000747972747017483 -0.00268182169479123 -0.00278651504625305 -0.000691937884478335 -0.00205776770111817 -0.00131838725276187 -0.00206832146336587 -0.00342019695714837 -0.00247724997679258 -0.00534373430525503 -0.00157037487766338 -0.00435094126434979 -0.00537140352595697 -0.00584910256435103 -0.00107489652183002 0.00396845330484747 0.00731475132872981 0.000959452882976386 0.00571674081754803 0.00612733369506129 0.00713830569266663 0.00504364500629897 0.00574224316891586 0.00681185733558146 0.00519423659963697 0.00422754393329899 0.00416839434878966 0.00543267473274961 0.00189881581514346 0.00368559667258417 0.00506234939832774 0.00380459711659479 0.00263187031258373 0.000906473902211407 0.00238833779096486 0.00305647112516283 -0.00235752712075163 -0.00391451149060742 0.00225803301947276 0.00132772336126169 0.0014139909629368 -0.00355263680383318 -0.00119117793553048 0.000430185812868588 0.00213330196244489 0.000442359924519885 -6.70078841979303e-05 5.31933082189918e-05 -0.000311898267189778 0.00142154490796177 -0.00213650147248534 -0.00232574743711212 -0.0028059604896389 -0.000773250089715257 -0.00499694098066124 -0.000751851512796951 -0.00222391426473979 0 0.000714767285149962 0.00303909668745977 0.00608371659874827 0.00811345748954247 0.00826660378230502 0.00654817938360392 0.0075197159005496 0.0096966116424297 0.00734282528678215 0.00225296390432297 0.0082924758547938 0.00384356647441007 -0.00096915104825244 0.00144577833298425 -0.00213282747582264 -0.00332136065804931 -0.00254399018985675 -0.0010644307823156 -0.00165016942049645
-0.0033853698724868 -0.0040043507501792 -0.00383655389061782 -0.00150455839234898 1 -0.00567267873538408 -0.0011113640123863 0.0103086715330694 0.0015672354395975 -0.0018412801889507 -0.00029559382400531 0 -0.000106987416351373 0.00581516711557198 -4.7798064856157e-05 0.00509683249045185 0.00292499480294694 0 0 0.00751141764235053 -0.000845198768378299 -0.0034258920414541 -0.00232302501623365 -0.00214068499778739 -0.00117814323093772 -0.00192092981408819 -0.00413511005590738 -0.0030057448784054 -0.00354154487745308 -0.001806299682181 -0.00634051868872113 -0.00367515490539323 -0.000363656467223401 -0.00137128056805965 -0.00305488851258759 -0.0031805828382402 -0.00293995871292728 -0.00535204962697809 -0.00483519150132846 -0.00429341329048513 -0.00114679965785472 -0.00144203217208204 -0.00389249259175021 -0.00284922741710422 -0.00322199598056119 -0.000909188874810251 -0.00386256123954428 -0.00465414449917316 -0.00224629762970712 -0.0017968651833771 -0.00077727716211559 -0.00216961089226468 -0.00360605829296333 -0.00732966677340212 -0.00469364989838547 -0.00347598189898424 -0.00162246585145206 -0.00456527795077941 -0.00341260423299309 0.00260872157093085 0.000697901803110953 0.00113664170437239 -0.00715302595065899 -0.00252022782055727 -0.00283456279724764 -0.00183066065304708 0.000285683495932336 -0.000976707565562533 -0.000393842340495974 -0.00300297245888469 -0.000525700613978875 -0.000104502866356357 -0.00211489112952433 -0.00199804003457217 -0.0030978680767249 -0.00395724673417579 -0.00396699747256355 -0.00158910932242076 -0.0030374236255971 -0.00333330982985602 -0.00409791190929713 -0.000609419700589021 -0.00199188144689532 -0.00191808096043947 0.00197733665431635 -0.00462410947066163 0.000691148965725303 0.00251943054757609 -0.00171444034891464 0.000656089856967106 -0.00222860181454623 0.000804253221436593 -0.00249087536333198 -0.00395513790628071 0.000488923721354255 -0.00165953512603557 0.010059469151118 0.00844308643601391 0.00862117716704259 0.0084578773286326 -0.00404662502132139 -0.00258106814966069 -0.00294578973996724 -0.00275827310141852 -0.00412722313790926 -0.00397556154840314 -0.00316776757336889 -0.00529145405341081 -0.00315152793635041 -0.00220813104514114 -0.00560807773185819 -0.00441810760306235 -0.00169599050177809 -0.000848054432391274 0.000223490174848427 -0.00266720505516343 -0.00130117810708009 0 9.00505875819802e-05 -0.00296874148496981 -0.00036012033550175 -0.00177404585701207 -0.00400789039220217 -0.00178027774266449 -0.00359769383941988 0.000867559018373169 0.00321586279148022 0.0020697953831372 0.00128236372556948 0.00669832628717861 0.0102697484135258 0.0114934475201292 0.00153993273723134 0.000565521633035518 0.00501890947299074 0.0086611662089876 -0.00192985190635369 0.00377188721274708 0.0101156014576217 0.00447698582384072 0.00850995035977613 0.00059317906572358 0.0040655172609069 0.00350929508957527 -0.00198934729873278 -0.00401977624166711 -0.00150361275703767 -0.00307812432111211 -0.002475029170325 -0.00313616895048154 -0.00168619364797153 -0.00293004513238183 -0.00191078267598948 -0.00107724676565813 -0.00111262859929815 -0.000505448105948498 -0.00319256086962128 -0.00188028278918718 0.00133378483600162 -7.64940105354512e-05 0.000218884746435141 -0.00389163410337047 -0.00428155884410291 -0.00443267505531843 -0.00329490465199402 -0.00644360371458933 -0.00387600625238372 -0.00059435740272886 0.00489295679948668 0.00461626492925565 -0.000325255488969039 -0.00241305056256113 0 -0.00202810766672 -0.00319674401105964 0.00283343212868425 0.00517425236564545 0 0.00287408530385781 -0.00314218597561796 -0.001018585974362 -0.0022601882795402 -0.00201375135709142 -0.001056795811414 -0.0034652248235447 0 -0.00204590211592837 -0.000858972696345963 -0.00323119452936797 -0.00540396812555117 -0.00403966033638419 -0.00325731026253663 -0.00447523989228048 -0.00345183265463885 -0.00381429969774369 -0.00132220461381715 -0.00242706415918795 -0.00232298023726022 -0.00316180162209987 -0.00346565974700087 -0.00525731168204638 -0.00261042129917107 -0.00265640945136551 -0.00195557407463186 -0.0039455423767307 -0.000681962028837805 -0.0040327986017561 -0.00328702115202826 -0.0044725955095267 -0.00422691504496406 -0.00164263415680187 -0.00379769965433155 -0.00413306032098546 -0.00387132162924174 -0.00121710931550853 -0.00482620078049411 -0.00492683077630143 -0.00412632416821817 -0.00739268877581141 -0.00505635701040919 0.00169896394820389 0.000169308537834645 -0.00817582711430537 -0.00197865183130026 -0.00123000308637488 -0.00100140948060412 0.00116567309035414 0.000881161245035634 0.00040422855207421 -0.00116359049278874 0.000839268941268855 -0.00069221795832765 -0.000914115285267277 0.000115995952276793 -0.00044195831772063 -0.00246154383311259 -0.00358490259636778 -0.00488835756099505 -0.0048177421565523 -0.00333891067488741 -0.00461752716908918 -0.00484670532955974 -0.00324824813256149 -0.00463523877038171 -0.00106499893499505 -0.000535896299145016 -0.00209290730497973 -0.0014985702558579 -0.0039825598055385 -0.00295774645404324 -0.0038605041834311 -0.0024479653841873 -0.00134600287080182 -0.0023256857277714 -0.00205569983666908 -0.00502756306715726 -0.00416816822361447 -0.000615343856436278 -0.00358363504771834 -0.00336449721412329 -0.00192214539443627 -0.00373725829627459 0.00126592772814615 0.00618123465469077 0.00786782808728728 0.00403743372011459 0.00201104432728297 -0.00337360459046601 -0.00540101366291349 -0.00458799428535392 -0.00240425609855417 -0.00594866010803701 -0.00389387869780247 -0.00289638888257453 -0.00445087678316692 -0.00241818247282288 -0.00193859767885303 -0.00150102432148079 -0.00298040221573529 -0.00565037072450252 -0.00314248873793516 -0.00357770197271123 -0.000309777792008616 -0.000385849645361372 -0.00199975198133123 -0.00388585904549835 0.00105180911997161 -0.00224126976803409 -0.00136972762456469 -0.000480368301256942 -0.00154923184922361 -0.002288491868648 0.00563185655518703 0.00404872332550531 0.00317655615409024 0.00142282512353564 -0.000836981311642248 0.00564539356382231 0.00698512017197023 -0.00181153412428969 -0.00283610562195406 0.00174708452863143 -0.00229825329121447 -0.00263282869403046 -0.00110225331000546 0.00284194176718115 -0.00532471922868229 0.00143735165750219 -0.00056731173610288 -0.00574905029795796 -0.00227912626993836 -0.00201843093209847 0.00354896323817213 0 -0.00557910248207707 -0.000985235379557093 -0.00136253304704158 -0.00454173424402631 -0.00295064302145124 -0.00325536149500307 -0.00229395657506599 -0.00133082549592131 -0.00207960403164635 -0.00200066050598265 -0.00125381458861454 0.000907520554917118 -0.00413539057452499 -0.00368344413529973 -0.000857795579969684 0.0022968029710982 -0.000878597778972291 0.00108967974070864 -0.00219850401105021
0.00652589203907823 -0.00529826820611395 -0.00663278582127142 0.00177770625087048 -0.00567267873538408 1 0.00679859527403352 0.000254611420493713 0.0067001273462635 -0.0104313611612276 0.00348682334094128 0 -0.00249729196026865 0.00420981129278523 -0.0042673068771788 0.00162322869607309 -0.00115067677622495 0 0 0.00376835987311209 0.00158833113518896 -0.00733552964829759 -0.00482733227526893 0.00422191520207186 0.00587702147882216 0.00412440492880659 -0.0026227305046276 0.000649212462352898 0.00119138457816861 -0.000135917092654727 -0.0118831286607563 -0.00910420019124367 -0.00714527989149938 -0.00750581324108806 -0.00657585016473767 -0.00804110480703056 -0.00710764260055166 -0.0105287668774065 -0.0107111268367023 -0.0043038360008134 -0.00443352519833813 0.000295875104372768 -0.0010639011899269 0.00564094416683134 -0.0111293126525232 -0.00933573121661762 -0.010085905357344 -0.00814910917048315 -0.00451806673955375 -0.00240928084074998 0.00468421041996479 0.00576788865630644 -0.00909492150839989 -0.00464604629326714 -0.000941985573808677 -0.000319374924276014 -0.00452651412690899 -0.00270256447233617 -0.00947100149877596 0.00786760242214144 0.00924604109757063 0.0136528475634376 -0.00448272321384375 -0.00857233504450911 -0.0114264027939641 -0.000258131881466141 0.000596717978237204 0.00127475861361476 -0.00893626971457709 -0.00546294313703535 0.000243685040157272 0.00209673644062894 0.00778925889869181 0.006963591775803 0.00694858722300212 -0.00262326659117292 -0.0070915098252444 0.00683427505540207 0.00698079489671888 0.00480911547765992 -0.000556193655881303 0.00141903806375165 0.00190062232798355 0.00445893854774948 0.00847294862897881 0.00572154760535474 0.000504803181825056 -0.00174575356605567 -0.00171188652576381 -0.00593249142864751 0.00175500688730293 0.0072357227265173 -0.00153874486029433 0.00345447799703227 0.00104023271353522 0.0070523038457855 -0.00135332519780904 -0.000213595606143786 0.000338393685316949 0.00615958091662251 -0.0066815716426989 -0.00724201426929805 -0.0102131687980277 -0.0111082216632707 -0.005207776557114 0.00157124823349403 0.00447096694986888 0.00659086085531986 0.00706528553577129 0.00435724086532516 -0.00399537286601104 0.00384882019994023 0.00732671208896825 0.00707276559320683 0.00453946155567193 0.0059616583252847 0.00525189892829308 0 0.00493440458025411 0.00336373690568022 0.00330981192822856 0.00463811255978061 0.00759659715553044 0.00293937183989685 0.00548593558367433 0.00921308575480218 0.0115016816119494 0.00585527970288159 0.0099071135912593 0.00655127986142981 0.0015485078674003 -0.00158313205894754 0.00575228339530497 0.00621438435498073 0.00882954417288887 0.00466660135639266 -0.00834942621775201 -0.0030819756582158 -0.000914969683286507 -0.0015229014369943 -0.00138127647366891 0.00112251432129976 0.00532456575813867 0.00394942554312297 0.00632400619740152 0.00679585597297594 0.00413935459753166 0.00704600501541395 0.00368521665299197 0.00556090301288903 0.00726869636139647 0.00592184010444645 0.00379448262750552 0.0074848710397459 0.00562656780357965 0.00610672366364511 0.00402972889700674 0.00312443199335071 0.0097462531083248 0.0078598817414963 0.00951552591614055 0.00111345942008669 -0.00438096130284816 -0.00916562923149923 0.000154168780159188 -0.00914695695073665 0.00385564349845138 0.00271369910055346 0.00248934100074672 0.00965241325555602 -0.00868555974426602 0.00186516100067581 0 -0.00260774700680948 -0.00671542778460996 0.000371686150734123 -0.00133093895737954 0 0.000447316917725457 0.00482200061655725 -0.00396917515006785 0.00111098305981784 0.00456040067695464 0.00415053424008729 -0.00325912477844626 0 -0.00263309345045914 0.000475833714629979 0.00158956519417729 -0.0101413191097424 -0.0078938677038172 -0.00644737257204981 -0.00473726526608993 -0.00555560955348956 -0.00599492381069109 -0.00818072993219787 -0.00796117227710064 -0.0069240700007119 -0.002746226462252 0.00252530967013102 -0.00931799969085936 -0.0086800901297402 -0.00766736998758752 -0.00931483711513565 -0.00824445155746715 -0.00608841381299482 -0.00708307954538309 -0.00233599439326257 -0.00476572099850082 -0.00017802878402791 0.004467512223602 -0.00778085503019388 0.000583709790105594 -0.00605585880155621 -9.51243805427953e-05 -0.00742260451582331 -0.002238631763986 -0.00597406795343471 0.00714736717690356 0.00784591448833355 0.0091989607277445 0.00893871181992215 -0.00369364996003779 -0.00849868005084683 0.00920447232954502 0.00513981589861796 -0.00383413513690851 0.00874309297187024 0.00860887718696616 0.00490939568021157 0.00802806091050345 0.00430574020593716 -0.00412272357059786 -0.0039528083274858 0.00135812744234715 0.00254915301935228 0.00443648543043262 -0.00480408161019318 -0.00840380246477398 0.0016574683239491 0.00200144267560936 0.00313564778400926 0.00393735464860161 -0.00514863345788907 0.00157118538172663 -0.000513305206697818 0.00490925334590439 0.0016490167207106 0.00311892239695104 0.00102057721492441 -0.00293270137677987 -0.00250197802359946 -0.00270025974258044 -0.00243236848471515 -0.00719672730473735 -0.00743350769181701 -0.00143407044135043 -0.00393195172900782 0.00217924926726554 0.00471920291639906 0.000615657556584519 8.65744374757733e-06 -0.00321493263015764 0.0031220772080176 0.00592254838165165 0.00632484481595311 0.00541745285412775 -0.00596329793219037 -0.00698927301525739 -0.000785635496777745 -0.0023876241639133 0.00239556554116728 0.00294701619542558 -0.00476222656108903 -0.000190963056366139 0.00187340554121845 0.00290808614848987 0.0041758446204194 0.00416123976805472 0.00436660822335163 0.0026604882008128 0.00380057838659494 0.00340783216141463 0.00259860710181327 -0.000445291643896695 0.00431162613815778 0.00388989830641203 0.00532169173032414 0.0073492064116631 0.00897521959694766 0.00556482931274768 0.00682325143820521 0.0040140162704606 0.0046264194071228 0.00167629046195645 -0.000504708528922532 0.00316543929535545 -0.00227931130599424 0.00257721396485142 0.00410453099833113 0.00303427130683531 0.00750529217901561 0.00414411754607923 -0.000260944293885707 -0.00202765931973875 0.00526404683632045 -0.00759505033373604 -0.00554186360618656 -0.0025435241952902 -0.0089748518033873 -0.00658925014908092 -0.00213559112121928 0.00504242330094081 0 0.00649771604582849 0.00591036644753262 0.0034204330315046 0.00261202551295365 0.00286610314426009 0.00127349098302154 0.00509994343466383 0.00649594672186168 0.00575440823769191 0.00516974545572769 0.00551385361512557 0.00322361636418311 0.00190595327781419 -0.000348114380424307 -0.00430917614815118 -0.000314850337317318 0.00459587486045048 0.00488514197233414 0.00639393111379867
0.00493596152057491 0.000256648785623276 -0.00526270187930864 0.0121996696939036 -0.0011113640123863 0.00679859527403352 1 -0.00563948069959979 0.00487386444342098 -0.00703580259993082 -0.00131348895570468 0 -0.00281611579641149 -0.00650508675534716 -0.0076566871006528 -0.00379232021093543 -0.00547286127725679 0 0 -0.00616543958603346 -0.000388940133709127 -0.00553764635002688 0.00363458247361115 0.0103495407614732 0.0115855622023529 0.00451911358856279 0.00056124294861667 0.00264408206559236 0.00550337822722173 0.00177199384679344 -0.00434073887855007 -0.00675454723171509 -0.00408229894778543 4.81334664966761e-05 -0.0040213029627484 -0.00632656037580582 -0.00413739175946013 -0.00334814299044783 -0.0044804011292177 -0.000679729369413408 0.000723429001865367 0.00555610013899707 0.00742592889694552 0.0100263726288866 -0.003657639110909 -0.00552123002574991 -0.00302616948954953 0.000392172651410943 0.00300326376264056 -0.000313861849357141 0.00519858470478877 0.00847947141870221 -0.00631068040736385 -0.00157199289420563 0.00207949164056525 0.00108016369217928 -0.00284710739362175 0.000221229219741712 -0.0043100613220167 0.0019819480581081 0.00438076203824753 0.00352062737828015 -0.00385589324370821 -0.0057194771348613 -0.0057568689017885 -0.00592358050840334 -0.0036617207982215 -0.0037097721748753 -0.00570934641613392 -0.00750490054601975 -0.00559279154378103 -0.00148815313850313 -0.00332281157163799 0.000721403694173076 -0.00207719731633206 -0.000265587228061357 -0.00805929961780596 0.0067022736772058 0.00329897090669062 0.00757266979322317 0.00536265805599446 0.00286744911500081 0.00299591148663733 0.00315517219979916 0.00036112487508452 0.00232983196811947 0.00277128011969003 0.000387666689624823 -0.000382076368069396 -0.0025983108504195 0.00459288867592451 0.00533627007658553 0.00108625773019124 0.00589417180009931 0.00215884341787083 0.00561166215486932 -0.00275487664217264 -0.00392931059133642 0.00180239742177907 -7.05357287232548e-05 -0.0077174645842203 -0.00790265452984056 -0.00769152563600934 -0.00787109585631374 -0.00622291890933559 -0.00144002519254569 0.00186677042097862 0.00535500241970734 0.00327603660720826 0.00392255531671358 -0.000912095870581196 0.003337940332488 0.00241549917345491 0.00498238558597501 0.0051632655263101 0.00669649468462065 0.00530293640960687 0 0.00616756051190608 0.00709500293056736 0.00648522766808147 0.0038229206941764 0.00547305589999136 0.00558017249833419 0.00223252252758293 0.00413374561901232 0.000333523544945806 -0.000620090674482967 -0.00250579252803164 -0.00105303213360799 -0.00430831229853647 -0.00489153488197895 0.00403385272284222 -0.00217114972890118 -0.0021601403104502 -0.00308541747575654 -0.00342340096291886 -0.00602786504630913 -0.00192779295114792 -0.00442474149728689 -0.00723319567281281 -0.00228612991132405 -0.00206046867358631 -0.00250342528230379 0.00863894845897538 0.0041516558648098 0.00631164607620502 0.000532519673299497 0.00359163504669554 0.00515031120755946 -0.00245896764097758 0.00657746057002973 0.0100573117916768 0.00712185184025165 0.00934021738417432 0.00583454381668455 0.00925851702398509 0.00334003222386319 -0.001630831712274 -0.00196091763559187 -0.000290895040311607 0.00180004046087969 -0.00096739230537556 -0.00466346621686607 0.00972929988965815 -0.00145010248768943 0.00680607795312162 0.00979077755090909 -0.00514060739741988 0.00429328107313089 -0.00475525827444363 -0.00330450031538855 0 -0.00366314319344083 -0.00565027581583077 -0.00455376712260156 -0.00457996147753178 0 -0.00267644691446298 0.000172623986667194 -0.00699101748964239 0.0078616387815114 0.00465380830514327 0.00654795736787941 -0.00565395126431601 0 -0.00289529596431541 0.00223437355951326 0.00173202293398585 -0.00642451567407648 -0.00593991205727393 -0.00448614219677004 -0.00382475225549128 -0.00778191619740157 -0.00730794645088707 -0.00593485464766715 -0.00469110875370128 0.000104614889652904 0.00223185631474749 0.0115270255233628 -0.00756217258097737 -0.00669287663326247 -0.00100470830033234 -0.00833536997423253 -0.00316671844898955 -0.00605511603222842 -0.00223087294427038 0.00493785764720294 0.000534217236877696 0.00106219348012867 0.00391297822626486 -0.00358509275673309 -0.00138717430939222 -0.00315611623107425 -0.00343044653731268 -0.00627351121158326 -0.000702658285430501 -0.00278376530869941 0.005265751758637 0.0043110733764501 0.000388508943860467 0.00240015140820731 -0.00566797671099657 -0.0060372429538342 0.00466496368706967 -0.000545943204117516 -0.00694695663505046 -0.00190060542913012 -0.00206010324468967 -0.000349519716629414 -0.00129388360824122 -0.000119145956960736 -0.00345512673074028 -0.00617003238997641 -0.00108760659220974 0.0113039601632087 0.00540978053058661 0.00174942807985836 -0.00583215383030757 0.0100138191634662 0.00715703511221616 0.0062154413824516 0.00584792769747592 -0.00529557787048132 0.00366123770960625 0.00261456361502785 0.00329159238905646 0.00602520570825174 0.0061324304481177 0.00847267053904852 0.000189139843547542 3.14090015516395e-05 -0.000304374812123965 -0.000804944132108579 0.000103592883293339 -0.00229270756264647 0.000329863554637638 -0.00133455404507406 0.00229840285592896 0.00420853041047277 0.00101912108180623 0.00210785786451239 -0.00343904125520883 -0.00364255206763963 -0.00170586128244351 -0.000987855480319676 -0.000369276129914008 -0.00250135168107647 -0.00722864366171257 -0.0015692558527242 -0.00253476739757624 0.011045716894889 0.00999122302131372 0.00192313271467022 0.0024283172533135 0.00432297210072499 0.00820345501457558 0.00487351662160802 0.00753386773885958 0.00236056587809082 0.006867546943874 0.00321845857920649 0.00886958617557409 0.00724908109549958 0.00172740079410323 0.00599464156259667 0.00371358742584061 0.00514718951902118 0.00742268984643153 0.00137406069620449 0.00227390142939271 -0.00244123135722122 -0.00417257703749068 -0.00340916068188213 -0.000995885972783694 -0.000798142601329902 -0.0026469124824022 -0.00350657299060368 -0.00266353165103749 -0.00322502455818651 0.00474426340487018 0.00537638328363153 -0.00289543891822364 0.000505616239854751 0.00101840383927464 -0.00196720762547385 -0.00371089633601184 -0.00454643686849904 -0.00490631703856542 -0.00276224236590708 -0.00275797902451844 -0.00148013796527245 -0.00486847122860384 0 0.01100677541236 0.00880425691974111 0.00690153294229437 0.0120953484326991 0.00573259866892709 0.00739138193702645 0.00329678811810884 0.00437426039323559 0.00705973340422652 0.00800108777292968 0.0104905340112061 0.00716186525019766 0.0101453729421488 0.00466414675995523 -0.00405316604707378 -0.00557622576070038 -0.00231019583983246 -0.00204089093954238 -0.000543950567166732
-0.00271379999700254 0.00427938765845098 -0.0049533547156058 -0.00167947449656543 0.0103086715330694 0.000254611420493713 -0.00563948069959979 1 -0.00489574234461492 -0.00226742098048763 0.000857763920004347 0 0.0058151365572544 0.00274522514545078 0.00463145214794091 0.00468238421938564 0.00640197597202565 0 0 0.00792171085579865 -0.00210167810237496 -0.00203514760568458 0.000640790982111514 -0.00650989085117287 -0.00325179947878795 -0.00227135403981019 -0.000170188751423287 0.00309667311750848 0.000922987516811887 0.00101374917200504 0.00584022545102691 0.00166787583223223 0.00225498076957792 -0.00027382560872407 0.0025606374693707 -0.000852688626353233 -0.00139490475353707 0.00173626432873893 -0.000475527205958089 -0.0028862047731334 -0.00335849704312932 -0.00214345158651052 -0.0010926400399506 -0.0044951224803281 0.0015786333201722 -0.00194847063114805 0.00318963274013323 0.000555672435689917 0.000267271198160846 0.00289585962108765 -0.00419736935804265 -0.000814342068087483 -0.00221133156075534 -0.000404281643170319 0.000286218815676853 -0.00376051778421609 -0.00122014550447182 -0.00107432392560555 0.000192060818894444 7.1894233816423e-05 -0.00110445251572297 -0.00411134756913157 0.000581987356978031 0.00375768697874887 -0.00137025667919923 -0.000818414595375745 0.00259856781195639 -0.000392804572567083 0.00152778836548497 -0.000778693989958994 -0.00126575638712546 -0.00203044333603435 0.00135094301633832 -0.00343168454768365 -0.00196067810121698 -0.00161594294183737 0.000248091238870246 -0.00219093475034481 -0.00204632744343794 -0.00301668894992127 -0.00285049355900966 -0.00245900782492698 -0.0015416970447376 0.000193638970386502 -0.00240138702312718 -0.000961055667691921 0.00127248404002227 0.000912777876748497 0.00416707688464105 0.00919769933062322 0.00203137173688179 -0.000495877742339721 0.00142771049690132 0.0028117989085237 -0.000340106525612642 -0.00425227407182683 0.0043942189364259 0.00269018848079178 0.00357444850143707 -0.00434508864144936 -0.00315521298774763 -0.00051807485689123 0.0020819902072281 0.00158515619071864 0.00062650363931363 -0.00429833843535314 -0.00435352518544044 -0.00663147061555903 -0.00359830961381756 -0.00366106676340583 -0.00254407120906991 -0.00506524840118706 -0.00440981234547547 -0.00429931269115294 -0.00245884900892255 0.000474570948205432 -0.00277464838937273 0 8.31644767701106e-05 -0.00231675438330775 -0.000214533016019817 -0.00235006094449402 -0.002317341935547 -0.00290523469119143 -0.00234281461671338 -0.00682681773016931 -0.00509741631510627 -0.00208895515640663 -0.000417363534744547 -0.000264077830525947 0.00103848548890312 0.00189926392548056 -0.0011510314783349 -0.00125778728326322 -0.000627136984333768 0.000102313266757454 0.00770004907080165 0.00417991721612545 0.00206827154470397 0.00161825354864433 0.00262692360123576 0.001926289136705 0.00335922577170136 -0.0014673336063437 -0.00511595836911657 -0.00486303819825345 -0.00262214294707957 -0.0029765113513165 -0.00181491969334318 -0.00284987305244882 -0.00237692282556456 -0.00438097781759043 -0.00434231799741249 -0.00427586407588921 -0.0037773212050145 -0.00452210732922586 -0.00426426463676935 -0.00370058305587171 -0.0027956586382829 -0.00117155810835244 -0.0044167189932809 -0.00151741501877697 0.00405096536167779 0.000788302609915649 -0.00199604890040553 0.00670499998980631 -0.00256032704629356 -0.000270207720308869 0.000751635993149429 -0.00355122122652592 0.00188604668220018 0.000710452638880342 0 0.00145609599763554 -0.00317246241558704 0.00121405730924815 -0.00280997217959143 0 0.00131145392147818 -0.00372114180832937 -0.00354425242890615 -0.00179053417737078 0.000601135130062596 -0.00444982018141964 -0.000877290233091941 0 -0.00122426230347801 -0.00234328436228828 -0.00132155825588576 0.0037280808976427 -0.00189587105429423 -0.000220718530539708 -0.000101535881847426 1.53324274426996e-05 -0.00320491059744537 -0.00439576334528637 0.00170709379007171 -0.00113904833894464 -0.000168976131436817 -0.0014671108108789 0.00174633398797199 0.00276957499217934 0.00200369982870836 0.00136521809143952 0.00198873410704204 -0.000834682094521743 -6.26239248696663e-05 -0.000406015518807019 0.00384069115683317 0.00202268357629941 -0.0037552314698501 -0.000615439121103457 -0.00200949540798137 0.00242810080372045 -0.00202591487587609 0.00267058856506457 0.00170282559301519 0.00226624794291672 -0.00184119754478171 -0.00317431496063505 -0.00237712395749357 -0.000645075077817155 -0.00051322029849667 0.000787124775493544 -0.00146274007651276 -0.00121342994476363 0.0013673721022136 -0.00259322266779786 -0.00161626447197182 -0.00108254576857028 -0.00384666539046143 -0.0014474020271442 0.00279781009992861 -0.00223048250792848 -0.00438968272414087 -0.000405112802263203 -0.00144701415082441 -0.00213597241517774 -0.00158538953470006 -0.0017225816033638 -0.00126283941206331 -0.000111817010047376 -0.00395518719282321 -0.000473974979948926 -0.00323880753218546 -0.00171719931906047 -0.00546228471265254 -0.00260488242435086 -0.00414727330944759 -0.00239784715271579 -0.0024097017602966 -0.00152441863361463 0.0012504356093564 0.00389752599516912 0.00516545509993581 0.00441047159556844 -0.00104357391167183 0.00255928449716859 0.00153692047599055 -0.00353869783116852 -0.00380623662291887 -0.00330298364249761 0.000390409244207548 -0.00254722969652209 -0.00206239035588376 -0.00275235774247063 -0.00116152164869719 0.000907887492844937 0.0013829407516492 -0.000991482054587083 -0.000749834618847998 -0.00393928649468788 0.000314188335534661 -0.00232587683261094 -0.00128776098948054 -0.00187763112901257 -0.00162505229429221 -0.00174626782115599 -0.00223056132221806 -0.00422658812404651 -0.00262982571110639 -0.00260285311804255 -0.00375866179436954 -0.0031483502981175 -0.00211410611094378 -0.00146681387485006 -0.00274317805213401 -0.00236541150063741 -0.00130992999280565 -0.000677985311301052 -0.000445377661516496 -0.00076433932416536 0.00124466174807955 0.00174225821993261 0.00315894470956503 0.00382493933152621 0.000401772760925946 -0.000387558625017608 0.00286571982341186 0.00178121077180632 3.11248623919788e-05 5.41385575550788e-05 -0.000308753674172248 0.00260594658009847 -0.000148051090440319 0.00118653997862974 0.00223015509733454 -0.00215126796791028 0.000797873823303122 0.000793723866053705 0.00180097311578327 0.00386548806884761 0.00175905327439756 0 -0.00271881776199161 -0.00417151773038461 -0.000487463380280143 -0.00253150626438789 -0.00211116671978397 0.000433101808328025 -0.00287191371814707 -0.00494566271958437 -0.0035884592837058 -0.00146174210021616 -0.00139781371307131 -0.000993258803182848 -0.0017103373713 -0.00250039090818636 -0.000321461483909379 -0.00032792215576276 -0.000352202485915694 -0.001426341557143 -0.00445404790242141
0.00351191848169788 -0.000489498502330415 -0.00730646057836358 0.00105684418681981 0.0015672354395975 0.0067001273462635 0.00487386444342098 -0.00489574234461492 1 -0.00573686503446941 -0.00357637849708108 0 0.000952084748954183 0.00115014790643286 -0.00463562488445279 0.000817182969900051 -0.00293712458889085 0 0 -2.68546789678267e-05 -0.000246855501574661 -0.00731724707406801 -0.00484639119439853 0.00317881734199451 0.0087956740927172 0.00208354366617486 -0.00379657840838471 -0.000926825720430387 0.00160184214115658 0.000790776875096372 -0.00263160617804719 -0.00290639260455601 -0.00136327509270831 -0.005332888055962 6.94517537718368e-05 -0.00155023289164112 -0.00405284744770482 -0.00456352204444643 -0.00824659320384272 -0.00305328888679722 -0.00399481270685399 0.000771458495440197 0.00116376335568109 0.00743307870988672 -0.00581691623316991 -0.00409714818439889 -0.00427847304052335 -0.00216439110419984 -0.00268215025844688 0.00274292982210737 0.00416186452772979 0.00553638676532444 -0.00772327308459464 -0.00613439302526112 -0.00122889090920176 0.000513632238852802 -0.00140236053443263 -0.00523312988723001 -0.00798355915002943 0.00335123135607469 0.00646755076527661 0.00446887828635975 -0.00369661402863673 -0.00350015403111324 -0.00577888003959395 -0.0032366679335273 -0.0032269343241957 -0.00163843388709163 -0.00232491628839763 -0.00395769194747943 -0.00602527707925647 -0.00345879385960951 0.00204873648964501 0.00766349094196218 -0.000454762265619987 -0.00580378656594112 -0.00829030571337011 0.00800348912668925 0.00657791255651184 0.00195022161478008 -0.00187343341284104 -0.00134681466803458 0.000746149229016807 0.000263846325202753 0.00552324059302303 0.00422985986790437 0.00608016504299786 0.00597817257554175 0.00231516731668138 -0.00202970159438546 0.00317152684038918 0.00548961922879283 0.00156260562666439 0.00891607146748603 0.0067517249317049 0.00883437862187203 0.000991044299225972 -0.000201036723178469 0.00249352437550172 0.00171196153056715 -0.00598680626686103 -0.0084330089889811 -0.00513082146096219 -0.00732217121722658 -0.00536248482807414 -3.23949621994154e-05 0.0023508337962796 0.00499335704563887 0.00543882634788703 0.00634641189012173 -0.00542013251693976 -1.72946118459325e-05 0.00297288011159167 0.00525680725603594 0.00539818051450305 0.0053685344170853 0.00385646698620667 0 0.0071142957527934 0.00597250127370052 0.00333529694377443 0.00160884089245205 0.00275130908928985 0.00169211758774972 0.00488970823812672 0.00411299606882929 0.00174824872799669 0.00142302971370391 0.00311298786696142 -0.000524723906859794 -0.00391308679535601 -0.000140595786871441 0.004031954964579 0.0016012907662018 0.00347655083986513 0.000256641570873025 -0.00279190468311501 -0.00400806207069009 -0.00133828401089025 -0.000366672802022901 -0.00436581596747054 -0.000725685576009025 0.00275064229878924 -0.00057563394975172 0.0085708988611725 0.00616522075177882 0.0022466263592495 0.00651662792803218 0.00496307032033481 0.00703221925053357 0.00500206000026505 0.00489122837157048 0.00510721956226243 0.00701141912217968 0.00605298237438228 0.0074578555900908 0.00684474411393208 0.000735652712090405 0.0022804123966286 0.0020213763061766 -0.000399257737636172 0.0010516732663154 -0.000989819669809972 -0.00390961262938412 0.000552140665497634 0.00115363657309701 0.00821501341856627 0.00611186764587782 -0.0011518924626748 0.00679584628679198 -0.00457336397556931 6.29224580420256e-05 0 -0.00202946681572334 -0.00527858246551031 -0.00643969399381785 -0.00510074008776165 0 -0.000773288485050166 -0.000151177329882665 -0.00247315500496064 -0.00107036798270945 0.00363940438919757 0.00413350050641109 -0.00498213355096244 0 -0.00409899667374371 -0.00124372146316425 0.00128465170910593 -0.00149401704687658 -0.00432594909987113 -0.00386128887371716 -0.00182842556204806 -0.00269931094733003 -0.0024445923713467 -0.00647815608521012 -0.00642784933746192 -0.00469868958304316 -0.00185405830252907 0.0029906502243147 -0.00373141681532819 -0.00170804842134168 -0.00453621160437618 -0.00235672224812646 -0.00410648958947968 -0.00145805225507739 -0.00383615512620422 -0.00301143928814451 0.00179368261617635 0.00387638992726779 0.00570012093689504 -0.0039432182018756 0.00183829315574897 0.00021916019553075 9.37059629253724e-05 -0.00100369671595057 -0.000963511846335835 -0.00335507925382912 0.00441527344784771 0.00587851124288334 0.00187553580381427 0.00412649472845672 -0.00513233062421796 -0.0036686932893077 0.0034512926965098 -0.00244352869047329 -0.00258806004236856 -7.83605617325489e-06 -0.000312267667799535 -0.00152651965782997 -0.00246490567822504 -0.00163619215355218 -0.00315843516617454 -0.00700861695101984 -0.0036042004356499 0.00572387466573002 0.00280230848365442 -0.00275692361340794 -0.00669394738735078 0.00440283642446079 0.00670265081567778 0.00449574878467306 3.49487523998132e-05 -0.00335166631546276 -0.000661133337703442 -0.000858115770174602 -0.000944783949380669 -0.00178842764103417 0.000500718562523264 0.00499290925519592 0.00431288157110516 0.00553861398763576 0.0023577927781304 -0.000890929721090281 -0.00333131254608895 -0.00431411929787166 0.000272269322003626 0.00129303179857306 0.00794451678576766 0.00692754540284372 0.00476286261162361 0.00375667747372984 -0.00111798287127018 0.000992341963301306 0.00228073047618177 0.00696051821627095 0.0033201498389263 -0.00422649351005614 -0.00642821469331042 -0.000784771372986239 -0.0010011356989089 0.00593507703123796 0.00646314195721919 -0.00446079283156946 0.00274559329986366 0.0040469110945399 0.00417789743556096 0.00538435747777494 0.0035884121939987 0.00314850895565692 0.0049717859965068 0.00123028672671695 0.00190341904791945 0.00301029804234698 0.000732492174032421 0.00171729657046321 -0.000228960766234621 0.00227247238817744 0.00485296056370797 0.00185063162401312 0.0027962666374185 0.0014540287654053 0.000461757193049362 0.00164313867821892 0.00208400556281408 0.000372629336639902 0.000156758269150085 -0.00536408611335474 -0.00138119285451133 0.000481802177540566 0.000673816223400585 0.00319442563766664 0.000257394362671612 0.00124545668259479 0.00142634909471573 0.00267403090798024 -0.00284827252345951 -0.00598312424919407 -0.00611986772670346 -0.0046304409900511 -0.00376221815738063 -0.00117839123081378 0.00301171702044956 0 0.00370788052734126 0.00685057367553424 0.00390097455313698 0.00538314816367091 0.00459538321427176 0.003930519511343 0.00520937063076625 0.00562789078391767 0.00468735505905996 0.00525371398316434 0.00602074518641274 0.00329856913123801 0.0033429875416919 0.000214888998026149 -0.00303006141739044 -0.00200190485517679 0.00141681174205687 -0.00074479294333913 -0.000716786436226282
-0.00700176751675422 -0.000319903989670219 0.00821805400205543 -0.00742896159489683 -0.0018412801889507 -0.0104313611612276 -0.00703580259993082 -0.00226742098048763 -0.00573686503446941 1 0.00173165932973193 0 -0.0056777034001382 -0.00445977905883694 0.00230375914772296 -0.000781407430309091 0.000293991234268053 0 0 -0.00103627132874709 0.000786087314160228 0.0112752436995023 -0.00140621988481232 -0.00474470101362142 -0.00676704345721127 -0.00442548323379656 0.00451968492303876 6.93324618755523e-05 -0.00448980967410264 0.000788956378778848 0.0108868074491399 0.0111970871002452 0.0101777943740194 0.005963787452221 0.00689823287396524 0.0106963203974407 0.011747918897626 0.00928436830624167 0.00871348378770066 -0.00122697473576663 -0.00220515287828633 -0.00482088387688744 -0.00526452733227977 -0.00976432629234752 0.00950930041181435 0.00997116758565091 0.00418763107143006 0.00103237183153051 -0.00377616194444635 6.67995349211611e-06 -0.00388593543942579 -0.00431015907823831 0.00883718754356648 0.00311288305422613 -0.000703347244741088 -0.00105522510685219 0.00407595244870144 0.00210970050938929 0.00792152761050513 -0.00747145346551439 -0.0085750004603043 -0.01008826623103 0.00179799075763371 0.00977804656819777 0.0147620603234408 0.00580560466309939 0.00349534416532769 0.00224215434488318 0.00928541924684215 0.00787230072874902 0.0082145127031552 0.0033792750582508 -0.00271993624548347 -0.00759213238164666 -0.00565354257928233 -0.000719067791397739 0.00871010129094932 -0.00629166277140095 -0.00491768797379469 -0.00416575261437913 -0.0038401072428744 -0.00242874428650784 -0.00104032794257234 -0.00655463569078154 -0.00691942225671574 -0.00683981456850338 -0.00266793818599317 -0.00422641611205255 -0.00700635774321161 -0.00347302806203882 -0.00232082003705044 -0.00300382324938365 -0.00246846020586345 -0.00699170929866733 -0.00592958255921701 -0.00510194452054721 -0.00187064631708993 -0.00179264455469032 -0.00599230631293547 -0.00841232192257743 0.00355252480897942 0.0110504406434638 0.0142387949198384 0.0133507545463164 0.00339602050441494 -0.00354209642905527 -0.00322219092683874 -0.00745287395429222 -0.00846626730478669 -0.00749756593056934 -0.0021009089779831 -0.00787862899612202 -0.00620604345467533 -0.00553671386951558 -0.00876294573200402 -0.00807771034462482 -0.00632805732872608 0 -0.00591034909047878 -0.00352404778941112 -0.00634250855161611 -0.00507348765348678 -0.00411872642414714 -0.00453325231923354 -0.00287544506033211 -0.00679017623853466 -0.00779488018930042 -0.00652247996497384 -0.00592652818426562 -0.0050438021448835 -0.0055020291142194 -0.00504352840300688 -0.0087252219223301 -0.00277732995892842 -0.0038659329943334 -0.0047722749615191 0.00147625557842548 0.00262088154419487 -0.0049475338425233 0.00272002987363865 -0.00154404886188596 0.000871231944704166 -0.0047122179372466 -0.00185522618800097 -0.0070927651686645 -0.00553932043938724 -0.00666991272111098 -0.00781790350640302 -0.00546931859701163 -0.00618668730270372 -0.00683608766956396 -0.00636420876547761 -0.00704459023515216 -0.00676783130200353 -0.00777591464898057 -0.00663479640652458 -0.00766971582679965 -0.00458695791196256 -0.00611198760941968 -0.00347067166428602 -0.00490665039887731 -0.00638775920195208 -0.000306390196016309 0.0103583863770045 -0.00556382840593422 0.00218446987120956 -0.00511736309119141 -0.00656406603395577 0.00131242246772298 -0.00387485646105594 0.0144515493902658 -0.00194578001664178 0 -0.00210616061911945 0.00520739919757756 0.00103213984419933 5.19193717572323e-05 0 -0.000604331018260468 -0.00292112238153299 0.005276203231046 -0.00380841348769037 -0.00401920044051089 -0.00957002994384172 0.00400539123953776 0 0.00426429483391043 6.58215393318591e-05 -0.003317864025253 0.00991616994292941 0.00827952247143235 0.00102840978325419 0.00355812930723984 0.00834802039605231 0.00875069995617522 0.0083510701565156 0.00922921522729421 0.00207872539877376 -0.00192107572840038 -0.00769612492538645 0.0123497103130661 0.0112402932186853 0.0028820060398881 0.0106115661852617 0.00764331708964403 0.00914972412229959 0.00552183671515947 -0.00374746049638389 -0.000716691863242533 -0.00342695921852976 -0.00568456009445244 0.00982523549768283 -0.000612915263900775 0.00306792696319272 0.00403741073254807 0.0100009648637877 0.00111836410019041 0.00953790063451988 -0.00680650627867368 -0.01053085631895 -0.0065210304202202 -0.00531954594451616 0.0075353632259347 0.0148044311552219 -0.00635601870990916 -0.00165713901892488 0.00902938728313222 -0.00498769484406334 -0.00533470916548012 -0.00407951244291956 -0.00567048624467512 -0.00245312386451203 0.00733536721113153 0.00794868901973255 0.00322717196348193 -0.00768528922586736 -0.00667466353615684 -0.000970545064048864 0.0129849628369048 -0.00638469932368416 -0.00544375659280021 -0.00587906429617845 -0.00333475565574494 0.00431594166869621 -0.00172873731003394 -0.00516692982491838 -0.00407790747079439 -0.00263851364239184 -0.00640435693770525 -0.00558252466988402 -0.00252609538832268 -0.00188672771153679 -0.00493218639506149 -0.00393760855109369 0.000773674221616007 0.00136921999791532 -0.00188806515177571 -0.00329885985531634 -0.00717723753016454 -0.00372823895430852 -0.00221145228949656 -0.00242600939151605 0.00334740126985641 -0.00402942587201571 -0.007100881840894 -0.00501474323356835 -0.00639284574759333 0.00547280781477595 0.00750035383073958 -0.00128198851900947 0.000864274612998415 -0.00663918809534032 -0.00610924628702986 -0.00193653382305522 -0.00347315274761316 -0.00781097763966683 -0.00696679307290917 -0.00631905116671555 -0.00770548225794166 -0.00583137820823443 -0.00307463900832861 -0.0026985907385777 -0.00367759383181894 -0.00586456074104575 -0.00176660654604824 -0.00254272063762621 -0.00636575112580655 -0.00661074147656451 -0.00321116047202089 -0.00784904009903002 -0.00318122190824398 -0.00364455987549171 -0.00167088243819876 -0.00303406491906844 -0.00238389580234552 -0.00110002848149316 -0.000963258462125413 0.00067740764509428 -0.00352341730626438 -0.00336644233999415 -0.00435458314924898 -0.00458214109451361 -0.00260185815455785 -0.00179132776072881 -0.00178938793357912 -0.00436596321686786 0.00246706970950966 0.00364625009794037 0.00351329194102494 0.00336068778716282 0.000571007885416205 0.00297589137360372 -0.00140566240779477 0 -0.00597177528707615 -0.00831377565425422 -0.00511653242807487 -0.00526865996778489 -0.00498054398609279 -0.00506014505851435 -0.00639705967868474 -0.00743229137472829 -0.00618123368144633 -0.00628312805547422 -0.00576299055066874 -0.00488087401134034 -0.00643527653328531 -0.00393795595787118 0.00987124638501699 0.00508854379528191 -0.000632788790408129 -0.000794964868541698 -0.00490014560269447
0.000854458560810253 -0.00117554811197044 -0.00281215407091713 0.000348334137141806 -0.00029559382400531 0.00348682334094128 -0.00131348895570468 0.000857763920004347 -0.00357637849708108 0.00173165932973193 1 0 0.00324920859405267 0.00424827352083385 0.00447515809326669 0.00357180575496393 0.00262931702568809 0 0 0.00380280442496263 0.0037653848262164 -0.00274065583412647 -0.00158409304500999 0.00183219055307346 0.00136392375072318 0.000924946835144721 -0.00365321900759467 -5.97511805663415e-05 -0.000448681135525324 0.0017317083090317 -0.000432858701280105 -0.000785115892064768 -0.000348338301797214 -0.00121957377649025 0.00111746090519223 0.00230748267430772 0.0019593056872037 -0.002183249408627 -0.00306148863826869 -0.000795600761129413 -0.00248118566614553 -0.00174916833431971 -0.00177790462486499 0.00112565987226615 -0.00284304494562568 0.00105818085196459 -0.0017536586196386 -0.00334715557122558 -0.00477291465231827 -0.00323830704389293 -0.00227539304504525 -0.00150699640156751 -0.00261216560867365 -0.00115932863244202 -0.00211398693813262 -0.00294275443103128 0.00176169609437975 -0.0026238570196477 -0.00284157843719167 0.00628979099946506 0.00240121492024362 0.00480093871765379 0.00205388349636202 0.000916864998505465 0.00168267492597278 0.00276723190331227 0.000128391349052161 0.00299978343926489 0.00069271080681923 0.00455461105250219 0.00760534061992568 0.00697490383475532 0.000683520654503225 -0.00190838504375452 -0.00131431026237223 0.0004404272346946 -0.00108728952232685 0.000539808871278807 -7.4191565537576e-05 -0.00148823217394278 0.00745674446505528 0.00524433084249559 0.000391218993277705 0.00430780001773309 0.00140693531628899 -0.000493937230335354 -0.00393750862145593 -0.00112479109326884 0.00202465382559603 0.000388846688819551 0.00026582859810698 -0.00111941326319658 -0.000291543152987873 -0.000588114301860839 -0.00171802582770865 -0.000826350900351323 0.00172296196768666 -0.00104113877372803 -0.000139351339983782 -0.00151295816828233 -0.00308569320534682 -0.00395414683072996 -0.00243901302892126 -0.0047732590936999 -0.00334713757164299 -0.00209195005227502 0.00083599444940073 -0.00178961358023796 -0.00304136010414147 -0.00148466904652863 -0.00336763412073829 -0.00126638052238798 -0.00335350378026259 0.00034051136777054 -0.00150358499436201 0.00230923463333929 0.00423213726385601 0 -0.00128086653800658 -0.00167227874887342 -0.00139441717270483 -0.000569098138797588 -0.00207163203429476 0.000628548334280516 -0.000964777917685012 0.000535433726503637 0.0033965940260265 0.00189073542170128 0.000779072206781056 0.0026418251329084 0.00118807056884051 0.000468644668677274 -0.00229765219641086 0.00171949310785225 0.00518554941673292 -0.000458979322654847 0.0018759473706982 0.00213606137468162 -0.00320138122354002 0.00118567385706333 0.000176732779881586 0.00345025263545815 0.00191201997269096 0.00268541383676225 0.00190017514130275 -0.00158800501510845 -0.00230459969127273 -6.03438953167952e-05 -0.00047715159226613 0.00113891085156146 -0.00183285220092997 0.00352814585269144 -0.00202801185351442 0.00258927965926418 -0.00323775690281999 0.000582482700507637 0.00135965926680284 0.000782097368440756 0.00304695751069719 0.00684168755456363 0.0083077306631252 0.000634957855648044 -0.000844667490646517 -0.00025139401706222 0.00117827538171652 -0.000248483181512159 -0.00100661281159136 -0.00319410795250913 -0.000442122808706066 -0.00184143660238899 0.00207099481337731 0.00461128980983019 0 0.00100121480726547 0.000949837015760554 -0.00106941826141763 -0.000585265384859991 0 5.49421224027483e-05 0.00098488582048504 -0.00185588358458608 -0.00144574537461806 -0.000153486219720622 0.00260838036786785 -0.00368481291688588 0 -0.00512239738334153 -0.00197989664284889 -0.000740891445411544 -0.00209453096819614 0.000674925698958872 0.00115057636454509 -0.00089095636771204 -0.000705138815223654 -0.00144682217604993 0.0006556779281633 -0.00337041831540026 -0.00375095297315275 -0.00225555662568209 0.000975669793649649 -0.00109307709574271 0.000468379781076531 -0.00240664033104268 0.000360598899473936 -0.00103308038682281 0.000451292430405405 -0.00099073095603005 -0.0023173848878176 -7.54881765440689e-05 -0.00130258767039897 -0.00266784041157707 -0.00130011535039142 -0.00214333458156703 -0.000426354541283431 -0.00217716125503015 -0.00082672779913705 -0.000301677221540238 -0.00356186005844337 -0.000589238145577758 -0.00136990987556723 -0.00010967547311866 -0.00302875159213102 -0.00266781067401222 0.00108160050217708 6.30321078524496e-05 0.00132680078852788 0.00198148821523181 0.000712396383767882 0.000421182500519774 0.000726022590885786 0.00106671802074927 0.000766666341941121 0.000425595102781702 0.00492616006501545 0.00487776306438282 -0.0050324999543589 -0.00244533980205804 0.00141940760732469 0.000778153191383214 -0.00210964164491323 -0.00204303210987221 0.000884992489691192 -0.000485667129187013 0.00144085665711485 0.00372331936457613 0.00254149869145207 0.000169374827180105 0.00330559064379851 0.00154076762139213 -0.000659732369838809 -0.00124593903320162 -0.00127353620782183 -0.00186683237039808 -0.00141934615516315 -0.000354675445995189 -0.00149971624496744 -0.000630691986444912 -0.000180014718080627 -0.0017917220097935 -0.00092844870999507 -0.00150455819528945 -0.00335761560546801 -0.000888374302477249 -5.25081954722987e-05 -0.00223087676211859 -0.00251462645549921 -0.000834822806707584 -0.00182753481128533 -0.000401404842012714 -0.00387621768833998 -0.00184509271431019 -0.000477682075271703 -0.0020201923116781 0.000433831649011232 0.0007271183817574 0.00186649495195916 -0.00183027132301356 -0.00106567191683236 0.000752872467144658 -0.000463354908705897 0.000962590608945767 -0.00297443289409418 0.000484402007828053 -0.000492905432656178 -0.00352686275798764 -0.00453283387686906 -0.00022512086613702 0.00130396595497409 -0.000800258396143654 0.00195177301129193 0.00130640653518154 0.00234133329333529 -0.000617361106648469 -0.00124610822536443 0.000796294660681377 0.00103334883278697 0.000539654977700473 -0.00237208417406169 -0.00373536720410663 0.000847525585912005 -0.000644291186355078 -0.00247836087823563 -0.000345506170093713 0.00156435496822921 0.000454353623853548 0.00108253563198719 0.00108192545310402 0.00078563866745014 -0.0025547870701486 -0.000102247705936852 0.000860140537595219 0.00197624281806746 0.000730663564551237 0 -0.00175184078528217 -4.66545230792568e-05 -0.00227715987410465 -0.0015640702008381 -0.00290059781612602 -0.00186951193165974 -0.00270577782294526 -0.000889218742653367 0.000521138207728547 -0.0013982457728014 0.000485621966610666 -0.000677182754918718 -0.0013441044955827 0.00242438333262514 0.00351545725829151 0.00387210909829424 0.000730898712073057 0.00105615311279042 0.00364610558294656
0 0 0 0 0 0 0 0 0 0 0 1 0 0 0 0 0 0 0 0 0 0 0 0 0 0 0 0 0 0 0 0 0 0 0 0 0 0 0 0 0 0 0 0 0 0 0 0 0 0 0 0 0 0 0 0 0 0 0 0 0 0 0 0 0 0 0 0 0 0 0 0 0 0 0 0 0 0 0 0 0 0 0 0 0 0 0 0 0 0 0 0 0 0 0 0 0 0 0 0 0 0 0 0 0 0 0 0 0 0 0 0 0 0 0 0 0 0 0 0 0 0 0 0 0 0 0 0 0 0 0 0 0 0 0 0 0 0 0 0 0 0 0 0 0 0 0 0 0 0 0 0 0 0 0 0 0 0 0 0 0 0 0 0 0 0 0 0 0 0 0 0 0 0 0 0 0 0 0 0 0 0 0 0 0 0 0 0 0 0 0 0 0 0 0 0 0 0 0 0 0 0 0 0 0 0 0 0 0 0 0 0 0 0 0 0 0 0 0 0 0 0 0 0 0 0 0 0 0 0 0 0 0 0 0 0 0 0 0 0 0 0 0 0 0 0 0 0 0 0 0 0 0 0 0 0 0 0 0 0 0 0 0 0 0 0 0 0 0 0 0 0 0 0 0 0 0 0 0 0 0 0 0 0 0 0 0 0 0 0 0 0 0 0 0 0 0 0 0 0 0 0 0 0 0 0 0 0 0 0 0 0 0 0 0 0 0 0 0 0 0 0 0 0 0 0 0 0 0 0 0 0 0
0.00629224346499915 -0.00125971084465377 -0.00185765887392447 -0.0013338021875485 -0.000106987416351373 -0.00249729196026865 -0.00281611579641149 0.0058151365572544 0.000952084748954183 -0.0056777034001382 0.00324920859405267 0 1 0.0129570077346972 -0.000880244871040403 0.00615271379128438 0.0015510528024283 0 0 0.00924118721859311 0.00447486926172655 0.000981534347291362 -0.00326643453497932 -0.000296605383402054 -0.00047922959339187 0.00382036465765134 0.000599306756246284 -0.000580460505610006 -0.00109658932315584 0.00183868001543796 -0.000414458845262721 -0.00120177757445743 -0.000735926551861621 -0.00060184535314547 -0.00239672436239709 0.000183047313825267 -0.00136267198813097 -0.00173493618554056 -0.00237223332782944 -0.00654067968529146 -0.00656660509856698 -0.0050923768530433 -0.00373432294437562 -0.000354813748874125 -0.00181144257244835 -0.00102856231712485 -0.00263426977756626 -0.00446286280026177 -0.00409144458156603 -0.00237785435450156 0.000628372067744782 0.00283992251041202 -0.00127389932063069 -0.00122435133828753 -0.00145279314005525 5.75451181565216e-06 -0.00268585163378889 -0.00239330429139941 0.000402606542852671 -0.00142452578648946 0.000728288361272043 0.00177237555677285 -0.00349029924477754 -0.00346870643390452 -0.00558658954708202 -0.00296454208161976 -0.00252765094561237 -0.00123137254855509 -0.00474622486169899 -0.00795763153194123 -0.00120155434532224 -0.000101564657299837 0.00179637126901614 -0.000535900155691371 0.000971753140738967 -0.00107869073558143 -0.00242552788001097 -0.000523570396228922 -0.000620073247656575 -0.0004065350228398 -0.00227603106285637 -0.00121420438915744 0.00147722315818103 0.00294123162092752 0.00122145747783049 0.000365738713951323 0.00311716761375688 0.00108250345570422 0.00816616477191567 0.00591003702274516 0.00477494148956951 0.00564425285893086 0.00899433869322933 0.00590669424019766 0.00296064451532847 0.0037519199495801 -0.00210144471189657 -0.000734799277083075 -0.00303282404166531 0.00103937151731347 -0.00471936400774911 -0.0033233289868351 -0.00403092338655112 -0.00403085149639177 -0.00290536964877649 -0.00269571358404947 -0.00206818523242962 -0.00160384547802746 -0.000473145299140695 -0.00112957281045332 -0.00157002072766799 -0.00219369940606784 -0.00107366735118794 8.90434546992725e-06 -0.0020398475430426 -0.00196500712304928 0.000317988489756602 0 0.000182671158216599 -0.00269765338339207 -0.00246665680957671 -0.00172305889901805 -0.00104691014190521 -0.00245415196967142 3.32876892316835e-05 0.0010077278779535 0.00354273905405632 0.000312155197291719 0.00214402044256915 0.0082974223088383 0.00267750276678971 0.00223134024689129 0.00148166428552701 0.00238866406584439 0.00646262080678305 0.0037717609714963 0.00073921486154044 0.00183849657831894 -0.000435424376853656 -0.000950308755440929 -0.000900998254505365 0.00265387691309692 0.00824646700244614 0.0072918937558409 -0.000716121311094704 -0.00136275592320288 -0.00357017525917915 -0.000789797170541273 -0.00263446033531318 -0.00122957732836175 -0.00141457645434451 0.00298594524962553 -0.00354490032045619 -0.000628036564121501 -0.00177367739173997 -0.000477412618323962 -0.00135930039770169 -0.00398826456087378 0.0030631503114625 9.45761512264478e-06 0.00198467317514085 0.0012006717933126 -0.000744172018174885 -0.00536155880047507 -0.00482207722972143 0.00112981220760141 0.00145058920070253 -0.00239331367478599 0.00559465622825511 0.0047404099257289 -0.00359345015184853 -0.00154564045459131 0 0.006764281156992 -0.0045306249562104 0.00471455323206944 0.00388863180968757 0 0.00421609535791773 0.00389410459041077 -0.00196636295391898 -0.00396160465250948 -0.00284316020815932 -2.16113832004722e-05 -0.00277978219582319 0 -0.00316061447829433 -0.0032178734422401 0.00262010165360322 -0.00201766765085555 -0.00103819062815683 -0.00450041123406957 -0.00232808692910163 -0.0021091380919202 -0.00121859454414774 -0.00415501172826566 -0.00120252511177048 -0.00193579126933432 -0.00424763922904783 -0.00192654416411253 -0.00237233699589735 -0.00158698751469808 -0.00367518326576342 -0.00110048562752585 -0.00465743337690906 -0.00203598900269049 -0.00264820304520564 -0.00336239768368879 -0.000457807800826126 -0.00145995278231126 7.91015752555376e-05 -0.00480235549938147 -0.00311093946100732 -0.00289184925159793 -0.0019529289895352 -0.00234362117313259 -0.00164900988077888 -0.00335175135862194 -0.000410883832234586 -0.000875928365200694 -0.000363314808473865 0.000121174196787635 -0.0017141476090934 -0.0014641080023228 -0.000312172997953471 -0.000766537728471751 -0.000843785612611786 -0.0021426068159769 -0.00123691289436559 -0.00246627339228161 0.000252081535704125 -0.000516847813787119 -0.000106263578768693 -0.00215865593207785 -0.000775258348614465 -0.00222147368044956 0.00217758152377562 -0.00263652223718391 -0.00483886628166119 -0.000167286702966434 -0.000370781967589824 -0.00171407751632682 -0.00137978047990185 -0.00434286069284349 -0.000596512967359347 0.000985577820631504 0.000360226284487588 -0.000279601016612716 0.000450833532634131 -0.00418785810661076 -0.00043088542363307 0.00397170711008406 -0.000231585060714327 0.00615072781977953 0.000773391289156824 0.000392565479841917 0.00445508893179544 -0.00231451106054118 0.000766728819516233 0.00259653810679924 0.00114540993107836 -0.00100290268241135 -0.00166685196083319 -0.00249999069582916 0.00100329481000336 0.000714874305855535 -0.00230156559505548 -0.00329442657160076 -0.00573036273074277 -0.00301377051576284 -0.00503328911834427 -0.0035395571276223 -0.0013101172376775 -0.00376721384877342 -0.00434843749764632 -0.00316343442475725 -0.00372543321567725 -0.00238325470487733 -0.00228872940967271 -0.00225700894648013 -0.00105627169125623 0.000723721278610794 0.00021389137410737 -0.00120191896416589 -0.000933841674233696 0.000457693313168808 -0.000500998507299194 0.000384079117772416 -0.00104803152196703 0.000982930308106687 -0.00113995048730189 0.00232274250067719 0.00425852985661796 0.0056056281266258 0.00326017170950415 0.00202143962137988 9.97564139345237e-05 0.00257430967568627 0.00197476497322099 -0.000919583034920255 -0.00177086202936251 0.00254111358074075 -0.00136850135613834 -0.00176987576289668 -0.00124378691537409 0.00205164009254536 -0.00072099541795576 0.000774996341686584 0.000764940588111479 -0.00383350030643899 -0.000616562948791794 0.00043419469274047 0.00647945939549208 0 -0.00115180234591487 -0.00044992923572512 -0.00351238395566149 -0.00330991546903423 -0.0032996460636129 -0.00330746541327375 -0.00129014416666282 -0.0027913653548617 -0.00240824375094956 -0.00188173851307119 -0.00107724339708876 0.000481146816016362 -0.000763585370012879 -0.00268160574650214 -0.00187086266338213 0.00114270811817649 0.00205400093781644 0.000654445322467377 0.0014545491769047
0.00522717189863026 0.00102287361203131 -0.00188418223224615 -0.0026504599470669 0.00581516711557198 0.00420981129278523 -0.00650508675534716 0.00274522514545078 0.00115014790643286 -0.00445977905883694 0.00424827352083385 0 0.0129570077346972 1 0.00142534780628676 0.00682782003141541 0.00216553716232147 0 0 0.00679527781384814 0.00287425851272293 -1.0610716117991e-05 -0.00104133874782801 -0.00293881639904973 -0.00154456599639713 0.00101585037068925 -0.000376042854328637 -0.000245978421055096 0.00113659083419924 0.00129661201128922 0.00601894591075773 0.00198125403664754 0.00398780046079538 -3.85456107247631e-05 0.00205383579526433 0.00231270616000026 0.00187168405703917 0.00362231087142891 -8.69081190175659e-05 -0.00385321260529828 -0.00560094703359618 -0.00522285580730476 -0.00196069835383144 -0.00306033547372266 0.00161539196519174 9.03895678154326e-05 0.00184307673486119 -0.000168166027988746 -0.00478484027439096 -0.000917084893965643 -0.00108979561115534 0.000232551932565493 0.00078056367906963 0.00104022961062173 -0.000450955480899857 -0.00272752068423386 -0.000546534038154958 -0.00180509941062508 0.00231261323989907 0.000911355125732622 0.00119229273694158 -0.00103984905217428 0.00530981578076546 0.00146418620767182 -0.00211114765172601 -0.000418983304930099 0.000615144618883524 0.00116088661576609 -0.00185257511743783 -0.00270296567855982 -0.000142414703790216 -0.000458845960095231 0.00334716182095384 -0.00386437618415105 -0.00251987165485795 -0.00365573635298943 -0.00176410171440115 -0.00242480689888642 -0.00130958100890869 -0.0034036894582783 -0.00264339397506504 -0.00146443291446586 -0.00169082198350445 0.000768138613677 -0.00262560000905537 -0.000199251218940922 0.00198954781708705 -9.12340798095179e-05 0.0120978443197117 0.00991101019606823 0.00158711211903754 0.00206751245896346 0.00832280961262604 0.00650393305010005 0.000428934363824038 0.0013720550260764 -0.00116047844964613 -0.000571697808992671 -8.2426919119481e-05 -0.00240167125027712 -0.00398531728796696 -0.00119665922722463 0.000481327859165486 -0.00134589879850931 -0.000327355096955526 -0.00358251935850064 -0.00342631075865708 -0.00560449240259259 -0.0031481004011424 -0.00495405867940939 -0.00299924944097304 -0.00495414422274947 -0.00340830936926527 -0.00360606537713214 -0.00385729728847369 -0.000255292257660343 -0.000156460830350461 0 -0.00325496583496865 -0.00322593188660846 -0.00174106997498921 -0.00189923345039704 -0.000783500412098676 -0.00346929177941987 7.85527035905005e-05 -0.000772295755768032 0.00225171198352305 0.00120593346272692 0.00274468357504078 0.00596719248253025 0.00101054960214711 0.00177565406827362 0.000273235250490734 0.00214225999934606 0.00615854525947871 0.00235481734233233 0.00488864264580466 -0.000274319960301452 -0.000285616641282691 -0.00104096892001239 -0.000468241018172373 0.00538000466316798 0.00764112288463653 0.00629346725713287 -0.00526283832319395 -0.00303401039609701 -0.005403004658714 -0.00268528677566367 -0.00223119674054166 2.02657662396859e-05 -0.00281067143774392 -0.000191460715715233 -0.00334219286968955 -0.00196177312139527 -0.00247239575133871 -0.00219910705213437 -0.00439515041835242 -0.0039323009058865 0.00212930595516972 0.00108776106268266 -0.000209229057730427 0.00449078027200182 0.000866246203213426 -0.00246450882070632 -0.00445856917843698 0.00485048394507123 0.000724873395665871 -0.00594884617238199 0.00464412690643521 -0.00210077092590617 -0.0015728150589781 7.21372648562988e-05 0 0.00620970294712438 -0.00286932327538372 0.00123380124522486 -5.71319670115963e-05 0 0.00514703440854171 0.00132002798673776 -0.00443887167135183 -0.00367496598761084 -0.000930421354975534 -0.00229984161484566 -0.00182686436247162 0 -0.00236152637153506 -0.00194335647448697 0.000383720927621309 0.00606949079963992 -0.000362726875435198 -0.00214560377170485 -0.000120101807455034 0.000622917321138995 -8.98348775885791e-05 -0.00307531645265293 -0.000587256396478138 -0.00246811597100928 -0.00381813670357661 -0.00244720512186193 0.0024333757392218 0.00270050810617984 -0.0016320957761907 0.00331960552903416 0.00177609545609891 0.00177717280132792 0.000730113240751327 -0.00366396106644406 0.0008453721770945 -0.00123686388920099 -0.00129404009301185 -0.00132937649374252 -0.00189871759229279 -0.000778666534496893 -0.00231945041054915 0.00226669683209281 -0.00222606779891675 -0.000199646768656245 0.0023714128498259 0.00121752453700892 -0.000888163988556803 6.78316941815095e-05 0.00231763667063973 -0.000193387653403014 -0.00251666088771117 -0.00355208426864414 -0.00300966563508977 -0.00215006152503081 -0.00311245045627203 0.000990180761635686 -0.00503489288902809 -0.00310747200378471 0.00129469859234715 -0.00407461553582249 -0.000822603034772042 -0.00292577371515628 0.00108393122955214 -0.00329808224653357 -0.00231843813733982 -0.00180177681600582 -6.11567088968548e-05 5.0753303128401e-05 -0.00288788574354273 -0.00205594237004047 -0.00303619398340799 -0.00449262810076814 -0.00346446788294805 -0.00284732566914037 -0.00125143383419404 -0.00199938181375008 -0.0011435697520574 0.00102760203761576 0.00199987219156671 0.00739811071388972 0.0059003355502567 0.00482262788345858 0.00491238295077498 0.00212904744490897 0.00234411008145817 -0.000172607816601808 0.00066309378618582 -0.00235050018639279 0.000310377650784877 -0.00490667216216339 -0.00138227477218414 -0.00224917337379906 -0.000213141204516643 -0.0032483466121423 -0.00163885454406114 -0.00105095762165265 -0.00486136943735858 -0.00560274045703575 -0.00303689931717558 -0.00579390260153125 -0.00365865002237587 -0.00616887320646191 -0.00183650596116249 -0.00376427036792193 -0.00256803255312994 -0.00208393355008994 -0.00053858809190683 -0.00119514518114202 -0.00508067533824363 -0.00247712353162502 -0.00110624829070542 -0.00126499954553297 -0.00337951422853211 -0.000630820257282203 -0.00272398574968381 0.000447948503402477 0.00122955245468877 0.000143079092101111 0.00131016158862898 0.0041168550839839 0.00854240530704518 0.00535092845682404 0.00171446471715287 -0.000341539648938124 0.000807136501158152 0.00170733013828752 -0.000136389402018638 0.00103553064923703 0.000905541642973719 0.00273032567069498 0.00281027075300173 0.00266901652874182 0.0016252261325496 0.000953394181162696 0.00218901847314618 0.000878855829209523 0.00322412807681893 0.00482064164743245 0.00330676584382717 0 -0.00194435946140101 -0.00338509686906181 -0.00304109814264026 -0.00361586374403761 -0.00623317242058551 -0.00375159779856769 -0.0043096829966221 -0.00438791011610279 -0.00319130024640314 -0.00343297816292211 -0.00317297908855272 -0.00102790680562076 -0.00339181021345966 -0.00361691774840162 -0.00313834246272999 -0.00169016703304028 -0.00114992699587066 -0.000169400888534841 -0.00158885167436604
-0.00658362793799207 -0.00294908852362882 -0.00278883935900533 -0.000624434554709873 -4.7798064856157e-05 -0.0042673068771788 -0.0076566871006528 0.00463145214794091 -0.00463562488445279 0.00230375914772296 0.00447515809326669 0 -0.000880244871040403 0.00142534780628676 1 0.00427823438243424 0.00622663897068173 0 0 0.00542912522891186 -0.00233208615203902 0.00165310526345545 0.000159324263715558 -0.00465597386222093 -0.00319909995524009 -0.00379702741765925 -0.000120594087224984 -0.00236333158127985 -0.00139863448113993 -0.00417910352438959 0.00643886293465729 0.00540679177572092 0.00483878278479422 0.00156198996316417 -0.00134622336625655 0.000119768146611553 5.29420147372596e-05 0.00146778811871543 -0.000384501883339664 -0.00558847291447674 -0.00521561907310669 -0.00561190227507652 -0.00487240596689242 -0.00425195977038905 0.00172114846950165 0.000870462196304606 0.00231785216371972 -5.85880773605442e-06 -0.00202005621350991 -0.00266335130280337 -0.00610963793314354 -0.00238324111070346 0.000135340000426582 -0.00193190886442007 -0.0028965950555112 -0.00523331212823392 -0.00439446111970478 -0.00349526889505166 0.000976618648196232 -0.00433701730065314 -0.0052899575844565 -0.00503487738506753 -0.00243944666247382 0.00390507496457292 0.0024947504851428 0.00159121035050695 0.00254318011436438 0.000481501966699749 0.00379841867741745 -0.000593843736112766 0.00115134246020236 0.00207616734333481 0.000546039278822851 -0.00628449815325897 -0.00554850008278576 -0.00539934873306103 0.000427614184919381 -0.00502262819709838 -0.0043090384835909 -0.00437937481727449 -0.0064077586220507 -0.000728558583898681 -0.00118123476286593 -0.00168082302666969 -0.0029478144841119 -0.00470164672524869 -0.00535370272945481 -0.00532650612656802 -0.00226499606663353 0.00207346563357736 -0.0068130468775837 -0.00434062418290673 -0.00523887412171266 -0.00157172230179823 -0.00658194165686907 -0.00539220872759555 -0.00501365990456157 -0.00342433631510892 -0.00713487082917188 -0.00676447568106511 -0.0039854367434811 -0.000384195411245803 0.0020175311188113 0.00266932953622578 -0.0024512903273212 -0.00555703316294574 -0.00547781003999061 -0.008204797634361 -0.00552773177232337 -0.0072472568329538 -0.00417265755871638 -0.00820958482382114 -0.00545270447559109 -0.00393866601006167 -0.00140753936826544 -0.00358989488428649 -0.00421576293811204 0 -0.00302150837013301 -0.00446458731924318 -0.00260152947357017 -0.00201719823726172 -0.00230303193938217 -0.00316809717486167 -0.00250308837226367 -0.00467250965447183 -0.00268580659000886 -0.00295024985074729 -0.0021182400078036 -0.00297700884616828 -0.00487755802063919 -0.000813143259282464 -0.00411928824824976 -0.00131071737979048 -0.00147522604174451 -0.00369745815105803 0.0102379176863565 0.00948568820716257 -0.00289728035480824 0.0039822523594556 0.002105252082024 0.000707605942617714 -0.00246894429411147 0.000243980343760668 -0.00448648794787051 -0.00576321220165679 -0.00505032535340148 -0.00451352915328153 -0.0044816834430747 -0.00223657570592378 -0.00566308652354356 -0.00402344455652916 -0.00421145604319658 -0.00448623082283058 -0.00431539321734558 -0.00414371984572826 -0.00573248338086859 -0.0066319107401728 -0.00209822984191071 -0.00110003969743754 -0.00449818894109328 -0.00469380814454588 -0.00243705680950846 0.00145439596845477 -0.00385844568178614 0.00360062213600869 -0.0043113690910576 -0.00280263850255906 -0.000773948424548935 -0.00221475651553113 0.00344629557131302 0.000148639991613726 0 -0.00308016068813183 -0.00313410198051476 0.000148166810068193 -0.000820323138289093 0 -0.000793290989505004 -0.00529171891473703 -0.00117400982886168 -0.00380045279792482 -0.00327875132621756 -0.00443195293325091 -0.0028379361902764 0 -0.000307773360135804 -0.00209417904893036 -0.00617200900300027 0.00417663434402779 0.000120688422600138 -0.00141767571053451 -0.00244269800561931 0.000846373870453822 5.6974387608977e-05 -0.00134835859782286 0.00323194322452179 -0.00169881743995151 -0.00483934898280559 -0.00316262145594947 0.00359732785556098 0.00542545389552183 -0.000273294606963342 0.00517067311695607 0.00294678443257826 0.00448105844738875 0.00157068095285357 -0.00106720095419118 -0.000719924323806947 -0.00448852393956534 -0.00418370672413926 -0.000974533395581706 -0.00614069208737664 -0.000998040915484722 -0.00288996500997284 0.00300088856056017 -0.00455093553103534 0.00144487369097565 -0.00469074724384865 -0.00423033201382095 -0.0058389616412992 -0.00437520959969092 -0.00308230452094889 0.00330698528561905 -0.00306071768380166 -0.00380806264228642 0.00367515568696701 -0.00303604745347099 -0.00497874103486472 -0.00360829174094807 -0.00417215789165931 -0.00414810627575141 0.00112423552804746 0.000265420620052511 -0.00262439860086372 -0.00554178435786512 -0.00189028780205581 -0.00276694411384634 1.32406186067496e-05 -0.00228728089920546 -0.00262193531445915 -0.00336602140977943 -0.00514636395765923 9.17656664174218e-05 -0.00478799212869879 -0.00342917497973792 -0.00327791722132945 -0.00310793089515376 -0.00393246219940353 -0.00461633138426266 -0.00724263197958689 -0.00607080504506243 -0.00319507597008346 -0.00273184336262794 0.00405830438316833 0.00494663564408766 -0.00191574679505006 -0.00350236971908662 -0.00417163298834713 -0.00449271281853558 -0.0028211117934864 -0.00582983618763162 -0.00319009565880328 -0.00632953263740315 -0.00307961105695718 -0.00526119284662527 -0.0059134513984212 -0.000389827954162642 -0.000486801121724353 -0.00308299689770117 -0.00184226473972794 -0.00556718332204456 -0.00318731614415527 -0.00258808042905466 -0.00601251777678491 -0.00364815193774459 -0.0017875801083459 -0.00328810541340008 -0.00494617354188734 -0.0034772033066164 -0.00223837320623071 -0.00277413047028579 -0.00419708866821704 -0.00349136229909901 -0.00321333139760462 -0.00224824459154358 -0.00321586776272213 -0.00187974757755326 -0.00199080776124448 -0.00190345187403543 -0.00350427429215566 -0.0020230517551845 -0.00262742224672182 -0.00265184744379478 -0.0028905227249123 -0.000866690064995162 -0.000595004923530127 -0.00232417730775495 -0.00018186756643082 -0.00136489750935087 -0.00435070471093428 -0.000770961059906143 -0.00156052422120924 -0.00357955140758794 -0.00113506084404004 -0.00326344987174476 0.00569884795070545 0.000391570027264915 -0.00132503060693058 0.00127144323217871 0.00334543446995073 -0.00296518803591998 -0.0010828911709563 0 -0.00228009115960801 -0.00337501075436481 -0.00186745415149517 -0.00684400137204488 -0.00260970220229956 -0.00221134585946985 -0.00450421740900073 -0.00450581536035169 -0.00324747089400949 -0.00319688021110605 -0.00382646172641548 -0.00301461796606758 -0.00359873607503347 -0.00474449908941993 0.000412191151361382 0.00373803819204267 -0.000892757129108372 -0.00127393767344032 -0.00378710264842535
