1 -0.00597304458307651 0.00310478095911217 6.56617195267469e-05 -0.0031382144578088 -0.00513579105956484 0.000549675188719116 0.00254566679398425 0.00303324765535517 0.00424355175587822 0.00241199885930123 0 -0.00188150460902971 0.00191655473419785 0.000241905509153982 0.00142351993836494 0.00559423082636984 0 0 0.00334665171669145 0.00271432741107605 0.00263960810830604 0.000359972402710591 -0.000116913474476105 -0.000598734829477094 -0.00287931034528826 0.000518151751863228 0.0016279043068673 0.00219712081451158 -0.00548335708653831 0.0021809789217463 -8.8543082923976e-05 0.000200893475977124 -0.00172166862676546 -0.00309945698745767 0.0049507685854868 0.000398234288141541 -0.000395359688475927 0.000425802877026469 -0.000621679136732207 0.000971904766261393 0.00098699196423943 0.00122220398710773 0.000276143166873013 0.00159420996480248 0.000818129438152072 -0.00143301789629063 2.8392677656226e-06 -0.000167318915059864 -0.00430458968027613 -0.00219867180652397 0.000405906305862436 0.00514181359491488 0.00308243661654802 0.00555445206287036 0.00191300437012969 0.000874517505674751 0.00452982216060607 0.00550524927123203 -0.00220568437154403 -0.00477263271291333 6.22717742639556e-05 -0.00128027171615041 -0.00183512018308638 0.00570852963243398 0.00738337332605707 -8.58291493530063e-05 0.00210243454131756 -0.00192274413362356 -0.00201322891228812 0.00497399403426735 0.00134624571993543 0.00132581190227734 0.000802533580072873 0.00358221663614384 0.000931804152551425 0.00200378148225931 0.00274329316088886 0.00280032600257527 0.00165030733911283 0.00324263600873101 0.00721807891136959 0.0035706131615054 0.00747647214675593 0.00292615394276869 -0.00143057678515268 -0.0035510337300844 -0.00465376736131813 -0.0020343602437157 -0.000320414502108077 -0.001848870948169 -0.000998148366252262 -0.00152717911654385 -0.00522326477604711 -0.00282618594338965 -0.00218234309084727 -0.00699943142679611 -0.00411390504699104 -0.00468890026876564 0.00246099419150689 0.00293502693451913 0.00570706598713628 0.000945239778350918 0.00447560349079915 0.00245623255870838 0.000879986929106321 0.00219897668381726 0.00426187180438559 0.00267628795097272 0.00221063583939647 0.0025234771414452 -0.00158878967815096 0.000998382113824896 -0.00193733442944636 0.0022739703645833 -0.0013814349481043 -0.00239946799419668 0 0.00113263396566923 0.00330904638056529 0.000283233141248095 -0.00119866580334031 0.00541855852700112 9.43789893473781e-05 0.00128956226501873 0.00305919411259564 0.00433491803129085 -0.000343408125123817 0.0044601881245388 0.00167887728497634 0.00353978249802498 -0.0012533537240146 0.0061659036417734 -0.000547892529059385 0.00127639995708784 0.00248586928738857 -0.00324420478131979 0.00348944125472945 -0.00191756429689676 -0.00239951433842927 -0.0011897662819197 0.00327174114104053 0.000971446258381896 0.00376974532729408 0.00225183259484873 0.00130762394288702 0.00371030183269823 0.00112650034208163 -0.000280363122125719 -0.00140127349292341 0.00038096703183567 -0.00206472572136586 0.00215535008055444 -2.00619789214557e-05 0.00432895550983047 0.000337342754849079 -0.0015498983155112 0.000873455715207899 0.00294741494565177 0.00516375020739747 0.00311257485906301 -0.00275297123731139 -0.00269000024902273 0.00188939258682167 0.00260795323967464 -0.00214802772315337 -0.00163400322280134 -0.00353814387204073 0.000780372118957687 0.00103072571332599 0.00485657754374735 0.00246072866105366 0 0.0010116317577014 -0.00068556271960235 0.00146517830665272 -0.000361520739187512 0 0.00170682624461539 0.00430000944658243 -0.0024061266033761 0.00100589670835845 -4.11638891247942e-05 -0.00140150663689614 0.00388670153320482 0 0.00196924633754614 -0.00131586035924106 -0.00382880288522107 -3.96538834702625e-05 0.000483443739183637 -0.000210977588348636 -0.000972700538111527 0.00294920024097198 -0.00284163006111386 -0.000202390039372555 0.000614750556086021 0.0010555184574158 0.000489738217439616 -0.000654019909577183 0.00492785869528719 0.00101075017563387 -0.00166208477405065 0.000102347889688624 0.000760454024424112 0.000713982748634616 0.00143428697965323 -0.000661121803622139 0.000128295624881627 0.002647894853459 0.00226447036095173 0.00343646883956013 0.00157230553702934 -0.00169532195048199 -0.00213602814074383 -0.000459167169877352 0.00289172459755633 0.000465049955195431 0.000264868321029351 -0.000588830848158388 0.00768792200685219 0.00424363120196541 0.000725615294982302 0.00279857740729464 0.000742553153212732 0.00068312458005484 0.00155894509946997 0.000153543508203405 0.00220489899261566 -0.00513924732229813 0.00478711770096664 -0.00102594120842065 -0.00223811261931801 0.00485373388761411 0.00582844225009492 -9.83466135774023e-05 -0.00107530370340983 -0.00202967784931345 -0.000109840328883274 -0.00309821252424368 0.000675774503004543 -0.00291032297589188 0.00539110058633989 -0.000153725937760328 -0.000705632028510029 0.000844996239616047 0.00627825932102839 0.00347172698927979 -0.00107914785402193 -0.00317903946415342 -0.00101470945025594 -0.00338356962756432 -0.0033387872761874 -0.00341480284668548 -0.00274144192253414 -0.00200220235569948 0.000194650117744305 -8.43869587057864e-05 -0.00139708860169558 0.00327754890978099 -0.00472083146584753 0.00148988691826035 -0.00536483667373697 0.00521320981698983 0.00405900116882006 0.00155799382715238 0.00780646581433272 0.00231651020490805 0.00269869132660377 0.00188748706084642 -0.000562063831653672 0.0034383719776704 0.000929413218881905 -0.00324690496583401 -0.00287436105944705 0.00277824314658164 -0.00356455902182133 -0.00203251424774836 -0.00246171061649295 0.00285572846783614 -0.000140696605691157 0.00314084331548881 -3.8211773990686e-05 -0.00215323906102297 0.000642762045972494 0.00464241696874028 -0.00351977005271079 -0.00152818402257544 0.000760979054000416 0.00186859469980156 0.000488273416608298 0.00159006043271612 0.0036670594130225 -0.00233089391880523 -0.00148632888879713 -0.0024332070605441 -0.00211027162641987 8.58142457438251e-05 0.0015855222039915 0.00209465511135841 -0.00248515297670567 0.00619764557038364 0.00324331701258721 -0.00419165200592459 -0.00383138536973289 -0.00213778935204247 -0.00190821603050079 -0.00406534970511635 -0.000786431632351561 -0.00177649697328882 0.000608778966196889 0.00171895831511161 -0.00145345920302031 0 0.000963096871264325 0.00379979743304101 0.000445218591118074 0.0020125220886182 -0.000359329186224585 -0.00186118385564742 -0.00252351165059007 -0.000525057932421228 -0.000204506839733429 0.00136104902191726 0.000776448229533193 0.00335581090078756 0.000172665490687263 0.00380626567219986 0.00171210749798461 0.00129163307375013 -0.000498707690850793 0.00088338138501087 0.00107193828361079
-0.00597304458307651 1 -0.00062966981447253 0.00256443150605724 0.00364002925376606 0.00520947157796314 -0.0086480156893125 -0.00573926675192368 -0.00238200192573264 -0.00105113333674228 -0.00270531697840726 0 -0.00308026965870471 -0.0046670781033623 -0.00099199538380271 -0.00214285078129629 -0.00266393321015409 0 0 -0.00361474872820682 -0.00616183884606469 -0.0055746594878341 0.00675736666609324 -0.00557120440666401 -0.00911923039815431 -0.00163030658801125 0.00148400501382968 -0.00129111381779559 0.00103913781632958 0.00138685939725707 0.00235724788736051 -0.000761054609821251 -0.000812301050637605 0.000343446235354348 -0.00347684255720823 -0.00502772567231696 -0.00320562055399809 0.00334040808363992 0.00291836164054062 -0.00113235011368662 -1.7520746895119e-05 0.00429546621726013 0.00256019623749973 -3.56050332797443e-05 0.000732274047060993 -0.00123076199953189 0.00476223424352014 0.00560372657459771 0.00597587785837192 0.00216775533800916 -0.00173377236485756 0.00269184676045843 -0.00333715325646952 0.00118601031963334 0.000137985865119751 -0.00084591850789731 -0.00340803079070269 0.00269726987029372 -0.00210029627661807 -0.00122901479582961 0.00215523945431734 -0.00197076162184326 0.003318583034311 0.00582811043804035 -0.00107624550670148 -0.00237510469847058 0.000577712507307469 0.00155486345557279 -0.000104789772022596 -0.00362806226370841 -0.00110727690188372 -0.000435031316062478 -0.000299510504674548 -0.00617610202232065 -0.006687220566221 0.00401617703577274 -0.00489903167161481 -0.00468412634284716 -0.00172750103252414 -0.00227192764657562 0.00250933978969372 -0.0053528868417733 -0.0031342899388405 -0.00396401394552861 -0.00471688063933477 -0.00178525956295101 0.00277745845052946 0.00144872539834263 -0.00286114173481982 0.000314186593727811 -0.000672757079292642 -0.00329884426069051 -0.00290589082896929 0.00641522875194108 0.00368093682236518 -0.000208329790523916 0.00615837644252622 0.00219096922096317 0.00295824331895049 -0.00550420776513754 -0.00369330404831682 -0.00602758495136653 7.02426410550755e-05 -0.00245514668822581 -0.000131555487649159 -0.000783766860364728 0.000802680984418484 -0.00382925862744897 -0.00591242440299106 -0.00833751152227385 0.00153066119916204 -0.00243754447044283 -0.0013911122881923 -0.00424733279183614 -0.00409832354527076 -0.000760862615598976 -0.000271440615399124 0 -0.0025480432186464 -0.00715223223376078 -0.0031951511111392 -0.00301551567482189 -0.00882313492603743 -0.00326255434369534 -0.00709121813205315 -0.00426016234551016 -0.00717517776281709 -0.00408954867731816 -0.00380472948149075 -0.00731156264557808 -0.0048136171274783 -0.00244714104718039 -0.00690088475216783 -0.000978486088073953 -0.00471341403369911 -0.00303810021020149 0.00080081659454434 -0.00426062498551799 -0.00313018594032264 -0.000371787303307222 -0.00500165822246985 -0.00267319293942181 -0.00348863622168279 -0.00257066685927271 -0.00664660947098015 -0.00885712974986667 -0.00686815104740502 -0.00598382158151756 -0.00652777963985593 -0.00643844657594492 -0.0057599278639407 -0.00319650576530784 -0.00987226942505465 -0.00677000822801972 -0.00824315395843103 -0.00439132550277067 6.76654727309408e-05 -0.00394288412072916 -0.00805483462228949 -0.00158964333160223 -0.00213717984561941 -0.000317126730344384 0.00480527651736886 -0.000311194957223522 0.00128342478567258 0.00785951401586731 0.00587305018148881 6.65195455735648e-05 0.00397310426822846 -0.000842231041120534 0.00144379434715376 -0.00403297187069298 0 0.00319947109170462 0.00177537287550286 -9.50045024741414e-05 -0.000396446549836869 0 0.00289951175107103 -0.00450443068219943 0.000804594413287043 -0.00336196806115632 -0.000216199459335722 -0.00439076367737538 -0.00448252086066415 0 -0.00146604682864841 -0.00421982536107263 0.00228702249389539 0.00482266630956704 -0.00137831723317632 0.00326735481613011 0.00228805126802285 -0.00126380938812667 0.000867090743545195 -0.00105354927498025 0.00632569287018471 0.00409527552651223 0.0030162579976155 0.00243657835652593 0.0018131950909367 0.000831356994854796 0.00179772081305936 0.000548422084287405 0.00330541629635405 0.00296143032162531 0.0032858258335541 0.0063819895957827 0.0075261202872211 0.00214992193537577 0.00109630037422058 -0.000183596520573698 0.000660069547070705 0.00389353490881985 0.000424541765354411 0.00406610871807049 0.00410243686656997 0.00255492801645381 0.00140189122045314 0.00090206479265096 -0.00344923117224202 -0.00239711940098679 0.000542662873899853 -0.00180800388758117 -0.00220151023404908 -0.00095422422275954 -0.000697756337848766 0.000536351517915027 2.25611792602029e-05 0.00406634041987886 -0.00155788765708884 -0.000505467320380217 0.0023524116258402 -0.00285063045640773 -0.0049581619106197 0.000595565066565537 0.00133170286849883 0.00193544102548124 -0.000259904203807082 0.0018451979318204 0.000560276976932782 0.00205957240688911 -0.00491884449535314 0.00093047062595244 0.00156347737301442 -0.00340898608391254 -0.00837340235815032 -0.00612095728228858 -0.00282919313535957 -0.000263439572195173 0.00556787872809309 0.00776246918350147 0.00799214412549135 0.000124037145310773 0.0046010804061052 0.00514239189574985 -0.00110060288238671 0.00505155328012002 0.00580354285302554 0.00372641385527846 0.00516848038322324 0.00413585217100061 0.00759535075478439 0.000524637695164962 -0.00214227840896756 -0.00322337400485738 0.000165285784651808 0.000282295201088498 -7.13364599143081e-05 0.00120026639324555 -0.00194347984271715 -0.000297636739955364 -0.00241009652141058 -0.000178101838330715 0.000680966249733377 -0.00351385060823571 0.000707548646902001 -0.00181798413705876 -0.00305246105447527 -0.00591507022586508 0.000217265581657639 -0.00690946455711935 -0.0021933010541458 -0.000773186946941951 -0.00368550659487201 -0.00563893211419083 -0.00272262979896338 -0.00457764496618746 -0.00091026515883161 4.09979247785015e-05 -0.00230821828952488 -0.00439066406860988 -0.00487363703192867 0.000338081200995068 0.000649738565305084 0.00383359318728049 -0.00425509231971686 0.00561146808866857 0.00171917214166187 0.000554312947251458 0.00122505308933447 -0.00378571288489021 -0.00408648734274002 0.00471494103033189 -0.000486550129639079 -0.00147450482829184 0.00755847669899485 0.00377552524077891 0.00321289108998299 0.00239207927255229 0.00192880821368421 -0.000179309187658784 0.000595834103482702 0 -0.000842561763724891 -0.00428548527200935 -0.00672663804932225 -0.00148586551392974 -0.00107507830215947 0.00123994536455278 -0.00459851049345819 -0.00546809300889821 -0.00602123226179896 -0.00612220493946506 -0.00449633516428224 -0.00367458871492959 0.00373301911514463 0.000642051411610847 -0.00181300059481464 7.38893634383641e-05 -0.00129374430318851 -0.000748558035545421 -0.000515438523577052
0.00310478095911217 -0.00062966981447253 1 -0.00700795269713458 -0.00234514842123599 -0.00202371378983638 0.00187156766544236 0.00388290247192288 -0.00252531275172624 -0.00238994143881527 -0.00429985416178388 0 -0.00109823769247837 0.00415242470716404 0.00245005859228886 0.00165869017326141 0.00388020150552707 0 0 0.00128924337251743 0.00455102266297885 0.00275355773289219 -0.00593904470921529 0.00367363662314372 0.00187395837080465 0.00510126382152745 0.00413569396192496 0.0021737245824386 -0.00422146944713404 -0.000676095014302961 -0.00506663208806376 -0.00291037074358842 0.000178570340845894 -0.0072989690416346 0.00208548658406558 0.00013153007568103 0.00377823153605911 -0.00407070357648352 -0.00751498265364727 0.000404775662275184 -0.00194600173675072 -0.00147993897587541 -0.00439957735423421 -0.00114674609584972 -0.00629925818599634 0.00272161100142036 -0.00662174384292185 -0.00210712520032173 -0.00474909521175218 0.00157668327178177 -0.00242850174624961 -0.00274106020318424 0.00582991286373677 0.000150253544809614 0.0014624497255418 0.00286431414724301 0.00298669645105649 -0.00160164483377884 -0.000768817796444507 0.00167011838395716 -0.00118676485294701 -0.00645808160467378 0.00132216662073989 -0.000896516787908422 0.00280910087130365 -0.000376461760893429 -0.00317227978834495 -0.00256693610789205 0.00177160506095701 -0.00338720340370085 0.00148228471163971 0.00366853965770905 -0.0058313061317069 0.00701950179409642 0.00553115277623261 -0.00139278554007958 0.000150759405184324 -0.000208287625934513 0.000381434263011452 -0.00572019066595271 -0.00444422493958222 -0.00214217818789942 -0.00380688563721753 0.000901874131043412 0.00276795275455305 0.00607321109764077 -0.00255012100980985 0.00214609915569436 -0.00173517410747749 -0.0044237699940619 -0.00139502891243049 0.00619629366477322 0.00236089975660345 -0.00500002270428312 -0.00268235919226751 0.00461237860688056 -0.00101485533651417 0.005431032059065 -0.00535212258045796 0.00574719650555145 0.00443275860896222 -0.000826228401516171 0.00144969107112456 -0.0016931529572462 0.00475478197885498 0.00466337256089958 0.000751812179533521 0.00386349959590169 0.00638636303801352 0.00798002844898121 0.00124697145979322 0.00346541556288277 0.00429491341033283 0.00547211701705478 0.00175878308128681 -0.00386152113478203 -0.00344254299963938 0 -0.00325668566252621 -0.00522296913163225 0.000718668909929905 -0.000945635955714866 -0.00705561739649745 -0.000494832575738967 -0.00263603939382235 -0.00392522686852157 0.00109936510320537 0.000630133380807127 -0.0058754770036142 0.00326258561136181 0.00414333438058112 0.00565008090802527 -0.000138216786510467 -0.00342882655592157 0.00125622530614911 0.00649309407236962 -0.000992115225322736 0.00362279210547237 0.00840792051536016 0.00289370160757608 0.00640915167155589 -0.00309106003771356 0.00317259284762131 0.00286060241114433 0.00163689987577828 0.00519567024913102 0.0068027334425786 0.00443607396561581 0.00399737275412052 0.00112713208603758 0.00586786875968812 -0.000693662222640941 0.00152189584201361 0.00177319457607499 0.00597365263849846 0.000198848549602187 0.000613770423213145 0.00306333058735165 0.00384597890106379 0.00130989570209127 0.000997559861689028 -0.00410370986764736 -0.00454379055282555 0.000588532275231667 -0.00161552417016642 -0.00493649369441034 -0.00547150447748174 -0.00385156139994034 -0.00252778364171975 -0.000567385632014696 -0.00198707064762021 0.00102415437179774 0 -0.00373882670553468 0.000427439301340422 -0.00494073842597057 0.00515748479831521 0 0.00165750757916044 -0.0011295952376737 0.00357731554617811 0.00353452736210236 3.12410404690472e-05 0.00241741296570485 0.00680576733941926 0 -0.00207529256111707 0.00513026378807413 -0.00527919370080541 -0.00667416017901395 0.000835997663095557 -0.00411360895914233 -0.00232072631099034 -0.000837298305696096 0.00254613775095632 0.00330804192065437 -0.00470197927140029 -0.00289610460916206 0.00307617544970486 -0.00783765157470686 -0.00623384020813005 -0.00625338634224484 -0.00411462796372474 -0.000443789123670744 -0.00575984256148696 0.00223200712025614 -0.00399916159759329 -0.0067174430523819 -0.00330632047357997 -0.004188216008936 -0.00395055811767016 0.000146935039036361 -0.000780957693284066 -0.00513502795201953 0.000109841747795539 -0.00721693620616428 -0.003537462566985 -0.00791441290446229 -0.0025489132439485 0.00177881735101981 0.000631331023435591 -0.00485648204848142 -0.0068599447176278 -0.00168764885734976 -0.00618456481304858 -0.00563284644318443 0.000621168699090855 0.00167548872996326 -0.000793745599340264 -0.00455442286342763 -0.00375254107349205 -0.00258874820661318 -0.00518231235496648 0.00385328841845622 0.000752357623707584 -0.00487925470912543 -0.0018887710343964 -2.18230153922891e-05 0.00138642466165186 -0.00479603433459248 -0.00846811416101399 -0.00900596026130953 -0.00489300127308819 0.000172574146953853 3.19003220455773e-06 0.00437521296192694 0.00281400466265781 0.00337995076006311 0.00365138058052519 -0.00107382197134053 -0.00305916617453262 0.00423193005065294 0.00208849592550385 -0.00272099094942665 -0.00552284704981937 -0.00454878272779036 -0.00131502927406834 -0.00382427593144353 -0.00122687576469225 -0.0031034027357233 -0.00209328851226918 -0.00282129165589401 -0.00487233426239413 0.00364517184542105 0.00429417497184824 0.000421975168840959 0.00286437969712117 -0.00286739550476766 0.00217492785286921 -0.00538186781754634 0.00451539935768137 -0.00725518588414978 -0.00126069461652607 0.00235120111217173 0.00488256183969811 0.00305012306776581 -0.00662016157609912 0.00274151948114475 -0.00205874211700772 -0.00539601534475692 -0.00775504662899098 -0.00369856328102419 -0.00374479478717386 -0.00159412608624372 -0.00505031491781182 -0.000705647043043711 0.00295828702133515 0.00412915327219041 -0.00288390575508535 -0.00433510660542283 0.00159736290626076 0.00218727561129664 -0.000905592737675427 -0.00135731015051742 0.00441407326854532 -0.00143990715851846 0.000645016252092615 -0.00137029312198441 -0.00301032607772503 -0.00124768602250783 -0.00566198246264485 -0.000111967360013845 -0.00106603354748568 -0.00382439291325991 -0.000731474342155206 0.00207666560867409 0.00278717832843106 -0.00025598898206156 -0.00413321705486964 -0.0021562684361672 0.00168754518216278 -0.00471973980257488 0.00271172221861001 0 -0.00545693450140964 -0.0055968023073045 -0.00630548836266785 -0.00386427499700416 -0.00222245389406545 -0.0046737838528671 0.00115485906438886 0.00501456976455986 0.000951135321119592 -0.00539645671807127 0.00648145831531429 0.00298560347478179 -0.0040540586111913 0.00493036529764689 0.00235112812321152 0.00311082346580501 0.00270262422085292 0.00500365434138581 -0.00100255430129848
6.56617195267469e-05 0.00256443150605724 -0.00700795269713458 1 0.00603523639570188 0.00305214661439843 -0.00457952262148563 -0.00689131281728229 0.00850624560325402 0.00147600085879905 0.00586874390274285 0 0.00223857157722272 -0.00486071211899471 -0.0014541623124141 -0.00449909674082939 -0.00820831956140351 0 0 -0.00648459446344087 -0.00427885656744554 -0.00332438462283972 0.000608557316490371 -0.00544979617450402 -0.00510787116520592 -0.00974262937858385 -0.00247306476937983 0.00334711547663416 0.00827383820853239 0.00266698356851565 0.00407017852131179 0.00323816609078484 -0.00344298516044935 0.00149025066559357 -0.000104116748568117 -0.000854025408026936 -0.00573592580163751 0.00424148494596041 0.00536603747171826 -0.00101470734938117 0.00240889509162144 0.00346312600412329 0.00409851032998328 -0.00469719802689542 0.0071171207669253 -0.00294763545446118 0.00455007043967321 0.00304599786714861 0.0052540745815846 -0.000209131212954044 0.0028903005996235 0.0094716004897424 -0.00587540562476466 0.002391804765127 0.00739473883035861 0.00353217243741396 -0.00631901111840579 0.00680665375100598 0.0033956121150757 -0.00466471851183037 0.00140978323003624 0.00866824589636518 -0.00561447612278149 -0.0055483558884924 -0.00267575550856217 -0.00451665633363295 0.00212869704520642 -0.000607959993710057 -0.00668073627760884 -0.000948735373522897 -0.00122829741706505 -0.000762318784550192 0.0053174617104817 -0.00768934965678267 -0.00404584406797781 0.00539599783268596 -0.00277865385100121 -0.00206836376135876 -0.00304121064251441 0.00275697603718779 0.0056129237606334 0.00367824238413257 0.00333524091997888 -0.000521769081321974 -0.00425830150923174 -0.00253009257062334 0.00661397301018213 -0.001252478996742 0.00411710923188008 0.0034818385780497 0.00594011374541915 -0.00177398631089838 -0.0031765546096145 0.0101317681553693 0.00605147295009506 0.00307043956074961 -0.000342455375696521 -0.00650123517791232 0.00535509297283962 -0.00489097930678128 -0.00962651039079073 -0.00362434429034386 -0.0070503615473264 -0.00189490506524326 -0.00621915390808036 -0.00358358671116001 -0.00359550720144354 -0.00557884061243345 -0.00490888075112562 -0.00866549695055018 0.00157506795451136 -0.00497618228302787 -0.00652672023171558 -0.00789404135616631 -0.00197447551224106 0.00309321992457348 -0.000895887242636305 0 0.000603367050739596 0.00411750807996198 0.00197547391492073 0.00336427593465715 0.00333710795226908 0.00450975286189347 0.001519262227633 0.00873806285999142 0.000834400384797342 -0.000587292396240736 0.009024711909026 -0.00248828753405833 -0.00239046351318317 -0.00555312778027156 0.00321978686487897 0.00466978784948185 -0.00542790638456013 -0.00698854309820961 0.00148787522264494 -0.00220283815170677 -0.00645060425505892 -0.00773329076810972 -0.00734574838366606 -0.00113522775083014 -0.00896009192317707 -0.00293994372974687 -0.00854013456061127 -0.00430260504778693 -0.00303440256943695 -0.00853008609596453 -0.00559923689049647 -0.00392762068729015 -0.00899319867367233 -0.00228834240690204 -0.00364328477500183 -0.00517185954179638 -0.00793013892483367 -0.00122557701283486 -0.00336177572759707 -0.00219304429881846 -0.00157801094837082 -0.00229314604747882 0.00500617519733281 0.0058755831258055 0.00775802592951272 -0.00340864594283416 0.00320273209046724 0.00903330511731822 0.00822046186199871 0.00192196420534267 8.02613049624377e-05 -2.52476499830111e-05 -0.000743352477072751 -0.00496433550978299 0 0.00521821973889527 0.00245891630203552 0.0057304140086554 -0.00530670505550654 0 -0.00086189890592409 0.00460305951806188 -0.00465758113504988 -0.000365036687886297 0.000273296526384277 2.04965964678468e-05 -0.00516109869436838 0 0.000874284796649366 -0.00379675950225392 0.0053425094521459 0.00597411324750935 -0.000353449374850955 0.000514165880336856 0.00677150672134624 -0.00107747087994942 -0.00762795989853785 -0.00568463183027113 0.00320773730355667 -0.000149490897469535 -0.000850953560141459 0.00368840866878025 0.00587824792139242 0.00589879543908042 0.002630723811964 -0.00215308753555937 0.00617901007706712 -0.00306937614076463 0.00287346158370709 0.0039533218542258 0.00619988039095375 0.00851980536569398 0.00598630434907054 -0.00263894130107037 0.00534282977122636 0.00821300744341007 -0.00110558132650025 0.00604055584408008 0.00747880466269757 0.00561945458305432 0.00872261117711516 0.00549943959409331 0.000447416286576294 0.00498446980857389 0.00561073593761332 -0.000615845028821909 0.00923977512576308 0.00937249907214369 -0.00672466310827291 8.77376953969361e-05 0.00361850326559972 0.00613821835966552 0.00683425425757647 0.00379894850706645 0.00474365777899154 -0.00738670853219352 0.000791019002275354 0.00407801683174382 0.00247064894166261 0.00120748734264996 -0.00450641819908779 0.00126442878228109 0.00686479071669787 0.00393213937389221 0.00580374095803485 -0.00547346384876249 0.000670015540423113 -0.0050923807683285 0.000446144848045897 -0.00219453166143411 -0.00337131242515555 -0.00253654289473071 0.00734879571954836 -0.0024198236213531 0.00554830865963559 0.00496385149111887 0.00575150228901783 0.00782371087442541 0.00132869406910915 0.00967671609588089 0.0089099774637746 0.00863462800446237 0.00722439720890441 0.00382647305766376 0.00422678788256043 -0.00172537773685205 -0.00409525594622927 -0.00259950371861451 0.00241405080736048 -0.00136504430281082 -0.00400602050195278 0.00728550555722193 -0.00484528868733922 0.00841928872876602 0.00466173618495705 -0.00238115634627867 -0.00316964582754489 -0.00515897911746446 0.00119604824392571 -0.00851753460652667 -0.00192381556405522 0.000926121612117338 0.0029437746522625 0.00602129246063134 0.00360101740517948 -0.000586641679974159 0.00155617715263512 0.00144363952960538 0.000526794291421355 -0.00802393826897172 0.00877636938003937 0.00309561314836545 -0.0026749878588714 -0.00431430696903342 -0.00338437089992165 -0.00216021833543361 -0.00688614068277469 -0.00350931872135681 -0.00454949229869076 0.00500316815519547 0.00387401889173557 -0.000549474419343933 0.00501360764108819 0.00474169677695529 -0.000808354161883878 0.00372935194250371 0.0031348351034851 -0.00171086243967422 -0.00149169963746933 -0.000388601831503918 0.00817501376851555 0.00522721432940079 0.00453439249968665 0.00473133165288687 -0.00491364005946476 0 0.00596753614385297 0.00205907728947794 0.00452983388602552 0.00836522716301673 -0.0037441429626416 0.00633582940092031 -0.00296958623365721 -0.00446652843993661 -0.00263765462393143 0.00102700293390682 -0.00372787348096703 -0.00179486304915923 0.00558673515009819 -0.00592832014292705 -0.00349057978182483 -0.0052806931016831 -0.00477827641799503 -0.00737763032009907 0.00269895410613187
-0.0031382144578088 0.00364002925376606 -0.00234514842123599 0.00603523639570188 1 0.0029090297257732 -0.0103631539836319 -0.00730591648459668 0.00331894874726253 -0.00184709184280817 0.0036074439471971 0 0.00214467792139718 -0.00484357127352988 -0.000516304092713105 -0.0070115071273502 -0.00575365045006385 0 0 -0.00713002586970575 -0.00485572989769652 -0.00279417560149426 0.00708954777695986 -0.0110574621806249 -0.0125210096193631 -0.00638884179897569 0.00223269857826596 -0.000653578405093331 -0.000863053769029116 0.00765957412761045 0.0108817894728483 0.00475689918994223 0.00170814270533924 0.00376779726713471 0.005577513758497 8.95246674714523e-06 -0.00164981910609588 0.00931528347253857 0.00784476931894986 -8.58390400292621e-05 0.00444482105556356 0.00651017878282547 0.00794243756380367 -0.00548700674622794 0.00884418086751053 -0.00182136532261221 0.0117389907209593 0.0103689601193489 0.0114854299839346 0.00298762370361865 0.00362374141113209 0.00929055238582547 -0.00225904868342709 0.00133358762171612 0.00625471615347479 0.00167813149895339 -0.00432381256469438 0.00659430348944741 0.00447341430125179 -0.00475027919134069 -0.0011637611783906 0.00387857580176481 -0.00152380681392531 -0.00213056931287385 -0.00302569946643687 -0.000742008583158982 0.00235573969494674 0.00122397924742182 -0.00594027921437833 0.000747197583325481 0.00105097380388601 -0.00676114078742743 0.00200327969468481 -0.0103782713430522 -0.0126869211639869 -0.000621787262967594 0.000558464965885853 -0.00615741873399048 -0.00563139380320966 -0.000440362081434974 0.00425133675348217 -0.0035265160864122 -0.00134569645050949 -0.00642025774221397 -0.00738430373176306 -0.00265912525679886 0.00657964695459168 0.00366134671872881 0.00225421477730924 0.00396639697883085 0.00797658099912138 0.00445268266329625 -0.00122960673730823 0.00587270590832519 0.00615781333807376 -0.000552677477665313 0.00216619043495445 -0.00337186576595904 0.00431056134718975 -0.00823020512341156 -0.00542717694985247 -0.00105244170625509 -0.00105079126039375 -0.00130647596670041 -0.00373150657559629 -0.00529979965578308 -0.00393931766076628 -0.00782400180917637 -0.0121358337060979 -0.0115335037587741 0.00305458806084452 -0.0088092109595968 -0.00803530930818201 -0.00880764396623956 -0.00275339508829896 6.81385085459372e-06 -0.0066459146013064 0 -0.000191127137355413 0.00167583259338318 -0.000411457386020196 -0.000698519502713072 -0.000380309412851196 0.000885547834255925 -0.00821784669713119 -0.00311634737763127 -0.00729943844213785 0.00127944748473997 0.000102962428536967 -0.00398204225080398 -0.00695137724663161 -0.00508562870248272 -0.000652711051377587 0.00182254297029067 -0.00902075688644777 -0.00517739206895102 0.000109931202074074 -0.00465618186551194 -0.00693444818289861 -0.00510208725914432 -0.00765131254070249 0.00464984571521829 -0.00469805300812664 -0.00344239726798265 -0.0118295769340267 -0.0111354045006094 -0.00608288929318002 -0.00701273152607222 -0.0111345361169619 -0.0122173252354884 -0.00987325220918652 -0.0114581901548545 -0.0107177603059445 -0.0109354807458384 -0.010214970003918 -0.00293118207121441 -0.00130775603698587 -0.00230878587277723 -0.00744041859058682 -0.0010814359847593 -0.00108704819292595 0.00559128991376887 0.0110093276437378 -0.000832417479601044 0.00527852965734404 0.00617391306081689 0.0102476942346897 0.00417704092388904 0.00190152393839972 -0.000276857298680453 -0.00102662614069232 -0.00747774724512789 0 0.00580051099274265 0.0022922598642139 0.00596334851162187 -0.00299535098777924 0 0.00362076840311518 0.00312590725884563 -0.00545573082205785 -0.0028430347498747 -0.00370943996001556 -0.00965863017384308 -0.00219020089820944 0 0.00318485823460447 0.000380977613794097 0.00955292288657775 0.0108075842029953 -0.00139990461946479 0.00607966131974164 0.0102900491749917 0.00545110060749314 -0.00219597520302919 -0.00166418469529742 0.00887261230497249 0.00489179955552065 0.00177536257536359 0.00640667841998636 0.0101746757326431 0.00794699730362274 0.00843337733039717 0.00286694506317423 0.0083892239556824 -0.00185491296145717 0.0107229439913086 0.0110404804878968 0.00844287934919826 0.00790625547585155 0.00679348876446396 0.000760706878387563 0.00461541022444667 0.0107413435879954 0.00118156044422857 0.0111126858198157 0.00805994380745525 0.00976334544711067 0.0070088259247573 0.00432554638372903 0.00287225369502538 0.00346878246266948 0.00616318939804402 -0.00014982200482191 0.0046807157864889 0.00012839989794638 -0.00602976445077158 0.000761360521153724 0.00123312641131655 0.00460201958685484 0.00176427663157107 -0.00032205720777555 0.00322457162270542 -0.00581851473288132 -0.00541801806344489 0.00456860475236937 0.000104173993827072 -0.00503594187517389 -0.00340600840064769 0.00249725927360297 0.00486186878088815 0.00562200671987262 -0.00051019074924255 -0.000489956805954848 -0.00584339474859919 -0.00938802780854245 -0.00581755921024164 -0.00574099850525749 -0.00872201024502788 0.0023046339142175 0.00861494553691515 0.00126465926907485 0.00315833132190845 0.00471803248010718 0.007458179934443 0.00569384405033348 0.00460210860060102 0.00880660008963373 0.00757899740109414 0.00798721768500089 0.00770114678701034 0.00989872725053866 0.00629142038386678 0.00352460166477029 -0.00154643032987483 -0.000151344570888459 0.000974552409334269 -0.00099419546098133 -0.000202522883438331 0.0073129029478172 -0.00497167444090678 0.00528004486325787 0.00432882646933623 -0.00739782388234094 -0.00128548252216585 -0.00690735933913732 1.34203741577967e-05 -0.00616259965159477 -0.00443367438191137 -0.00321323101555605 0.00613523595977636 0.00126015490286624 0.00176204322100134 -0.00211187315418228 -0.000746664083280671 -0.00417352435172684 -0.00194246646577178 -0.00618109217489911 0.00628098764068387 0.00191409442389409 -0.00490378649606033 -0.00823366232023454 -0.00207134605252347 0.00385142550347947 -0.00113936674600506 -0.000578161720971324 -0.00546150612317188 0.00583276496561739 0.00621390691835232 -0.00193877667032259 0.00318089809467835 0.00171902768262874 -0.00303160895005113 0.000500710831575964 -0.00108399317370521 -0.000772258362512193 0.00160543123001749 -0.000417667791729855 0.00769677727736373 0.00632028886955654 0.00447779655684927 0.00354320597682831 -0.00110070372961192 0 0.00439327913409617 -0.00313672434207684 -0.000326772588720069 0.00148927893745365 -0.00227625889508626 0.0034603271617342 -0.00576864785738295 -0.00994904243490248 -0.01057108821133 0.000546237683868292 -0.0078175117013991 -0.00339223704724156 0.00723257494711796 -0.00452755164894335 0.00330108267133159 -0.0055237364791477 -0.00704935791888145 -0.00671118943828783 0.00180096185736371
-0.00513579105956484 0.00520947157796314 -0.00202371378983638 0.00305214661439843 0.0029090297257732 1 -0.0068147776681536 -0.00566198073020643 0.00332768530939677 -0.00723747769789669 0.00274172102620046 0 -0.00149967172745692 -0.00494782526118078 0.000150536694899942 -0.00693012621750753 -0.00711036974495926 0 0 -0.00446627595096412 -0.00622268151540335 -0.00503481880799111 0.00291861800563068 -0.00426167126666217 -0.00664315059052188 -0.00374680419415362 9.77587707078896e-05 0.00100301458939055 0.00179177957280765 0.00147020979048018 0.00285423148980015 -0.00300817677374134 -0.00214941570453162 -3.94033881023578e-05 0.000802911042523682 -0.00529901362749911 -0.00498836986269472 0.000326563575917638 0.00214103744717392 -0.00350162870682694 0.000733851668412382 0.00504207915877045 0.00503787285138275 -0.00372472588233707 0.00113621563923144 -0.00350793933268837 0.00489125921821298 0.00533832309490929 0.00619630091012296 0.0015872229892828 0.00286630505218231 0.00512250339468774 -0.0036875274575288 -0.00133763671576863 0.000876322818390956 0.000283824359453352 -0.00342464147296037 0.00198074466811591 -0.00439430204728055 -0.00239674203620758 0.00383956835839083 0.000355734489198786 -0.00212611830805995 -0.0022281134491071 -0.00372355354855667 -0.00562391728047292 -0.00251807357113844 -0.0044371238444847 -0.00814207110577726 0.000519121061825002 -0.00102416687356935 -0.00205326759888544 0.00277073000750033 -0.00828092109136044 -0.00883532776977298 -0.000825166459158325 -0.00201527666022624 -0.0058182818285143 -0.00599794109559274 0.00398658186631354 0.00182371599741385 -0.00192353134982072 0.000216519399014024 -0.00494080224548998 -0.00774548224389945 -0.00374574433481579 0.0040520895943474 0.000843454899316973 0.0003838998456666 0.0024325888630293 0.00295416305094443 -0.000182983468763608 -0.000528057404749378 0.00167096766319568 0.0017768101112934 -0.00223096837462533 0.00601637280533345 0.00101486804809453 0.00789952709524296 -0.00331292770399288 -0.00715410146867258 -0.00395398342732478 -0.00120501651405256 -0.00233466326404491 -0.00540573319119386 -0.00713309770112321 -0.0057562596103241 -0.0039879037704473 -0.00862203592854497 -0.00732733684419414 -0.000860382283088921 -0.00635966780767302 -0.00640008042973304 -0.0010651671350008 -0.00641212012936534 0.00180033153188221 0.00180906476500638 0 -0.00290034185736758 -0.00184989839452664 -0.00353884119735041 -0.00223856083270502 0.000208424001501272 0.00182120848717527 0.000646643804056143 0.000410877056668392 -0.00590456796628654 0.000442177231994912 -0.000873636922333973 -0.00213743398948855 -0.0064362843010669 -0.0028511005869005 -0.000818263930457999 -0.000666877154975135 -0.00290055166437913 -0.00376924140171321 0.00165444216402408 -0.00243107164369073 -0.00306128159167863 -0.0039617865566063 -0.00583103666548612 -0.000596077646343281 -0.00132815037856651 -0.00455652438472673 -0.00499123933447744 -0.0060231434000863 -0.0062131905251369 -0.00464494039815359 -0.00348755542906147 -0.00461910839433673 -0.00346483706502027 -0.000876088509261695 -0.00852967597842676 -0.00429322618155582 -0.0068909754823419 -0.00432013075027431 -0.00100623257307941 -0.00274000377365106 -0.00208849467098852 -0.00269816924043857 -0.00356622816885033 0.00244146663701717 0.00613067395320573 0.00144354386485701 -0.000224437170570584 0.00354603968664043 0.00616958834688089 0.0060826866354158 0.00344045975909448 0.000946618507912091 -0.00466014517616403 0.000198254376293653 0 0.000274636451050641 -0.00146425529877744 0.00325568124737677 -0.00329539262107962 0 0.000233983785790937 -0.00133416956052794 -0.00149065307848848 -0.00139660853254394 0.0013874100334543 -0.000705778681185363 -0.00387359215222567 0 0.00421451134665133 0.00119453942658266 0.00346729698030038 0.00557447427956683 -0.00224596903502255 0.00119179514124469 0.00355972019210914 -0.000586493361666809 -0.000450058966939294 -0.00428156801353362 0.0057512101517123 0.00261710094554809 0.00233984411781491 0.00596181881845843 0.00463003617468509 0.0034964143005377 0.00541279078173018 -0.000720221774386032 0.00218123780386135 -0.00210284576615512 0.00267170853693203 0.00751350884022595 0.000964094896995486 0.00380218349416203 0.00289262766317184 0.0011429698087055 0.000856078247483878 0.00439357931503256 8.21937417352809e-05 0.00439612615011598 0.00577435443100361 0.00427707881473559 0.00311089679144696 0.00186731656777695 -0.000205292708638561 0.0024897087145759 -0.000349397285901994 -0.00319810989571725 0.00503478986758401 0.00541616739143038 -0.00578973249156142 3.14224422267082e-05 0.0035297099032826 0.00375786095506719 0.00341665477708747 8.99487326987287e-06 0.000317059480728188 -0.00386784378971213 -0.000554313776187823 0.00593195567958318 0.00502282113027734 -6.70507807461422e-05 -0.00271206433593913 0.00441957461933474 0.00189403259643335 0.00459965144000123 0.00251852585264651 -0.00107585527521988 0.00141558062108255 -0.00615936708566622 -0.0040986547073405 -0.00176924710148571 0.000105567039861929 0.0032550554424827 0.0046880516854798 0.000532033580037401 0.00238216827696615 0.00231443336862234 0.00310961068459008 0.00327588722793943 0.00324782355943026 0.00375745853230394 0.00271862766239659 0.00592853030769178 0.0038537899931342 0.00602958679340099 0.00493642649150164 -0.00297399723319775 -0.00486272110955592 0.00116992637884656 -0.00278055029320359 -0.00436285407194068 -0.00383983358040371 0.00424591809414865 -0.0011632818233824 0.00585606554926852 0.00571550490796795 -0.00410164912801129 0.00436912905614009 -0.00301682924375073 0.00285074167451467 -0.00349329366879011 0.00283440801730912 0.00466544535987695 0.00482417455594083 0.000599825713081247 0.00060839478480795 -0.00106063438420618 0.00273477508025702 -0.000426344091082952 -0.000204198715304995 0.00267850569777939 0.0053554474169711 0.00738759876009524 0.00322381647974446 0.00041961178816157 -0.00216387823036103 0.00246872063844052 -0.00159269453811603 0.0029130876048478 0.00138447999033349 0.00409636079593621 0.00254802376312681 0.00296359566357322 0.00744241177982393 -0.0011848531705436 0.00188207451165247 0.00427538049466865 0.00105266383709797 -0.00421525000993911 0.00100269533262313 0.00238441696954984 0.00400571428189864 0.00358756993680512 -0.000411438704644932 0.00503648315405417 -0.00285100906783697 0 0.0038279184951429 -0.00162939771229973 0.00281834168807989 0.0047477455381461 0.0017655930473444 0.00513837520971191 0.00150426802833269 -0.00175184070437669 -0.00263343386296805 0.000527358772350705 -0.00255865462373754 -0.0025442332033518 0.00474071414781134 -0.00381823797220841 -0.000378224101440691 -0.00208897572274761 -0.00193052653383757 0.00226115736321525 0.00484931829389619
0.000549675188719116 -0.0086480156893125 0.00187156766544236 -0.00457952262148563 -0.0103631539836319 -0.0068147776681536 1 0.00769904872097712 -0.00410050975569449 0.00430465148736856 -0.00611179317570456 0 -0.0028658097751879 0.00250170294175805 -0.000833547469255599 0.00610984280501117 0.00438368224271003 0 0 0.00457708595127511 0.00220840666370581 0.00140035695250337 -0.00674734333270321 0.00867195902653826 0.0113267129801141 0.00621658753686594 -0.00136416980333234 -0.00398839290025827 -0.00118252718062732 -0.00758659506702168 -0.0109307882648332 -0.00198616316815817 -0.00266025053830736 -0.0037053352575364 -0.00699587715609913 0.000397269784299183 0.00304492847135715 -0.0057406814548465 -0.00873119215002796 -0.00101544981438465 -0.00732552238915599 -0.0103646353302641 -0.00991326983260703 0.00364780110589512 -0.00626553121734628 0.00312426208476113 -0.0121642474919882 -0.0139480318178619 -0.0136574511994287 -0.00507627563730883 -0.00367201317282826 -0.00935644460582511 0.00124496779774413 -0.00182265009584925 -0.00569310374940331 -0.0065619721405908 0.004172128515047 -0.00781498923333391 -0.00482263330046469 0.00362804345857096 -0.00202267364586959 -0.00429949450348998 0.00518439092859822 0.000580428105788029 0.00367112526220491 0.00352809058806789 0.00171034224388742 0.00411224923613039 0.00566041987115581 0.00235153855518746 -0.00123028572407025 0.00314373041163229 -0.00130054645436769 0.00604366765521612 0.00650023985616723 -0.000267165893930445 0.0017072286613707 0.0045631409835729 0.00437132472743657 0.000229215365792355 -0.000638094367027242 -0.000198535367679818 -0.000203155375417992 0.00474320635480438 0.00866671100949552 0.00144146480157318 -0.00921736339753721 -0.00377704501485253 -0.00447144105836948 -0.00677766852621899 -0.0122527183168059 -0.00495268910887735 -0.00075342724231986 -0.011586857476909 -0.0074745736644398 -0.00218420747566483 -0.00450570039453822 0.00281344048436833 -0.00707206938914845 0.00619265745330675 0.00746691672084252 0.00367446673998474 0.00368073449555776 0.000497038071297457 0.00550160287480735 0.00424518720548957 0.00595601555989167 0.00572384015048162 0.00650915734560052 0.00593295820328998 -0.0036944239597891 0.0080277867315142 0.00562854131660092 0.00608576835098887 0.00417393763289324 0.000483476269472613 0.00426963336151826 0 0.00305343782392892 0.000369582288839237 0.00302359402503229 0.00283356757341007 0.000898704743624078 0.000139279616172886 0.0052316705679209 0.00125683296887178 0.00628759026298447 0.00320263724042547 0.00171038097082428 0.00474765955673802 0.0063716000638339 0.00744498764014026 -0.00172106036685104 0.000790237200313162 0.00831430072013397 0.00861841633033041 -0.0042723132360309 0.000826953219308555 0.00689566774448816 0.00507676512024226 0.00941132081233097 -0.000184289950503454 0.00808929321783776 0.00677604291914058 0.00929728571893226 0.00969062197231888 0.00306348374180173 0.00278201208548738 0.00526772256805627 0.00902732487132004 0.00624664752292081 0.00719610564937076 0.00817528922610135 0.00801898872788827 0.00884428746983791 0.00144704385955294 -0.000113467140526271 0.00173138944663009 0.00770760463070875 0.00277845844582431 0.000968870425615557 -0.0041181209230459 -0.0141167128245713 0.00190397197143625 -0.00444355802058004 -0.0104075389350089 -0.00888848036847052 -0.00538928522397812 -0.000964234800350775 0.00370877643395274 0.00217206649579696 0.00764278668553537 0 -0.00841191175885561 -0.000588969021258121 -0.00664021630506421 0.0015182023048013 0 -0.00304028592110785 -0.00592320183466304 0.00240220178230441 0.0019977815144798 0.00110299677731006 0.00825822679169928 0.00100707112340422 0 -0.00230741004911167 -0.00177260957135633 -0.0081150340944525 -0.0087312468747736 -0.00190133339867837 -0.00461992223459671 -0.0116748860061553 -0.00662926526331899 0.00496706535541463 0.00506867917170823 -0.00890104825602058 -0.00607398215619252 -0.0045760256556635 -0.0035921011408175 -0.00721791990991618 -0.00693822252017113 -0.0108705680118385 -0.000720351549900593 -0.0102490428435847 0.00218804323723688 -0.0105913744364382 -0.0106321551118012 -0.010088774512459 -0.0105266291308748 -0.0068261403489731 -0.00383597438985139 -0.00563891829306296 -0.0114134170756328 0.00124486183475202 -0.00855795380935718 -0.00897578216099652 -0.00681234420123111 -0.005103477735923 -0.00372245659763064 -0.00154170185687122 -0.00120090738373648 -0.00374874108613081 0.00222490386142767 -0.00402259056552185 -0.00169235346891584 0.00645237049937646 0.00286469915314467 -0.001010315808682 -0.00147108843940739 -0.00424373210321587 0.00203501816684752 -0.00104919240723483 0.00805244691055377 0.00443958012390512 -0.00706430171821676 -0.00231831208762234 0.00321794320003714 0.0028823682890501 -0.00305338798291752 -0.00536703605181044 -0.00419255041554702 -0.00113881715494706 0.000426081360305299 0.00333843985833105 0.00854594102570786 0.00509370076955774 0.00343042348025513 0.00642629920711757 -0.00265429564668262 -0.0117623525608266 -0.00087249581575586 -0.00362733565894426 -0.00400145419281704 -0.00858789071274894 -0.00765173074914757 -0.00394187189448224 -0.00953734117230139 -0.00807261402426089 -0.00573242283058849 -0.00494872910939714 -0.0107498477483191 -0.00486955806675546 0.00263012876667822 0.005440730336695 0.00565635278959793 0.00150831047203748 0.00276166411154156 0.00124054660627487 -0.00842201477102749 0.00469068230856251 -0.00443192719747765 -0.00668036645555403 0.0069774744445846 -0.00037238283154195 0.00623512869133934 0.00131999003055514 0.00479244935359788 0.00254602856459782 0.00155184668630052 -0.00264984803565049 0.00134673389229185 0.000318595488620587 0.0038991883529367 -0.000892466696017802 -0.000240438533931046 0.00152900347866633 0.00988545610906181 -0.00438968987777997 -0.00213978450821888 0.00501648577246541 0.00981533780479223 0.00300621057231696 -0.00123512956349694 0.000263275722601042 0.000941667204501845 0.00337004351400979 -0.00414920067338793 -0.00136898263024137 0.000932183924718495 -0.00278349564330713 -0.00129912165718235 0.00124416268028529 -0.00124756009533544 0.00190619030307368 0.00269916232206865 -0.00218767410430243 0.00240826694406012 -0.00672045515795309 -0.00887758819422277 -0.00397374646546237 -0.00536493569810734 0.00339085660275744 0 -0.0030391059032933 0.00304205321606152 -0.000864820737651746 -0.00198010305492055 -0.00124067555920466 -0.00485870624782169 0.00357074624776291 0.00605648614705831 0.00848416492407996 0.00293194533059372 0.00842994219988051 0.00208741943341233 -0.00618499472775859 0.0042519478408275 0.00450502879752815 0.00693769712086629 0.00650262745913446 0.00497137940759196 -0.000919261006815582
0.00254566679398425 -0.00573926675192368 0.00388290247192288 -0.00689131281728229 -0.00730591648459668 -0.00566198073020643 0.00769904872097712 1 -0.00412271188777856 0.00308830832268072 -0.00741923040920652 0 -0.00103805612173649 0.00351565271794352 -0.0019507057898649 0.00409785171928257 0.00726011042378852 0 0 0.00751542441093908 0.00679793204300561 0.00824123288939534 -0.00103354209534173 0.00909316633910008 0.00990189508267354 0.0101243963920758 0.000742865879620929 -0.00329933202904115 -0.00608958003744263 -0.00268381996620778 -0.0064631824616976 -0.0013763035201128 0.00360206837333762 -0.00191645728135868 -0.00383310000960593 0.00568359382426619 0.00661847187138526 -0.000364699452882275 -0.00749847551018734 0.00316920447287954 -0.00325216256549102 -0.00720340827651294 -0.0105064559083589 0.00128938270617346 -0.00570000903902168 0.00572936030273743 -0.0076054937444268 -0.00753964206232875 -0.0102844636556484 0.000524254458847763 -0.00615256330284778 -0.00939525144589787 0.00520527498757931 -0.00113904276968661 -0.00500806070480907 -0.002952504933284 0.00835137114106448 -0.0029737496337874 -0.0021602522241379 0.00463926247694349 -0.000314855040315923 -0.0084286020910935 0.00419618382499462 0.00172177786006847 0.00209099660589442 0.00666729881505696 -0.00407759680966498 0.00379526133006159 0.00569223967065041 0.000996421264311568 -0.000352970227643164 0.00308508761787516 -0.00572914062496938 0.00995106008198746 0.00792605040797808 -0.00284333897615837 0.000523768410248634 0.0049873193431197 0.00708710842384621 -0.00419787545638656 -0.000603145363857199 0.000983576527072171 -0.00499841700275348 0.00230197676660915 0.00885947557268656 0.00418908400838035 -0.00865651589765373 0.00139451059223408 -0.00235264417761882 -0.00430202255113455 -0.00973643490193303 0.000915498835802558 0.00549484661768994 -0.0111772783007113 -0.00438507444727726 -0.00118253110433613 -0.00279416303578619 0.00559716995768228 -0.00608063742569656 0.00815705483273538 0.00820758972630054 0.00346213956640084 0.00497680401497077 8.8052701017599e-05 0.0069192673313459 0.00574249752859903 0.00616916906199057 0.00670754683030177 0.00973393985865939 0.0108800448729588 -0.00195171792723506 0.00728969724623196 0.00607213256920014 0.0055154463087644 -0.000476915709851743 -0.00795852756545688 -4.37018274687751e-05 0 -0.00329604191821837 -0.00495298084439038 -0.0032871029035751 -0.00100145925799063 -0.00428267152362937 -0.00566474457846001 -0.000918865266439111 -0.00156718765414565 0.00255027783648316 -0.0036550094191573 -0.00527579315763859 0.00266097986773797 0.00443156407866133 0.00781107357115405 0.000253491912319172 -0.00527653655009372 0.0055548389413692 0.00998021374563889 -0.00190255195851286 0.00107833728575672 0.00983550944998493 0.00635417832185122 0.00845578482844476 0.000793454846424113 0.00555710939695873 0.00723885154403741 0.00800226273462078 0.0100144669004409 0.00622848256075199 0.00483025973000154 0.00799321600926109 0.00806703664464187 0.00648988982274046 0.00489612099444755 0.00653239630916402 0.00751146866203471 0.0104600952716776 0.0016195060758685 -0.000200632067882269 0.000596316950244924 0.0063215227915179 0.00426530159172432 -0.002586220530455 -0.00718176075853376 -0.0105864887998407 0.00555434314228992 -0.00623806265349806 -0.00978290416199041 -0.00878272407994871 -0.00871844525263896 -0.00181047646207862 0.000933603733066411 0.00297882895048911 0.00630516225171715 0 -0.00655437338932736 -8.22586399873414e-05 -0.00619089222495107 0.00532125018170481 0 0.00155289811842151 -0.00207751680344054 0.00399019157391589 0.000624631459194356 -0.00356461571776597 0.00535823846541655 0.00411975253852343 0 0.000227624158588444 1.79678958674328e-05 -0.00864885108463472 -0.00412323425285392 0.00282893093419028 -0.00396652388903824 -0.00903640081573762 0.000141766383627542 0.0050888754236863 0.00818403418880272 -0.00714904045139624 -0.00256563743192046 -0.0022841851809317 -0.00859054648228793 -0.00374865023530062 -0.00763858087927889 -0.00681574148007413 3.31743239326787e-05 -0.00757540652284194 0.00723255369725799 -0.00476307917157708 -0.0106292724218556 -0.0049743470782633 -0.00703218575222696 -0.00549183575852717 0.00294044062299267 -0.00489302067811981 -0.00844402279019538 0.00198087817841453 -0.00383435612513169 -0.00658693932647298 -0.00420019705047633 -0.00873559834872497 -0.00535703966954841 -0.00336522140393116 -0.00480400604890329 -0.00314569035483651 -0.000594679434876046 -0.00636250062167037 -0.00501990343204407 0.00982381588589127 -0.000120594273563492 -0.00183441485226002 -0.00703190060446993 -0.00231471383795429 -0.00162775375021858 -0.00524820805041698 0.00989969275911874 0.00167146958778012 -0.00800643521119604 -0.00195824120475507 0.00217518805741081 0.00537118205527642 -0.00673805846335555 -0.00797696867864106 -0.00921946048838436 -0.00633468169157471 0.00629172203981298 -0.000472884705497644 0.0101691061257207 0.00144242864738104 0.00114545251582563 0.0026260484335656 -0.00459465317949346 -0.00867331788937886 0.000619203997649248 -0.00358774394750012 -0.00565845867796723 -0.0102144222238607 -0.00732600028576728 -0.0048207546590009 -0.00793725748086357 -0.00948159179060537 -0.00583108561577303 -0.0058188253514829 -0.00482858570254386 -0.00543686261113437 0.00159082131474784 0.00642155777724613 0.00466226894372905 0.00264964610089834 0.00363007304502475 0.00575862246334317 -0.00781198463627909 0.00752271525036462 -0.00706880421038886 -0.00734492305505501 0.00563158903036498 0.00393349469245385 0.00754050155922564 -0.00517716089756768 0.00479263270980843 -0.00301788545466004 -0.00261929303458525 -0.00983972259170214 -0.00720949628513796 -0.00773037624934677 -0.00250865008905797 -0.00638858632501008 -0.0034093855012172 -0.00413477001576462 0.00483025475231568 -0.00948091866926497 -0.00354486368145138 0.0023693184963136 0.00533005730591391 0.00445486484005648 -0.00021594108762827 0.00164395655724214 -0.00301910437146292 0.000600778085496568 -0.00474602240932365 -0.00124282188896104 0.00186744036560876 -0.00668691490565215 -0.000687496086816554 -0.00105954045676771 -0.00373249994404322 -0.000708881974624843 0.00111405937326149 0.000609954924268817 0.00124167089775901 -0.0051508957338322 -0.0070458787546158 -0.00436975076966562 -0.00561450034315825 0.0050404261328007 0 -0.00756135995690923 -0.00166160443322351 -0.00380117383973405 -0.00817858214572897 -0.0028109293474349 -0.00938755663824087 -0.00144832134415796 0.00485637032861984 0.00496138587901815 0.00107347972306064 0.00295616361171301 0.000864890972249194 -0.00688287949296089 0.00764386121795379 0.00655369253632997 0.00922012109074803 0.00645574013984164 0.00492321696747974 -0.0032641338107042
0.00303324765535517 -0.00238200192573264 -0.00252531275172624 0.00850624560325402 0.00331894874726253 0.00332768530939677 -0.00410050975569449 -0.00412271188777856 1 0.00196868908029793 0.00639660616126467 0 0.00246549150699632 -0.003839089029137 0.00117286354450325 -0.00476952651438497 -0.00502416810594264 0 0 -0.00167750817273951 -0.00491816896101506 -0.000708536995279758 0.00402249020589961 -0.00406775437879174 -0.00403309433633752 -0.00785976344806062 -0.000961032595107996 0.0022824703686976 0.00548068944436331 -0.000986711656008809 0.00450643881875613 0.000926059211118992 -0.00204633457196325 0.00292944181658043 0.000684330123361686 -0.00181245973044688 -0.00364509684470198 0.00254539007351374 0.0073066136817923 -0.000602541245104951 0.00795394671663542 0.0072240709789007 0.0085380716750519 -0.000774989934422808 0.00646986599187228 -0.00578128178680614 0.00594356471683987 0.00409906297954605 0.00742095127718389 -0.0039257108464589 0.00545287540494205 0.00368231924802785 -0.00125818063750434 0.00198546094080528 0.007687572323904 0.00353013543825787 -0.00726668176988403 0.00552276698802761 0.00275717420381451 0.00219679061302976 0.0027747711485031 0.00770636338135152 -0.00224436111418668 -0.00285710464226386 0.00259365922339181 -0.000342463410455907 0.00160315135599489 0.000598006860941086 -0.00668471625381696 -0.00119515206785964 0.00031508569129789 -0.00547520620868299 0.00498946200368367 -0.00738757660517336 -0.00313355982220813 0.00447187311084501 0.000496895566814733 -0.00589298774661817 -0.00468063400994816 0.00502811163412408 0.00701218236767301 0.00549821022451198 0.00457497620415787 0.00141491079325971 0.000376258274585647 -0.00273164906232822 0.0020880075673635 -0.000853081455011142 0.00648143932680052 0.00625541486160369 0.00348012842131677 -0.00121427127078 0.00149207414110357 0.00350459036850377 0.00449235517491612 -0.00226444962984672 -0.00405359070240939 -0.00791854764989721 0.00548092793963642 -0.00244823398447108 -0.00443417547910497 0.00231997853210982 -0.00092521448924693 0.00533657584611168 -0.00216248222957775 -0.00261759923190173 -0.00612738348025836 -0.00165277074529833 -0.00376264853528269 -0.0053631816829004 0.0054838705981245 -0.00545779573555652 -0.00798381005047701 -0.00827393526651809 -0.00322869401869212 0.00319659682923289 6.74924886983695e-05 0 -0.00269525500502617 0.00584608224730189 0.00107148425198297 0.00138156591277427 0.00518101692541813 0.0030135281990575 -0.000454315126639818 0.00355569993396711 -0.000396514166159464 0.0023317990168325 0.00816445622772145 -0.000685378226742879 -0.00200360623767882 -0.00291875442680583 0.00752264938445736 0.00598064237653899 -0.00571236152731985 -0.00216544367312228 -0.000898499252336166 0.00341002544570269 -0.00275554560452819 -0.00685245123187005 -0.00442851170911941 0.004803354332474 -0.00637605046242653 -0.00155773362993639 -0.00669085374483551 -0.00503011678490692 -0.0033569348302093 -0.00964416214835297 -0.00447170172273278 -0.00455093370773439 -0.00580124125302507 -0.00421145310225589 -0.00460221770090214 -0.00468108417814046 -0.00588224194320094 -0.00125966147964637 -0.00180684469843375 6.23654546853523e-05 -0.000807629222961777 -0.000602229237139701 0.00736805090796868 0.00808627829430908 0.00386775608409167 -0.00177977666321125 0.00708636539770579 0.00526727894657316 0.00350973602164438 0.00200831096288623 0.00268808291065026 -0.00279622723055226 -0.00198930105971686 -0.00329871561456516 0 0.00645917791179909 0.000519755692352144 0.00506447909480852 -0.00571967447633898 0 -0.00238742651477735 0.00267402542220999 -0.00319027691429446 0.00226857896043961 -0.00486062370045365 -0.00160681168022175 -0.0013443051478806 0 0.00379548306183915 -0.00154805859650041 0.00329949839243863 0.00568991864783205 -0.00258774520890362 0.000356113525337588 0.00616678113702421 0.00179222288805629 -0.00832399460705242 -0.00590401937769582 0.00469640558058632 0.00351160550504214 0.00456089545187441 0.00766172781619486 0.00598166549976508 0.00541617268253297 0.0076200982728054 -0.00196595704208161 0.00343597204428573 -0.00683941352311325 0.00363407441955918 0.00777411848818788 0.00303762379098959 0.00839691384777316 0.00459054673514131 0.000103512747495159 0.00478833918988192 0.00663482695935875 -0.00119998509380776 0.00479764406519223 0.0101320564456071 0.00775106210397747 0.00769270899792336 0.00401134829553265 0.00639669804547921 0.00897717876166331 0.00845388911300292 0.0029406653428845 0.0110246701816952 0.0086762431341534 -0.00340584655774062 0.00396954832052233 0.00922155170932522 0.005360327774454 0.00910632232088423 0.00147978997420518 0.00778257905229997 -0.00378295958788559 0.00550984522538129 0.00617982174399437 0.00397349894118932 -0.00148900919826923 -0.00519920385220908 0.00250913279425809 0.00802173643965706 0.00486159035570531 0.0105228018643031 -0.000830878076456735 3.30608664876971e-06 -0.00269096674164402 0.00528599875848863 0.00203215537427321 -0.00334576270612161 0.000173639133119415 0.0049037914635924 -0.00709700123490676 0.00128109664468618 0.00485505593549254 0.00582054137615808 0.00718464509226242 0.00410617360207432 0.00880464917842502 0.00540192932615715 0.00530257805448165 0.0074580797148327 0.00470285139951257 -0.000466046634191925 0.00170618919463375 -0.00080598317580809 -0.000257582518683206 0.00521442066945587 0.00158764948485996 -0.00249050474044171 0.00828139115100733 -0.00258093453968009 0.00931303385535661 0.00643984315512481 -0.00245843785015884 0.00103509805203251 -0.00443784873762398 0.00176019324920291 -0.00877905120808884 -0.00147071120910665 0.00447630221384223 0.00705357184919812 0.00758944831831198 0.00488224797032836 -0.0025022268607806 0.00402199803306219 0.00601930320008156 0.00147768949960537 -0.00613943635122118 0.00428502845541332 0.00335625891180579 -0.00446462726072877 -0.00229996380258089 0.000393589730550775 -0.00226710272220806 -0.00493606475049029 -0.0066094739682171 7.81932026528054e-05 0.00563171160982446 0.00862583541398447 0.00179834750570453 0.00371941780685109 0.00580579447762027 0.00513276429009679 0.000168431381407282 0.00239016803313112 -0.000710978082612456 -0.00502844592414281 -0.00195677831171974 0.00776122701468364 0.00645487150183749 0.00897047118578534 0.00638779771335175 -0.00643666824684396 0 0.00783344066741985 0.00600792527258343 0.00664378138506022 0.00927012314767394 0.000369361905682791 0.00888381393605268 0.000355761196400952 -0.00508854632359678 -0.00448388385472999 0.0038036212107732 -0.00223467509566984 -0.00125629454944636 0.00761838453157292 -0.00344821056981487 0.000317792446622443 -0.00320077223623378 -0.00712602767126422 -0.00285459371921886 0.0056249623269355
0.00424355175587822 -0.00105113333674228 -0.00238994143881527 0.00147600085879905 -0.00184709184280817 -0.00723747769789669 0.00430465148736856 0.00308830832268072 0.00196868908029793 1 -0.000691368991425887 0 -0.00601264708387393 -0.000625935960314438 -0.00262970301982413 0.0044902515462179 0.00312128175575485 0 0 0.00159808558519342 0.00734751207576744 0.00520130481089815 -0.000591525798987894 0.00257269100519542 0.00475724280343022 0.00219177468563352 -0.00100442098918499 0.000719555749043683 -0.00372813320042038 0.000360716869626089 -0.000818451160148266 0.005078435053187 0.00283099551467401 0.00130049414180989 -0.000612494646785735 0.00593538520360758 0.0028836671602288 -0.001686772413865 -0.000605864564986557 -0.00179050646841615 -0.00229832285328006 -0.00308934034927736 -0.00299241277395934 0.00114664877316504 -0.000111038390567593 0.00431126734777189 -0.00273724985661915 -0.00358366805381604 -0.00261165009937552 -0.00121640170546543 0.0016943352919196 0.00201917795050111 -0.0012397313291861 0.00216984266797262 -0.00101483028272763 0.00251683567605036 0.00178196065243274 0.00177956345829169 0.00280621846187673 -0.00119982759967138 -0.00307424645491011 -0.0039883336739208 -0.00332607035884855 -0.0046648038961538 -0.00199776638207844 -0.00111015682148971 -0.00247814703566141 -0.000191960378674016 -0.00483649208927388 -0.00774552843443609 0.00112247805027502 0.0015017323337177 0.00119960531088192 0.00422953437619701 0.00406583592477627 -0.0028840364800264 -0.00301408957817661 0.00619649414841539 0.00508907136039792 -0.00447179849180315 -0.00144416698095466 0.000528388566574989 -0.00260476119359951 0.00199750589606614 0.00176221694672066 -0.000353820078937583 5.3097493294181e-05 -0.00228596121896384 -0.00273023551639799 -0.00307148745170836 0.000916746297048356 0.00245135512521045 -0.000646260888470174 -0.00415404816994165 -0.0021064311056731 0.00180463737013813 -0.00488646044229733 -0.00168378177746723 -0.00327436178144617 0.00457260617718757 0.000155079974888284 0.00328362557681244 -0.00356223329169826 -0.00242296995014883 -0.00140997604260648 0.00317002550046273 0.0033261616244648 0.00119766167272146 0.00656537127982177 0.00400819103599165 -0.00273835084352047 0.00185394210831842 0.00346250323332973 -0.00118480035959766 0.00231296819386176 -0.00520984476522751 -0.0029369586460587 0 0.00285434200103697 0.00239626068707303 0.00181546741116814 0.00118992930404484 3.17866657218987e-05 -0.00366288048065392 -0.00213174240459446 0.00206146335094526 0.00647924268254248 -0.00169678320453647 0.00217360599859935 0.000673429891631923 0.00460175596477853 0.000363393805999818 0.00194309418690444 -0.00257709610442443 0.00210879169436956 0.00379842300745178 -0.00219434550232164 -0.000920196875959882 0.00321408021237315 0.00245264065999399 0.00236558493245934 -2.04335393505604e-05 0.00248243674464428 0.00297960410718576 -0.00107595445372184 0.0017261537414844 0.00223443654383218 0.00243396356699011 0.00169263835563385 -0.000894761519866994 0.000645676825178891 -0.00203022942828666 0.00491491526840119 0.0031638996295647 0.00540173873024552 0.00270270030936156 -0.00181259660618055 -0.00330349987500277 0.00399780312604477 0.00190023626840285 0.00086340389274969 -0.00315766674316985 -0.00242851816244176 -0.00410196864343071 0.000123464073808761 -0.00222087005016463 -0.000119857953354895 -0.0060658498946693 -0.00274979294323467 0.00459183518029712 0.00430515207447447 0.000640415939778884 0 -0.00262622323740538 -0.000850395932921853 -0.000643234407606374 0.00507508005753489 0 -0.000743352320931713 0.00551143188595462 -0.00154603987836286 -0.0029078197276846 -0.00507073468976382 -0.00305361805141286 0.0014705583978988 0 -0.00592156699560498 -0.00319248332687072 0.000835520598637955 -0.000141116781247993 0.00364855250588091 -0.00237206903186986 -0.000893014558883836 0.000838616365529151 -0.000527731798963865 0.00286970906656196 -0.00140748531224728 -0.00123927935390495 -0.00744323292805541 -0.00350994410258282 -0.0025727553495459 -0.00165683745534797 -0.00552607946084476 0.00375738480827428 0.00143014786762396 0.00211821613568592 -0.00045697764226148 -0.00657755168964523 0.00287830847115506 0.00164832101480772 0.00427698413064147 -0.00169462136854928 0.00144087637311034 -0.00159969164908957 0.000592077303794493 -0.00111256919204219 -0.00173329469929343 -0.0022498268407762 -0.000326159542774546 -0.000395842819541345 -0.00175183825014406 0.000943125544200837 0.00105403776571736 0.000849556168269948 -0.0015269409965928 -0.00420360991998141 0.00248450741204566 -0.00640093468248434 -0.00628943482152466 -0.00584933626859931 -0.000395135619537489 -0.00323906374829129 -0.00163730916934892 0.00508272739558685 -0.00228208711905692 -0.00234172286345908 -0.0009950170256827 0.000513774147450084 0.00370230384146776 -0.00399656996107531 0.00173669003651773 -0.00363371390801891 -0.0018936540057756 0.00122737183406149 -0.00514073736434807 0.00130747590265202 0.00166548815833837 -0.00105568629135531 0.0011336558386566 -0.00447073362498447 -0.000565905676559119 0.00261910393989303 -0.000578159971089545 -0.00305197584248759 -0.00481929731369938 -0.00328975276558941 0.000304516494749764 -0.00274875454412488 -0.00124905384448963 0.00104108540118426 -0.000262731185130923 0.000587361367985818 -0.00302830155092788 0.00152771024248808 0.00642169712690672 0.00291970407894565 0.0038136435013375 0.00393284395111344 0.00258748060534459 -0.00251881317326687 0.000340068609447215 -0.000342359586332617 -0.0028195563343883 -0.000240805524244265 -0.00186784668390665 0.00343807048219846 -0.00536384217977648 0.00188190050397622 -0.00600238532106861 -0.0028970357971874 -0.00415477536665953 -0.000842798986734395 -0.00253472556091599 -0.00117715382610108 -0.00186774699463178 0.00141919462236457 -0.00518474753386551 -0.00408959819767294 3.18855775102459e-05 -0.003420094763262 -0.00152545003637937 0.00213309639365914 0.00301301677042879 -0.00337739841311689 0.00242280549571747 -0.00259167207382448 -0.00206228436032129 -0.00287741527670963 -0.00325029212997546 -0.00155824071815213 -0.00374256240718072 0.00352022330851694 -0.00100926002848552 -0.00209130357251529 -0.00374390354814427 -0.000588389107358446 -0.00249057353405437 -0.00286047252541679 -0.00125338191645874 -0.00537598179535257 -0.000790184465867925 -0.00500381644410854 0.00222803541304976 0 -0.00138939432499426 0.000923261759242136 -0.00589982317639996 -0.00411027310425537 -0.00278891828642262 -0.00652784781672393 -0.00231163967313964 -0.00158258998915394 -0.00158939295037539 -0.00182759883049826 -0.00407676009125939 -0.001486621177845 0.00049453479649404 0.00323921816756875 0.00196027685587048 0.00263840625004149 -0.000716159211805835 -0.00182260101325774 -0.00260415941580736
0.00241199885930123 -0.00270531697840726 -0.00429985416178388 0.00586874390274285 0.0036074439471971 0.00274172102620046 -0.00611179317570456 -0.00741923040920652 0.00639660616126467 -0.000691368991425887 1 0 0.00278894147271712 -0.00405373284247053 0.00250558919826993 -0.00647981842993624 -0.00201816987246901 0 0 -0.0019160210659049 -0.00388099873707375 -0.00110789735537102 -0.00106668340283711 -0.0030969176109428 -0.0016442062020504 -0.00545523006609773 0.000237972100014231 0.00165086023970605 0.00543711657983963 -0.00357310592095002 0.00231504270827597 -0.000587188151832198 -0.00111071195249584 0.000645913139028748 -0.00147441368237168 -0.00513238477348334 -0.00363845351170006 0.00206517287950068 0.00595756891455997 -0.000990983630466375 0.0011160960066564 0.00336845745898566 0.00457116496310512 -0.00185709200826179 0.00905587218691845 -0.00522013978252979 0.00534220555119027 0.000831437951605438 0.00541929488608472 -0.00451880059519521 0.00163277322984875 0.005658372759295 -0.00252938141380399 -0.00203507541171946 0.00592853928472586 0.0036997238557824 -0.00950201794850722 0.000831310312803779 0.00393251792601061 0.0008688383229362 -0.000359730615385963 0.00661670471930536 -0.00256360525943163 -0.00298435197747541 0.00072442542011118 -0.000759509445437365 0.00623612116304644 0.000409379020328295 -0.0019424274504273 0.0029587025976711 0.00231354759636008 -0.00217216600734894 0.00375697031745954 -0.00759426119477184 -0.00774257885519826 0.00235855211783806 0.00209614558321284 -0.00498103547079441 -0.00686247598910083 0.00796523352248744 0.000654921396194178 0.00399455635284393 0.00803453556733701 0.00165548872857726 -0.00401436069981931 -0.00468531043054511 0.00419843094199895 -0.00172833937542223 0.00560842287625892 0.00312447447824798 0.00496752087465377 -0.0030641624397168 -0.000416732051371479 0.00557771815559946 0.00161992022911132 -0.000737235898825057 0.000282467384357248 -0.00158201200482817 0.00108121196530979 -0.00439684642198695 -0.00576167146661577 -0.000507129132791068 -0.00121552927757579 0.00168037523486041 -0.00694712616521743 -0.00615693489427009 -0.00662123245578878 -0.00603020058037823 -0.00681871939019784 -0.00708763029278503 0.00354744350492403 -0.00712564736676582 -0.0066244942734036 -0.00693832431734293 -0.00365279646188801 0.0036456574277124 0.00225786477437507 0 -0.00349950838101723 0.00694504982905366 -0.00300758981356745 -0.00100883289213011 0.0089925035546184 0.00175773952693615 0.00514766165758739 0.00279305898563218 -0.000448440947301475 0.00299812117497856 0.00584237711135185 0.00147502741051401 -0.00374346382830584 -0.00358911393903092 0.00394993358621171 0.00371455317918817 -0.00487243871382291 -0.00391566244872335 -0.000582135160559659 0.00428252500359866 -0.00459834377275902 -0.0027719503868284 -0.00572362648567267 0.00203868906672269 -0.00275155202848782 -0.00386113935871942 -0.00416835461603428 -0.00546254147340922 -0.00304130728399212 -0.00679103759825333 -0.00622249740328979 -0.00471600286254933 -0.00817938165350534 -0.00266674338378506 -0.00282144188812334 -0.00179516481217491 -0.00540880023885246 -0.00349093358199473 -0.00349815337162108 -0.000763332185734902 0.00129837347429147 -0.00129084627513816 0.00366538859501683 0.00695101320391775 0.00275512423375358 -0.00104774980015996 0.00529245127935719 0.00575054247176918 0.00405771880460629 0.00554014952830949 0.00194480466940194 0.000644475965069082 -0.000754251644747325 0.0022951943276485 0 0.00514373431663248 0.00192527631042675 0.00605150021923329 -0.00455574574947212 0 -0.00290102530615087 0.00636323442845671 -0.00717789984534216 0.00151996954154597 0.000982140560968215 -0.00052822230976328 0.00095780588473734 0 0.00115531578854032 0.00150421188523941 0.00440138073145757 0.00248262357474472 -0.00479900652185912 -0.00231897273370554 0.00332236936016498 0.00516399455955903 -0.00487119777421525 -0.00638164023629666 0.00372401634861495 0.000869472091592543 0.000679808816984325 0.00463382774110216 0.0044570718869242 0.00751925264660285 0.00562456967068425 -0.00306928830596619 0.00284845858508214 -0.00858450867708433 0.0035256392875454 0.00396899675839415 -0.000369306172593551 0.0031563221471657 0.00400901252012075 0.00232417183940825 0.00463418311476231 0.0026450104661364 -0.00218436446760852 0.000291781071609395 0.00685536542436087 0.00612892085854525 0.00692187437310183 0.00404913279030434 0.00351740060617879 0.0037726959220373 0.0058501226754453 0.00403041870491493 0.00887149286535713 0.0063663548750363 -0.00701017936870272 4.93581090440833e-06 0.00363086354780078 0.00550973001292766 0.00530447152192408 0.00183477688016511 0.00720763782156541 -0.0051883674760504 0.00372092159398088 0.00873295447833964 0.00143055166203825 -0.00332254729831376 -0.00193251864054582 0.00409168019716309 0.00840578112787872 0.00472118683968621 0.00829810166836802 -0.0025489976203551 -0.000522586556982201 -0.00403272499141831 0.000541698131055031 0.00449941788563769 -0.00356123588035141 0.00383440792504327 0.00349654562147957 -0.00768515625781398 -0.00435068030661314 0.00545588681361813 0.00781481706497218 0.0067772969442362 0.00495274503005727 0.00609530452449646 0.00217457796557251 0.00274513722980906 0.0031605638270557 0.00304119610686152 0.000284052766659279 -0.00133527756293355 -0.00447796967715622 -0.000352914451568965 0.0006216287579293 0.00136145508089746 -0.0021148600023241 0.0074682391942499 -0.00448985523492106 0.00870873852078291 0.00705740621758547 -0.0036729524308362 -0.00079440809266477 -0.00461235484097476 0.0033580133056858 -0.00608070321112329 0.00292064688170943 0.00741664239440301 0.00721564382594693 0.00681659508358442 0.00307330209198903 -0.000825618072879575 0.00621070746063233 0.00842441286364103 0.000361893928944429 -0.00361549962796501 0.00797337654332053 0.00745706742703128 0.00106422306240816 -7.96245713238737e-05 -0.00183205644099098 0.00266304026275991 0.000286782631713312 -0.00190454848416265 0.000763935570779318 0.00430937881118219 0.00348676052858877 0.00259940643734797 0.00512189547382722 0.00480635707818755 0.00529037406785245 -0.000462432159297647 -0.00310978482811577 3.0067304797469e-05 -0.0035969224791394 0.00137586310562819 0.00415625441757075 0.00732111523889015 0.00335960016989469 0.00572949565310666 -0.00367955795758066 0 0.00684071596995065 0.00210971290317911 0.00891572362906272 0.00963273835492015 -0.000143699200770884 0.00732224085300545 0.00243337545979805 -0.00237262199360011 -0.000246488901011762 0.00534311808544996 0.000291609271231058 0.00100734914497031 0.00272440443840038 -0.00530746577585477 -0.00445668887546615 -0.00558930883312239 -0.0054900470728238 -0.00117028797974792 0.00763643419904524
0 0 0 0 0 0 0 0 0 0 0 1 0 0 0 0 0 0 0 0 0 0 0 0 0 0 0 0 0 0 0 0 0 0 0 0 0 0 0 0 0 0 0 0 0 0 0 0 0 0 0 0 0 0 0 0 0 0 0 0 0 0 0 0 0 0 0 0 0 0 0 0 0 0 0 0 0 0 0 0 0 0 0 0 0 0 0 0 0 0 0 0 0 0 0 0 0 0 0 0 0 0 0 0 0 0 0 0 0 0 0 0 0 0 0 0 0 0 0 0 0 0 0 0 0 0 0 0 0 0 0 0 0 0 0 0 0 0 0 0 0 0 0 0 0 0 0 0 0 0 0 0 0 0 0 0 0 0 0 0 0 0 0 0 0 0 0 0 0 0 0 0 0 0 0 0 0 0 0 0 0 0 0 0 0 0 0 0 0 0 0 0 0 0 0 0 0 0 0 0 0 0 0 0 0 0 0 0 0 0 0 0 0 0 0 0 0 0 0 0 0 0 0 0 0 0 0 0 0 0 0 0 0 0 0 0 0 0 0 0 0 0 0 0 0 0 0 0 0 0 0 0 0 0 0 0 0 0 0 0 0 0 0 0 0 0 0 0 0 0 0 0 0 0 0 0 0 0 0 0 0 0 0 0 0 0 0 0 0 0 0 0 0 0 0 0 0 0 0 0 0 0 0 0 0 0 0 0 0 0 0 0 0 0 0 0 0 0 0 0 0 0 0 0 0 0 0 0 0 0 0 0 0
-0.00188150460902971 -0.00308026965870471 -0.00109823769247837 0.00223857157722272 0.00214467792139718 -0.00149967172745692 -0.0028658097751879 -0.00103805612173649 0.00246549150699632 -0.00601264708387393 0.00278894147271712 0 1 -0.00333549646143991 0.00380865152214775 -0.00106234255778822 -0.00224420191765018 0 0 -0.00405168413297481 -0.00345990723491706 -0.000318115809276932 0.00153404412780072 -0.00429394801385294 -0.00614300365329924 -0.00515891730453749 -3.27684701269569e-05 0.00218005000498266 0.00101717756566765 0.000422090105633913 0.00213905434834131 -0.00175161673188654 -0.0010023101568972 -0.000404390313585824 0.00426497860724889 -0.00228935795050707 0.00177166179242907 0.00426776485743318 0.000983149803440352 0.00705230911851177 0.00231877498631486 0.00244921848790459 0.00129233128491916 -0.00401390337019182 0.00271336982468245 -0.00240686695800586 0.0041716576326651 0.00659562378507318 0.00370840686314928 0.00231210136056206 -0.00113921618341033 0.00291911853734815 -0.001778623761748 -0.00290331111064384 0.000425145465032463 0.00032165670650764 -0.00305850760368093 0.00264610120608974 0.00159006918311017 -0.00272148923321838 -0.0001278073234587 -0.000194729317275048 0.00121821217870142 0.00185239599469186 0.00137326655382436 0.00193338385889718 0.00362816381467952 -0.00276191870160832 -0.000464436015706762 0.00310695588904301 0.000864927426953882 -0.00251948527229591 0.00129098551875798 -0.00343578746863306 -0.00373057570599222 0.000701912858102023 0.00233376672593653 -0.00319365903018833 -0.00205993439470997 0.00195709302530712 0.000573235391446206 -0.000346149448547393 0.00702844458142115 -0.00421756462433257 -0.00541840878915367 0.00137175128678282 0.00381900497630467 0.00491784733457578 0.00341305915491246 0.000659566785798568 0.00239347058766714 0.00545371549724749 0.00115119045308572 0.0017772624960482 0.0004823860414602 0.0021683488135312 0.00174231658753541 0.00244465574348854 -0.00017442532644533 -0.000975311573208355 0.000244451399346491 0.0024365081855966 0.00282717812259966 0.000566811161595728 -0.0016855297569916 -0.0036117609598784 -0.00290358370222586 -0.00379564957749656 -0.0048164681582958 -0.00448987617672788 0.000645545392501883 -0.00334827687336477 -0.00317171715135 -0.00556088244237615 -0.00479130686672874 -0.00500448412014227 -0.00531020393767328 0 -0.00744613932072731 -0.00163942447661254 -0.00589357408028739 -0.00600251850376975 0.00136271239167781 -0.00649437495171772 -0.000813933119252113 0.000801178421022872 -0.00312221321057414 0.00138753093392266 0.000572724777102557 0.00281703670579884 -0.00123922693071086 0.000118091459267178 0.00210547430405626 0.000515501676441405 -0.0035041419276552 -0.000131576368147411 0.0010234827467974 0.00187971475291631 -0.0018146895147627 -0.00161779399717978 -0.00172521570881078 -0.00128782540988814 -0.00201750568496564 -0.00196061364009331 -0.00293722923910096 -0.00285208728758028 -0.00232186637668926 -0.00376971198870567 -0.00292699884781139 -0.00546733840252436 -0.00518616789367126 -0.00740758823720417 -0.00241084886666804 -0.000290846348898625 -0.00208505037591387 -0.00259266648810036 0.000524112878447443 0.00327713996949662 -0.000784658124121871 0.000938412993058095 0.000344013463488353 -0.000520883772492541 0.00386642527126168 0.000217383043665134 -4.1846675179562e-05 0.00219028962927038 0.00573545188217946 0.00319151001023541 0.00239434454818311 -0.00105525099566542 -0.00181175878079858 -0.0013763426297844 0 -5.42480764903654e-05 0.0016771144399627 0.00685894651288549 0.00111554420588574 0 0.00492999685129457 -0.000494982592294502 -0.00492760914379952 -0.000199157110291352 -0.000532965458144144 -0.00486975110269798 -0.000577823479544462 0 -0.0024247903308801 0.00375158265401065 0.00288984893395924 0.00291263946816385 -0.00337937427175667 0.00118717396297974 0.00442834690879993 0.00388529093594942 0.000777081528080496 -0.00286137333090904 -0.00169074755546329 -3.08388180981552e-05 0.000585390216860546 0.000354212487764987 0.00129780952241747 0.00020468908775114 0.00224585644609692 -0.00326948818531252 0.000635103983429026 -0.00301760924460411 0.00598160880031335 0.00203164742444927 0.000371232282084297 0.00267443197473375 0.00262448416597879 0.00336926860121683 0.00131832186207988 0.00163561323817212 0.000148354246133561 0.0033534999882852 -0.00149099526656575 0.00352666678606107 0.00371600950591218 0.00700761159583931 -0.000517690174695883 -0.000499948105837953 0.00427060046517489 -6.6277252744373e-05 0.0028742801048863 0.00118863701385289 -0.00692190783222681 0.00133922320551188 0.000588186507870505 0.00111227336078051 0.000843122385726886 -0.00206594113296673 0.0019993594017298 -0.00520269103766938 -7.92854032053744e-06 0.00274224763514386 0.00404851265032816 -0.00699819217079638 3.93103821150314e-05 6.6353622789911e-06 0.00189108045038538 0.00149906390191995 -0.000988828229737544 0.000351074004838055 -0.00589724233132554 -0.00872487559432675 -0.00252070509339914 -0.00109204753253209 -0.00517985247735135 0.0031615490072553 0.00397053417437647 -0.0017950321832902 0.00047148577200615 -0.000551111438459609 0.000892415355830572 0.0014299143409976 0.00121531996926232 0.00420242918647995 0.00311654701860299 0.00558812479794188 0.00577084597136404 0.00380073542282619 0.00100364130664411 0.000431366037328345 -0.00101826357063134 -0.00134119336263872 0.00092752049083542 -0.000987636502094431 0.000600144307824858 0.00175297786237525 0.000849699136181349 -0.00177050589362726 0.0040767647718398 -0.00706962216293599 0.00376864919926067 -0.00478031795092296 -0.00249981400136527 -0.00454073750315147 -0.00274069581125147 0.00364198545512814 0.000205964495475703 0.00379496260355882 -0.00743714877204981 -0.0107910059770785 -0.000371455534724883 -0.00028436445247774 -0.00478233427323946 -0.00494371964424148 0.00479956759794585 0.00267913738150122 0.00237582938555594 0.000949968858507588 2.76879347388896e-05 0.00793365293924165 0.00124443593953925 7.46120397611757e-05 -0.00229575508734052 0.00446164309966261 0.00390431669149625 0.00395905388585355 0.000778409308718982 0.00317379916208909 0.00101976321374603 -9.96223230998578e-05 -0.00476957899895778 0.00588630131483723 -0.00112227791429518 0.0028491236901027 0.00400592730157587 0.00126377632050116 -0.00484679318578057 0.00178309471346164 0.000881572978006444 0 0.000200984898867163 -0.00721856900183928 0.00218564324142287 -0.000488417157529891 -0.00125929737649406 0.00156577956743726 -0.00495074054735701 -0.00380810427844449 -0.0052178929139187 -0.0029837153653458 -0.00226471587100073 0.000296386650896058 -0.000275794693875504 -0.00330113520999432 -0.00326372831579033 -0.00704856670833155 -0.00253157633324304 -0.00111777773851333 0.00253809019078693
0.00191655473419785 -0.0046670781033623 0.00415242470716404 -0.00486071211899471 -0.00484357127352988 -0.00494782526118078 0.00250170294175805 0.00351565271794352 -0.003839089029137 -0.000625935960314438 -0.00405373284247053 0 -0.00333549646143991 1 0.00195713467923162 0.00484668342113169 0.00402456418622498 0 0 0.00300549847941742 0.00477367031089734 0.000940049328779905 -0.00405144858300953 0.00410751608523356 0.00152273425960412 0.000897372024582528 0.00314172032251746 0.00348192257980572 -0.00304328284152824 -0.00243806828516179 -0.00368171823782688 -0.00167782812888587 -0.000643579812096996 -0.00464051490543612 0.0015518765224239 0.00328143341084948 0.00416796162920236 -0.00432657209406764 -0.00347816388045151 0.00237201985660599 -0.00430068668714113 -0.00278459735681232 -0.00696990427343442 0.00383558367025796 -0.00546452087929397 0.00455453115840993 -0.00659609171766185 -0.005007549132267 -0.00764465651703828 -0.00146821916902951 -0.00434835247826189 -0.00405944828212786 0.00588572832035462 -0.00115697214985278 -0.00602234689577205 -0.00169034671531635 0.00222840386971717 -0.00221436643565229 0.000310489162775067 0.00110531982000562 0.000184821592614131 -0.00705002841852017 0.00348417852326434 0.00403988218388658 0.00296094868491384 0.00506747501370962 -0.00114461776681429 -0.00158588013551476 0.0035070636540753 -0.00297814072011583 0.00242730611529596 0.00567166285734261 -0.00253392934336808 0.00604995334300316 0.00682223433723592 -0.000338918147958533 0.00099653100612877 0.00168277305781334 0.00304523044895131 -0.00589587804755995 -0.00556350724093824 -0.00145297349695114 -0.000597155264432673 0.00151439994942625 0.00077110714732288 0.00180211491224179 -0.00433889869901454 0.000225541361836694 -0.00187913608299878 -0.00289650598491994 -0.00605081264584857 0.00155261383268032 0.00134833815495982 -0.00486318761937098 -0.00792309174793561 0.000740230852646829 -0.00384968920820806 0.00337887737378159 -0.00653258755915435 0.00313424060396542 0.00446660322390722 0.00485622545840211 0.00365201534428654 0.00295401013529461 0.00655317034537988 0.00184868655703025 0.00191580951109158 0.00546754119675714 0.00636641170532489 0.0071933559900309 0.000110449515132935 0.00587317771484426 0.00377900999370477 0.00369817467287759 -0.000780609927877923 -0.00631168724971827 -0.000213709512594316 0 -0.00157173175360966 -0.00705534322513665 -0.00204291635427836 -0.00463410979133461 -0.004742806754744 -0.00356866721276957 0.000896569294789965 -0.000577654799747044 0.00573773575533607 0.00100079087464614 -0.00228295061135247 -0.0022489175994656 0.000963237141301583 0.00226060512940432 0.00396716526681016 -0.00380487550345202 0.00612638881465531 0.00315407602036286 -0.00462193209298788 -0.000312474791260376 0.00588199925854067 0.00267483806864976 0.00514950935004486 -0.000931383557112193 0.00164096903935627 -0.00116194294612938 0.00683718031260172 0.0100637263511441 0.00871401644530644 0.00642171434004404 0.00693209003975915 0.00417794691761148 0.00594610878593473 0.00360338769329545 0.00718077450829556 0.00478104993533357 0.00523898609464691 0.00231253499297937 0.00553416592587308 0.00031897688191465 0.00272673911433302 0.000893781262737016 0.000133158542010216 -0.00342472459303424 -0.00737354102610409 0.00221377294950686 -0.00363708627904019 -0.00636375802785291 -0.00523479499435796 -0.00341647674046276 -0.00481119543662349 0.00161709194376206 0.00381799486569076 0.00292685981094818 0 -0.00253816491556009 -0.0021213586747647 -0.00332811781233608 0.00311156325058257 0 -0.000757184654136479 0.000675809369049298 0.00270001591129309 0.00497790638892333 0.00208077665643892 0.00310734627244942 0.0045396121457353 0 -0.00607947321402408 0.00566611681132814 -0.00374446723934662 -0.00496004201750604 0.00408785863058177 -0.00328954027486745 -0.00254657298114066 0.00233622143337114 0.00392601521316376 0.0048293232697326 -0.00357713338393107 0.000365379612237945 -0.00217083707253842 -0.00555906692650254 -0.0014843503407413 -0.00320220782054969 -0.00551059385637254 -0.00103856430704578 -0.00101407474721729 0.00395263913179234 -0.00517552284012153 -0.00837921994721087 -0.00486527148883471 -0.00486630053200715 -0.00549514085673123 0.00337546079685844 -0.00646258697435424 -0.00823559479462068 -0.00340182546912985 -0.00471071666724458 -0.00581879283515417 -0.00503318101077583 -0.00196449355395856 -0.000391676633512723 -0.00244473518175756 -0.00181099112816306 -0.0016266898427569 0.00503892511891759 -0.00530877297432217 -0.00478883188114547 0.00470000915224633 0.00296009175346038 -0.00336139814351379 -0.00397407554238529 -0.00107965166688516 0.00105019201414397 -0.000622834036576937 0.00517815832620354 0.00463671272617643 -0.00406579798599775 -0.00280822697998712 0.00166618416380461 0.00440683136787205 -0.00486558478856043 -0.00657447550548978 -0.00599211756271944 -0.00275760617720536 0.00147917712484852 0.00214341499203897 0.00446682349261955 0.00499092039427111 0.00550347545413506 0.00364038190985737 -0.00218766076463362 -0.00746457136553987 0.000737953356272902 0.000716646118295143 -0.00289594507861028 -0.00504101916132168 -0.00529173323685351 -0.00330847157611604 -0.00728866066029081 -0.00390966344112096 -0.0025110025922721 -0.00404156062003467 -0.00382113927237765 -0.00645297501186024 -0.00181689495214395 0.00233096069822195 -0.00569547463246472 -0.000482786188515863 0.00383015684653225 0.00712471454498947 -0.00824092440639979 0.00412429680205207 -0.00549222058761386 -0.00496105128598068 0.00310018986201757 0.000852271254170841 0.00386186820350871 -0.00528308026539574 0.00464543929593546 0.000414817899806768 0.00175225193478941 -0.00651392887855866 -0.00379816002344655 -0.00346606753630018 0.000244925523261734 -0.00412581161688199 -2.38688647037276e-05 -0.00115719133860837 0.00174842109521102 -0.00351181902705222 -0.00185131745388436 0.00679373925642812 0.003445206713164 -0.00123138644401139 -0.00195029470903049 0.000959568573622332 -0.00105621990071998 0.000756923236063641 -0.00382662493652164 -0.00208819776485072 0.00318248723124717 -0.00444975327093913 0.00268226956120027 0.00053672972209192 -0.00344118908591119 -0.00553671260738758 0.00598324684564715 -0.00223065060463399 -0.00213039687954083 -0.00485647539680471 -0.00556596944756879 -0.00233735582115895 -0.00340411912383436 -0.00157818911820069 0 -0.00688315672227646 -0.00517281595060185 -0.00476986126802892 -0.00422177535695321 0.000743254457792888 -0.00333851881504461 -9.49537337100159e-05 0.00677328563072431 0.00329372157435497 -0.00426791653481037 0.00154024525427002 0.0039742250234964 -0.00323900349126567 0.00614984188811644 0.0020914960508761 0.00369400011116759 0.00516623006739644 0.00366772059456795 -0.00287191574354222
0.000241905509153982 -0.00099199538380271 0.00245005859228886 -0.0014541623124141 -0.000516304092713105 0.000150536694899942 -0.000833547469255599 -0.0019507057898649 0.00117286354450325 -0.00262970301982413 0.00250558919826993 0 0.00380865152214775 0.00195713467923162 1 0.000361914750930603 -0.00015786469414029 0 0 0.000420640155715927 -0.00170747934994093 0.000770073813325504 7.71892902172971e-05 -0.00385095561355772 -0.00592211497050441 -0.00104109915412665 0.00739023574722811 0.00195848096618974 -0.000189118132770031 -0.00097259496444859 -6.5776172707326e-05 -0.00215859138261221 -0.00365263610894521 -0.00462560878413563 0.00287391311350401 -0.000723529328499231 0.00291047167924196 0.00139612249137358 0.00166074006321536 0.00344708340398811 0.00214074860859575 0.00442847782168131 -0.00144736035055439 -0.000722156803079972 0.000240960473836155 -0.000732337867110655 0.00117503546512837 0.00315088540559969 0.00204849995279033 0.000223726882555344 0.00116585838229004 -6.61108994110909e-06 0.00254832912021819 -0.00122133391213064 0.00182800793256864 0.00147042167031309 -0.00249353403929855 0.00301926067354529 0.00196273364021458 0.000887384173208305 -0.000890720816025644 -0.000332586985379331 0.0037893115257441 0.00475993978490448 0.00353715214620635 0.00608981716075718 0.00421275580714803 0.00489421610298473 0.00226878886310065 0.00124145263591744 0.00622528252491922 0.000889527051692973 0.000262552366505451 5.34627940335421e-05 0.000151701757123247 0.00568088149514261 0.00418225366703728 -0.00440092269106437 -0.00186961885495177 0.00121270165179579 -0.000392981181184946 -0.00272336948867429 0.00433228235662955 -0.00315458747825964 -0.00223548139006875 0.00220107899583421 0.0022979914186394 0.00312633158421922 0.00107364891684048 0.000810111116319199 -0.000148643887266169 0.00217220246503265 0.00123940314373361 0.000693213268740476 -0.0021920612557511 0.00154536404284071 -0.00200519789166794 0.000373611511631105 -0.00316272332837837 -0.00241078507144774 0.00113398443855374 0.00329776638255505 0.00596710758957883 0.00315771504290928 0.00532618465830119 0.00102642044227227 -0.000294283461792159 0.000749754807029438 -0.00130446018145979 -0.000312724804384653 0.00666129329394671 0.000974912706402747 -0.00087793416182312 -0.00308575728081325 -0.00407737207771344 -0.00498467719092255 -0.00340424970505954 0 -0.00436241767880976 -0.000614214681551381 -0.00413493243498395 -0.00530376126525695 0.000310356246149961 -0.00337051960891457 -0.00379420663180758 -0.00517009278803116 0.00111628986011116 0.00360878372754624 -0.000127419943358001 -0.00303274801448333 -0.00434763509568156 -0.003456692789011 0.00201340631201671 0.00269729945372195 -0.00223082649692517 -0.000140038150584864 -0.00665245283718778 -0.0010559488896608 -0.00195160874614194 -0.0014964149179514 -0.0022312759684002 0.0014606136860763 -0.000946979832968847 -0.00310566620527299 -0.00127365208333253 0.000328584107817178 0.00395879298937552 -0.000194972339502551 -0.0022154361636375 -0.00214733913916661 -0.00254527743477969 -0.00412847736111646 -0.00238242245629912 -0.00154697007689945 -0.000849547546396337 -0.00164570767602105 0.00338190448444815 -0.000728022657873671 0.000110822103119397 0.00177694107185212 0.00454357588627901 0.00180623135623715 0.000282686709324789 0.00206731945570701 -0.00129147644367275 -0.000842650686885577 -0.000666769989787111 0.00247667266491723 0.000448593282230884 -0.00144956964886327 0.00100178833296136 -0.000411514575096857 0 0.00028164897066043 -0.00237702950842275 0.000361536692485277 -0.000207607167882058 0 0.00190600288224112 -0.00215577421695006 -0.00285077818338342 -0.000157526637200407 0.000570974376989443 -0.00562269559949846 0.00260358985773049 0 0.000283466753205731 0.00666067889791091 0.00118224911129006 0.000446723204952737 -0.00455178298199819 0.000411626433787878 0.0024112546944621 0.00771298344605887 0.00106211731077792 0.000678271937010123 0.000804437119164153 0.00016763241750767 0.0011516610197523 -0.00201883358579722 0.00229721748018856 -0.00104892598842554 -9.94748511509869e-05 -0.00260806011264559 0.00106345633477315 -0.000961139771404407 0.00184471452396804 -0.000778273769724333 -0.00146129976133707 -0.000892256570344572 -0.00375524379613737 0.00303127498622957 -0.00236496916719436 -0.00140706314115437 -0.00498414099244598 2.43679394409865e-05 -0.00181905906980612 0.00238594328731828 0.0010041484398928 0.00343174042497012 -0.000169301379833202 -0.000571962913819569 0.00221291323240303 0.00656999153464933 -3.92391418874174e-05 -0.00163056850963996 -0.000418694132007494 0.00748326442435142 0.00108820936231632 0.00247193958156281 -0.000571428270283894 -0.000225836963738696 0.00237407129820701 -0.0011440219204848 0.00179982553114702 0.000512314381783393 -0.00121151250443306 -0.00466430961802654 0.000511100031716626 0.00109613465290042 -0.000449523984947521 -0.00064572416621979 -0.00238686920392301 0.000818623574484116 -0.00492057704771779 -0.00216597567129231 -8.35429413445699e-05 0.00252494306420445 -0.00429890446306177 0.00246289735832183 0.00023256225193689 0.000509064831225795 0.00172849248824695 0.000556329890890661 -0.000735730404506744 -0.00100311355127492 -0.000784176032497065 0.000219645668529433 0.00272017688236169 -0.00160567367512033 0.0035396495361758 0.00121075022909504 -0.00450688394417072 0.00404259900186507 0.000175733682209219 -0.00435928225597711 0.00128207774459176 0.00384190936551424 0.00414910352552669 -0.00216270977262793 -0.00188978380186485 -0.00468443445716889 -0.001615853883671 -0.00377927839623861 0.000560971177308704 -0.0051357550783255 -0.00177912443220168 -0.00044496474344742 -0.00321041615422391 0.000558684207748392 -0.000895271264261141 0.000790756209831238 -0.00420924799539202 -0.00334748026883789 -0.00210508207985684 0.000487442067627498 -0.00178823233302014 -0.00369083079100683 0.00332692606233998 0.00362616748354763 0.00396081744704067 0.00291607244272241 -0.00397188912145433 0.000994740015781523 -0.000637233066241282 -0.00257370938073644 0.00113728158895518 0.00230295998184787 0.00552068079685256 0.00615074272313589 -0.00307725235174821 0.00358734188698462 0.00313024098665507 -0.00405368107636406 -0.00436742792342179 0.00708430770607476 -0.00240455922087241 -0.00179399865569041 0.00351195821890442 -0.000559774813637445 -0.000285770548222671 0.000103638549334089 -0.00177009664368916 0 -0.00394191331979175 -0.00769931096613327 -0.00205212784082704 -0.00254499997222473 -0.00077929669197238 0.00103591109671258 -0.000903125693345015 -0.00141455581409518 -0.00341331468427344 -0.0048367849863284 -0.000568450027287185 9.97376894624401e-05 -0.00252651898699833 0.000843695373445602 0.00426430135884334 -0.000854884395657525 -0.000793734530148955 0.00167315388984148 0.000115356883855692
