1 -0.0029725058575173 0.00231049050094737 -0.00163470561051055 -0.00933439627954128 -0.00146144257510657 0.00260918197172502 0.00194536742474405 0.00108786670225905 0.00145948978728613 -0.000241770985719433 0 -0.00304090331991643 -0.00148992508831347 -0.000113508359714799 -0.000560378996328163 -0.00275811238435714 0 0 -0.00249368261174841 -0.0042132968305362 -0.00267688716509075 -0.00132423867970502 -0.00481321965522755 -0.00467732585193203 -0.00236402533047335 -0.0013565751054514 -0.000422599235873956 -0.00116322168576465 -0.00618476524919918 -0.00462401902862506 -0.0038194798642996 -0.00117958475371865 -0.000885083720210987 -0.00563943980565153 -0.00407562182273534 -0.00284546711703551 -0.00357301499846612 -0.00199994627533876 -0.00239373115631058 -0.0048830420054222 -0.00313769246484695 -0.0024652371429851 -0.00655732386762395 -0.0057411435455496 -0.00619438046586487 -0.000804168314797983 -0.000696076853042497 9.60067818736456e-05 -0.00134185820475708 -0.000583791402539911 -0.00516374994828804 0.00369498316251001 0.000707430991967209 -0.000693764712415674 -0.00218360127394126 -0.00231758111432241 -0.00367570706087704 -0.00516583920124807 -0.00216782525943651 0.00122378294481922 -0.0049257245339843 0.005780161701086 -0.00162097664869321 0.00138550555734654 0.000677497783215245 0.00521355322351108 -0.00101940793609225 0.000129288274288558 -0.000240274065949366 -0.00205928056476338 -0.00439028517594496 0.00369946908449751 0.00263553015439734 0.00223941909954021 0.00386396097260497 0.00536665859701506 0.00235356644932132 0.00265194930707851 0.00172333028811442 -0.000657497074226919 -0.00358686813893602 -0.0018053068844634 0.0010697884146411 0.00451997144827141 0.00263037199510921 -0.00771369858951109 -0.0059983859554004 -0.00408360828001981 -0.00437932500651035 -0.00656233026021466 -0.00332911268145002 -0.00513148549579885 -0.00571523590022775 -0.00882242118407216 -0.00137427168554506 -0.0022500054697811 -0.00298678902745471 -0.0025532937475653 0.00215538594215163 0.00726294615257198 0.00491600024974025 0.00640565078312247 0.00578122339520016 0.00558783808596525 -0.00534558216728429 -0.00651826958340327 -0.000515405042646532 -0.000849714150856248 -0.00029058738660162 0.0048501756768148 0.00127952311674981 -0.00458746585743124 0.00428512434266584 -0.000967354521792982 0.000318202563300508 0.000906492510097365 0 0.00343185462288083 -0.00284661704266565 0.00135425783523619 0.000604356501985151 -2.39655132132325e-06 0.00293814974424182 0.000432046685732362 -0.00197202925377002 -0.0019493895201104 0.00395911283534421 0.00500935238491966 -0.000139888561010547 -0.00192705762196992 0.00647136219536111 -0.00142203919813117 0.00658624978853255 0.00157795479790635 0.00156124773721987 -0.00150405561164881 0.00132629918964263 -0.0011154074821999 -0.00231268685001125 0.00352557594452546 0.00615848065216736 6.21993172403091e-05 0.00309125878726028 -0.00217811673615422 0.0010660689513377 -0.000610941172910154 0.000462646277015375 0.00154809169762081 0.00247031336873017 0.00344752130046568 0.00079774256278296 -0.00174591881327902 -0.0014347622017195 -0.000217228117915008 -0.00625881241052998 -0.00882513197703477 -0.00509814578372467 0.00164529390258885 -0.00120722448379729 -0.00175752286092363 0.00270765319534679 -0.00585515245334264 0.000811428784124644 -0.000670969399505837 -0.000975097179403019 -0.00420551998592986 -1.05092458177536e-05 -0.00182864856206825 0.00198624922485157 0.00279107017884363 0.00153902510780981 0 -0.00438536070586643 -0.00487495173952304 -0.00468657664722446 -0.00609289823162114 0 0.00216423253450251 -0.0043793300161016 0.00499881835205533 -0.00213439294904166 -0.00570674138954363 0.00278173306619586 -0.0014403598883016 0 0.00405340947227599 -0.00246982819450364 -0.00287889357150653 -0.00053835908966238 -0.00140510249848344 0.00210384337327824 -0.00515348947425893 -0.00176737397996658 -0.000668177417601678 0.00202393745476988 0.00013329816031736 0.0022634631728908 0.000366980693822352 -8.82851745886913e-05 -0.00241499082009591 0.00168755871616756 0.00163996874071477 0.00268425501851553 -0.00250695799421113 0.00395978380936238 -0.00171060981235843 0.001170075575389 -0.00464963557121007 -0.00642568561035267 -0.00542584167816394 0.00245473736379527 -0.007595696778574 -0.00783788947880398 -0.00336984527447492 -0.00253924980997555 -0.00468514494543276 -0.00112179785042426 0.0017239772177941 -0.00205612443427278 -0.00273101893116284 -0.0015731554446193 0.00523052225141898 0.000426026922231672 -0.002873193134113 0.00624620310814715 0.00398017056888681 4.15200847454279e-05 -0.00120654284357192 -0.000581685436805489 -9.98011427202591e-05 0.00531885828602211 0.00590515856490468 0.00596543663366808 0.000458525666573217 -0.00176498206360911 -0.00474335215326158 0.00298591956474647 0.00488141481508012 0.00373758718395732 0.00111643546283401 0.00458729537152582 0.00232430004948961 0.00419222645921266 0.00684358912720496 0.00474630118101855 0.000841691721370591 0.0012437492783252 0.00320151727943457 0.000862319808503145 -0.0065775426274002 -0.00295052392686538 -0.000180446722223835 0.00511675567832665 -0.00100522246717746 -0.00269004529786017 0.00567943151544639 -0.00488330851059892 -0.00158471873026452 0.00121480209562285 0.00116861540706304 -0.00440172602060273 -0.00186750177647526 -0.00422235195542071 0.000450120761869775 0.000179484413314662 -0.00211628554295551 0.0045536751039418 0.00474145606430219 -0.000855784126535695 -0.00154716103930334 -0.00465127434892519 -0.00141362612221482 0.00678439640010408 -0.000779837928133367 -0.00335746826517418 0.00737933328602332 0.00188799899340117 0.00534117970303425 0.0040142002465403 0.00477167889763924 -0.000602644449862514 0.00254141028976369 0.00284793562929283 0.00679911153097287 -0.00128288943173426 0.00247654893928132 0.0014464960204184 -0.000826627535475618 0.00186907426840386 0.000676062670245797 0.00108394879052918 -0.00183617813903841 -0.000939339270588375 -0.00112723650496971 0.00455977099481501 0.00348919583253379 0.00108404816351939 0.00154492005580244 0.00137975044861069 0.00167007405965756 -0.000209414368368498 0.00277684030728754 0.00432319127320072 0.00407534049168056 -0.00330646942672416 -0.00389532161912184 0.00210927720435363 0.000295528816841407 -0.00234574219229293 -0.00140418477506044 0.00241343660181869 -0.00593831108005171 0 -0.00117764648019998 -0.00284232674960489 -5.1860480487348e-05 0.000520493209613844 0.00583177990802116 -0.00447166298204617 -0.00134683810044869 0.000619037096455683 -0.000772879557365718 -0.000457034246511052 -0.00275187407572128 -0.00148657096998715 -0.00400049203127554 -0.00350495998364757 -0.00249114082124567 0.00220139859468779 0.00468224474388069 0.00486730395669135 0.0013289550019789
-0.0029725058575173 1 0.00320625645220905 0.00397664997957042 0.00832109489271927 -0.000477784121949277 -0.0113494092029206 -0.00131243100872198 -0.00792569903137699 0.00659937970257185 -0.00391649834480309 0 0.00721810187633457 0.00115294447899866 0.00455052970451605 0.00246160034306339 0.00525082781203146 0 0 0.000159070035761802 -0.00199334790849901 0.00413401248176615 0.00906470315661155 -0.00130497087334342 -0.00546276513918176 -0.00209556992714888 0.00581901616713733 0.00234032388639226 -0.0030580269453079 0.00513726819656156 0.00945115334124156 0.00663663211279146 0.00895647696928859 0.00569407146407467 0.0113714780618687 0.00785947025465572 0.00391351068169953 0.0097206364837225 0.00527972561233186 0.00644070724151808 0.00515220421683006 0.00951321024769009 0.00594269796433801 0.000110533610991961 0.00836993698302204 0.00631604786861583 0.00945207321114419 0.0131143383883504 0.0125730287887441 0.00822516055401502 -0.00160939482515068 0.00363583860768428 4.80336424340543e-05 0.000635047602801396 0.00233737017588803 0.00305006468936515 0.00324686829956875 0.00612106463663478 0.00788904506825839 -0.00400243779411791 -0.00245735313059463 -0.00759598260907967 -0.0022362973490496 0.00235497033212081 0.00218978476617395 0.00540620376165305 -0.00229782264677018 -0.0047023634012024 0.00492515401094433 0.0068346434690195 0.00324455301392739 0.000784951870724773 -0.00820250766592106 -0.00705841008615503 -0.00850469446580019 -0.00507895980049503 0.00114891502084138 -0.00495842785431531 -0.00538915819950484 -0.0103576854893996 -0.00402525737050848 -0.00251277060700403 -0.00635388147916491 -0.0108280966129726 -0.00929139192329117 -0.00698389253421637 0.00833186348736581 0.00284777108867007 0.00328326327586053 0.00335724394494287 0.00803526009146505 0.00646727847471068 0.00178578043657985 0.00594923664252898 0.00704692048297308 0.00449523637667124 0.00649710606820232 0.007050184778608 0.0022069904911358 -0.00578718023434701 0.00210510970903181 0.000219684493124125 -0.00352947997459269 -0.00150842586851473 -0.0026647537859955 0.00565853242281857 0.00550392194183706 -0.000866676831266922 -0.00274468535954954 -0.00936017414315681 -0.0025494649403431 -0.000641319658223622 0.00324163521566045 -0.0112768403087557 -0.00815418554066622 -0.0120253940740835 -0.00726355642538137 0 -0.00948188878675481 -0.00742321715641811 -0.0102376626996434 -0.0114791944045026 -0.0116818814094823 -0.0117946982820768 -0.00639337757012481 -0.0118975042309341 -0.0125827288974918 -0.0116944741055958 -0.011853580447649 -0.00328614872048419 -0.00128384389005781 -0.00426056279929502 -0.00825149380517488 -0.00868832536432142 -0.00821089150409589 -0.00695397370492854 0.00748779228347487 -0.00552233255294886 -0.00241129609979844 0.00244101206062869 -0.00663484247988827 -0.00971199278672595 -0.00223404679701329 -0.00439640430576001 -0.00310855968751 -0.0097905678470943 -0.00543360458188711 -0.00620061434306001 -0.00811672610144315 -0.0149038693402343 -0.00730948438900288 -0.013873623368638 -0.00341670419786896 -0.00504437890726721 -0.00439676505232907 0.00490835671131236 0.00538941479556799 0.00566049865129217 -0.00956728241441953 0.000736413769898853 -0.00869974075700037 -0.00192071121389829 0.0148309184203897 0.00515166147462421 0.00552434706790573 0.00673581161461532 0.0092495177280192 -0.0076641360654945 -0.00108118098838572 -0.00643709444655125 0.00410492464161842 0.00242945073109971 0 0.00357069284824171 0.00474009819485843 0.00613908041386787 0.00636903347560618 0 0.00809681737332541 4.82694089172369e-06 0.00151704941627522 0.000862904435708069 -0.000164750518892303 -0.011963278480045 0.00672874352451269 0 0.00378644473067325 0.00262024248363671 0.00446709138222582 0.0106155227428947 0.00592646943924363 0.0120983660038774 0.0105425818026048 0.00992377776310743 0.0104856660256785 0.00775702521058476 0.00468244475832632 0.00762659019228122 0.00631815986038855 0.00193249227106559 0.00630568250360736 0.00454395640347024 0.00874535104353003 0.00635897764669717 0.0101573047545846 0.00866244415855447 0.0155197581414963 0.00929454710440397 0.0145449540339018 0.0110575742834714 0.00635619259262 0.00648054899996976 0.00514837427727637 0.0112276647651675 0.00644700432273846 0.0123825634396843 0.00223588318385887 0.00840917327572168 0.00111823488336878 0.00279561926988612 -0.00394579358061291 -0.00930651408597293 -0.000572615693221489 3.3190169904751e-05 -0.0113592899107112 -0.00998854507785087 -0.00394718117295424 -0.00585043750005273 -0.00924652337133658 -0.00836622903011463 -0.00805559341603544 -0.00974873134571417 -0.00466579554562597 -0.00233313904939264 -0.00572262995239477 -0.00279216405820803 -0.00310500445602131 -0.00290076474664733 0.00442521186060705 -0.0103668049183224 -0.00861768526115658 -0.00845785409653669 -0.00943101685148053 0.0010457712569858 -0.00922735850604019 -0.0112305792202702 -0.00916061222144058 -0.00851597965067702 -0.0113006254056767 -0.00505090190487099 0.014385662673211 0.0114249110604681 0.00542938952704769 0.000606899407274783 0.00405383255260134 0.0022968273544503 0.0003615215553568 0.00803977386884332 0.00765850101552523 0.00711983950986804 0.00374663884978563 0.00987919298519779 0.00548221332318247 -0.000370852305312615 -0.00646889820906063 -0.00586157972829742 -0.000688309869739255 -0.00141135938554763 1.0109522026672e-05 0.00515362603091003 0.00776799835896771 0.000553375190149181 0.000296768663600012 -0.00646643562647322 0.00198474705260887 0.00205502513675841 -0.0121855742929424 -0.00745389930130097 -0.0135537748055916 -0.010992991488564 -0.0106074587961638 -0.00571120500378193 -0.0137934946513419 -0.0131508560207783 -0.0111556322817076 -0.0112425125089334 -0.0100493615345866 -0.00772350745176401 -0.00397833391357796 -0.00642542916889166 -0.00290636312738488 -0.00557439255129176 -8.92061013401178e-05 0.000329130231847773 0.00398213022238089 0.0015268402916951 -0.0108511023674366 -0.00448005658861735 -0.00930387459645435 -0.00310527154165806 -0.00876100398388602 -0.00454128568673608 -0.00737287787436704 -0.00397705165909177 -0.00922962989014342 -0.00254079080613072 0.00634910692274447 -0.00101653073569819 -0.00490712796510016 0.00316440659288059 0.00269163897797285 -0.00579732934604966 0.00266709254597629 0 -0.00140252146417874 -0.00224299406336189 -0.00833339495286188 -0.00741421848709282 -0.00708215355907016 -0.00565068405858309 -0.00666471320709192 -0.0123594042808874 -0.00777664531833511 -0.00416522257278759 -0.00400612855777639 -0.00022738392777947 0.00543921991889453 0.00919687353706749 -0.000986242543878123 -0.0053178839570635 -0.00162081511072446 -0.00560718811451192 -0.00780665929589933
0.00231049050094737 0.00320625645220905 1 0.00463435765730493 0.00536882982451649 0.00220577356840057 0.00101396842798316 -0.000646383945248256 0.00657308237160228 -0.00827260444956613 0.00200980356269207 0 -0.000392296492617037 -0.0040867778790896 0.00395300627798754 -0.00230221472320057 -0.00318636390189698 0 0 0.00176693412642354 -3.27786846031769e-05 -0.000586424096765153 0.000792499359621548 -0.00306332583354359 -0.00422665474565177 0.000999058552758707 -0.00025860559924693 0.00320490970784138 0.00322035576497457 -0.00113048907298091 0.00509356660530536 0.00141352172719613 0.00251990165197037 0.000496957128361107 -0.00196086733335988 -0.00518334164034841 -0.00191543740643405 0.00413681912998212 0.00337027191648074 -0.00308042462334361 0.00185516607169462 0.00439719885732996 0.00617564327951791 0.000722479290206378 0.00581570272861852 0.000712215066370809 0.0028510775987794 0.00110117038331525 0.00046695594862869 0.00157101396149844 0.00536508232313662 0.00410530508405008 -0.000617947903505287 0.00425914883813736 0.0049648917909944 0.0023571916300702 0.000501671232213413 0.00516700978233419 0.00423128799378163 -0.00268304858883513 -0.00280377544888419 0.00353029170659932 -0.00909381204611833 -0.00716755573061971 -0.00477579620642414 -0.00791816715522414 -0.00640477528078029 -0.00371988417868111 -0.0106373881349906 -0.0075621018395139 -0.00794526846976536 -0.00520326289313085 0.000832078917925074 -0.00075907555041154 -0.00130971844296419 -0.00497814449706691 -0.00437188100014921 -0.0013270871887298 -0.000791434057903465 0.00171086199498181 -0.00363237372402236 -0.00514341948734773 -0.00137171204325168 -0.00523060623894032 -0.000953387865313374 -8.51384440499302e-05 0.00815163759187194 0.00138263352057593 0.0037260934321228 0.00529472847425921 0.00663349359494459 -0.000195074498478836 0.00541798463583938 0.00611573336354398 0.00745654774063448 0.00370943781675549 0.00745045954303294 0.00141132128635575 0.00555179350060961 0.000876337315639408 -0.00341069442564323 -0.00567221229991666 -0.00818802662268353 -0.00414641305202824 -0.00522469118476972 0.00237876932808256 0.00435216955610773 0.00129215200441015 0.00327754012375237 0.00281282872505862 -0.00575164765709599 -0.00443357448025879 0.00044119693348599 0.00467562444760186 0.00109136083715347 0.00383873389297079 -0.00175756729580062 0 0.00166222970684671 0.00928667062747134 0.00376330226261179 0.00185344628262824 -0.000407940074539584 0.00113589800367609 -0.000837492160849143 0.00517866516389185 0.000199603983928827 -0.000456449121273852 -0.000714449227132953 0.00247313644588086 0.000698962405469731 3.93785724628901e-05 0.00160937003583237 -0.00018639459927348 -0.00416166657931815 0.000203809778703773 0.00924355319054737 0.00670882497652504 0.00218418743211065 -0.000671731236374764 -0.00195170966778507 -0.00149697167709294 0.0014484493665755 -0.000610800974690202 -0.00449918603257105 0.00018093609129805 0.000138138953258657 0.000990740410964331 0.000244031304058998 0.0012120699015798 0.00323215736841942 -0.00330597997524065 -0.00100310717675325 -0.00378495656456389 0.00106019294963415 -0.00274115247760892 0.00104748024303447 0.00261154240962424 -0.00103072423895539 -0.00267876749209091 -0.000638481671260627 0.00445816156257534 0.00673663552604309 0.00315858098839535 0.0050961547296117 0.0073158007663139 0.00593468884832025 0.00384513413362228 0.00315454770042066 -0.00103290901207916 -0.00587716639833383 -5.6487477149101e-06 0 0.00161083034144244 0.005722800435761 0.00390009046081955 0.00129740047711802 0 -0.00212480457243807 0.00262432198347169 -0.00192288713202873 0.00234838043120676 0.00350452502563436 -0.00259495867562244 0.00188019737518704 0 0.00186084638952754 0.00259784570143829 0.00672223756233888 0.00534238887082573 -0.000785257191059228 0.00113106332415174 0.00300750492649907 0.002234065367292 0.0012491835627663 -0.00334780816086828 0.0056841186442539 0.00338882694065634 -0.00164870429598656 0.00410828897215258 0.00290884581377872 0.00691653470134912 0.0024945320404275 0.00274126615804015 0.00423115188875958 0.00025803260069048 0.00229970877797649 0.00485955589087145 0.00511361770752951 0.00555097110104318 0.00583149552622748 0.00208805619731039 0.00719110078098227 0.00670473323249529 0.0030919109265817 0.00221709323602297 0.00667277028054625 0.000521260755710495 0.00413890799690182 0.00162332226935139 -0.00267286277930379 -0.00158973487259581 -0.00452689639272756 -0.00601998736713826 -0.000244018394014175 -0.00166805753425983 -0.00963744455141368 -0.00324068753996629 -0.000130545761808832 -0.000783482149189269 -0.00341078084849521 -0.00387479185088964 -0.00276868226183748 -0.00809423910655152 -0.00133496995964954 0.0066805171386373 0.00309076053982522 -0.00315769660318347 -0.00466946736082757 0.00595422162113736 0.00110763138947146 0.00162598146285658 0.000191140193836389 -0.00663813127797165 -0.00506270593381912 -0.00599117194040371 -0.00424431673157785 -0.00639960327835843 -0.00227022240381794 0.000145596904672429 0.00707066515710855 0.00771796233768883 0.00476727717844277 0.00507079310725837 0.00671135059083954 0.00858899469069265 0.00441007564847919 0.0066512117970446 0.00528827014896073 0.00623685680179467 0.00706756108381186 0.0036390737685049 0.00674974272069769 0.00122942984303589 -0.00461235264524258 0.00116316864502452 -0.0020378724256721 -0.00351256945001905 -0.00630559086604259 0.00530432479626618 0.00451316560168604 0.0026156579983695 0.00609332192000912 -0.00540067703937771 0.00495475896859671 0.00352903499201305 0.00171095987727168 -0.00237237561897923 -0.0011498138337644 -0.000956574373620305 0.0020998074461121 0.0012320499345744 0.000747894841633348 -0.000174130294408904 0.00590463779535491 0.00193696252971938 0.00144428240741658 0.000191915645450253 0.000984398875603335 0.00236542930273769 -0.00044455796928866 0.000268436307515093 -0.00183563924605386 -0.00345892933260247 -0.00402860513968665 -0.00235619872638374 -1.18557417598318e-05 -0.000463122600247498 -0.00436336625116278 -0.000998592474210536 0.00314215281093115 -0.00143914104183668 -0.00254925204021478 -0.00127727172236969 -0.00309337897938964 -0.0053915483858824 0.00428702313294681 0.00608705785893859 0.000871417143792279 0.00877464681674121 0.00783201583949329 0.00268027583246615 -0.00277770091549578 0 0.005124290657935 0.00336983038744395 0.00432015044678726 0.00587130048044041 0.00428875299971006 0.00733324135730769 0.00411724166106752 0.00398977040213939 -6.61318318253432e-05 0.0029807819489181 0.00506916310994119 -0.00164875654198799 0.00284557732845365 -0.00138091282635266 -0.0034850784649734 -0.00969628819226376 -0.00754944126669815 -0.00316978813942275 -0.00121375458557263
-0.00163470561051055 0.00397664997957042 0.00463435765730493 1 -2.01291869698632e-05 -0.000524384333220301 -0.00223595533753129 0.00257513225111134 -0.00642960836340893 0.00512422009086105 -0.00201846257489605 0 0.00362922650011054 0.00467943804492327 0.000821276099699632 0.000330776006806262 0.001041405629532 0 0 0.000767697213444759 -0.000664070456173963 0.00126043676565154 0.000794657583922716 -0.00185065275642864 0.000226430448430335 0.000176619492627713 0.00171787082547472 0.000728492810938457 -0.000715546798972832 -0.000339217863434574 0.00249137983450352 -0.00252290289486322 0.0050012412554778 -0.00354156012470006 0.00119704502829641 0.00225121440375235 0.00251754510456825 0.00536894242508143 -0.0014777196978546 0.00102927396605088 -0.00596767405796153 -0.00293450087835053 -0.000606798883187831 0.00273566813121944 0.00193579727730413 0.00415217580520196 -0.000521991659056117 0.00179864489433876 -0.000302705339149459 0.0042789738378246 -0.00794614677298354 -0.00152084058423168 0.00476776407317632 -0.000739521138688131 0.00128598147685926 -0.00338100015697782 0.00135152804510333 -0.00292658154343357 0.000718202955683339 0.00294484760284128 -0.00202314910640113 -0.006230646108375 0.000733966743443326 0.00303830425523237 0.00553848950514702 0.0033967187118001 -0.00170736497326503 0.00334912814381934 0.00708511590095899 0.00745453276239206 -0.00215960099001026 -0.000126673303129793 -0.00221149240014482 -0.00251366553233391 -0.000594739792717327 0.00547220419045841 0.00250330934884717 -3.04414642269519e-05 -0.00121697214437513 -0.0063970580577228 0.00275360785578678 0.000861532029169947 -0.0015169632411446 0.000212568038730363 -0.00248982515562585 0.000892215913819682 -0.00304071597495593 -0.00234413945374243 -0.00249686707770973 -0.00225785355380876 -0.00711196322165436 -0.000965506746058351 7.37056809242119e-06 -0.00146136509811446 -0.00412859983024981 -0.000391947084139219 0.00376134509660805 0.00310544362320731 0.000529351574040856 0.000515629488318963 0.00456142571643247 0.00354859769834206 0.00429918072777389 0.000343038365364386 0.00535927504920738 0.00053249563775399 0.00224095731562659 -0.00444653574907973 -0.00100672687325816 -0.00170117454551192 0.00319606244962881 0.003804984805058 0.00326644074441884 -0.00123105048167832 -0.0031842286817045 -0.00358238207308458 0.00199239731998312 0 -0.0011172272564137 -0.00250546115150322 -0.00212579975824791 -0.000556562510145024 -0.00549853913893016 -0.00237958371492829 -0.00350959715841283 -0.00849734878581598 -0.00473290351382711 -0.00426423633981655 -0.000514495953900507 -0.00524431764691931 0.00368023527646984 0.00337257928331153 -0.00793397406656191 -0.00117263685888268 -0.00302941390930198 -0.00171974908487174 0.00358328945691313 -0.000948641888454116 0.00386257721400857 0.000343022808258136 0.00142066675597554 -0.00192824611865395 -0.000133108726253579 0.00153742312578494 0.00255396410612851 0.00308867218913656 0.00773383415353014 -0.00252116254752121 -0.00443729031978561 -0.00193604784882546 -0.00241687542170791 0.00144033896843872 -0.00100435693586068 -0.000486927166942553 -0.000719875460676112 0.00310816504322013 0.00104570931644285 4.41613486531036e-05 0.00251659610918942 0.000585011451539806 -0.00544770795730176 -0.00109126059705161 0.00179515801242841 0.00538866518846102 0.000840304892400041 7.31490697074915e-05 -0.00106309777090197 -0.00453235131995327 -0.0010385268687994 -0.000371732536060237 0.00149882373255294 0.00364753014160955 0 -0.00480575252030834 0.000247107549941457 -0.00599515544851072 0.00384576592207988 0 0.00109411517367984 -8.71828902302048e-05 -0.000767094690198198 -0.000580447434519551 0.00213055407764509 0.000684194520327346 0.00264826025563782 0 -0.00101178516066485 0.00633212970070268 -0.00490460752915209 0.00606480567158436 0.00202470960209957 0.000908721932876654 -0.00209325590745474 0.000946317279237699 0.00286301003954342 0.00164921357161599 0.000800228623347931 -0.00431902950116859 -0.00549622425981923 0.00290756552199533 0.00488257084345919 0.000706096948802359 -0.000103337788551434 0.00741421049463961 0.00603289131856813 0.0070397534344137 0.00260936368274358 0.00198388616392484 0.00169384032124684 0.000643300181179166 -0.000350571950613339 0.00744028399198342 -0.00229631750177797 -0.000256180658826266 -0.00125724006943723 0.00456531336813588 -0.00470821691914984 0.0039341727146222 0.00210443766702344 0.00346215574642825 -0.00483888432376198 -0.00637034419888794 -0.00399325948698061 0.00287857751482308 -0.00236522682978632 0.00219457602636669 0.00238662807162096 -0.00199918093356217 -0.00129424007509285 -0.00130129599808132 -0.000760600092632325 7.09367310541949e-05 -0.00173867662542859 0.000322812191427232 -0.00457222521744165 -0.00413954556470704 -0.00244709283825904 0.00576465771483806 0.00587641673038113 -0.00643394571887043 -0.00407408042689173 -0.0046117342943734 -0.00715655376725682 0.00102820650498072 0.0027053047256815 0.000511745595625045 -0.00189610635934287 -0.00241135523257336 0.00139262988136834 -0.00552906816314751 -0.00269051906452169 0.00443734960003867 0.00179195235173826 -0.00033519470803372 0.000409825038823816 -0.00623527042021663 -0.00304215517416226 0.00356674143831236 0.00401526637748696 -0.00137703948692274 -0.00363437534275307 -0.00510993922735574 -0.00375960455469121 -0.00241855176870738 -0.0024211115426606 -0.00180696445574749 -0.00355907050352497 -0.000179961555805102 0.00339178876612567 -0.00190731512470647 0.00247562301383045 -0.00236002703324387 -0.00281024427048715 0.00256422460272475 0.000108171692311373 -0.000511340873272542 -0.00298075647411916 0.00100085606369575 -0.00152597548380302 -0.00107578789366755 -0.0059729372559227 -0.00670400771845186 -0.00803137903841328 -0.00151618352250854 -0.0056985786742994 -0.00565694334274432 -0.00482818679599838 0.00636292772253046 -0.00266802074491429 0.000234141339027432 0.00130942419826665 0.00201019091874195 -0.000350744275490168 0.00115520113721403 0.00363108154542171 0.000466648196932964 -0.000165978525951921 -0.00464532287810381 -0.00634413405210915 0.00371041844217403 -0.00234155649501786 -0.0029523325450347 0.00204333708228189 0.00108246918123388 0.00293222130715958 -0.00306343859741704 0.0030552812726362 -0.000554913775862756 -0.00582470501309279 -0.00403281625491162 0.00137496061452292 0.000624265196071959 0.00355911080544385 0 0.00157274436312179 0.000774491719734985 0.00185758722118247 -0.00229177417933013 -0.00425408387365301 -0.00317021936227649 0.000418327488332479 0.00289648031904155 0.00311736446098508 0.00193745199732181 0.00152348914131141 -0.00372735625389233 -0.00111563954621704 0.00433948395684321 -0.000615705040672356 0.00542446015963562 0.00687808985382753 0.00265423106980511 -0.000710137396493517
-0.00933439627954128 0.00832109489271927 0.00536882982451649 -2.01291869698632e-05 1 -0.00344606349014078 -0.00141213746312262 -0.000666595793124681 -0.00820573495441118 0.00372968629653598 -0.00230976368371157 0 0.0028838127735586 0.00266167583775042 0.00261791466096109 0.00285982954447452 0.00322906034477465 0 0 -0.00623550141934917 0.00532350225772717 0.00555335307021027 0.00788676978746597 -0.0021749198458019 -0.00575921797869412 0.00263302863436943 0.00535104586830877 -0.000671452337203234 -0.00151139337777877 0.00548419559839839 0.00765242255410836 0.0101840241271701 0.0075799569011786 0.00569028702725339 0.0108998331606022 0.00871904574692435 0.00839156089622683 0.0110818496862397 0.00237910630114468 0.00592879488746966 0.000890207463425053 0.00143157781098984 -0.000267418326844607 -0.00385944341128687 0.00472474708017277 0.00923382302099766 0.00641972073374255 0.00690731928287587 0.00645746571879702 0.0127013050215145 -0.00408470804285701 -0.00102959294220187 0.00389149994587484 0.00641401159611992 -0.0013636233328718 0.00407862237345255 0.00949730087459325 0.00721768580473878 0.00532895521661102 -0.00414174288718143 -0.00264017914709091 -0.00993239559541303 0.00223134173338667 0.00154826504290101 -0.000400708371517071 0.00251009630212002 -0.00237771237385725 -0.00485494285446119 0.00570030114731815 0.00545416373247881 0.00262717527491939 4.01966334744009e-05 -0.00127557458364097 -0.00094331420200004 -0.00723801177145576 0.000912291517760975 0.00608076989081602 -0.00150325093555813 -0.00152550519244245 -0.0104975904471742 -0.00114529138956804 -0.0035463536134505 -0.00508940184484318 -0.00934480905425889 -0.00699196873160891 -0.00455801407722989 -0.000469866328060535 0.00398409195813405 0.00018064844737131 -6.75093852833951e-05 0.00118641299499642 0.00381018885950627 -0.000162014051023472 0.00227276000996552 0.000270027011440349 0.00216802437348355 -0.00266778383490204 0.00143621349356429 -0.00509651347517966 -0.00658935419215384 0.00573324268435095 -0.00132592955331757 -0.00198223438688017 -0.00270390355408472 0.0023222197519778 0.00669018644747622 0.00567297949652201 0.00303220883329621 -0.00188230458236915 -0.00140317861285776 0.00262611458615789 0.0026708300266546 0.00428372790666728 -0.00683517433730603 -0.00413374604482934 -0.0112958340438771 -0.00733335146531924 0 -0.00468267864416783 -0.0103042305726469 -0.00712702102079828 -0.00710038656916402 -0.0102041308518746 -0.0104466758357357 -0.00677105726659586 -0.0131778920779041 -0.00880060301808477 -0.00896337867125039 -0.00855164964410528 -0.00185948317759123 -0.00214156349491719 -0.00166774548938296 -0.0104034626549591 -0.00627450451771248 0.000260830882442316 -0.00413840502542359 0.00643062860827572 -0.00629917537182702 -0.00494200078042811 0.00260854968662693 -0.00300905134715177 -0.00542247691764588 -0.00111141471464917 -0.00222800683172542 -0.00475844898928184 -0.00712156986460647 -0.00089291103998184 0.00124108865753873 -0.00426411865032287 -0.00709029356502224 -0.000535637338262659 -0.00586731557349624 -0.00457003242587579 -0.0047563252047066 -0.0053575304087462 -0.00207135828645789 0.00199745916109063 0.00378325892636917 -0.00398858066961913 -0.000903405627170378 -0.00618912628368643 -0.00641152840564665 0.0101022062853243 0.00105935706423662 -0.00270665428877067 0.010564387758178 0.00331843217739322 -0.00128890576828174 -0.000473052331697283 -0.00490281975129146 0.00370646495910962 0.00197891487476368 0 0.00175824288015817 0.00653079608972906 0.00505690377497193 0.00562907425836406 0 0.00357091593143302 0.000597491422839612 0.000822802796685938 -0.00010049947275915 0.00191772528441317 -0.00502316593227286 0.00241066763627766 0 -0.0014841258072977 -0.000560190124691285 0.00097021180712296 0.00676695119017278 0.0114078835181429 0.00595982842962864 0.00872719462460127 0.00740152241072778 0.00729108932389652 0.0100427966220647 0.00487998478996449 0.00573652646387231 0.00137312095682171 -0.00631720648998826 0.00253138059055726 0.00226297578482306 0.0027083128506492 0.00808332882106992 0.00605708147067298 0.00693290597155046 0.00963906097073481 0.00149962702046962 0.00819165862127746 0.00221127199663347 0.000189948548525927 0.00147350540281723 0.00155212763778523 0.00497330546903232 0.00636322254640953 0.00982972286378866 -6.83322172941816e-05 0.00335149853089717 -0.00277247231762134 -0.000271037749172246 -0.00425708300799649 -0.00855960833433727 0.000478284663100148 0.000230714876765847 -0.00972569821802705 -0.00592993841711816 -0.002844169763859 -0.00411233910634322 -0.00762094163401664 -0.0005471112759554 -0.00277052906110121 0.00143836192578998 -0.00119160729236732 0.00655711090069293 -0.00270365573478103 0.000274267580793414 0.00209358464658863 0.0033549731944851 0.00644979774388769 -0.00647859469718507 -0.0064300622357833 -0.00467659256619071 -0.00681985725526315 0.000236215469122613 -0.00440019709125914 -0.00481112702358882 -0.00355438739475692 -0.00548143294844148 -0.00370295032777945 0.000908083648735642 0.00559735854044129 0.00589053500363465 0.00336784921372589 -0.0042387257791677 0.00158832413172141 0.00466434235373767 -0.00388538029720105 0.00571275427687913 0.00107014102151514 8.58090408563011e-05 0.00142675845458254 0.00301909623039647 0.00515953683520031 -6.74753595627535e-05 -0.00425652911403548 -0.00495509228246488 -0.00203573167798497 0.00204849862604344 0.00309625062958239 0.00123260280100823 0.0031807555882185 -0.00488081559874363 -0.000656472220103039 0.000696105750684864 -0.00013105179329183 0.00326837981179648 -0.00749651629625114 -0.000366487971643723 -0.00921604738088081 -0.00576547487855562 -0.00712245326842217 -0.00324029721096571 -0.00782225379521133 -0.00644731489187743 -0.00655174109632904 -0.00496697593154695 -0.00779562757488909 -0.00673199033542037 -0.00373983433993504 -0.00584556539339848 0.000621494773228967 0.000333470321665729 -0.0011239228238766 0.00100284340885976 0.00213878928599041 0.000786343854120589 -0.00744686964841557 -0.0022778336095602 -0.00903562241866317 -0.000506380203224264 -0.00475518896370295 -0.0105237250032216 -0.00752173944213174 -0.00178849352424989 -0.00593946923106905 -0.00181748352721551 0.00543483230298265 0.00122562296333635 -0.00284934539896572 0.00122010931591993 0.00169538485576987 -0.00533048482697185 0.00319333300157021 0 -0.00572877381827424 -0.00637127857629434 -0.00629638550722092 -0.00808425415454956 -0.00426794314992732 -0.00403289819209208 -0.00515582063356038 -0.00393149273635966 -0.00222652566654185 -0.0113145039337181 -0.00241843280872066 -0.00204577386511538 -0.000277715495193158 0.00661696805473329 0.000596970059685181 0.0006591110463298 0.00231701584769314 -0.00139667165053823 -0.00521672379429536
-0.00146144257510657 -0.000477784121949277 0.00220577356840057 -0.000524384333220301 -0.00344606349014078 1 -0.00398902374281347 -0.0025716671945563 -0.000457561761943845 0.00483610355106405 -0.000261288466072537 0 -0.00203936629735203 -0.00123555470690155 -0.00254445614982285 0.000670517733578521 0.00212237930632067 0 0 -0.00185724100830789 0.00101870133404746 -0.00128813606383836 0.000624470363707858 -0.00416956047112304 -0.00162139353108783 -0.000398724978321469 0.000940776089444884 -0.00145849785730056 -0.00508865122352226 -0.00101773949385769 -0.00146288388074858 0.000715284697918403 -0.000610942822517595 -0.00134173415700499 0.000158526583617368 0.00155772854941417 -0.00261677713222002 -0.000295410006784585 -0.000157157020221422 -0.00122294408704816 -0.00139027563117238 -0.00104839127274439 -0.00134769415560857 -0.00537163313010081 -0.00106783133724864 7.23617147202798e-05 -0.000321394988049785 0.000821216396829089 0.000640559267516919 0.00203511136533601 -0.00212704669589436 0.00257168249928346 0.00383394977985103 0.00331240362417561 0.00462297302179076 0.0049393214745095 0.000117783418615111 0.000980211271683958 -0.00300413767344357 -0.00462107908636711 0.00140990775927026 -0.00600756703773317 0.00547491844994393 0.000578835940945125 0.00230690254001828 0.000944420854746434 -0.0011080484813807 -0.00128611953454224 -0.000238947684003693 -0.000970221403778913 0.00515944560004877 0.00164424326859635 0.00181896723729351 -0.000968985792586183 0.000614873947492467 8.82755654368149e-05 -0.000639385387092777 0.00133606686403884 0.00176562502615592 -0.00640056958562696 -0.00038383339442796 -0.000472553108538217 9.04253660828182e-05 -0.000463056376375024 0.00160802476965467 0.0017611736646697 -0.000235346567438845 -0.00154928715370163 -0.00111973004233108 -0.00401785582534812 -0.000305082315674894 0.00107211369304961 0.0002161500060192 0.000125298782325242 0.000480532815008132 0.00329852644784491 -0.00187505122829665 0.000539874045148305 -0.00257969241612979 -0.0012722142180911 0.00124333849340856 0.00217493458750776 -0.00272322841163162 -0.00169799846173356 -0.00177741411314146 -0.000763541504394328 -0.00241923946114406 0.00104618556054177 -0.000412553084593064 -0.00459291204127371 0.00258515242375644 0.003479559788386 -0.00103407781385493 -0.00113971730489119 -9.34875487972534e-05 -0.00372615236978036 -0.00228450567877264 0 -0.00156438768571507 -0.0054639434335554 -0.0024422601906577 -0.00269807814895859 -0.00188129613446836 -0.00572437650752887 -0.000866394061164969 -0.00214234273395264 0.000709918327260361 0.000151210457336358 -0.00129924728271914 0.000494098886866715 -0.00301757236107397 -0.00081933452611297 -0.00213848541061462 -0.00199784988412405 0.00330489376949166 0.000514715262446127 -0.00228292677918999 -0.00472451858205106 0.00274975455726206 0.000237607848170315 -0.0016554825862437 -0.00135134545173909 0.00235276604693201 0.00212971060576226 -0.00281838628302074 -0.00253728570096591 -0.00353509699195916 0.00254446440590066 -0.00205878661381691 -0.00558174213457423 -0.00216290989020576 -0.00184731747114307 -0.000349875864328438 -0.00249985334189091 0.0020237268983881 4.15629287932607e-06 -0.000791314685043234 -0.00269726493954051 0.0016338942375023 0.00310431104602504 -0.00276185917729173 -0.0026818790815155 -0.000741559518887911 -0.00598016080870919 -0.00400635213572247 -0.0013750536991951 0.00310934849513368 -0.00567311329987133 -0.00222840731823204 0.00611962877223065 0.00315998938915892 0.00530049632179669 0 -0.00260010217799574 -0.000443521510621818 -0.00106352240047857 -0.00198002061458267 0 0.00488235930798218 0.000884461070255423 -0.00094263734263666 -0.00435895407207002 -0.0060745260371034 0.00116096897372127 -0.00070797621734112 0 -0.00194252437809792 -0.00441401310581627 1.82880606927093e-05 -0.00172090659926181 0.00308089849747159 -0.00131280538965017 0.000552191760665834 -0.00422466371770523 -0.00336682600818557 0.0047097314593272 -0.00482238970241109 -0.000729827914073926 -0.00127715041268937 -0.00193690112007574 -0.0046501075084271 -0.00358698481215781 0.0001346907712588 0.000659263387984974 -0.00111404577725592 0.00319239497167419 -0.00016250375140247 -0.00101958616288452 0.00104644691229162 0.0010469874527476 0.00343488825221645 -4.41553973761994e-06 -0.00046440394812655 -0.00338268224271649 0.00194440579394853 -0.00233704010533342 -0.00229876313102088 -0.00558673713056625 0.00258136939520188 0.00519392051720495 -0.000976825687727071 0.00132917952869846 -0.00123851324926484 -0.00131757983440649 -0.000197802816339819 0.000575593163248039 -0.00367036939396278 -0.00290390689045414 -0.00231775681444513 -0.00516801198025476 0.00286577465310724 0.00151810148112473 -0.00456740161538177 0.00682442263862662 0.00264006135532037 -0.000988954694885602 0.0026183367793839 0.00427851997374037 0.00290522482095526 -0.00509074245151231 -0.00334041738782352 -0.00552749742842969 -0.00403969024993652 0.00182445122093116 -0.00125839539209867 0.00206475482068097 -0.00233633578749762 0.00115376311845306 0.00260576479619726 -0.0048684465024036 0.0020746055742969 0.00170258153528997 0.00197512091240454 -0.0014762489575613 -0.00294438582788573 -0.00112072441381187 -8.95251816819292e-05 -0.00151571667145219 0.00199917441208339 0.00350566199280303 -0.00172426192083307 0.00173397842493621 -0.00152731290722249 -0.0039573372820445 0.00106053596952122 0.00155167355485091 0.00430989181513916 0.000793579358825471 0.00161390829322603 -0.000302349935069861 0.00126313521373489 0.00321907461503275 0.0022460000831263 0.00299003157402443 0.000696307874957254 0.00458788925470116 -0.00444833291923547 -0.000123644032688272 -0.00276919556443894 -0.00107652256359276 -0.00582595637324297 -0.00593643679173652 -0.00493612719930976 -0.00312033769500727 -0.000108568168286776 -0.00146523532919055 -0.00410393446369893 0.00116492643555124 0.00144388470472172 0.000534614202751313 0.00417932928609481 0.00249443421632128 0.00262008248736853 -0.00255700535757023 0.00117443514176763 -0.00369083813980132 -0.00316028094990011 -0.00198474692201354 -0.00219565895687179 0.000364121834850727 0.00204326203071875 0.00148509331863183 -3.2423890468609e-05 0.00272765430745385 0.000796680608059465 -0.00199440781274843 -0.000650382766325268 -0.00317278208308177 -0.0027836374438939 -0.00287816640033611 -0.00305509574564938 -0.00363081705808214 -0.00112537186216702 0 0.00226986935750652 0.00138964289874237 -0.00631912723530815 -0.00306276531759208 -0.00154423648207775 -0.00312329452382162 -0.00248599074145261 -0.00323885747988572 -0.0012860102224411 -0.00220886728025971 -0.00171111467588322 -0.00396201615416704 -0.000174794164518111 0.00515241460931626 0.00222977475715783 0.000501687187857569 0.00062011157527807 0.00173507929557953 0.00224639848694117
0.00260918197172502 -0.0113494092029206 0.00101396842798316 -0.00223595533753129 -0.00141213746312262 -0.00398902374281347 1 -0.00110096153163523 0.00582291841950722 0.00122779521616827 0.00386087976587627 0 -0.00325183491453374 0.00048497035349872 0.00203937747301587 -0.0037804357621333 -0.00232999752022701 0 0 -0.00302376136220014 -0.00271472076446027 -0.00567034852290643 -0.00705077447390521 -0.00156467085734885 -0.000408962660084085 -0.00438058288810237 -0.00233114592424267 -0.00166164596272957 0.00442514859956043 -0.00780752872291104 -0.00533270466043265 -0.00504703600032777 -0.00782993881401218 -0.00423371028526506 -0.00942774509242266 -0.00656781823962962 -0.00630709603414864 -0.00319216532898535 0.000854517078038406 -0.00409494383838108 -0.00635564864979546 -0.00767720344698837 -0.00484957076379863 -0.00472265725385677 -0.00127608059987878 -0.00484537374572878 -0.00794034884100452 -0.0122004027724585 -0.00879160430260429 -0.01137790007581 0.000715709726821382 -0.00372561083354927 0.00178812285119017 0.00305892832186579 0.00208096318590979 -0.00392453908708633 -0.00824930929680308 -0.00321055622303289 -0.00285168572673091 -0.00238388845186568 -0.00258308269507929 0.00568978301669761 0.00244131983827009 -0.00142828986976271 0.00444230475791408 0.00345096506675598 0.0026843417179553 0.00248403702295809 0.000214291188250213 0.00242894532156816 0.00186946276929428 -0.0018700263268051 0.00624709285992407 0.000531714542019832 0.00152816281387218 0.00615933222238217 0.00520968543383464 -0.00107742073261622 0.00277253832051883 0.00606146191732166 0.00300758097458615 9.26294531998483e-05 0.00468290406154349 0.00314440565064025 0.00192262848882801 -0.000191637610228763 -0.00405661900004845 -0.000573701019195903 0.000837649246596893 0.0027788736618787 -0.00652996482708425 -0.00385088526411913 0.000602397421612626 -0.00592184641839126 -0.0028787925029974 -0.0071072670726729 -0.00217572232987621 -0.00611778378974967 0.000440077463422769 0.00151505651153931 0.000890720365387543 0.00486095169323223 0.00613885251220067 0.00680834163868444 0.00355758649454277 -0.00147509901665973 -0.000797942251006443 0.000727591289728277 0.000914464936807207 0.00159906950828965 0.00699905205583602 -0.00400811360426114 -0.00337012436410534 0.0018099664266611 0.00279931975523257 0.00735503294039035 0.000217116902998865 0 0.00235118392196723 0.00531074379187336 0.00476648138466173 0.00368335329385601 0.00664042324177774 0.00799037584111324 0.00356550289756436 0.00442734964052601 0.00494336647966012 0.00937588095161011 0.0122426398440169 0.00143169496077207 -0.000256090494347532 0.000692845507297986 0.00780928542817448 0.00827092777942161 0.00538935907018323 0.00195617968777834 -0.00156386618832911 0.00571592076833835 0.00157916540460363 -0.00296408198746927 0.00637597729709481 0.00978318907458662 -0.00384682650067372 0.00288018715032027 -0.00405656179658349 0.00134366180755159 -0.00133548720128802 0.000895377383532613 0.0030355599885166 0.00481333741159035 0.00181834366546687 0.00568090226787668 -0.00097201762071592 -0.00358429359313154 -0.0022432994512339 -0.00448000330289018 -0.00613629900774114 -0.00353621965659167 0.0050344324802279 -0.00205748832757654 0.00565887946424141 0.00424679123549953 -0.00672791222011806 0.00136645039494602 -0.000796736025904165 -0.000167183485044895 -0.00609832131166066 0.00255045553905001 -0.00214618556940047 0.00128054395142086 -0.00370656075828253 0.000341918078265396 0 -0.00216358620400036 -0.00144813630092178 -0.00519886972315315 -0.00654743942622517 0 -0.00410919357477342 -0.00108366916757914 -0.00352503806880205 0.000425223241608338 0.00065616617219203 0.00311000885267984 -0.00227394184444384 0 -0.00115155317273051 -0.000775101278147731 -0.00167780237780551 -0.00361533751024741 -0.00654217636019426 -0.00592159940280782 -0.00424959307943863 0.000210312787343851 -0.00822903223540527 -0.0055769571607207 -0.000933722234370095 -0.00865554192969776 -0.00612258934197647 0.00249081460684867 0.00158128742354709 -0.00206364696968217 -0.00738125121642135 -0.00768593574769576 -0.00506187468896077 -0.00823369833003307 -0.00722804273932435 -0.00292228538971167 -0.0112457537980293 -0.0030184745447374 -0.0011033221674011 -1.55474588415139e-05 -0.00073801560311383 -0.0065446183667572 -0.00752756009455004 -0.00534131815436478 0.00130320507853057 0.00146247408380975 0.00282989084910831 -0.000146004919589047 0.0044442797185295 0.00455974996334093 0.00852731761486337 0.00871321482170142 0.00606188106842578 0.00304168553849728 0.00226856484363891 0.00427866318925769 0.00530022152537927 0.00346861457769709 -0.00142999452515405 0.00138300518065031 0.00662811870461036 0.000464846043100373 0.0031002346710422 -0.000109234831056504 -0.00249019455551199 -0.00102606653043308 -0.00364063235276502 0.00449106184434895 0.0045198288792333 0.00448671510777514 0.00740557034193885 -0.00241025537236121 0.00144409264493242 0.00397930213410611 0.00811377198155663 0.00479022818421738 0.00188723211849091 0.0023779514625487 -0.00488552062549386 -0.00620763133525608 -0.00222779823583879 0.00344653946473546 0.00269349051461809 0.00192699843059313 0.0054942784276729 -0.000294233858533945 -0.00022031026821039 -0.00243532285599556 0.00446615484140585 -0.00164772555891658 0.000416654550686943 0.00673082711158246 0.00382903941364538 0.00511828153558349 0.00371559934055145 -0.0008103631573273 -0.000967959038467189 0.00274223963607574 -0.00679111178421138 -0.00113061387773898 -0.000713213113825852 0.00209364771012127 -0.00140110734410096 -0.00631018568741525 0.00652033657040698 -0.00182324284179585 0.00414196538014195 0.00532864163077459 0.00851970868010629 0.00907320019355162 0.00470223906104475 0.006961275345927 0.00841612210410354 0.004186780015074 0.00223154928319914 0.00314306961125524 0.0023423884733944 0.00117577611446928 0.000860144689337869 0.00468776126632535 -0.00242910290371187 0.000245896104759808 -0.00683212091360379 -0.00441618412200771 0.00945737970196705 0.00247492373174121 0.00481185622231312 0.00259727397047025 0.00323876733725131 0.00297768413019284 0.0100774962351027 0.000145567512776592 0.00634885022662667 -0.00377671322258984 -0.00642699996846013 -0.00441485892358873 0.00597007140807689 -0.000151159039830393 0.00221071625301698 0.00613734657754898 -0.00516925791692062 0 0.000414633516230467 0.000659357821390224 0.00503768462903812 0.00444773225057974 0.00446178544572101 0.00662956125921758 0.00142745682594816 0.0044123583104372 0.000143319155612689 0.00123382559538143 -0.00121952789696975 -0.00303755840851529 -0.00582426435008145 -0.0087827072025565 -2.24457896111741e-05 0.00280420335534034 -0.00439043555257311 0.00180425019877897 -0.00072678553671983
0.00194536742474405 -0.00131243100872198 -0.000646383945248256 0.00257513225111134 -0.000666595793124681 -0.0025716671945563 -0.00110096153163523 1 0.0033836059109564 -0.00028366590592285 -0.000581851382781073 0 -0.0024749548437695 6.02650592504359e-06 0.00225752498268182 0.000736560979063961 0.000698000810284465 0 0 0.00166503081439506 0.00153990932954583 0.00320200876816864 0.00432449306138342 8.53641584177801e-05 -0.00448801129076504 0.000505916013697501 -0.00381062428655705 -0.00299322151780579 0.00235118191146487 -0.00299504628579575 -0.00102441714981021 0.00155893373637573 -0.00310821047227507 0.00944499791129934 0.00391428513343627 0.00504600017030019 0.00471289335369727 0.00369724019746025 0.00648977720889192 0.00421294732106596 0.00842976474390393 0.00396188543983678 0.00485565733949797 -0.00140108224662502 0.00470538922086913 0.000960533486626566 0.00439031529730929 0.000507566282484372 0.00142069077999384 -0.00311715604854163 0.00304680378019701 -0.00308027510171346 0.00271595188192404 0.00249221791912492 -0.000681768226878204 0.00261815829710674 0.00343479288609467 0.00581746300350437 -4.60880978625584e-05 0.00138359910703645 0.00223567278812098 0.00272914653019589 0.00180205596666269 -0.000140654713430296 0.000286966414249757 -0.000454090282404159 0.00555424220078261 0.000748419821462856 -0.0035789707312502 0.00143330090823996 -0.000161294757314811 -0.00417819649026145 0.000290978995540509 -0.00401365725821265 -0.00380009718946092 -0.00362369262412381 0.0037667489825374 -0.00282100546294056 -0.00140060553216875 0.000616700642012084 -0.000784187565423479 0.00539456035332261 0.00234093638663458 -0.00402310950786203 -0.0021439212298994 0.000503153720175149 3.43605457793961e-05 -0.00518572192707004 0.00205671416014957 0.00115084193685863 0.000627980236798242 -0.00400236417940001 -0.00080541173267332 -0.00591263668480697 -0.00292227859219029 -0.00640665914369961 0.000983585809464015 -0.00172287300994519 0.00634346901723633 -0.00131740379169696 -0.00153650133810636 0.00704906731321326 0.000800790015635938 0.00837190659394032 0.00124044078201027 -0.00320500554527389 -0.00430879161100506 0.000296026449191715 -0.00372729781533456 -0.00568688091403749 0.00116952652336732 -0.00592002554030485 -0.00699653077018128 -0.00449042323355196 -0.00324008615388234 -0.00149686301530611 -0.00406937116311725 0 -0.00221962253505984 0.00596205586296892 0.000131209726066608 0.000334293656064854 0.00426920790216201 0.00174494159905473 3.83785502469364e-05 0.00118949292748748 -0.00165423384372822 0.000243213175822569 0.00410130262406461 0.00189659340777855 0.00168212646044838 -0.000834964559192228 0.00482726265209427 0.00442941672296377 -0.0028281912649642 0.00225701731198591 -0.00341638350304285 0.00234607523039142 -0.00294854621451702 -0.00349573512008287 -0.00059758764277056 0.00242318577992509 0.00226563747665763 0.00289214463834551 -0.00234240571374495 -0.00335751092396734 -0.00532160659307819 -0.00466754481600471 -0.00338502470929718 -0.00519978628356138 -0.00507356947530016 -0.00347863276473337 -0.00105612920022943 -0.00263101208769086 -0.00277295858552605 -0.00103415583898423 6.21613299492089e-05 0.000896472803181396 -0.00318043502011491 -0.00521402808553463 0.00103670079824785 0.00605357792748041 0.00179323521851953 0.00399647471134252 0.00299611398524534 0.00199131496307853 -0.00403787664013769 -0.00223622184134818 0.00311839464992099 0.00178427740350155 0.00119419712573297 0.00140092656278036 0 0.00397510271464174 0.00179730464870192 0.00202892114065345 -0.000719416022478577 0 -0.00171276271736977 0.0035570312397234 0.00422314647664262 0.000737863244587302 -0.00618773640781789 -0.00397184198766702 0.0034615851653972 0 0.00536310439522587 -0.000233602202299098 0.0019112245931501 0.00246648392570475 0.00421996615616533 0.00298141276760601 0.0028334501884542 0.00529916621957776 0.0029957052601278 0.00576536909990614 0.0040571778117612 0.0055503099495079 0.00370452254376687 0.00471402161720938 0.00648327473792936 0.00676361008208994 0.00603030333219876 -0.00148806407897038 0.00347051715001723 0.000734722986207365 0.00108115140998978 0.000778087505663707 -0.00209507756380165 0.0012734336449904 -0.00137111142277859 0.00559412953608368 -5.69899185228181e-05 0.002470353076812 0.00230322560594089 0.00165634435841646 0.00375390732101772 0.00301016350152929 -0.00245588422897433 -0.00477815917300881 -0.000364485860324177 0.00506804116562017 0.00730626066158871 0.00503235090782445 0.00553143343377292 0.000393760177938836 0.000375398363130446 0.000172166417345907 0.0026347506800219 0.00153072024190306 0.0024346712649239 0.00422137309928577 0.00594930824737406 -0.00134401106545412 0.00112513868455439 -0.00113066970801686 -0.000702257983755063 0.00128000556233222 0.00317580573669908 0.000724665044150398 0.0029516994952126 0.00188531525491094 0.00316865855228754 0.00282793994660074 -0.00395305883355588 -0.00390892803150263 -0.00112183510872211 -0.00591906592275825 -0.00633978983304502 -0.000173472285409476 -0.00100288572664611 -0.00254560614108917 -0.000295051104668919 0.00718528693917825 0.00358439421750698 0.00381946725301822 0.00213476997743631 0.0057584851557213 0.00210407931767821 0.00123674257235474 -0.000236348982908103 -0.00121737581463161 0.0033595457120521 0.00419130946322855 0.000524429134166295 0.00274331827956879 0.00174017232807917 0.00438110356520767 0.00184547288052371 0.00205145456934819 0.00291137278188854 -0.000728245227257083 -0.00202987780550056 0.00190537338938564 -0.000343693423185144 -0.00375459574527253 -0.00157032938734511 -0.00688696288502457 -0.001980912913317 0.00325110182472022 0.00396790219108227 -0.00106153631338824 0.00059434690773141 -0.00394815276437357 3.15112023566381e-05 0.000744612575297832 0.000667092153545651 -0.00527576857930558 0.00222606625715424 0.00177926165350674 0.000308734811620212 0.00376480982696035 0.00336265332969976 -0.000398245576223597 -0.00365356878841371 -0.000338501056638368 0.00392891627800401 0.00483927232886014 0.0049503259558867 0.00341651248314504 0.00392590811639872 0.00266958356030276 0.00347845385010666 0.0017837314311907 0.0042908825507686 7.34198316027543e-05 -0.00223015186422555 0.00771308254937876 0.00635113547156199 0.00527711595383426 0.00244328005994715 0.00962161598175822 -0.00282594439877094 0 0.00175742872076541 0.00210748876097439 -7.87146323960263e-05 0.000880133862029267 -0.00336150150006322 0.00103240053915912 -0.0023807652065106 -0.00743919659530726 -0.00421241493273261 0.00446608034085566 -0.00778988791847844 -0.00076749260720771 0.000670656435813822 -0.00151463110205797 -0.00027147369423985 -0.00106178387707947 -0.00130173422859702 -0.00310587460091883 -0.000771510546225577
0.00108786670225905 -0.00792569903137699 0.00657308237160228 -0.00642960836340893 -0.00820573495441118 -0.000457561761943845 0.00582291841950722 0.0033836059109564 1 0.00116027482742126 0.00302753156284572 0 -0.00303051810840781 0.00129168355207543 -0.00210181072608267 -0.00222364714510141 -0.000192415553805372 0 0 0.00328352495210638 -0.00359725902992665 -0.00325032340464715 -0.00489797660671972 0.000546325186899056 0.0040229875025938 0.00099989224136957 0.00176563601296304 2.22566213181847e-05 -0.000213419269296162 -0.00581738731552377 -0.00974244933744074 -0.00930545817826347 -0.00198927552068154 -0.00501149864232692 -0.00770461102189046 -0.00851356652310911 4.23787486348389e-05 -0.00622376583137706 -0.00348158993040407 -0.000922846991655431 -0.00313960581988096 -0.00524012794850153 -0.00732601297966097 -0.00603828979041836 -0.00729959655833701 -0.00364525186281621 -0.00842718585868644 -0.00832347331448128 -0.0107208114683796 -0.00726631760029295 -0.00511344805806303 -0.00766250774941659 0.00731772826147228 0.00573932819660626 0.00189366651359867 -0.00101836827734872 -0.00033114058787186 -0.0040086761156305 -0.00843242506268824 0.00471278258491156 -0.00195509015233799 -0.00580551358318012 0.00675654070159752 -0.000312705363527555 0.004602507932148 -0.00181325248657956 -0.00465034751240356 -0.00402306096176021 -0.000971699137151555 -0.00361134410145932 -0.00303247480979274 -0.000500630371422976 -0.000227505867527558 0.00625213825439424 0.00654383129556924 0.00380613582792481 0.00276611781518332 0.00353798989338251 0.00312762473281261 0.00250563931060836 0.00137983354372185 0.000991651336022615 0.00167092134404274 0.00401480263456319 0.00593893012770416 0.00761036613156472 -0.0109838298718628 -0.00507026757956892 -0.00465879974537364 -0.00735039735787325 -0.0130702035121804 -0.00566452630256027 -0.00103840798860573 -0.00986019697794894 -0.00893768670439884 -0.00894958730956553 -0.00183297100755334 4.7423106756546e-05 0.00150765578634926 0.0117634896958509 0.00863830178604758 0.00624284127029473 0.00121550534958684 0.00708665875330833 0.00819034272925003 0.00423184549583297 -0.000746751277746345 0.00380226325970847 0.0056469421409851 0.0033226571780445 -0.000787188789913003 0.00536808303047269 0.00313375004479107 0.0027136597628009 0.000157618903931655 0.00135421664337008 0.00630985871572704 0 -0.00189394482109223 -0.00203958191258787 0.000862429502703354 -0.00164489272334587 -1.17612402484318e-05 0.00273040551984309 0.00340568830972919 0.00162916120158378 0.00157680244355182 0.00341597608653907 0.00305365017234742 0.00410780780237945 0.00258389298761627 0.00713185772890887 0.00435387785452074 0.00179261714197853 0.00395993932897778 0.00645616371549794 -0.00527286683418264 0.00558212040439182 0.0127802927636181 0.00231327155066939 0.00869517785669354 0.00419402627070555 0.0070433132172601 0.00928217590678422 0.0015381833594172 0.00277779954213688 0.00446979379831909 0.00161348505517982 0.00829262597835518 0.00501813659734394 0.00576703837981556 0.00765714970534518 0.00335309033863825 0.000398116161973809 0.00195515668716035 -0.00336539862847799 -0.00459284804385871 -0.000646095056475972 0.00563646331127812 -0.00270418819087821 -0.00605595714834303 -0.00103767081252844 -0.0101746368543676 0.00248690434082915 -0.00354399379812292 -0.00740671240369436 -0.00779998497317745 -0.00454044573719337 0.00178088115969084 0.00554112100205818 -0.00194022040433892 0.00480099121410778 0 -0.00745499274650184 -0.00353182567102782 -0.00815763286157815 0.00217523200094189 0 -0.000646103277959489 -0.00504761276111376 0.00266949196416935 0.00217378022374395 -0.00513056145334875 0.00897990742324818 0.000984746163122005 0 -0.00152646949463935 2.57453006112291e-05 -0.00869395832371421 -0.00977189917944206 -0.00285082035551036 -0.0106091229371442 -0.0111759410940005 -0.00719023183713718 -0.00339852178872524 -0.00145690439629903 -0.00877785111013151 -0.00458795283576978 -0.00265715126228141 -0.00485647968527306 -0.0061328068727797 -0.00767572928628039 -0.00812405377051726 -0.00460051563022192 -0.0121092462670746 -0.00671299647048865 -0.0148654738157226 -0.00791047818587376 -0.00937750293233189 -0.00846233451887606 -0.00299779661639654 0.00115063543453929 -0.00116109729114305 -0.0126665814571533 -0.00284365296731131 -0.00946261639369251 -0.00368064818134432 -0.00867935715023953 -0.000289950550251073 -0.00570252076607095 -0.000986578426903077 0.00514226450936534 -0.00286082083474509 -0.000441999539812432 0.0040859929177066 0.00182671100732425 0.00525227412692638 -0.000819624597013225 0.00501249738597377 -0.00319565090470929 0.00233155499376333 0.00248279148658108 0.00408058853176754 0.00569660330810894 0.00308053022832085 -0.00585159723379679 -0.000930267738223409 0.00999975472084068 0.0041323960922192 0.000946056731475019 -0.00454016497546256 0.000188128226690988 0.00205441334688592 0.00605849104651544 0.00834186813452752 0.00991889161119641 0.00300828247171119 0.00496669529986512 0.0105984268971478 -0.0027267402959048 -0.010074714600795 -0.00509163474800832 -0.00201225928440889 -0.00190426601771538 -0.00852106733961789 -0.00681895656625947 -0.0015047190815152 -0.00207668794040442 -0.00560955346007366 -0.00552972076948757 -0.00410672657733072 -0.0040906732083272 -0.00061922937065665 0.00129163238969682 0.00582260670407292 0.00814120090538979 0.0023650958485862 0.00398862886226919 0.00418274662989944 -0.00122439210657636 0.00478301642051344 -0.00485609620329943 -0.00683703546042529 0.0101268799429172 0.00332190786746917 0.00272008811891066 0.00151713475732493 0.00150792714827156 0.00475071772218243 0.00157498828520079 0.00169274545149035 -0.00552598663150256 -0.00446459974722352 -0.00190841668291558 -0.00426477483444499 0.00155967458478057 0.000369698562976252 0.0103665234957607 -0.00629978331101456 0.000867938706552288 0.00230448341465304 0.0101404402368237 0.00475186393721322 -0.00138775819417398 0.003856576876703 0.0028329153936366 0.00911911337779702 0.00197159517270102 0.0058152238647065 0.011492094422844 0.00789138099698149 -0.000826324103178169 0.00955369557284618 0.0055833105409681 0.00721628699036097 0.00244809964772654 -0.0018961006502275 0.00317311398510375 -6.67917812195371e-05 -0.00663718436623276 -0.0069512993703289 0.00595528593477181 0.00192128856682246 0 -0.00260801539418082 -0.000622960421030208 -0.00309352008977655 -0.00638793201771036 0.000937551407034206 -0.00295796073836835 0.000635213729300804 0.00610101525531992 0.00583666569113131 -0.00228384155917575 0.000990369135815733 -0.00264940940087787 -0.00618167376744168 0.000550513167040521 0.00307399609450839 0.00894217586549927 0.00611923301996485 0.00701210539846189 0.00224387828471451
0.00145948978728613 0.00659937970257185 -0.00827260444956613 0.00512422009086105 0.00372968629653598 0.00483610355106405 0.00122779521616827 -0.00028366590592285 0.00116027482742126 1 -0.00214130526510028 0 0.00409602410446077 0.00422541080993125 0.00267387841729699 0.0016441465189547 -0.000949382448836343 0 0 0.000864025698884747 0.0029896743170912 -0.00617503722764322 -0.00289223533690723 0.0020252196871731 0.000471812307977879 0.00237999576784949 0.000980523949116362 0.00469591005782806 0.00237073261538234 -0.000537463698411981 -0.00115853420144094 -0.00210328564036592 -0.00417824474447098 -0.00308140655193866 0.00443002547087409 -0.00201228387680205 -0.00505363067433658 -0.00157166457189254 -0.0057063784399901 0.00208894670966552 0.00418648756513923 0.00488459287605071 0.00490143096536496 0.00595988016594359 -0.00517332202622433 -0.00275800385026913 0.000130781170125296 0.00158839016018413 0.00509350254662624 0.00211099817793643 0.000256282927084854 0.00119837314893141 -0.00927456525699666 -0.00375694494906358 -0.00162518443299762 0.00011647892782439 -5.22586481066339e-05 0.000435271235148435 -0.00520445927290096 0.00367964606354379 -0.00102385860565478 -0.000106313825448794 0.000493066183846675 0.00320246905866841 -0.00364081657898134 -0.00505001242980353 0.00296580036485868 -0.000551800671000375 -0.00195004323556378 -1.54152977606708e-05 0.000301698938206917 -0.00312934123701554 -0.000423768423919378 0.000156648820597779 -0.00151318705888168 -0.00183744760684327 -0.00635783408671513 0.00354938266905689 0.000136521586193682 0.00147501777826345 0.00223919794741081 -0.00183103193211227 0.00161847648281042 -0.000257776178729776 -0.000128794878616921 0.00302882987645763 0.00546363506678207 0.00334929736578879 0.00455958804066777 0.00868271137777993 0.00312444873681217 -0.000293652803115244 0.00336000509009948 0.00142840490874347 0.00168896636206346 -0.00161455645330304 0.00595143719238063 0.00402506186184432 0.0060609123785896 0.000727370164792277 -0.00364686021047701 -0.00472802683848632 -0.00332388662625181 -0.00387635807698174 -0.00427589780949407 -0.00351300585074886 -0.00100098168271616 -0.00349363871340927 -0.000763121295791794 0.00189607881247503 -0.00413761618931553 8.02578592893674e-05 -0.000642520565724324 -0.000755484893303932 0.00164517751494331 0.00293252279402066 0.00534700709858939 0 -0.000605748890910732 0.00270012726445469 0.00125705169139237 -0.0010084747901953 0.00246341314329829 -0.00115033846369256 0.00032787925548648 0.00200874825081478 -0.00395152682551652 -0.00044891946620113 -0.00184833780232801 -0.00243669999205511 0.00224171118125875 -0.000348076230711112 -0.00100316997386351 -0.00159984436297066 -0.00524489694458898 -0.00160356119214345 0.000243958485770121 -0.00064853817860316 0.0016171359938152 -0.0046757861446364 0.000218105493960255 -0.00638772039011459 -0.00122479694453093 -0.00771841000943649 0.00148144734946214 -3.62116515383856e-05 0.00557099720814886 -5.58221715166509e-06 -0.000552199474430116 0.000805592481413555 0.000892467187398993 -0.00235711863096408 0.00229502895149484 0.00305828646561562 0.00282257576688148 0.00506850812204473 0.00701389413996418 0.00122171250646729 -0.00708949989060608 7.34215764070666e-05 -0.00284661862894417 0.000784844963027372 0.00608790097056811 -0.00444378613367554 0.00056528569570866 0.00184338833629122 0.00445657493242858 0.0045397151497459 0.00359512369335845 0.000102509339931261 -0.00467277894340017 -0.00051938449844858 0 0.00265579062148548 0.000325988674493395 0.00374522592733852 0.0014133457370622 0 -0.00155384012310667 0.00118971996845095 -0.000322484572272216 -0.000497075236395936 0.00313658417018136 0.00144888419350518 -0.000850080398251142 0 0.000421262488820884 0.00156619795512575 0.00377657826621034 0.00126760591967923 -0.000891474761434594 -0.00202969511082972 0.00257389133769903 -0.00276780108578185 -0.00276310025438127 -0.00547164546394053 -0.00667636333156196 -0.00295269170677809 -0.000683613927240596 0.000307558486724421 -0.00416442958110203 -0.00319022234956269 -0.000902287183712561 -0.00256987641254843 -0.00200651282958715 -0.00315489326052433 -0.000568635609431592 -0.00426671962731393 3.30704250766943e-05 0.00172479233462065 0.00394665171966384 -0.0050623296564102 -0.00032442354862523 0.00218402953736301 -0.000603200147340184 -0.0020526124668322 -0.000936185004945395 -0.00245397246462155 0.00574122971700179 0.00832119096400571 -0.000890900318505175 0.00232928934963681 0.00135737252962915 -0.000407027121306607 0.00436392083306485 0.000870911502249877 -0.00403272550133901 0.00391162466282456 0.0039008125914024 0.0052437930741451 0.000552220753286367 0.00224375497258834 0.000769455510622303 -0.00410700450049881 -0.00540947911240717 0.000710253812365544 0.00331387797131419 -0.00269415825110053 -0.00413649331333909 0.00374787895258675 0.00396573309380412 0.00397606592206156 0.000988334838460246 -0.00241959638841982 -0.00146433671258869 -0.00184353954793364 -0.00181945446074777 -0.00170630924557263 -0.00104360222660702 0.000990769304474523 0.0039985063822333 0.00233554690432717 0.00276243499255699 0.00517479376893435 0.00226986337931518 0.00132607529832542 0.00232120199960172 0.00287100958855723 0.00473594620661162 0.00018643727289493 0.000427930573006399 -0.0018418332412794 0.000734634584653834 0.00269392089808349 -0.00223096464811351 -0.00129882123446621 0.000898520673370541 -0.00494317079542911 -0.00260127139442755 -0.000436803424598089 -0.00319215355068776 -0.00217583163460064 -0.000312315502958485 -0.000698376464061993 0.00175222279802182 -0.00301593859400696 0.00144014094592919 -0.000581820659458125 0.00375000009074448 0.00349683782156447 0.00395356354022845 0.000472240450447231 -0.00190947506282448 -0.00264807542723439 -0.0032683857274812 0.000448303494309639 0.0018896559240515 6.27107499783589e-06 0.00069374903646567 0.00153895240340702 0.00180006110696313 0.000667060908466364 -0.00458205211398399 -0.000284088779965583 -0.000430942902000734 -0.0016824347504278 -0.00125441986936655 -0.000143643509051254 -0.000767792529683413 -0.000400203241875684 0.0013907436134432 -0.0012501791636837 -0.00121927437365239 0.000112927471167318 -0.00511037678685899 0.00117602683865706 -0.00337481852948801 0.00303060738102484 0.00247666404179269 0.00136545164800253 -0.00194434080795875 -0.00173130639230845 -0.00628349039932192 0 0.00262274962458671 0.00290558920160384 0.00362922139367295 0.00199677770520801 0.00208480881950048 0.000746559545202909 0.00132195138289635 0.00360906772828531 0.00223841181455724 0.00367862677299693 0.0017122769980245 -0.00275715848158028 -0.0018574664430247 -0.00421018075053464 -0.000205858447206533 -0.00318822641659549 -0.000633810912306512 -0.00208106583091354 0.00113642336346376
-0.000241770985719433 -0.00391649834480309 0.00200980356269207 -0.00201846257489605 -0.00230976368371157 -0.000261288466072537 0.00386087976587627 -0.000581851382781073 0.00302753156284572 -0.00214130526510028 1 0 -0.00615896303921455 -0.00285663380447719 -0.00340035906369114 -0.00342669403312692 8.43318202735267e-05 0 0 0.00337014531644214 -0.00183151811826046 -0.000989953719693383 -0.00995549234211933 0.00111074432480199 0.0059624113422532 0.00274647932538412 -0.0029145597725501 0.00152958337939168 0.00402488581078373 -0.00777587618417711 -0.00412044252505249 -0.00237102572412326 0.000962293405212246 -0.00710400314786518 -0.00670671459076261 -0.00587382527693911 -0.00185336999815139 -0.00295147138388944 -0.00378131104670987 -0.00497763761344152 -0.009209132769902 -0.0102546526546869 -0.0107889098440258 -0.000491925371915945 -0.00182092958189779 0.000443800235038367 -0.0067015363473257 -0.0101658965394895 -0.0113025770213699 -0.00376945409064244 -0.00621441139784223 -0.00381589249155829 0.00016477798221569 -0.00165365651814606 -0.00229644562809814 -0.00632497296027457 -0.000635711930264993 -0.00640238133829218 -0.00225507421285902 0.0020347569980294 0.000553654466446438 0.000342685435088723 -0.00233723757242115 0.000906431716842199 -0.00240404450121107 -0.00155562217544984 -0.002837463536229 -0.000681997356613289 -0.000909989985795757 -0.00164599803896622 -0.00261224371633182 0.00335236909004355 -0.000400499105492587 0.00461879455223102 0.00325973623807798 -0.000426022505003042 -0.00639640437422946 0.00221892881069672 0.00255784359432217 0.000854032550634399 -0.000112219590743171 -0.00307329763141486 -0.000974951960002263 0.00397651065962243 0.00412934097743836 -0.00123448723301647 -0.00789285107225642 -0.003999133914758 -0.00658373307186774 -0.00733094400737701 -0.00689406923695495 -0.00547665071437082 -0.00507515808436584 -0.00448750671304736 -0.00599638552011252 -0.00357094387720582 0.00357335386578615 0.00481640200839099 -0.000681472147399629 0.0053942169106947 0.00107656262381393 -0.00345976774689918 0.000224315223672699 -0.00155122624972829 -0.000847218109329137 -0.00168588887022353 0.0010950986165144 0.000567521310744708 0.00634477004671311 0.00227391682728311 -0.00317566734707283 0.00267600774388075 0.00459810141874185 0.00621030326912599 0.0039737405411146 0.00514777589991419 0.00545959415203312 0 8.52430361642316e-05 -0.0038711093816067 7.24415964571804e-05 0.00286699750377532 -0.00220896831766837 0.00744044339590124 0.00585649716058275 0.00472312431551133 0.0013384301449768 0.00162447669637594 0.00167550209460912 0.000617256620930786 0.00191370879634878 0.00472191237616846 0.00211345807299045 0.00207560405851766 0.00249510959104208 0.00221963307812841 -0.00308027338522515 0.00364772992722005 0.00983721564313555 0.00485331702334192 0.00568183561449803 0.000362729236612396 0.00280501921179141 0.00396999248757121 0.00292194936632702 0.0101629475749752 0.0074912295008966 0.00366576094673293 0.00768055343899192 0.0104500156499266 0.00483700705111653 0.0105044629380877 0.00212640879319106 0.00368185515013357 0.00318498267473172 -0.00138356633523936 -0.00164262359949947 -0.00337705100754815 0.00522910773873067 0.00421020741788497 -5.85966829380838e-05 -0.00414439106870203 -0.0068859124922649 0.00169370502911893 -0.00411089738889983 -0.00526439233715077 -0.00205446945602064 0.000766444946044761 -0.00214153726884033 0.005560733072342 -0.00111411355178871 4.9585752004804e-05 0 -0.00347934384159976 -0.00238608736190006 -0.00409309387878346 0.00170540970202549 0 -0.00136739157016677 -0.0014642954614766 -0.000674703305304476 -0.000679014595657966 0.00694445727442885 0.0123418756662559 -0.00104484999823489 0 0.000170340055354628 0.000620929374784353 -0.0050710552240208 -0.004748353290984 -0.00246859465272588 -0.00592370929582412 -0.0085980429402789 -0.00274378011806108 -0.000737609830338836 -0.00251192007190185 -0.00379217041700102 -0.00548835253431319 -0.00740007554608338 -0.00762757233960311 -0.00455251035112358 -0.00288041712246867 -0.00818456949568565 -0.000807985294090109 -0.007236852990584 -0.00237594728883606 -0.0069017693434043 -0.0093139363636498 -0.00483729645262614 -0.00583820713514573 -0.000229100523923372 -0.000180481478548517 -0.000814961477842731 -0.00544860177572309 -0.000962626267282162 -0.00258118895338719 -0.0026844672540082 -0.00216977549815424 0.000830865691165714 -0.00335405021712163 0.00252818653978627 -0.00116365143202889 -0.00574731318892838 -0.00314224816894822 -0.00273487574844748 0.00483580525577083 0.00161983710170945 -0.000195213897200184 0.00516495125171564 -0.00246585649280833 0.002617559634113 0.000209028352232767 0.000492311468261246 -0.000941402916919411 -0.000838166712535128 0.00200572623855676 -0.00112442351734713 0.00167851525503808 0.00165766688846799 0.000501743370678252 0.00145369327413401 -0.00411375281553487 -0.00277295377926373 -0.0011420937759951 0.00622509278085447 0.00356664062183412 -0.00202061031694247 0.00106780653033633 0.00650503601488285 0.000644074268364592 -0.00641718581791333 -0.000148765899605108 -0.00169964352920945 -0.00287871994795482 -0.00331775391683909 -0.00420588165943945 -0.000852415029956478 -0.00487362342396385 -0.00660414782993341 -0.00211045785742665 -0.0034911092980278 -0.00444702437797557 -0.000453992345995866 -0.0020819888664298 0.00238239012496151 0.000928921956581124 0.000731736831987239 -0.00100476306843623 0.00123379666542284 -0.00607327580234116 0.00111002332737896 0.00203403461087912 0.000165263174516772 0.00252615252354608 0.000525936409805413 0.00494016934928201 0.00342525668288098 0.0043821607618392 0.00999463430790294 -0.000520198810287142 -0.000954174811650656 -0.00506057618846441 0.00437599438391094 0.00656889258699502 -0.000955693384584081 -0.00305685694810726 0.00483728266536482 0.00748640131921393 0.00141219618308027 0.00349137461710778 0.0035876340983514 0.00237811261332879 -0.00258437279350942 0.00304524675895984 0.00639697904953246 0.0035945885258589 0.00414652026545846 -0.000350482654283421 0.0035047082343318 -0.000799793805428338 0.00496610208318059 0.00165577342089276 0.00485939677055481 0.00393952845860765 0.00492163569963418 0.00145651999595619 0.00334834945616743 0.00117775756736724 -0.00357032650255871 -0.00478912368630016 -0.000399743198113325 0.00238356726206145 0.0045599523747055 0 -0.00159805086526407 -0.0011762338609613 0.0022555449286625 0.00178686319805465 0.00125476816927092 -0.000312648513885739 0.00543433350342446 0.0130820680623066 0.00692822805489246 0.00523462499669619 0.0076942409646607 -0.00236120635538287 -0.00618770339530337 -0.00188440130656664 -0.00143884516097909 0.00296161040691687 0.00312573477075507 0.00646715477422379 0.00437868072845597
0 0 0 0 0 0 0 0 0 0 0 1 0 0 0 0 0 0 0 0 0 0 0 0 0 0 0 0 0 0 0 0 0 0 0 0 0 0 0 0 0 0 0 0 0 0 0 0 0 0 0 0 0 0 0 0 0 0 0 0 0 0 0 0 0 0 0 0 0 0 0 0 0 0 0 0 0 0 0 0 0 0 0 0 0 0 0 0 0 0 0 0 0 0 0 0 0 0 0 0 0 0 0 0 0 0 0 0 0 0 0 0 0 0 0 0 0 0 0 0 0 0 0 0 0 0 0 0 0 0 0 0 0 0 0 0 0 0 0 0 0 0 0 0 0 0 0 0 0 0 0 0 0 0 0 0 0 0 0 0 0 0 0 0 0 0 0 0 0 0 0 0 0 0 0 0 0 0 0 0 0 0 0 0 0 0 0 0 0 0 0 0 0 0 0 0 0 0 0 0 0 0 0 0 0 0 0 0 0 0 0 0 0 0 0 0 0 0 0 0 0 0 0 0 0 0 0 0 0 0 0 0 0 0 0 0 0 0 0 0 0 0 0 0 0 0 0 0 0 0 0 0 0 0 0 0 0 0 0 0 0 0 0 0 0 0 0 0 0 0 0 0 0 0 0 0 0 0 0 0 0 0 0 0 0 0 0 0 0 0 0 0 0 0 0 0 0 0 0 0 0 0 0 0 0 0 0 0 0 0 0 0 0 0 0 0 0 0 0 0 0 0 0 0 0 0 0 0 0 0 0 0 0
-0.00304090331991643 0.00721810187633457 -0.000392296492617037 0.00362922650011054 0.0028838127735586 -0.00203936629735203 -0.00325183491453374 -0.0024749548437695 -0.00303051810840781 0.00409602410446077 -0.00615896303921455 0 1 0.00164072794677864 0.000893588717684258 0.00268908590630808 0.00301859164901454 0 0 -0.00637545734780339 -0.000819836474004641 0.00180743245736147 0.00529117416147382 -0.00647160238676447 -0.00767543906555333 -0.00379451073419945 0.00137981550302832 0.000498807218971916 -0.00357961803459175 0.00377414235388865 0.00572577196000851 0.00740870444800162 0.0074860823677335 0.00811211404998637 0.0041488542912696 0.00834871492108586 0.0065001467068686 0.00447421994622454 0.00180398443279265 0.0027065624506633 0.000285412102740428 0.000721237410760148 0.00192501430047539 -0.00106445146773258 0.00114272379619888 0.0071309218806972 0.00691915214655258 0.00686926386026381 0.00931009670052146 0.00802047168370545 -0.00345866377823092 -0.00372845173761317 -0.00146533465221089 -0.00039689446597005 -0.00581799413097405 -0.000913821815711291 0.00424482832441988 0.00214040094643544 0.00296325348929572 -0.0028468100034853 -0.0010045297326409 -0.00506915025833573 0.000370393813378074 0.0020211824638724 0.000530582542130062 0.00595959285000515 0.00203222861932743 0.00340294140549423 0.0057480364925995 0.00111740541352206 0.00226127149090704 -0.00266751707926861 -0.00301239477252132 -0.00744957239672782 -0.00560594689594712 -0.00184239248261442 0.00290642400711186 -0.000287737464386291 0.00105440411392009 -0.00607617261402521 -0.00280369129197366 -0.00513379119398077 -0.00442975504966781 -0.00660941946445812 -0.00483941427047505 -0.0027306200920582 0.00281204395620534 0.00137786624501608 -0.0032843362417768 -0.00186088758258388 0.000674986466456519 0.00263718049254914 -0.00559996741887518 0.00157964895420531 3.25540003360478e-05 0.00145430707819638 0.000759955624101061 -0.00154915688115043 -8.4580206298227e-05 -0.00211432135234941 0.0048026313489396 0.00170617511415421 -0.00170382786492248 -0.000643868082353987 0.00155868594485691 -0.00241356641216553 0.000185948057826103 0.00210313113238595 -0.00482071444959055 -0.0036136917516396 0.0027184776005646 -0.00266846636458296 0.000391860623422451 -0.00547727061613526 0.00248336128364337 -0.00749638051171591 -0.00467530284787128 0 0.00121741234306296 -0.00936553294706706 0.00109960504954696 0.00159715317553348 -0.00763583430710952 -0.00164843370569084 -0.00689502113602353 -0.00583586153820707 -0.00464246649696291 -0.000590739868515015 -0.0045385486267352 -0.00530454859560814 -0.00255121166783392 -0.00155991217015874 -0.00537096786887758 -0.00259823036728998 -0.000782628196093318 -0.00215215136874187 0.00160276414216543 -0.0061590302473207 -0.00348831164241975 0.00174801862317621 -0.00270126158133469 0.000455560064079289 -0.00131355474731379 -0.00208225520328601 -0.00177016417711889 -0.000178786565673264 0.000425498960118209 0.000922820746043318 -0.00868752758568089 -0.00546396305177376 6.87442106378327e-05 -0.00850454917941825 -0.000368446276758079 -0.000364236240887506 -0.00215367024149481 0.001098579500989 -0.00137763788816109 -0.00218981105792733 -0.00490536495039601 0.00224731059942874 -0.000328638663662337 -0.000192676500705595 0.00716376510268173 -0.00583072809080055 0.000585057877696871 0.00427470555571844 -0.00125760305812458 0.000604691138850882 -0.00232625024765629 0.00310363149205034 0.00606325677986512 -0.00221559122080914 0 0.00433629351852016 0.00100605031009073 0.00212939761398883 0.00087394116417383 0 0.00514366630223457 -0.000908688861841716 0.0031190307399312 -0.00130581745988069 0.000433340734832728 -0.00714058015456936 0.0024742851486165 0 -0.00226101428438057 0.00116597129523045 0.00664569138380551 0.00481496509680575 0.0100514894787657 0.00677355500268243 0.0063456093901833 0.00611961749715092 0.00645797808750256 0.00619125101305664 0.00260895358199408 0.00390427588630205 0.000616064406730449 -0.00311417607478131 0.00296595436513467 0.00396843966543166 0.00207295886544954 0.00862132782518964 0.0056277848286197 0.00925876483631535 0.0042838241993513 0.00215855018518553 0.00627018403001515 -0.000910211364581329 -0.00413177069499198 -0.00299940781951116 -0.00208666901979574 0.00275261508237538 0.00288484882642354 0.0050803466728952 -0.000707628887608069 0.00158760135951972 -0.00450284609487853 -0.00171004038937844 -0.0018722254724469 -0.00257358923194458 0.000351260851434744 0.000854333805462522 -0.00239025212339206 -0.000848863320696977 0.00505079967899206 -0.00101291028733639 -0.00653354353785762 0.00429649744710407 -0.00249553527112269 0.0030564112380668 0.00260539701583317 0.00308302390043126 -0.00356736398655843 0.00136021308327233 -0.00554833430818265 -0.00266475207643339 0.00438106064617598 -0.00695514169035801 -0.00294794161729944 -0.00208746470126637 -0.00480511844750036 -0.00177388781367442 -0.0021081891249224 -0.00369137294289229 -0.00351593831789737 -0.0084396989807265 -0.00492953315194343 -0.00239910476200427 0.00180983187316349 0.00569741496892955 0.00301556721374753 0.00213265817849534 0.00404039036248718 0.00407539277557617 0.00490207517617222 0.000439012901068619 0.00202580624522814 -0.000647228055021099 0.00439556628529887 0.000154000362028002 0.00160323741142432 0.00353602463879749 0.00415197463891361 -0.000465300073585081 0.00273983988281512 0.00541150812882303 0.00273405885087948 -0.0035732285263364 -0.00828561804255342 -0.00696107588574875 -0.00220409100440865 0.000125345617848866 -0.00488354267738508 -9.72519141809118e-05 -0.00629746515089592 -6.2243716678049e-05 -0.00450735081742823 -0.00321665482121981 -0.00654805016373065 -0.00107482173858742 -0.00617697986949225 -0.000286928262284327 -0.00113667112718145 -0.00838315953176991 -0.00392421270884836 -0.0043724636279554 -0.000619026915379332 -0.00448555477212378 -0.000692362888500806 -0.0010917886945504 -0.00272661470974668 0.000916321436245248 0.00235384922876114 0.00275214554773474 -0.0100909577342014 1.39035857956658e-05 -0.00101722722162612 -0.00378217276300712 -0.0088801814037182 -0.00036121248317003 -0.00782817091762048 -0.00375141156673692 -0.00924124710831537 -0.00137894824772561 0.00031932086774202 0.00178497482430942 -0.00115911698090205 0.00091394399228879 0.000880369835154767 -0.00618332477391076 -0.00214567088556903 0 -0.00247700804621975 -0.00364309963251888 -0.00520455282600748 -0.00371787389248191 0.000706895842583362 -0.00135256278683254 -0.00531720876450183 -0.00364609254108307 -0.00315690229392759 -0.00874656756186391 -0.00436826990097064 -0.00646920411218174 -0.00315892466518497 0.000422903807708257 0.00130294742078287 0.00131569158188378 0.00122941925753454 -0.00402351720223696 -0.00271533049764544
-0.00148992508831347 0.00115294447899866 -0.0040867778790896 0.00467943804492327 0.00266167583775042 -0.00123555470690155 0.00048497035349872 6.02650592504359e-06 0.00129168355207543 0.00422541080993125 -0.00285663380447719 0 0.00164072794677864 1 0.00429097088446617 0.00368482429289244 0.00216461079230344 0 0 -0.000651854221997407 -0.00353593045727897 0.000872922703165166 0.00361255750264026 -0.00219299123814282 -0.00494556312290789 -0.00369902817266528 -0.00539885529387241 -0.00291121163774476 -6.5081002339194e-05 -0.000195146166762228 0.00202954394860022 0.00548006354065126 0.00191225466687291 0.00768144786949899 0.00136623968061543 0.00592645599107978 0.00238660846266367 0.00276257013713126 0.00175854279374156 0.0006531195820189 0.00447528250633694 0.00234670719291175 0.0027621353833458 0.00131500326137221 0.00237407638309279 0.00100889309364248 0.00689881375746008 0.00418125790485194 0.00485784364070715 0.00230432320266812 -0.000380319917428406 -0.00240016491864106 -0.00751652856651356 -0.00318394690752731 -0.000639447364982873 -0.00465259487880369 0.00310827671270622 0.00347495637162518 0.000802691644013232 -0.000589070846232987 0.00212373458100358 0.00208319846892478 0.000286924012632227 0.00115196548773438 -0.0027051746778402 0.00371687727806279 0.00401969477024925 0.00386344743015361 -0.00055515350047434 0.00440347201846218 -0.00342622854173157 -0.00517506058065783 1.01963056173518e-05 -0.00463187338081713 -0.00343730165472423 -0.00590867827881934 -0.00114046917993532 0.000132418703065006 -3.21812706280227e-05 0.00193778746924992 -0.00206953615175226 0.00229331302585061 -0.00133110043437557 -0.00183068749339101 -0.000107421723120752 -0.00209376834571468 0.00379837184387938 -0.00088402717343681 -0.00117685323750972 0.00649989930956618 0.00020581083884692 -0.00146811632510132 -0.00144316245660844 -0.000929410663853231 0.000774493765481971 -0.004703891884064 0.00394864265550762 -0.00325857683639061 0.000305910064546706 -0.0037316172935645 -0.000517732454643193 0.00122358941085414 0.000929049920747464 0.00103290920049918 -0.00197725273750299 -0.00941253927639012 -0.00429893976236447 -0.0022924824727564 -0.00646164549884778 -0.0032547637685514 0.000162686846074063 -0.00468905391307898 -0.00559341410317674 -0.00547311888100072 -0.00125714530320034 -0.00404057451042174 -0.00265580913682643 0 0.00219651632904632 0.00313884816827114 0.00296665446444022 0.0037650798129018 -0.000300852108045871 0.0017899033048781 -0.00139833101600391 -0.000161513119778535 -0.00491099616805135 0.00143747725276993 0.00201941342007949 -0.00220769133790904 -0.00140639894823149 -0.00418543711666839 0.00101839688040479 0.000909859143121814 -0.006874530110104 0.00188514319012461 0.00278054660978395 0.00230327008970934 -0.00474382382601868 0.00313569627493934 -0.00023932129456421 0.00485087850910417 -0.00335229042176255 -0.00304898124598066 0.000350957190673978 0.000823160050220844 -0.00238714967394162 -0.00504883810250958 -0.00466556167025949 -0.00452849701953583 -0.00225036323387115 -0.00898035274448966 -0.000382553075981457 0.00108039677976134 -0.00261473020657128 0.00251299685527889 -0.000785264847213548 0.000448889756913564 -0.00415688739426713 -0.0027370591130172 0.00296581833631157 0.00599644544780955 0.00652534893719635 -3.89401706893714e-05 0.00617408506788674 0.00336705276115864 0.00142911921169572 0.00531652360322734 0.00169125240371276 0.00364772342942398 -7.31264630369336e-05 0.000266363171573917 0 0.00770510169363898 0.00545290879528842 0.00575504039410358 -5.41189874348419e-06 0 0.00109323891093441 -4.19242776627243e-05 0.00257524776521813 -0.00213032741351316 0.00101841046271804 -0.00593137152750102 0.00134521142907531 0 0.00529412975265634 0.00172012288026221 0.00745105642366005 0.00734331471225577 0.00356477979216883 0.00322725968871159 0.00816092983674577 0.00666593661533938 0.0048419472039158 0.00398194514171784 0.00276295348344079 0.00169623790116768 0.00112204935318948 0.00336302667015343 0.00380671285528994 0.00707248527073243 0.00505025891470642 0.00566081657441456 0.00611015199829928 0.00316735538579331 0.00451190237980393 0.00142109369375376 0.00388827296932967 0.00505230609314364 -0.000411108025379697 0.000907218456023408 0.000708114393504531 0.00818038854988888 0.00403394271682057 0.00559791651706327 0.00180414048291334 0.00663558665206024 0.000975653128061585 -0.00146942811917391 -0.00402742781634419 0.000309397559805176 0.00277401640202161 -0.00023333437959372 0.0015790042470168 0.00384954967731625 -0.00149829380775856 -0.000786970232110813 -0.00166711029089735 0.000707578821289018 -0.00248994851393149 0.00137115101580878 0.00297346280264324 -0.00302460957072689 0.000600285367055126 0.00322838514959609 -0.00664859876368771 -0.00897121800657177 0.00104977519333033 -0.00225434297591436 0.00333387718127693 0.00289460852466028 0.0046358762083215 -0.00496197514186581 -0.00314151760538066 -0.00919303757308022 -0.00174662710496319 -0.00888144194783799 -0.00946434313896722 -0.000340378817821979 0.00111988610741361 0.00138204525442906 0.00145856705161194 0.0103887078954693 0.00726519332153794 0.0085310663172312 0.00886593195601512 0.00115569101598602 0.0035114266300637 0.00263472333265418 0.00332781811525867 -0.00124919391490822 0.00461321607092943 0.00285350283436584 0.000723949334914559 0.00220696186689907 0.000886261134542473 0.00257777495526595 -0.00271832490050198 0.000539927962442167 -0.000539228196126692 -0.00120300706447335 0.00234278921251958 -0.00714639969768072 -0.00322591043909116 -0.00206167432071227 -0.000987357021483688 -0.00676308653704909 -0.00308449315334762 0.0032533142052622 0.000344262641157443 0.0034670321653289 0.00130759402857267 -0.000467327564184311 0.00387241083129861 -0.00170632702172811 0.00149395651732397 -0.00200600919999532 0.00266626615854601 -0.000190744572721147 -0.00148644772930023 -0.00323439959677396 0.00270067541663256 0.00116243762563392 -0.00162473513354337 0.000979151277432729 -0.00148856904894708 0.000991370403444958 0.00239016249309504 -0.00151236183180179 -6.55876775645868e-05 0.00237847369351483 -0.00416849132923944 0.000183057883725856 -0.00295166479373978 -0.00108089378006007 0.00110923014106028 0.00546342154875666 -9.51525201211023e-05 0.00777364995481945 0.00285962226217311 2.59505396546254e-05 -0.00327659346253541 0 -0.000129603080021511 0.00341898728082094 0.00381005171887347 0.00312679490361708 -0.000406352421523739 0.00399240518698834 -0.00284048166406071 -0.00408904358031332 -0.00575241099817082 0.00618904171701325 -0.00421939658141506 -0.000766846502378978 0.00242875056725609 -0.00106889999928475 0.0013374224870361 -0.00320866239233336 -0.00086838866567756 -0.00225473226353467 -0.000223673854981242
-0.000113508359714799 0.00455052970451605 0.00395300627798754 0.000821276099699632 0.00261791466096109 -0.00254445614982285 0.00203937747301587 0.00225752498268182 -0.00210181072608267 0.00267387841729699 -0.00340035906369114 0 0.000893588717684258 0.00429097088446617 1 0.00449243816025268 0.00454549136256435 0 0 -0.00177628371407008 0.00173786481394781 0.00642689386136004 0.00982458765587861 -0.00233659042348366 -0.00547081083814681 -4.4870747768191e-05 0.00177860297910227 0.00100465223336139 -0.00209803513496147 0.00553623398950195 0.004005945664145 0.00821263208661669 0.00372818249674699 0.0101561661412512 0.00485501381011759 0.00726735393628336 0.00538256821922588 0.0052898665618796 0.00646813311164304 0.00499543703433066 0.00462359494582266 -0.000270309210118551 -0.000378374805784581 -0.00139380376489798 0.00490581455621039 0.00485668469894203 0.00642516021452313 0.00544749748386361 0.00583862051659114 0.00710301541028556 -0.00111641974914529 -0.00540517947513302 0.00237926585972231 0.00234402947701838 -0.00615720265298283 -0.00120817243542531 0.0083010567080295 0.00709271780539517 0.00861406869083565 -0.00288407420064477 -0.00249912946910949 -0.00306731927825043 0.00131083954629465 -0.000198613210902705 -0.00484943346646329 0.0072810259310844 0.000158039518917066 0.00588439770454031 0.00235372743097265 0.00398327906451946 -0.000303842910797249 -0.00305066037461867 -0.000895796466366356 -0.000810996208918656 -0.0011984868189251 -0.000111253631448258 0.00711035347759406 -0.000640405696506163 0.00271596578785678 -0.00363780012038162 -0.00131762992053947 -0.00335201273652587 -0.00474901937279857 -0.00715455487630812 -0.00333197367980438 -0.00145762311766745 0.0034753443828284 0.00261401461705185 0.00313022469282996 0.00630613175697668 0.00270492339332847 0.00355448045550063 6.18588014215425e-05 -0.000560026185724781 0.00183161768194914 -0.000895956642727189 0.00324396321881151 -0.00217788004713632 -0.000348347441075547 -0.00309203922760127 0.00734628020098343 0.00598388922633636 -0.000376510070658437 0.00226251223139889 0.00304354841345079 0.00442250597796013 0.00402308447502167 0.00262384777749244 0.000230894892117288 0.00201150441616862 0.00159805599093374 0.00200086995865116 0.003763993765673 -0.00526176473398388 0.000744029444105804 -0.00840832627090927 -0.00779376032694615 0 0.00171256235144296 0.00138165634088277 0.000612381996363389 -0.000284790276730959 -0.0061093574135604 -0.00157424530530661 -0.00630122435260208 -0.00291036830961124 -0.00363669953968647 -0.00111528796465021 -0.000225683399391989 -0.00298680485392088 -2.17152660171626e-05 -0.00337557376904687 -0.00530289736259115 -0.00117936932803585 -0.00103297539610057 -0.00296856908222469 0.00663660539495302 -0.00296698344713099 -0.00557770566497688 -0.00112095175422129 -0.000588669311480558 -0.000481103145274878 -0.00250306436254065 0.000764388880148661 -0.00357386524692803 -0.00166996708995931 -0.00185775474182425 0.00136874919443595 -0.00122987152658033 -0.00245946172458562 0.00204408266588325 -0.00619368915619774 -0.000395024557799979 -0.00326936471236328 -0.00377918987413477 -0.00160611697671935 -0.00140270053632314 0.00241722001960075 0.000467471218082555 -0.000448653903721182 0.00297728904647395 0.000424965816226653 0.00808199989081046 0.00557169827842058 0.000910310013374677 0.00531486795339411 -0.00327910312375636 0.0011498834258858 -0.00404945274388358 0.000650207508269174 0.00538547767930695 -0.00328828703176808 0 0.00734226895058594 0.00632469838270792 0.00518263521346449 -0.000291157324031892 0 0.00237948966698858 -0.00216142915004635 0.0040794479852312 -0.00276747488898049 0.0044025678481348 -0.00844029114999749 0.000875722264261252 0 0.00244797626291087 0.00155759126856513 0.00334366142600735 0.00479390005140972 0.00782252914029973 0.00822349152783505 0.00495530590289476 0.0102555123150494 0.008347162440525 0.00801336792734028 0.00427938978130627 0.00493933435557332 0.000424169313867026 -0.00463867028497706 0.00222680225254582 0.00667966790144594 0.00207151613107894 0.00616921994043054 0.00701963230437497 0.00730867062473594 0.00420528529687081 -0.000764048447599812 0.00439804779813239 -0.000518627995137767 -0.004243026865269 0.00213777989287963 -0.00221046057859315 0.00507361942236694 0.00605260913631314 0.00542303482119674 -0.00053520543928024 0.00232808625943534 -0.00454129463256733 -0.00404278171563475 -0.0058360014428033 -0.00278141919381467 0.00457869318991222 0.000283782752776047 -0.00427495568094523 -0.00477628272789783 -0.000510822231132406 -0.00129122643388602 -0.00805253544618241 0.00191342092979828 -0.0052375185178998 -0.00137240686628857 -0.00116482658297916 -0.000960619625952189 -0.00615950648781062 0.0015908083916844 -0.00583856389807636 -0.00264313754321874 0.00414005342807478 -0.00299849185245631 -0.000166569408675237 -0.0015913311899864 -0.000547424428219688 0.000981851860170235 -0.00697724233797726 -0.00703819472397939 -0.00438319325942458 -0.0103294692886731 -0.00766189684088297 0.00247136994239351 0.00421134084937816 0.00342062024961748 0.00199276946894706 0.00215721944210478 0.00485641942697844 0.0067338997705355 0.00267205734183496 0.00311787541980527 -0.00131926060692211 -0.00245973328642153 0.00322073119059612 0.00028555820776393 0.00628198778014 0.00487021284525286 -0.000692846443774339 -0.00296445070529255 -9.75843809719156e-05 0.00935453203329276 0.00325813883040456 -0.00148738257794676 0.00101221858815167 -0.00894454454808799 -0.00100363975620557 -0.00278679211969504 -0.000918672724201925 -0.00085985281472919 -0.0065046343668298 -0.00480672520189692 -0.00838576092712108 -0.0040992943618288 -0.00459416145627328 0.00493262302680822 -0.0043537341883596 -0.00356619500759843 -0.00134310532162022 -0.00663347701278716 -0.00140024185458949 -0.00809599152159537 -0.000978401650301335 -0.00474015425912425 -0.00321048694600672 0.00030170115171077 -0.00201641749726187 -0.00395831133039567 -0.00264577894115812 0.00152919444364928 -0.00478759153922205 -0.000943537921854586 -0.00504995108982411 -0.00135532613593376 -0.00366502503313927 -0.00293318547157399 -0.00688007544480376 -0.00546206317827217 -0.0031673936662494 -0.00298847126834105 0.00150202838585314 0.00521748437903849 -0.000195342918207462 0.00662805777232956 0.00654058948478991 -0.00253779743045141 -0.0020187704694894 0 -0.00420677825102434 -0.00243443438600055 -0.00378404272792447 -0.00436997338835571 -0.00188652165119865 -0.00240975323340047 -0.00433504424783769 -0.0037782500445994 -0.00126752734767111 -0.00449480859598949 -0.00552584786937623 -0.00528348265248935 -0.00419874123066186 -0.00130184034255241 -0.00112084873054973 -0.00308271192079807 0.000497832818427386 -0.00321646696588357 -0.00845378894331366
